svm_type c_svc
kernel_type rbf
gamma 0.5
nr_class 17
total_sv 827
rho -0.521558 -0.715302 -0.669832 -0.0702508 -0.569205 -0.60588 -0.200315 -0.828687 -0.619905 -0.71511 -0.357333 -0.465275 -0.557912 -0.646121 -0.38501 -0.391352 -0.434968 -0.262784 0.296421 -0.125641 -0.040863 0.263208 -0.497021 -0.217586 -0.317033 0.0989001 -0.0767484 -0.0928096 -0.0983784 -0.0784968 -0.0500727 0.198998 0.631626 0.44203 0.315156 0.728429 0.698785 0.675438 0.173311 0.549547 0.410527 0.350293 0.273229 0.65005 0.396941 0.536241 0.597319 0.439656 0.713932 0.104977 0.183393 0.142558 0.782489 0.121922 0.0357391 0.175449 0.615911 0.696927 -0.374835 -0.375147 -0.117263 -0.612652 -0.475752 -0.507082 -0.2263 -0.328447 -0.329304 -0.412205 -0.200584 -0.273522 -0.26127 0.201282 -0.258325 -0.189353 -0.200626 0.247972 -0.268163 -0.214527 -0.305413 0.211925 0.0864796 0.523104 -0.193979 0.24188 0.128522 0.751743 -0.112598 0.0614554 -0.160253 0.401076 0.333167 -0.685839 -0.562032 -0.652125 -0.237244 -0.313278 -0.379143 -0.395639 -0.0762494 -0.210052 0.236614 0.0475417 0.568431 0.255967 0.343736 0.351092 0.634221 0.372857 -0.272107 0.195088 0.081689 0.118446 0.101969 0.292038 0.166699 0.508302 0.295594 0.316761 -0.08882 0.431595 0.215915 -0.352224 -0.251548 -0.445293 -0.000441034 -0.198304 -0.284718 -0.0942892 0.315087 0.27748 -0.154904 0.234285 0.301511 0.431264 0.439727 -0.134374
label 0 1 2 3 4 5 6 7 8 9 10 11 12 13 14 15 16
nr_sv 54 39 55 47 37 43 54 40 55 55 53 55 44 49 40 54 53
SV
0.9583299751359745 0.04283732261343382 0.124543993914055 0.7878094289098431 0.4627134755331768 0.3588676043498504 0.3280350140203266 0.6008896649781379 0.1294038756525618 0.1652422063764886 0.4998432320559088 0.288815121041581 0.4449296794522417 0.5403428046606641 0.6781377399772736 0.4734305285872158 0:0 1:0.18257152 2:0.13138896 3:0.065632775 4:0.080139078 5:0.96008855 6:0.092524871 7:0.085982718 8:0.030768218 9:0 10:0 11:0.45041084 12:0.13128655 13:0.098876007 14:0.11921158 15:0.85170019 16:0.15480456 17:0.06958843 18:0.04124045 19:0 20:0 21:0.45835802 22:0.17823711 23:0.19253302 24:0.44949478 25:0.62501562 26:0.25017697 27:0.19636364 28:0.16499239 29:0 30:0 31:0.48654911 32:0.048101425 33:0.1169243 34:0.07034944 35:0.83606148 36:0.13562599 37:0.14350528 38:0.065898493 39:0 40:0 41:0.92026824 42:0.24531613 43:0.1062617 44:0.1003676 45:0.23394932 46:0.017895998 47:0.11601148 48:0.055171907 49:0 50:0 51:0.5465709 52:0.24519606 53:0.2500321 54:0.10510118 55:0.7484144 56:0.068629026 57:0.025860272 58:0.045432746 59:0 60:0 61:0.33738875 62:0.0064110118 63:0.032845899 64:0.038152043 65:0.93373525 66:0.079730906 67:0.057787586 68:0.045048606 69:0 70:0 71:0.93989843 72:0.025576221 73:0.054905526 74:0.00098196487 75:0.33511063 76:0.00030478247 77:0.024815412 78:0.00052482251 79:0 80:0 81:0.67423451 82:0.069383413 83:0.14872545 84:0.10238432 85:0.66284317 86:0.15408801 87:0.18433166 88:0.10435744 89:0 
0 0 0 0.587503402575643 0.03083896331809626 0 0 0 0 0 0 0.01389978950825921 0 0 0 0 0:0 1:0.0022949011 2:0 3:0 4:0.024298241 5:0.96875727 6:0.24676481 7:0 8:0 9:0 10:0 11:0.99747097 12:0 13:0 14:0.0064917807 15:0.070454493 16:0.0065462822 17:0 18:0 19:0 20:0 21:0.99999785 22:0 23:0 24:0 25:0 26:0 27:0 28:0 29:0 30:0 31:0.00067830272 32:0 33:0 34:0.015266828 35:0.99798691 36:0.061513659 37:0.00027006687 38:0 39:0 40:0 41:0.90585929 42:0 43:0 44:0.026546672 45:0.41821185 46:0.061404452 47:0.0063230507 48:0 49:0 50:0 51:0.99475867 52:0 53:0.0044745961 54:0.0044396902 55:0.10160064 56:0.0095324945 57:0 58:0 59:0 60:0 61:0.5131892 62:0 63:0 64:0.033326123 65:0.85354865 66:0.024060765 67:0.07997331 68:0 69:0 70:0 71:0.76211488 72:0 73:0 74:0.010109439 75:0.64731759 76:0.0073530502 77:0.00027016283 78:0 79:0 80:0 81:0.99999887 82:0 83:0 84:0 85:4.1686464e-05 86:3.9075981e-05 87:0 88:0 89:0 
0 0 0 0 1 0 0 0 0 0 0 0 0 0 0 0 0:0 1:0.68071043 2:0.006102764 3:0.052887768 4:0.0098298928 5:0.72726882 6:0.048620697 7:0.033277348 8:0.036135238 9:0 10:0 11:0.80364358 12:0.0040534963 13:0.073987946 14:0.0002519337 15:0.58261436 16:0.050677132 17:0.080368869 18:0.01401809 19:0 20:0 21:0.99999893 22:0 23:0 24:0 25:6.579078e-05 26:0 27:0 28:0 29:0 30:0 31:0.99462605 32:0 33:0 34:0 35:0.10169878 36:0.0051729362 37:0.018645905 38:4.1860847e-05 39:0 40:0 41:0.95838201 42:0.0028051066 43:0.040594686 44:0.0045182635 45:0.28210306 46:0.01108372 47:0.0090105124 48:0.0062547806 49:0 50:0 51:0.97834605 52:0 53:0.07016331 54:0 55:0.18895766 56:0.020957185 57:0.04204049 58:0 59:0 60:0 61:0.99999869 62:0 63:0 64:0 65:0 66:0 67:0 68:0 69:0 70:0 71:0.99912292 72:0 73:0.023073027 74:0 75:0.033361711 76:0 77:0.010259773 78:0 79:0 80:0 81:0.99003589 82:0 83:0.05252371 84:0.052390903 85:0.013615448 86:0.11811745 87:0.00021524295 88:0.013301588 89:0 
1 0.2722824625669387 0.2459494658499186 0.6240296233045869 0 0.7513821926146992 1 0 0 0.6978589428785359 1 0.9648682088248576 1 0.6194841227886573 0.6829180029943573 0.7707847682260526 0:0 1:0.38985786 2:0.47697333 3:0.2489057 4:0.50305194 5:0.3654325 6:0.23910573 7:0.17219265 8:0.29175064 9:0 10:0 11:0.71868354 12:0.001576583 13:0.16336159 14:0.048461087 15:0.42284474 16:0.08036346 17:0.33383429 18:0.39716923 19:0 20:0 21:0.88817358 22:0.091831952 23:0.10036066 24:0.0020715594 25:0.15730678 26:0.087429024 27:0.18131901 28:0.35687906 29:0 30:0 31:0.81223571 32:0.10719776 33:0.21220861 34:0.29459128 35:0.33782905 36:0.11601608 37:0.24027918 38:0.1078634 39:0 40:0 41:0.11347303 42:0.01247507 43:0.14515702 44:0.0072797798 45:0.84709054 46:0.14430246 47:0.44767031 48:0.1643935 49:0 50:0 51:0.74238247 52:0.24870566 53:0.38125622 54:0.076326832 55:0.29158834 56:0.18049268 57:0.2764459 58:0.20443562 59:0 60:0 61:0.98894101 62:0.017614124 63:0.083666332 64:0.033475962 65:0.08295159 66:0.010241083 67:0.056003898 68:0.058633421 69:0 70:0 71:0.94167054 72:0.13395219 73:0.09304896 74:0.099803314 75:0.21370807 76:0.12573145 77:0.12265755 78:0.012718424 79:0 80:0 81:0.22912431 82:0.22068508 83:0.53485703 84:0.39853176 85:0.58422101 86:0.1919093 87:0.25562295 88:0.10198528 89:0 
0 0 0 0 1 1 0 0.4547385284395309 1 0.3088754129531488 0 1 0 0 1 0.4099752957406074 0:0 1:0.6435079 2:4.0072373e-05 3:0.0046959431 4:0.030527947 5:0.75694907 6:0.098315172 7:0.037746754 8:0.029616991 9:0 10:0 11:0.93768662 12:0.013662896 13:0.014850386 14:0.094509915 15:0.31402814 16:0.10747279 17:0.017398572 18:0.030575698 19:0 20:0 21:0.99756032 22:0 23:0 24:0.00023480751 25:0.069787428 26:0 27:0 28:0 29:0 30:0 31:0.95476097 32:0 33:0.00027232393 34:0.01033465 35:0.29624081 36:0.016399356 37:0.017154366 38:0 39:0 40:0 41:0.9883607 42:0 43:0.00021125506 44:0.0037176649 45:0.15201566 46:0.0042312709 47:0.00021278087 48:0.00018315364 49:0 50:0 51:0.99961048 52:0 53:0.0048976121 54:0 55:0.025501359 56:0.0087819248 57:0.0048976121 58:0 59:0 60:0 61:0.99999738 62:0 63:0 64:0 65:0.00026500574 66:0.0013598534 67:0.00060766109 68:0 69:0 70:0 71:0.99999845 72:0 73:0 74:0 75:0 76:0 77:0 78:0 79:0 80:0 81:0.99857557 82:0.040614489 83:0.0046862871 84:0.020307245 85:0.027336672 86:0 87:0 88:0 89:0 
0.1633926923585319 0 0 0 0 0.04361278337292277 0 0 0 0.3012996447020245 0.8190640842988786 0 0.4915436026880598 0 0.4303303555299583 0.4998787600474254 0:0 1:0.43286645 2:0.30760244 3:0.17770046 4:0.29714474 5:0.62423813 6:0.22389384 7:0.27087861 8:0.29146355 9:0 10:0 11:0.94714862 12:0 13:0 14:0 15:0.19828844 16:0.096030682 17:0.19218881 18:0.13202181 19:0 20:0 21:0.94556117 22:0.11844599 23:0.11949736 24:0.12949015 25:0.078386642 26:0.088656142 27:0.18229339 28:0.11661288 29:0 30:0 31:0.78986382 32:0.10256217 33:0.18555871 34:0.25058272 35:0.51115531 36:0.064234935 37:0.033959188 38:0.042540319 39:0 40:0 41:0.88609517 42:0.00010938852 43:0.005907604 44:0.011005429 45:0.44767904 46:0.041330934 47:0.10554369 48:0.037576057 49:0 50:0 51:0.98231626 52:0.15677468 53:0.040840331 54:0.070849866 55:0.04312272 56:0.043851975 57:0.0017703057 58:0 59:0 60:0 61:0.99036014 62:0.07378491 63:0.028576091 64:0.040902399 65:0.063271634 66:0.066384241 67:0.032409776 68:0.04231124 69:0 70:0 71:0.50967425 72:0.024325473 73:0.015508975 74:0.074006274 75:0.69902337 76:0.32936838 77:0.29468262 78:0.22352527 79:0 80:0 81:0.91050649 82:0.15395223 83:0.15929466 84:0.24970105 85:0.17055719 86:0.14015019 87:0.092470273 88:0.047590159 89:0 
0 0 0 0 0.04137858717469138 0 0 0 0 0 0 0 0 0 0 0 0:0 1:0.27326384 2:0.0018982448 3:0.026563864 4:0.040411901 5:0.95947868 6:0.039805792 7:0.025955256 8:0.011147467 9:0 10:0 11:0.56024241 12:0.040853269 13:0.029880729 14:0.044406906 15:0.81967324 16:0.036114179 17:0.08367043 18:0.037710141 19:0 20:0 21:0.94865227 22:0.046857122 23:0.059588477 24:0.083210491 25:0.26502723 26:0.11689606 27:0.058177199 28:0.0098205674 29:0 30:0 31:0.85831332 32:0.00030048544 33:0.0044585383 34:0.017051911 35:0.50656444 36:0.061926939 37:0.050388873 38:0.0016322861 39:0 40:0 41:0.99295855 42:0.016256731 43:0.015588976 44:0.008835284 45:0.11532327 46:0.011509443 47:0.0025970133 48:0.0025593059 49:0 50:0 51:0.97245431 52:0.023384599 53:0.022913083 54:0.024626955 55:0.22941934 56:0.0040826574 57:0.001133658 58:0.00016279951 59:0 60:0 61:0.99428385 62:0 63:0 64:0.012702602 65:0.091821074 66:0.023574816 67:0.047402497 68:0.00078703254 69:0 70:0 71:0.99987823 72:0.01551511 73:0 74:0.00010827428 75:0 76:0 77:0 78:0 79:0 80:0 81:0.96702099 82:0 83:0.00056943198 84:0.017328456 85:0.23785697 86:0.026115246 87:0.055781472 88:0.064750947 89:0 
0 0 1 0 1 0 0 0 0.1677858398474876 0 0 0 0 0 0 0 0:0 1:0.76154846 2:0 3:0 4:0 5:0.64319664 6:0.049690466 7:0.062094711 8:0.0034903737 9:0 10:0 11:0.85121548 12:0.0038202582 13:0 14:0.03607326 15:0.52292907 16:0.00078897609 17:0.025629535 18:0.0012462522 19:0 20:0 21:0.99102366 22:0 23:0 24:0.0081774602 25:0.13321443 26:0.0075621358 27:2.0055282e-05 28:0 29:0 30:0 31:0.99999899 32:0 33:0 34:0 35:0 36:0 37:0 38:0 39:0 40:0 41:0.98053032 42:0 43:0 44:0 45:0.19462976 46:0.016421679 47:0.020204054 48:0 49:0 50:0 51:0.98152852 52:0.0037141982 53:0 54:0.0121777 55:0.19088545 56:0 57:0 58:0 59:0 60:0 61:0.99999785 62:0 63:0 64:0 65:0 66:0 67:0 68:0 69:0 70:0 71:0.99999887 72:0 73:0 74:0 75:0 76:0 77:0 78:0 79:0 80:0 81:0.99999827 82:0 83:0 84:0 85:0 86:0 87:0 88:0 89:0 
0 1 1 0 0.658687870125727 1 1 1 1 1 1 1 1 1 1 0.9824390024703942 0:0 1:0.75102133 2:0.21332072 3:0.20508826 4:0.41329426 5:0.31733796 6:0.18174072 7:0.14056188 8:0.15521003 9:0 10:0 11:0.99055773 12:0 13:4.9811675e-05 14:0.014176808 15:0.058086149 16:0.046741314 17:0.091090463 18:0.068815455 19:0 20:0 21:0.99647772 22:0.043351069 23:0.018339304 24:0.010627725 25:0.019705284 26:0.010720716 27:0.031704128 28:0.056502547 29:0 30:0 31:0.95757675 32:0.070690945 33:0.14745548 34:0.18995732 35:0.14191061 36:0.0089885332 37:3.3385033e-05 38:0 39:0 40:0 41:0.92162949 42:0.027154131 43:0.2079875 44:0.25807896 45:0.19647005 46:0.023943204 47:0.028580952 48:0.0014936763 49:0 50:0 51:0.98547095 52:0.10249441 53:0.11243647 54:0.065324292 55:0.024498133 56:0.0023889069 57:0.02843461 58:0.0039210175 59:0 60:0 61:0.99925804 62:5.6022986e-05 63:0.0054421891 64:0.015122905 65:0.011976924 66:0.030345064 67:0.00064981286 68:0.01257548 69:0 70:0 71:0.95187765 72:0.0061707064 73:0.056472756 74:0.082730278 75:0.13739255 76:0.14955328 77:0.11802172 78:0.16935791 79:0 80:0 81:0.62717092 82:0.22154906 83:0.41134533 84:0.52739495 85:0.26406482 86:0.12369002 87:0.14370574 88:0.067337885 89:0 
1 1 1 0.8680867228254645 1 1 1 1 1 1 1 1 1 1 1 1 0:0 1:0.92032844 2:0.0015522708 3:0.051040176 4:0.029691217 5:0.33005968 6:0.13496742 7:0 8:0.14942986 9:0 10:0 11:0.98434359 12:0.013862924 13:0 14:0.015217159 15:0.14945024 16:0.088829979 17:0.020273326 18:0 19:0 20:0 21:0.9902581 22:0.068746716 23:0.023605056 24:0.027317218 25:0.053638127 26:0.0083390614 27:0.047225039 28:0.090419658 29:0 30:0 31:0.99102467 32:0.013248449 33:0 34:0.024993269 35:0.12941398 36:7.2840165e-05 37:0 38:0.017745342 39:0 40:0 41:0.98814362 42:0.00061456033 43:0 44:0.011755064 45:0.13572825 46:0.05343502 47:0 48:0.046341889 49:0 50:0 51:0.99470842 52:0.063133635 53:0.02203984 54:0.02904984 55:0.070951983 56:0.010063659 57:0.0099183349 58:0 59:0 60:0 61:0.99844402 62:0.012274956 63:0.0036506653 64:0.0028467912 65:0.049998384 66:0.014859783 67:0 68:0.014490061 69:0 70:0 71:0.94377863 72:0.019738855 73:0 74:0.03723745 75:0.28575954 76:0.076911323 77:0.13467585 78:0.042234462 79:0 80:0 81:0.79769939 82:0.11619634 83:0.23020492 84:0.1651721 85:0.48384649 86:0.12654333 87:0.11772788 88:0.076854333 89:0 
1 0 1 0 0 1 0.3138756940427028 0.4917799752610774 1 1 1 0.3061407078603625 1 1 0.3549592094309472 0.5196690192929344 0:0 1:0.64814699 2:0.36200884 3:0.19557901 4:0.27416289 5:0.36222303 6:0.26980588 7:0.22584674 8:0.2835879 9:0 10:0 11:0.77049524 12:0.00039751537 13:0.036321577 14:0.0066121486 15:0.56940621 16:0.23407355 17:0.13121445 18:0.093487285 19:0 20:0 21:0.96079248 22:0.059572563 23:0.05255194 24:0.1238802 25:0.18707447 26:0.13242537 27:0.043156903 28:0.028680868 29:0 30:0 31:0.92835349 32:0.16539688 33:0.082377255 34:0.15653367 35:0.28019273 36:0.031685408 37:7.227825e-05 38:0 39:0 40:0 41:0.86164916 42:0.031633843 43:0.039120145 44:0.095794782 45:0.47128487 46:0.13696243 47:0.070581011 48:0.00038568582 49:0 50:0 51:0.93143225 52:0.060117517 53:0.15788776 54:0.060705941 55:0.3140099 56:0 57:0.039021865 58:0.0088893585 59:0 60:0 61:0.97970301 62:0.024424352 63:0.073256306 64:0.050433528 65:0.12629612 66:0.10859062 67:0.060193092 68:0.017516077 69:0 70:0 71:0.93995899 72:0.012564535 73:0.0042890301 74:0.029773422 75:0.27133614 76:0.1238379 77:0.099812239 78:0.12841406 79:0 80:0 81:0.9391917 82:0.13932306 83:0.090573229 84:0.1079895 85:0.18644929 86:0.11853189 87:0.09162683 88:0.14639424 89:0 
0 0 0 0 1 0 0 0 0 0 0 0 0 0 0 0 0:0 1:0.63851744 2:0 3:0 4:0 5:0.76342303 6:0.09362679 7:0.02661993 8:0 9:0 10:0 11:0.8625443 12:0.0083477488 13:0 14:0.0097661847 15:0.50551683 16:0.017380452 17:0.00069259253 18:0 19:0 20:0 21:0.99848896 22:0 23:0 24:0 25:0.054938938 26:0 27:0 28:0 29:0 30:0 31:0.87656802 32:0 33:0 34:0 35:0.4800435 36:0.015696874 37:0.030613504 38:0 39:0 40:0 41:0.97418296 42:0 43:0 44:0 45:0.22491294 46:0.017499864 47:0.0085706692 48:0 49:0 50:0 51:0.99130702 52:0.006739086 53:0 54:0.0078841811 55:0.13115194 56:0 57:0 58:0 59:0 60:0 61:0.99999845 62:0 63:0 64:0 65:0 66:0 67:0 68:0 69:0 70:0 71:0.99999887 72:0 73:0 74:0 75:0 76:0 77:0 78:0 79:0 80:0 81:0.97661036 82:0 83:0.0010409888 84:0.019359207 85:0.20857501 86:0 87:0.00081202184 88:0.048453331 89:0 
1 0 0 0.1967712821943112 0 0 0.2059373675788893 0 0 0 0.5491656212558327 0 0.573295367680196 0.1924327430863057 0 0.4337712558085745 0:0 1:0.31762803 2:0.076955296 3:0.025601752 4:0.092405014 5:0.93644887 6:0.064718865 7:0.03642071 8:0.039135572 9:0 10:0 11:0.68005675 12:0.013397183 13:0.12765415 14:0.071872778 15:0.62317288 16:0.28970945 17:0.15497714 18:0.13991193 19:0 20:0 21:0.992257 22:0.053629719 23:0.029962065 24:0.023185579 25:0.060055412 26:0.010390813 27:0.016449818 28:0.084398501 29:0 30:0 31:0.80457646 32:0.042845219 33:0.019227039 34:0.084753208 35:0.58141297 36:0.044755954 37:0.036404204 38:0.043363217 39:0 40:0 41:0.50632381 42:0.043582644 43:0.038823143 44:0.056229785 45:0.85099602 46:0.078483298 47:0.080703698 48:0.013909085 49:0 50:0 51:0.94180119 52:0.12320148 53:0.16042092 54:0.17382792 55:0.20231418 56:0.030568393 57:4.5343698e-09 58:0.0026446104 59:0 60:0 61:0.9991138 62:0.00040703805 63:3.1762768e-09 64:0.0046328991 65:0.027986482 66:0 67:0.030952053 68:0.00091466057 69:0 70:0 71:0.96573871 72:0.022249764 73:9.9858204e-05 74:0.047903921 75:0.093824275 76:0.10233585 77:0.18025422 78:0.11305757 79:0 80:0 81:0.34805867 82:0.24779527 83:0.30630356 84:0.24005312 85:0.73852915 86:0.24651581 87:0.19290136 88:0.1502866 89:0 
0.1742454309743129 0.08755506876402672 0.1160182977986005 0.3747169955505546 0.1093092828820084 0.1885722216235144 0.438237797613734 0.01974541110813315 0.1644400291662832 0.08206257178655112 0.3455036660884779 0.1961742222541298 0.181565090035122 0.2164935112524047 0.1984011620446076 0.1870157327160272 0:0 1:0.13907459 2:0.011912726 3:0 4:0.025617816 5:0.97931528 6:0.098189645 7:0.099621154 8:0.034910243 9:0 10:0 11:0.7570557 12:0 13:0 14:0.0033348794 15:0.65111315 16:0.021976896 17:0.046581164 18:0.015650289 19:0 20:0 21:0.99999571 22:0 23:0 24:0 25:0 26:0 27:0 28:0 29:0 30:0 31:0.057856139 32:0.0059700627 33:0 34:0.005167108 35:0.99755639 36:0.036823206 37:0.0056378255 38:0.008523576 39:0 40:0 41:0.92621559 42:0 43:0 44:0.0079719368 45:0.37609982 46:0.011326291 47:0.014193207 48:0.016494565 49:0 50:0 51:0.025641978 52:0 53:0.015174001 54:0.059802014 55:0.99754006 56:0.013539253 57:0 58:0.016009443 59:0 60:0 61:0.018896634 62:0.0033494167 63:0 64:0.046212647 65:0.99430203 66:0.093957931 67:0 68:0.0017859797 69:0 70:0 71:0.99905574 72:0 73:0 74:0 75:0.042621635 76:0 77:0 78:0 79:0 80:0 81:0.99999452 82:0 83:0 84:0 85:0 86:0 87:0 88:0 89:0 
1 0 0.3566655087947848 0 0 0.8447541189562625 0.6494841348374714 0 0.2511492694351181 0.7685553753896726 0.7753230979782461 0 1 1 0 0 0:0 1:0.54251713 2:0 3:0.09497194 4:0.64361489 5:0.52309471 6:0.058051698 7:0.067646362 8:0.028341781 9:0 10:0 11:0.89329052 12:0 13:0.014398754 14:0.17155805 15:0.38722566 16:0.098441966 17:0.059365865 18:0.095961004 19:0 20:0 21:0.98308909 22:0.078908123 23:0.078385592 24:0.028094616 25:0.084623367 26:0.03414394 27:0.085531592 28:0.068667293 29:0 30:0 31:0.94694924 32:0.0036034649 33:0.095296651 34:0.15727477 35:0.2556859 36:0.001664784 37:0.063556567 38:0.0029600065 39:0 40:0 41:0.78998631 42:0.013927973 43:0.057591584 44:0.53187996 45:0.29468057 46:0.034712993 47:0.011340311 48:0.036362585 49:0 50:0 51:0.83088672 52:0.18556052 53:0.3267585 54:0.28921828 55:0.29111451 56:0 57:0.00052026549 58:0.0010443494 59:0 60:0 61:0.99901617 62:0.034735151 63:0.0021043285 64:1.8089638e-08 65:0.021991402 66:0.015622935 67:0.0023369158 68:0.00042775131 69:0 70:0 71:0.941782 72:0.0029707809 73:0.064185619 74:0.031564459 75:0.19617966 76:0.12777777 77:0.19866432 78:0.11668363 79:0 80:0 81:0.68441135 82:0.10971008 83:0.20574227 84:0.44066614 85:0.47247833 86:0.2187608 87:0.086468056 88:0.066610441 89:0 
0.1154161336970017 0 0 1 1 0 0 0 0 0 0 0 0 0 0 0.2218982146574044 0:0 1:0.0024161229 2:0 3:0 4:0 5:0.9988848 6:0.047084186 7:0 8:0 9:0 10:0 11:0.92094475 12:0 13:0 14:0 15:0.389687 16:0 17:0 18:0.0011405557 19:0 20:0 21:0.99837142 22:0 23:0 24:0 25:0.057031855 26:0 27:0 28:0 29:0 30:0 31:0.71353298 32:0 33:0 34:0 35:0.70002156 36:0.011889715 37:0.011797876 38:0.02355963 39:0 40:0 41:0.76986051 42:0 43:0 44:0 45:0.63772607 46:0.024836553 47:0 48:0 49:0 50:0 51:0.9997713 52:0 53:0 54:0 55:0.013401038 56:0.016589668 57:0 58:0 59:0 60:0 61:0.99999726 62:0 63:0 64:0 65:0 66:0 67:0 68:0 69:0 70:0 71:0.44620726 72:0 73:0 74:0 75:0.89492059 76:0 77:0 78:0 79:0 80:0 81:0.99999839 82:0 83:0 84:0 85:0 86:0 87:0 88:0 89:0 
0.7079872008248473 0.109702968767144 0.2823293768952816 1 0.2123480269872884 0.1219438935031255 0.5282432553959427 0.07496363675621116 0.0576387082271944 0 0.4011657569030453 0.1582356877799508 0.3246623153687928 0.2972911884142565 0.4530660947661148 0.6390742957754416 0:0 1:0 2:0 3:0 4:0 5:0 6:0 7:0 8:0 9:0 10:0 11:0.81799692 12:0.21641126 13:0.0377004 14:0.049326479 15:0.44191289 16:0.14986327 17:0.21288632 18:0.13078633 19:0 20:0 21:0.99999732 22:0 23:0 24:0 25:0 26:0 27:0 28:0 29:0 30:0 31:0.011538832 32:0.00055603922 33:0 34:0.0097041093 35:0.99986601 36:0.0048198868 37:0.0020806617 38:0.0007341801 39:0 40:0 41:0.35434678 42:0.086159877 43:0.055212542 44:0.040480033 45:0.91653144 46:0.11433794 47:0.089166299 48:0.035602488 49:0 50:0 51:0.66869843 52:0.17000586 53:0.030869143 54:0.071461633 55:0.68145615 56:0.16831845 57:0.13933423 58:0.075799525 59:0 60:0 61:0.98077923 62:0 63:0 64:0.025425002 65:0.18382357 66:0.06023664 67:0 68:0.00023889715 69:0 70:0 71:0.40612504 72:0.00060995703 73:0.0013253302 74:0.00470145 75:0.91133374 76:0.067087971 77:0.0013901922 78:0.00060732046 79:0 80:0 81:0.97230285 82:0.015435909 83:0.024089444 84:0.0087900208 85:0.2312699 86:0.014384095 87:0.0058825715 88:0.00054259005 89:0 
0.09180090530331547 0 1 0 1 0.1968411962490219 0 0 0.2600032874763556 1 0 0.3841882764608794 0 0 0 0 0:0 1:0.61440015 2:0.051083378 3:0.051076304 4:0.16806383 5:0.76666254 6:0.035494156 7:0 8:0 9:0 10:0 11:0.98641121 12:0 13:0 14:0.011583983 15:0.15099838 16:0.019926621 17:0.057343688 18:0.019214677 19:0 20:0 21:0.99477601 22:0.057181574 23:0.032847296 24:0.016195832 25:0.041864756 26:0.015714834 27:0.022065932 28:0.057613049 29:0 30:0 31:0.99000996 32:0.0029511251 33:0.01261355 34:0.032435052 35:0.13658623 36:4.8709739e-05 37:0 38:0 39:0 40:0 41:0.93212211 42:0.018562611 43:0 44:0.061070815 45:0.3561382 46:0.015277837 47:0 48:0 49:0 50:0 51:0.99484694 52:0.056122471 53:0.018126989 54:0.054978475 55:0.061273292 56:0.0045093829 57:0 58:0 59:0 60:0 61:0.99999791 62:0 63:0 64:0 65:4.2991949e-05 66:0 67:0 68:0 69:0 70:0 71:0.98685622 72:0 73:0.0034945353 74:0 75:0.12546042 76:0.044023857 77:0.090768911 78:0.013418674 79:0 80:0 81:0.7642014 82:0.1342386 83:0.16270299 84:0.18861367 85:0.53377736 86:0.15895772 87:0.14950386 88:0.058163594 89:0 
0.8347223862489956 0.1768651660754522 0.1943656861120886 1 0.275069627331527 0.2252477656309311 0.6346797024722657 0 0.2316587652397187 0.178225042794414 0.3718730166272775 0.323891152548209 0.248909473169994 0.1422820206112203 0.4780451528282287 0.2388668102665938 0:0 1:0 2:0 3:0 4:0.0024495223 5:0.99973732 6:0.022563456 7:0 8:0 9:0 10:0 11:0 12:0 13:6.7874717e-10 14:6.7874717e-10 15:0.9999975 16:2.7149887e-09 17:0 18:6.7874717e-10 19:0 20:0 21:0.40650225 22:0.091106072 23:0.019018242 24:0 25:0.90879142 26:0.013469956 27:0 28:0 29:0 30:0 31:0.017204851 32:0.018838167 33:0.011604535 34:0.020643642 35:0.99906701 36:0.025405729 37:0 38:0 39:0 40:0 41:0 42:5.4266969e-10 43:9.9976482e-05 44:0.00097097491 45:0.9999575 46:0.0089440066 47:0 48:1.0853394e-09 49:0 50:0 51:0.11074876 52:5.6642557e-10 53:1.1328511e-09 54:5.6642557e-10 55:0.99370259 56:0.0075596273 57:0 58:0.015119251 59:0 60:0 61:0.011243116 62:0.030641139 63:0.05409098 64:0.0099790711 65:0.99770439 66:0.022000374 67:0 68:0 69:0 70:0 71:0.11046176 72:1.216826e-09 73:1.216826e-09 74:1.216826e-09 75:0.9938758 76:1.216826e-09 77:0 78:2.4336519e-09 79:0 80:0 81:0.033241153 82:6.2267053e-10 83:0.00011471448 84:6.2267053e-10 85:0.99944502 86:1.2453411e-09 87:0 88:2.4906821e-09 89:0 
0.4765710714299702 0.2797742643448542 0.3248090441659297 1 0.4343141429473664 0.3901203396782744 0.7972909778445145 0.1685423815041425 0.4351068012147383 0.2810049380078233 0.639710648274465 0.5352013330981507 0.4399797163785307 0.3499007880582076 1 0.6064103424951088 0:0 1:0 2:0 3:0 4:0 5:0 6:0 7:0 8:0 9:0 10:0 11:0 12:0 13:0 14:0 15:0 16:0 17:0 18:0 19:0 20:0 21:0 22:0 23:0 24:0 25:0 26:0 27:0 28:0 29:0 30:0 31:0 32:0 33:0 34:0 35:0 36:0 37:0 38:0 39:0 40:0 41:0 42:0 43:0 44:0 45:0 46:0 47:0 48:0 49:0 50:0 51:0 52:0 53:0 54:0 55:0 56:0 57:0 58:0 59:0 60:0 61:0 62:0 63:0 64:0 65:0 66:0 67:0 68:0 69:0 70:0 71:0 72:0 73:0 74:0 75:0 76:0 77:0 78:0 79:0 80:0 81:0 82:0 83:0 84:0 85:0 86:0 87:0 88:0 89:0 
0 0 0 0 0 0 0 0.08064312732208645 0 0 0 0 0 0 0 0 0:0 1:0.23184806 2:0 3:0 4:0 5:0.96606064 6:0.026734797 7:0 8:0.1106888 9:0 10:0 11:0.83719027 12:0 13:0 14:0.013653074 15:0.54594052 16:0.020444687 17:0 18:0.021312362 19:0 20:0 21:0.99999863 22:0 23:0 24:0 25:0 26:0 27:0 28:0 29:0 30:0 31:0.10309778 32:0 33:0 34:0 35:0.99120122 36:0.055558208 37:0.016499776 38:0.059400778 39:0 40:0 41:0.88504088 42:0 43:0 44:0 45:0.46489176 46:0.0030608024 47:0 48:0.023798451 49:0 50:0 51:0.17241165 52:0.018627806 53:0.023431249 54:0.061980586 55:0.9820897 56:0.029347045 57:0 58:0.013120252 59:0 60:0 61:0.25143263 62:0 63:0 64:0 65:0.96056169 66:0.085389718 67:0.031236529 68:0.076338477 69:0 70:0 71:0.94156212 72:0 73:0 74:0 75:0.33682305 76:0 77:0 78:0 79:0 80:0 81:0.99999845 82:0 83:0 84:0 85:0 86:0 87:0 88:0 89:0 
1 0 0 0 0 0.2876044297138118 1 0 0 1 1 1 1 0.319368773621092 0 0.7172112392190966 0:0 1:0.33717981 2:0.21702665 3:0.38283151 4:0.24849534 5:0.64166981 6:0.15830313 7:0.29907152 8:0.3234899 9:0 10:0 11:0.98841369 12:0 13:0 14:0.003508907 15:0.095652997 16:0.079743899 17:0.054542441 18:0.067374811 19:0 20:0 21:0.9970904 22:0.056172717 23:0.00671094 24:0.015671965 25:0.01521266 26:0 27:0.0080804322 28:0.045446135 29:0 30:0 31:0.98681235 32:0.04802331 33:0.099119239 34:0.059202522 35:0.096132278 36:0.0093337577 37:0.033094283 38:0.011790494 39:0 40:0 41:0.8332004 42:0 43:0.022478664 44:0.026604107 45:0.53474349 46:0.055285577 47:0.10434224 48:0.068279698 49:0 50:0 51:0.99639344 52:0.078261822 53:0.01508953 54:0.027240381 55:0.000552374 56:0 57:0.010128113 58:5.2295582e-05 59:0 60:0 61:0.99963844 62:0.00011031546 63:0.0078440709 64:0.012943969 65:0.0071690022 66:0 67:0.002943126 68:0.020780429 69:0 70:0 71:0.92163336 72:0.037598778 73:0.046262562 74:0.025634276 75:0.28437245 76:0.14640526 77:0.16459024 78:0.130326 79:0 80:0 81:0.68210596 82:0.29828247 83:0.24498831 84:0.39844465 85:0.30678973 86:0.20846541 87:0.13422868 88:0.26716653 89:0 
0.1208578838832054 0 1 0 0 0 0 0 0 0 0 0 0.03481621795054535 0 0 0 0:0 1:0.88874888 2:0.021808147 3:0.016446976 4:0.016446976 5:0.45338935 6:0.057881124 7:0.0047904486 8:0.013044769 9:0 10:0 11:0.91189331 12:0 13:0.0018305717 14:0.024987653 15:0.4084782 16:0.031088192 17:0 18:0 19:0 20:0 21:0.99999797 22:0 23:0 24:0 25:0 26:0 27:0 28:0 29:0 30:0 31:0.98817503 32:0 33:0 34:0 35:0.15128745 36:0 37:0.02480619 38:0.0022259685 39:0 40:0 41:0.96669322 42:0.014655767 43:0.013373386 44:0.037799668 45:0.25087523 46:0.025769724 47:0 48:0.0087664993 49:0 50:0 51:0.66152954 52:0 53:0.0060779578 54:0.082965285 55:0.74525583 56:0.0067557525 57:0 58:0 59:0 60:0 61:0.99999887 62:0 63:0 64:0 65:0 66:0 67:0 68:0 69:0 70:0 71:0.99999887 72:0 73:0 74:0 75:0 76:0 77:0 78:0 79:0 80:0 81:0.9981209 82:0 83:0 84:0 85:0 86:0 87:0 88:0 89:0 
1 1 1 0 0 1 1 1 1 1 1 1 1 1 1 1 0:0 1:0.97037494 2:0 3:0.019199267 4:0.073366769 5:0.20647313 6:0.079625435 7:0.056109067 8:0.022287155 9:0 10:0 11:0.92642629 12:0 13:0 14:0.028454483 15:0.34316501 16:0.04539128 17:0.13226289 18:0.060017485 19:0 20:0 21:0.91644555 22:0.018369349 23:0.081013322 24:0.055462662 25:0.3773973 26:0.057590809 27:0.062599488 28:0.021921992 29:0 30:0 31:0.9581722 32:0.062215205 33:0.057572711 34:0.070798144 35:0.23668116 36:0.11276256 37:0.028454376 38:0.012636349 39:0 40:0 41:0.98346972 42:0.018694917 43:0.034399718 44:0.015408089 45:0.15971953 46:0.053454589 47:0.037031312 48:0.03563999 49:0 50:0 51:0.89490855 52:0.065835446 53:0.063105918 54:0.14252779 55:0.41178346 56:0.026351975 57:0.0081703952 58:0.013251369 59:0 60:0 61:0.99494189 62:0.090338528 63:0.026145617 64:0.030150475 65:0.018194381 66:0.0013998366 67:0 68:0 69:0 70:0 71:0.99935347 72:0.0010004782 73:0.0007343925 74:0.002164524 75:0.03560799 76:0 77:0 78:0.0035731362 79:0 80:0 81:0.9488731 82:0.085659228 83:0.15607461 84:0.10550503 85:0.23238127 86:0.024850182 87:0.038632583 88:0.026354779 89:0 
0 0 0.1869281384531655 0 1 0 0 0 0 0 0 0 0 0 0.234056995725808 0 0:0 1:0.68883532 2:0 3:0 4:0.029362254 5:0.72299612 6:0.027549535 7:0.033142988 8:0.0077102124 9:0 10:0 11:0.90298194 12:0 13:0.016075907 14:0.015034698 15:0.42646709 16:0.045408614 17:0.014172902 18:0 19:0 20:0 21:0.99999905 22:0 23:0 24:0 25:0 26:0 27:0 28:0 29:0 30:0 31:0.96792996 32:0 33:0 34:0.014173673 35:0.25032285 36:0.015651394 37:4.3595966e-05 38:0.0014755309 39:0 40:0 41:0.98433328 42:0 43:0 44:0.0057023708 45:0.17622027 46:0 47:0 48:0 49:0 50:0 51:0.99799395 52:0 53:6.4736225e-05 54:6.4736225e-05 55:0.062017299 56:0.012621356 57:9.9093973e-05 58:0 59:0 60:0 61:0.99999881 62:0 63:0 64:0 65:0 66:0 67:0 68:0 69:0 70:0 71:0.99999845 72:0 73:0 74:0 75:0 76:0 77:0 78:0 79:0 80:0 81:0.99930727 82:0.037078843 83:0.00025138949 84:0 85:0.00025138949 86:0 87:0 88:0 89:0 
0 0 0 0 0.2148002931025342 0 0 0 0 0 0 0 0 0 0 0 0:0 1:0.01685106 2:0 3:0 4:0 5:0.996409 6:0.082883537 7:0 8:0.0027324017 9:0 10:0 11:0.79829943 12:0 13:0 14:0 15:0.60026801 16:0.048909131 17:0 18:0.00066509447 19:0 20:0 21:0.99999869 22:0 23:0 24:0 25:0 26:0 27:0 28:0 29:0 30:0 31:0.5470292 32:0 33:0 34:0 35:0.83630186 36:0.036783479 37:0 38:0 39:0 40:0 41:0.8440038 42:0 43:0 44:0 45:0.53523332 46:0.034345426 47:0 48:0 49:0 50:0 51:0.29375035 52:0.014556615 53:0.0062075462 54:0.051517349 55:0.95106089 56:0.064972356 57:0.002290403 58:0.045344573 59:0 60:0 61:0.99999613 62:0 63:0 64:0 65:0 66:0 67:0 68:0 69:0 70:0 71:0.74189216 72:0 73:0 74:0 75:0.6705054 76:0 77:0 78:0 79:0 80:0 81:0.99999726 82:0 83:0 84:0 85:0 86:0 87:0 88:0 89:0 
1 0 1 0.4911610668733424 0 0.9693715227234122 1 0.3425000601379553 0.2016136191796019 0.3364816991372344 0.9478750795789619 0 1 0.2515424251167983 0.2934528684465913 0.04101083931381761 0:0 1:0.62507653 2:0.075432405 3:0.093772188 4:0.29225525 5:0.6069802 6:0.28245428 7:0.20826858 8:0.13340048 9:0 10:0 11:0.92811942 12:0 13:0 14:0.021604646 15:0.28546172 16:0.14920495 17:0.11596952 18:0.14465268 19:0 20:0 21:0.85086286 22:0.091070205 23:0.12578596 24:0.13941181 25:0.43838221 26:0.111766 27:0.14653815 28:0.079579793 29:0 30:0 31:0.8332094 32:0.052329171 33:0.14334185 34:0.12965755 35:0.50954711 36:0.053432394 37:0.017778501 38:0.053417291 39:0 40:0 41:0.84818918 42:0.00023383672 43:0.032666359 44:0.037156429 45:0.50945848 46:0.084825061 47:0.069688439 48:0.080769144 49:0 50:0 51:0.73133361 52:0.25293732 53:0.23092593 54:0.11434799 55:0.57564998 56:0.041861475 57:0.021036647 58:0.034638565 59:0 60:0 61:0.99104238 62:0.061402991 63:0.013951837 64:0.029531872 65:0.081519127 66:0.039075397 67:0.036525637 68:0.059071243 69:0 70:0 71:0.62629372 72:3.3276054e-05 73:0.067206845 74:0.077606432 75:0.66338193 76:0.24447687 77:0.27777994 78:0.14215238 79:0 80:0 81:0.57340252 82:0.10064548 83:0.25578013 84:0.24826075 85:0.70481014 86:0.12917633 87:0.13271774 88:0.054411668 89:0 
0 0 0 0 1 0 0 0 0 0 0 0 0 0.1348832512659557 0 0 0:0 1:0.074322075 2:0 3:0 4:0 5:0.99609536 6:0.034095287 7:0.029541723 8:0.01511277 9:0 10:0 11:0.95620269 12:0 13:0 14:0 15:0.29203334 16:0.015418524 17:0.012338636 18:0 19:0 20:0 21:0.99999881 22:0 23:0 24:0 25:0 26:0 27:0 28:0 29:0 30:0 31:0.19773112 32:0 33:0 34:0 35:0.97951072 36:0.0094160317 37:0.036989726 38:0 39:0 40:0 41:0.85267168 42:0 43:0 44:0 45:0.52238476 46:0.0013254302 47:0 48:0.0077409265 49:0 50:0 51:0.99608028 52:0 53:0.00065257133 54:0 55:0.082188621 56:0.032640237 57:0 58:0 59:0 60:0 61:0.53015441 62:0 63:0 64:0 65:0.84073955 66:0.028519398 67:0.10614946 68:0 69:0 70:0 71:0.94782203 72:0 73:0 74:0 75:0.31875071 76:0 77:0 78:0 79:0 80:0 81:0.99999779 82:0 83:0 84:0 85:0 86:0 87:0 88:0 89:0 
0 0 0.5952774144536861 0 1 1 0 0.6622212072845916 1 1 0.4071035540210513 1 0.7141107277875743 0 1 1 0:0 1:0.44373471 2:0.34851897 3:0.19903055 4:0.3690767 5:0.57430094 6:0.29098764 7:0.14433061 8:0.26545328 9:0 10:0 11:0.98664737 12:0 13:0.0084482003 14:0 15:0.11024084 16:0.034611028 17:0.079755411 18:0.082092762 19:0 20:0 21:0.99282444 22:0.085110217 23:0.025807271 24:0.0073383446 25:0.033018794 26:0.010726993 27:0.045965858 28:0.054897141 29:0 30:0 31:0.98994493 32:0.052075829 33:0.089444742 34:0.075413123 35:0.053123359 36:0.027925557 37:0.0019390398 38:0.0006558983 39:0 40:0 41:0.95222121 42:0 43:0.028403522 44:0.031634063 45:0.25272307 46:0.15797409 47:0.033291034 48:0.039039474 49:0 50:0 51:0.99765861 52:0.052007742 53:0.032140441 54:0.027284479 55:0.011634321 56:0.0062929559 57:0.0040646289 58:0 59:0 60:0 61:0.99972725 62:0 63:0.00015663517 64:0 65:0.012007164 66:0.00011344282 67:9.4901203e-05 68:0.01996283 69:0 70:0 71:0.97307682 72:0.00081734185 73:0.030433754 74:0.0089506889 75:0.17649385 76:0.090268172 77:0.072681569 78:0.086770736 79:0 80:0 81:0.87224036 82:0.12051614 83:0.27975357 84:0.20322224 85:0.30420688 86:0.025179485 87:0.094932519 88:0.053997595 89:0 
0.5170144914274248 0.2809727902286789 0.478968549056569 1 0.1738319405830904 0.1141681078308808 0.2967645232446481 0.064641551982887 0.1563157428102807 0 0.3881507874017779 0.5124532537511278 0.327122555179673 0.3283663943357639 0.6789262232844601 1 0:0 1:0.55839062 2:0 3:0 4:0 5:0.31068817 6:0 7:0.0013302123 8:0.76917368 9:0 10:0 11:0.99857289 12:0 13:0 14:0 15:0.029707374 16:0.010694341 17:0.00026461121 18:0.042972885 19:0 20:0 21:0.99999821 22:0 23:0 24:0 25:0 26:0 27:0 28:0 29:0 30:0 31:0.01564049 32:0 33:0 34:0 35:0.99567211 36:0.054288503 37:0.027175222 38:0.068559706 39:0 40:0 41:0.54849952 42:0 43:0 44:0 45:0.82810384 46:0 47:0 48:0.11568678 49:0 50:0 51:0.89762157 52:0.022078982 53:0.025248669 54:0.051818419 55:0.43631232 56:0 57:0.0028158503 58:0.009173397 59:0 60:0 61:0.98402363 62:0 63:0 64:0 65:0.1681111 66:0.050904281 67:0.028940341 68:0 69:0 70:0 71:0.73128718 72:0 73:0 74:0 75:0.68197513 76:0 77:0 78:0.011142978 79:0 80:0 81:0.99999708 82:0 83:0 84:0 85:0 86:0 87:0 88:0 89:0 
1 1 1 0.7021332083067782 1 0.4298070473647694 0.6125528587733683 0.02508829921308963 0.9504991667686168 0.0411831579557408 1 1 1 0.1919108030199174 1 1 0:0 1:0.82741088 2:0.00024779158 3:0.0046943789 4:0.013764919 5:0.55916595 6:0.048316672 7:0.00041257634 8:0.013195765 9:0 10:0 11:0.98054183 12:0.011216378 13:0.0087978477 14:0.0098003615 15:0.16391632 16:0.081584215 17:0.03392455 18:0.059673529 19:0 20:0 21:0.99122709 22:0.067084812 23:0.037687358 24:0.017151928 25:0.072286144 26:0.038583566 27:0.038311731 28:0.055405706 29:0 30:0 31:0.9963004 32:0.031161675 33:0.0043527749 34:0.0078034531 35:0.075024232 36:0.011258409 37:0.0096746776 38:0.021990459 39:0 40:0 41:0.75040799 42:0.0053366167 43:0.0039955103 44:0.011715687 45:0.65643489 46:0.075062476 47:0.0057908916 48:0.011306643 49:0 50:0 51:0.99211645 52:0.046888057 53:0.013663333 54:0.052179806 55:0.10268808 56:0 57:0.0070925262 58:0 59:0 60:0 61:0.99644572 62:0.010810261 63:0.00039351021 64:7.5687669e-05 65:0.079769902 66:0 67:0.0040484946 68:0.024427468 69:0 70:0 71:0.99700171 72:0.029888665 73:0.020249279 74:0.0074846684 75:0.063916385 76:0.003548885 77:0.0092794504 78:0.021028688 79:0 80:0 81:0.88287932 82:0.010620753 83:0.09484233 84:0.19342498 85:0.4140577 86:0.050476652 87:0.0027520559 88:0 89:0 
1 0 0.3752937826624963 0.4503532136200343 0 0.2927099638335259 0.7491781505114968 0.0416778884337496 0 0.3396952879160365 0 0 0.3226096033008117 0.5565896751848435 0 0 0:0 1:0.52823788 2:0.32013446 3:0.20181634 4:0.35939834 5:0.5712173 6:0.16438152 7:0.29327682 8:0.096194968 9:0 10:0 11:0.97426367 12:0 13:0.0050627328 14:6.3072577e-05 15:0.056812149 16:0.099615857 17:0.16939797 18:0.094524026 19:0 20:0 21:0.97736222 22:0.051534172 23:0.084768429 24:0.019032652 25:0.070973411 26:0.067719668 27:0.073729619 28:0.13962942 29:0 30:0 31:0.79503155 32:0.025435487 33:0.12415079 34:0.13480064 35:0.57563007 36:0.041688599 37:0.023643538 38:0.0065564094 39:0 40:0 41:0.87371796 42:0.0015370225 43:0.003351473 44:0.0071697696 45:0.4793317 46:0.022614157 47:0.060368158 48:0.051313184 49:0 50:0 51:0.95963907 52:0.17705011 53:0.12757151 54:0.10417975 55:0.11468548 56:0.00056463346 57:0.086369283 58:0.00010319845 59:0 60:0 61:0.92088264 62:0.001263216 63:0.035210695 64:0.09856154 65:0.3735092 66:0.010059574 67:0.0375029 68:0 69:0 70:0 71:0.83294892 72:0.00019445228 73:0.050916947 74:0.0076932786 75:0.54396808 76:0.069228522 77:0.05335651 78:0 79:0 80:0 81:0.70426762 82:0.077514216 83:0.25653121 84:0.43993884 85:0.48181197 86:0.032365423 87:0.073807567 88:0 89:0 
1 1 1 0 0.9036286732434067 1 0 1 1 1 1 1 1 1 1 0.3026005718762221 0:0 1:0.76740056 2:0.14378002 3:0.19953409 4:0.18034281 5:0.50720692 6:0.17940184 7:0.15599257 8:0.065608516 9:0 10:0 11:0.95217592 12:0.012267636 13:0.017121116 14:0.0075586229 15:0.22632615 16:0.12181051 17:0.10970616 18:0.12149579 19:0 20:0 21:0.9806816 22:0.085757121 23:0.095920503 24:0.057290766 25:0.055347163 26:0.067602441 27:0.065048799 28:0.080988795 29:0 30:0 31:0.96874058 32:0.05970921 33:0.12745816 34:0.052500289 35:0.19307695 36:0.039759655 37:0.0042974292 38:0.0097331032 39:0 40:0 41:0.9029606 42:0.024992015 43:0.085079908 44:0.068009883 45:0.39773339 46:0.074248426 47:0.089378931 48:0.021825925 49:0 50:0 51:0.99150038 52:0.061822996 53:0.023920799 54:0.057563581 55:0.095404029 56:0.0082576834 57:0.0068805893 58:5.4950724e-05 59:0 60:0 61:0.99942738 62:0.0053115948 63:0.013706148 64:0 65:0.00016100671 66:0.006887821 67:0.014034672 68:0.026133634 69:0 70:0 71:0.9896794 72:0.0048994976 73:0.01816103 74:0.0028505004 75:0.073786288 76:0.094900787 77:0.075385921 78:0.0060898964 79:0 80:0 81:0.87410849 82:0.20748343 83:0.14197856 84:0.34252867 85:0.20639014 86:0.091123462 87:0.067047015 88:0.0011524794 89:0 
0 0 1 0 1 0 0 0 0 0 0 0 0 0 0 0 0:0 1:0.66114479 2:0 3:0 4:0.00019553382 5:0.747168 6:0.027616713 7:0.043815032 8:0.044048801 9:0 10:0 11:0.94398642 12:4.0716212e-05 13:0.0050661201 14:0.0061536278 15:0.32651734 16:0.028856251 17:0.032576997 18:0.017773854 19:0 20:0 21:0.99999887 22:0 23:0 24:0 25:0 26:0 27:0 28:0 29:0 30:0 31:0.93891925 32:0 33:0 34:0 35:0.34309366 36:0.025814682 37:0 38:0.0069778245 39:0 40:0 41:0.9599666 42:0 43:0 44:0.0053239018 45:0.27966446 46:0.0057981652 47:0.0085270116 48:0.010722089 49:0 50:0 51:0.98558718 52:0.00048092386 53:0.018671865 54:0.015814884 55:0.15918513 56:0.038335752 57:0 58:0.034709007 59:0 60:0 61:0.99998677 62:0 63:0 64:0 65:0.00047425664 66:0.0014504822 67:0 68:0.0046797898 69:0 70:0 71:0.99999875 72:0 73:0 74:0 75:0 76:0 77:0 78:0 79:0 80:0 81:0.9937945 82:0.00091914926 83:0.0003063831 84:0.089158162 85:0.059438772 86:0.029719386 87:0 88:0 89:0 
0 0 0 0.6263045212336334 1 0 0 0 0 0 0 0 0 0 0.1209765796229752 0.4886140494769325 0:0 1:0.33293512 2:0 3:0 4:0 5:0.92657185 6:0.030036289 7:0.077743225 8:0.15380131 9:0 10:0 11:0.99995917 12:0 13:0 14:0 15:0.0077747903 16:0.0043456121 17:9.3672228e-05 18:0 19:0 20:0 21:0.99999839 22:0 23:0 24:0 25:0 26:0 27:0 28:0 29:0 30:0 31:0.33596811 32:0 33:0 34:0 35:0.93633246 36:0.049942292 37:0.069659449 38:0.055280562 39:0 40:0 41:0.90189028 42:0 43:0 44:0 45:0.43116209 46:0.0045119864 47:0.011678419 48:0.023103699 49:0 50:0 51:0.99857128 52:0.017855823 53:0.021092515 54:0.015019867 55:0.043152064 56:0 57:0.0014801677 58:0 59:0 60:0 61:0.92609346 62:0 63:0 64:0 65:0.35764748 66:0.056212854 67:0.10044597 68:0.034412026 69:0 70:0 71:0.75243628 72:0 73:0 74:0 75:0.65866113 76:0 77:0 78:0 79:0 80:0 81:0.99999869 82:0 83:0 84:0 85:0 86:0 87:0 88:0 89:0 
0.1910685177579389 0.07954555816797042 0.01410275372743514 0.4580313049361787 0.08834138552969338 0.07387023975981313 0.1465261085115477 0.03408226724458729 0.06147584544825466 0.0504925260303371 0.2420333641643602 0.2080185366829999 0.2198472868183042 0.1261158117947906 0.1540276146928604 0.6265140239355346 0:0 1:0.13358384 2:0 3:0 4:0 5:0.98336589 6:0.022312745 7:0.11673339 8:0.031847704 9:0 10:0 11:0.99038965 12:0 13:0 14:0 15:0.13829687 16:0 17:0 18:0 19:0 20:0 21:0.99999785 22:0 23:0 24:0 25:0 26:0 27:0 28:0 29:0 30:0 31:0.012944948 32:0 33:0 34:0.0088852523 35:0.99761409 36:0.034881029 37:0.047331125 38:0.032541342 39:0 40:0 41:0.87607276 42:0 43:0 44:0 45:0.48057228 46:0.0080891605 47:0.036677249 48:0.011545922 49:0 50:0 51:0.97066104 52:0 53:0 54:0 55:0.24044725 56:0 57:0 58:0 59:0 60:0 61:0.086802073 62:0 63:0 64:0.013868302 65:0.99103391 66:0.060146388 67:0 68:0.080623709 69:0 70:0 71:0.92491466 72:0 73:0 74:0 75:0.38016489 76:0 77:0 78:0 79:0 80:0 81:0.99999851 82:0 83:0 84:0 85:0 86:0 87:0 88:0 89:0 
0 0 0 0.4920586297564164 0 0.1442476265707686 0 0 0.1429026612067318 0 0 0 0 0 0 0.4020395881766178 0:0 1:0.55027848 2:0.22431836 3:0.16163418 4:0.26318145 5:0.64487702 6:0.26792207 7:0.19266947 8:0.16342945 9:0 10:0 11:0.94318902 12:0 13:0 14:0.005322366 15:0.22407052 16:0.17567651 17:0.12562458 18:0.11623975 19:0 20:0 21:0.97004062 22:0.085135676 23:0.11292966 24:0.053600349 25:0.034829706 26:0.0589367 27:0.083067849 28:0.15670566 29:0 30:0 31:0.75380981 32:0.02890473 33:0.20529641 34:0.21029948 35:0.58373362 36:0.035767607 37:0.025484249 38:0.043421347 39:0 40:0 41:0.92550695 42:0 43:0 44:0.011184092 45:0.37204215 46:0.027005285 47:0.041076746 48:0.049765348 49:0 50:0 51:0.97688836 52:0.13187817 53:0.13158393 54:0.041314416 55:0.086765029 56:0 57:0.036368653 58:0.020533107 59:0 60:0 61:0.96902919 62:0.0053842268 63:0.071918525 64:0.080844387 65:0.21819152 66:0.014652876 67:0.022173705 68:0.030474629 69:0 70:0 71:0.48234335 72:0.012402658 73:0.045130767 74:0.050700687 75:0.73068696 76:0.29892045 77:0.35415742 78:0.11787625 79:0 80:0 81:0.91969186 82:0.13756658 83:0.20281024 84:0.21844476 85:0.18113662 86:0.10483091 87:0.050874274 88:0 89:0 
0.230722643573491 1 1 0 1 1 0 1 1 1 1 1 1 1 1 1 0:0 1:0.92357248 2:0.029036226 3:0.034050699 4:0.073787637 5:0.33636212 6:0.13808675 7:0.062150732 8:0.059074532 9:0 10:0 11:0.89643759 12:0.044808026 13:0.1128243 14:0.043626338 15:0.39206746 16:0.10396022 17:0.10589139 18:0.063383199 19:0 20:0 21:0.99999809 22:0 23:0 24:0 25:0 26:0 27:0 28:0 29:0 30:0 31:0.98838955 32:0.026515055 33:0.0077824737 34:0.02279778 35:0.11002108 36:0.095116496 37:0.018126838 38:0.017854879 39:0 40:0 41:0.96385294 42:0.011759633 43:0.047838192 44:0.015782699 45:0.25252974 46:0.048235603 47:0.0057959412 48:0.046662647 49:0 50:0 51:0.95145881 52:0.047553606 53:0.11973753 54:0.0097927721 55:0.26239064 56:0.033412453 57:0.059474353 58:0.067266956 59:0 60:0 61:0.99999911 62:0 63:0 64:0 65:1.9252428e-05 66:0 67:0 68:0 69:0 70:0 71:0.99364114 72:0.015791858 73:0.033901788 74:0.045202382 75:0.063529633 76:0.063538939 77:7.2439718e-05 78:0.034046665 79:0 80:0 81:0.99641705 82:0 83:0.020229142 84:0.019352619 85:0.052240998 86:0.0093838284 87:0.019453043 88:0.056255318 89:0 
0 0 0 0 0.5848416907605988 1 0 0.4723419849047308 0.7780795865198081 0 0.4731787813570286 0 0.1738199668337921 0.6901024761542485 0.4197843915700751 0 0:0 1:0.55859923 2:0.17261556 3:0.21567708 4:0.19073881 5:0.70398605 6:0.24296017 7:0.099318102 8:0.1038185 9:0 10:0 11:0.94944447 12:0.0059145442 13:5.4351553e-05 14:0.0027314154 15:0.20656691 16:0.18267706 17:0.09949895 18:0.11211184 19:0 20:0 21:0.9517203 22:0.086634047 23:0.13908154 24:0.1064084 25:0.14728867 26:0.13297988 27:0.11315922 28:0.062216755 29:0 30:0 31:0.66506964 32:0.11684019 33:0.20261714 34:0.28721288 35:0.64071572 36:0.06639576 37:0.060021199 38:0.044209797 39:0 40:0 41:0.94414932 42:0 43:0.0078197755 44:0.013292751 45:0.32157609 46:0.070171848 47:0.0025127414 48:8.8527653e-05 49:0 50:0 51:0.98374158 52:0.12288704 53:0.094415531 54:0.063441999 55:0.058610626 56:0.024087381 57:0.013898924 58:0 59:0 60:0 61:0.98370427 62:0.04806561 63:0.06189061 64:0.036950164 65:0.14140007 66:0.0072908774 67:0.03403626 68:0.060096562 69:0 70:0 71:0.55774939 72:0 73:0.0069936286 74:0.05137635 75:0.67390144 76:0.19064531 77:0.36191189 78:0.25446704 79:0 80:0 81:0.94900542 82:0.099687092 83:0.13772543 84:0.19139335 85:0.17097554 86:0.053090386 87:0.042201966 88:0.00398832 89:0 
0 0 0 0 0 0 0 0 0 0 0 0 0 0.2563332375157452 0 0 0:0 1:0.35611495 2:0.013549156 3:0.015735976 4:0.082612976 5:0.9197706 6:0.09159667 7:0.10531752 8:0.021368353 9:0 10:0 11:0.9577263 12:0 13:0.0022718639 14:0.030562121 15:0.28393537 16:0.031992182 17:0.011451024 18:0.0066228849 19:0 20:0 21:0.99999863 22:0 23:0 24:0 25:0 26:0 27:0 28:0 29:0 30:0 31:0.060213082 32:0.012188813 33:0.016928252 34:0.041560285 35:0.98612708 36:0.12194644 37:0.080805406 38:0.018998072 39:0 40:0 41:0.85255855 42:0.0039049864 43:0.0036109695 44:0.0081882495 45:0.5208711 46:0.021929799 47:0.035319567 48:0.0032754845 49:0 50:0 51:0.87381917 52:0.083681971 53:0.054295659 54:0.083088875 55:0.46530378 56:0.049310815 57:0.025351528 58:0 59:0 60:0 61:0.68030661 62:0.015503189 63:0.018455485 64:0.036745019 65:0.66966355 66:0.25672969 67:0.13964815 68:0.037180498 69:0 70:0 71:0.83463264 72:0 73:0.007655879 74:0 75:0.55073982 76:0 77:0.0016785306 78:0.0026765845 79:0 80:0 81:0.99999875 82:0 83:0 84:0 85:0 86:0 87:0 88:0 89:0 
0.1698367196780542 0.1408320665041089 0.1455582016456777 1 0.2137879176345671 0.1826364673874159 0 0 0.183665847202469 0.1153136616813707 0.280820629441096 0.2974311572684066 0.1985192657025083 0.04224427512606894 0 0 0:0 1:0.65357363 2:0 3:0.0051693805 4:1.0638068e-10 5:0.75411737 6:0.032890782 7:0.055078991 8:0 9:0 10:0 11:0.28418428 12:0 13:0.013807975 14:0 15:0.94073576 16:0.14922591 17:0.10858766 18:1.0565313e-09 19:0 20:0 21:0.64251131 22:0.097243845 23:0.20069359 24:0.088846512 25:0.67261463 26:0.13755409 27:0.23355046 28:0.060558364 29:0 30:0 31:0.00089023908 32:0.045474507 33:0.069642097 34:0.047267415 35:0.9905864 36:0.049526636 37:0.040004082 38:0.074345715 39:0 40:0 41:6.7652865e-05 42:0 43:0.016545042 44:9.1804606e-11 45:0.99841422 46:0.02683872 47:0.039482009 48:0.024767602 49:0 50:0 51:0.16044471 52:0.11200285 53:0.13389868 54:0.18933181 55:0.95270759 56:0.016447309 57:0.0034720364 58:0 59:0 60:0 61:0.14822792 62:0.010162849 63:0.0012009644 64:0.0600047 65:0.98669136 66:0.021204315 67:0.01356038 68:0.011202198 69:0 70:0 71:0.0011105305 72:0 73:0.011754252 74:0.002274083 75:0.99922097 76:8.2692714e-11 77:0.010553511 78:0.0360431 79:0 80:0 81:0.030224416 82:0.0014668216 83:0.10598205 84:0.14377612 85:0.98269612 86:0.01628634 87:0.034931131 88:0 89:0 
0.3241326673731047 1 1 0.3273351757009331 0.02020206074245825 1 1 0.5607421820940333 1 1 1 0.6005419778574314 0.6613702972075985 0.7442103512934567 0.7178735985602017 0.633748189820897 0:0 1:0.94701689 2:0 3:0.0019219229 4:0 5:0.32047841 6:0.011123211 7:0.011470833 8:0.013820525 9:0 10:0 11:0.94174433 12:0.0014969826 13:0.0067798542 14:0.012387475 15:0.33197755 16:0.028447436 17:0.043318361 18:0.0043245084 19:0 20:0 21:0.99999803 22:0 23:0 24:0 25:0 26:0 27:0 28:0 29:0 30:0 31:0.99999869 32:0 33:0 34:0 35:0 36:0.001001446 37:0 38:0 39:0 40:0 41:0.98655504 42:0.019603692 43:0.0423113 44:0.018460143 45:0.155185 46:0.010455302 47:0 48:0 49:0 50:0 51:0.88276654 52:0.018252876 53:0.0050263149 54:0.15104185 55:0.42389166 56:0.13355707 57:0 58:0 59:0 60:0 61:0.99999893 62:0 63:0 64:0 65:0 66:0 67:0 68:0 69:0 70:0 71:0.99999893 72:0 73:0 74:0 75:0 76:0 77:0 78:0 79:0 80:0 81:0 82:0 83:0 84:0 85:0 86:0 87:0 88:0 89:0 
0 0.5753446925444116 1 0 1 0 0 0 0 0 0 0 0 0 0.01621374073390794 0.3139575978575414 0:0 1:0.81247336 2:0.027964003 3:0.011959048 4:0.020886697 5:0.57473332 6:0.066441193 7:0.014123757 8:0.059888601 9:0 10:0 11:0.95891726 12:0.0027858641 13:0 14:0.018073199 15:0.28220016 16:0.0035859738 17:0 18:0.02215901 19:0 20:0 21:0.99999797 22:0 23:0 24:0 25:0 26:0 27:0 28:0 29:0 30:0 31:0.98289466 32:0 33:0 34:0 35:0.18321984 36:0.018590812 37:0 38:0 39:0 40:0 41:0.95859367 42:0.0184795 43:0.0056152306 44:0.035581142 45:0.28091407 46:0.022342404 47:0.0066316449 48:0 49:0 50:0 51:0.77580857 52:0.0078168791 53:0 54:0.050711744 55:0.62886238 56:0.003642618 57:0 58:0 59:0 60:0 61:0.99999857 62:0 63:0 64:0 65:0 66:0 67:0 68:0 69:0 70:0 71:0.99999857 72:0 73:0 74:0 75:0.00011665466 76:0 77:0 78:0 79:0 80:0 81:0.99995238 82:0 83:0 84:0 85:0.0074710259 86:0.0024903419 87:0 88:0 89:0 
0.3123309315754952 0 0 0.4881239253241207 0.08004657428981354 0 0 0 0 0 0 0 0 0 0 0 0:0 1:0 2:0 3:0 4:0 5:0.99987346 6:0.015702074 7:0 8:0 9:0 10:0 11:0.83107871 12:0 13:0 14:0.013992013 15:0.55479127 16:0.03270359 17:0.0097945128 18:0.012289753 19:0 20:0 21:0.99999899 22:0 23:0 24:0 25:0 26:0 27:0 28:0 29:0 30:0 31:0.24181986 32:0.0027975999 33:0 34:0.017757872 35:0.96990514 36:0.01492278 37:0 38:0.016073896 39:0 40:0 41:0.66073883 42:0 43:0 44:0.012221137 45:0.75005835 46:0.025519574 47:0.0020470491 48:0.0054744277 49:0 50:0 51:0.47508618 52:0.0029803873 53:0 54:0.034562673 55:0.87896037 56:0.016330458 57:0.011832079 58:0.010462254 59:0 60:0 61:0.98677862 62:0.01523803 63:0 64:0.030774787 65:0.15391307 66:0.026204716 67:0 68:0.026636094 69:0 70:0 71:0.71246147 72:0 73:0 74:0 75:0.70170516 76:0.002173224 77:0 78:0 79:0 80:0 81:0.99994999 82:0 83:0 84:0 85:0.0098317387 86:0.0011878886 87:0 88:0 89:0 
0 0 0 0 1 0 0 0 0 0 0 0 0 0 0 0 0:0 1:0.58913624 2:0.068943948 3:0.07387238 4:0.11494595 5:0.78254026 6:0.071202919 7:0.054158211 8:0.095474139 9:0 10:0 11:0.73706144 12:0.058899321 13:0.013999052 14:0.067342527 15:0.66539842 16:0.050570291 17:0.040106639 18:0.040190354 19:0 20:0 21:0.99722636 22:0 23:0 24:0 25:0.07441543 26:0 27:0 28:0 29:0 30:0 31:0.98917031 32:0.0028333811 33:0.0025754762 34:0.051345252 35:0.12085655 36:0.051093511 37:0.033796951 38:0.022992907 39:0 40:0 41:0.97306472 42:0.021153076 43:0.019549955 44:0.010968324 45:0.22709621 46:0.013399916 47:0.016800938 48:0.012563207 49:0 50:0 51:0.96553695 52:0.017462814 53:0 54:0.010343162 55:0.25860837 56:0.011813792 57:0.0046394202 58:0.016843572 59:0 60:0 61:0.99999785 62:0 63:0 64:8.7912296e-05 65:0 66:0 67:0 68:0 69:0 70:0 71:0.99999851 72:0 73:0 74:0 75:0.00048229264 76:0 77:0 78:0 79:0 80:0 81:0.99921882 82:0 83:0 84:0 85:0.031693667 86:0.0031723313 87:0.023081444 88:0.0031723313 89:0 
0.01806874804893736 0 0 0.1384182337024042 0 0 0 0 0 0 0 0 0 0 0.2135517243196221 0 0:0 1:0.0086250445 2:8.7585468e-05 3:0 4:0.00017517094 5:0.97845912 6:0.20623964 7:8.7586021e-05 8:0 9:0 10:0 11:0.85729796 12:0 13:3.7351434e-05 14:0.071233444 15:0.50513768 16:0.051240034 17:0.044207904 18:0.014780913 19:0 20:0 21:0.99999863 22:0 23:0 24:0 25:0 26:0 27:0 28:0 29:0 30:0 31:0.24225895 32:4.9676441e-05 33:0.0001389916 34:9.1790374e-05 35:0.9532088 36:0.1740066 37:0.04919799 38:0 39:0 40:0 41:0.82311946 42:3.1885276e-05 43:0.0086440286 44:0.0010655744 45:0.55996686 46:0.089485675 47:0.028719904 48:8.9213034e-05 49:0 50:0 51:0.0086066946 52:0.084964387 53:0.027816918 54:0.1780283 55:0.97901219 56:0.037042551 57:0.01695957 58:0.010522379 59:0 60:0 61:0.8256833 62:0 63:0 64:0 65:0.54498404 66:0.056503296 67:0.13430047 68:0 69:0 70:0 71:0.72801679 72:0 73:0.00043774175 74:0.00028908567 75:0.68119878 76:0.077099524 77:0.00031290311 78:0 79:0 80:0 81:0.99999839 82:0 83:0 84:0 85:0 86:0 87:0 88:0 89:0 
0 1 1 1 1 1 1 1 1 1 1 1 1 1 1 1 0:0 1:0.99999833 2:0 3:0 4:0 5:0 6:0 7:0 8:0.00096069486 9:0 10:0 11:0.91559911 12:0.020483127 13:0.0048078578 14:0.0037409721 15:0.40026274 16:0.02297432 17:0.02104651 18:0.0061284676 19:0 20:0 21:0.99999678 22:0 23:0 24:0 25:0 26:0 27:0 28:0 29:0 30:0 31:0.99999911 32:0 33:0 34:0 35:0 36:0 37:0 38:0 39:0 40:0 41:0.99999887 42:0 43:0 44:0 45:0 46:0 47:0 48:0.0006940951 49:0 50:0 51:0.98468995 52:0.070006266 53:0.034029976 54:0 55:0.045978587 56:0 57:0.14896701 58:0 59:0 60:0 61:0.99999893 62:0 63:0 64:0 65:0 66:0 67:0 68:0 69:0 70:0 71:0.99999893 72:0 73:0 74:0 75:0 76:0 77:0 78:0 79:0 80:0 81:0.99998719 82:0 83:0 84:0 85:0 86:0 87:0 88:0 89:0 
0.3854209479687965 1 1 0.512004583656481 0.5932004491157662 1 0.1171210733351402 1 1 1 1 1 1 1 1 1 0:0 1:0.9922322 2:0 3:0 4:0 5:0.079054363 6:0.091572627 7:0 8:0.028812204 9:0 10:0 11:0.92638338 12:0.0015182411 13:0.015622438 14:0.008034341 15:0.37480527 16:0.031957027 17:0 18:0 19:0 20:0 21:0.99999881 22:0 23:0 24:0 25:0 26:0 27:0 28:0 29:0 30:0 31:0.98642772 32:0 33:0 34:0 35:0.1589506 36:0 37:0.041132677 38:0 39:0 40:0 41:0.99146008 42:0.012352297 43:0.017465573 44:0.0074688313 45:0.12646058 46:0.0064158025 47:0.017303571 48:0.012582107 49:0 50:0 51:0.75673413 52:0.0021909743 53:0.043720815 54:0.064552814 55:0.64780766 56:0.024210671 57:0.025222108 58:0.019726235 59:0 60:0 61:0.99999833 62:0 63:0 64:0 65:0 66:0 67:0 68:0 69:0 70:0 71:0.99842912 72:0 73:0 74:0 75:0.050188549 76:0 77:0.024867853 78:0 79:0 80:0 81:0.99069589 82:0 83:0 84:0 85:0.13279115 86:0 87:0.021027666 88:0.021027666 89:0 
0 0 0 0 0 0 0 0 0 0 0 0 0 0.08967112115814485 0 0 0:0 1:0.2776002 2:0 3:0 4:0.023365693 5:0.95499748 6:0.049757153 7:0.067901537 8:0.057263672 9:0 10:0 11:0.95977491 12:0 13:0 14:0.016034592 15:0.26944163 16:0.027893402 17:0.063411564 18:0.034263335 19:0 20:0 21:0.99999875 22:0 23:0 24:0 25:0 26:0 27:0 28:0 29:0 30:0 31:0.28604138 32:0 33:0 34:0 35:0.95635664 36:0.051199555 37:0.030607088 38:0 39:0 40:0 41:0.89340234 42:0 43:0 44:0.01030684 45:0.4457829 46:0.02489491 47:0.029981596 48:0.0384988 49:0 50:0 51:0.16838245 52:0.030358326 53:0 54:0.057859417 55:0.97410595 56:0.039937999 57:0.097779892 58:0.085637294 59:0 60:0 61:0.76775187 62:0 63:0 64:0 65:0.62300044 66:0.11963142 67:0.090018354 68:0 69:0 70:0 71:0.92454416 72:0 73:0 74:0 75:0.38104293 76:0 77:0 78:0 79:0 80:0 81:0.99999791 82:0 83:0 84:0 85:0 86:0 87:0 88:0 89:0 
1 0 0.02376971942429783 1 0 0 1 0.358180195752494 0 0 0.1016770090830566 0 0 0.2392340853236214 0.8831976299749512 0.6014860792922919 0:0 1:0.62635309 2:0 3:0 4:0 5:0.77574867 6:0.058741845 7:0.029066708 8:0.039855856 9:0 10:0 11:0.28655922 12:0 13:0 14:0 15:0.95321929 16:0.080184624 17:0.053058006 18:0.0022164427 19:0 20:0 21:0.76892167 22:0.046122011 23:0.11780147 24:0.05595642 25:0.60944116 26:0.077229753 27:0.088848136 28:0.065860592 29:0 30:0 31:0.09415295 32:0.03710676 33:0 34:0.040998049 35:0.99381089 36:0.01106912 37:0.016756652 38:0.0028876681 39:0 40:0 41:0.051400568 42:1.4083368e-09 43:0 44:0.0013139813 45:0.99637818 46:0.054429643 47:0.024921389 48:0.031588707 49:0 50:0 51:0.24585541 52:0.08162231 53:0.08920449 54:0.14539261 55:0.94978464 56:0.024876025 57:0.032305371 58:0.0061584837 59:0 60:0 61:0.2671138 62:4.0866084e-09 63:0 64:0.0048024314 65:0.96345788 66:0.019234763 67:8.1732165e-10 68:6.2755593e-05 69:0 70:0 71:0.11205457 72:0.0052567916 73:0.018878341 74:0.01249265 75:0.99314874 76:0.010449606 77:0.020909689 78:0.002726051 79:0 80:0 81:0.10812335 82:0.006485974 83:0.071248285 84:0.1396973 85:0.98033315 86:0.043883741 87:0.019676635 88:0.017409839 89:0 
0.005989811170338273 0.1955040243582412 0.001191477400302697 0 1 1 0.1541677551861605 0.06241883844416652 1 1 1 1 0 0.2254532190680972 0.277292237683571 0.05859835787392769 0:0 1:0.43947828 2:0.22856908 3:0.33117163 4:0.47180244 5:0.47280434 6:0.36359745 7:0.14460115 8:0.21372782 9:0 10:0 11:0.97202361 12:0 13:0 14:8.7697539e-05 15:0.077521414 16:0.17180905 17:0.077373408 18:0.1168439 19:0 20:0 21:0.98247981 22:0.14520866 23:9.7305958e-05 24:0.016949391 25:0.0109204 26:0.0044399248 27:0.057896253 28:0.099331915 29:0 30:0 31:0.9831382 32:0.012930666 33:0.10017927 34:0.10157357 35:0.10971783 36:0.028305655 37:0.00076017628 38:0.008756917 39:0 40:0 41:0.92680025 42:0 43:0.0052619986 44:0.027785346 45:0.32860172 46:0.11890602 47:0.087308064 48:0.10244579 49:0 50:0 51:0.99281281 52:0.11465957 53:0.0047923238 54:0.025772261 55:0.021885708 56:0.0027008653 57:0 58:0.00011089259 59:0 60:0 61:0.99892235 62:0.013063936 63:0.01188693 64:0.0029172665 65:0.034409571 66:0.022945868 67:0.011003023 68:0.00010652856 69:0 70:0 71:0.97193599 72:0 73:0.053785656 74:0.042022351 75:0.17087996 76:0.12287471 77:0.07948605 78:0.0078930315 79:0 80:0 81:0.82669699 82:0.26498687 83:0.13181263 84:0.35422212 85:0.25599337 86:0.19231009 87:0.031387579 88:0.0002687939 89:0 
1 0 0.3115642283376689 0 0.5482047224649983 0 0.7021643564984663 0 0 0 0 0.06965375364786761 0 0 0 0.3942081306747364 0:0 1:0.24421597 2:0 3:0 4:0 5:0.92395908 6:0.10516094 7:0.14673752 8:0.23250231 9:0 10:0 11:0.98472583 12:0 13:0 14:0 15:0.16484541 16:0.0510443 17:0.023092341 18:0 19:0 20:0 21:0.99958527 22:0.021766014 23:0.0025560632 24:0 25:0.018626258 26:0 27:0 28:8.7966524e-05 29:0 30:0 31:0.98074764 32:0.0033151731 33:0.040430874 34:0.014198164 35:0.18980238 36:0.0029782644 37:0.015816173 38:0 39:0 40:0 41:0.84231889 42:0 43:0 44:0 45:0.52703154 46:0.06294667 47:0.039830878 48:0.084764093 49:0 50:0 51:0.99676907 52:0.029644646 53:0.055083968 54:0.028111005 55:0.041776884 56:0.00094718789 57:0 58:7.9077334e-05 59:0 60:0 61:0.9984988 62:0.014426978 63:0.031710587 64:0.0080958232 65:0.041393772 66:0 67:0.0021994307 68:0 69:0 70:0 71:0.95670974 72:0.0041361763 73:0.023201235 74:0.013839489 75:0.24310933 76:0.097022429 77:0.12347435 78:0.013945851 79:0 80:0 81:0.60866404 82:0.16265388 83:0.18550771 84:0.19972523 85:0.65055859 86:0.22119987 87:0.15951291 88:0.17653382 89:0 
0.01177076816550532 0 0 0 0.3314553301389044 0 1 0 0 0.3427230027519773 0 0 0 0 0 0 0:0 1:0.27426544 2:0.25833666 3:0.28078127 4:0.37738207 5:0.59363431 6:0.41183507 7:0.18471842 8:0.28398341 9:0 10:0 11:0.97737879 12:0 13:0.013649875 14:0.0076691662 15:0.10223999 16:0.11448365 17:0.12400649 18:0.074471101 19:0 20:0 21:0.9950757 22:0.039848305 23:0.025441756 24:8.7022767e-05 25:0.013527596 26:0.0087655224 27:0.0357951 28:0.077756129 29:0 30:0 31:0.85388935 32:0.062359784 33:0.19591054 34:0.23922794 35:0.40219772 36:0.039395493 37:0.089749098 38:0 39:0 40:0 41:0.91172373 42:0 43:0.0061310115 44:0.010774426 45:0.40610665 46:0.053591099 47:0.028433574 48:0 49:0 50:0 51:0.99351907 52:0.080795854 53:0.072979607 54:0.013022915 55:0.024555815 56:0.011688015 57:0.012426258 58:0 59:0 60:0 61:0.99130356 62:0.035763379 63:0.0084674684 64:0.041197892 65:0.10996021 66:0.01548249 67:0.039902121 68:0.018548636 69:0 70:0 71:0.54405534 72:0.0053699473 73:0.06153781 74:0.045254618 75:0.70843261 76:0.34235889 77:0.26091388 78:0.10475311 79:0 80:0 81:0.87293732 82:0.085227132 83:0.22326641 84:0.2378023 85:0.27114925 86:0.19654766 87:0.10908838 88:0.016160239 89:0 
0 1 1 0 1 1 0 1 1 1 1 1 1 1 1 1 0:0 1:0.9032864 2:0 3:0 4:0 5:0.42634693 6:0.025026415 7:0 8:0.040902779 9:0 10:0 11:0.89486212 12:0.0043568537 13:0 14:0.025661545 15:0.44030887 16:0.063520305 17:0.011653977 18:0.022351092 19:0 20:0 21:0.99995393 22:0 23:0 24:0.00017245185 25:0.0094884895 26:0 27:0 28:0 29:0 30:0 31:0.99999249 32:0 33:0 34:0 35:6.5318629e-05 36:0 37:0 38:0.0036643774 39:0 40:0 41:0.99397224 42:0 43:0 44:0 45:0.1084436 46:0 47:0.00034870338 48:0.01604034 49:0 50:0 51:0.99784243 52:0 53:0 54:0.012870232 55:0.064351156 56:0 57:0 58:0 59:0 60:0 61:0.99999887 62:0 63:0 64:0 65:0 66:0 67:0 68:0 69:0 70:0 71:0.99999887 72:0 73:0 74:0 75:0 76:0 77:0 78:0 79:0 80:0 81:0.99999398 82:0 83:0 84:0 85:0 86:0 87:0 88:0 89:0 
-1 0.2512325146179983 0.3249653766872808 1 0.5212990536223244 0.7085238275831668 0.9320639142444843 0.3127734237983395 0.4012647181256274 0.2767678935750857 0.8178142581267289 0.3486973439666223 0.4970061991694369 0.7213094631136415 0.8263393422531955 0.6160589356814919 0:0 1:0.51273799 2:0.087775603 3:0.14322551 4:0.21042855 5:0.79599303 6:0.0003829085 7:0.16313769 8:0.065920718 9:0 10:0 11:0.18056324 12:0.015620041 13:0.10237566 14:0.073429585 15:0.88071376 16:0.20887409 17:0.32515109 18:0.16204363 19:0 20:0 21:0.97876161 22:0.076503463 23:0.057982542 24:0.025371114 25:0.12251335 26:1.4414811e-08 27:0.061857484 28:0.11542278 29:0 30:0 31:0.19583146 32:0.00028369951 33:0.082491852 34:0.17555331 35:0.95931357 36:0.014253141 37:0.059270132 38:0.00028369951 39:0 40:0 41:0.0088503091 42:0.028859787 43:0.074010983 44:0.1115352 45:0.98872966 46:0.018239912 47:0.031542804 48:0.0473805 49:0 50:0 51:0.30668336 52:0.31857339 53:0.30985472 54:0.22132441 55:0.81082928 56:0.044787489 57:0 58:0 59:0 60:0 61:0.98019826 62:0 63:0.052085076 64:0.054820567 65:0.18163152 66:0.016399661 67:0.014853943 68:0 69:0 70:0 71:0.31426179 72:0.00020686234 73:0.052849032 74:0.12800977 75:0.82598728 76:0.26431927 77:0.35881522 78:0.034233883 79:0 80:0 81:0.29564387 82:0.2279429 83:0.30575123 84:0.33505014 85:0.72825634 86:0.28543523 87:0.19677697 88:0.06579566 89:0 
-0 0 0 0 0 0 0 0 0 0 0 0 0.05604564297712563 0 0 0 0:0 1:0.11441242 2:0.10741586 3:0.19395944 4:0.10205567 5:0.95564908 6:0.023070881 7:0.045283943 8:0.10713134 9:0 10:0 11:0.9151206 12:0 13:0.023802422 14:0.02623108 15:0.39250684 16:0.047850888 17:0.041389961 18:0.056856014 19:0 20:0 21:0.96016711 22:0.036126968 23:0.0077376873 24:0.035621244 25:0.26467684 26:0.053685099 27:0.042600572 28:0.026307823 29:0 30:0 31:0.96384621 32:0.0022659968 33:0.009439378 34:0.044833675 35:0.26047462 36:0.030637674 37:0.010385827 38:0 39:0 40:0 41:0.063955903 42:0.029995719 43:0.066885449 44:0.075443514 45:0.98440135 46:0.069961064 47:0.034916535 48:0.098396659 49:0 50:0 51:0.91011316 52:0.087019175 53:0.085772865 54:0.059613179 55:0.38540927 56:0.045814309 57:0.008205805 58:0.050017703 59:0 60:0 61:0.99848187 62:0.011072157 63:0.0020699184 64:0.04299996 65:0.032432061 66:0.001927439 67:0 68:0 69:0 70:0 71:0.96475422 72:0.0021470648 73:0.0088917427 74:0.042454455 75:0.24325891 76:0.041887365 77:0.07107053 78:0.037152305 79:0 80:0 81:0.24327734 82:0.24345799 83:0.20301726 84:0.2129311 85:0.76189351 86:0.18875875 87:0.25446498 88:0.33781567 89:0 
-0 0 0 0.7616429080923063 0 0 0 0 0 0 0 0 0 0 0 0 0:0 1:0.027207535 2:0 3:0 4:0 5:0.99738806 6:0.062713921 7:0 8:0.023219455 9:0 10:0 11:0.92656749 12:0 13:0.076142967 14:0.0057250373 15:0.36721784 16:0.028108565 17:0 18:0 19:0 20:0 21:0.37779632 22:0.055092674 23:0.044574328 24:0.021066925 25:0.92292964 26:0 27:0.00083344802 28:0 29:0 30:0 31:0.92259932 32:0 33:0 34:0 35:0.38003168 36:0.066205941 37:0 38:0 39:0 40:0 41:0.010562788 42:0 43:0.045315735 44:0.0059543699 45:0.99787086 46:0.045289677 47:0 48:0 49:0 50:0 51:0.89850241 52:0 53:0.068409219 54:0.0051435521 55:0.43357155 56:0 57:0 58:0 59:0 60:0 61:0.44415146 62:0 63:0 64:0 65:0.89585608 66:0.0026333125 67:0 68:0.01263793 69:0 70:0 71:0.87000179 72:0 73:0.035532374 74:0.0012160853 75:0.49046254 76:0.035727244 77:0 78:0 79:0 80:0 81:0.0079871602 82:0.031947039 83:0.081134185 84:0.01959865 85:0.99596399 86:0 87:0.000762593 88:0 89:0 
-0 0 0 0.2372009047686562 0 0 0 0 0 0 0 0 0 0 0 0.6633236037687432 0:0 1:0.029212598 2:0 3:0 4:0 5:0.99624026 6:0.019183982 7:0.065609932 8:0.044437043 9:0 10:0 11:0.87829792 12:0.0028094789 13:0 14:0.037941039 15:0.47464177 16:3.4503159e-05 17:0.0039335284 18:0.04291543 19:0 20:0 21:0.6975289 22:0.024958687 23:0.055625364 24:0.067687094 25:0.71058738 26:0.004995368 27:0.00032013204 28:0.013851487 29:0 30:0 31:0.92344129 32:0 33:0 34:0.00043326442 35:0.37499538 36:0.005278667 37:0.0012569283 38:0.081251286 39:0 40:0 41:0.045204297 42:0.011458145 43:0.0053338422 44:0.013013555 45:0.99780035 46:0.0072057797 47:0.010887686 48:0.043003168 49:0 50:0 51:0.89076459 52:0.0021749542 53:0 54:0.029372003 55:0.45350686 56:0 57:0 58:0 59:0 60:0 61:0.37853444 62:0 63:0 64:0 65:0.91973007 66:0.086296491 67:0.041680325 68:0.04024215 69:0 70:0 71:0.92900705 72:0 73:0 74:0.0003587908 75:0.36846 76:0.0043713194 77:0 78:0.034077093 79:0 80:0 81:0.59484434 82:0.051088005 83:0.027488355 84:0.060485899 85:0.798388 86:0.035438713 87:0 88:0.021289309 89:0 
-0 0 0 0.1291535477827934 0 0 0.09632104096413489 0 0 0 0 0 0 0 0 0.3766194066868047 0:0 1:0.76640648 2:0 3:0 4:0 5:0.63814354 6:0.0026678063 7:0.034687519 8:0.064641804 9:0 10:0 11:0.97084039 12:0 13:0 14:0.04537997 15:0.2320397 16:0.00063061871 17:0.0017605169 18:0.039505027 19:0 20:0 21:0.41167024 22:0.050536353 23:0.049682781 24:0.14403379 25:0.89708006 26:0.001524616 27:4.7644098e-05 28:0.00014293259 29:0 30:0 31:0.93589413 32:0 33:0 34:0 35:0.34111452 36:0 37:0.0076328334 38:0.087641902 39:0 40:0 41:0.34965238 42:0 43:0 44:0.051322669 45:0.93386322 46:0.00037691183 47:0.019309599 48:0.051305398 49:0 50:0 51:0.94902599 52:0 53:0 54:0.042233091 55:0.30346209 56:0.0010303938 57:0.006819135 58:0.073663801 59:0 60:0 61:0.58850479 62:0 63:0 64:0 65:0.80148041 66:0.065808699 67:0.083369166 68:0.0023072429 69:0 70:0 71:0.90486187 72:0 73:0 74:0.02178169 75:0.42314348 76:0 77:0.0063813082 78:0.040696483 79:0 80:0 81:0.50286973 82:0.030930271 83:0.071381196 84:0.091885865 85:0.84701896 86:0.05103251 87:0.079538986 88:0.079058826 89:0 
-0.2325642985464677 0 0 0 0 0 1 0 0 0 0.1400173708033038 0 0.196801572546161 0 0 0 0:0 1:0.31143013 2:0.21129517 3:0.27188089 4:0.26606402 5:0.67009383 6:0.31247336 7:0.29771295 8:0.27990022 9:0 10:0 11:0.87515444 12:0 13:0.0055400338 14:0.083799034 15:0.42687938 16:0.14213593 17:0.13245878 18:0.084090456 19:0 20:0 21:0.96588981 22:0 23:0.0038385675 24:0.10587952 25:0.22113147 26:0.058271911 27:0.052011497 28:0.028763497 29:0 30:0 31:0.81083572 32:0.11623487 33:0.17783527 34:0.18095623 35:0.50824052 36:0.074829854 37:0.023101833 38:0.014718913 39:0 40:0 41:0.058130074 42:0.068200029 43:0.074666061 44:0.14403543 45:0.97334027 46:0.09789063 47:0.090052083 48:0.023618914 49:0 50:0 51:0.87940449 52:0.090742156 53:0.12443056 54:0.22387347 55:0.36937466 56:0.072907157 57:0.10512242 58:0 59:0 60:0 61:0.98839784 62:0.037523378 63:0.028733563 64:0.0034550598 65:0.12053096 66:0.068057932 67:0.02469603 68:0.032407843 69:0 70:0 71:0.76464444 72:0.067025937 73:0.064630486 74:0.049322736 75:0.57163441 76:0.20229757 77:0.17461193 78:0.077654988 79:0 80:0 81:0.017209858 82:0.19103332 83:0.32678032 84:0.41865435 85:0.75525272 86:0.27157781 87:0.1900025 88:0.029663915 89:0 
-0.892695210811236 0.01091305733759038 0.4969920081344877 0.9086478389052994 0.1056606186902695 0.4639365773818751 0.6641746036836936 0.5526310532964285 0.3557242549975259 0.1451607255372676 0.5794825821469137 0.2219752276796368 0.6424434669160718 0.6234329204873547 0.400986503981653 0.6730703109319732 0:0 1:0.8444472 2:0 3:0 4:0 5:0.5349341 6:0.0024640337 7:0.027183304 8:0.0024925037 9:0 10:0 11:0.87253588 12:0 13:0.043211211 14:0 15:0.4848707 16:0.041363649 17:0 18:0 19:0 20:0 21:0.25573328 22:0.069763683 23:0.04664278 24:0.095517941 25:0.95807934 26:0 27:0.022671755 28:0 29:0 30:0 31:0.94530553 32:0 33:0 34:0 35:0.31727049 36:0.075722203 37:0 38:0 39:0 40:0 41:0.53300953 42:0 43:0.0045457575 44:0.004623102 45:0.84558731 46:0.028960435 47:0 48:0 49:0 50:0 51:0.82560486 52:0.013359495 53:0.059906229 54:0.00056589337 55:0.56089753 56:0 57:0 58:0 59:0 60:0 61:0.13232712 62:0 63:0 64:0 65:0.98078936 66:0.13359854 67:0.051857088 68:0 69:0 70:0 71:0.90530038 72:0.012743564 73:0.054745395 74:0.00065645459 75:0.41939881 76:0.037057273 77:0 78:0 79:0 80:0 81:0.82345825 82:0.076290555 83:0.010813412 84:0.070593089 85:0.55742031 86:0.013910786 87:0 88:0.0090500508 89:0 
-1 1 1 0.4770140409935883 0.7844188693635056 1 1 1 1 1 1 1 1 1 1 1 0:0 1:0.74699736 2:0.029837713 3:0.23125318 4:0.097841486 5:0.45241824 6:0.25756982 7:0.19383207 8:0.26353857 9:0 10:0 11:0.97797501 12:0.052002788 13:0.011619012 14:0.020164514 15:0.16783236 16:0.068074889 17:0.085679352 18:0.013183288 19:0 20:0 21:0.97319597 22:0.039365124 23:0 24:0.050288327 25:0.22015405 26:0.017965961 27:0.00334708 28:0.0026632962 29:0 30:0 31:0.93036801 32:0.086738676 33:0.18680295 34:0.080851413 35:0.29062334 36:0 37:0.031539973 38:0 39:0 40:0 41:0.92391056 42:0.023842312 43:0.0023216228 44:0.037540436 45:0.37067845 46:0.059746914 47:0.058451824 48:0.0035519775 49:0 50:0 51:0.99006903 52:0.054828297 53:0.016748121 54:0.021260129 55:0.12373944 56:0.022382203 57:0.01448248 58:0 59:0 60:0 61:0.99312145 62:0.054413669 63:0.025318926 64:0.020287788 65:0.059029944 66:0.028642584 67:0.0071167322 68:0.073066324 69:0 70:0 71:0.91645932 72:0.059921354 73:0.016014714 74:0.055431392 75:0.31377012 76:0.09666314 77:0.14475013 78:0.15630615 79:0 80:0 81:0.60405278 82:0.03552293 83:0.072387718 84:0.2427713 85:0.46800107 86:0.41631809 87:0.25147274 88:0.33777094 89:0 
-1 0 1 0 0.9032743856361032 0 0 0 0 0 0.1383300854643129 1 0.4715074983370288 0 0 1 0:0 1:0.650419 2:0.18674889 3:0.18184131 4:0.34767413 5:0.58191168 6:0.15120019 7:0.10518255 8:0.12483639 9:0 10:0 11:0.97267854 12:0 13:0.03424025 14:0.053544234 15:0.12892072 16:0.07176397 17:0.10767844 18:0.12840545 19:0 20:0 21:0.99879158 22:0.016434658 23:0.013007134 24:0.021163167 25:0.027638147 26:0.0005261437 27:0.024709422 28:0.012302711 29:0 30:0 31:0.98357779 32:0.022547802 33:0.035971347 34:0.072290517 35:0.1581406 36:0.023142831 37:0 38:0 39:0 40:0 41:0.59555972 42:0.031496529 43:0.041577172 44:0.086487837 45:0.79411095 46:0.057739139 47:0.028998356 48:0.017805204 49:0 50:0 51:0.95827067 52:0.18023807 53:0.1298864 54:0.083480671 55:0.1509199 56:0 57:0.048377898 58:0.016469704 59:0 60:0 61:0.98942828 62:0 63:0.012706532 64:0.013258131 65:0.1415302 66:0.023936544 67:0.0091091525 68:0.002337456 69:0 70:0 71:0.99098259 72:0 73:0.002534979 74:0.012343302 75:0.10972838 76:0.058215521 77:0.048052542 78:0.0073421914 79:0 80:0 81:0.80014026 82:0.14237721 83:0.17719574 84:0.24511611 85:0.48425296 86:0.096389592 87:0.05486799 88:0.034882382 89:0 
-0.303871752416107 1 1 0.5363156698522018 0.5969386778470096 0 0.270773971510398 0 0.1748759797736263 0 0.6972737907158992 1 0.7520816470273852 0 0.852884788389022 1 0:0 1:0.92882168 2:0.055242825 3:0.0019088393 4:0.022255879 5:0.34419343 6:0.035197087 7:0.062914528 8:0.10033607 9:0 10:0 11:0.99863499 12:0.017005887 13:0.02129354 14:0.0014854305 15:0.041395023 16:0 17:0.016371852 18:0 19:0 20:0 21:0.97679257 22:0.018708041 23:0.0010781304 24:0.024165841 25:0.21021867 26:0.022399258 27:0.015634799 28:0.0010967421 29:0 30:0 31:0.99793518 32:0 33:0 34:0 35:0.058845516 36:0 37:0.01317698 38:0.0220773 39:0 40:0 41:0.0064440165 42:0.062148158 43:0.14064509 44:0.072073333 45:0.97483832 46:0.02618861 47:0.090040065 48:0.10960393 49:0 50:0 51:0.99669796 52:0.015888598 53:0.019894551 54:0.0013878376 55:0.070483886 56:0 57:0.03120048 58:0 59:0 60:0 61:0.98725754 62:0.018000619 63:0 64:0.0086400714 65:0.15617476 66:0.010398194 67:0.0086582527 68:0.018665258 69:0 70:0 71:0.99507469 72:0.016001046 73:0.015859025 74:0.00014202076 75:0.094643794 76:0 77:0.0055809864 78:0.018117797 79:0 80:0 81:0.94430685 82:0.074948758 83:0.065770179 84:0.07627321 85:0.29091135 86:0.044133458 87:0.04041585 88:0.065643139 89:0 
-0 0 0 0.08045521616825346 0 0.1330492760973487 0.3192039984700988 0.02466762820545727 0.07655840893847314 0.05342273323035936 0.2015885817336135 0 0.2141624572424605 0.1127448694313787 0.09192190644599055 0.06812346252216843 0:0 1:0 2:0 3:0 4:0 5:0.99652678 6:0.063513212 7:0.05380303 8:0 9:0 10:0 11:0.98069 12:0.004637179 13:0.016657827 14:0.024269676 15:0.19053577 16:0.032436851 17:0 18:0 19:0 20:0 21:0.53344125 22:0.04449733 23:0.042988595 24:0.022535915 25:0.84186679 26:0.042372148 27:0.023768593 28:0 29:0 30:0 31:0.97872061 32:0 33:0 34:0 35:0.1976991 36:0.046943109 37:0.028533326 38:0 39:0 40:0 41:0.030932326 42:0.013860784 43:0.020929249 44:0.047581192 45:0.99578846 46:0.060445622 47:0.029943364 48:0 49:0 50:0 51:0.94201165 52:0.0045330906 53:0.016283916 54:0.028293017 55:0.33395329 56:0 57:0 58:0 59:0 60:0 61:0.5737769 62:0 63:0 64:0.00031731301 65:0.81707013 66:0.052205 67:0.021118047 68:0 69:0 70:0 71:0.938887 72:0.0046018991 73:0 74:0.0050894474 75:0.34286159 76:0.012737825 77:0.026920911 78:0 79:0 80:0 81:0.028480938 82:0.046421696 83:0.043422543 84:0.031057971 85:0.99648571 86:0.013348603 87:0.031905238 88:0 89:0 
-0 0 0 0 0 0 0 0 0 0 0 0 0.1745001531420688 0 0 0 0:0 1:0.36246538 2:0.22103299 3:0.21334825 4:0.28581506 5:0.65413111 6:0.31562805 7:0.34337974 8:0.21709493 9:0 10:0 11:0.83959484 12:0.018609095 13:0.043242723 14:0.032324757 15:0.47309092 16:0.17867287 17:0.15854882 18:0.10459045 19:0 20:0 21:0.96528614 22:0.076310821 23:0.038976997 24:0.027425988 25:0.23301151 26:0.025419248 27:0.051426087 28:0.050402775 29:0 30:0 31:0.70468074 32:0.14818224 33:0.074152999 34:0.16536567 35:0.66425931 36:0.055790637 37:0.059503693 38:0.026942013 39:0 40:0 41:0.070577137 42:0.05546945 43:0.1594062 44:0.092777617 45:0.96134615 46:0.10658681 47:0.14456227 48:0.038399018 49:0 50:0 51:0.91262203 52:0.15786324 53:0.20156798 54:0.091236524 55:0.30400339 56:0.013649889 57:0.025280904 58:0 59:0 60:0 61:0.96727377 62:0.025578264 63:0.10635421 64:0.062334098 65:0.18798269 66:0.057135243 67:0.077097774 68:0.063103139 69:0 70:0 71:0.74680293 72:0.010354639 73:0.040244333 74:0.048179843 75:0.5973497 76:0.16869202 77:0.17921521 78:0.14433418 79:0 80:0 81:0.28069025 82:0.31001955 83:0.31266129 84:0.24617271 85:0.70083493 86:0.21235223 87:0.24242836 88:0.26777345 89:0 
-0 0 0 0 0 0.04540473335742223 0 0 0 0 0 0 0 0 0.0181170547958454 0 0:0 1:0.25697747 2:0.20519809 3:0.1596538 4:0.19526634 5:0.83481747 6:0.26351589 7:0.15620443 8:0.19357495 9:0 10:0 11:0.3229171 12:0.047061097 13:0.045634139 14:0.078560606 15:0.83877683 16:0.099591628 17:0.24270661 18:0.3359755 19:0 20:0 21:0.94801182 22:0.11199881 23:0.056346979 24:0.074203975 25:0.25950104 26:0.03721917 27:0.067405999 28:0.082318068 29:0 30:0 31:0.46397042 32:0.162452 33:0.15497813 34:0.17084917 35:0.83515328 36:0.055734623 37:0.067399099 38:0 39:0 40:0 41:0.0081441021 42:0.054930743 43:0.067761645 44:0.074334241 45:0.99007535 46:0.064875431 47:0.042338051 48:0.023362802 49:0 50:0 51:0.55003577 52:0.42486647 53:0.26089066 54:0.14763571 55:0.65247232 56:0.0061950055 57:0.013706723 58:0.033743918 59:0 60:0 61:0.96512914 62:0.070287995 63:0.017351637 64:0.029526321 65:0.22964489 66:0.038544498 67:0.060124166 68:0.067620538 69:0 70:0 71:0.45974588 72:0.044297736 73:0.021108462 74:0.053009532 75:0.79855448 76:0.14606154 77:0.27810943 78:0.2168972 79:0 80:0 81:0.1786803 82:0.25249201 83:0.27368918 84:0.28944862 85:0.79825401 86:0.12513982 87:0.24502333 88:0.18089712 89:0 
-0.368582668476875 0 0 0 0 0 0 0 0 0 0 0 0 0 0 0 0:0 1:0.088766344 2:0.11713646 3:0.16427149 4:0.050442521 5:0.96698558 6:0.10731518 7:0.045515195 8:0.014526796 9:0 10:0 11:0.84094453 12:0.0171047 13:0.02905198 14:0 15:0.52079612 16:0.10192855 17:0.032980472 18:0.094694756 19:0 20:0 21:0.96665472 22:0.028895576 23:0 24:0.030925062 25:0.24976754 26:0.034013547 27:0.011221047 28:0.010881949 29:0 30:0 31:0.8950913 32:0.043669082 33:0.054639418 34:0.077871539 35:0.43115148 36:0.021157654 37:0.032677531 38:0.021071695 39:0 40:0 41:0.20839424 42:0.029772269 43:0.041752454 44:0.063592352 45:0.96404845 46:0.12728955 47:0.060550295 48:0.025245856 49:0 50:0 51:0.91143906 52:0.061668113 53:0.08869604 54:0.044427037 55:0.38790292 56:0.068264075 57:0.02244895 58:7.8427751e-05 59:0 60:0 61:0.99919474 62:0 63:0 64:0.030485665 65:0.0088556241 66:0.010233698 67:0.018601427 68:0.012205992 69:0 70:0 71:0.84004945 72:0 73:0 74:0.072872147 75:0.50508517 76:0.060674697 77:0.14905103 78:0.089409605 79:0 80:0 81:0.45508924 82:0.1444802 83:0.15918414 84:0.14377676 85:0.76669002 86:0.25603509 87:0.19635266 88:0.18461224 89:0 
-1 0 1 0 0.01882664111885034 1 0.1794097551375601 0 0.5156461616619551 1 1 0 1 0.9234445212701531 0 0.4249846305219564 0:0 1:0.63468647 2:0.11424236 3:0.13948344 4:0.22341251 5:0.64894181 6:0.26544279 7:0.13830703 8:0.063515902 9:0 10:0 11:0.91557193 12:0 13:5.7924077e-05 14:3.1348187e-05 15:0.24893263 16:0.21370947 17:0.20975126 18:0.10044981 19:0 20:0 21:0.97931576 22:0.10670056 23:0.038088474 24:0.060236812 25:0.017666116 26:0.093452916 27:0.073571622 28:0.10007676 29:0 30:0 31:0.93580687 32:0.030748663 33:0.066221051 34:0.088662803 35:0.33021748 36:0.042690817 37:0.014314544 38:0.00010410177 39:0 40:0 41:0.7999202 42:0.0089287078 43:0.043594386 44:0.11405001 45:0.58171326 46:0.046284791 47:0.067842945 48:0.0012798604 49:0 50:0 51:0.92234075 52:0.13956782 53:0.12312912 54:0.21718173 55:0.25907671 56:0.013228633 57:0.013464273 58:0 59:0 60:0 61:0.97854978 62:0.030421806 63:0.048313372 64:0.044302288 65:0.18529959 66:0.050603405 67:0.01260546 68:0.012645685 69:0 70:0 71:0.94343269 72:0.00018801106 73:0.032787774 74:0.071743675 75:0.31648272 76:0.055293325 77:0.022170747 78:8.8692759e-05 79:0 80:0 81:0.73960274 82:0.14271536 83:0.15828823 84:0.35052204 85:0.51707524 86:0.1315808 87:0.0039011065 88:0 89:0 
-1 0.7451631019898373 1 0 1 1 1 1 1 1 1 1 1 1 1 1 0:0 1:0.88769817 2:0.12952791 3:0.13183653 4:0.11877205 5:0.35890788 6:0.15183605 7:0.072437361 8:0.08128576 9:0 10:0 11:0.86581159 12:0 13:0.0017566943 14:0.013039404 15:0.38511062 16:0.18560697 17:0.17589025 18:0.19104204 19:0 20:0 21:0.96703541 22:0.10567334 23:0.086830102 24:0.090812758 25:0.10458596 26:0.091562465 27:0.095505558 28:0.097175531 29:0 30:0 31:0.95310473 32:0.023127643 33:0.071431048 34:0.051044118 35:0.28218326 36:0.034369241 37:0.0058547566 38:0.050037559 39:0 40:0 41:0.87214434 42:0.0071998909 43:0.023070177 44:0.049889591 45:0.48241335 46:0.021318726 47:0.016197165 48:0.053379636 49:0 50:0 51:0.87860471 52:0.16550863 53:0.15294091 54:0.15614681 55:0.3902894 56:0.012398185 57:0.012086069 58:0.016119873 59:0 60:0 61:0.98518288 62:0.0067647998 63:0.018472092 64:0.022413053 65:0.16467367 66:0.029929949 67:0.0086894426 68:0.020855991 69:0 70:0 71:0.96948719 72:0.0046516829 73:0.013105163 74:0 75:0.20339136 76:0.074507348 77:0.093077451 78:0.065698996 79:0 80:0 81:0.86776584 82:0.11258157 83:0.16080417 84:0.2435789 85:0.38263589 86:0.045834616 87:0.019109307 88:0.015487634 89:0 
-0.2462887597193119 0 0 0 0 0.07948114930583752 0 0.06550062092341738 0 0 0.321146423576595 0.1914434837896074 0.2311259800717228 0.2123035398121419 0 0.05128171584242013 0:0 1:0.055775244 2:0.01014149 3:0.046565596 4:0.034336288 5:0.99423862 6:0.050318487 7:0.032548089 8:0.036514256 9:0 10:0 11:0.82136297 12:0.00077213015 13:0.071351066 14:0.028739883 15:0.56114614 16:0.06014441 17:0.024980506 18:0.017752722 19:0 20:0 21:0.073899135 22:0.013614851 23:0.030038716 24:0.025937038 25:0.99573249 26:0.030952757 27:0.014368256 28:0.011265474 29:0 30:0 31:0.83785868 32:0.0096980715 33:0.063302986 34:0.063632794 35:0.53296375 36:0.027965704 37:0.062895477 38:0.032410216 39:0 40:0 41:0.038614493 42:0.0039680712 43:0.034831144 44:0.04856313 45:0.99531126 46:0.049182847 47:0.040919825 48:0.013448846 49:0 50:0 51:0.88695478 52:0.01164031 53:0.011897134 54:0.056161862 55:0.44834417 56:0.059074324 57:0.064641781 58:0.034571797 59:0 60:0 61:0.10432403 62:0.00023145399 63:0.0048416201 64:0.043086059 65:0.99292552 66:0.021148039 67:0.029436428 68:0.0042173667 69:0 70:0 71:0.92436326 72:0.0097552259 73:0.024141619 74:0.048011251 75:0.37041447 76:0.053083349 77:0.048064131 78:0.015198797 79:0 80:0 81:0.0024762009 82:0.036177315 83:0.021651793 84:0.03727736 85:0.99542236 86:0.06249107 87:0.041759573 88:0.017547615 89:0 
-0.07451806324855065 0 0 0 0 0 0 0 0 0 0 0 0.1533064974626212 0 0 0 0:0 1:0.2732155 2:0.22534433 3:0.13663544 4:0.39630222 5:0.72774476 6:0.23463584 7:0.23415472 8:0.24361509 9:0 10:0 11:0.71953589 12:0.07352557 13:0.069154486 14:0.045302544 15:0.54536444 16:0.083147913 17:0.29436857 18:0.28113091 19:0 20:0 21:0.98140305 22:0.0800841 23:0.072676152 24:0.012085587 25:0.1302245 26:0.018499911 27:0.035122309 28:0.08043886 29:0 30:0 31:0.80501157 32:0.12762327 33:0.056360338 34:0.19411534 35:0.53643906 36:0.034172472 37:0.076643676 38:0 39:0 40:0 41:0.073950887 42:0.074437834 43:0.10645378 44:0.096381828 45:0.97691315 46:0.074274428 47:0.087880656 48:0.027689395 49:0 50:0 51:0.73604643 52:0.35104376 53:0.26719302 54:0.097466893 55:0.49856836 56:0.033964701 57:0.04719178 58:0.0464467 59:0 60:0 61:0.99337316 62:0.019003881 63:0.019156313 64:0.017843254 65:0.094489157 66:0.032100741 67:0.046864718 68:0.0025311203 69:0 70:0 71:0.81513888 72:0.018051397 73:0.06092339 74:0.013365983 75:0.5027926 76:0.14374109 77:0.17467742 78:0.16539575 79:0 80:0 81:0.32207403 82:0.25647274 83:0.365336 84:0.28693494 85:0.69296998 86:0.18557155 87:0.23897617 88:0.20719413 89:0 
-0.0350546228226656 0 0 0 0 0 0.1050336300355871 0 0 0.07585202456921836 0.5674964505363583 0.6151407418666641 1 0 0 0.7549354001034658 0:0 1:0.39657927 2:0.30458799 3:0.24775319 4:0.19306055 5:0.62724215 6:0.30858332 7:0.20160593 8:0.34926844 9:0 10:0 11:0.98267245 12:0.02331461 13:0.03413314 14:0.018310307 15:0.11425368 16:0.095757946 17:0.05328526 18:0.08512082 19:0 20:0 21:0.99696171 22:0.029211055 23:0.022749685 24:0.0027121457 25:0.058136225 26:5.3435175e-05 27:0.00096708268 28:0.036148425 29:0 30:0 31:0.88826025 32:0.13933641 33:0.1717335 34:0.18034895 35:0.35452169 36:0.057693798 37:0.00013611178 38:0.023322606 39:0 40:0 41:0.074645564 42:0.077531986 43:0.054961063 44:0.15772265 45:0.95996326 46:0.14950135 47:0.025614699 48:0.12640351 49:0 50:0 51:0.97753382 52:0.12068258 53:0.106687 54:0.041454755 55:0.12428378 56:0.024267305 57:0.018836498 58:0.019236906 59:0 60:0 61:0.99313587 62:0.076725855 63:0.026680186 64:0.031521808 65:0.038984742 66:0.017313983 67:0.018773118 68:0.0625697 69:0 70:0 71:0.9144789 72:0.016307222 73:0.028598037 74:0.045352872 75:0.27627307 76:0.13818149 77:0.16426669 78:0.19539827 79:0 80:0 81:0.31679949 82:0.29539561 83:0.26024032 84:0.35086706 85:0.57523042 86:0.25994065 87:0.27168673 88:0.38635099 89:0 
-1 0.4254367047809325 0.5469955530555489 1 0.6559371330168539 0.6749967518760649 1 0.3870944241211346 0.5718501818179343 0.5088971047312809 0.7647289809466131 0.7185341644065287 0.6380431442520226 0.625204153677583 0.8384104803022143 0.6977826327012632 0:0 1:0.006052176 2:0.064352483 3:0.023164561 4:0.11501594 5:0.98384804 6:0.090964191 7:0.0642014 8:0.041211352 9:0 10:0 11:0.077103503 12:0.19128349 13:0.17227232 14:0.29267898 15:0.87529075 16:0.17028208 17:0.12659751 18:0.17596065 19:0 20:0 21:0.072685234 22:0.03153073 23:0.032318771 24:0.04105445 25:0.9879958 26:0.11240941 27:0.022301672 28:0.041453615 29:0 30:0 31:0.076702774 32:0.1535015 33:0.087859698 34:0.19944069 35:0.91647232 36:0.12080902 37:0.16353013 38:0.20443366 39:0 40:0 41:0.0031582653 42:0.041412439 43:0.024453649 44:0.10755961 45:0.98682672 46:0.090929009 47:0.053532999 48:0.033807278 49:0 50:0 51:0.38550475 52:0.092671417 53:0.18686962 54:0.098338798 55:0.80346966 56:0.2332409 57:0.23955704 58:0.20210166 59:0 60:0 61:0.061717909 62:0.026355904 63:0.01563479 64:0.046131667 65:0.99412239 66:0.054984 67:0.023626631 68:0.035465751 69:0 70:0 71:0.38668272 72:0.036229908 73:0.15867934 74:0.12688221 75:0.86692929 76:0.11546707 77:0.13614321 78:0.15633719 79:0 80:0 81:0.017720329 82:0.0028496049 83:0.038567126 84:0.12134682 85:0.98172641 86:0.097239241 87:0.083869576 88:0.056418978 89:0 
-0 0 1 0 0 0 0 0 0 0 0 0 0 0 0 1 0:0 1:0.90715295 2:0.022650698 3:0.012075722 4:0 5:0.40985921 6:0.076581255 7:0.01190632 8:0.049187373 9:0 10:0 11:0.96659523 12:0 13:0.022690261 14:0.022970408 15:0.25062099 16:0.025276314 17:0.030057166 18:0.017197128 19:0 20:0 21:0.97994047 22:0.0089514079 23:0.012545259 24:0.016968017 25:0.19708659 26:0.0075508114 27:0.0050838548 28:0.016234677 29:0 30:0 31:0.96706009 32:0 33:0 34:0 35:0.25144866 36:0.037591983 37:0.0043161074 38:0.011610329 39:0 40:0 41:0.032555766 42:0.057861689 43:0.048347387 44:0.082081281 45:0.98723561 46:0.10678002 47:0.012379217 48:0.018034065 49:0 50:0 51:0.96779919 52:0.02064533 53:0.032617986 54:0.064613432 55:0.23905577 56:0.010852681 57:0.020788932 58:0 59:0 60:0 61:0.98911554 62:0.0074020769 63:0 64:0.002414881 65:0.14594083 66:0.004322126 67:0.015927257 68:0.0041527054 69:0 70:0 71:0.94016171 72:0.024526505 73:0.020577792 74:0.03687318 75:0.33585295 76:0.030197611 77:0.00016684692 78:0 79:0 80:0 81:0.91123199 82:0.07536491 83:0.041390602 84:0.12066371 85:0.38080242 86:0.039580852 87:0.014609209 88:0.030147757 89:0 
-0 0 0 0.4983464009757977 0 0 0 0 0 0 0 0 0 0 0.2775803829043129 0 0:0 1:0.26064941 2:0.24738587 3:0.18314815 4:0.22942582 5:0.77533787 6:0.29183775 7:0.26310426 8:0.17068867 9:0 10:0 11:0.3887437 12:0 13:0.06866312 14:0.011647705 15:0.8392362 16:0.23879896 17:0.13440543 18:0.25419897 19:0 20:0 21:0.92487305 22:0.13193122 23:0.045912869 24:0.065921217 25:0.33219954 26:0.058377635 27:0.035846777 28:0.075486541 29:0 30:0 31:0.36135814 32:0.19949743 33:0.11695091 34:0.22842908 35:0.86938071 36:0.021483917 37:0.08646477 38:0 39:0 40:0 41:0.053831447 42:0 43:0.12054267 44:0.028572401 45:0.9854753 46:0.039319698 47:0.095105954 48:0 49:0 50:0 51:0.5773986 52:0.30653319 53:0.1673509 54:0.1322445 55:0.72541934 56:0.029241217 57:0.0078674164 58:0 59:0 60:0 61:0.93114525 62:0.071198359 63:0.11212242 64:0.062472276 65:0.2830362 66:0.08779332 67:0.13364784 68:0.075785384 69:0 70:0 71:0.39595571 72:0 73:0.064091951 74:0.0020742181 75:0.85666198 76:0.19531131 77:0.19976509 78:0.1648685 79:0 80:0 81:0.26403594 82:0.25534281 83:0.27893505 84:0.21181743 85:0.78100789 86:0.18138158 87:0.26251107 88:0.17499694 89:0 
-1 0 0.4379392469253183 0.3943989806494349 0 0 0 0 0 0 0 0 0 0 0 0 0:0 1:0.73224676 2:0.063799687 3:0.089173041 4:0.12406881 5:0.6218583 6:0.17670053 7:0.11537562 8:0.071789265 9:0 10:0 11:0.75464749 12:0.0030940762 13:0.025058761 14:0.041864268 15:0.55163312 16:0.20293827 17:0.13479219 18:0.25389451 19:0 20:0 21:0.96321887 22:0.041305501 23:0.12286948 24:0.054228541 25:0.16201322 26:0.10659146 27:0.11507764 28:0.040127352 29:0 30:0 31:0.86230457 32:0.017379297 33:0.08845333 34:0.062629193 35:0.48845339 36:0.05910714 37:0.017333195 38:0.044715103 39:0 40:0 41:0.68803179 42:0.0023772619 43:0.037093289 44:0.065436617 45:0.71501392 46:0.068376899 47:0.018936791 48:0.068319634 49:0 50:0 51:0.77389526 52:0.13667879 53:0.16415581 54:0.21030578 55:0.55727786 56:0.017068705 57:0.0012100864 58:0.019376079 59:0 60:0 61:0.93531328 62:8.5661071e-05 63:0.013255501 64:0.05689412 65:0.34517494 66:0.049247179 67:0.006603539 68:0.012640667 69:0 70:0 71:0.83480275 72:0 73:0.056253161 74:0.036122084 75:0.5361343 76:0.075681172 77:0.066221938 78:0.032858819 79:0 80:0 81:0.79833221 82:0.05411502 83:0.12129536 84:0.2111472 85:0.54234838 86:0.079354204 87:0 88:0 89:0 
-0.8501377516880515 0 0 1 0.3478246417271267 0.202429058771331 0.5282201141062804 0.2713520515774952 0.08483067638797619 0.02082257803154537 0.4786659167713398 0.0583294346859142 0.262977855935313 0.4250606463544805 0.8577156523797012 0.417858646978531 0:0 1:0.37708959 2:0.016487956 3:0.014744167 4:0.20783423 5:0.8957175 6:0.060428679 7:0.058169469 8:0.06904228 9:0 10:0 11:0.10773332 12:1.8681476e-10 13:7.4725903e-10 14:0.045432843 15:0.97732443 16:0.10996995 17:0.0019881523 18:0.13805047 19:0 20:0 21:0.70690364 22:0.052137971 23:0.21043883 24:0.074177153 25:0.62592787 26:0.21815807 27:0.047001678 28:0.078641981 29:0 30:0 31:0.74615741 32:0.05626405 33:0.022586342 34:0.20602724 35:0.62718564 36:0.0049011065 37:0.05687521 38:0.022308579 39:0 40:0 41:0.075998977 42:0.022614513 43:0.019745169 44:0.13242503 45:0.97904444 46:0.087274782 47:0.062450994 48:0.075752974 49:0 50:0 51:0.73448932 52:0 53:0.0048086261 54:9.8263488e-11 55:0.66846061 56:0.061859302 57:0.018505923 58:0.097405419 59:0 60:0 61:0.70258069 62:5.5965127e-10 63:0.03691107 64:0.27194273 65:0.65463626 66:0.041132942 67:0.028425394 68:2.7982563e-10 69:0 70:0 71:0.35020152 72:0.027546581 73:0.023450451 74:0.26989952 75:0.89209157 76:0.0063431901 77:0.079956755 78:0.03054164 79:0 80:0 81:0.65863609 82:0.093267158 83:0.078003019 84:0.1119647 85:0.69426262 86:0.13744211 87:0.13756593 88:0.13804843 89:0 
-1 1 1 0.8370484663403538 0.1194526456966584 1 1 1 1 0.481091111270717 1 0.3125622596136532 1 1 0.8072706254430391 1 0:0 1:0.95166814 2:0 3:0 4:0 5:0.29845828 6:0.020920992 7:0.027265698 8:0.063752629 9:0 10:0 11:0.85149461 12:0 13:0 14:0 15:0.50310743 16:0.092984192 17:0.072144821 18:0.089364678 19:0 20:0 21:0.98847198 22:0.052706011 23:0.0040513929 24:0.013856341 25:0.12915817 26:0.0055922382 27:0.044541374 28:0.035177834 29:0 30:0 31:0.97606426 32:0.02991657 33:0.027048254 34:0.0035881607 35:0.21335724 36:0.011516039 37:2.1142023e-05 38:0.001760658 39:0 40:0 41:0.84339505 42:0.038170911 43:0.033589538 44:0.012140043 45:0.53152448 46:0.041783541 47:0.022214469 48:0.034522943 49:0 50:0 51:0.8631829 52:0.12020304 53:0.072386734 54:0.090866461 55:0.4742437 56:0.038046073 57:0.024749029 58:0 59:0 60:0 61:0.99018824 62:0 63:0 64:0 65:0.13973069 66:0 67:0 68:0 69:0 70:0 71:0.9556843 72:0.035373736 73:0.031957205 74:0.004267686 75:0.27680439 76:0.068465099 77:0.055373527 78:2.499844e-05 79:0 80:0 81:0.81949425 82:0.038433392 83:0.1820884 84:0.22755177 85:0.45405278 86:0.18374571 87:0.045668282 88:0 89:0 
-1 0.1190594033204871 0.7004055724944436 1 0.6036366512215799 0.05002811696515014 1 0 0.1104465967496675 0 0.2148987134619419 0.9753517772319568 0.2690211060195405 0.1167619975545324 0.2342460198949649 1 0:0 1:0.043066315 2:0.0001791269 3:0 4:0 5:0.98262101 6:0.1706333 7:0.058933709 8:0 9:0 10:0 11:0.98797113 12:0 13:0.0026625881 14:0.042893834 15:0.14751729 16:0.012410745 17:0 18:0.012143169 19:0 20:0 21:0.9999975 22:0 23:0 24:0 25:0 26:0 27:0 28:0 29:0 30:0 31:0.97896391 32:0 33:0 34:0 35:0.19804826 36:0.049017847 37:0 38:0 39:0 40:0 41:0.065260775 42:0.031784698 43:0.064875424 44:0.082091704 45:0.98626304 46:0.098929971 47:0.033651326 48:0.012056203 49:0 50:0 51:0.98556936 52:0 53:0.0029145647 54:0.046953131 55:0.16147773 56:0.013585247 57:0 58:0.013292348 59:0 60:0 61:0.99999774 62:0 63:0 64:0 65:0 66:0 67:0 68:0 69:0 70:0 71:0.97278494 72:0 73:0 74:0 75:0.22491419 76:0.055667289 77:0 78:0 79:0 80:0 81:0.046353757 82:0.10971812 83:0.21562527 84:0.067156695 85:0.96529168 86:0.0014854894 87:0.054842733 88:0 89:0 
-0.6869118172372604 0.3179348452808856 0.2725968044326654 0.3876850966307691 0.2540815818368837 0.3046527256928617 0.3988875080645868 0.1312202848956547 0.3319364786916164 0.3354972633174908 0.1048486175050566 0.2984346875279452 0.02433354620730197 0.1452233571940685 0.4381856261916753 0 0:0 1:0.012330061 2:0 3:0 4:0 5:0.99950242 6:0.028846122 7:0 8:0.0025187805 9:0 10:0 11:0.87184876 12:0.0011038005 13:0 14:0.041818615 15:0.48742634 16:0.011115333 17:0 18:0.020446546 19:0 20:0 21:0.10187952 22:0.048826691 23:0.03991463 24:0.0045063486 25:0.99202287 26:0.03885334 27:0 28:0 29:0 30:0 31:0.86859936 32:0.00054237276 33:0.00034219294 34:0 35:0.49447078 36:0.025519876 37:0 38:0.019455131 39:0 40:0 41:0.022042809 42:0.0024799448 43:0.0012724387 44:0.028447621 45:0.99911767 46:0.021388993 47:0.00022340803 48:0.0011467384 49:0 50:0 51:0.88651663 52:0.00095062994 53:0 54:0.036015593 55:0.46105957 56:0 57:0 58:0.014532278 59:0 60:0 61:0.10543632 62:0.0019270298 63:0.0033014657 64:0 65:0.99383593 66:0.033975117 67:0 68:0 69:0 70:0 71:0.86820763 72:0.00047450187 73:0.00029937195 74:0.0088566495 75:0.49563903 76:0.01454759 77:0 78:0.016243182 79:0 80:0 81:0.032116693 82:0.00019917433 83:0.0087979399 84:0.033207957 85:0.99877614 86:0.015040616 87:0.00045659565 88:0.0019893378 89:0 
-1 1 1 0 0 1 1 0.8349154119864416 1 1 1 1 1 1 1 0 0:0 1:0.7551136 2:0.12761882 3:0.10752396 4:0.28222203 5:0.47294009 6:0.25002223 7:0.17525527 8:0.073511593 9:0 10:0 11:0.93823588 12:0 13:0 14:0 15:0.21205908 16:0.15105316 17:0.20415911 18:0.10121043 19:0 20:0 21:0.97876924 22:0.10331012 23:0.037757121 24:0.079206802 25:0.03528836 26:0.044773422 27:0.058850266 28:0.13008606 29:0 30:0 31:0.98216933 32:0.024934303 33:0.033975359 34:0.10062236 35:0.15085627 36:0 37:0.026134975 38:0 39:0 40:0 41:0.79372424 42:0.083804145 43:0.078025006 44:0.10018539 45:0.57930291 46:0.078201972 47:0.069413118 48:0.018005546 49:0 50:0 51:0.92240423 52:0.14941931 53:0.17909554 54:0.18140469 55:0.24790409 56:0.014301226 57:0.01406272 58:0 59:0 60:0 61:0.99936837 62:0.0017929955 63:0.003290711 64:1.6672841e-05 65:0.027732244 66:0 67:0.020244857 68:0.0082639512 69:0 70:0 71:0.98888361 72:0.0011801706 73:0.01104096 74:0.0071532796 75:0.10968504 76:0.05505963 77:0.082822338 78:0.0032813742 79:0 80:0 81:0.72415656 82:0.14556205 83:0.26894009 84:0.31637436 85:0.51952559 86:0.09209235 87:0.059848085 88:0.0037181671 89:0 
-0 0 0 0 0 0 0 0 0 0 0 0 0 0 0.1458841049254634 0 0:0 1:0.23671231 2:0.18409854 3:0.15893272 4:0.20416109 5:0.82861876 6:0.24142873 7:0.22944987 8:0.21350433 9:0 10:0 11:0.2973167 12:0.029800693 13:0.03746504 14:0.063433386 15:0.87549543 16:0.20473385 17:0.13042375 18:0.28260404 19:0 20:0 21:0.89646405 22:0.14339387 23:0.033995178 24:0.077414781 25:0.3794125 26:0.092864729 27:0.031221451 28:0.12282682 29:0 30:0 31:0.43449396 32:0.11821695 33:0.16920605 34:0.23459786 35:0.83567607 36:0.063173935 37:0.09413708 38:0.048608642 39:0 40:0 41:0.081784986 42:0.021357771 43:0.064874068 44:0.066775307 45:0.98473501 46:0.068509489 47:0.080201477 48:0.057933524 49:0 50:0 51:0.5545122 52:0.29580796 53:0.20026377 54:0.19700627 55:0.72462767 56:0.010417296 57:0.015513031 58:0.02567552 59:0 60:0 61:0.91028339 62:0.066659354 63:0.037125099 64:0.057896592 65:0.38256928 66:0.068954065 67:0.071348652 68:0.077480644 69:0 70:0 71:0.4130289 72:0 73:0.039032914 74:0.04934464 75:0.79652178 76:0.32007414 77:0.2508398 78:0.16009602 79:0 80:0 81:0.31950033 82:0.20440505 83:0.28850868 84:0.24305984 85:0.76492447 86:0.19966789 87:0.20833153 88:0.21316522 89:0 
-0.7710849559659279 0.0798872232272029 0.1095289953168604 0.9723663163493104 0.03151884746309972 0.1691646426457088 0.2357938904433898 0.2408945632305108 0.1022318448153335 0.1163527586431205 0.1261748286022848 0.2916144095284943 0.1672813236635337 0.08928223538569795 0.3757109402457084 0.06117585477205566 0:0 1:0.25582632 2:0.22582886 3:0.14905341 4:0.2585434 5:0.76587039 6:0.28055 7:0.28218356 8:0.22269338 9:0 10:0 11:0.16230568 12:0.06053796 13:0.019226033 14:0.076865569 15:0.89141214 16:0.21497755 17:0.26667961 18:0.22751069 19:0 20:0 21:0.85733128 22:0.12437188 23:0.075702175 24:0.094965935 25:0.4659977 26:0.049375385 27:0.10090426 28:0.070629761 29:0 30:0 31:0.23310696 32:0.16923751 33:0.11557697 34:0.25408202 35:0.91098475 36:0.036756359 37:0.08637242 38:0.019892992 39:0 40:0 41:0.033969607 42:0.085757144 43:0.045894571 44:0.073387645 45:0.98765814 46:0.056802947 47:0.066099286 48:0.030540464 49:0 50:0 51:0.49908173 52:0.33918744 53:0.17516416 54:0.19063157 55:0.75158376 56:0.039933756 57:0.048626028 58:0.0023820279 59:0 60:0 61:0.85974103 62:0.061301559 63:0.070546143 64:0.1677002 65:0.43823329 66:0.10939623 67:0.13853897 68:0.02783508 69:0 70:0 71:0.32022652 72:0.054060917 73:0.028477293 74:0.038579825 75:0.87473375 76:0.16660587 77:0.27873656 78:0.14703216 79:0 80:0 81:0.22696641 82:0.29518956 83:0.21137439 84:0.28194222 85:0.76332217 86:0.20537354 87:0.21810876 88:0.25448567 89:0 
-0.1219679292219615 0 0 0 0.1528097627715355 0 0 0 0 0 0 0 0 0 0.1157342431747134 0.4667871893393863 0:0 1:0.21645151 2:0.28011736 3:0.17482474 4:0.22702128 5:0.79124016 6:0.24290818 7:0.20654511 8:0.2546517 9:0 10:0 11:0.66091198 12:0 13:0 14:0.049805805 15:0.66282731 16:0.14079833 17:0.22367854 18:0.22696692 19:0 20:0 21:0.98887837 22:0.065728843 23:0.024518138 24:0.049164925 25:0.086355105 26:0.020652469 27:0.055118978 28:0.062102158 29:0 30:0 31:0.69044828 32:0.19430365 33:0.13114215 34:0.12841423 35:0.66619873 36:0.088056654 37:0.0038913479 38:0.015673589 39:0 40:0 41:0.057132319 42:0.027602158 43:0.035857674 44:0.074061505 45:0.98964024 46:0.087854415 47:0.023763131 48:0.039104383 49:0 50:0 51:0.79274547 52:0.26892373 53:0.13135472 54:0.16157976 55:0.50462651 56:0.0051307161 57:0.034485001 58:0.0023250284 59:0 60:0 61:0.982279 62:0.090349168 63:0.011788095 64:0.017051388 65:0.12414956 66:0.052584756 67:0.043489724 68:0.080394551 69:0 70:0 71:0.6976347 72:0.024290493 73:0.041559301 74:0.051236749 75:0.64022118 76:0.18895856 77:0.13779505 78:0.20924701 79:0 80:0 81:0.74507785 82:0.21932153 83:0.17947473 84:0.1745075 85:0.52467382 86:0.14471218 87:0.10773281 88:0.16204321 89:0 
-0.1209533718136578 0 0 0 0.5475452414414008 0 0 0 0 0 0 0 0 0 0.002612532519980471 0 0:0 1:0.19793074 2:0 3:0 4:0.063498132 5:0.97681803 6:0.039041378 7:0.033002734 8:0 9:0 10:0 11:0.82900846 12:0 13:0.0026022114 14:0.030796653 15:0.55791634 16:0.0088961208 17:0.020858951 18:0 19:0 20:0 21:0.3930558 22:0.055543967 23:0.021049695 24:0.054505054 25:0.91517234 26:0.030686105 27:0 28:0.022781722 29:0 30:0 31:0.91602319 32:0 33:0.0087109292 34:0.026184175 35:0.39834815 36:0.025632462 37:0.021667324 38:0.018101094 39:0 40:0 41:0.31981012 42:5.0719671e-05 43:0.019190641 44:0.068686016 45:0.94426036 46:0.020634983 47:0.021794515 48:0.010226955 49:0 50:0 51:0.86990267 52:0 53:0.0024078565 54:0.03102953 55:0.49223593 56:0 57:0 58:0 59:0 60:0 61:0.20978448 62:0 63:0.012803247 64:0.069876857 65:0.97341734 66:0.047519263 67:0.032690648 68:0.0083291708 69:0 70:0 71:0.91796428 72:0 73:0.0074650822 74:0.018472634 75:0.39495385 76:0.021966478 77:0.015131569 78:0.015512254 79:0 80:0 81:0.81027323 82:0.00027819007 83:0 84:0.025515482 85:0.58549315 86:0 87:0 88:0 89:0 
-1 0 0.02423448276564222 0 0 0.7558255787709199 0.5034232630890159 0 0 1 1 0 1 1 0 0.1041893957123824 0:0 1:0.5477618 2:0.28889176 3:0.17969339 4:0.31233221 5:0.43322769 6:0.38510579 7:0.24885359 8:0.29787135 9:0 10:0 11:0.93082017 12:0.033154976 13:0.0458524 14:0.028675737 15:0.28772202 16:0.10948058 17:0.10360512 18:0.15505549 19:0 20:0 21:0.99229681 22:0.076301724 23:0.026542913 24:0.014849366 25:0.054614119 26:0.015491108 27:0.049314678 28:0.054251365 29:0 30:0 31:0.91193682 32:0.13156436 33:0.13262041 34:0.13337845 35:0.33395594 36:0.027213547 37:0.021949554 38:0.054144841 39:0 40:0 41:0.43094185 42:0 43:0.16493639 44:0.040169489 45:0.87295115 46:0.062625349 47:0.03249301 48:0.13580728 49:0 50:0 51:0.9005416 52:0.28695238 53:0.17098908 54:0.072864369 55:0.25578499 56:0.069991089 57:0.0093816947 58:0.041478142 59:0 60:0 61:0.96263015 62:0.043573625 63:0.063370205 64:0.10088441 65:0.1970816 66:0.10647402 67:0.079258069 68:0.028080476 69:0 70:0 71:0.90580004 72:3.7868125e-05 73:0.044983972 74:0.011377389 75:0.30503732 76:0.15368307 77:0.13916852 78:0.20331141 79:0 80:0 81:0.43790901 82:0.32782429 83:0.33849451 84:0.2706899 85:0.41204396 86:0.36902294 87:0.31158438 88:0.33145711 89:0 
-0 0 1 1 0.1538779215252942 0 0.01053765606511648 0 0 0 0 0 0 0.02911481060486586 0 1 0:0 1:0.90395051 2:0.021827888 3:0 4:0.03223167 5:0.42040217 6:0.059549276 7:0.019901341 8:0.025955841 9:0 10:0 11:0.81342655 12:0.044933055 13:0.034785461 14:0.081156649 15:0.57302719 16:0.0010753463 17:0.012092739 18:0.0033258758 19:0 20:0 21:0.96074408 22:0.013851561 23:0.011163843 24:0.0053268028 25:0.27640074 26:0.002631085 27:0.012716928 28:0.0076141646 29:0 30:0 31:0.88480759 32:0 33:0 34:0 35:0.46400788 36:0.017467827 37:0.036989197 38:0.011692146 39:0 40:0 41:0.014780464 42:0.081022374 43:0.025612265 44:0.078944407 45:0.99013716 46:0.03994805 47:0.064461187 48:0.014268307 49:0 50:0 51:0.90524554 52:0.069977082 53:0.03008065 54:0.092995845 55:0.40739459 56:0.010182616 57:0.0020768724 58:0 59:0 60:0 61:0.96395636 62:0.0079456661 63:0.0026232412 64:0.010623489 65:0.2642355 66:0.0066713621 67:0.026287457 68:0.0068784244 69:0 70:0 71:0.68974131 72:0.032056086 73:0.013485663 74:0.032056086 75:0.72083253 76:0.014965072 77:0.046817206 78:0.0012487251 79:0 80:0 81:0.94782948 82:0.0587993 83:0.019897508 84:0.060517598 85:0.30295688 86:0.029959347 87:0.029447939 88:0.023517663 89:0 
-0 0 0 0 0 0 0.08444821219853857 0 0 0 0 0 0 0 0 0 0:0 1:0.6455673 2:0.14527991 3:0.14366817 4:0.28391606 5:0.60363555 6:0.22687747 7:0.13083142 8:0.1670827 9:0 10:0 11:0.8080703 12:0.033303995 13:0.039523304 14:0.077536508 15:0.47685903 16:0.19297913 17:0.1698691 18:0.21176612 19:0 20:0 21:0.99265015 22:0.07160607 23:0.025674524 24:0.0073956647 25:0.031954572 26:0.0096786898 27:0.013673667 28:0.086605594 29:0 30:0 31:0.89312071 32:0.10369663 33:0.057651069 34:0.096513003 35:0.42071104 36:0.043696377 37:0 38:0.0058607063 39:0 40:0 41:0.52264607 42:0.028166091 43:0.098899737 44:0.077351987 45:0.83869714 46:0.079595007 47:0.010411123 48:0.020591319 49:0 50:0 51:0.76349777 52:0.17604269 53:0.19865143 54:0.1793447 55:0.55949533 56:0.035924863 57:0.011167603 58:0.00020712061 59:0 60:0 61:0.95693976 62:0.09525951 63:0.013714112 64:0.040846717 65:0.26158756 66:0.058201101 67:0.033022236 68:0.02066635 69:0 70:0 71:0.80902731 72:0.023345053 73:0.046521228 74:0.022038901 75:0.57190281 76:0.094137609 77:0.066518597 78:0.043791812 79:0 80:0 81:0.64213294 82:0.11118472 83:0.21498995 84:0.2230683 85:0.68355858 86:0.08270736 87:0.072217211 88:0.0033640948 89:0 
-1 1 1 1 1 1 1 1 1 1 1 1 1 1 1 1 0:0 1:0.96634293 2:0.044129204 3:0.027222533 4:0.098062404 5:0.12575819 6:0.15666671 7:0.082783073 8:0.081598893 9:0 10:0 11:0.98958743 12:0.018860962 13:0.057556108 14:0.098105237 15:0.082329884 16:0.01838693 17:0.0089274412 18:0.015000987 19:0 20:0 21:0.97632915 22:0.050624989 23:0.03841491 24:0.1193933 25:0.16378783 26:0.024671307 27:0.024640087 28:0.021053994 29:0 30:0 31:0.99032873 32:0.0037083689 33:0.0096196784 34:0.021531193 35:0.10162836 36:0.07550589 37:0.046501085 38:0.022036437 39:0 40:0 41:0.68187749 42:0.12379945 43:0.12423395 44:0.24811451 45:0.64139706 46:0.10699857 47:0.10811121 48:0.090491809 49:0 50:0 51:0.98966908 52:0.015791576 53:0.048515178 54:0.082139835 55:0.097623155 56:0.027183952 57:0.0017885085 58:0.030501554 59:0 60:0 61:0.99021548 62:0.010776786 63:0.027798969 64:0.028257219 65:0.11270964 66:0.050907806 67:0.047261648 68:0.015976228 69:0 70:0 71:0.96586305 72:0.024142757 73:0.033276375 74:0.011985421 75:0.24913883 76:0.040018294 77:0.026738618 78:0.029759945 79:0 80:0 81:0.96113253 82:0.048925243 83:0.025252137 84:0.067488767 85:0.17330348 86:0.1053029 87:0.091093674 88:0.13860913 89:0 
