svm_type c_svc
kernel_type rbf
gamma 0.5
nr_class 17
total_sv 823
rho -0.439914 -0.756736 -0.663567 -0.147231 -0.489788 -0.612985 -0.216495 -0.811075 -0.659008 -0.685039 -0.330762 -0.532904 -0.636273 -0.68208 -0.415033 -0.439506 -0.495948 -0.373322 0.244911 -0.189462 -0.179707 0.163134 -0.518743 -0.337595 -0.403833 0.0283221 -0.227987 -0.204563 -0.205306 -0.0782347 -0.0447173 0.255545 0.61425 0.382787 0.319324 0.66351 0.424823 0.766859 0.366811 0.679712 0.31372 0.384599 0.273821 0.760357 0.3987 0.4911 0.25987 0.191497 0.67847 -0.185492 0.0423537 0.201264 0.560425 0.0671882 0.0838735 0.0391111 0.561358 0.497336 -0.381716 -0.397132 -0.108382 -0.627969 -0.487347 -0.521089 -0.258103 -0.419181 -0.400896 -0.431457 -0.146843 -0.287439 -0.145794 0.257573 -0.27333 -0.222469 -0.206776 0.244978 -0.289904 -0.171517 -0.233424 0.126683 0.0195646 0.418933 -0.486542 0.119037 0.187435 0.796493 -0.148329 0.0694339 -0.090367 0.362162 0.232352 -0.688676 -0.601256 -0.647347 -0.225847 -0.366884 -0.346125 -0.465155 -0.109429 -0.268268 0.484398 0.355952 0.721243 0.268714 0.477118 0.444994 0.783651 0.489224 -0.0970618 0.36815 0.110836 0.180717 0.109508 0.454075 0.33283 0.63398 0.180602 0.359466 -0.015803 0.426368 0.265098 -0.429604 -0.203903 -0.423681 -0.080253 -0.198156 -0.275132 -0.11451 0.438877 0.296669 -0.216418 0.225404 0.234002 0.404944 0.348419 -0.176074
label 0 1 2 3 4 5 6 7 8 9 10 11 12 13 14 15 16
nr_sv 51 40 53 50 38 44 54 40 52 55 55 55 45 48 39 53 51
SV
0.8105171744665604 0.002767321091448259 0.2334581295743664 0.6523130752598967 0.2090220844577916 0.3336048065459337 0.5793354722357904 0.4382908536507499 0.1735871948036921 0.2223274749828642 0.4255494330045149 0.3143060909749336 0.4856925500416147 0.2858601590064416 0.5256861602958737 0.4074923074852941 0:0 1:0.27787822 2:0.020060197 3:0.077943482 4:0.59230483 5:0.74528599 6:0.091684118 7:0.040206838 8:0 9:0 10:0.44847423 11:0.01411117 12:0.082194827 13:0.46469411 14:0.7537235 15:0.065319449 16:0.060003262 17:0 18:0 19:0.4952642 20:0.21500471 21:0.078541994 22:0.46247801 23:0.6813665 24:0.064161323 25:0.14155939 26:0 27:0 28:0.48272794 29:0.11066126 30:0.19948246 31:0.36699542 32:0.74698496 33:0.13525809 34:0.062903598 35:0 36:0 37:0.95148069 38:0.018257631 39:0.040643986 40:0.03842942 41:0.2733784 42:0 43:0.12836742 44:0 45:0 46:0.41435191 47:0.0010076389 48:0.071694829 49:0.37744889 50:0.81918371 51:0.095624641 52:0.021867739 53:0 54:0 55:0.34851769 56:0.046641827 57:0.013352587 58:0.02934235 59:0.92698348 60:0.1172193 61:0.047680043 62:0 63:0 64:0.86091393 65:8.8792862e-05 66:0.034404848 67:0 68:0.50757259 69:0 70:0.0012503169 71:0 72:0 73:0.34983569 74:0.075969346 75:0.0050089653 76:0.10101417 77:0.88057494 78:0.082773454 79:0.28163394 80:0 
0 0 0 0.0325759650401761 0 0 0 0 0 0 0 0 0 0 0 0.09917303098784493 0:0 1:0.011102882 2:0 3:0 4:0.47243631 5:0.82410109 6:0.23738275 7:0.20282908 8:0 9:0 10:0.93962979 11:0 12:0 13:0.050412472 14:0.33802956 15:0.016859157 16:0.00058250834 17:0 18:0 19:0.99999642 20:0 21:0 22:0 23:0 24:0 25:0 26:0 27:0 28:0.00054928259 29:0 30:0 31:0.50477487 32:0.86023539 33:0.054906063 34:0.046599135 35:0 36:0 37:0.86598074 38:0 39:0 40:0.10568925 41:0.47763333 42:0.072591767 43:0.074153915 44:0 45:0 46:0.83198577 47:0 48:0 49:0.10218968 50:0.54514199 51:0.013132302 52:0.00045374007 53:0 54:0 55:0.59835565 56:0 57:0 58:0.40387174 59:0.67075092 60:0.17010845 61:0 62:0 63:0 64:0.85265505 65:0 66:0 67:0.28397101 68:0.43855593 69:0 70:0 71:0 72:0 73:0.99999225 74:0 75:0 76:0 77:0.003389253 78:0 79:0 80:0 
0 0 0 0 1 0 0 0 0 0 0 0 0 0 0 0 0:0 1:0.56868529 2:0.056693971 3:0.058139004 4:0.55702007 5:0.57939494 6:0.085952096 7:0.12897003 8:0 9:0 10:0.75684792 11:0.037235439 12:0.062487818 13:0.4448303 14:0.4636538 15:0.038914707 16:0.086724184 17:0 18:0 19:0.99999774 20:0 21:0.00013661405 22:0 23:0.00099177926 24:0 25:0.00013661405 26:0 27:0 28:0.99628252 29:0 30:0 31:0.043842226 32:0.065807238 33:0.00010934837 34:0.034130272 35:0 36:0 37:0.95330739 38:0.026296485 39:0.051815696 40:0.25298834 41:0.15120955 42:0.01776382 43:0.025301117 44:0 45:0 46:0.97938448 47:0.035579894 48:0.05891639 49:0.11374702 50:0.15205918 51:0.00042136313 52:0 53:0 54:0 55:0.99999791 56:0 57:0 58:0 59:0 60:0 61:0 62:0 63:0 64:0.99906904 65:0 66:0.043088354 67:0 68:0 69:0 70:0 71:0 72:0 73:0.98668915 74:0 75:0.014299888 76:0.083695963 77:0.098051161 78:0.097995847 79:0 80:0 
1 0.2367689361849524 0.4379946382843041 0.5027190763067494 0.116050341857051 0.7369220911364406 0.740430880880128 0.09526344336341164 0.1152166435864347 0.8506161563521601 1 0.7180683355352978 1 0.5434450569449535 0.7018395641166519 0.7184284244219344 0:0 1:0.51098621 2:0.34827951 3:0.33321506 4:0.49326685 5:0.36953923 6:0.23014361 7:0.27148306 8:0 9:0 10:0.59534377 11:0.048009675 12:0.20407569 13:0.018607544 14:0.15029228 15:0.38100368 16:0.65840167 17:0 18:0 19:0.89443648 20:0.027951093 21:0.15321989 22:0.08654993 23:0.13711227 24:0.17419969 25:0.34505898 26:0 27:0 28:0.47762001 29:0.16350323 30:0.2840119 31:0.3670063 32:0.56241447 33:0.049263682 34:0.45938668 35:0 36:0 37:0.14180017 38:0.12894201 39:0.057971761 40:0.056292772 41:0.88680845 42:0.24594679 43:0.33131596 44:0 45:0 46:0.68571937 47:0.09489613 48:0.49055764 49:0.30201957 50:0.26205158 51:0.27100992 52:0.21626127 53:0 54:0 55:0.97046739 56:0.082519464 57:0.0053906264 58:0.024801411 59:0.099926099 60:0.00036316176 61:0.20185328 62:0 63:0 64:0.70984566 65:0.20445117 66:0.12425841 67:0.30644304 68:0.54920244 69:0.14917931 70:0.14516531 71:0 72:0 73:0.14090396 74:0.058962438 75:0.48216277 76:0.7105667 77:0.45085174 78:0.16975206 79:0.084702402 80:0 
0 0.1965516787470786 0 0 1 0.6625817865231288 0 0 1 0 0 0.5296457756463508 0 0 1 0 0:0 1:0.64580137 2:0.00087624381 3:0.036772646 4:0.48909834 5:0.57815176 6:0.087044552 7:0.022895355 8:0 9:0 10:0.8632161 11:0.02506985 12:0.016502699 13:0.29888946 14:0.38940763 15:0.1112056 16:0.024703752 17:0 18:0 19:0.99998558 20:0 21:0.00050271163 22:0.0034701582 23:0.0032426149 24:0.00050271163 25:0 26:0 27:0 28:0.97444135 29:0 30:0.00022023749 31:0.14956993 32:0.16475162 33:0.030706936 34:0.0010397461 35:0 36:0 37:0.98863387 38:0 39:0.021050112 40:0.083605841 41:0.12244319 42:0.00044287203 43:0.013106205 44:0 45:0 46:0.99823248 47:0 48:0.017290225 49:0.019497488 50:0.053342182 51:0 52:0 53:0 54:0 55:0.99998713 56:0 57:0 58:6.2771316e-05 59:0.00029474456 60:0.0043576318 61:0.00078178116 62:0 63:0 64:0.99999678 65:0 66:0 67:0 68:0 69:0 70:0 71:0 72:0 73:0.99750537 74:0.049763836 75:0 76:0.0021176101 77:0.0021176101 78:0 79:0.049763836 80:0 
0 0 0 0 0 0 0 0 0 0.5064572352289353 1 0 0 0 0 0 0:0 1:0.36876145 2:0.17906523 3:0.35181305 4:0.46269056 5:0.41470781 6:0.31908527 7:0.46934608 8:0 9:0 10:0.80715901 11:0 12:8.2679566e-05 13:0.048726607 14:0.43155268 15:0.26106238 16:0.30285439 17:0 18:0 19:0.92445284 20:0.13131298 21:0.22258934 22:0.071303137 23:0.15471245 24:0.14806414 25:0.16627894 26:0 27:0 28:0.5915941 29:0.33279666 30:0.28641188 31:0.49364284 32:0.42024559 33:0.11352392 34:0.15506634 35:0 36:0 37:0.76964122 38:0 39:6.8614827e-05 40:0.098353438 41:0.62013632 42:0.062460843 43:0.097478099 44:0 45:0 46:0.94420916 47:0.20869371 48:0.13056409 49:0.17122339 50:0.11475325 51:0.003965606 52:0.073206045 53:0 54:0 55:0.96692479 56:0.055854548 57:0.084519133 58:0.056028333 59:0.2050041 60:0.035676826 61:0.091376983 62:0 63:0 64:0.42507997 65:0 66:0.036949046 67:0.40197864 68:0.59273565 69:0.44646761 70:0.32508045 71:0 72:0 73:0.84919631 74:0.17692225 75:0.28847843 76:0.31370798 77:0.21222226 78:0.088967264 79:0.11388411 80:0 
0 0 1 0 0.6550250215636009 0 0 0 0.2902788681048198 0 0.1216462014801924 0 0 0 0 0 0:0 1:0.7778452 2:0 3:0 4:0.50717711 5:0.34325176 6:0.13311939 7:0.046630766 8:0 9:0 10:0.76292342 11:0.03517957 12:0 13:0.47901985 14:0.42562258 15:0.054905754 16:0.055461261 17:0 18:0 19:0.93846023 20:0 21:6.7461908e-05 22:0.090781741 23:0.33323106 24:0.0019030324 25:0.0010119313 26:0 27:0 28:0.99999827 29:0 30:0 31:0 32:0 33:0 34:0 35:0 36:0 37:0.98585737 38:0 39:0 40:0.1367981 41:0.092583403 42:0.025271362 43:0.01257746 44:0 45:0 46:0.97483844 47:0.02814658 48:0 49:0.20203198 50:0.089871153 51:0 52:0 53:0 54:0 55:0.99999672 56:0 57:0 58:0 59:0 60:0 61:0 62:0 63:0 64:0.99999809 65:0 66:0 67:0 68:0 69:0 70:0 71:0 72:0 73:0.99999762 74:0 75:0 76:0 77:0 78:0 79:0 80:0 
1 0.2615427537406458 0.1809394690077686 0.1116619278243315 0.7142022678944185 0.0797965604101192 0.8306735791465256 0 0.02706204657782024 1 1 1 1 1 0.4787303840823393 0.8892461857155289 0:0 1:0.37236509 2:0.21760379 3:0.29956707 4:0.58066636 5:0.52673286 6:0.20920536 7:0.25661033 8:0 9:0 10:0.97426951 11:5.9107304e-05 12:0.00022448588 13:0.0010475067 14:0.19069932 15:0.069319278 16:0.098085217 17:0 18:0 19:0.99405491 20:0.021850491 21:0.051080011 22:0.039550986 23:0.0085958326 24:0.041530203 25:0.073481351 26:0 27:0 28:0.89091998 29:0.23844385 30:0.19998586 31:0.30941734 32:0.10192255 33:0.022319585 34:0.052710548 35:0 36:0 37:0.59727114 38:0.0027378383 39:0.58963066 40:0.46264011 41:0.24219842 42:0.059053127 43:0.13928793 44:0 45:0 46:0.97596401 47:0.11185131 48:0.1281445 49:0.10502454 50:0.056814175 51:0.019117463 52:0.062713429 53:0 54:0 55:0.99496514 56:0.0003086878 57:0.0062563489 58:0.032206163 59:0.092076696 60:0.007630676 61:0.020645751 62:0 63:0 64:0.88220972 65:0.02942322 66:0.17011492 67:0.095444694 68:0.22429402 69:0.20422292 70:0.30127901 71:0 72:0 73:0.49792445 74:0.12410864 75:0.63903511 76:0.42785835 77:0.29678103 78:0.083203673 79:0.22411007 80:0 
0.7113767991156018 1 1 0.8883991554274783 0 1 1 1 1 1 1 1 1 1 1 1 0:0 1:0.88097137 2:0 3:0 4:0.26956812 5:0.33533832 6:0.19573312 7:0.020277612 8:0 9:0 10:0.96342838 11:0 12:0 13:0.098071679 14:0.24167323 15:0.058771331 16:0.01775234 17:0 18:0 19:0.98336989 20:0.084179312 21:0.06392128 22:0.058198076 23:0.11035705 24:0.044373233 25:0.065308549 26:0 27:0 28:0.99410188 29:0.017912719 30:0.032655854 31:0.077741541 32:0.02993232 33:0.058480751 34:0 35:0 36:0 37:0.92227304 38:0 39:0 40:0.1455732 41:0.34575197 42:0.092541255 43:0.0094906557 44:0 45:0 46:0.96260494 47:0.12264482 48:0.090555057 49:0.067674629 50:0.21289888 51:0.010469446 52:0.011057543 53:0 54:0 55:0.99816221 56:0.025549686 57:0.025855266 58:0.006082661 59:0.043514848 60:0.020204009 61:0 62:0 63:0 64:0.89179927 65:0 66:0.015026709 67:0.10547117 68:0.26919842 69:0.33981678 70:0.073354319 71:0 72:0 73:0.56847107 74:0.23668219 75:0.36207822 76:0.30074519 77:0.59327608 78:0.16868579 79:0.13719489 80:0 
1 0 1 0.001853534793095454 0 1 0.6660640021330532 0.4094576065225223 0.5700220868911624 1 1 0 1 0.8515155301821359 0.6037431098323146 0.1721549650775056 0:0 1:0.60196245 2:0.32816428 3:0.21113567 4:0.31291446 5:0.44201827 6:0.38256875 7:0.2137837 8:0 9:0 10:0.32291704 11:0.00052627223 12:0.034988772 13:0.22001514 14:0.87767839 15:0.20395014 16:0.18485977 17:0 18:0 19:0.9217236 20:0.046205021 21:0.077598162 22:0.20146008 23:0.29987881 24:0.073635839 25:0.079557903 26:0 27:0 28:0.79508585 29:0.2882379 30:0.14464556 31:0.38143712 32:0.34386706 33:0.0013089844 34:0.0093813743 35:0 36:0 37:0.72624266 38:0.03318901 39:0.050559767 40:0.47568893 41:0.44104385 42:0.19755876 43:0.095281973 44:0 45:0 46:0.87433624 47:0.15359059 48:0.19553562 49:0.23956625 50:0.33580604 51:0.037269957 52:0.046486195 53:0 54:0 55:0.92454648 56:0.10354736 57:0.13268515 58:0.17326097 59:0.21043658 60:0.19458938 61:0.068640068 62:0 63:0 64:0.84521079 65:0.0309809 66:0.034002941 67:0.16429037 68:0.4156059 69:0.18751238 70:0.22049174 71:0 72:0 73:0.85314089 74:0.15997455 75:0.16325606 76:0.2084242 77:0.3353613 78:0.16268043 79:0.1937194 80:0 
0 0 0.05360115039056899 0 0.160487408232284 0 0 0 0 0 0 0 0 0 0 0 0:0 1:0.5602147 2:0 3:0.00046307032 4:0.40841663 5:0.7191605 6:0.046391152 7:0 8:0 9:0 10:0.71535718 11:0 12:0.027832342 13:0.22028033 14:0.66140318 15:0.037450913 16:0.010217235 17:0 18:0 19:0.96929151 20:0 21:0 22:0.042199824 23:0.24226087 24:0 25:0 26:0 27:0 28:0.9307937 29:0 30:0 31:0.28318244 32:0.2241952 33:0.056233108 34:0 35:0 36:0 37:0.97380286 38:0 39:0.00016604866 40:0.143829 41:0.17532933 42:0.016635031 43:0 44:0 45:0 46:0.97948045 47:0 48:0.021292044 49:0.050963465 50:0.19343798 51:0.0091812778 52:0.0078162951 53:0 54:0 55:0.99999774 56:0 57:0 58:0 59:0 60:0 61:0 62:0 63:0 64:0.99999803 65:0 66:0 67:0 68:0.0001639658 69:0 70:0 71:0 72:0 73:0.98374891 74:0.0033339774 75:0.01980721 76:0.14722845 77:0.093104415 78:0.035994474 79:0.01367396 80:0 
1 0 0.5263043054144426 0.366659894075073 0 0.09009011607020159 0.5981071533689073 0 0 0.4254366400461775 1 0.3355110538110918 0.6780192027002206 0.04697642475461524 0.8591993346848225 0.8769661546007473 0:0 1:0.18088163 2:0.16841322 3:0.1621796 4:0.050977293 5:0.94753015 6:0.092556693 7:0.060123466 8:0 9:0 10:0.42528176 11:0.0030976098 12:0.037415836 13:0.13755657 14:0.83770263 15:0.25407165 16:0.18024822 17:0 18:0 19:0.98577935 20:0.067740783 21:0.051996332 22:0.055731837 23:0.087543719 24:0.0549362 25:0.084549651 26:0 27:0 28:0.3484461 29:0.0070160585 30:0.10017221 31:0.054589495 32:0.92705256 33:0.072259493 34:0.029157121 35:0 36:0 37:0.39114028 38:0.095000327 39:0.089117937 40:0.12648603 41:0.89454252 42:0.056371246 43:0.10317684 44:0 45:0 46:0.89181805 47:0.22945006 48:0.1524833 49:0.16303568 50:0.31963485 51:0.00036159344 52:0.00057985442 53:0 54:0 55:0.99878335 56:0 57:0.016926572 58:0 59:0.045778953 60:0 61:0.0059768083 62:0 63:0 64:0.84387511 65:0 66:0.045549899 67:0.022235619 68:0.40563831 69:0.096604332 70:0.33378813 71:0 72:0 73:0.40453568 74:0.2624974 75:0.30502394 76:0.42752886 77:0.58743256 78:0.11766622 79:0.36425638 80:0 
0.2504749063341648 0.03067101703259935 0.009360666075611186 0.3227478393633579 0.08646464645100889 0.162245180023334 0.348413644473458 0.02907493577473513 0.1235787047566338 0.1308574484335612 0.3115042168765929 0.1341163511999778 0.1341366587671292 0.1782284085372923 0.2197505139675953 0.07124798606539909 0:0 1:0.20140006 2:0 3:0.040049452 4:0.71942031 5:0.65351707 6:0 7:0.11463656 8:0 9:0 10:0.85456324 11:0 12:0.0048262249 13:0.35557801 14:0.36766857 15:0 16:0.089780487 17:0 18:0 19:0.99999142 20:0 21:0 22:0 23:0 24:0 25:0 26:0 27:0 28:0.10420173 29:0 30:0 31:0.86191052 32:0.48485297 33:0.046894383 34:0.094555303 35:0 36:0 37:0.94016808 38:0 39:0.017267665 40:0.26476833 41:0.21326719 42:0 43:0.013505576 44:0 45:0 46:0.046465982 47:0 48:0.039744318 49:0.80243438 50:0.59255594 51:0 52:0.03476841 53:0 54:0 55:0.078558981 56:0 57:0 58:0.87237757 59:0.46150091 60:0.065693438 61:0.12416301 62:0 63:0 64:0.9930225 65:0 66:0 67:0 68:0.11747601 69:0 70:0 71:0 72:0 73:0.99998879 74:0 75:0 76:0 77:0 78:0 79:0 80:0 
1 0 0.2509541535071541 0.3811003884339674 0.1668761869685882 0 0.4570349583207039 0 0 0.256552629335432 0 0 0.9535077257997533 0.4322144311337383 0 0 0:0 1:0.43662152 2:0.088616848 3:0.047091074 4:0.86294937 5:0.21560895 6:0 7:0.089827217 8:0 9:0 10:0.7308231 11:0.045271844 12:0.0033356366 13:0.39124465 14:0.4953115 15:0.08099167 16:0.24255134 17:0 18:0 19:0.94848537 20:0.14633654 21:0.12604822 22:0.087978519 23:0.14045121 24:0.12582697 25:0.14052004 26:0 27:0 28:0.85744667 29:0.013078892 30:0.078945026 31:0.39612669 32:0.3151626 33:0.038674824 34:0.024276687 35:0 36:0 37:0.60064149 38:0.059913386 39:0.13167901 40:0.75235194 41:0.22095302 42:0.0053414917 43:0.058160175 44:0 45:0 46:0.73938143 47:0.36456582 48:0.47280487 49:0.19611233 50:0.23764226 51:0.043458086 52:1.0752753e-08 53:0 54:0 55:0.99119091 56:0 57:0.041033193 58:0 59:0.1253022 60:0.00038143457 61:0.01091822 62:0 63:0 64:0.81431466 65:0.010035399 66:0.015053499 67:0.12770264 68:0.33806157 69:0.40476078 70:0.20517574 71:0 72:0 73:0.38917845 74:0.30771092 75:0.38145408 76:0.55524021 77:0.48798284 78:0.14832121 79:0.19972737 80:0 
0.1101586158934436 0 0 1 1 0 0.2777385853269658 0 0 0 0 0 0 0 0 0 0:0 1:0.0056907036 2:0 3:0 4:0.92107242 5:0.35535589 6:0 7:0.15906891 8:0 9:0 10:0.87851757 11:0 12:0 13:0.35925055 14:0.30339047 15:0.082746744 16:0.015705945 17:0 18:0 19:0.96665436 20:0 21:0 22:0.058277082 23:0.24921204 24:0.00094093016 25:0.0084589226 26:0 27:0 28:0.70721018 29:0 30:0 31:0.62663144 32:0.31211376 33:0.027071213 34:0.095022753 35:0 36:0 37:0.83831733 38:0 39:0 40:0.49655947 41:0.21299995 42:0 43:0.072650366 44:0 45:0 46:0.99904686 47:0 48:0 49:0.0028517339 50:0.038877182 51:0.014771955 52:0.012742639 53:0 54:0 55:0.99999505 56:0 57:0 58:0 59:0 60:0 61:0 62:0 63:0 64:0.62094033 65:0 66:0 67:0.75496203 68:0.21080643 69:0 70:0 71:0 72:0 73:0.99999678 74:0 75:0 76:0 77:0 78:0 79:0 80:0 
1 0.2060932715831592 0.8632955021752133 1 0.3566221135727091 0.1133696640433307 0.5157335379579251 0.127978107744978 0.2201123912679141 0.05236654535273649 0.3821170027797576 0.1091865920694809 0.4915233256019784 0.4218045273201912 0.4292109613571114 0.2774967658736391 0:0 1:0.95393962 2:0 3:0 4:0 5:0 6:0 7:0 8:0 9:0 10:0.67861152 11:0.096840709 12:0.018026624 13:0.32029194 14:0.59533238 15:0.11390642 16:0.24448478 17:0 18:0 19:0.99999613 20:0 21:0 22:0 23:0.00016009563 24:0 25:0 26:0 27:0 28:0.025816116 29:0 30:0 31:0.81783456 32:0.57484472 33:0.0032523375 34:0.00065741356 35:0 36:0 37:0.34099272 38:0.039201714 39:0.025450617 40:0.69965339 41:0.60445535 42:0.12607583 43:0.10369223 44:0 45:0 46:0.55735207 47:0.037833627 48:0.03276775 49:0.4119958 50:0.69351828 51:0.10159244 52:0.16066527 53:0 54:0 55:0.97248936 56:0 57:0 58:0.0054662693 59:0.22056045 60:0.037744612 61:0.064443432 62:0 63:0 64:0.50990695 65:0 66:0.0014235455 67:0.59327579 68:0.61339331 69:0.076993741 70:0.076324172 71:0 72:0 73:0.98186415 74:0 75:0.010444726 76:0.13809411 77:0.1257396 78:0.023639826 79:0.019704171 80:0 
0 0.04662214341424231 1 0 1 1 1 1 1 1 0.4962786586996591 1 1 1 0 0.3688016753461112 0:0 1:0.65013289 2:0.28118056 3:0.14164445 4:0.55103463 5:0.41211927 6:0.068384297 7:0 8:0 9:0 10:0.9658528 11:0.0031566678 12:0 13:0.15327908 14:0.18373929 15:0.08897762 16:0.044016711 17:0 18:0 19:0.98158336 20:0.13607164 21:0.025873201 22:0.053193342 23:0.081490897 24:0.040679637 25:0.078591175 26:0 27:0 28:0.98608738 29:0.054316036 30:0.017750043 31:0.11560952 32:0.10483737 33:0 34:0 35:0 36:0 37:0.94256073 38:0.089583024 39:0.045127366 40:0.26187551 41:0.17480667 42:0.021786969 43:0.043507081 44:0 45:0 46:0.98515201 47:0.10814591 48:0.035316326 49:0.084129348 50:0.097195014 51:0 52:0 53:0 54:0 55:0.99925643 56:0.0010671505 57:0.028839821 58:0 59:0.01699727 60:0 61:0.018904684 62:0 63:0 64:0.96951109 65:0.024764132 66:0.012349325 67:0.025406362 68:0.16037543 69:0.13254356 70:0.12385048 71:0 72:0 73:0.56137156 74:0.19608231 75:0.34688464 76:0.35914978 77:0.55318618 78:0.27551517 79:0.12310652 80:0 
0.4787658917176993 0.1636705283663523 0.1996140854546677 0.7543674431768466 0.3283154410688768 0.2168154188407093 0.628635015888403 0.0559184994496791 0.2014260644629197 0.1979361864794793 0.4104938371911699 0.3225373382298891 0.1917521052812572 0.1678004357150553 0.3900602073719678 0.2674146000533628 0:0 1:0 2:0 3:0.013408762 4:0.30093744 5:0.95156181 6:0.061323944 7:0 8:0 9:0 10:0 11:0 12:1.3508157e-09 13:0.016025115 14:0.9998666 15:1.3508157e-09 16:0 17:0 18:0 19:0.63115185 20:0.16032375 21:0 22:0.028842663 23:0.75834531 24:0 25:0 26:0 27:0 28:0.035069786 29:0 30:0.073115021 31:0.75456989 32:0.64851415 33:3.0876235e-09 34:0.058780067 35:0 36:0 37:0 38:0 39:0.0046685003 40:0.13090695 41:0.99114084 42:0.021730656 43:1.2360877e-09 44:0 45:0 46:0.20010851 47:0 48:0 49:0.022014188 50:0.97939801 51:0.011007088 52:0.011007088 53:0 54:0 55:0.14454688 56:0 57:0.017664654 58:0.38364655 59:0.91014677 60:0 61:0.056676779 62:0 63:0 64:0.16247304 65:0 66:0 67:0.052500099 68:0.98530591 69:0 70:0 71:0 72:0 73:0.046549458 74:0 75:0 76:0.03631464 77:0.99825072 78:0.00040169485 79:1.307941e-09 80:0 
0.5640692939573736 0.2412691779819321 0.3328433914258836 1 0.515483481802598 0.3870474585923325 0.7848267203249253 0.1882680106951202 0.3772866349044673 0.312084725844287 0.6701325896879409 0.4708081325328155 0.3672044795250058 0.3183429989987467 1 0.5638406655403233 0:0 1:0 2:0 3:0 4:0 5:0 6:0 7:0 8:0 9:0 10:0 11:0 12:0 13:0 14:0 15:0 16:0 17:0 18:0 19:0 20:0 21:0 22:0 23:0 24:0 25:0 26:0 27:0 28:0 29:0 30:0 31:0 32:0 33:0 34:0 35:0 36:0 37:0 38:0 39:0 40:0 41:0 42:0 43:0 44:0 45:0 46:0 47:0 48:0 49:0 50:0 51:0 52:0 53:0 54:0 55:0 56:0 57:0 58:0 59:0 60:0 61:0 62:0 63:0 64:0 65:0 66:0 67:0 68:0 69:0 70:0 71:0 72:0 73:0 74:0 75:0 76:0 77:0 78:0 79:0 80:0 
1 1 1 0 1 1 1 0.3808453317950916 1 1 1 1 1 0.3875595899284519 1 1 0:0 1:0.51876795 2:0.078079686 3:0.29061499 4:0.40345246 5:0.32412046 6:0.33183587 7:0.5122149 8:0 9:0 10:0.94678891 11:0 12:0 13:0.0031619493 14:0.23266813 15:0.11732039 16:0.18887497 17:0 18:0 19:0.99793184 20:0.027058961 21:0.0085020252 22:0.00015636018 23:6.476634e-05 24:0.010657951 25:0.056636382 26:0 27:0 28:0.96054691 29:0.070221342 30:0.15504502 31:0.13816893 32:0.15701982 33:0.013925484 34:0.066576466 35:0 36:0 37:0.79656941 38:0 39:0 40:0.22078255 41:0.50588429 42:0.19254473 43:0.15401557 44:0 45:0 46:0.9983204 47:0.041214116 48:0.024346009 49:0.015147325 50:0.021263773 51:0.019426988 52:0 53:0 54:0 55:0.99839878 56:0.0018918503 57:0.042826932 58:0.0031307733 59:0.024957439 60:9.4912059e-05 61:0.026916882 62:0 63:0 64:0.86309683 65:0.031511441 66:0.05270813 67:0.1192605 68:0.36631697 69:0.26334026 70:0.18309411 71:0 72:0 73:0.73952079 74:0.32525519 75:0.27519095 76:0.30705342 77:0.30607191 78:0.21729341 79:0.19076452 80:0 
0.5580645586501733 0.07133363800976913 1 0 0.1209042197770272 0.01370916144878963 0 0 0 0 0 0 0.1003733412576852 0.3302435752641641 0 0.2927522917321591 0:0 1:0.72777206 2:0.048064828 3:0.039064884 4:0.31504402 5:0.58719623 6:0.14305046 7:0.044583719 8:0 9:0 10:0.91321111 11:0.024531227 12:0.071768336 13:0.32010674 14:0.23873979 15:0.028682325 16:0.0012719051 17:0 18:0 19:0.99999684 20:0 21:0 22:0 23:0 24:0 25:0 26:0 27:0 28:0.99382704 29:0 30:0 31:0.089890085 32:0.055413783 33:0.026306251 34:0.021484785 35:0 36:0 37:0.93659204 38:0.091234908 39:0.12038273 40:0.2746565 41:0.14388721 42:0.05139612 43:0.034536015 44:0 45:0 46:0.48172915 47:0.097688645 48:0.28579703 49:0.70449281 50:0.42308232 51:0.036942624 52:0.0050650011 53:0 54:0 55:0.99999809 56:0 57:0 58:0 59:0 60:0 61:0 62:0 63:0 64:0.99999756 65:0 66:0 67:0 68:0.0010508182 69:0 70:0 71:0 72:0 73:0.99956208 74:0 75:0 76:0 77:0 78:0 79:0 80:0 
1 0.8355088732890997 1 0 0 1 1 1 1 1 1 0.3090952104403842 1 0.6636105828774655 0.73472673987793 0.7770876427322426 0:0 1:0.89404792 2:0.038232207 3:0.0750641 4:0.18923056 5:0.35423693 6:0.1419767 7:0.11009966 8:0 9:0 10:0.77358592 11:0 12:0 13:0.14547247 14:0.57867765 15:0.18580112 16:0.10488179 17:0 18:0 19:0.83453143 20:0.076345131 21:0.11609427 22:0.25120568 23:0.4496884 24:0.11887018 25:0.069178142 26:0 27:0 28:0.88982874 29:0.17422752 30:0.093226902 31:0.16365172 32:0.33583841 33:0.16928476 34:0.030326806 35:0 36:0 37:0.80243254 38:0.045121614 39:0.090957381 40:0.19322398 41:0.53490138 42:0.094426557 43:0.11576995 44:0 45:0 46:0.8070429 47:0.13339238 48:0.093202122 49:0.36136779 50:0.43721014 51:0.0058283843 52:0.020458454 53:0 54:0 55:0.98422807 56:0.13557872 57:0.039886687 58:0.047468282 59:0.09307301 60:0 61:0.019972851 62:0 63:0 64:0.99298352 65:0.010596924 66:0.01460603 67:0.054514628 68:0.098632015 69:0.0066447495 70:0.030032119 71:0 72:0 73:0.80566448 74:0.19064367 75:0.32290712 76:0.35123852 77:0.28951585 78:0.047047757 79:0.029604303 80:0 
0 0.4646300861849048 0.07019210493214678 0 1 0.05280694947049064 0 0.6044906117863389 0.02356333555237221 0.02055879782852622 0 0 0 0.08960138353310622 0.7586174623615661 0 0:0 1:0.70504445 2:0.018673481 3:0 4:0.63303238 5:0.30203038 6:0.075965561 7:0.069519021 8:0 9:0 10:0.8466832 11:0.031689562 12:0 13:0.45371285 14:0.25364509 15:0.058662567 16:0.092115849 17:0 18:0 19:0.99999815 20:0 21:0 22:0 23:0.00030163815 24:0 25:0 26:0 27:0 28:0.97751826 29:0 30:0 31:0.20684142 32:0.036062878 33:0.0073685027 34:0.017776458 35:0 36:0 37:0.97981989 38:0 39:0 40:0.18581572 41:0.073631763 42:0 43:0 44:0 45:0 46:0.99316406 47:0 48:0 49:0.11438119 50:0.00022497815 51:0 52:0.023143375 53:0 54:0 55:0.99999779 56:0 57:0 58:0 59:0 60:4.5147892e-05 61:0 62:0 63:0 64:0.99999732 65:0 66:0 67:0 68:0 69:0 70:0 71:0 72:0 73:0.99596548 74:0.050579239 75:0.074009717 76:0.00041754104 77:0 78:0 79:0.00041754104 80:0 
1 0 0 0.2987284393706299 0 0.6706148937989934 0.9558459621909547 0 0.1642867024664209 1 0.8379018329682564 0 1 0.566793564730969 0.09368823896368926 0 0:0 1:0.38996878 2:0.27408496 3:0.3198407 4:0.55744541 5:0.37912741 6:0.39186829 7:0.24989638 8:0 9:0 10:0.75386322 11:0 12:0.029255675 13:0.14315014 14:0.39331201 15:0.47453713 16:0.17451084 17:0 18:0 19:0.84168267 20:0.17999732 21:0.21236815 22:0.22195475 23:0.31066427 24:0.16933131 25:0.19903588 26:0 27:0 28:0.68710428 29:0.24317609 30:0.20448583 31:0.52578479 32:0.35556421 33:0.1542439 34:0.016310947 35:0 36:0 37:0.7248593 38:0 39:0.013781937 40:0.55566829 41:0.36396012 42:0.18004054 43:0.027055681 44:0 45:0 46:0.70052105 47:0.39000449 48:0.3820529 49:0.43885878 50:0.10179575 51:0.090748824 52:0 53:0 54:0 55:0.97747338 56:0.069239974 57:0.084181629 58:0.063486516 59:0.12548715 60:0.08513996 61:0.075063996 62:0 63:0 64:0.56767231 65:0.025745418 66:0.14952794 67:0.50653005 68:0.33785641 69:0.52362454 70:0.099088565 71:0 72:0 73:0.46848822 74:0.26148713 75:0.41835865 76:0.55740023 77:0.36397737 78:0.29423109 79:0.085810073 80:0 
0 0 0 0.1859191033466303 0.9208326723030132 0 0 0 0 0 0 0 0 0.02059439216825123 0 0 0:0 1:0.055358864 2:0 3:0 4:0.8126806 5:0.55379415 6:0.16315654 7:0.056251831 8:0 9:0 10:0.816351 11:0 12:0 13:0.30560526 14:0.48051074 15:0.09621308 16:0.0046460116 17:0 18:0 19:0.99999821 20:0 21:0 22:0 23:0 24:0 25:0 26:0 27:0 28:0.17931119 29:0 30:0 31:0.80879122 32:0.56008548 33:0 34:0 35:0 36:0 37:0.91677952 38:0 39:0 40:0.33023846 41:0.22320862 42:0.0098917913 43:0.023074333 44:0 45:0 46:0.90824348 47:0 48:0 49:0.26347852 50:0.30491593 51:0.055317275 52:0.098112136 53:0 54:0 55:0.4461562 56:0 57:0 58:0.46665826 59:0.7636435 60:0 61:0 62:0 63:0 64:0.94762063 65:0 66:0 67:0 68:0.31933823 69:0 70:0 71:0 72:0 73:0.99999654 74:0 75:0 76:0 77:0 78:0 79:0 80:0 
0 0 0 0 0.9943247833796065 0.7766979070873289 0 0 0 1 0 0.1764095511508966 0.2826575161327465 0 0 0.5219223595296794 0:0 1:0.44083682 2:0.19640878 3:0.25268656 4:0.54765743 5:0.47302622 6:0.27192035 7:0.32494438 8:0 9:0 10:0.95205647 11:0 12:0 13:0.0094483811 14:0.23705442 15:0.10717602 16:0.16064194 17:0 18:0 19:0.98978245 20:0.079153463 21:0.045771476 22:0 23:0.007301366 24:0.075865321 25:0.07842882 26:0 27:0 28:0.96861285 29:0.076714545 30:0.11028548 31:0.12454443 32:0.16758855 33:0.00061327731 34:0.01160499 35:0 36:0 37:0.8736999 38:0.00029320997 39:0.042626232 40:0.24055304 41:0.41070771 42:0.090865396 43:0 44:0 45:0 46:0.98949414 47:0.076164156 48:0.1056334 49:0.0074760504 50:0.048473552 51:0.021176009 52:0.03282854 53:0 54:0 55:0.99935657 56:0 57:0.023175422 58:0.02402845 59:0.0027356814 60:0 61:0.012576239 62:0 63:0 64:0.89578718 65:0.0072130687 66:0.12219623 67:0.067301594 68:0.31924954 69:0.0863453 70:0.26203826 71:0 72:0 73:0.70318896 74:0.21926825 75:0.41211975 76:0.43890432 77:0.18626276 78:0.14459658 79:0.19834703 80:0 
0.4410013056899872 0.2528232609164395 0.3888979341201052 0.4096280481667957 0.1568246420291737 0.1239604180194483 0.3360059384954095 0 0.006526152714039855 0.1236840524192526 0.6446783337573271 0.3926640112356431 0.2952549971922434 0.01662068943360938 0.4216996209887369 0.7655259339359807 0:0 1:0.48774979 2:0 3:0 4:0.058193132 5:0.10063765 6:0.0098060155 7:0.86512417 8:0 9:0 10:0.93378091 11:0 12:0 13:0.063022226 14:0.34044129 15:0.002493758 16:0.090336591 17:0 18:0 19:0.99999744 20:0 21:0 22:0 23:0 24:0 25:0 26:0 27:0 28:0.0041138111 29:0 30:0 31:0.46842855 32:0.85711789 33:0.14305727 34:0.15946306 35:0 36:0 37:0.36223769 38:0 39:0 40:0.34141627 41:0.85203934 42:0 43:0.16196677 44:0 45:0 46:0.57192016 47:0 48:0.10315104 49:0.3000367 50:0.75592995 51:0.028276229 52:0.0026814912 53:0 54:0 55:0.98311698 56:0 57:0 58:0 59:0.11690918 60:0.14071946 61:0 62:0 63:0 64:0.82240236 65:0 66:0 67:0.30040795 68:0.48232257 69:0 70:0.027678894 71:0 72:0 73:0.99999505 74:0 75:0 76:0 77:0 78:0 79:0 80:0 
1 1 1 0.7983273139542478 1 0.8143876456551463 0 0 0.5831263469008334 1 1 1 1 0.5013851129587924 1 1 0:0 1:0.79057914 2:0.11044633 3:0 4:0.4533985 5:0.38105303 6:0.0072449381 7:0.10932913 8:0 9:0 10:0.94107872 11:0.040529855 12:0 13:0.10678756 14:0.28370652 15:0.080747455 16:0.11962728 17:0 18:0 19:0.96934742 20:0.099008106 21:0.066842668 22:0.044215284 23:0.15874138 24:0.056385253 25:0.12552972 26:0 27:0 28:0.98905486 29:0.039901122 30:0.038149923 31:0.021862995 32:0.13158959 33:0 34:0.03042049 35:0 36:0 37:0.76073885 38:0.09756653 39:0.0080850897 40:0.41118532 41:0.45370355 42:0.12254146 43:0.14746842 44:0 45:0 46:0.97494471 47:0.10006958 48:0.022517666 49:0.166297 50:0.10630805 51:0.00011000441 52:0.0014667254 53:0 54:0 55:0.99632907 56:0.024163088 57:0.047266789 58:0.017915299 59:0.064692274 60:0 61:0 62:0 63:0 64:0.99692279 65:0.030539038 66:0.040034868 67:0.022735637 68:0.055579044 69:0 70:0 71:0 72:0 73:0.83962923 74:0.099601023 75:0.22196828 76:0.29110479 77:0.3730171 78:0.10009112 79:0.043856181 80:0 
1 0 0.3651547016862399 0.504281401239572 0 0 1 0 0 0.01060485569447424 0.2920086716065596 0 0.7144289991876623 0 0 0.2343869553863176 0:0 1:0.38656104 2:0.35290563 3:0.17993428 4:0.52188903 5:0.46510059 6:0.16226746 7:0.42263862 8:0 9:0 10:0.88897842 11:0 12:0.057193983 13:0.013379544 14:0.17599581 15:0.20204824 16:0.36668938 17:0 18:0 19:0.95650226 20:0.034240257 21:0.055689685 22:0.015544353 23:0.056754682 24:0.093557976 25:0.26192942 26:0 27:0 28:0.78320086 29:0.087738581 30:0.15258794 31:0.40461636 32:0.41909724 33:0.076599613 34:0.10190355 35:0 36:0 37:0.80007142 38:0.0086413864 39:0.024667203 40:0.13439351 41:0.5622766 42:0.080272868 43:0.13613662 44:0 45:0 46:0.96231622 47:0.094070695 48:0.14452565 49:0.11718515 50:0.098016709 51:0.1101431 52:0.093430117 53:0 54:0 55:0.8824656 56:0.019781506 57:0.14456946 58:0.40004659 59:0.19362234 60:0.049297266 61:0.00010903554 62:0 63:0 64:0.69288105 65:0.00018620379 66:0.067316227 67:0.32075515 68:0.62609977 69:0.11473846 70:0.085599318 71:0 72:0 73:0.61573523 74:0.071435042 75:0.41729522 76:0.5805462 77:0.30647579 78:0.1006982 79:0.022745043 80:0 
0.8312259152661534 0 1 0 0 1 0 0.03757754344998606 1 1 0 0.8384892719294453 1 0 0 0 0:0 1:0.64367151 2:0.28135166 3:0.25765023 4:0.41994399 5:0.40533969 6:0.29189348 7:0.11949985 8:0 9:0 10:0.75276953 11:0.067840099 12:0.0010731403 13:0.19857343 14:0.55668402 15:0.17343238 16:0.22208375 17:0 18:0 19:0.96238101 20:0.10266213 21:0.11165633 22:0.10223342 23:0.11016268 24:0.076735884 25:0.14945027 26:0 27:0 28:0.92630619 29:0.099718794 30:0.13378604 31:0.19522151 32:0.27259696 33:0.035715673 34:0.02033676 35:0 36:0 37:0.91790313 38:0.10261521 39:0.090076946 40:0.22368544 41:0.27556524 42:0.090461679 43:0.068170771 44:0 45:0 46:0.97280961 47:0.060960267 48:0.028973354 49:0.15585779 50:0.1574485 51:0.00066252024 52:0 53:0 54:0 55:0.99833435 56:0 57:0.014262669 58:0.042416129 59:0.022698671 60:0.0065822052 61:0.027643347 62:0 63:0 64:0.98339796 65:0 66:0.013699952 67:0.059282009 68:0.14511685 69:0.08926475 70:0.013963657 71:0 72:0 73:0.86209381 74:0.10992971 75:0.21957734 76:0.33045411 77:0.28125691 78:0.085842259 79:0.028524144 80:0 
0 0 0.9159498149107478 0 1 0 0 0 0 0 0 0 0 0 0.1096842849819666 0.05161318602203661 0:0 1:0.65120351 2:0.0083237654 3:0 4:0.38712272 5:0.62888408 6:0.16086844 7:0.067951612 8:0 9:0 10:0.9022969 11:0.041760527 12:0 13:0.14310648 14:0.3997497 15:0.05815408 16:0.02121466 17:0 18:0 19:0.99999821 20:0 21:0 22:0 23:0 24:0 25:0 26:0 27:0 28:0.97070545 29:0 30:0 31:0.15539441 32:0.17851527 33:0.041376248 34:0 35:0 36:0 37:0.96609038 38:4.6155455e-05 39:0 40:0.17842415 41:0.18276992 42:0.034984883 43:0.014173988 44:0 45:0 46:0.95842212 47:0.039361276 48:0.001040319 49:0.19692726 50:0.20214252 51:0.014986864 52:0 53:0 54:0 55:0.99990511 56:0 57:0 58:0 59:0 60:0.01365247 61:0 62:0 63:0 64:0.99999815 65:0 66:0 67:0 68:7.6658136e-05 69:0 70:0 71:0 72:0 73:0.98749948 74:0.0002568771 75:0.14950247 76:0.049834158 77:0 78:0 79:0 80:0 
0 0.2307049139007144 0.2434932176620286 0.8014960139830376 1 0.2529070121974646 0 0.02975946861150872 0.1143073377482695 0 0.03933542016717155 0.4682090431941051 0.09527829407726952 0.3119879700493409 0.4121608397067314 0.2571288153657935 0:0 1:0.40244758 2:0 3:0 4:0.61703593 5:0.42404607 6:0 7:0.52674264 8:0 9:0 10:0.98961771 11:0 12:0 13:0.033240549 14:0.1380399 15:0.0013697236 16:0.022153413 17:0 18:0 19:0.99999768 20:0 21:0 22:0 23:0 24:0 25:0 26:0 27:0 28:0.23633794 29:0 30:0 31:0.80945009 32:0.49697211 33:0.021999879 34:0.2036195 35:0 36:0 37:0.89501536 38:0 39:0 40:0.31477207 41:0.31038079 42:0 43:0.059372239 44:0 45:0 46:0.93034148 47:0.04505609 48:0.042630803 49:0.1136521 50:0.34306499 51:0.0016251615 52:0 53:0 54:0 55:0.86234868 56:0 57:0 58:0.25781605 59:0.41823304 60:0.027604913 61:0.11913405 62:0 63:0 64:0.83463556 65:0 66:0 67:0.52606231 68:0.16319872 69:0 70:0 71:0 72:0 73:0.99999791 74:0 75:0 76:0 77:0 78:0 79:0 80:0 
0.2041315996477194 0.07304162361758353 0.03961154799012847 0.4394971527738277 0.03484204314082919 0 0.1151603453412138 0.05871281751889379 0.03608142089684219 0.01227350753031811 0.1907737599473766 0.08619544517240067 0.1633092248378669 0.09174683919476175 0.08268640235964349 0.3198876949866215 0:0 1:0.21843629 2:0.075198621 3:0 4:0.39654046 5:0.88058436 6:0.075535722 7:0.090733826 8:0 9:0 10:0.9265148 11:0 12:0 13:0.094279803 14:0.36424634 15:0 16:0.001162812 17:0 18:0 19:0.99999636 20:0 21:0 22:0 23:0 24:0 25:0 26:0 27:0 28:0.0074175405 29:0.035633329 30:0 31:0.59628153 32:0.80091459 33:0.035583504 34:0.019592168 35:0 36:0 37:0.90574861 38:0.022133326 39:0 40:0.17700449 41:0.38377765 42:0.022232546 43:0.0037071411 44:0 45:0 46:0.81807518 47:0.0003085559 48:0 49:0.24958926 50:0.51812434 51:0 52:0 53:0 54:0 55:0.047859147 56:0 57:0 58:0.62027425 59:0.78289795 60:0 61:0.0047826152 62:0 63:0 64:0.95976746 65:0 66:0 67:0.22433564 68:0.16884129 69:0 70:0 71:0 72:0 73:0.99999738 74:0 75:0 76:0 77:0 78:0 79:0 80:0 
0.2136198774298732 0 0.03345687071485572 0.2989414954717204 0 0.7932924612472283 0 0.5656313125891469 0.6574714729799671 0 0 0 0.116479596130937 0.5793118336257781 0 0 0:0 1:0.4860929 2:0.27665484 3:0.24266185 4:0.28705895 5:0.66368538 6:0.2306596 7:0.22846383 8:0 9:0 10:0.83925736 11:7.2329087e-05 12:0 13:0.067337267 14:0.45924136 15:0.16892356 16:0.22730589 17:0 18:0 19:0.95420599 20:0.1571126 21:0.089306429 22:0.076334648 23:0.11281147 24:0.053114526 25:0.18827951 26:0 27:0 28:0.55353516 29:0.23667131 30:0.30322993 31:0.45786989 32:0.56515497 33:0.12877741 34:0 35:0 36:0 37:0.86930943 38:0.024932362 39:0 40:0.071489297 41:0.48311284 42:0.071855985 43:0 44:0 45:0 46:0.95959038 47:0.19297686 48:0.15555549 49:0.12074573 50:0.023925737 51:0.034771927 52:0.037146613 53:0 54:0 55:0.95682317 56:0.032277666 57:0.085786156 58:0.1194381 59:0.23781393 60:0.054685071 61:0.047657181 62:0 63:0 64:0.47725716 65:0 66:0.082743756 67:0.44160098 68:0.57246387 69:0.39650565 70:0.29227829 71:0 72:0 73:0.85977942 74:0.22296385 75:0.29600078 76:0.30152196 77:0.15374896 78:0.063819341 79:0.069380239 80:0 
0 1 1 0 1 1 0 0.5046552028754009 1 1 1 0.8622889696244904 1 0.4732826644676419 1 1 0:0 1:0.80224234 2:0.027533133 3:0.050243214 4:0.19942339 5:0.54237378 6:0.086463518 7:0.10814767 8:0 9:0 10:0.80854297 11:0.13273655 12:0.14836144 13:0.25750294 14:0.47358069 15:0.11958755 16:0.04163032 17:0 18:0 19:0.99999666 20:0 21:0 22:0 23:0 24:0 25:0 26:0 27:0 28:0.99205178 29:0.07198374 30:0.019164121 31:0.0098202834 32:0.092798285 33:0.035135176 34:0.018283462 35:0 36:0 37:0.95809191 38:0.063084371 39:0.051754475 40:0.16524029 41:0.21487641 42:0.011016242 43:0.042412147 44:0 45:0 46:0.91532016 47:0.072330527 48:0.11368184 49:0.19103183 50:0.32645553 51:0.030979222 52:0 53:0 54:0 55:0.99999833 56:0 57:0 58:0 59:0 60:0 61:0 62:0 63:0 64:0.99248588 65:0.086437963 66:0.059456628 67:0.033085722 68:0.053108077 69:0.0067148139 70:0 71:0 72:0 73:0.99027336 74:0.10283124 75:0.060457166 76:0 77:0 78:0 79:0.071510218 80:0 
0.2137031488544507 0 0.1151133486258489 0.162178373112462 0 0.7847780861851184 0 0.4469058476454907 0.2424899719953522 0.1884606669832473 0.9056286659403878 0 0.5253186496990985 0 0.6011238280502788 0.5361361958409848 0:0 1:0.51933688 2:0.085500181 3:0.23881657 4:0.31035084 5:0.67065769 6:0.26984802 7:0.21684027 8:0 9:0 10:0.81379008 11:0 12:0.00026230601 13:0.00075562426 14:0.49458566 15:0.18026854 16:0.24622443 17:0 18:0 19:0.93279135 20:0.12332987 21:0.16868848 22:0.13451372 23:0.17671269 24:0.1788602 25:0.070117742 26:0 27:0 28:0.41545209 29:0.16730194 30:0.28427929 31:0.51916927 32:0.66476023 33:0.062837534 34:0.056533001 35:0 36:0 37:0.82970625 38:0 39:0.018784506 40:0.032670412 41:0.54262328 42:0.10365506 43:0.070545003 44:0 45:0 46:0.95675623 47:0.24588421 48:0.087382495 49:0.074345529 50:0.095183745 51:0.014426003 52:0.04147248 53:0 54:0 55:0.97138208 56:0.06141274 57:0.069921866 58:0.046507932 59:0.19932993 60:0.053882021 61:0.054332651 62:0 63:0 64:0.41466153 65:0.060181607 66:0.027800998 67:0.29399207 68:0.59889966 69:0.37895223 70:0.48469996 71:0 72:0 73:0.89170271 74:0.074074805 75:0.28167325 76:0.29251668 77:0.1539048 78:0.075158112 79:0.071621627 80:0 
0 0 0 0 0 0 0 0 0 0 0 0 0.01114792344472621 0 0 0 0:0 1:0.36947301 2:0.032803666 3:0.049122706 4:0.18490049 5:0.89817202 6:0.12448088 7:0.059839021 8:0 9:0 10:0.88328159 11:7.3866933e-05 12:0.025220223 13:0.10644536 14:0.44896904 15:0.072427236 16:0.031952742 17:0 18:0 19:0.99999774 20:0 21:0 22:0 23:0 24:0 25:0 26:0 27:0 28:0.0070000007 29:0.032851405 30:0.014120794 31:0.40677863 32:0.90819782 33:0.075113326 34:0.052245155 35:0 36:0 37:0.83269161 38:0.015032299 39:0.0086006206 40:0.25594452 41:0.49058101 42:0.0081317024 43:0.0086916396 44:0 45:0 46:0.55910408 47:0.058844209 48:0.074265368 49:0.34813824 50:0.74254334 51:0.069089986 52:0.03275973 53:0 54:0 55:0.59512115 56:0.031789314 57:0.063452408 58:0.27800116 59:0.72652149 60:0.07336469 61:0.17400643 62:0 63:0 64:0.90618587 65:0.0074245632 66:0 67:0.26172775 68:0.33205661 69:0 70:0 71:0 72:0 73:0.99999756 74:0 75:0 76:0 77:0 78:0 79:0 80:0 
0.8184583242715244 0.1153044474970604 0.1634704936040987 1 0.2624302104898226 0.1862707867664817 0.1537536875052857 0.07092418055637557 0.1742730348104985 0.1178955111025617 0.2692628098511449 0.2650846477321944 0.1879117437680909 0.1732757070173917 0.1798470399188876 0.2324835363613963 0:0 1:0.58833677 2:0 3:0 4:0.0034769024 5:0.80765969 6:0.039003763 7:0.00012734954 8:0 9:0 10:0.24690665 11:0 12:0 13:0.066531822 14:0.93638271 15:0.23594823 16:0.046021473 17:0 18:0 19:0.63866144 20:0.15864722 21:0.26748288 22:0.26797059 23:0.55607677 24:0.27305424 25:0.19949184 26:0 27:0 28:0.092259966 29:0.035168327 30:0.098256074 31:0.61492282 32:0.77529526 33:0.017416924 34:0.032707229 35:0 36:0 37:0.00010938586 38:0 39:0 40:0.13496579 41:0.98786283 42:0.074001819 43:0.020717366 44:0 45:0 46:0.22834218 47:0.23148939 48:0.23533787 49:0.55499119 50:0.72812891 51:0.026360916 52:1.1438272e-10 53:0 54:0 55:0.22515279 56:0.0075908569 57:0.087743044 58:0.28709552 59:0.9261893 60:0.020188538 61:0.029677359 62:0 63:0 64:0.03010105 65:0 66:0.016139446 67:0.28523421 68:0.95668244 69:0.0049957107 70:0.046935264 71:0 72:0 73:0.0050227074 74:0.060031276 75:0.25827131 76:0.44982174 77:0.85022688 78:0.066167079 79:0.007502534 80:0 
0.2959806155459661 0.6200851316245007 1 0.5080047426663199 0.04969759937617742 0.5747699187960867 1 0.3624402519074285 0.9204054988897171 0.807597747964388 0.8631541094603755 0.1957130050760193 0.06123384096091067 0.3441778237033695 0.5082428782950209 0.4378253381327862 0:0 1:0.95916468 2:0.00012073777 3:0 4:0.251681 5:0.11753765 6:0.0513786 7:0.014110525 8:0 9:0 10:0.91102189 11:0.028852344 12:0.039102506 13:0.1925514 14:0.36102337 15:0.016080661 16:0 17:0 18:0 19:0.99999648 20:0 21:0 22:0 23:0 24:0 25:0 26:0 27:0 28:0.99996126 29:0 30:0 31:0 32:0 33:0 34:0.0086428011 35:0 36:0 37:0.98008335 38:0.053956315 39:0.056543265 40:0.13018121 41:0.12796925 42:0 43:0 44:0 45:0 46:0.70618421 47:0.085703544 48:0.019399133 49:0.49739534 50:0.49609298 51:0 52:0 53:0 54:0 55:0.99999797 56:0 57:0 58:0 59:0 60:0 61:0 62:0 63:0 64:0.99999797 65:0 66:0 67:0 68:0 69:0 70:0 71:0 72:0 73:0 74:0 75:0 76:0 77:0 78:0 79:0 80:0 
0 0 1 0 0 0 0 0 0 0 0 0 0 0 0 0 0:0 1:0.64967352 2:0.050380036 3:0.041672383 4:0.28438893 5:0.70014244 6:0.050603151 7:0 8:0 9:0 10:0.88907909 11:0.019258471 12:0 13:0.17751609 14:0.42104447 15:0.00050868274 16:0.019284172 17:0 18:0 19:0.9999969 20:0 21:0 22:0 23:0 24:0 25:0 26:0 27:0 28:0.98901236 29:0 30:0 31:0.14207432 32:0.039865822 33:0.0086903526 34:0 35:0 36:0 37:0.92413193 38:0.046387699 39:0.019922921 40:0.19156133 41:0.32478124 42:0.024192585 43:0.025721384 44:0 45:0 46:0.37078822 47:0.052870039 48:0 49:0.44292638 50:0.81284738 51:0 52:0.052940596 53:0 54:0 55:0.99999779 56:0 57:0 58:0 59:0 60:0 61:0 62:0 63:0 64:0.99998766 65:0 66:0 67:0.0015812156 68:0.003001461 69:0 70:0.0029690799 71:0 72:0 73:0.99946994 74:0 75:0 76:0.025982546 77:0.012991273 78:0 79:0.012991273 80:0 
0.239607579639797 0 0 0.5392604275710058 0.9007373128876154 0 0 0 0 0 0 0 0 0.2277088246912097 0 0 0:0 1:0.0026819867 2:0 3:0 4:0.98485559 5:0.13407861 6:0.081685558 7:0.073379129 8:0 9:0 10:0.82675701 11:0 12:0 13:0.45850712 14:0.31845251 15:0.029447647 16:0.062919304 17:0 18:0 19:0.99999797 20:0 21:0 22:0 23:0 24:0 25:0 26:0 27:0 28:0.29588839 29:0.05971206 30:0 31:0.89202493 32:0.32530963 33:0.036502738 34:0.077515997 35:0 36:0 37:0.70655137 38:0 39:0 40:0.58111483 41:0.40128472 42:0.021226792 43:0.040075652 44:0 45:0 46:0.43667418 47:0.026548492 48:0.057200871 49:0.81815475 50:0.36617669 51:0.019851813 52:0.038432345 53:0 54:0 55:0.98570567 56:0.052957896 57:0 58:0.11020751 59:0.048609391 60:0 61:0.10518363 62:0 63:0 64:0.81420362 65:0 66:0 67:0.47286418 68:0.33684379 69:0 70:0 71:0 72:0 73:0.99920803 74:0 75:0 76:0 77:0.03974098 78:0 79:0 80:0 
0 0 0 0 1 0.5872706167456262 0 0 0 0.1178652879243988 0 0.1253305852478538 0.3996721486740814 0 0 0.4708834930727692 0:0 1:0.58873653 2:0.13610889 3:0.13418336 4:0.49370313 5:0.52449685 6:0.28182882 7:0.13626468 8:0 9:0 10:0.75543213 11:0.057019334 12:0.058653973 13:0.52417344 14:0.35122097 15:0.12589119 16:0.09306059 17:0 18:0 19:0.96442682 20:4.0216641e-05 21:0 22:0.099328011 23:0.24497111 24:0.00022504796 25:8.0433281e-05 26:0 27:0 28:0.98713356 29:0.00047985159 30:0.021871217 31:0.068270691 32:0.13291529 33:0.019947076 34:0.048556663 35:0 36:0 37:0.98690575 38:0.029435506 39:0 40:0.11080448 41:0.10373161 42:0.042475425 43:0.017420338 44:0 45:0 46:0.97606325 47:0.03189563 48:0.0458811 49:0.14257351 50:0.14826305 51:0.034861412 52:0.025435647 53:0 54:0 55:0.99994385 56:0 57:0 58:0 59:0 60:0.010288093 61:0 62:0 63:0 64:0.99999052 65:0 66:0 67:0 68:0.003818779 69:0 70:0 71:0 72:0 73:0.99688154 74:0 75:0 76:0.0020743953 77:0.070896499 78:0.034412805 79:0.0018112002 80:0 
0.484695251546218 0.1224335260411015 0.1544361820333833 0.6654108637660404 0.2909950215160085 0.1593919662612876 0.5010856104317002 0.06915482247772341 0.1496426680062987 0.1190178663000027 0.3563556693027009 0.2463075049868681 0.2570408451279208 0.1446854544716478 0.3760438607771208 0.5589156072958182 0:0 1:0.044829566 2:0 3:0.00041219947 4:0.050506979 5:0.99173945 6:0.02561567 7:0.1059337 8:0 9:0 10:0.85283607 11:0 12:0.0061899908 13:0.49501905 14:0.13067821 15:0.022440325 16:0.10000681 17:0 18:0 19:0.99999762 20:0 21:0 22:0 23:0 24:0 25:0 26:0 27:0 28:0.12883289 29:0 30:0 31:0.035865821 32:0.98970664 33:0 34:0.05087439 35:0 36:0 37:0.78243339 38:0 39:0.00016322722 40:0.066348456 41:0.61520624 42:0.010143572 43:0.069345422 44:0 45:0 46:0.046738356 47:0.028426673 48:0.018196991 49:0.98962969 50:0.11888447 51:0.025271887 52:0.050304603 53:0 54:0 55:0.66820693 56:0 57:0 58:0.086100452 59:0.73434556 60:0 61:0.082468279 62:0 63:0 64:0.77764821 65:0 66:0 67:0.072892122 68:0.62444156 69:0 70:0.00023520383 71:0 72:0 73:0.99999708 74:0 75:0 76:0 77:0 78:0 79:0 80:0 
0 1 1 1 1 1 1 1 1 1 1 1 0.8404087481394632 1 1 1 0:0 1:0.99999756 2:0 3:0 4:0 5:0.00034607362 6:0.00065908232 7:0 8:0 9:0 10:0.93354964 11:0.020356368 12:0.026002599 13:0.23126203 14:0.26728594 15:0.022074463 16:0.044467822 17:0 18:0 19:0.99999481 20:0 21:0 22:0 23:0 24:0 25:0 26:0 27:0 28:0.99999839 29:0 30:0 31:0 32:0 33:0 34:0 35:0 36:0 37:0.99999827 38:0 39:0 40:0 41:0.00025628874 42:0.00048809085 43:0 44:0 45:0 46:0.9908092 47:0 48:0.093900658 49:0.0019730164 50:0.055674501 51:0.079715356 52:0 53:0 54:0 55:0.99999815 56:0 57:0 58:0 59:0 60:0 61:0 62:0 63:0 64:0.99999815 65:0 66:0 67:0 68:0 69:0 70:0 71:0 72:0 73:0.99998885 74:0 75:0 76:0 77:0 78:0 79:0 80:0 
0 1 1 0.1098225839780122 1 1 0 1 1 1 1 1 0.8947279522188248 1 1 1 0:0 1:0.9666357 2:0 3:0.096902698 4:0.039251167 5:0.18288505 6:0.12178761 7:0.079923213 8:0 9:0 10:0.89183962 11:0 12:0.050264318 13:0.20199646 14:0.40054691 15:0.029162401 16:0 17:0 18:0 19:0.99999821 20:0 21:0 22:0 23:0 24:0 25:0 26:0 27:0 28:0.98789269 29:0 30:0 31:0.035830516 32:0.13613358 33:0.065168664 34:0 35:0 36:0 37:0.97758436 38:0 39:0.036953066 40:0.072769791 41:0.19160116 42:0.024222923 43:0.01912521 44:0 45:0 46:0.74230546 47:0.043853968 48:0.11531962 49:0.36613721 50:0.54742134 51:0.0052260635 52:0 53:0 54:0 55:0.99999779 56:0 57:0 58:0 59:0 60:0 61:0 62:0 63:0 64:0.9985441 65:0 66:0 67:0 68:0.035631321 69:0.040460572 70:0 71:0 72:0 73:0.98708874 74:0 75:0 76:0.068025462 77:0.14498857 78:0 79:0 80:0 
0 0 0 0 0 0.1180017507181005 0 0 0 0 0 0 0.06600697880266106 0.1310435962921374 0 0 0:0 1:0.35836893 2:0 3:0 4:0.62611353 5:0.68365806 6:0.082363978 7:0.073257089 8:0 9:0 10:0.93977755 11:0 12:0 13:0.23906249 14:0.19001886 15:0.12517026 16:0.088804118 17:0 18:0 19:0.99999797 20:0 21:0 22:0 23:0 24:0 25:0 26:0 27:0 28:0.32920986 29:0 30:0 31:0.70938778 32:0.61338198 33:0.035523128 34:0.10430813 35:0 36:0 37:0.93724775 38:0 39:0 40:0.18497042 41:0.29179275 42:0.029996017 43:0.036122009 44:0 45:0 46:0.041155249 47:0.057935249 48:0.12879536 49:0.83849549 50:0.47256553 51:0.22158863 52:0.05342181 53:0 54:0 55:0.76162463 56:0 57:0 58:0.39148727 59:0.41425186 60:0.082910202 61:0.29691103 62:0 63:0 64:0.95877904 65:0 66:0 67:0.25341254 68:0.12842435 69:0 70:0 71:0 72:0 73:0.99999654 74:0 75:0 76:0 77:0 78:0 79:0 80:0 
0.2762688763543776 0.00393169438852427 0.03246663370004531 0.1624588064387477 0.01374174737235055 0.04047174071279118 0.7805103464083243 0.1319239378277702 0.0142995369519071 0 0.1165179201756003 0.05560609227403901 0 0.04365091202940771 0.6294033843136451 0.3072678282994606 0:0 1:0.60108131 2:0 3:0 4:0.08192762 5:0.78297836 6:0 7:0.13752088 8:0 9:0 10:0.21689375 11:0 12:0 13:0.0065905289 14:0.96948266 15:0.11035073 16:0.028796185 17:0 18:0 19:0.73371166 20:0.088171624 21:0.18303466 22:0.15434937 23:0.59572566 24:0.18155676 25:0.093277358 26:0 27:0 28:0.019004703 29:0.088673435 30:0.033496697 31:0.32525614 32:0.93997931 33:0.0175926 34:0.031308234 35:0 36:0 37:0 38:1.2119876e-09 39:1.2119876e-09 40:0.098813564 41:0.98914182 42:0.091159523 43:0.059289813 44:0 45:0 46:0.3019855 47:0.095289886 48:0.16498001 49:0.40707588 50:0.8384673 51:0.049283054 52:0.036458552 53:0 54:0 55:0.29470181 56:0.0037210931 57:0.0076123648 58:0.18876444 59:0.93649131 60:0.020456402 61:0.00024168275 62:0 63:0 64:0.14560559 65:0.01653409 66:0.029852739 67:0.21308038 68:0.96482092 69:0.015671657 70:0.033106253 71:0 72:0 73:0.024152089 74:0.064592659 75:0.15449189 76:0.26071486 77:0.94552153 78:0.096470691 79:0.0087013235 80:0 
0 0.3422140238401943 1 0 1 1 0.1475339148855047 1 1 1 0.7470453389318628 1 0.02606163214365774 0 1 1 0:0 1:0.5731563 2:0.30627248 3:0.21748754 4:0.54117209 5:0.3445369 6:0.21663193 7:0.26809409 8:0 9:0 10:0.91705489 11:0 12:0 13:0.0050174268 14:0.32018587 15:0.16433671 16:0.17161815 17:0 18:0 19:0.98873085 20:0.11077363 21:0.024028905 22:0.0010646764 23:0.046730131 24:0.0036597801 25:0.085786425 26:0 27:0 28:0.96859068 29:0.080353446 30:0.13317929 31:0.16098511 32:0.099020213 33:0.020602787 34:0.03857467 35:0 36:0 37:0.89226061 38:0 39:0.018366791 40:0.17849874 41:0.40057024 42:0.032731432 43:0.10066027 44:0 45:0 46:0.98956203 47:0.12836501 48:0.025828667 49:0.017746679 50:0.054896511 51:0 52:0.016981205 53:0 54:0 55:0.99629939 56:0.025600849 57:0.03184779 58:0.0036879433 59:0.055682085 60:0.019720856 61:0.047017761 62:0 63:0 64:0.93430829 65:0.016030522 66:0.082900017 67:0.16582972 68:0.2533626 69:0.12821133 70:0.10863324 71:0 72:0 73:0.82886738 74:0.19150616 75:0.22202234 76:0.41071641 77:0.15596958 78:0.18425392 79:0.0060556703 80:0 
1 0 0.445741271901142 0.07795574759937858 0.8874658750827756 0 0.3347620132439438 0 0 0 0 0.1190137589047203 0.3244594191851249 0 0 0.5843918443436886 0:0 1:0.18827301 2:0 3:0 4:0.37981144 5:0.88638359 6:0.18601605 7:0 8:0 9:0 10:0.96718603 11:0 12:0 13:0.044478398 14:0.23589917 15:0.083187811 16:0.0005998555 17:0 18:0 19:0.99937683 20:0.0082889041 21:0 22:0.0012247405 23:0.015053023 24:0.0046884962 25:0.030397242 26:0 27:0 28:0.9606626 29:0.10338612 30:0 31:0.22393736 32:0.12733617 33:0.0021557698 34:0.0081147188 35:0 36:0 37:0.84601378 38:0 39:0 40:0.23392731 41:0.46026739 42:0.13299188 43:0 44:0 45:0 46:0.98795694 47:0.079347312 48:0.082468994 49:0.041559763 50:0.094035938 51:0.016449921 52:0 53:0 54:0 55:0.99437368 56:0.083733991 57:0 58:0.057859484 59:0.0096765682 60:0 61:0.027625859 62:0 63:0 64:0.91829842 65:0.058356822 66:0.0003450865 67:0.20280902 68:0.26358724 69:0.14639127 70:0.14585899 71:0 72:0 73:0.57317573 74:0.19732772 75:0.22990164 76:0.39841178 77:0.53613156 78:0.30429366 79:0.20225255 80:0 
0 0 0 0.05764387299514421 0.3166271750602454 0.09087886477332015 0 0 0.1610005705169882 0.6099368855465578 0.3188569052871372 0.06806897392047247 0.09671038503300496 0.5976971232069174 0.3317494912700512 0.1089214534713468 0:0 1:0.40878698 2:0.5066973 3:0.19517528 4:0.45460761 5:0.35574865 6:0.31649357 7:0.32349807 8:0 9:0 10:0.95068085 11:0 12:0.012790464 13:0.060431376 14:0.19245827 15:0.1798149 16:0.15169635 17:0 18:0 19:0.99666286 20:0.010187153 21:0.025798475 22:8.2383289e-05 23:0.028686911 24:0.032486949 25:0.063336484 26:0 27:0 28:0.60663897 29:0.26830626 30:0.29839292 31:0.55883801 32:0.36194029 33:0.14536183 34:0.080771632 35:0 36:0 37:0.83167642 38:0 39:0.035142161 40:0.28361979 41:0.45684335 42:0.022852248 43:0.13192241 44:0 45:0 46:0.98906702 47:0.089106977 48:0.092570752 49:0.026966922 50:0.059089065 51:0 52:0.031833842 53:0 54:0 55:0.98279911 56:0.045704849 57:0.033268332 58:0.047291026 59:0.1319925 60:0.09281908 61:0.051301524 62:0 63:0 64:0.61686873 65:0 66:0.017542535 67:0.39359978 68:0.53307492 69:0.34919417 70:0.24110238 71:0 72:0 73:0.79960376 74:0.12134308 75:0.37012994 76:0.33345005 77:0.22866443 78:0.20657471 79:0.052477565 80:0 
0 1 1 0.4061028045055264 1 1 0 1 1 1 1 1 0 1 1 1 0:0 1:0.94076538 2:0 3:0 4:0.162113 5:0.29545519 6:0.02602821 7:0.026523206 8:0 9:0 10:0.86709237 11:0.030952249 12:0 13:0.37805408 14:0.31515124 15:0.056960225 16:0.041214589 17:0 18:0 19:0.98355991 20:0 21:8.5413449e-05 22:0.024889061 23:0.17884742 24:0 25:0 26:0 27:0 28:0.99999827 29:0 30:0 31:0 32:0.00077937724 33:0 34:0 35:0 36:0 37:0.99452525 38:0 39:0 40:0.067163385 41:0.077100538 42:0 43:0.021470642 44:0 45:0 46:0.99600559 47:0 48:0 49:0.049511068 50:0.074266598 51:0 52:0 53:0 54:0 55:0.99999809 56:0 57:0 58:0 59:0 60:0 61:0 62:0 63:0 64:0.99999797 65:0 66:0 67:0 68:0 69:0 70:0 71:0 72:0 73:0.99999243 74:0 75:0 76:0 77:0 78:0 79:0 80:0 
-1 0.1606731717915343 0.1439523356847348 0.8534542930735844 0.3326757928416141 0.4430547050133282 0.3926991498622048 0.2405270049559077 0.2688343413318737 0.02293479784260329 0.1020189349660585 0.1613306444000613 0.0219533560728381 0.2861423466856878 0.6273952943285723 0.1722459899788445 0:0 1:0.64176697 2:0.0092701977 3:0 4:0.35027474 5:0.63466889 6:0.24993098 7:0 8:0 9:0 10:0.26991186 11:0.019156905 12:0 13:0.52655745 14:0.63493192 15:0.40696928 16:0.28412938 17:0 18:0 19:0.9235881 20:0.1854828 21:0.016063258 22:0.073275775 23:0.23201431 24:0.017150775 25:0.22980702 26:0 27:0 28:0.13568838 29:0.10545535 30:0.061536614 31:0.48477951 32:0.83521688 33:0.18415546 34:0.011083445 35:0 36:0 37:0.14494979 38:0.0036345017 39:4.5881152e-09 40:0.58469397 41:0.78027725 42:0.16762829 43:0.011977408 44:0 45:0 46:0.2915968 47:0.5013845 48:0.35733899 49:0.466656 50:0.55665368 51:0.090772465 52:0 53:0 54:0 55:0.96993613 56:0.00317202 57:3.4427432e-09 58:0.13138889 59:0.20475674 60:3.4427432e-09 61:0 62:0 63:0 64:0.31132236 65:0.069191411 66:0.04037543 67:0.26591671 68:0.74624503 69:0.440983 70:0.27307671 71:0 72:0 73:0.35697943 74:0.25300416 75:0.38090602 76:0.42040703 77:0.57929248 78:0.22031939 79:0.32028368 80:0 
-0.1425586380947965 0 0 0 0 0 0 0 0 0 0 0 0 0 0 0 0:0 1:0.6577062 2:0.18354864 3:0.14165881 4:0.47961599 5:0.50364429 6:0.14172481 7:0.099393874 8:0 9:0 10:0.64669073 11:0.026264165 12:0.026443152 13:0.24324235 14:0.64948857 15:0.17827463 16:0.26001635 17:0 18:0 19:0.97778082 20:0.073336668 21:0.072302893 22:0.025713284 23:0.17355585 24:0.034465648 25:0.036887474 26:0 27:0 28:0.77700472 29:0.14889055 30:0.11524986 31:0.32189199 32:0.50196791 33:0 34:0.072243407 35:0 36:0 37:0.44228613 38:0.05993158 39:0.1060783 40:0.56731421 41:0.68254042 42:0.017457472 43:0.038969532 44:0 45:0 46:0.78546941 47:0.23294677 48:0.4106043 49:0.27928698 50:0.28543222 51:0.012137467 52:0.023429692 53:0 54:0 55:0.97528696 56:0.056845468 57:0.029697394 58:0.12360679 59:0.16604437 60:0 61:0.042978857 62:0 63:0 64:0.78243572 65:0.020266026 66:0.07100869 67:0.18282081 68:0.55060381 69:0.14453273 70:0.15765613 71:0 72:0 73:0.5405466 74:0.20895481 75:0.40287244 76:0.54748493 77:0.43413338 78:0.093551978 79:0.069760256 80:0 
-0.7029128893087474 0 0.1651952114623168 0.07547239548419991 0.5804087412112604 0.09698490371505181 0.4910854274908353 0 0.04607057986515652 0.4180675950427488 0.4097580085910605 0.2896922842719596 1 0.1491051859193985 0.1781576939364506 0 0:0 1:0.0082489979 2:0.460282 3:0.23684277 4:0.72221237 5:0.3625609 6:0 7:0.28092051 8:0 9:0 10:0.81469136 11:0.10240828 12:0.041255161 13:0.30010861 14:0.44712454 15:0.075946905 16:0.16831361 17:0 18:0 19:0.94404542 20:0.022325793 21:0.024951106 22:0.13397098 23:0.29302987 24:0.042526234 25:0.045054521 26:0 27:0 28:0.92582959 29:0.073265225 30:0.084955201 31:0.29677579 32:0.18633981 33:0.056765221 34:0.065019071 35:0 36:0 37:0.0034356089 38:0.19098327 39:0.1540606 40:0.86106634 41:0.37540734 42:0.19007008 43:0.1458752 44:0 45:0 46:0.81138134 47:0.2526421 48:0.15315121 49:0.29312086 50:0.39099109 51:0.12417845 52:0.012539276 53:0 54:0 55:0.99486959 56:0.014698214 57:0.074944779 58:0.056646913 59:0.031858426 60:0.013159472 61:0 62:0 63:0 64:0.92454612 65:0.065549605 66:0.085088164 67:0.25468338 68:0.15955608 69:0.16241831 70:0.13026865 71:0 72:0 73:0.27827433 74:0.26957583 75:0.24966015 76:0.48900017 77:0.47525945 78:0.39228654 79:0.4106966 80:0 
-0.02491813915970077 0 0 0.7334504202478047 0.01244588745002477 0 0.2677967607635284 0 0 0 0 0.03711027880297356 0 0 0 0 0:0 1:0.0015725151 2:0 3:0 4:0.95660442 5:0.27976888 6:0.08140038 7:0 8:0 9:0 10:0.93027753 11:0.047131259 12:0.10790389 13:0.32148856 14:0.12547252 15:0.040192239 16:0 17:0 18:0 19:0.36947685 20:0.08273001 21:0.10913492 22:0.82877594 23:0.38271913 24:0.10667797 25:0 26:0 27:0 28:0.92448461 29:0 30:0 31:0.33922905 32:0.14746846 33:0.092191242 34:0 35:0 36:0 37:0.00016198721 38:0.032626778 39:0.059271224 40:0.95351803 41:0.28597325 42:0.066641882 43:0 44:0 45:0 46:0.89947677 47:0.042985778 48:0.09841308 49:0.3599242 50:0.22328947 51:0 52:0 53:0 54:0 55:0.38414386 56:0 57:0 58:0.8617143 59:0.33147043 60:0 61:0 62:0 63:0 64:0.89372605 65:0.046807416 66:0.025410661 67:0.34556028 68:0.27715045 69:0.046774156 70:0 71:0 72:0 73:0.00045014653 74:0.15530489 75:0.12708592 76:0.87635064 77:0.42906311 78:0.0873788 79:0 80:0 
-0 0 0 0.0627908663942788 0 0 0 0 0 0 0 0 0 0 0 0 0:0 1:0.33718672 2:0 3:0 4:0.38993996 5:0.85387963 6:0.033302799 7:0.063420728 8:0 9:0 10:0.96367234 11:0 12:0.0046253628 13:0.14753109 14:0.22258413 15:0 16:0 17:0 18:0 19:0.53373265 20:0.052913759 21:0.12312928 22:0.70152241 23:0.45279846 24:0.00017834356 25:0.00017834325 26:0 27:0 28:0.9480046 29:0 30:0 31:0.21473995 32:0.23487847 33:0 34:0 35:0 36:0 37:0.20020595 38:0 39:0.00559723 40:0.68777966 41:0.69773865 42:0 43:0 44:0 45:0 46:0.93777889 47:0 48:0.0042203809 49:0.14305532 50:0.3163597 51:0 52:0 53:0 54:0 55:0.47144765 56:0 57:0 58:0.70831019 59:0.49910325 60:0.10676797 61:0.12458277 62:0 63:0 64:0.9016071 65:0 66:0 67:0.30741388 68:0.3042959 69:0 70:0 71:0 72:0 73:0.32187015 74:0.072785035 75:0.082648881 76:0.76011133 77:0.54449201 78:0.046860822 79:0.088459939 80:0 
-0 0 0 0 0 0 0.6634920060917362 0 0 0 0 0 0.29635801925129 0 0 0 0:0 1:0.35055867 2:0.32094133 3:0.24536757 4:0.30471674 5:0.62375814 6:0.40167344 7:0.26572707 8:0 9:0 10:0.63760799 11:0.13870773 12:0.06263084 13:0.18450888 14:0.56598699 15:0.36999789 16:0.28105941 17:0 18:0 19:0.91418505 20:0.080340877 21:0.06961713 22:0.23913118 23:0.27420801 24:0.12371816 25:0.072628506 26:0 27:0 28:0.70078236 29:0.31495845 30:0.29423961 31:0.30686697 32:0.45719495 33:0.14114365 34:0 35:0 36:0 37:0.083289407 38:0.2518903 39:0.12742263 40:0.63396698 41:0.59649646 42:0.39451146 43:0 44:0 45:0 46:0.67001408 47:0.38075083 48:0.3242428 49:0.43114099 50:0.29076681 51:0.17190494 52:0.0313485 53:0 54:0 55:0.96863914 56:0.10619955 57:0.033642069 58:0.047091793 59:0.18550126 60:0.063692369 61:0.092919707 62:0 63:0 64:0.65845561 65:0.07094495 66:0.07793662 67:0.33036789 68:0.55634695 69:0.30893975 70:0.20299734 71:0 72:0 73:0.086436205 74:0.22227003 75:0.3557249 76:0.7049219 77:0.47552839 78:0.30581832 79:0.00018220195 80:0 
-0.4497646095767034 0.09508643636797734 0.1759431571928217 0.5190723909201623 0.1307018024595978 0.2452353327433202 0.469298215113093 0.09770813153711143 0.1708791713700822 0.1436928672221782 0.3143948466371521 0.1205056813091569 0.2211016934274463 0.1952559844882845 0.2531857526838341 0.4484949827650189 0:0 1:0.20017706 2:0 3:0 4:0.2169895 5:0.95427823 6:0.016711788 7:0.04374034 8:0 9:0 10:0.89673632 11:0.019258615 12:0.0047432771 13:0.38557425 14:0.21632676 15:0 16:0 17:0 18:0 19:0.14473566 20:0.17184684 21:0.023239089 22:0.88214624 23:0.40755352 24:0.02716006 25:0.062873669 26:0 27:0 28:0.94870079 29:0 30:0 31:0.16228059 32:0.27134255 33:0 34:0 35:0 36:0 37:0.090459771 38:0.015142692 39:0.026758509 40:0.55545002 41:0.8260408 42:0 43:0 44:0 45:0 46:0.86970872 47:0.016603056 48:0.04729452 49:0.40749082 50:0.27393535 51:0 52:0 53:0 54:0 55:0.14132398 56:0 57:0 58:0.71989274 59:0.67626917 60:0 61:0.066588439 62:0 63:0 64:0.92750061 65:0.015307444 66:0.042872023 67:0.20007688 68:0.31246626 69:0 70:0 71:0 72:0 73:0.27133664 74:0.021841105 75:0.13792589 76:0.27479354 77:0.91157967 78:0 79:0.01953561 80:0 
-1 0.7420095519861698 1 0.7625475146859882 0.9787163069301189 1 1 1 1 1 1 1 1 1 1 1 0:0 1:0.53432202 2:0.20944974 3:0.12651476 4:0.22408329 5:0.69521916 6:0.20255135 7:0.28291777 8:0 9:0 10:0.97210312 11:0.038268518 12:0.050378263 13:0.092428945 14:0.17219859 15:0.05734444 16:0.097594939 17:0 18:0 19:0.94463813 20:0.034700837 21:0.051546298 22:0.19790407 23:0.25038099 24:0.0075696716 25:0.043341979 26:0 27:0 28:0.9210583 29:0.16579024 30:0.15205158 31:0.27701685 32:0.14532791 33:0 34:0.05639692 35:0 36:0 37:0.9212727 38:0.029170152 39:0.088444583 40:0.23488103 41:0.27872309 42:0.0001304758 43:0.098564625 44:0 45:0 46:0.98405427 47:0.05317283 48:0.060812999 49:0.10214683 50:0.10879646 51:5.5789027e-05 52:0.053250242 53:0 54:0 55:0.98142213 56:0.046388861 57:0.036073875 58:0.041064605 59:0.15143742 60:0.011164218 61:0.092784882 62:0 63:0 64:0.90379804 65:0.060354866 66:0.098264404 67:0.23306888 68:0.2590608 69:0.081353605 70:0.20443003 71:0 72:0 73:0.35072988 74:0.080680251 75:0.17838235 76:0.41324273 77:0.69912523 78:0.35195896 79:0.2349959 80:0 
-0.7868958052291656 0.03865285280557647 0.1636268755726752 0.1431082617089537 0.1290230623174437 0.4082139472838733 0.5034194164715015 0.2318850202736831 0.2299184234717451 0.3836792799266402 0.5454221574607464 0.0859929846518941 0.5021590354166323 0.5557155401062199 0.3339375998268729 0.2059636984436936 0:0 1:0.42133427 2:0.28409261 3:0.25244591 4:0.44469449 5:0.39548922 6:0.27567282 7:0.49786493 8:0 9:0 10:0.19017836 11:0.13893774 12:0.088486508 13:0.53087795 14:0.4042879 15:0.40911031 16:0.56924355 17:0 18:0 19:0.90174848 20:0.15831602 21:0.061784033 22:0.2515991 23:0.2677587 24:0.019388864 25:0.15030223 26:0 27:0 28:0.41710487 29:0.2692039 30:0.32876486 31:0.552742 32:0.55826104 33:0.05387415 34:0.1593077 35:0 36:0 37:0.062786959 38:0.12173543 39:0.16674557 40:0.887402 41:0.33636993 42:0.086536251 43:0.21286646 44:0 45:0 46:0.61998284 47:0.46706232 48:0.28652295 49:0.53547144 50:0.13176841 51:0.10620531 52:0 53:0 54:0 55:0.92833996 56:0.11104336 57:0.099896915 58:0.088964827 59:0.2779142 60:0.089912333 61:0.1504489 62:0 63:0 64:0.38909087 65:0.025028989 66:0.16593879 67:0.46915692 68:0.56914151 69:0.37943071 70:0.36392537 71:0 72:0 73:0.32348189 74:0.25373194 75:0.37344223 76:0.69726121 77:0.25132024 78:0.2715151 79:0.26164192 80:0 
-0 0 0 0.0330549747501056 0 0 0 0 0 0 0 0 0 0 0 0 0:0 1:0.053897757 2:0 3:0 4:0.48809987 5:0.86939263 6:0.018170033 7:0.05166705 8:0 9:0 10:0.91629541 11:0.034449149 12:0.026453828 13:0.29113778 14:0.27064425 15:0.022325357 16:0 17:0 18:0 19:0.31409663 20:0 21:0 22:0.74092472 23:0.59088945 24:0.053617265 25:0.01834812 26:0 27:0 28:0.9186368 29:0 30:0 31:0.18659377 32:0.34761834 33:0.021049557 34:0 35:0 36:0 37:0.025953641 38:0.025966834 39:0.029549187 40:0.64397073 41:0.76353574 42:0.0094065694 43:0 44:0 45:0 46:0.93315846 47:0.028221775 48:0.02167177 49:0.24543226 50:0.26020277 51:0 52:0 53:0 54:0 55:0.13816868 56:0 57:0 58:0.44879472 59:0.87909275 60:0 61:0.08170893 62:0 63:0 64:0.92862636 65:0 66:0.010584442 67:0.16022171 68:0.33446005 69:0 70:0 71:0 72:0 73:0.059710063 74:0.022604465 75:0.13544956 76:0.71899605 77:0.67853451 78:0.014208361 79:0 80:0 
-0.9412652605486003 0 1 0 0 0 0 0 0 0.3547215045937858 0.06372988690578853 1 0.9816427930517985 0 0 0 0:0 1:0.55127364 2:0.36813802 3:0.17218313 4:0.30323631 5:0.60660547 6:0.20069271 7:0.1752461 8:0 9:0 10:0.90090257 11:0.028664446 12:0.054219481 13:0.067094937 14:0.30832347 15:0.1200112 16:0.26577294 17:0 18:0 19:0.9960224 20:0.022636624 21:0.055783663 22:0.01958528 23:0.053967405 24:0.013850873 25:0.028675066 26:0 27:0 28:0.97909993 29:0.053766988 30:0.059344966 31:0.13211928 32:0.12823182 33:0.02468886 34:0.020898242 35:0 36:0 37:0.47672597 38:0.041241072 39:0.13101356 40:0.64246142 41:0.57569391 42:0.076637588 43:0.06167401 44:0 45:0 46:0.92571253 47:0.1713073 48:0.21840321 49:0.22364253 50:0.11127372 51:0.051466051 52:0.030909117 53:0 54:0 55:0.98863697 56:0.012179439 57:0 58:0.067564957 59:0.12882142 60:0.010729081 61:0.034186654 62:0 63:0 64:0.97613341 65:0 66:0.066633992 67:0.076670565 68:0.18571611 69:0.03522779 70:0.03328434 71:0 72:0 73:0.62241745 74:0.11605283 75:0.35387632 76:0.59785473 77:0.31839591 78:0.1139404 79:0.045829847 80:0 
-0.4208866938042407 1 1 0.9234017796425642 0.8092947590761154 0.2326426945224074 0.3518768236103692 0.1117170477946936 0.4559344813131241 0.3995935753015364 1 1 1 0.710677622977941 0.9759033781146148 1 0:0 1:0.96902901 2:0.044678967 3:0 4:0.12186278 5:0.16078916 6:0.08405599 7:0.10586404 8:0 9:0 10:0.994986 11:0.042634845 12:0.062508762 13:0.037094049 14:0.045166232 15:0.020754196 16:0.020645242 17:0 18:0 19:0.97763556 20:0.019409969 21:0.11195662 22:0.13720851 23:0.11003245 24:0.01847706 25:0.0062105735 26:0 27:0 28:0.99430114 29:0 30:0 31:0.0097191362 32:0.081823796 33:0 34:0.067618825 35:0 36:0 37:0 38:0.28805023 39:0.17440051 40:0.76504427 41:0.45527527 42:0.15869634 43:0.26238522 44:0 45:0 46:0.99165851 47:0.044598386 48:0.060246903 49:0.04023562 50:0.085673817 51:0.035882752 52:0.027284004 53:0 54:0 55:0.9881084 56:0.018594282 57:0 58:0.021321675 59:0.14339042 60:0.033385087 61:0.034085948 62:0 63:0 64:0.98439258 65:0.066887595 66:0.0065065757 67:0.049649175 68:0.1424464 69:0.010670784 70:0.059831955 71:0 72:0 73:0.85689723 74:0.16852747 75:0.18693623 76:0.42090955 77:0.058182444 78:0.13417311 79:0.061760716 80:0 
-0 0 0 0.1444010628163311 0 0 0.2790521418550833 0 0 0 0.05938817720745792 0.04577238820843806 0.1610440797781346 0 0 0.0176142657033297 0:0 1:0 2:0 3:0 4:0.4867416 5:0.86014807 6:0.09085954 7:0.12231368 8:0 9:0 10:0.97218513 11:0.069485366 12:0.071752198 13:0.060156625 14:0.19782001 15:0.046067942 16:0 17:0 18:0 19:0.42595401 20:0.11098889 21:0.069760062 22:0.50309503 23:0.72822124 24:0 25:0.13400978 26:0 27:0 28:0.97631347 29:0 30:0 31:0.13839468 32:0.11747587 33:0.11769722 34:0 35:0 36:0 37:0 38:0.085006736 39:0.087882072 40:0.63420397 41:0.74805915 42:0.15243076 43:0 44:0 45:0 46:0.93407249 47:0.064573884 48:0.066680491 49:0.14922079 50:0.31083816 51:0 52:0 53:0 54:0 55:0.4954592 56:0 57:0 58:0.57332981 59:0.6429112 60:0.030319627 61:0.10746287 62:0 63:0 64:0.92449909 65:0.066268608 66:0 67:0.223682 68:0.29348138 69:0.068843611 70:0 71:0 72:0 73:0.0017201967 74:0.17325331 75:0.068178341 76:0.72611463 77:0.65583587 78:0 79:0.089222737 80:0 
-0 0 0 0 0 0 0 0 0 0.1305596987137503 0.8000187120254701 0 1 0.1427620870303911 0.256439754120938 0 0:0 1:0.4336133 2:0.22769414 3:0.24211648 4:0.37579724 5:0.56564087 6:0.41599602 7:0.25937939 8:0 9:0 10:0.59751207 11:0.071820155 12:0.11181004 13:0.23911127 14:0.56618494 15:0.30612928 16:0.39224634 17:0 18:0 19:0.93895942 20:0.17323065 21:0.055378817 22:0.11233126 23:0.22423914 24:0.028593842 25:0.14681876 26:0 27:0 28:0.53792602 29:0.27670333 30:0.24593976 31:0.40429515 32:0.60649979 33:0.19542091 34:0.06396994 35:0 36:0 37:0.00044334301 38:0.17937118 39:0.32049069 40:0.54864883 41:0.66968346 42:0.29437605 43:0.17015928 44:0 45:0 46:0.73600495 47:0.46192086 48:0.37539712 49:0.2899926 50:0.13561192 51:0.0037279918 52:0.038683616 53:0 54:0 55:0.93336511 56:0.088773064 57:0.15682344 58:0.067266569 59:0.23410891 60:0.15162291 61:0.11844536 62:0 63:0 64:0.56267333 65:0.056536421 66:0.14107296 67:0.2546086 68:0.58933693 69:0.3261641 70:0.37652022 71:0 72:0 73:0.26580623 74:0.39011261 75:0.40577284 76:0.51249522 77:0.41060102 78:0.21019053 79:0.37023523 80:0 
-0.1331399178049335 0 0.1956405434495561 0 0 0 0 0 0 0.06448782748614623 0.2575137336131181 0 0.1999890218205097 0 0 0.1127025143210535 0:0 1:0.12573656 2:0.1403919 3:0.35255131 4:0.27255225 5:0.86163515 6:0 7:0.15319546 8:0 9:0 10:0.60793096 11:0.032753762 12:0.057193216 13:0.30880326 14:0.69535094 15:0.14812072 16:0.15892589 17:0 18:0 19:0.9421438 20:0.03414629 21:0.00063412124 22:0.096432038 23:0.30796042 24:0.083992064 25:0.0010701631 26:0 27:0 28:0.83495653 29:0.061982747 30:0.03808758 31:0.46612385 32:0.27279806 33:0 34:0.076527156 35:0 36:0 37:0.18406659 38:0.053760741 39:0.1094222 40:0.4710862 41:0.83478713 42:0.1710909 43:0.056446116 44:0 45:0 46:0.82319492 47:0.11448903 48:0.136599 49:0.29658985 50:0.43060726 51:0.13095969 52:0.0062586963 53:0 54:0 55:0.99689329 56:0.0075239614 57:0 58:0.063706443 59:0.02233904 60:0 61:0.039811239 62:0 63:0 64:0.76032746 65:0.014916747 66:0.010971239 67:0.3245998 68:0.41659626 69:0.24510494 70:0.28732789 71:0 72:0 73:0.41781685 74:0.15587355 75:0.22438261 76:0.27836618 77:0.69051266 78:0.37592053 79:0.23487292 80:0 
-1 0 0.5413823275818801 0.2454198781896676 0.6468442601678446 0.9363413243623281 0.4008442907290099 0 0.461674108579701 1 0.7171825868710225 0.4483052260990288 1 1 0.0468549675156193 0.04216757049236002 0:0 1:0.42707577 2:0.13294525 3:0.28400427 4:0.48765096 5:0.6135 6:0.22259 7:0.23565264 8:0 9:0 10:0.7872358 11:0 12:0.015519961 13:0.084914647 14:0.44313252 15:0.26535827 16:0.32560733 17:0 18:0 19:0.96734136 20:0.13966642 21:0.04501291 22:0.0097793974 23:0.048395187 24:0.048709001 25:0.19468521 26:0 27:0 28:0.8830747 29:0.13498639 30:0.10481516 31:0.31461182 32:0.29798424 33:0.0049571162 34:0.056263722 35:0 36:0 37:0.71216536 38:0.13289471 39:0.22157167 40:0.44624901 41:0.46364254 42:0.025209475 43:0.10639483 44:0 45:0 46:0.87879837 47:0.26373959 48:0.23685956 49:0.30416632 50:0.094308645 51:0 52:0.025221948 53:0 54:0 55:0.95878994 56:0.017220186 57:0.05976953 58:0.17656539 59:0.18208954 60:0.023030881 61:0.10947727 62:0 63:0 64:0.92413664 65:0.096337996 66:0.10972355 67:0.27479842 68:0.21542074 69:0.019702246 70:0.048353296 71:0 72:0 73:0.68079495 74:0.18361011 75:0.32018691 76:0.59318435 77:0.21211991 78:0.058451809 79:0 80:0 
-1 0.02433897237754408 1 0.03856665413967481 0 1 0.7361441827712536 1 1 1 1 0 1 1 1 1 0:0 1:0.78967977 2:0.12126938 3:0.12788716 4:0.35702923 5:0.43306962 6:0.13221957 7:0.11329722 8:0 9:0 10:0.63852745 11:0.024934307 12:0.088883601 13:0.14935231 14:0.65142524 15:0.29597014 16:0.22247581 17:0 18:0 19:0.93839973 20:0.13343798 21:0.16668862 22:0.08203169 23:0.15119107 24:0.17703864 25:0.11348483 26:0 27:0 28:0.84767276 29:0.066600524 30:0.084975772 31:0.22663558 32:0.45885724 33:0.088706426 34:0.0026693752 35:0 36:0 37:0.72611099 38:0.094948605 39:0.10558945 40:0.35889664 41:0.56015635 42:0.095163643 43:0.030892946 44:0 45:0 46:0.79337072 47:0.28227162 48:0.31768048 49:0.35589176 50:0.2505472 51:0.022947958 52:0 53:0 54:0 55:0.95318693 56:0.0001159553 57:0.01796921 58:0.086299062 59:0.2823655 60:0.061290164 61:0.013171372 62:0 63:0 64:0.83366281 65:0.031036822 66:0.10647874 67:0.080447994 68:0.49674776 69:0.19486672 70:0.038690824 71:0 72:0 73:0.82983011 74:0.10370576 75:0.30344069 76:0.36649549 77:0.26723245 78:0.029640101 79:0.043975603 80:0 
-0.4119670397637342 0.07363439048521229 0.08136873867785205 0.007153997382322743 0.1521976506514054 0.1638019187615799 0.05916629088450939 0.1182947677223075 0.1287084512599024 0.06020104880943111 0.2783162408876769 0.2796071322941969 0.2354286152545546 0.1676811588091584 0.1886649103518677 0.207025574395911 0:0 1:0.0011116328 2:0.096929237 3:0.087903351 4:0.499015 5:0.84749216 6:0.10974178 7:0.059720967 8:0 9:0 10:0.8804484 11:0.080568545 12:0.06602437 13:0.27022475 14:0.36931887 15:0.067355268 16:0 17:0 18:0 19:0.17061877 20:0 21:0.08423952 22:0.70899129 23:0.67452234 24:0.078331202 25:0 26:0 27:0 28:0.88330323 29:0.075715736 30:0.061936658 31:0.21515121 32:0.38282037 33:0.13175614 34:0 35:0 36:0 37:5.7716265e-05 38:0.070456453 39:0.055874947 40:0.58845806 41:0.79584092 42:0.11073721 43:0 44:0 45:0 46:0.96178257 47:0 48:0 49:0.12633379 50:0.20539872 51:0.12969281 52:0 53:0 54:0 55:0.12115875 56:0.097474299 57:0 58:0.5025546 59:0.84771013 60:0.061329734 61:0.029599912 62:0 63:0 64:0.96940589 65:0.07183753 66:0 67:0.089488707 68:0.20719816 69:0.064400092 70:0 71:0 72:0 73:0.0020526988 74:0 75:0.10083348 76:0.60062647 77:0.7875393 78:0.09407378 79:0 80:0 
-0.3851677049289831 0.1121502329440008 0.2404819537718339 0 0 0 0.03562640255036537 0 0 1 1 1 1 0.1087758820158536 0 1 0:0 1:0.63199663 2:0.22410344 3:0.24155974 4:0.27467328 5:0.49165419 6:0.30129653 7:0.28990451 8:0 9:0 10:0.95357978 11:0.07828968 12:0.036181021 13:0.029342283 14:0.22639041 15:0.13490295 16:0.11370587 17:0 18:0 19:0.99284732 20:0.038173154 21:0.011447618 22:0.040494587 23:0.097088672 24:3.7470032e-05 25:0.039954592 26:0 27:0 28:0.82868034 29:0.16983758 30:0.26370987 31:0.28017169 32:0.36798871 33:0.0094819218 34:0.029897703 35:0 36:0 37:0.18661314 38:0.18575309 39:0.14331189 40:0.53697407 41:0.75383991 42:0.12995631 43:0.19134845 44:0 45:0 46:0.95730913 47:0.20262872 48:0.10571107 49:0.062798858 50:0.15722589 51:0.046861209 52:0.021469235 53:0 54:0 55:0.98690277 56:0.049724612 57:0.052069899 58:0.039415646 59:0.11715898 60:0.011160911 61:0.073694862 62:0 63:0 64:0.87107569 65:0.058300838 66:0.056786418 67:0.092827931 68:0.37310979 69:0.18795484 70:0.22680978 71:0 72:0 73:0.31978023 74:0.38394311 75:0.36206856 76:0.37962276 77:0.50195849 78:0.3486363 79:0.31874624 80:0 
-0 0.01001012399175177 0 0.08351049468532602 0 0 0.0266967036636129 0 0 0 0 0.02066096929792982 0.000672951521300321 0 0 0 0:0 1:0 2:0 3:0 4:0.67441356 5:0.70314747 6:0.22525536 7:0.00018921502 8:0 9:0 10:0.89816505 11:0.056121856 12:0.080237158 13:0.41686475 14:0.07981471 15:0.059661083 16:0 17:0 18:0 19:0.18050474 20:0.0023003384 21:0.16745311 22:0.95217335 23:0.16783896 24:0.032879598 25:0.058987599 26:0 27:0 28:0.90121007 29:0 30:0 31:0.39707673 32:0.11217172 33:0.13252154 34:0 35:0 36:0 37:0 38:0.031288933 39:0.059385803 40:0.93301839 41:0.34156549 42:0.091104902 43:0 44:0 45:0 46:0.88714486 47:0.047531512 48:0.067763008 49:0.4313862 50:0.14150581 51:0.00010927159 52:0 53:0 54:0 55:0.16034216 56:0 57:0 58:0.85350019 59:0.48606685 60:0.073228642 61:0.06476716 62:0 63:0 64:0.89693356 65:0 66:0.055803813 67:0.38796714 68:0.1940877 69:0.064827293 70:0 71:0 72:0 73:0.020814767 74:0.04187122 75:0.18901034 76:0.89533836 77:0.39832729 78:0 79:0.042245634 80:0 
-1 0.3890331920564795 0.4678380103868756 1 0.6169586066037638 0.6170198810852611 1 0.4165608830580626 0.494474916074538 0.4526049561647533 0.7752345267109135 0.7487267136340207 0.6339055064010779 0.6440441733145491 0.8719140061659558 0.7416094105802324 0:0 1:0.027085157 2:0.055040609 3:0.086965822 4:0.41887531 5:0.88366008 6:0.17831971 7:0.023554882 8:0 9:0 10:0.19453023 11:0.176385 12:0.30658749 13:0.55415112 14:0.67139751 15:0.24668801 16:0.13537031 17:0 18:0 19:0.11636419 20:0.0035069236 21:0.066120252 22:0.40508083 23:0.89478153 24:0.12674139 25:0.035741486 26:0 27:0 28:0.091023505 29:0.19770214 30:0.32478929 31:0.32213858 32:0.83813596 33:0.19399564 34:0.057024322 35:0 36:0 37:0.020925285 38:0.045057319 39:0.070144996 40:0.46704704 41:0.86694455 42:0.15113203 43:0.0060989773 44:0 45:0 46:0.41946393 47:0.088796876 48:0.0050458265 49:0.35687625 50:0.76359713 51:0.31556424 52:0.078131691 53:0 54:0 55:0.10388902 56:0.0065546441 57:0.058117587 58:0.41850314 59:0.89527589 60:0.048289571 61:0.082345754 62:0 63:0 64:0.43387026 65:0.0019475304 66:0.26222268 67:0.24909699 68:0.79091096 69:0.10831297 70:0.20893672 71:0 72:0 73:0.0043443255 74:0.0029436357 75:0.07849595 76:0.40816894 77:0.90404636 78:0.098187648 79:0.016065955 80:0 
-0 1 1 1 0.4841014243536764 0 0 0 0 0 0 0 0 0 0 0.3085888903174404 0:0 1:0.94878489 2:0 3:0.028086437 4:0.12849823 5:0.27976045 6:0.0095651988 7:0.064358331 8:0 9:0 10:0.92306983 11:0.0018228806 12:0.016317077 13:0.23984098 14:0.28474817 15:0.017153306 16:0.093632162 17:0 18:0 19:0.9747535 20:0.071157597 21:0 22:0.18783157 23:0.095436387 24:0.019990647 25:0 26:0 27:0 28:0.9530111 29:0 30:0 31:0.12348319 32:0.27411264 33:0.018229693 34:0.032374386 35:0 36:0 37:0.07716237 38:0.088827007 39:0.17677869 40:0.65364909 41:0.72129852 42:0.069654979 43:0.050174557 44:0 45:0 46:0.95148718 47:0.0044581625 48:0.059555031 49:0.27534455 50:0.11495833 51:0.034265961 52:0.029952163 53:0 54:0 55:0.98573893 56:0.0105542 57:0.010588493 58:0.070681013 59:0.15161969 60:0.010365338 61:0 62:0 63:0 64:0.86796802 65:0.031699855 66:0.052543595 67:0.28611797 68:0.3995344 69:0.013179878 70:0.034570273 71:0 72:0 73:0.93930835 74:0.034465529 75:0.19716372 76:0.19182922 77:0.19157195 78:0.064280927 79:0.0010530282 80:0 
-0 0 0 0.9630535226441492 0 0 0 0 0 0 0 0 0 0 0 0 0:0 1:0.43538561 2:0.22159241 3:0.22763053 4:0.55276525 5:0.49026746 6:0.28414828 7:0.28785062 8:0 9:0 10:0.10928386 11:0.053481773 12:0.065710738 13:0.41339239 14:0.73510253 15:0.32150862 16:0.40771875 17:0 18:0 19:0.87737119 20:0.12818505 21:0.10637502 22:0.3122806 23:0.29080194 24:0.049818605 25:0.13379319 26:0 27:0 28:0.23311949 29:0.27071473 30:0.24415921 31:0.77173555 32:0.45481122 33:0.058643363 34:0.08295089 35:0 36:0 37:0.092638403 38:0.069036439 39:0.087117814 40:0.84254414 41:0.50855219 42:0.07761272 43:0.067283623 44:0 45:0 46:0.63233024 47:0.39538607 48:0.2441604 49:0.57900649 50:0.2195798 51:0.027283499 52:0 53:0 54:0 55:0.89147323 56:0.085107036 57:0.14513884 58:0.16780597 59:0.3399722 60:0.14903717 61:0.10492451 62:0 63:0 64:0.23382308 65:0.03711364 66:0.047881156 67:0.57009542 68:0.65668106 69:0.28671661 70:0.32125491 71:0 72:0 73:0.41918179 74:0.26816517 75:0.26469728 76:0.6760022 77:0.33443245 78:0.28194404 79:0.18434794 80:0 
-0.8368757668953695 0 0 0 0 0.04928449112393993 0 0 0 0.2540692662373548 0 0 0.8249385355507469 0 0 0 0:0 1:0.64653218 2:0.13302264 3:0.19489506 4:0.41234735 5:0.52937502 6:0.20612036 7:0.18318456 8:0 9:0 10:0.49309871 11:0.03139111 12:0.12620075 13:0.27991322 14:0.67935753 15:0.30172285 16:0.33018348 17:0 18:0 19:0.89755261 20:0.20967205 21:0.12041233 22:0.15687093 23:0.22966827 24:0.14825277 25:0.19130538 26:0 27:0 28:0.73673809 29:0.10259379 30:0.15131885 31:0.28018087 32:0.58213001 33:0.060818769 34:0.052094765 35:0 36:0 37:0.58314079 38:0.0497339 39:0.13761169 40:0.40717569 41:0.6791141 42:0.05663776 43:0.09130083 44:0 45:0 46:0.65377861 47:0.36598989 48:0.28825226 49:0.50027525 50:0.32438949 51:0.0051358738 52:0.00054051774 53:0 54:0 55:0.90741491 56:0.011392203 57:0.027886577 58:0.13943398 59:0.38906616 60:0.040441129 61:0.056894835 62:0 63:0 64:0.71349674 65:0.000167137 66:0.075962193 67:0.28559342 68:0.59782183 69:0.12188935 70:0.17701739 71:0 72:0 73:0.76191205 74:0.11782879 75:0.25016144 76:0.4121927 77:0.41058332 78:0.06029737 79:0.030047728 80:0 
-0.8826545586687599 0.1451792927784303 0.3312148055563355 1 0.6469604402652093 0.4256249413592637 0.6189937035578909 0.211179241733648 0.3121928321427342 0.316652977689647 0.5527273900191478 0.3124286583269106 0.5536510364616912 0.4960481557514556 0.5409054487623249 0.5221973535907274 0:0 1:0.31259793 2:0.1242178 3:0.37739429 4:0.65491056 5:0.55258918 6:0.023165107 7:0.09804038 8:0 9:0 10:2.0876645e-09 11:0.014447156 12:0.10117234 13:0.55005723 14:0.77581841 15:0.019021235 16:0.29105985 17:0 18:0 19:0.5926432 20:0.11219198 21:0.11223488 22:0.35756046 23:0.67700452 24:0.089763977 25:0.17127389 26:0 27:0 28:0.7263872 29:0.02415397 30:0.12383448 31:0.63363141 32:0.21531416 33:4.0518011e-10 34:0.09264078 35:0 36:0 37:0.10527454 38:0.062303808 39:0.15990634 40:0.79609174 41:0.54399854 42:0.044775449 43:0.16660643 44:0 45:0 46:0.84506333 47:0 48:0.02070835 49:0.3556557 50:0.37281236 51:0.027537746 52:0.13853119 53:0 54:0 55:0.77066976 56:5.2857546e-10 57:0.25242484 58:0.52308238 59:0.2238218 60:0 61:0.13640796 62:0 63:0 64:0.31206712 65:0.0038338432 66:0.18424301 67:0.87124795 68:0.29865828 69:3.1207939e-10 70:0.14270829 71:0 72:0 73:0.78855926 74:0.025152288 75:0.11958143 76:0.21829733 77:0.54899007 78:0.089992687 79:0.078039683 80:0 
-1 0 1 0 0 0 0.483203477886935 0 0.2014374351672536 0 0 0 0.4232169559108624 0 0 0 0:0 1:0.64897585 2:0.0003290512 3:0.027035594 4:0.32110018 5:0.67249507 6:0.13312237 7:0.070759669 8:0 9:0 10:0.58987576 11:0 12:0.0036564204 13:0.28886962 14:0.70650166 15:0.23573163 16:0.11776049 17:0 18:0 19:0.9677515 20:0.059864849 21:0.011338371 22:0.071174882 23:0.20885378 24:0.016563894 25:0.10382769 26:0 27:0 28:0.95066738 29:0.0047698137 30:0.0063228053 31:0.23380303 32:0.2030362 33:0.016644122 34:0 35:0 36:0 37:0.57485068 38:0.00033788674 39:0.021413404 40:0.5215863 41:0.6200006 42:0.11237661 43:0 44:0 45:0 46:0.76980799 47:0.20947182 48:0.13363719 49:0.35192508 50:0.46828306 51:0.050123774 52:0 53:0 54:0 55:0.97381651 56:0 57:0.00011839958 58:0.17187746 59:0.14877413 60:0 61:0 62:0 63:0 64:0.94312584 65:0.0044530779 66:0.0046323193 67:0.24659896 68:0.21163097 69:0.069779523 70:0 71:0 72:0 73:0.50736797 74:0.14047235 75:0.24313323 76:0.38655457 77:0.68389827 78:0.21582973 79:0 80:0 
-0.7462543869671834 0.02333843109063914 0.492294401625883 0.3684778211770641 0.3666311513033617 0 0.8939242846731388 0 0 0 0.3386632294995182 1 0.3013730202836623 0 0.09404960740369699 1 0:0 1:0.059114754 2:0 3:0.024321327 4:0.30414507 5:0.88593256 6:0.084786765 7:0.33363992 8:0 9:0 10:0.99112958 11:0 12:0.077170745 13:0.056870688 14:0.08816237 15:0 16:0.026341114 17:0 18:0 19:0.99999547 20:0 21:0 22:0 23:0 24:0 25:0 26:0 27:0 28:0.98026389 29:0 30:0 31:0.020726146 32:0.19376019 33:0 34:0.033213876 35:0 36:0 37:0.16071971 38:0.064883485 39:0.14850913 40:0.61416656 41:0.73610222 42:0.054855585 43:0.16074653 44:0 45:0 46:0.98771471 47:0 48:0.090742581 49:0.066872403 50:0.10366728 51:0 52:0.030973665 53:0 54:0 55:0.99999589 56:0 57:0 58:0 59:0 60:0 61:0 62:0 63:0 64:0.96999657 65:0 66:0 67:0.025488937 68:0.23828556 69:0 70:0.040846303 71:0 72:0 73:0.30700108 74:0.19892082 75:0.086712703 76:0.85210049 77:0.35259739 78:0.090085283 79:0.010944264 80:0 
-0 0 0.01814453256663923 0.4765855070171265 0 0 0.03534379369423932 0 0 0 0 0.2151987737959571 0 0 0 0 0:0 1:0.12672281 2:0.23694213 3:0.27777392 4:0.61235881 5:0.67383641 6:0.14693832 7:0 8:0 9:0 10:0.80179548 11:0.039520983 12:0.042295903 13:0.2751269 14:0.52732527 15:0.00032777313 16:0 17:0 18:0 19:0.96006829 20:0.0035575398 21:0.0091767879 22:0.089744538 23:0.25754082 24:0.05721844 25:0.022622997 26:0 27:0 28:0.8301912 29:0.13396971 30:0.10302708 31:0.28113413 32:0.45075184 33:0 34:0 35:0 36:0 37:0.019134555 38:0.069341801 39:0.051792841 40:0.5952161 41:0.79865867 42:0 43:0 44:0 45:0 46:0.93782014 47:0 48:0 49:0.19741224 50:0.2855126 51:0 52:0 53:0 54:0 55:0.90501159 56:0.1158063 57:0.036840737 58:0.25334281 59:0.31787959 60:0.030783948 61:0 62:0 63:0 64:0.9448148 65:0.094775222 66:0 67:0.1875436 68:0.25127161 69:0.0051134843 70:0 71:0 72:0 73:0.19610007 74:0.030533521 75:0.10093511 76:0.45710564 77:0.85746586 78:0.072249591 79:0.031620383 80:0 
-0.6370422253580917 0.3013390972292001 0.3018446461064728 0.1360221189641698 0.2307024157351556 0.4071146049889782 0.4551436271121145 0.291152346556515 0.3592570998684554 0.3339711801888229 0.4740169673693883 0.3367079870108651 0.2624970004367713 0.3897621158124785 0.4710061077546351 0.4364296578704617 0:0 1:0.033742119 2:0 3:0 4:0.92886281 5:0.36862352 6:0.00016945139 7:0.013432713 8:0 9:0 10:0.8859489 11:0.00092264661 12:0.013024719 13:0.43328828 14:0.1647411 15:7.8667421e-05 16:0.0061686607 17:0 18:0 19:0.14728293 20:0.069024377 21:0.086927369 22:0.92962915 23:0.31531885 24:0 25:0.048378333 26:0 27:0 28:0.8829906 29:0 30:0 31:0.424977 32:0.19818002 33:0.0018666224 34:0.020865617 35:0 36:0 37:0.047490828 38:0.00077065051 39:0.021278227 40:0.95720029 41:0.28421465 42:0.00068580057 43:0.016598396 44:0 45:0 46:0.90434986 47:0.00076742546 48:0.010833509 49:0.39540088 50:0.16026624 51:0 52:0 53:0 54:0 55:0.10908639 56:0 57:0 58:0.94730127 59:0.30117491 60:0.0012860444 61:0.0014455712 62:0 63:0 64:0.9047612 65:0 66:0.014459878 67:0.34594285 68:0.24760509 69:0.0015836282 70:0.014286552 71:0 72:0 73:0.0015862532 74:0.039131455 75:0.12017656 76:0.90734178 77:0.40015271 78:0.024916895 79:0.00077167916 80:0 
-1 1 1 0.4658424383376152 1 1 1 1 1 1 1 1 1 1 1 1 0:0 1:0.68712199 2:0.10595363 3:0.18033846 4:0.32994813 5:0.46613178 6:0.34356555 7:0.1998115 8:0 9:0 10:0.86651254 11:0 12:0 13:0.036785059 14:0.28801233 15:0.32077321 16:0.24889809 17:0 18:0 19:0.9741388 20:0.14679475 21:0.046762332 22:0.031844374 23:0.063190028 24:0.050472971 25:0.14056484 26:0 27:0 28:0.95480102 29:0.069782875 30:0.057844181 31:0.20971555 32:0.18748109 33:0.0095860818 34:0.03022969 35:0 36:0 37:0.80130512 38:0.0093439296 39:0.11768356 40:0.30357862 41:0.4782638 42:0.12257273 43:0.089692965 44:0 45:0 46:0.94210523 47:0.1544835 48:0.14704607 49:0.22563267 50:0.11683487 51:0.017287672 52:0.045671936 53:0 54:0 55:0.99481636 56:0.0012924473 57:0.017166425 58:0.024612814 59:0.096549422 60:3.3578683e-05 61:0.01064346 62:0 63:0 64:0.95343876 65:0.03040638 66:0.022829793 67:0.03497874 68:0.28914708 69:0.068171829 70:0.0052591553 71:0 72:0 73:0.78125942 74:0.16092756 75:0.25382286 76:0.41718265 77:0.32768363 78:0.12512363 79:0.047209837 80:0 
-0.1276453986802161 0.06836513784911734 0.1617017026623961 0.1193380630079218 0.0331827420877747 0.2694154330060921 0.1256683994545114 0.02548300626486803 0.04895578351663304 0.09523235563527591 0.01950450383616998 0.2621527813933873 0.0418396941177184 0.06583197881690195 0.2451894995034812 0 0:0 1:0.29498205 2:0.3119849 3:0.23140135 4:0.24557027 5:0.69062418 6:0.33838183 7:0.33215183 8:0 9:0 10:0.029871996 11:0.10441043 12:0.088505283 13:0.41322625 14:0.76950639 15:0.31747815 16:0.34158137 17:0 18:0 19:0.83225757 20:0.20270176 21:0.10572538 22:0.31403384 23:0.35399359 24:0.10305086 25:0.14327323 26:0 27:0 28:0.20252101 29:0.29659072 30:0.19959052 31:0.62554604 32:0.63304907 33:0.14328995 34:0.13632633 35:0 36:0 37:0.044158623 38:0.15191896 39:0.097503133 40:0.5789578 41:0.77055329 42:0.13317466 43:0.13703234 44:0 45:0 46:0.51179761 47:0.47476724 48:0.26221645 49:0.5507158 50:0.37149477 51:0.0060351733 52:0.05062608 53:0 54:0 55:0.86280715 56:0.16502321 57:0.15564483 58:0.22406186 59:0.32232612 60:0.1867364 61:0.12300669 62:0 63:0 64:0.20827572 65:0.066958502 66:0.066776454 67:0.44043773 68:0.73950154 69:0.30072719 70:0.3411552 71:0 72:0 73:0.27049184 74:0.36791265 75:0.29283091 76:0.5378744 77:0.56588638 78:0.19196562 79:0.24357407 80:0 
-1 0 0.06422120042797824 0.3327465737092769 0.07699645304133249 0.1811080232484936 0.3270230732245839 0.1567467185148111 0 0.0056373466783919 0.5734241850670077 0 0 0.01993560871400264 0.9371701845171069 0.9644223758571753 0:0 1:0.27081686 2:0.31118476 3:0.14152992 4:0.23210375 5:0.79594159 6:0.17650284 7:0.30204195 8:0 9:0 10:0.38552767 11:0.099790208 12:0.03624928 13:0.096111089 14:0.81905079 15:0.18389317 16:0.35522982 17:0 18:0 19:0.9617722 20:0.087162204 21:0.058163721 22:0.097186618 23:0.20063393 24:0.019680925 25:0.11798795 26:0 27:0 28:0.34970239 29:0.24663763 30:0.11335626 31:0.25136623 32:0.85977942 33:0.02506136 34:0.031426914 35:0 36:0 37:0.055163823 38:0.068389215 39:0.10729215 40:0.27199459 41:0.94701588 42:0.032153673 43:0.094375178 44:0 45:0 46:0.71711421 47:0.29699263 48:0.16926649 49:0.41612047 50:0.43382192 51:0 52:0.086748302 53:0 54:0 55:0.89848822 56:0.11663955 57:0.019946359 58:0.063097432 59:0.40390134 60:0.049053293 61:0.095843412 62:0 63:0 64:0.48695892 65:0.0075591351 66:0.05099611 67:0.2102643 68:0.79533017 69:0.14533047 70:0.24964669 71:0 72:0 73:0.68337011 74:0.14562061 75:0.23135252 76:0.45210636 77:0.45248219 78:0.1168757 79:0.1883228 80:0 
-0.4583795534196446 0 0.1622926858822767 0.6919158874874167 0.5515358013888046 0.1571827967461552 0.193061260772669 0.02245206013874955 0.1034558571323365 0 0.1558318076269337 0.1884620351963883 0.2653785820648067 0.1845579499405642 0.1604738114178425 0.1180691560327719 0:0 1:0.14849186 2:0.018379744 3:0.027443489 4:0.84135157 5:0.51550621 6:0.046837896 7:0.032123689 8:0 9:0 10:0.83349121 11:0.032190967 12:0.034141626 13:0.54820734 14:0.042725187 15:0.026400018 16:0.0050639198 17:0 18:0 19:0.38891375 20:0.035075054 21:0.052038435 22:0.90595329 23:0.14628688 24:0 25:0.051395897 26:0 27:0 28:0.92645824 29:0.03566001 30:0.0036890977 31:0.34185275 32:0.14911963 33:0.0040995833 34:0.035529666 35:0 36:0 37:0.24023549 38:0.026105894 39:0.030799732 40:0.90348685 41:0.35169256 42:0.021410208 43:0.014684154 44:0 45:0 46:0.88702732 47:0.033901483 48:9.8711716e-05 49:0.45484918 50:0.07166528 51:0 52:0 53:0 54:0 55:0.17275469 56:0 57:0.00078663585 58:0.93953866 59:0.29564697 60:0 61:0 62:0 63:0 64:0.94004244 65:0.023323227 66:0.0097678686 67:0.30266234 68:0.15513825 69:0 70:0 71:0 72:0 73:0.67784953 74:0.037343774 75:0.038591251 76:0.65089959 77:0.33757326 78:0 79:0 80:0 
-0 0 0 0 0 0.4530621284285034 0 0 0 1 1 0 1 0.819296181457411 0 0 0:0 1:0.5532077 2:0.26537701 3:0.23700683 4:0.21669744 5:0.52359998 6:0.21859941 7:0.445474 8:0 9:0 10:0.74257094 11:0.097132079 12:0.10782541 13:0.14552329 14:0.52900386 15:0.28131193 16:0.21761839 17:0 18:0 19:0.9739517 20:0.091726549 21:0.080295675 22:0.0373137 23:0.14325529 24:0.028300758 25:0.11762758 26:0 27:0 28:0.80454504 29:0.19363745 30:0.26141769 31:0.29085419 32:0.37517819 33:0.074046344 34:0.12659384 35:0 36:0 37:0.2458719 38:0.13194735 39:0.20754844 40:0.60264808 41:0.66301906 42:0.19142446 43:0.19905649 44:0 45:0 46:0.7720266 47:0.29536897 48:0.35910255 49:0.20612651 50:0.36214346 51:0.07473819 52:0.092451654 53:0 54:0 55:0.9615289 56:0.085127719 57:0.049520966 58:0.12953585 59:0.19693924 60:0.084725425 61:0.054899793 62:0 63:0 64:0.76221681 65:0.047530171 66:0.055913463 67:0.19653642 68:0.40566289 69:0.30365217 70:0.34385583 71:0 72:0 73:0.42828059 74:0.29800254 75:0.29797992 76:0.40521875 77:0.46289417 78:0.36985421 79:0.35170934 80:0 
-0 0 0 0.1397681388219991 0 0 0 0 0 0 0 0 0 0 0 0 0:0 1:0.0059013641 2:0 3:0 4:0.67525738 5:0.73049515 6:0.10178129 7:0 8:0 9:0 10:0.9324261 11:0 12:0.0012931017 13:0.1791348 14:0.30957845 15:0.044861618 16:0.025177011 17:0 18:0 19:0.40121302 20:0.086464934 21:0.1275335 22:0.41322833 23:0.80282015 24:0.0008864291 25:0 26:0 27:0 28:0.94608819 29:0 30:0 31:0.23992087 32:0.1826226 33:0.11551432 34:0.025593543 35:0 36:0 37:0.050756019 38:0 39:0.010533135 40:0.62847507 41:0.77116305 42:0.087377071 43:0 44:0 45:0 46:0.90811568 47:0 48:0.001102246 49:0.2105621 50:0.36191663 51:0 52:0 53:0 54:0 55:0.3766014 56:0 57:0 58:0.66397959 59:0.64406604 60:0.049713947 61:0 62:0 63:0 64:0.93092597 65:0 66:0.0012164749 67:0.28329304 68:0.22332527 69:0.056936115 70:0 71:0 72:0 73:0.16458558 74:0.007971541 75:0.051007289 76:0.50562018 77:0.84517723 78:0 79:0.016178848 80:0 
-0.4137911461722132 0 1 0.7498915155921939 0 0 0.8390537762890529 0 0.1541220131237959 0 0.8189286567954666 0 0.5122696062503097 0 0.3143577854763304 1 0:0 1:0.92075461 2:0.029863605 3:0.015156945 4:0.11074144 5:0.3596099 6:0.07397414 7:0.063459046 8:0 9:0 10:0.76509565 11:0 12:0.083244249 13:0.37718651 14:0.5133509 15:0.018800193 16:0.039238796 17:0 18:0 19:0.95338517 20:0.057688903 21:0.041752283 22:0.19280286 23:0.21945436 24:0.016531179 25:0.019362733 26:0 27:0 28:0.88748562 29:0 30:0 31:0.14359784 32:0.41832447 33:0.10482635 34:0.075898983 35:0 36:0 37:0.11926944 38:0.028874157 39:0.099544652 40:0.41808349 41:0.88078088 42:0.1232613 43:0.096251637 44:0 45:0 46:0.92384303 47:0.020934161 48:0.077357568 49:0.26317579 50:0.26612896 51:0.0012135745 52:0 53:0 54:0 55:0.96652186 56:0 57:0.020424262 58:0.071855038 59:0.22168411 60:0.092775956 61:0.049997129 62:0 63:0 64:0.59550172 65:0.0046001282 66:0.034324016 67:0.20029938 68:0.76481521 69:0.10646273 70:0.088175222 71:0 72:0 73:0.86135679 74:0.048735939 75:0.1367314 76:0.19425704 77:0.44115204 78:0.026419774 79:0.062740311 80:0 
-0 0 0 0 0 0 0.2484902168352575 0 0 0 0 0 0 0 0 0 0:0 1:0.35331175 2:0.32355124 3:0.22114205 4:0.49485153 5:0.6307413 6:0.21049774 7:0.18587473 8:0 9:0 10:0.62617743 11:0.10612565 12:0.055505048 13:0.26568633 14:0.6238941 15:0.27142891 16:0.24503894 17:0 18:0 19:0.98098046 20:0.054986745 21:0.012141621 22:0.056693364 23:0.15699689 24:0.03603423 25:0.073082522 26:0 27:0 28:0.76085901 29:0.20236555 30:0.13726109 31:0.37172738 32:0.47195339 33:5.6924291e-05 34:0.019349508 35:0 36:0 37:0.24527124 38:0.13056575 39:0.21787806 40:0.48331729 41:0.79817593 42:0.050532669 43:0.045654498 44:0 45:0 46:0.68937212 47:0.32660836 48:0.40813178 49:0.27314892 50:0.42045301 51:0.011148483 52:0 53:0 54:0 55:0.945077 56:0.074032038 57:0.056101538 58:0.13191646 59:0.2749013 60:0.054016486 61:0.048018668 62:0 63:0 64:0.61375052 65:0.046735846 66:0.081013747 67:0.22826003 68:0.73675489 69:0.10388353 70:0.094100334 71:0 72:0 73:0.38579804 74:0.20225693 75:0.52037179 76:0.48867175 77:0.54133463 78:0.076385975 79:0.042178918 80:0 
-1 1 1 1 1 1 1 1 1 1 1 1 1 1 1 1 0:0 1:0.97053188 2:0.093036704 3:0.017851587 4:0.12190162 5:0.13221334 6:0.076133505 7:0.10460793 8:0 9:0 10:0.98000324 11:0.011002751 12:0.13617276 13:0.13051352 14:0.049180862 15:0 16:0.038365398 17:0 18:0 19:0.96844643 20:0.036481682 21:0.10632784 22:0.1781003 23:0.13316952 24:0.0040379441 25:0 26:0 27:0 28:0.97630405 29:0.024311382 30:0.014905138 31:0.00089206977 32:0.19426624 33:0.040528197 34:0.081431985 35:0 36:0 37:0.48658752 38:0.18557163 39:0.27620032 40:0.54549319 41:0.53923374 42:0.089306176 43:0.23702922 44:0 45:0 46:0.96740949 47:0.01088207 48:0.16188374 49:0.12908201 50:0.14348565 51:0.0098175593 52:0.021034272 53:0 54:0 55:0.98563385 56:0.026739232 57:0.030570293 58:0.054752581 59:0.13250107 60:0.036261726 61:0.0707357 62:0 63:0 64:0.94719851 65:0.054082517 66:0.054082517 67:0.19648756 68:0.23411646 69:0.030729983 70:0.050967958 71:0 72:0 73:0.95765668 74:0.041579187 75:0.054074012 76:0.13516375 77:0.15321527 78:0.16697617 79:0.092767932 80:0 
-1 0.6716786938859285 0.195285931221626 0.1174487117136774 0.06597348384304101 0.6517017747213156 0.5629214977301193 0.00626359243649771 0.2707915428061375 1 1 1 1 0.2897550281619329 0.6271511880744609 1 0:0 1:0.24828066 2:0.24437012 3:0.23794541 4:0.20702915 5:0.34970626 6:0.76114768 7:0.27840346 8:0 9:0 10:0.89590305 11:0.022597693 12:0.0021195519 13:0.036898885 14:0.23226494 15:0.33629268 16:0.16862196 17:0 18:0 19:0.98179549 20:0.12348672 21:0.082429402 22:0.064398818 23:0.059228808 24:0.03216942 25:0.073062718 26:0 27:0 28:0.90622163 29:0.16322808 30:0.19349992 31:0.2656751 32:0.19034587 33:0.066801295 34:0.058259767 35:0 36:0 37:0.073029608 38:0.38215938 39:0.31589505 40:0.35153517 41:0.53534263 42:0.52470016 43:0.25165948 44:0 45:0 46:0.9589535 47:0.20353526 48:0.10272262 49:0.12200638 50:0.11635701 51:0 52:0 53:0 54:0 55:0.93795818 56:0.089467771 57:0.11202727 58:0.079527974 59:0.27881598 60:0.10242171 61:0.071565762 62:0 63:0 64:0.91881585 65:0.084538661 66:0.015892794 67:0.1336115 68:0.30236515 69:0.13497327 70:0.14449421 71:0 72:0 73:0.58504915 74:0.30256757 75:0.30572009 76:0.46599796 77:0.35190636 78:0.18799388 79:0.31042111 80:0 
-1 1 1 1 1 1 1 1 1 1 1 1 1 1 1 1 0:0 1:0.88100553 2:0.16391642 3:0.092401795 4:0.10755004 5:0.37534094 6:0.069512039 7:0.17643103 8:0 9:0 10:0.86406827 11:0.062135242 12:0.058275539 13:0.26098439 14:0.40743276 15:0.055886794 16:0.094234787 17:0 18:0 19:0.97979158 20:0.065172628 21:0.032484457 22:0.13786675 23:0.12508926 24:7.6131902e-05 25:0.0066167694 26:0 27:0 28:0.80506867 29:0.17924206 30:0.14981267 31:0.44916382 32:0.30488244 33:0.05077948 34:0 35:0 36:0 37:0.85552704 38:0.05420658 39:0.078597441 40:0.39406624 41:0.31320193 42:0.074335165 43:0.005878706 44:0 45:0 46:0.85422701 47:0.17176762 48:0.22900335 49:0.35004243 50:0.25641912 51:0.0058668978 52:0.0047856979 53:0 54:0 55:0.96742731 56:0.050000716 57:0.044253513 58:0.1222506 59:0.17449822 60:0.065005869 61:0.099979639 62:0 63:0 64:0.85310012 65:0.0011006438 66:0.00026277266 67:0.32892063 68:0.2192201 69:0.30512026 70:0.15119727 71:0 72:0 73:0.70122337 74:0.26566684 75:0.12924661 76:0.19182312 77:0.35673246 78:0.41534406 79:0.29054606 80:0 
-0 -0 1 1 1 0.3385591508115644 0 1 1 0 0 0 0 0 1 0 0:0 1:0.98488486 2:0.022325598 3:0.058815449 4:0.081838392 5:0.13418657 6:0.036546089 7:0.00031165386 8:0 9:0 10:0.99978757 11:0 12:0.00011399806 13:0 14:0.02047772 15:0 16:0 17:0 18:0 19:0.9900853 20:0.01175488 21:0.020374143 22:0.025835481 23:0.11792237 24:0.042911503 25:0.052533425 26:0 27:0 28:0.98694772 29:0.074755087 30:0.022889344 31:0.073483326 32:0.11616099 33:0.011882172 34:0.027988605 35:0 36:0 37:0.9951334 38:0.040827367 39:0.0321908 40:0.073018163 41:0.040827367 42:0 43:0 44:0 45:0 46:0.95083636 47:0.023810752 48:0.02097325 49:0.080361351 50:0.14269882 51:0.19661516 52:0.1715197 53:0 54:0 55:0.99091506 56:0.034488838 57:0.024630863 58:0.046622682 59:0.10187555 60:0.060028315 61:0.011504287 62:0 63:0 64:0.99358141 65:0.01948162 66:0.0076503162 67:0.068497017 68:0.080328323 69:0.034782253 70:0 71:0 72:0 73:0.99811035 74:0 75:0 76:0 77:0.016411822 78:0.032823645 79:0.049235467 80:0 
-1 -0 1 0 1 1 0 1 1 1 1 0 0 0.2542856924012311 0 1 0:0 1:0.99270022 2:0.052751809 3:0.052238043 4:0.089303367 5:0.0024632574 6:0.023447892 7:0.022334682 8:0 9:0 10:0.96359158 11:0 12:0.035099082 13:0.020281279 14:0.19177091 15:0.11355378 16:0.14202811 17:0 18:0 19:0.98512769 20:0 21:0 22:0 23:0.079898104 24:0.112262 25:0.10262572 26:0 27:0 28:0.99823666 29:0.048737317 30:0.013129866 31:0.027585499 32:0.014540444 33:0 34:0 35:0 36:0 37:0.97729236 38:0.07485237 39:0.083303526 40:0.059525393 41:0.16473648 42:0.027154099 43:0.030581191 44:0 45:0 46:0.84967935 47:0.069771856 48:0.064517371 49:0.17946249 50:0.30616191 51:0.23331894 52:0.29770413 53:0 54:0 55:0.99999785 56:0 57:0 58:0 59:0 60:0 61:0 62:0 63:0 64:0.99962497 65:0.022960199 66:0.0099435393 67:0 68:0.011011802 69:0 70:0 71:0 72:0 73:0.95231444 74:0.1104916 75:0.11232205 76:0.10208119 77:0.19498473 78:0.039044641 79:0.13529131 80:0 
-0.09887748530879518 -0.1842321082141691 0 0.4233233156093276 0.2592244727871567 0.7189604140827439 0.2534246904510682 0 0 0.9668246435085089 1 0 0.5367183422335088 0.4363148960801492 0 0.606361133846907 0:0 1:0.99246252 2:0.020578885 3:0.039032128 4:0.055566426 5:0.077413008 6:0.062970042 7:0.0044799205 8:0 9:0 10:0.98621088 11:0.017314279 12:0 13:0.024548044 14:0.013669148 15:0.1115666 16:0.11767459 17:0 18:0 19:0.97390962 20:0.093850613 21:0.064990558 22:0.043431334 23:0.073377572 24:0.14068456 25:0.10677774 26:0 27:0 28:0.99462074 29:0.02107884 30:0.02973216 31:0.064553261 32:0.027703684 33:0.066328518 34:0.0079383254 35:0 36:0 37:0.90614873 38:0.17945848 39:0.1641601 40:0.15316556 41:0.096237399 42:0.24112701 43:0.16991562 44:0 45:0 46:0.49720266 47:0.3085686 48:0.1993845 49:0.29209757 50:0.30122381 51:0.45429608 52:0.48515201 53:0 54:0 55:0.99999797 56:0 57:0 58:0 59:0 60:0.00028888366 61:0.00028888366 62:0 63:0 64:0.99838299 65:0.0093347831 66:0.014963108 67:0.024778357 68:0.018046372 69:0.044159833 70:0.0052851345 71:0 72:0 73:0.85157984 74:0.23503879 75:0.18104103 76:0.15246415 77:0.12427481 78:0.17885365 79:0.34074545 80:0 
-0 -0 0 0 0 0 0 0 0 0 0.05497543945242742 0 0 0 0 0 0:0 1:0.97959322 2:0.063415684 3:0.056309026 4:0.046222955 5:0.13733982 6:0.11044598 7:0.0019733862 8:0 9:0 10:0.96421856 11:0.037493188 12:0.031766564 13:0.0032074575 14:0.15604945 15:0.16880782 16:0.12248712 17:0 18:0 19:0.99514657 20:0.032380197 21:0.016692521 22:0.026448881 23:0.049391571 24:0.035589248 25:0.062828995 26:0 27:0 28:0.97790486 29:0.086462744 30:0.10323581 31:0.074165836 32:0.13372204 33:0.046712413 34:0 35:0 36:0 37:0.50775433 38:0.19962609 39:0.29214895 40:0.29220915 41:0.56887758 42:0.45560235 43:0.019730505 44:0 45:0 46:0.99918813 47:0.019183656 48:0.021552904 49:0.018528314 50:0.020915393 51:0.002444857 52:0 53:0 54:0 55:0.99721229 56:0.020469757 57:0.043773487 58:0.020899717 59:0.052511334 60:0.0036531272 61:0.0045895358 62:0 63:0 64:0.99389315 65:0 66:0.00058102829 67:0.037673205 68:0.077293925 69:0.066124201 70:0.020157997 71:0 72:0 73:0.99841934 74:0 75:0 76:0 77:0.034627087 78:0 79:0.044187937 80:0 
-0 -0 1 0 0 0 0 1 1 1 0.8819869881612353 0 0 0 1 0.3556785084480778 0:0 1:0.9978801 2:0 3:0.022668466 4:0.040021848 5:0.010603906 6:0.039954465 7:0.020168483 8:0 9:0 10:0.99999768 11:0 12:0 13:0 14:0 15:0 16:0 17:0 18:0 19:0.99999732 20:0 21:0 22:0 23:0 24:0 25:0 26:0 27:0 28:0.99999839 29:0 30:0 31:0 32:0 33:0 34:0 35:0 36:0 37:0.99999768 38:0 39:0 40:0 41:0 42:0 43:0 44:0 45:0 46:0.99301696 47:0.029754432 48:0.030002138 49:0.1061861 50:0.01827145 51:0.022716245 52:0 53:0 54:0 55:0.9954403 56:0 57:0.040823672 58:0.03486561 59:0.078329526 60:0.0086640157 61:0 62:0 63:0 64:0.99999732 65:0 66:0 67:0 68:0 69:0 70:0 71:0 72:0 73:0.9999972 74:0 75:0 76:0 77:0 78:0 79:0 80:0 
