svm_type c_svc
kernel_type rbf
gamma 0.5
nr_class 17
total_sv 861
rho -0.36948 -0.708911 -0.404785 -0.0949921 -0.511195 -0.507621 -0.176748 -0.855911 -0.501414 -0.52625 -0.343348 -0.571508 -0.255463 -0.280174 -0.537737 -0.482049 -0.468794 -0.0586299 0.237656 -0.185496 -0.105487 0.166978 -0.668305 -0.13248 -0.148557 0.014669 -0.275353 0.0822681 0.0780242 -0.198217 -0.151701 0.495475 0.618948 0.349534 0.436755 0.606986 -0.185597 0.350276 0.395518 0.583234 0.243177 0.55855 0.528389 0.431949 0.338105 0.273268 -0.141337 -0.0718439 0.234722 -0.696602 -0.0911971 -0.0940534 0.0773757 -0.274583 0.114209 0.120145 -0.164261 -0.116331 -0.396438 -0.354929 -0.0637517 -0.740208 -0.357223 -0.37284 -0.23143 -0.454747 -0.142235 -0.159367 -0.40793 -0.381765 0.0766711 0.338442 -0.591199 0.0334009 0.0366415 0.206485 -0.118989 0.263057 0.268523 -0.0068421 0.0159735 0.313153 -0.796995 -0.0201953 -0.0296427 0.184194 -0.172985 0.233251 0.18784 -0.110342 -0.0484172 -0.738464 -0.31593 -0.343286 -0.172505 -0.42109 -0.0782424 -0.0970595 -0.369074 -0.319792 0.735566 0.752066 0.786551 0.488971 0.728342 0.703995 0.616814 0.565561 0.0117875 0.172875 -0.134119 0.233818 0.19373 -0.0560709 -0.0383065 0.205707 -0.142134 0.250494 0.212896 -0.0362911 -0.0407729 -0.330242 0.0292242 0.0554184 -0.284336 -0.223977 0.354369 0.351214 0.111246 0.100697 -0.0203455 -0.28849 -0.24414 -0.270901 -0.216771 -0.0248952
label 0 1 2 3 4 5 6 7 8 9 10 11 12 13 14 15 16
nr_sv 55 47 54 54 54 46 52 52 39 44 55 55 47 55 51 51 50
SV
0.6217845930941207 0.2864940247420341 0.5863649913792564 0.8900328712129323 0.4817236388321428 0.4858554876704627 0.8103746911623319 0.1459973725484303 0.4910247898902044 0.468351630749182 0.648772040819697 0.4217967809126724 0.735488181752956 0.7095644721491927 0.4546825038816718 0.509661698534199 0:0 1:0.010126123 2:0.0071412348 3:0.024095301 4:0.42175034 5:0.90498507 6:0.044508073 7:0.020103337 8:0 9:0 10:0.20449026 11:0.029925559 12:0.083593994 13:0.50922316 14:0.82782722 15:0.066940941 16:0.034750056 17:0 18:0 19:0.1103048 20:0.11688402 21:0.13878806 22:0.50108844 23:0.81636178 24:0.18618289 25:0.051962353 26:0 27:0 28:0.12353868 29:0.30941767 30:0.34196913 31:0.54233307 32:0.57782698 33:0.30666396 34:0.22358127 35:0 36:0 37:0.54397601 38:0.27912843 39:0.22908989 40:0.14748366 41:0.51549077 42:0.18687744 43:0.50127029 44:0 45:0 46:0.0089916801 47:0.0075210282 48:0.019232912 49:0.4747389 50:0.87677467 51:0.060211368 52:0.041839402 53:0 54:0 55:0.50340009 56:0.11676674 57:0.094043158 58:0.46724302 59:0.69001859 60:0.16481112 61:0.049967837 62:0 63:0 64:0.89593083 65:0.049354352 66:0.29115972 67:0.18553756 68:0.22810414 69:0.12790148 70:0.085294403 71:0 72:0 73:0.28246135 74:0.17973936 75:0.50825459 76:0.37948826 77:0.63987154 78:0.19654831 79:0.19363847 80:0 81:0 82:0.040749349 83:0.051789373 84:0.10094324 85:0.50704086 86:0.85159022 87:0.041645717 88:0.03779345 89:0 90:0 91:0.026628427 92:0.054195933 93:0.10717095 94:0.4648619 95:0.84795606 96:0.19268771 97:0.11226454 98:0 99:0 100:0.84968811 101:0.11418974 102:0.18328515 103:0.095425509 104:0.4261125 105:0.10834575 106:0.17019504 107:0 108:0 109:0.9669444 110:0.13280883 111:0.17595764 112:0.0052591274 113:0.12064429 114:0.042763893 115:0.00083050033 116:0 117:0 118:0.65130115 119:0.052064396 120:0.47762519 121:0.29518759 122:0.47304243 123:0.11178032 124:0.146817 125:0 126:0 127:0.49453843 128:0.27177253 129:0.20740215 130:0.21592118 131:0.69534141 132:0.25806573 133:0.20450523 134:0 135:0 136:0.2074085 137:0.071827456 138:0.24169375 139:0.43707845 140:0.24077085 141:0.67973173 142:0.42699713 143:0 144:0 145:0.93390822 146:0.084821098 147:0.24059905 148:0.035498321 149:0.24194969 150:0.0069560525 151:0.053581446 152:0 153:0 154:0.99300748 155:0.090003163 156:0.0050104656 157:0.00059576432 158:0.076168284 159:0 160:0.0016728139 161:0 162:0 163:0.91012144 164:0.022334881 165:0.044210184 166:0.0092617134 167:0.40960708 168:0.005870366 169:0.036235016 170:0 171:0 172:0.61440629 173:0.010395316 174:0.021766756 175:0.0404942 176:0.78729534 177:0.011391532 178:0.017252808 179:0 180:0 181:0.052111585 182:0.0050703799 183:0.20467034 184:0.094480135 185:0.94689268 186:0.069585368 187:0.21144347 188:0 189:0 190:0.56684554 191:0.024780935 192:0.0032036654 193:0.00030865733 194:0.82341671 195:0.0010400579 196:0.0060684639 197:0 198:0 199:0.99789214 200:0.044106904 201:0.0431857 202:0.0072351107 203:0.018484021 204:0.0007093249 205:0.00085118931 206:0 207:0 208:0.89530826 209:0.0053567733 210:0.011992784 211:0.00015701265 212:0.44483218 213:0.0020454307 214:0.018858157 215:0 216:0 217:0.71747047 218:0.04963807 219:0.084839873 220:0.059204642 221:0.671148 222:0.010314994 223:0.14600803 224:0 
0.561828983356543 0.2590673212234063 0.529657037104688 0.8249227401035445 0.4350914080640139 0.4380888784113138 0.7324674568620284 0.1283859732270854 0.4438104589407596 0.4219508651502462 0.5847292314523318 0.3817648793567244 0.6634142088026185 0.6413319561849899 0.4112661133138185 0.4627200052692783 0:0 1:0 2:0 3:0 4:0 5:0 6:0 7:0 8:0 9:0 10:0 11:0 12:0 13:0 14:0 15:0 16:0 17:0 18:0 19:0.99927509 20:0 21:0 22:0 23:0 24:0 25:0 26:0 27:0 28:0.99927509 29:0 30:0 31:0 32:0 33:0 34:0 35:0 36:0 37:0 38:0 39:0 40:0 41:0 42:0 43:0 44:0 45:0 46:0 47:0 48:0 49:0 50:0 51:0 52:0 53:0 54:0 55:0.0042909798 56:0 57:0 58:0.8440907 59:0.53610098 60:0 61:0 62:0 63:0 64:0.8196792 65:0 66:0.0012060663 67:0.32087278 68:0.43787158 69:0.11740205 70:0.14015193 71:0 72:0 73:0.99999833 74:0 75:0 76:0 77:0 78:0 79:0 80:0 81:0 82:0.99999106 83:0 84:0 85:0 86:0 87:0 88:0 89:0 90:0 91:0.0013076505 92:0 93:0 94:0 95:0.99996758 96:0 97:0 98:0 99:0 100:0.00077603984 101:0 102:0.00081495167 103:0.70124674 104:0.71291167 105:0.00016206794 106:0.00040747583 107:0 108:0 109:0.57407606 110:0 111:0.042587079 112:0.46284455 113:0.65881127 114:0.10477276 115:0.096868031 116:0 117:0 118:0.15888293 119:0 120:0.00085778296 121:0.67149967 122:0.71391362 123:0.083499119 124:0.084813364 125:0 126:0 127:0.99999851 128:0 129:0 130:0 131:0 132:0 133:0 134:0 135:0 136:0.0013744254 137:0 138:0.00070666219 139:0.72502631 140:0.68871325 141:0 142:0.00022910921 143:0 144:0 145:0.00041010408 146:0 147:0.00065469643 148:0.74799138 149:0.6637044 150:8.7647699e-05 151:0.00042738902 152:0 153:0 154:0.46604308 155:0 156:0.00078241026 157:0.65439987 158:0.59544629 159:0.00028095485 160:0.00056590722 161:0 162:0 163:0.99916065 164:0 165:0.00048700281 166:0.031443842 167:0.026195107 168:0 169:5.5796856e-05 170:0 171:0 172:0.002029411 173:0.0012276198 174:0 175:0.65767753 176:0.75329256 177:0 178:0 179:0 180:0 181:0.89815599 182:0 183:0.00035083431 184:0.22895299 185:0.3619301 186:0.092608504 187:0.036321115 188:0 189:0 190:0.00065843493 191:0 192:0.0010941871 193:0.74571216 194:0.66626066 195:0.00024524468 196:0.00038416506 197:0 198:0 199:0.0030936203 200:0 201:0.00081455259 202:0.74837327 203:0.66321081 204:0 205:0 206:0 207:0 208:0.99999201 209:0 210:0 211:0 212:0 213:0 214:0 215:0 216:0 217:0.99999851 218:0 219:0 220:0 221:0 222:0 223:0 224:0 
0.3394841291022084 0.1558575252558295 0.3433816868009344 0.5018975634342794 0.2460768273590372 0.2707660123287808 0.4515634853598752 0.06173199807187483 0.265034107764948 0.2652446383408848 0.3508642481553192 0.2324076461331936 0.4024943108749657 0.3946145382397325 0.2486529542098679 0.2818717174925709 0:0 1:0.014755948 2:0 3:0 4:0.97747421 5:0.20955461 6:0 7:0.012771754 8:0 9:0 10:0.35101467 11:0.0010249226 12:0.024248069 13:0.22885101 14:0.8644172 15:0.1347556 16:0.24170722 17:0 18:0 19:0.838579 20:0.045952793 21:0.071763925 22:0.34777266 23:0.39149302 24:0.069578834 25:0.10229693 26:0 27:0 28:0.99999827 29:0 30:0.00014519021 31:0 32:0.00067321706 33:3.0920943e-05 34:0.00011426926 35:0 36:0 37:0.99999321 38:0 39:0 40:0 41:0 42:0 43:0 44:0 45:0 46:0.091139041 47:0.00053822732 48:0.0044977977 49:0.76323622 50:0.63772899 51:0.048328798 52:0.0099694254 53:0 54:0 55:0.34147996 56:0.033108704 57:0.071374357 58:0.64203465 59:0.67888236 60:0.055659454 61:0.031721901 62:0 63:0 64:0.9409163 65:0.055264752 66:0.040997565 67:0.16637149 68:0.27620545 69:0.067087658 70:0.038285732 71:0 72:0 73:0.5757398 74:0.046455368 75:0.11100588 76:0.67470789 77:0.44170687 78:0.037536196 79:0.047890954 80:0 81:0 82:0.99999839 83:0 84:0.00011997941 85:0 86:0.00014331254 87:0 88:5.9989703e-05 89:0 90:0 91:0.99389052 92:0 93:0.00072030973 94:0.008221929 95:0.083171412 96:0.051487941 97:0.050386369 98:0 99:0 100:0.82710594 101:0.00028849242 102:0.0039161984 103:0.39034125 104:0.40270314 105:0.026100388 106:0.025640575 107:0 108:0 109:0.99654484 110:0.023651635 111:0.022318432 112:0.06118888 113:0.045752302 114:0 115:0.0002809185 116:0 117:0 118:0.979976 119:0.055518791 120:0.05534789 121:0.081904083 122:0.16366452 123:0 124:0.0018868502 125:0 126:0 127:0.094329938 128:0.067993484 129:0.13847235 130:0.83032697 131:0.51151603 132:0.034502894 133:0.12250935 134:0 135:0 136:0.99998891 137:0 138:0 139:0 140:0 141:0 142:0 143:0 144:0 145:0.99851638 146:0 147:0.00076812401 148:0.0048929891 149:0.03923019 150:0.026320238 151:0.026494937 152:0 153:0 154:0.99954849 155:0.023636643 156:0.0062848027 157:0 158:0.017351843 159:0 160:0 161:0 162:0 163:0.99868339 164:0.0222323 165:0.020344235 166:0 167:0.0016729783 168:0.027071837 169:0.031330325 170:0 171:0 172:0.99998927 173:0 174:0 175:0 176:0 177:0 178:0 179:0 180:0 181:0 182:0 183:0 184:0 185:0 186:0 187:0 188:0 189:0 190:0.99999666 191:0 192:0 193:0 194:0 195:0 196:0 197:0 198:0 199:0.99874717 200:0.040754586 201:0.018235385 202:0 203:0.022515122 204:0 205:0 206:0 207:0 208:0.99993354 209:0.0081470506 210:0.0078399135 211:0 212:0.00030713651 213:0 214:0 215:0 216:0 217:0 218:0 219:0 220:0 221:0 222:0 223:0 224:0 
0.6592207678294483 0.2550699532618808 0.5333866887781262 0.7913499365339571 0.4209831063328213 0.4153682348270211 0.7298062709087578 0.116690498312212 0.425681048733771 0.4334363253825858 0.6352695438868168 0.3940366933377419 0.7424400326862337 0.6431613001701083 0.4026684457645333 0.4539678188057714 0:0 1:0.024375204 2:0.00028322299 3:0.0017253971 4:0.58903551 5:0.69312209 6:0.41174269 7:0.049759854 8:0 9:0 10:0.75104851 11:0.028678348 12:0.092408352 13:0.064765908 14:0.43955317 15:0.39257815 16:0.2739296 17:0 18:0 19:0.97105956 20:0 21:0.053574689 22:0 23:0.10042945 24:0.049984857 25:0.20391776 26:0 27:0 28:0.96016395 29:0 30:0.042974479 31:0.00023277338 32:0.054726247 33:0.11543386 34:0.24476342 35:0 36:0 37:0.64950281 38:0.10619912 39:0.15197352 40:0.41642913 41:0.5726428 42:0.048760299 43:0.20013632 44:0 45:0 46:0.024058148 47:0.038646217 48:0.26336548 49:0.57246441 50:0.7214514 51:0.28236571 52:0.024869017 53:0 54:0 55:0.10929403 56:0.04137665 57:0.098080143 58:0.69118518 59:0.58141071 60:0.39291614 61:0.080946855 62:0 63:0 64:0.58066279 65:0.049019501 66:0.081274785 67:0.0096816532 68:0.2309802 69:0.40801787 70:0.65868425 71:0 72:0 73:0.52170891 74:0.00077927421 75:0.13086486 76:0.15540573 77:0.62133998 78:0.25851387 79:0.48334119 80:0 81:0 82:0.97149622 83:0.0028616439 84:0.05143448 85:0.028891774 86:0.13525791 87:0.042952172 88:0.18044676 89:0 90:0 91:0.85399663 92:0.19455321 93:0.39034352 94:0.20972061 95:0.11655003 96:0.060586452 97:0.13865633 98:0 99:0 100:0.078419916 101:0.0072281985 102:0.015844373 103:0.78016168 104:0.61263937 105:0.064027399 106:0.073761329 107:0 108:0 109:0.14210999 110:0.097262949 111:0.14821704 112:0.34329659 113:0.82480556 114:0.19204769 115:0.33661997 116:0 117:0 118:0.98552787 119:0.022394581 120:0.013824562 121:0.0050936001 122:0.13694352 123:0.0067318231 124:0.095950201 125:0 126:0 127:0.82254177 128:0.20214045 129:0.30171326 130:0.28097236 131:0.33014297 132:0.018653717 133:0.056859128 134:0 135:0 136:0.9847241 137:0.10901996 138:0.077965908 139:0.046184581 140:0.094487198 141:5.5741919e-05 142:0.035891123 143:0 144:0 145:0.99508256 146:0.030056363 147:0.036030456 148:0.022254746 149:0.069491416 150:0.047289185 151:0.006004971 152:0 153:0 154:0.78326005 155:0.026715977 156:0.04164568 157:0.31612048 158:0.44889799 159:0.055811528 160:0.28192878 161:0 162:0 163:0.17913869 164:0.17145161 165:0.16649166 166:0.36563978 167:0.80690837 168:0.2476885 169:0.2541872 170:0 171:0 172:0.97531849 173:0.21304159 174:0.0015127735 175:0.0011966052 176:0.046726909 177:0.034066863 178:0.002864816 179:0 180:0 181:0.78476399 182:0.39544994 183:0.30251202 184:0.11127382 185:0.31698844 186:0.13936724 187:0.062909469 188:0 189:0 190:0.66545749 191:0.2034407 192:0.2055162 193:0.4378925 194:0.26177102 195:0.25706673 196:0.38362205 197:0 198:0 199:0.70388228 200:0.0064986139 201:0.035277221 202:0.032036413 203:0.33317146 204:0.60972577 205:0.13889387 206:0 207:0 208:0.99518758 209:0.00084816734 210:0.001447913 211:0 212:0.097497903 213:0.0014479103 214:0.0070665604 215:0 216:0 217:0.040082518 218:0.27802461 219:0.29474342 220:0.76492888 221:0.49258503 222:0.075640306 223:0.027011182 224:0 
0.3152201054601208 0.1336085609291403 0.3002492337793489 0.4444842382790889 0.2840687333854144 0.2588722421415239 0.4036481494291722 0.07933662541919775 0.2831788255441559 0.2576217614002878 0.3231156777343367 0.2230504059838132 0.3585494115676012 0.363898100342743 0.2223514479763559 0.2493715576443059 0:0 1:0.0023609248 2:0.014808591 3:0 4:0.786475 5:0.61724186 6:0.014342106 7:0 8:0 9:0 10:0.15873684 11:0.058503933 12:0.14654642 13:0.6563741 14:0.69475877 15:0.085249521 16:0.17061439 17:0 18:0 19:0.81580168 20:0.039220035 21:0.13025822 22:0.24156384 23:0.48083553 24:0.09873227 25:0.12904906 26:0 27:0 28:0.99999827 29:0 30:0.00014264989 31:0 32:0.00096809567 33:5.0091883e-05 34:9.2558017e-05 35:0 36:0 37:0.99999446 38:0 39:0 40:0 41:0 42:0 43:0 44:0 45:0 46:0.0012334479 47:0.0046337438 48:0.0077899694 49:0.66412711 50:0.74728185 51:0.020300401 52:0.00017602344 53:0 54:0 55:0.65821743 56:0.0036239375 57:0.0046836832 58:0.46820089 59:0.58342737 60:0.043434102 61:0.072277829 62:0 63:0 64:0.93453139 65:0.01118769 66:0.039390095 67:0.21087918 68:0.27750462 69:0.015718384 70:0.056957502 71:0 72:0 73:0.9764213 74:0.031782392 75:0.071384348 76:0.11829109 77:0.16238242 78:0.011417403 79:0 80:0 81:0 82:0.99999779 83:0 84:0.00023013687 85:0 86:0.0012087958 87:6.1017603e-05 88:0.00011274618 89:0 90:0 91:0.17388988 92:0 93:0.013404879 94:0.60439301 95:0.74786288 96:0.21203089 97:0.0049280133 98:0 99:0 100:0.94933617 101:0 102:0.0020707175 103:0.19947177 104:0.24275681 105:0.0056914175 106:8.1626917e-05 107:0 108:0 109:0.9999966 110:0 111:0.00026848679 112:0.0017576939 113:0.00052850734 114:5.8924285e-05 115:0 116:0 117:0 118:0.98903656 119:0 120:0.047171187 121:0.051443294 122:0.13012128 123:0 124:0 125:0 126:0 127:0.99993658 128:0 129:0.0027810894 130:0.0086060613 131:0.0053692027 132:0.0018242199 133:0 134:0 135:0 136:0.81196493 137:0 138:0 139:0.017384496 140:0.2011324 141:0.5468061 142:0.030069575 143:0 144:0 145:0.99999547 146:0 147:0 148:0 149:0.002135034 150:0 151:0 152:0 153:0 154:0.99999833 155:0 156:0 157:0 158:0 159:0 160:0 161:0 162:0 163:0.99999714 164:0 165:0 166:0 167:0 168:0 169:0 170:0 171:0 172:0.99999547 173:0 174:0 175:0 176:0 177:0 178:0 179:0 180:0 181:0 182:0 183:0 184:0 185:0 186:0 187:0 188:0 189:0 190:0.99999774 191:0 192:0 193:0 194:0 195:0 196:0 197:0 198:0 199:0.99999833 200:0 201:0 202:0 203:0 204:0 205:0 206:0 207:0 208:0.99999744 209:0 210:0 211:0 212:0 213:0 214:0 215:0 216:0 217:0 218:0 219:0 220:0 221:0 222:0 223:0 224:0 
0.009850826307171422 0 0.002842445407537649 0.003997791974525212 0 0 0.003360047832131183 0 0 0 0.1152315998755752 0 0.08793312806837607 0.08344373928517927 0 0 0:0 1:0.014608736 2:0.0012366725 3:0.042349275 4:0.5448972 5:0.69144583 6:0.47219446 7:0 8:0 9:0 10:0.87896132 11:0.025876485 12:0.075993508 13:0.06834878 14:0.38339421 15:0.22331145 16:0.13945059 17:0 18:0 19:0.98807913 20:0 21:0 22:0 23:0.060171645 24:0.0038792277 25:0.14163467 26:0 27:0 28:0.95611459 29:0 30:0 31:0.00067518349 32:0.11733375 33:0.055668846 34:0.2626268 35:0 36:0 37:0.99928719 38:0 39:0.011516662 40:0.0017154728 41:0.034903616 42:0 43:0.0082868328 44:0 45:0 46:0.55780816 47:0.051864114 48:0.42296219 49:0.53710115 50:0.39312971 51:0.25342837 52:0.00074281555 53:0 54:0 55:0.13921762 56:0.058019817 57:0.25675386 58:0.58913964 59:0.63804674 60:0.37447634 61:0.13000214 62:0 63:0 64:0.93699998 65:0.015806833 66:0.004027097 67:0.11763591 68:0.26236787 69:0.14103816 70:0.13854484 71:0 72:0 73:0.56877023 74:0.000287437 75:0.0008515977 76:0.28763533 77:0.72732013 78:0.20087881 79:0.1562435 80:0 81:0 82:0.98407847 83:0.13229677 84:0.084226355 85:0.079520211 86:0.024478678 87:0.0081057595 88:0 89:0 90:0 91:0.95643586 92:0.11276313 93:0.19711748 94:0.13710807 95:0.11715099 96:0.025705142 97:0.02172265 98:0 99:0 100:0.085232511 101:0.00080217543 102:0.21935432 103:0.75769395 104:0.60708958 105:0.044188593 106:0.00087055232 107:0 108:0 109:0.78436601 110:0.0081117237 111:0.020917511 112:0.28360701 113:0.51056087 114:0.092998631 115:0.18576293 116:0 117:0 118:0.90767419 119:0.033710368 120:0.062797353 121:0.23286274 122:0.33295199 123:0.038617801 124:0.06686338 125:0 126:0 127:0.75180423 128:0.21175852 129:0.27166545 130:0.42657471 131:0.36562246 132:0.020825699 133:0.0078903856 134:0 135:0 136:0.96374649 137:0.019596457 138:0.17217462 139:0.1785955 140:0.083930798 141:0.011290306 142:0.04573746 143:0 144:0 145:0.57793772 146:0.036456224 147:0.26423466 148:0.5147801 149:0.55119979 150:0.11146493 151:0.11656277 152:0 153:0 154:0.78327656 155:0.00044967295 156:0.0014062459 157:0.42512542 158:0.44547981 159:0.080544405 160:0.028267115 161:0 162:0 163:0.99647099 164:0 165:0.0061693387 166:0.049963735 167:0.064109333 168:0.015849667 169:0.012091322 170:0 171:0 172:0.93912077 173:0.1761701 174:0.1452623 175:0.18166654 176:0.1804982 177:0.018046457 178:0.0019407525 179:0 180:0 181:0.74625862 182:0.0026436164 183:0.16395082 184:0.45757166 185:0.43385088 186:0.13639511 187:0.0015804173 188:0 189:0 190:0.98887759 191:0.00070777844 192:0.073890291 193:0.072123542 194:0.09748137 195:0.027156435 196:0.034866832 197:0 198:0 199:0.99683803 200:0 201:6.0216968e-05 202:0.00032507285 203:0.055173337 204:0.057107616 205:0.0016337225 206:0 207:0 208:0.86145478 209:0 210:0.08214169 211:0.066668816 212:0.42578429 213:0.25556615 214:0.0094953235 215:0 216:0 217:0.30752891 218:0.17038542 219:0.37875059 220:0.55284685 221:0.62494731 222:0.19121613 223:0.013184771 224:0 
0.5832440009675018 0.2676900497342142 0.5650286009423741 0.828481522725552 0.4775374221687892 0.4697106662911337 0.7573371626301633 0.1382429876867565 0.4598678923280681 0.4415307924453472 0.6229516943462923 0.4084955655469779 0.690380143778782 0.6662335381598422 0.4292488062357374 0.4744168295276618 0:0 1:0.0013852709 2:0.00094473653 3:0.009415254 4:0.53737134 5:0.84328341 6:0.001888753 7:0.0014996865 8:0 9:0 10:0.14772126 11:0.029508907 12:0.0738988 13:0.52580822 14:0.833121 15:0.00026925877 16:0.035740577 17:0 18:0 19:0.11379678 20:0.057277188 21:0.19030838 22:0.58116388 23:0.76982915 24:0.12267713 25:0.045908887 26:0 27:0 28:0.81864578 29:0.00071400951 30:0.13260172 31:0.23969556 32:0.48284969 33:0.07753785 34:0.12497299 35:0 36:0 37:0.99998963 38:0 39:0.00087910547 40:0.00044067751 41:0.0039890278 42:0.00038053573 43:0.00055148278 44:0 45:0 46:0.0022979735 47:0.0018864544 48:0.0045078183 49:0.47677761 50:0.87802976 51:0.013243466 52:0.039214391 53:0 54:0 55:0.54555082 56:0.026139526 57:0.053390965 58:0.40178898 59:0.7306484 60:0.026993291 61:0.053147648 62:0 63:0 64:0.97542816 65:0.033167955 66:0.050782282 67:0.10198001 68:0.18000446 69:0.023089198 70:0.039006349 71:0 72:0 73:0.44654751 74:0.042384002 75:0.13238794 76:0.54718083 77:0.68268418 78:0.11872713 79:0.041248161 80:0 81:0 82:0.081657462 83:0.061167464 84:0.071026348 85:0.5736624 86:0.79782051 87:0.13311218 88:0.034840003 89:0 90:0 91:0.0054206089 92:0.002810928 93:0.092666477 94:0.51662552 95:0.83046472 96:0.15247566 97:0.10744701 98:0 99:0 100:0.99374336 101:0.0019266289 102:0.057858817 103:0.053453259 104:0.076884925 105:0.0025099849 106:0.018506788 107:0 108:0 109:0.99970758 110:0.00041093188 111:0.0058572083 112:0.0044884123 113:0.022882525 114:0.0010676588 115:0.0013120141 116:0 117:0 118:0.88081211 119:0.00092111627 120:0.018979684 121:0.26670775 122:0.39072227 123:0.0016119535 124:0.00046055813 125:0 126:0 127:0.82801843 128:0 129:0.066044353 130:0.39147705 131:0.39583227 132:0.0088553885 133:0.00066989695 134:0 135:0 136:0.8648712 137:0 138:0.28777021 139:0.15581104 140:0.23212005 141:0.243037 142:0.17870447 143:0 144:0 145:0.99999249 146:0.0005717008 147:0.0016861595 148:0.0013831386 149:0.0012956717 150:0.00089554948 151:0.0016178704 152:0 153:0 154:0.99999821 155:0 156:0 157:0 158:0 159:0 160:0 161:0 162:0 163:0.99999547 164:0 165:0 166:0.0016933838 167:0 168:0 169:0 170:0 171:0 172:0.9999941 173:0.00018908003 174:0 175:0.0013235603 176:0.0015126403 177:0.00037816007 178:0 179:0 180:0 181:0.99942309 182:0 183:0 184:0 185:0 186:0 187:0 188:0 189:0 190:0.99999756 191:0 192:0 193:0 194:0 195:0 196:0 197:0 198:0 199:0.99999821 200:0 201:0 202:0 203:0 204:0 205:0 206:0 207:0 208:0.99999696 209:0 210:0 211:0 212:0 213:0 214:0 215:0 216:0 217:0.99966627 218:0 219:0 220:0 221:0 222:0 223:0 224:0 
0.4812816661867286 0.2378666639183977 0.768473226062958 0.5709452995416651 0.4231504931849975 0.4833280236785442 0.5310782625493299 0.1841130455215393 0.493717761326039 0.6209545101299372 0.5409891429801124 0.3849325841661236 0.5384657833400308 0.5087355083887301 0.3608325240775139 0.3804130566120997 0:0 1:0 2:0 3:0 4:0 5:0 6:0 7:0 8:0 9:0 10:0.0043167588 11:0 12:0 13:0.51782733 14:0.84976137 15:0 16:0.098600104 17:0 18:0 19:0.80491304 20:0 21:0.041165117 22:0.30719396 23:0.50065267 24:0.043377422 25:0.059258781 26:0 27:0 28:0.81572384 29:0 30:0 31:0.40003806 32:0.41556153 33:0.038746115 34:0.019183548 35:0 36:0 37:0.9999975 38:0 39:0 40:0 41:0 42:0 43:0 44:0 45:0 46:0.90836787 47:0 48:0 49:0.00062398915 50:0.35104492 51:0.10737453 52:0.20023173 53:0 54:0 55:0.54061788 56:0 57:0 58:0.63216448 59:0.54177922 60:0.058483887 61:0.10558779 62:0 63:0 64:0.9738183 65:0 66:0 67:0.114829 68:0.19543307 69:0 70:0.017166715 71:0 72:0 73:0.94155222 74:0 75:0.020659091 76:0.21873422 77:0.25497887 78:0.013811256 79:5.7497433e-05 80:0 81:0 82:0.81101495 83:0.020931596 84:0.00092303404 85:0.47511712 86:0.34069872 87:0 88:0 89:0 90:0 91:0.99999726 92:0 93:0 94:0 95:0 96:0 97:0 98:0 99:0 100:0.98808783 101:0 102:0 103:0.00022961939 104:0.12917969 105:0.039512344 106:0.073682509 107:0 108:0 109:0.97780633 110:0 111:0 112:0.19597875 113:0.074056461 114:0 115:0 116:0 117:0 118:0.99272275 119:0 120:0 121:0.034536157 122:0.11534905 123:0 124:0 125:0 126:0 127:0.9999966 128:0 129:0 130:0 131:0 132:0 133:0 134:0 135:0 136:0.99159366 137:0 138:0 139:0 140:0 141:0 142:0 143:0 144:0 145:0.99999475 146:0 147:0 148:0 149:0 150:0 151:0 152:0 153:0 154:0.99999857 155:0 156:0 157:0 158:0 159:0 160:0 161:0 162:0 163:0.99999863 164:0 165:0 166:0 167:0 168:0 169:0 170:0 171:0 172:0.99159366 173:0 174:0 175:0 176:0 177:0 178:0 179:0 180:0 181:0 182:0 183:0 184:0 185:0 186:0 187:0 188:0 189:0 190:0.99999475 191:0 192:0 193:0 194:0 195:0 196:0 197:0 198:0 199:0.99999857 200:0 201:0 202:0 203:0 204:0 205:0 206:0 207:0 208:0.99999869 209:0 210:0 211:0 212:0 213:0 214:0 215:0 216:0 217:0 218:0 219:0 220:0 221:0 222:0 223:0 224:0 
0.9953286379011854 0.1894440697245214 0.5833382558319894 0.4227829894542011 0.2574275647702398 1 0.5673362515265202 0.4603595353972256 0.6036654948789325 0.8410520733155535 0.4611635779265107 0.6109915484166144 0.5988589645023752 0.5475676261214211 0.2700126107784852 0.3060993012861716 0:0 1:0.012012626 2:0.11795203 3:0.23505211 4:0.64023739 5:0.62178105 6:0.34792641 7:0.11451603 8:0 9:0 10:0.93836164 11:0 12:0.0099400599 13:0.04288831 14:0.25023019 15:0.18053775 16:0.14941695 17:0 18:0 19:0.99645716 20:0.016899243 21:0.016288856 22:0 23:0.058524396 24:0 25:0.055617895 26:0 27:0 28:0.9984864 29:0 30:0 31:0 32:0 33:0.019303445 34:0.051469821 35:0 36:0 37:0.9365806 38:0.017606003 39:0.11250043 40:0.14084981 41:0.29679734 42:0.0034661498 43:0.043673113 44:0 45:0 46:0.55737817 47:0.089787774 48:0.16708069 49:0.40865305 50:0.68952501 51:0.082934007 52:0.063439861 53:0 54:0 55:0.26415503 56:0 57:0.015675886 58:0.28044951 59:0.89737594 60:0.21453303 61:0.0010961149 62:0 63:0 64:0.91653788 65:0.025281398 66:0.21843202 67:0.21538533 68:0.21313475 69:0.047360685 70:0.13243689 71:0 72:0 73:0.95979625 74:0.00016637267 75:0.0344951 76:0.19705394 77:0.19488099 78:0.027911728 79:0.0021513903 80:0 81:0 82:0.99842536 83:0.05607222 84:5.2356347e-05 85:2.8334962e-05 86:0 87:0 88:0 89:0 90:0 91:0.97290158 92:0.19610099 93:0.060563382 94:0.059902009 95:0.088014446 96:0 97:0 98:0 99:0 100:0.99999756 101:0 102:0 103:0 104:5.0532577e-05 105:0 106:0 107:0 108:0 109:0.9354822 110:0.045243129 111:0.23523369 112:0.21398394 113:0.14284466 114:0.029026549 115:0.021231657 116:0 117:0 118:0.9868328 119:0.013651258 120:0.1007982 121:0.085973091 122:0.063784249 123:0.025573464 124:0.060802631 125:0 126:0 127:0.92085385 128:0.23198119 129:0.24324909 130:0.18611035 131:0.066311151 132:0 133:0.0020545952 134:0 135:0 136:0.99286026 137:0.0191433 138:0.022877334 139:0.10735254 140:0.038358215 141:0.013004428 142:0.013032251 143:0 144:0 145:0.99999714 146:0 147:0 148:0 149:0 150:0 151:0 152:0 153:0 154:0.99999827 155:0 156:0 157:0 158:0 159:0 160:0 161:0 162:0 163:0.66520792 164:0.13962975 165:0.53229409 166:0.46992144 167:0.16666798 168:0 169:0.077758253 170:0 171:0 172:0.96294618 173:0.15746842 174:0.21015598 175:0.024230944 176:0.056406595 177:0 178:0 179:0 180:0 181:0.48151535 182:0.1403064 183:0.42196098 184:0.40165627 185:0.53691387 186:0.26956332 187:0.21938737 188:0 189:0 190:0.99680167 191:0 192:0.0010671831 193:0.069558591 194:0.033737503 195:0.00026443359 196:0.020122357 197:0 198:0 199:0.9886865 200:0 201:0 202:0 203:0.028071316 204:0 205:0.14733006 206:0 207:0 208:0.8933813 209:0 210:0 211:0.0030089109 212:0.36128539 213:0.22273828 214:0.14735831 215:0 216:0 217:0.19315644 218:0.26239336 219:0.60006559 220:0.50450504 221:0.46900696 222:0.23594378 223:0.05992306 224:0 
0.3369261696454697 0.1723130272409257 0.3933277587840777 0.4762069571310656 0.2830936441721283 0.5512239177856407 0.4895597015272817 0.06314433088784176 0.3419618420284382 0.3125314489936866 0.523826705620235 0.2246473527602021 0.4863212085832208 0.4472204264106623 0.2926965193550388 0.313303255186987 0:0 1:0.99985701 2:0 3:0 4:0 5:0 6:0 7:0 8:0 9:0 10:0.99999326 11:0 12:0 13:0 14:0 15:0 16:0 17:0 18:0 19:0.99956155 20:0 21:0 22:0 23:0 24:0 25:0.029397275 26:0 27:0 28:0.99717087 29:0 30:0 31:0 32:0.00056237995 33:0.0061904173 34:0.074837998 35:0 36:0 37:0.99999124 38:0 39:0 40:0 41:0.0028008111 42:0 43:0 44:0 45:0 46:0.99999112 47:0 48:0 49:0 50:0 51:0 52:0 53:0 54:0 55:0.078200422 56:0 57:0 58:0.55090755 59:0.78545076 60:0.27092803 61:0 62:0 63:0 64:0.99999541 65:0 66:0 67:0 68:0 69:0 70:0 71:0 72:0 73:0.5278911 74:0 75:0 76:0.27656063 77:0.80300945 78:0 79:0 80:0 81:0 82:0.99903971 83:0.018376619 84:0.030387357 85:0.0054362845 86:0.012297213 87:0.021642914 88:0 89:0 90:0 91:0.99273568 92:0.069375232 93:0.035608456 94:0.068586022 95:0.046696562 96:0.029797511 97:0.024713052 98:0 99:0 100:0.19175398 101:0.13699524 102:0.06971027 103:0.64782202 104:0.71806735 105:0.043855306 106:0.048604961 107:0 108:0 109:0.98675174 110:0 111:0 112:0.084041417 113:0.13244687 114:0.041330304 115:0 116:0 117:0 118:0.99999654 119:0 120:0 121:0 122:0 123:0 124:0 125:0 126:0 127:0.93894851 128:0.19889565 129:0.24469793 130:0.10451845 131:0.083587967 132:0.031856962 133:0 134:0 135:0 136:0.98757839 137:0.018357445 138:0 139:0.13941705 140:0.067246862 141:0.019452833 142:0.00029434395 143:0 144:0 145:0.98636216 146:0.094914354 147:0.048717011 148:0.093834616 149:0.063886985 150:0.04076688 151:0.033810675 152:0 153:0 154:0.97432494 155:0 156:0 157:0.17589836 158:0.14048211 159:0 160:0.00062821567 161:0 162:0 163:0.99998814 164:0 165:0 166:0 167:0.0036479025 168:0 169:0 170:0 171:0 172:0.98477763 173:0.039658446 174:0.13453488 175:0.075920582 176:0.069049999 177:0 178:0 179:0 180:0 181:0.99999219 182:0 183:0 184:0 185:0 186:0 187:0 188:0 189:0 190:0.99999434 191:0 192:0 193:0 194:0 195:0 196:0 197:0 198:0 199:0.97432727 200:0 201:0 202:0 203:0.08028435 204:0.058793757 205:0.20190255 206:0 207:0 208:0.71505988 209:0 210:0 211:0.062999621 212:0.64723355 213:0.25621179 214:0.012103341 215:0 216:0 217:0.16011646 218:0.15231967 219:0.35591412 220:0.55851662 221:0.69686472 222:0.15690964 223:0.047836713 224:0 
0.8737753831147632 0.2662385430870872 0.9892489974316101 0.4188508268533622 0.3364722902173882 1 0.657433076915656 0.9548698671069651 1 1 1 0.7949385752247305 0.9453259608509066 1 0.5334816955311038 0.4783293329080701 0:0 1:0.0055119651 2:0 3:0.090737492 4:0.78748262 5:0.58003175 6:0.18748482 7:0.00049562455 8:0 9:0 10:0.96786189 11:0 12:0.010730285 13:0.067005418 14:0.14378768 15:0.16816863 16:0.098379806 17:0 18:0 19:0.89741069 20:0 21:0.0046379701 22:0.05266767 23:0.30364034 24:0.2247455 25:0.22168823 26:0 27:0 28:0.98255771 29:0 30:0 31:0.019518893 32:0.12341578 33:0.11124312 34:0.081176013 35:0 36:0 37:0.98073494 38:0.017980032 39:0.045656323 40:0.11187072 41:0.14867285 42:0.00054564647 43:0.033594333 44:0 45:0 46:0.95898777 47:0.051884092 48:0.19568439 49:0.074555933 50:0.18077481 51:0.033397041 52:0 53:0 54:0 55:0.30350283 56:0.31368738 57:0.43015513 58:0.47883084 59:0.36532396 60:0.41293845 61:0.30196789 62:0 63:0 64:0.9540844 65:0 66:0 67:0.005805125 68:0.13434361 69:0.22968474 70:0.13740952 71:0 72:0 73:0.58834296 74:0.0028814292 75:0.040432628 76:0.62942505 77:0.4984563 78:0.068031631 79:0.054226056 80:0 81:0 82:0.98402208 83:0.05579938 84:0.09072163 85:0.097529009 86:0.10299522 87:0.015284627 88:0 89:0 90:0 91:0.98374683 92:0.071676001 93:0.13577564 94:0.068565436 95:0.062965676 96:0.00012382891 97:0 98:0 99:0 100:0.95251524 101:0.1338741 102:0.24862261 103:0.09697336 104:0.055092726 105:0.023151454 106:0.00012267201 107:0 108:0 109:0.99315226 110:0 111:0 112:0.074942268 113:0.089605555 114:0 115:0.00020480293 116:0 117:0 118:0.98067957 119:0.020300038 120:0.019820664 121:0.13971916 122:0.13239531 123:0.014765067 124:0.01381872 125:0 126:0 127:0.97649395 128:0.075064294 129:0.064165898 130:0.17806198 131:0.070697822 132:0 133:0 134:0 135:0 136:0.99166876 137:0.047427736 138:0.064299166 139:0.038389035 140:0.09309826 141:0.0080434633 142:0.00057530892 143:0 144:0 145:0.96120745 146:0.032202337 147:0.029500887 148:0.067896798 149:0.24723572 150:0.066838473 151:0.062984034 152:0 153:0 154:0.98209757 155:0.009112318 156:0.036508638 157:0.010773596 158:0.12905222 159:0.12722586 160:0.033288717 161:0 162:0 163:0.99839985 164:0 165:0.030208608 166:0.0154505 167:0.045196488 168:3.806004e-05 169:0.00019676618 170:0 171:0 172:0.95930499 173:0.04432619 174:0.21476538 175:0.14836966 176:0.09811765 177:0.0007195815 178:0 179:0 180:0 181:0.99999779 182:0 183:0 184:0 185:0 186:0 187:0 188:0 189:0 190:0.98601377 191:0 192:0.026139973 193:0.0081331786 194:0.087326698 195:0.0769324 196:0.11610223 197:0 198:0 199:0.91873878 200:0.0017246144 201:0.088513963 202:0.033351757 203:0.24408405 204:0.14267635 205:0.25890416 206:0 207:0 208:0.93852758 209:0.01027442 210:0.020997595 211:0.0081207165 212:0.28872821 213:0.18017189 214:0.052190967 215:0 216:0 217:0.0028563328 218:0.24788761 219:0.4547835 220:0.49428594 221:0.52833599 222:0.35358202 223:0.28849533 224:0 
0.3843170601955043 0.1482412075259277 0.3271499250787784 0.5307201261520942 0.3108617626265452 0.4391289843608122 0.4912037736033686 0.1443317935935217 0.3755475681350475 0.3195367825976063 0.4086042928784056 0.2745500408625551 0.4404364260714148 0.4303392417195233 0.2822362311898373 0.287917006790717 0:0 1:0 2:0 3:0 4:0 5:0.99201685 6:0 7:0 8:0 9:0 10:0.99401999 11:0 12:0 13:0.020033933 14:0.024584904 15:0.09849935 16:0.034529038 17:0 18:0 19:0.94678849 20:0 21:0 22:0.081852399 23:0.31048372 24:0.019537184 25:0.010223503 26:0 27:0 28:0.64583707 29:0 30:0 31:0.28298521 32:0.70909077 33:0 34:0 35:0 36:0 37:0.99999678 38:0 39:0 40:0 41:0 42:0 43:0 44:0 45:0 46:0.0046964874 47:0 48:0 49:0.81436521 50:0.58032376 51:0 52:0 53:0 54:0 55:0.64343798 56:0 57:0 58:0.60847306 59:0.46036109 60:0.055080552 61:0.027846694 62:0 63:0 64:0.99838459 65:0.044270847 66:0.014224206 67:0.0026863492 68:0.027365828 69:0.013045031 70:0.011685051 71:0 72:0 73:0.98673379 74:0 75:0 76:0.065937348 77:0.14832333 78:0 79:0.0024183886 80:0 81:0 82:0.71787369 83:0 84:0.0084713735 85:0.26920542 86:0.6419583 87:0 88:0 89:0 90:0 91:0.62300104 92:0 93:0 94:0.47463766 95:0.61742002 96:0.073297516 97:0.0010829373 98:0 99:0 100:0.76045984 101:0 102:0 103:0.47382739 104:0.44405442 105:0 106:0 107:0 108:0 109:0.99136984 110:0 111:0 112:0.089641087 113:0.095644303 114:0 115:0 116:0 117:0 118:0.99988294 119:0 120:0 121:0 122:0.015213604 123:0 124:0 125:0 126:0 127:0.9967683 128:0 129:0 130:0.0075351759 131:0.058559865 132:0.054427177 133:0.00089630653 134:0 135:0 136:0.99999577 137:0 138:0 139:0 140:0.00016135049 141:8.7321983e-05 142:0.00016135049 143:0 144:0 145:0.9695338 146:0 147:0 148:0.20275439 149:0.13743991 150:0 151:0 152:0 153:0 154:0.99999869 155:0 156:0 157:0 158:0 159:0 160:0 161:0 162:0 163:0.99999809 164:0 165:0 166:0 167:0 168:0 169:0 170:0 171:0 172:0.99999726 173:0 174:0 175:0 176:0 177:0 178:0 179:0 180:0 181:0 182:0 183:0 184:0 185:0 186:0 187:0 188:0 189:0 190:0.99999726 191:0 192:0 193:0 194:0 195:0 196:0 197:0 198:0 199:0.99999881 200:0 201:0 202:0 203:0 204:0 205:0 206:0 207:0 208:0.99999809 209:0 210:0 211:0 212:0 213:0 214:0 215:0 216:0 217:0 218:0 219:0 220:0 221:0 222:0 223:0 224:0 
0.6782938314957119 0.2689037156762039 0.6532263633365476 0.7774261139819219 0.434093542214312 0.4395047489260022 0.7343068654401326 0.1095725164178597 0.4269192035376519 0.4362618699944928 0.6939803146077081 0.3874992346260087 0.7799355654469078 0.7293021141031781 0.4289141657759298 0.4476314833333984 0:0 1:0.95206678 2:0 3:0.070930615 4:0 5:0.1605704 6:0 7:0.24404658 8:0 9:0 10:0.78987545 11:0.004649125 12:0.0040331464 13:0.23973882 14:0.54857677 15:0.13161922 16:0.017129015 17:0 18:0 19:0.56422782 20:4.9286397e-09 21:0.085793741 22:0.23367029 23:0.69212162 24:0.068411857 25:0.36869439 26:0 27:0 28:0.97762144 29:0 30:0.00073797 31:7.8024796e-09 32:0.051580444 33:0.063789509 34:0.19366692 35:0 36:0 37:0.99627453 38:0.00035373832 39:0.018209899 40:0.013739476 41:0.08230263 42:0.0069824192 43:0.0091327736 44:0 45:0 46:0.61737543 47:0.14787264 48:0.18974693 49:0.37336445 50:0.6430617 51:0 52:0.089451991 53:0 54:0 55:0.35890722 56:0.089539267 57:0.089157723 58:0.48199597 59:0.78439808 60:0.087194107 61:0.0011206189 62:0 63:0 64:0.29493079 65:0.034058463 66:0.096682064 67:0.37992752 68:0.84833056 69:0.15282053 70:0.12297406 71:0 72:0 73:0.34656593 74:0.14531566 75:0.076909274 76:0.26706907 77:0.88401067 78:0.0025518686 79:8.6043649e-08 80:0 81:0 82:0.95572329 83:0.2763193 84:0.10027366 85:0.007577281 86:0.010169811 87:0.00024883193 88:0.00091952406 89:0 90:0 91:0.73607117 92:0.22226408 93:0.28628644 94:0.24134952 95:0.51815462 96:1.4047519e-08 97:2.8095037e-08 98:0 99:0 100:0.74324942 101:0.11323114 102:0.14378762 103:0.42410076 104:0.48046646 105:0.0035390113 106:0.0577485 107:0 108:0 109:0.80323803 110:0.049162865 111:0.036349874 112:0.29292944 113:0.51323497 114:0.029390166 115:0.031308804 116:0 117:0 118:0.43354121 119:0.21635374 120:0.096821576 121:0.40058064 122:0.76669747 123:0 124:0.086809315 125:0 126:0 127:0.92523062 128:0.089436658 129:0.095233336 130:0.25859988 131:0.24194671 132:4.2937827e-09 133:0.038104497 134:0 135:0 136:0.99997133 137:0.0003540467 138:0.00065421645 139:0 140:3.2278283e-08 141:0 142:0.0047492748 143:0 144:0 145:0.79912406 146:0.4240337 147:0.080988854 148:0.0021930772 149:0.37333429 150:0.15726171 151:0.10408979 152:0 153:0 154:0.9997763 155:0.00044378851 156:0.0030717147 157:0.00018577628 158:0.0018813823 159:0.0012600226 160:0.020560727 161:0 162:0 163:0.57473356 164:0.057356305 165:0.025971573 166:0.23313637 167:0.78188378 168:0.00054055278 169:0.00054055278 170:0 171:0 172:0.93880886 173:0.080938153 174:0.24068585 175:0.18663603 176:0.1389603 177:0 178:0.00083646225 179:0 180:0 181:0.99862349 182:0 183:0.017739745 184:0.0011339564 185:0.047580741 186:0.0012273818 187:0.010508767 188:0 189:0 190:0.98732668 191:0.055651359 192:0.074346907 193:0.045865353 194:0.081665173 195:0.0047856136 196:0.087914445 197:0 198:0 199:0.97744411 200:0.028621644 201:0.015063555 202:0.00033833997 203:0.04798644 204:0.061689992 205:0.19348109 206:0 207:0 208:0.89828819 209:0 210:0.00039089305 211:0.035204511 212:0.34268689 213:0.26615864 214:0.059607513 215:0 216:0 217:0.057608604 218:0.25346681 219:0.38879269 220:0.58984709 221:0.58983272 222:0.27376726 223:0.10241979 224:0 
0.5540996809400999 0.2560386635850198 0.5245589350262562 0.7998611971846272 0.4392686118950521 0.4341915821972614 0.7241146261028139 0.1264991170104708 0.4386350613506246 0.4166337557166244 0.5778344334189726 0.3768675498368586 0.6548376705032214 0.6342225733267154 0.4065655781037245 0.4567378112275661 0:0 1:0 2:0 3:0 4:0 5:0 6:0 7:0 8:0 9:0 10:0.003449128 11:0 12:0 13:0.54082203 14:0.84109038 15:0 16:0 17:0 18:0 19:0.99978846 20:0 21:0 22:0.0026023709 23:0.020215377 24:0 25:0.00014483879 26:0 27:0 28:0.99999303 29:0 30:0 31:0 32:0 33:0 34:0 35:0 36:0 37:0.98807293 38:0 39:0 40:0 41:0 42:0 43:0 44:0 45:0 46:0.0078105568 47:0 48:0 49:0.73840106 50:0.67427868 51:0 52:0 53:0 54:0 55:0.0014273628 56:0 57:0 58:0.70602304 59:0.70817435 60:0 61:0 62:0 63:0 64:0.93344331 65:0 66:0.018777054 67:0.18793187 68:0.30449706 69:0.0026421356 70:0.016693883 71:0 72:0 73:0.99952722 74:0 75:0 76:0.0037824977 77:0.03042024 78:0 79:0.00010853478 80:0 81:0 82:0.99999332 83:0 84:0 85:0 86:0 87:0 88:0 89:0 90:0 91:0.0029259953 92:0 93:0 94:0.76437277 95:0.64475507 96:0 97:0 98:0 99:0 100:0.0030165466 101:0 102:0 103:0.74264419 104:0.66966838 105:0 106:0 107:0 108:0 109:0.90118754 110:0 111:0 112:0.32715085 113:0.28428444 114:0 115:0 116:0 117:0 118:0.99999702 119:0 120:0 121:0 122:0 123:0 124:0 125:0 126:0 127:0.99976599 128:0 129:0 130:0.0020763206 131:0.02140698 132:0 133:0 134:0 135:0 136:0.040479898 137:0 138:0 139:0.73417145 140:0.6694479 141:0.10545407 142:0.0072837248 143:0 144:0 145:0.0021729849 146:0 147:0 148:0.74518174 149:0.66683167 150:0 151:0 152:0 153:0 154:0 155:0 156:0 157:0 158:0 159:0 160:0 161:0 162:0 163:0.99999171 164:0 165:0 166:0 167:0 168:0 169:0 170:0 171:0 172:0.99999702 173:0 174:0 175:0 176:0 177:0 178:0 179:0 180:0 181:0.18936221 182:0 183:0 184:0.69252425 185:0.52984422 186:0.45019558 187:0.032515995 188:0 189:0 190:0 191:0 192:0 193:0 194:0 195:0 196:0 197:0 198:0 199:0 200:0 201:0 202:0 203:0 204:0 205:0 206:0 207:0 208:0 209:0 210:0 211:0 212:0 213:0 214:0 215:0 216:0 217:0.99999064 218:0 219:0 220:0 221:0 222:0 223:0 224:0 
0.5408652020714816 0.2460671510296025 0.5705709470816466 0.7133871087041116 0.4056106203811634 0.6119437825830579 0.7392624530910118 0.1350274761748013 0.5101207941694823 0.5154119028382719 0.6414579267243964 0.3642886059619775 0.7563022634496619 0.7408018914546447 0.3701177841803625 0.4197275199316471 0:0 1:0.23722936 2:0 3:6.6083999e-07 4:0 5:0.49790016 6:0 7:0.83342254 8:0 9:0 10:0.91410512 11:0 12:0.19410388 13:0.27297845 14:0.20399415 15:0.0030292491 16:0.1026556 17:0 18:0 19:0.81483203 20:0 21:0.25782272 22:0.2121657 23:0.13251409 24:0.13191946 25:0.43535474 26:0 27:0 28:0.97236019 29:9.9344053e-09 30:0.03474069 31:0.00070474134 32:0.016484795 33:0.009625705 34:0.23001528 35:0 36:0 37:0.99998879 38:0 39:0.0004041311 40:0 41:0.00096545002 42:0 43:0.0004041311 44:0 45:0 46:0.87731552 47:0 48:0.06439399 49:0.42685145 50:0.20941123 51:0 52:0.0049589477 53:0 54:0 55:0.0045653945 56:0.033347938 57:0.29159963 58:0.88540345 59:0.35364425 60:0.0095593771 61:0.068532676 62:0 63:0 64:0.72123587 65:0.064591229 66:0.43172532 67:0.39603564 68:0.295964 69:0.005029744 70:0.21151538 71:0 72:0 73:0.99994987 74:0.00051732518 75:0.00051737903 76:0.00095587032 77:0.0026434646 78:0.00051731168 79:0.0064447639 80:0 81:0 82:0.8711713 83:0.37627351 84:0.21916941 85:0.027000625 86:0.17588791 87:0.097195484 88:0.10120692 89:0 90:0 91:0.99910241 92:4.0393846e-08 93:2.0196924e-07 94:0.0015510025 95:0.039982319 96:4.0393846e-08 97:0.0066091456 98:0 99:0 100:0.82163048 101:0.033703357 102:0.20354211 103:0.44886157 104:0.21846677 105:0.099613465 106:0.15227753 107:0 108:0 109:0.87366819 110:0.018850038 111:0.13287993 112:0.43029484 113:0.17153172 114:0.0055938591 115:0.063712001 116:0 117:0 118:0.98454797 119:0.042900197 120:0.11568832 121:0.028637789 122:0.11976028 123:0.0079039708 124:0.012027616 125:0 126:0 127:0.59692246 128:0.12372206 129:0.48696515 130:0.18893802 131:0.58966851 132:0.060265996 133:0.064360164 134:0 135:0 136:0.99819791 137:1.7319325e-08 138:8.6596629e-08 139:0 140:0.059364125 141:0.00066490623 142:0.0034986143 143:0 144:0 145:0.9999736 146:0.0030851173 147:2.3390854e-08 148:1.0525883e-07 149:9.3563408e-08 150:4.6781707e-08 151:3.5086281e-08 152:0 153:0 154:0.99728841 155:0.019492876 156:0.018079594 157:0.043442149 158:0.020578552 159:0.032249384 160:0.036653731 161:0 162:0 163:0.96836537 164:4.8825832e-09 165:0.1366632 166:0.047062829 167:0.19737647 168:0.036204115 169:0.032746911 170:0 171:0 172:0.48385242 173:0.56933272 174:0.63008142 175:0.05253794 176:0.20433469 177:0.0076404857 178:0.010212139 179:0 180:0 181:0.72836101 182:0.15078017 183:0.18036428 184:0 185:0.47606701 186:0.068078771 187:0.42762187 188:0 189:0 190:0.97793305 191:0.0055826115 192:0.041621145 193:1.9525004e-08 194:0.1991052 195:0.041679442 196:0.021615051 197:0 198:0 199:0.97811484 200:0.0018242368 201:3.4578058e-09 202:0 203:0.1229849 204:0.00037547274 205:0.16774075 206:0 207:0 208:0.65192634 209:0.01514615 210:0.088355742 211:0.14467271 212:0.6248371 213:0.38995582 214:0.059156489 215:0 216:0 217:0.26717514 218:0.20621447 219:0.49599972 220:0.50271946 221:0.58425397 222:0.19144627 223:0.096489124 224:0 
0.4639812489265502 0.2119775841120785 0.4422436629717232 0.6691646412716852 0.4760369968558909 0.3615836665580034 0.6023081976814871 0.1038285891432827 0.3623746208232029 0.3446180424138379 0.4836616847646046 0.3142986823525238 0.5461085027288529 0.5425584819810915 0.3379562863548193 0.3808828820152237 0:0 1:0 2:0 3:0 4:0 5:0 6:0 7:0 8:0 9:0 10:0.0082986932 11:0 12:0 13:0.952775 14:0.30290309 15:0 16:0 17:0 18:0 19:0.93804395 20:0 21:0 22:0.15928987 23:0.29278207 24:0.094644569 25:0.0038733943 26:0 27:0 28:0.92604589 29:0 30:0 31:0.15536791 32:0.34392327 33:0.0035468701 34:0 35:0 36:0 37:0.99999648 38:0 39:0 40:0 41:0 42:0 43:0 44:0 45:0 46:0.038465932 47:0 48:0 49:0.96929306 50:0.24178652 51:0 52:0 53:0 54:0 55:0.0016081101 56:0 57:0 58:0.89312851 59:0.44978836 60:0 61:0 62:0 63:0 64:0.82270449 65:0 66:0 67:0.41331461 68:0.38461778 69:0.013925302 70:0.064793155 71:0 72:0 73:0.87890011 74:0 75:0 76:0.20827389 77:0.42890513 78:0.013620556 79:0.0026585027 80:0 81:0 82:0.92145973 83:0 84:0 85:0.14218861 86:0.36151159 87:0 88:0 89:0 90:0 91:0.76599687 92:0 93:0 94:0.4811388 95:0.42611468 96:0 97:0.013179226 98:0 99:0 100:0.054373123 101:0 102:0 103:0.81481099 104:0.57706583 105:0 106:0.010805218 107:0 108:0 109:0.49089456 110:0 111:0 112:0.69689316 113:0.52252382 114:0.018034564 115:0 116:0 117:0 118:0.99504465 119:0 120:0 121:0.062199004 122:0.077029698 123:0.0089640915 124:0 125:0 126:0 127:0.80236751 128:0.0070728962 129:0.015906157 130:0.35081905 131:0.48245138 132:0 133:0.0080934083 134:0 135:0 136:0.99999791 137:0 138:0 139:0 140:0 141:0 142:0 143:0 144:0 145:0.20812193 146:0 147:0 148:0.72683924 149:0.65420824 150:0 151:0.019779649 152:0 153:0 154:0.0024533153 155:0 156:0 157:0.75697577 158:0.65341246 159:0 160:0 161:0 162:0 163:0.99999464 164:0 165:0 166:0 167:0 168:0 169:0 170:0 171:0 172:0.99999827 173:0 174:0 175:0 176:0 177:0 178:0 179:0 180:0 181:0.9999665 182:0 183:0 184:0 185:0 186:0 187:0 188:0 189:0 190:0.999942 191:0 192:0 193:0 194:0 195:0 196:0 197:0 198:0 199:0 200:0 201:0 202:0 203:0 204:0 205:0 206:0 207:0 208:0 209:0 210:0 211:0 212:0 213:0 214:0 215:0 216:0 217:0.99996388 218:0 219:0 220:0 221:0 222:0 223:0 224:0 
0.6296933001622281 0.2863724650633387 0.5978227678192645 0.9935666662821211 0.4840390213926168 0.481194172698017 0.8031818013935691 0.1404536204187908 0.4846960661612864 0.4611989615221982 0.6477247109322685 0.4192346005632806 0.7401479468509022 0.7160642394019736 0.4521961538454999 0.5415622367685303 0:0 1:0 2:0 3:0 4:0 5:0 6:0 7:0 8:0 9:0 10:0 11:0 12:0 13:0 14:0 15:0 16:0 17:0 18:0 19:0.99620616 20:0 21:0 22:0 23:0 24:0 25:0.064747326 26:0 27:0 28:0.99985564 29:0 30:0 31:0 32:0.0029025902 33:0 34:0 35:0 36:0 37:0.99979633 38:0 39:0 40:0 41:0 42:0 43:0 44:0 45:0 46:0 47:0 48:0 49:0 50:0 51:0 52:0 53:0 54:0 55:0.97923213 56:0 57:0.16027144 58:0 59:0 60:0 61:0 62:0 63:0 64:0.95085996 65:0.18050075 66:0.069908917 67:0.12239121 68:0 69:0.09558098 70:0.18138029 71:0 72:0 73:0.76116633 74:0.0013936301 75:0.032602482 76:0.43722373 77:0.46379852 78:0.03930176 79:0.10831666 80:0 81:0 82:0.99999535 83:0 84:0 85:0 86:0.00019286014 87:0 88:0 89:0 90:0 91:0.92668581 92:0 93:0 94:0 95:0 96:0.075010821 97:0.35908985 98:0 99:0 100:0.23517911 101:0 102:0.081849121 103:0.89304101 104:0.32705307 105:0.11957587 106:0.13738038 107:0 108:0 109:0.0094735753 110:0.0051334938 111:0.0072280406 112:0.71041071 113:0.70334083 114:0.013574042 115:0.016112611 116:0 117:0 118:0.32749048 119:0.07815861 120:0.23532751 121:0.64079541 122:0.62593573 123:0.12754968 124:0.11209845 125:0 126:0 127:0.58463472 128:0.0065250574 129:0.025559185 130:0.5417549 131:0.60048491 132:0.024113184 133:0.053277131 134:0 135:0 136:0.8639093 137:0.11826058 138:0.057578422 139:0.45701444 140:0.16357742 141:0.024124457 142:0 143:0 144:0 145:0.0484185 146:0.0027690581 147:0.0072970083 148:0.48984033 149:0.87033266 150:0.0079432456 151:0.009800694 152:0 153:0 154:0.01200428 155:0.002867972 156:0.0048432951 157:0.63049185 158:0.77597094 159:0.0071229371 160:0.010739981 161:0 162:0 163:0.80787408 164:0.028554138 165:0.055253524 166:0.44867361 167:0.37669468 168:0.0068259872 169:0.0144794 170:0 171:0 172:0.98479575 173:0.064933971 174:0.02389268 175:0.076134242 176:0.1071163 177:0.052376956 178:0.073199838 179:0 180:0 181:0.99999666 182:0 183:0 184:0 185:0 186:0 187:0 188:0 189:0 190:0.73026037 191:0.031818058 192:0.004139632 193:0.18848909 194:0.6422677 195:0.066732496 196:0.11484655 197:0 198:0 199:0.010693001 200:0.0044963425 201:0.0052147624 202:0.58716881 203:0.8093372 204:0.0042776642 205:0.0039202268 206:0 207:0 208:0.81718022 209:0.0015304077 210:0.0036154655 211:0.48328912 212:0.31393528 213:0.0026889348 214:0.0061318465 215:0 216:0 217:0.9999966 218:0 219:0 220:0 221:0 222:0 223:0.00037816368 224:0 
0.466724030168794 0.5928210958827905 0.7572041178340436 0.3540745510406085 0.6022355046906848 1 0.4553261770721952 0.6944873355112144 1 1 0.8401970554049514 0.4303960864782843 0.7729646520320934 0.6642816587000286 0.8354380891052812 0.7265731415780721 0:0 1:0.99926126 2:0 3:0 4:0 5:0 6:0 7:0 8:0 9:0 10:0.99948508 11:0 12:0 13:0 14:0.031948436 15:0 16:0 17:0 18:0 19:0.99741459 20:0 21:0 22:0 23:0.071552254 24:0.00049928727 25:0.0060077799 26:0 27:0 28:0.99758649 29:0 30:0 31:0 32:0.061350137 33:0.03217924 34:0.0038547367 35:0 36:0 37:0.99999624 38:0 39:0 40:0 41:7.8033903e-05 42:0 43:0 44:0 45:0 46:0.99999481 47:0 48:0.00019792527 49:0 50:0 51:0 52:0 53:0 54:0 55:0.19441739 56:0.053131886 57:0.18907486 58:0.92385715 59:0.26475549 60:0 61:0 62:0 63:0 64:0.9257372 65:0.027633119 66:0 67:0.31656817 68:0.20439938 69:0.013276552 70:0.0083094621 71:0 72:0 73:0.97124833 74:0.016381551 75:0 76:0.036717564 77:0.19305308 78:0.13336092 79:0 80:0 81:0 82:0.99681664 83:0.078022771 84:0.0046497029 85:0.0030553271 86:0.015257801 87:0 88:0 89:0 90:0 91:0.99992841 92:0 93:0 94:0 95:0.011549233 96:0 97:0 98:0 99:0 100:0.99915814 101:7.959608e-05 102:0.00022667092 103:0.019719861 104:0.035313923 105:0.006269237 106:0 107:0 108:0 109:0.95845407 110:0.020950528 111:0.031446617 112:0.27034125 113:0.081231751 114:0.015380112 115:0.003729627 116:0 117:0 118:0.95454353 119:0.022793831 120:0 121:0.24540374 122:0.16098781 123:0.038750075 124:0.026066693 125:0 126:0 127:0.99929035 128:0.027246429 129:0.018318871 130:0.018296633 131:6.0598879e-05 132:0 133:0.00048593286 134:0 135:0 136:0.99884742 137:0 138:0.013746705 139:0 140:0.045886397 141:0 142:0 143:0 144:0 145:0.99998909 146:0 147:0 148:0 149:0.00022575691 150:0 151:0 152:0 153:0 154:0.99962485 155:5.3079133e-05 156:0 157:0.013150309 158:0.023549305 159:0.0041806791 160:0 161:0 162:0 163:0.99734324 164:0 165:0 166:0.053643364 167:0.034246895 168:0.026821682 169:0.023033312 170:0 171:0 172:0.95322728 173:0.049983487 174:0.23948748 175:0.14528368 176:0.083564013 177:0.047999829 178:0.033174112 179:0 180:0 181:0.99997067 182:0 183:0 184:0 185:0.0064663454 186:0 187:0 188:0 189:0 190:0.99976724 191:0 192:0.0081531825 193:0 194:0.019717699 195:0 196:0 197:0 198:0 199:0.99993342 200:0 201:0 202:0 203:0.005636482 204:0.00033747224 205:0.009649978 206:0 207:0 208:0.94559675 209:0 210:0 211:0.0068591745 212:0.25302655 213:0.2041277 214:0.0099703204 215:0 216:0 217:0.19660367 218:0.12535086 219:0.42854449 220:0.57261354 221:0.61750412 222:0.22119273 223:0.062026802 224:0 
0.6214922859930659 0.2861293430266074 0.5849420596770787 0.8901144802209308 0.4806785874195071 0.483769083935385 0.8106630118652366 0.143074908405451 0.4898136916362571 0.4653413154740502 0.6453366774359028 0.4210054184347071 0.7317462353859167 0.7076930166389198 0.4783475990387949 0.5090443124828258 0:0 1:0 2:0 3:0 4:0 5:0.99998498 6:0 7:0 8:0 9:0 10:0 11:0 12:0 13:0 14:0.9999851 15:0 16:0.00056398031 17:0 18:0 19:0 20:0 21:0 22:0 23:0.99998528 24:0 25:3.9641965e-09 26:0 27:0 28:0 29:0 30:0 31:0 32:0.99998456 33:0 34:0 35:0 36:0 37:0 38:0 39:0 40:0 41:0.99998498 42:0 43:0 44:0 45:0 46:0 47:0 48:0 49:0.24056347 50:0.97058225 51:0 52:0 53:0 54:0 55:0 56:0 57:0 58:0.61203218 59:0.77358359 60:0.089603677 61:0.13760282 62:0 63:0 64:0 65:0 66:0 67:1.4970464e-08 68:0.99999768 69:1.8713082e-09 70:8.8496054e-05 71:0 72:0 73:0 74:0 75:0 76:1.1096065e-08 77:0.99999487 78:0 79:0 80:0 81:0 82:0 83:0 84:0 85:0 86:0.99630111 87:0 88:0 89:0 90:0 91:0 92:0 93:0 94:0.6998564 95:0.7142722 96:0 97:9.8475903e-05 98:0 99:0 100:0 101:0 102:0 103:0.66640168 104:0.74229115 105:0.04373784 106:0.054673217 107:0 108:0 109:0 110:0 111:0 112:0.1488374 113:0.98825401 114:0.02179032 115:0.026858114 116:0 117:0 118:0 119:0 120:0 121:1.4826039e-08 122:0.99999797 123:0 124:0 125:0 126:0 127:0 128:0 129:0 130:1.4066203e-08 131:0.99999475 132:0 133:0 134:0 135:0 136:0.05451259 137:0.011269308 138:0.065223441 139:0.48111713 140:0.87128079 141:0.045086458 142:0.0001091749 143:0 144:0 145:2.4216849e-09 146:0 147:0 148:0.75388002 149:0.6569984 150:0 151:0.00029485466 152:0 153:0 154:0 155:0 156:0 157:1.5044927e-08 158:0.99999392 159:0 160:0.00096143031 161:0 162:0 163:0 164:0 165:0 166:1.5045519e-08 167:0.99999785 168:0 169:0 170:0 171:0 172:0 173:0 174:0 175:1.2798384e-08 176:0.9999972 177:0 178:0 179:0 180:0 181:0.04723867 182:0.019917542 183:0.0086370446 184:0.066153727 185:0.99451178 186:0.062086731 187:1.6732833e-09 188:0 189:0 190:3.4221067e-08 191:0 192:0 193:0.95513099 194:0.29574344 195:0 196:0.0026275278 197:0 198:0 199:0 200:0 201:0 202:0 203:0.95418948 204:0 205:0 206:0 207:0 208:0 209:0 210:0 211:1.8048564e-08 212:0.99999392 213:0 214:0 215:0 216:0 217:0 218:0 219:0 220:1.4894007e-08 221:0.99999499 222:0 223:0 224:0 
0.6306857324567762 0.2912597670186408 0.5950667290705132 1 0.4886340078432669 0.4928434136178141 0.8237368123352394 0.1434699680096165 0.5003386032456637 0.4743149854337657 0.6564163668410482 0.4283907610461563 0.7438966211583846 0.7193822521766862 1 0.5174301315031343 0:0 1:0 2:0 3:0 4:0 5:0 6:0 7:0 8:0 9:0 10:0 11:0 12:0 13:0 14:0 15:0 16:0 17:0 18:0 19:0 20:0 21:0 22:0 23:0 24:0 25:0 26:0 27:0 28:0 29:0 30:0 31:0 32:0 33:0 34:0 35:0 36:0 37:0 38:0 39:0 40:0 41:0 42:0 43:0 44:0 45:0 46:0 47:0 48:0 49:0 50:0 51:0 52:0 53:0 54:0 55:0 56:0 57:0 58:0 59:0 60:0 61:0 62:0 63:0 64:0 65:0 66:0 67:0 68:0 69:0 70:0 71:0 72:0 73:0 74:0 75:0 76:0 77:0 78:0 79:0 80:0 81:0 82:0 83:0 84:0 85:0 86:0 87:0 88:0 89:0 90:0 91:0 92:0 93:0 94:0 95:0 96:0 97:0 98:0 99:0 100:0 101:0 102:0 103:0 104:0 105:0 106:0 107:0 108:0 109:0 110:0 111:0 112:0 113:0 114:0 115:0 116:0 117:0 118:0 119:0 120:0 121:0 122:0 123:0 124:0 125:0 126:0 127:0 128:0 129:0 130:0 131:0 132:0 133:0 134:0 135:0 136:0 137:0 138:0 139:0 140:0 141:0 142:0 143:0 144:0 145:0 146:0 147:0 148:0 149:0 150:0 151:0 152:0 153:0 154:0 155:0 156:0 157:0 158:0 159:0 160:0 161:0 162:0 163:0 164:0 165:0 166:0 167:0 168:0 169:0 170:0 171:0 172:0 173:0 174:0 175:0 176:0 177:0 178:0 179:0 180:0 181:0 182:0 183:0 184:0 185:0 186:0 187:0 188:0 189:0 190:0 191:0 192:0 193:0 194:0 195:0 196:0 197:0 198:0 199:0 200:0 201:0 202:0 203:0 204:0 205:0 206:0 207:0 208:0 209:0 210:0 211:0 212:0 213:0 214:0 215:0 216:0 217:0 218:0 219:0 220:0 221:0 222:0 223:0 224:0 
0.3278871638882371 0.1495712594198377 0.3102469579312153 0.4736946232419149 0.2661275001265483 0.2577956178040243 0.4240802220773515 0.07374079594187281 0.2577392873976659 0.2438270188787177 0.3402601858590982 0.2236189936585368 0.3856257516787123 0.3827879013089313 0.2393725818740078 0.2731192315960852 0:0 1:0 2:0 3:0 4:0 5:0 6:0 7:0 8:0 9:0 10:0.95794588 11:0 12:0 13:0 14:0.28653771 15:0.011580891 16:0 17:0 18:0 19:0.92293787 20:0 21:0.021532029 22:0.22007746 23:0.31307909 24:0.035501476 25:0.001982613 26:0 27:0 28:0.99999678 29:0 30:0 31:0 32:0 33:0 34:0 35:0 36:0 37:0.99989682 38:0 39:0 40:0 41:0 42:0 43:0 44:0 45:0 46:0.022030886 47:0 48:0 49:0.44732603 50:0.89406532 51:0 52:0 53:0 54:0 55:0.07101471 56:0 57:0 58:0.68667352 59:0.72348213 60:0.00094348332 61:0 62:0 63:0 64:0.92839968 65:0 66:0.010681214 67:0.23562822 68:0.28598505 69:0.0066203866 70:0.024557572 71:0 72:0 73:0.81710327 74:0 75:0.014863942 76:0.28516778 77:0.50019455 78:0.024507297 79:0.0013686329 80:0 81:0 82:0.99999702 83:0 84:0 85:0 86:0 87:0 88:0 89:0 90:0 91:0.0022274866 92:0 93:0 94:0.60460806 95:0.79651499 96:0 97:0 98:0 99:0 100:0.0010897772 101:0 102:0 103:0.64472741 104:0.76440877 105:0 106:0 107:0 108:0 109:0.81806308 110:0 111:0 112:0.38349488 113:0.42860195 114:0 115:0 116:0 117:0 118:0.99999738 119:0 120:0 121:0 122:0 123:0 124:0 125:0 126:0 127:0.80957836 128:0 129:0 130:0.29100549 131:0.5097993 132:0 133:0 134:0 135:0 136:0.36880428 137:0 138:0 139:0.50016779 140:0.77142131 141:0.10717249 142:0.085039712 143:0 144:0 145:8.8028421e-05 146:0 147:0 148:0.59253871 149:0.80553675 150:0 151:0 152:0 153:0 154:0.81244022 155:0 156:0 157:0.57665098 158:0.085795291 159:0 160:0 161:0 162:0 163:0.99999756 164:0 165:0 166:0 167:0 168:0 169:0 170:0 171:0 172:0.99999738 173:0 174:0 175:0 176:0 177:0 178:0.00094256666 179:0 180:0 181:0.87275708 182:0 183:0 184:0.0070916968 185:0.37881362 186:0.23443782 187:0.19942063 188:0 189:0 190:0.001073112 191:0 192:0 193:0.34058544 194:0.94015783 195:0 196:0 197:0 198:0 199:0 200:0 201:0 202:0 203:0 204:0 205:0 206:0 207:0 208:0.9999674 209:0 210:0 211:0 212:0 213:0 214:0 215:0 216:0 217:0.99999726 218:0 219:0 220:0 221:0 222:0 223:0 224:0 
0.2216503410225519 0.04125928780007802 0.06822823275813714 0.1777664939929946 0.08550269684972611 0.4554802161469739 0.132337088720426 0.08126334103947652 0.1591856637680814 0.2578725812899211 0.09397987484380041 0.03073008718558801 0.1276321216553315 0.125178974118439 0.06247813054602895 0.07825685731723335 0:0 1:0.047904525 2:0 3:0.36563176 4:0.64649314 5:0.46265918 6:0.4612534 7:0.13872081 8:0 9:0 10:0.90970743 11:0 12:0.011616325 13:0.040499952 14:0.34049857 15:0.15851757 16:0.17200208 17:0 18:0 19:0.98858958 20:7.0151335e-05 21:0.0001355671 22:8.7962173e-05 23:0.11975047 24:0.043813933 25:0.080163933 26:0 27:0 28:0.99943161 29:0 30:0 31:0 32:3.9553732e-05 33:0 34:0.033655167 35:0 36:0 37:0.69756442 38:0.0095045874 39:0.17572418 40:0.34450993 41:0.57398933 42:0.10730871 43:0.15087566 44:0 45:0 46:0.70669359 47:0.056503627 48:0.33247128 49:0.42370841 50:0.43440557 51:0.038543694 52:0.13085783 53:0 54:0 55:0.004175039 56:0 57:0.083411805 58:0.81958997 59:0.48137626 60:0.29926488 61:0.00082621851 62:0 63:0 64:0.99988645 65:0 66:0.00049153139 67:0.002877604 68:0.014566754 69:6.5594948e-05 70:0.00030800301 71:0 72:0 73:0.35763168 74:0 75:0 76:0.61483312 77:0.55488449 78:0.40842471 79:0.13898164 80:0 81:0 82:0.99985343 83:0.0079831174 84:0 85:0 86:0 87:0 88:0.015049936 89:0 90:0 91:0.99051058 92:0.11448764 93:0.055229325 94:0.043921269 95:0.027337546 96:0 97:0.0071249916 98:0 99:0 100:0.6089524 101:0 102:0.0025542553 103:0.4194532 104:0.66772091 105:0.067005031 106:0.053598914 107:0 108:0 109:0.91940159 110:0 111:0.015293642 112:0.17800866 113:0.32439208 114:0.067099869 115:0.11420333 116:0 117:0 118:0.99999565 119:3.4183453e-05 120:0.00032101767 121:0.00010255037 122:0.0022785699 123:3.4183453e-05 124:0.00025785586 125:0 126:0 127:0.97705507 128:0.055659574 129:0.1613533 130:0.063398249 131:0.093780935 132:0.055092238 133:0.019357789 134:0 135:0 136:0.99963331 137:0.00018846271 138:0.027012413 139:0.00052776549 140:0 141:0 142:0 143:0 144:0 145:0.97285205 146:0.032970652 147:0.067279629 148:0.18300249 149:0.11998936 150:0 151:0.0071611898 152:0 153:0 154:0.96070081 155:0 156:0.00089909008 157:0.14537343 158:0.23452485 159:0.023585565 160:0.018866653 161:0 162:0 163:0.99587017 164:0 165:0 166:0.031196194 167:0.061037537 168:0.020490328 169:0.055836871 170:0 171:0 172:0.96944416 173:0.15766624 174:0.18387131 175:0.020472333 176:0.032959655 177:0 178:0.00015418723 179:0 180:0 181:0.49939498 182:0.10482423 183:0.33592829 184:0.48533455 185:0.57991004 186:0.20899323 187:0.10600884 188:0 189:0 190:0.99999839 191:0 192:0 193:0 194:0 195:0 196:0 197:0 198:0 199:0.99997562 200:0 201:0 202:0 203:0.0063017644 204:0 205:0 206:0 207:0 208:0.8345297 209:0 210:0.00042492087 211:0 212:0.29597244 213:0.4162043 214:0.20668718 215:0 216:0 217:0.12745304 218:0.32176903 219:0.49563864 220:0.48937312 221:0.49208596 222:0.35890993 223:0.15524496 224:0 
0.5511816878891775 0.3919999038810841 0.7125283689101601 0.6621309833491311 0.463590326073973 0.6696144192779344 0.7287637607860529 0.2804331762557285 0.6505964011923812 0.5549856603314832 0.6247996406389875 0.4644108606714217 0.6418246386921352 0.6285067780535928 0.4966471035196513 0.4702273688267472 0:0 1:0.32696801 2:0 3:0 4:0.093071371 5:0.89532882 6:0 7:0.287523 8:0 9:0 10:0.98313725 11:0.00011287121 12:0 13:0.048499167 14:0.17283881 15:0 16:0.034788087 17:0 18:0 19:0.9981752 20:0 21:0 22:0.0023407622 23:0.060312979 24:0 25:0 26:0 27:0 28:0.99999613 29:0 30:0 31:0 32:0 33:0 34:0 35:0 36:0 37:0.99693871 38:0 39:0 40:0 41:0 42:0 43:0 44:0 45:0 46:0.69270909 47:0 48:0 49:0.53118712 50:0.48579609 51:0.022194372 52:0.038703047 53:0 54:0 55:0.9705655 56:0.035032518 57:0.0047858637 58:0.17400385 59:0.16251281 60:0.0021057795 61:0.0075159506 62:0 63:0 64:0.96664977 65:5.2630756e-05 66:0.00021052307 67:0.1278192 68:0.22191863 69:0 70:0 71:0 72:0 73:0.99923676 74:0 75:0 76:0.0017951858 77:0.038986366 78:0 79:0 80:0 81:0 82:0.9999944 83:0 84:0 85:0 86:0 87:0 88:0 89:0 90:0 91:0.99411494 92:0 93:0 94:0.080380864 95:0.06337443 96:0.020563481 97:0.028845448 98:0 99:0 100:0.9650377 101:0 102:0 103:0.20100744 104:0.16821314 105:0 106:0 107:0 108:0 109:0.99302906 110:0.013925498 111:0.0035343906 112:0.078180715 113:0.087016694 114:0 115:0 116:0 117:0 118:0.95642388 119:6.6598135e-05 120:0.0021587319 121:0.026987348 122:0.29071268 123:0 124:0 125:0 126:0 127:0.99914533 128:0 129:0 130:0.0024961685 131:0.041118946 132:0 133:0 134:0 135:0 136:0.99999744 137:0 138:0 139:0 140:0 141:0 142:0 143:0 144:0 145:0.99999654 146:0 147:0 148:0.0020490992 149:0.00022251466 150:0 151:0 152:0 153:0 154:0.99954063 155:0 156:0 157:0.021389371 158:0.021389371 159:0 160:0 161:0 162:0 163:0.9999752 164:0 165:0 166:0 167:0 168:0 169:0 170:0 171:0 172:0.0061750622 173:0 174:0 175:0.99495679 176:0.097090937 177:0 178:0 179:0 180:0 181:0.99999714 182:0 183:0 184:0 185:0 186:0 187:0 188:0 189:0 190:0.99999863 191:0 192:0 193:0 194:0 195:0 196:0 197:0 198:0 199:0.99999845 200:0 201:0 202:0 203:0 204:0 205:0 206:0 207:0 208:0 209:0 210:0 211:0 212:0 213:0 214:0 215:0 216:0 217:0 218:0 219:0 220:0 221:0 222:0 223:0 224:0 
0.7856916378708851 1 1 0.7302665244018069 1 1 0.7495508114960227 0.76287118062186 1 1 1 1 1 0.9683605831114732 1 1 0:0 1:0.98384315 2:0.0038850221 3:0.017132299 4:0.028858878 5:0.11620284 6:0.12636927 7:0.037849747 8:0 9:0 10:0.97978556 11:0 12:0 13:0.0082111545 14:0.072769187 15:0.15037778 16:0.10970864 17:0 18:0 19:0.98808956 20:0 21:0 22:0.029751485 23:0.033170275 24:0.021590415 25:0.1456683 26:0 27:0 28:0.88636965 29:0 30:0 31:0.021292925 32:0.43112424 33:0.12743655 34:0.10852666 35:0 36:0 37:0.99999636 38:0 39:0 40:0 41:0 42:0 43:0 44:0 45:0 46:0.677975 47:0.12418561 48:0.25643349 49:0.37055588 50:0.43448111 51:0.32717496 52:0.16133159 53:0 54:0 55:0.96086115 56:0.0064550326 57:0 58:0.022755338 59:0.1511472 60:0.2217029 61:0.06463854 62:0 63:0 64:0.99472487 65:0 66:0 67:0 68:0.049614877 69:0.028230255 70:0.085175969 71:0 72:0 73:0.93875349 74:0 75:0 76:0.061855689 77:0.33852819 78:0.017524701 79:0 80:0 81:0 82:0.53960073 83:0.17507195 84:0.22970189 85:0.38984227 86:0.6692692 87:0.15970407 88:0.00029365564 89:0 90:0 91:0.92221969 92:0.032042697 93:0.19951391 94:0.27546418 95:0.17874329 96:0.028954035 97:0 98:0 99:0 100:0.63657486 101:0 102:0 103:0.049957085 104:0.75986379 105:0.12101746 106:0.012764095 107:0 108:0 109:0.99954325 110:0 111:0.00077879732 112:0.00050204818 113:0.026480202 114:0.014084782 115:0.0016636488 116:0 117:0 118:0.99999601 119:0 120:0 121:0 122:0 123:0 124:0 125:0 126:0 127:0.9854182 128:0.048995502 129:0.058387987 130:0.0490258 131:0.14398316 132:0 133:0 134:0 135:0 136:0.99248135 137:0.10858201 138:0.03058653 139:0.038577501 140:0.027592055 141:0 142:0 143:0 144:0 145:0.99878073 146:0 147:0 148:0 149:0.036310703 150:0 151:0.033240862 152:0 153:0 154:0.970869 155:0.013881639 156:0 157:0.15984836 158:0.17793205 159:0 160:0 161:0 162:0 163:0.98190284 164:0.025438953 165:0.054460272 166:0.06487418 167:0.16446936 168:0.005412064 169:0.03090843 170:0 171:0 172:0.99152029 173:0.086858876 174:0.013262693 175:0.012124483 176:0.081203103 177:0.017697912 178:0.045883965 179:0 180:0 181:0.99821496 182:0.00016977335 183:0.024046484 184:0.0041064913 185:0.050358132 186:0 187:0.02071243 188:0 189:0 190:0.99999571 191:0 192:0 193:0 194:0 195:0 196:0 197:0 198:0 199:0.99374354 200:0.070437171 201:0.019190479 202:0.047104813 203:0.056027696 204:0.011650119 205:0.040519703 206:0 207:0 208:0.99685299 209:0.016397502 210:0.025441464 211:0.050394844 212:0.044091679 213:0.015768891 214:0.025006255 215:0 216:0 217:0.93534422 218:0.078570269 219:0.24257192 220:0.20845163 221:0.12245353 222:0.0054475442 223:0.040370956 224:0 
0.2244746156573632 0.09489994608326383 0.2610036559546031 0.3272664009580919 0.5493029383348668 0.2009332034189408 0.2974913456380075 0.05428269825824011 0.2029674013060402 0.1963784593327266 0.2196716692317795 0.1507567221967655 0.2571746273881912 0.2629621909354247 0.1670497064104789 0.181495133112771 0:0 1:0.00050941971 2:0 3:0 4:0.99997526 5:0 6:0 7:0 8:0 9:0 10:0.28157243 11:0.0064419545 12:0.061151586 13:0.83349746 14:0.42055342 15:0.18711276 16:0.10163836 17:0 18:0 19:0.90909517 20:0.0007741077 21:0.079541549 22:0.29044715 23:0.27630275 24:0.06472113 25:0.048199847 26:0 27:0 28:0.99999887 29:0 30:0 31:0 32:7.0829788e-05 33:0 34:0 35:0 36:0 37:0.99999434 38:0 39:0 40:0 41:0 42:0 43:0 44:0 45:0 46:0.0025818259 47:0 48:0.00027385534 49:0.93593454 50:0.35215282 51:0.00051448622 52:0.00035406576 53:0 54:0 55:0.61871666 56:0.0032846504 57:0.0082982192 58:0.72411853 59:0.30129668 60:0.038872007 61:0.021626199 62:0 63:0 64:0.9596377 65:0.0018010648 66:0.031594001 67:0.22731365 68:0.15209126 69:0.057198983 70:0.0040103504 71:0 72:0 73:0.95843047 74:0.0084802173 75:0.058986545 76:0.22927059 77:0.15143216 78:0.045587376 79:0.016734837 80:0 81:0 82:0.99999869 83:0 84:0 85:0 86:5.4889886e-05 87:0 88:0 89:0 90:0 91:0.67483038 92:0 93:0.0082795769 94:0.66967231 95:0.30019605 96:0.072696529 97:0.025774993 98:0 99:0 100:0.87798244 101:0 102:0.00027803949 103:0.45284364 104:0.15516162 105:0.00064090657 106:0.00028204444 107:0 108:0 109:0.99976921 110:0 111:4.6639081e-05 112:0.019120174 113:0.0096698524 114:0.00013897207 115:0 116:0 117:0 118:0.99124795 119:0.015495686 120:0.0057404102 121:0.073414519 122:0.10689739 123:0.0098448778 124:0.015422466 125:0 126:0 127:0.77510571 128:0.10661982 129:0.072134636 130:0.28506538 131:0.52107733 132:0.11992935 133:0.12427716 134:0 135:0 136:0.99999428 137:0 138:0 139:0 140:0.00011193591 141:0.00011193591 142:0.00079583656 143:0 144:0 145:0.99816954 146:0 147:0.00017122306 148:0.060242828 149:0.004894631 150:8.2224346e-05 151:0.00012450645 152:0 153:0 154:0.99999875 155:0 156:0 157:0 158:0 159:0 160:0 161:0 162:0 163:0.99999762 164:0 165:0 166:0 167:0 168:0 169:0 170:0 171:0 172:0.99999624 173:0 174:0 175:0 176:0 177:0 178:0 179:0 180:0 181:0 182:0 183:0 184:0 185:0 186:0 187:0 188:0 189:0 190:0.99999774 191:0 192:0 193:0 194:0 195:0 196:0 197:0 198:0 199:0.99999857 200:9.5888296e-05 201:0 202:0 203:0 204:0 205:0 206:0 207:0 208:0.99999762 209:0 210:0 211:0 212:0 213:0 214:0 215:0 216:0 217:0 218:0 219:0 220:0 221:0 222:0 223:0 224:0 
0.346890781681636 0.1590649889900515 0.3322183886705637 0.502716975149061 0.3101012620408082 0.2712162515099382 0.4500904355246894 0.07877937401300517 0.2729547186845927 0.2596339557556748 0.3621599337129519 0.236457730985037 0.4093265557704794 0.4045835936405134 0.2543752407570392 0.2853772169436042 0:0 1:0 2:0 3:0 4:0 5:0 6:0 7:0 8:0 9:0 10:0.013775546 11:0 12:0 13:0.88954651 14:0.45648777 15:0 16:0 17:0 18:0 19:0.9832415 20:0 21:0 22:0.025756698 23:0.17887384 24:0.023913745 25:0 26:0 27:0 28:0.99999768 29:0 30:0 31:0 32:0 33:0 34:0 35:0 36:0 37:0.9999876 38:0 39:0 40:0 41:0 42:0 43:0 44:0 45:0 46:0.0041018366 47:0 48:0 49:0.27334803 50:0.96183783 51:0 52:0 53:0 54:0 55:0.00020556342 56:0 57:0 58:0.77295917 59:0.63444793 60:0 61:0 62:0 63:0 64:0.81540912 65:0 66:0 67:0.27391729 68:0.50930327 69:0.026126726 70:0 71:0 72:0 73:0.96100444 74:0 75:0 76:0.039400734 77:0.27325991 78:0.015614506 79:0 80:0 81:0 82:0.99999785 83:0 84:0 85:0 86:0 87:0 88:0 89:0 90:0 91:0.3697626 92:0 93:0 94:0.69077313 95:0.61983097 96:0.019218698 97:0.03922984 98:0 99:0 100:0.0003843451 101:0 102:0 103:0.7796855 104:0.62563324 105:0.011509337 106:0.023144724 107:0 108:0 109:0.61102933 110:0 111:0 112:0.55986524 113:0.55963135 114:0 115:0 116:0 117:0 118:0.99829984 119:0 120:0 121:0.040280081 122:0.042095721 123:0 124:0 125:0 126:0 127:0.95121706 128:0 129:0.038859431 130:0.084533878 131:0.29415467 132:0 133:0 134:0 135:0 136:0.99649984 137:0 138:0 139:0.017357258 140:0.052229803 141:0.038313508 142:0.049854033 143:0 144:0 145:0.031582773 146:0 147:0 148:0.75558597 149:0.64688957 150:0.044339195 151:0.087464236 152:0 153:0 154:0.00068987015 155:0 156:0 157:0.63378114 158:0.77346909 159:0 160:0 161:0 162:0 163:0.99999517 164:0 165:0 166:0 167:0 168:0 169:0 170:0 171:0 172:0.99999833 173:0 174:0 175:0 176:0 177:0 178:0 179:0 180:0 181:0.99998552 182:0 183:0 184:0 185:0 186:0 187:0 188:0 189:0 190:0.34315684 191:0 192:0 193:0 194:0.31415954 195:0.21003856 196:0.85984683 197:0 198:0 199:0 200:0 201:0 202:0 203:0 204:0 205:0 206:0 207:0 208:0.95393962 209:0 210:0 211:0 212:0 213:0 214:0 215:0 216:0 217:0.99998677 218:0 219:0 220:0 221:0 222:0 223:0 224:0 
0.7282255365177636 0.06916469388854116 0.3459441120917604 0.1502533244125867 0.2209552873216543 0.8194857018797969 0.2213988290524478 0.2455453247857093 0.4622241539711062 0.6026802128695953 0.4123106512292594 0.3317777136836143 0.3825336024087405 0.3386699777355445 0.1348023106523042 0.1071770863190721 0:0 1:0.06428349 2:0 3:0.00073700765 4:0.49212632 5:0.80459774 6:0.32601827 7:0.00051548157 8:0 9:0 10:0.75429952 11:0 12:0.00017515238 13:0.17555606 14:0.56721288 15:0.10781879 16:0.25855616 17:0 18:0 19:0.99157524 20:0 21:0.020503599 22:0 23:0.077638753 24:0.046643961 25:0.090281934 26:0 27:0 28:0.93118811 29:0 30:0.019703519 31:0.030517738 32:0.19448574 33:0.074827038 34:0.29688355 35:0 36:0 37:0.98610628 38:0.0012991751 39:0.049829956 40:0.0082452493 41:0.14562595 42:0 43:0.061900828 44:0 45:0 46:0.78731835 47:0.026558792 48:0.27289081 49:0.38465333 50:0.38437486 51:0.068104215 52:0.067884155 53:0 54:0 55:0.21287335 56:0 57:0.19274445 58:0.47829989 59:0.77470773 60:0.26079595 61:0.14342254 62:0 63:0 64:0.98237139 65:0 66:0.0032059122 67:0.019240551 68:0.13796227 69:0.065681942 70:0.1058998 71:0 72:0 73:0.8884874 74:0 75:0.077559292 76:0.11562193 77:0.42663914 78:0.060547747 79:0.074257672 80:0 81:0 82:0.98112893 83:0.13974227 84:0.09869431 85:0.048150148 86:0.075978726 87:9.0411573e-05 88:0.0046409364 89:0 90:0 91:0.97314823 92:0.11114497 93:0.11547778 94:0.1169733 95:0.11379296 96:0 97:0.025662702 98:0 99:0 100:0.21463829 101:0 102:0.20511581 103:0.89993089 104:0.31806746 105:0.00033325114 106:0.028411396 107:0 108:0 109:0.89043063 110:0 111:0.014149659 112:0.33362627 113:0.29895681 114:0.066202052 115:0.04316685 116:0 117:0 118:0.99985325 119:0 120:0.0026278077 121:0.00035170399 122:0.016760919 123:0.0005146648 124:0.0016090575 125:0 126:0 127:0.93467224 128:0.14733343 129:0.23283029 130:0.16242148 131:0.15391758 132:0 133:0.019893389 134:0 135:0 136:0.98569125 137:0.041470282 138:0.061429463 139:0.10459968 140:0.10823523 141:0 142:0.01610557 143:0 144:0 145:0.82689023 146:0.050519943 147:0.14211071 148:0.39987123 149:0.35255229 150:0.091864966 151:0.029475719 152:0 153:0 154:0.88052428 155:0 156:0.0014454932 157:0.42506754 158:0.19669704 159:0.072762951 160:0.001967351 161:0 162:0 163:0.88298482 164:0.018149119 165:0.00080735696 166:0.14166012 167:0.40345931 168:0.19234338 169:0.012395134 170:0 171:0 172:0.97992826 173:0.063874409 174:0.14747056 175:0.0967061 176:0.050719209 177:0.016537555 178:0.041372746 179:0 180:0 181:0.70860088 182:0.045471493 183:0.28673679 184:0.40216339 185:0.43970159 186:0.24190731 187:0 188:0 189:0 190:0.97852236 191:3.846324e-05 192:0.053018007 193:0.13369879 194:0.13982183 195:0.045312446 196:0.014163254 197:0 198:0 199:0.98370105 200:0 201:0 202:0.011331931 203:0.14115077 204:0.10659137 205:0.030197246 206:0 207:0 208:0.95084667 209:0.00010367338 210:5.6107456e-05 211:0.0035746733 212:0.28244138 213:0.12687173 214:0.0016771044 215:0 216:0 217:0.40516362 218:0.088202767 219:0.25685179 220:0.57690006 221:0.63553816 222:0.15863633 223:0.013993009 224:0 
0.4765293167272747 0.2199581336430882 0.4495350662724104 0.6871214872877091 0.3646746989891541 0.3717558872032988 0.6223668226268786 0.1089496540239408 0.3769560209770887 0.3582993625422504 0.4960885517429627 0.3240862983042811 0.5625352600516775 0.542785214745385 0.3496006898875607 0.3919598844879097 0:0 1:0 2:0 3:0 4:0 5:0 6:0 7:0 8:0 9:0 10:0.014284029 11:0 12:0 13:0.7450608 14:0.66681933 15:0 16:0 17:0 18:0 19:0.95845973 20:0 21:0 22:0.20200384 23:0.19691546 24:0.042044457 25:0 26:0 27:0 28:0.99999815 29:0 30:0 31:0 32:0 33:0 34:0 35:0 36:0 37:0.99999309 38:0 39:0 40:0 41:0 42:0 43:0 44:0 45:0 46:0.0013283596 47:0 48:0 49:0.77497679 50:0.6319629 51:0 52:0 53:0 54:0 55:0.00081927126 56:0 57:0 58:0.69085097 59:0.72299123 60:0 61:0 62:0 63:0 64:0.83013195 65:0 66:0 67:0.31503087 68:0.46003461 69:0 70:0 71:0 72:0 73:0.2598995 74:0 75:0 76:0.74666268 77:0.61232352 78:0 79:0 80:0 81:0 82:0.99999821 83:0 84:0 85:0 86:0 87:0 88:0 89:0 90:0 91:0.078002229 92:0 93:0 94:0.75706339 95:0.64866227 96:0 97:0 98:0 99:0 100:0.00017337556 101:0 102:0 103:0.73678148 104:0.67612684 105:0 106:0 107:0 108:0 109:0.73014271 110:0 111:0 112:0.52359915 113:0.43900737 114:0 115:0 116:0 117:0 118:0.9999969 119:0 120:0 121:0 122:0.0017648061 123:0 124:0 125:0 126:0 127:0.097037576 128:0 129:0 130:0.71726686 131:0.69000387 132:0 133:0 134:0 135:0 136:0.66790384 137:0 138:0 139:0.54508388 140:0.50096381 141:0.023863398 142:0.072423846 143:0 144:0 145:0 146:0 147:0 148:0.78661889 149:0.6174292 150:0 151:0 152:0 153:0 154:0 155:0 156:0 157:0 158:0.9992947 159:0 160:0 161:0 162:0 163:0.9999944 164:0 165:0 166:0 167:0 168:0 169:0 170:0 171:0 172:0.99999839 173:0 174:0 175:0 176:0 177:0 178:0 179:0 180:0 181:0.99998963 182:0 183:0 184:0 185:0 186:0 187:0 188:0 189:0 190:0 191:0 192:0 193:0 194:0.99926704 195:0 196:0 197:0 198:0 199:0 200:0 201:0 202:0 203:0 204:0 205:0 206:0 207:0 208:0 209:0 210:0 211:0 212:0 213:0 214:0 215:0 216:0 217:0.99999386 218:0 219:0 220:0 221:0 222:0 223:0 224:0 
0.1534013128603779 0.08413568443514059 0.1898428317511765 0.2491479268940494 0.1424053313244425 0.3523321216382962 0.2697795608015771 0.04204283807150367 0.1759815685760152 0.1486698675832293 0.2594873081963986 0.1754252370991361 0.2548198662945442 0.1701211877218039 0.1243366857842577 0.1571777941589895 0:0 1:0.089883029 2:0.1134728 3:0.16929451 4:0.74380094 5:0.50354499 6:0.31532675 7:0.21009701 8:0 9:0 10:0.94679201 11:0 12:0.022129541 13:0.072537199 14:0.18571264 15:0.17081922 16:0.18482079 17:0 18:0 19:0.99277139 20:0 21:0 22:0 23:0.026422845 24:0.048176173 25:0.10668205 26:0 27:0 28:0.99758506 29:0 30:0 31:0 32:0.0042414097 33:0.021436755 34:0.065895379 35:0 36:0 37:0.93438554 38:0.00020542328 39:0.033421252 40:0.1810462 41:0.30036771 42:0.038061943 43:0.036804773 44:0 45:0 46:0.76304322 47:0.079492331 48:0.15138252 49:0.42459342 50:0.447438 51:0.0075940317 52:0.089345716 53:0 54:0 55:0.012412284 56:0 57:0.0043556611 58:0.63801163 59:0.68163502 60:0.34539476 61:0.093925811 62:0 63:0 64:0.99999577 65:0 66:0 67:0 68:0 69:0 70:0 71:0 72:0 73:0.086041026 74:0 75:0.003030237 76:0.30525488 77:0.86205256 78:0.15408938 79:0.36400768 80:0 81:0 82:0.99861795 83:0.052523173 84:0 85:0 86:0 87:0 88:6.760317e-05 89:0 90:0 91:0.97413653 92:0.1816269 93:0.095775634 94:0.055258892 95:0.071154118 96:0.019792873 97:0.019567685 98:0 99:0 100:0.67481828 101:0.00064250664 102:0.0025448571 103:0.37313074 104:0.62076426 105:0 106:0.14148934 107:0 108:0 109:0.96424419 110:0.019905899 111:0.044222903 112:0.09473893 113:0.2305337 114:0.038623035 115:0.065292172 116:0 117:0 118:0.99999768 119:0 120:0 121:0 122:0 123:0 124:0 125:0 126:0 127:0.97949612 128:0.13211216 129:0.079228997 130:0.075908542 131:0.10459136 132:0.0088349003 133:0.0084707607 134:0 135:0 136:0.99951071 137:0.030015014 138:0.0001267441 139:0.0069364924 140:0.0050308425 141:0 142:0 143:0 144:0 145:0.99189299 146:0 147:0.032821264 148:0.11013846 149:0.05094748 150:0.018338917 151:0 152:0 153:0 154:0.97096467 155:0.00020826554 156:0.0008249036 157:0.12094859 158:0.20121785 159:0 160:0.045863111 161:0 162:0 163:0.99671596 164:0 165:0 166:0 167:0.075361423 168:0.02947535 169:0 170:0 171:0 172:0.97759855 173:0.18169278 174:0.05155104 175:0.088185146 176:0.029046869 177:5.8961119e-05 178:0.0022999293 179:0 180:0 181:0.57543653 182:0.2125044 183:0.23339845 184:0.29211923 185:0.56818271 186:0.17301683 187:0.36212102 188:0 189:0 190:0.99965459 191:0 192:0 193:4.7480484e-05 194:0.015280969 195:0 196:0.021276172 197:0 198:0 199:0.99999446 200:0 201:0 202:0 203:0 204:0 205:0 206:0 207:0 208:0.66626823 209:0 210:0.035246018 211:0.21890171 212:0.49484357 213:0.36198089 214:0.36194742 215:0 216:0 217:0.26967531 218:0.3098059 219:0.3242768 220:0.77818 221:0.30302516 222:0.13852637 223:0.09772934 224:0 
0.6137395642414659 0.2819354697269734 0.6060804328830082 0.9454516180983628 0.5236660609949999 0.4688530819909782 0.7748328250814175 0.136028977981526 0.4682016850146601 0.4446007059892208 0.6301175136249323 0.4071958285540802 0.726402023434878 0.6975522118663184 0.4483069012224378 0.6101890917519115 0:0 1:0.95393962 2:0 3:0 4:0 5:0 6:0 7:0 8:0 9:0 10:0.99972743 11:0 12:0 13:0 14:0 15:0 16:0 17:0 18:0 19:0.99911356 20:0 21:0 22:6.46288e-09 23:0.00022055391 24:0.0084400587 25:0.041111831 26:0 27:0 28:0.9999975 29:0 30:0 31:0 32:0 33:0 34:0 35:0 36:0 37:0.99999344 38:0 39:0 40:0 41:0 42:0 43:0 44:0 45:0 46:0.98416013 47:0 48:0 49:0 50:2.1363203e-06 51:0 52:0 53:0 54:0 55:0.0022760418 56:0 57:0 58:0 59:0.99988753 60:0 61:0 62:0 63:0 64:0.033985026 65:0 66:0 67:0.033986013 68:0.99720144 69:0 70:0 71:0 72:0 73:0.99996459 74:0 75:0 76:8.8389982e-08 77:1.6483543e-07 78:0 79:0 80:0 81:0 82:0.99999762 83:0 84:0 85:0 86:0 87:0 88:0 89:0 90:0 91:0.96052426 92:0 93:2.2195896e-09 94:0.060048643 95:0.27151704 96:0 97:0 98:0 99:0 100:0.0001082182 101:0 102:0 103:0.54596937 104:0.83779889 105:0 106:0 107:0 108:0 109:0.70146674 110:0 111:0 112:0.061599113 113:0.68735325 114:0 115:0.17792065 116:0 117:0 118:0.99338096 119:0 120:0 121:0.043105185 122:0.10641098 123:0 124:4.3478268e-10 125:0 126:0 127:0.68735051 128:0.1302218 129:0.17736275 130:0.26480398 131:0.63952547 132:0 133:0 134:0 135:0 136:0.73624802 137:0 138:5.8954147e-10 139:0.28517109 140:0.57808894 141:0.060329396 142:0.19690719 143:0 144:0 145:0.19033904 146:0 147:0 148:0.65515125 149:0.7260682 150:0.026945056 151:0.081482604 152:0 153:0 154:0.67088509 155:0 156:0 157:0.39149964 158:0.62973249 159:0 160:0.0084669217 161:0 162:0 163:0.96844435 164:0 165:0 166:0.026588839 167:0.23557037 168:0 169:0.076798245 170:0 171:0 172:0.8352955 173:0 174:0 175:0.29129303 176:0.45979264 177:0.077543043 178:0 179:0 180:0 181:0.9999975 182:0 183:0 184:0 185:0 186:0 187:0 188:0 189:0 190:0.74220985 191:0 192:0 193:0.2827363 194:0.57225561 195:0.059814304 196:0.195226 197:0 198:0 199:0.17294963 200:0 201:0 202:0.43744627 203:0.88243049 204:0 205:0 206:0 207:0 208:0.99999583 209:0 210:0 211:0 212:0 213:0 214:0 215:0 216:0 217:0.99999624 218:0 219:0 220:0 221:0 222:0 223:0 224:0 
1 0.4345721429558243 0.840789410656241 0.3930307522937661 0.893009745706552 0.6979417093481023 0.3653037531671214 0.1444369697204182 0.3027967368196576 0.3749942203997947 0.610358126527598 0.6347507187928528 0.9888804125559261 0.5252147946741302 0.6149342238788027 0.5461317836336889 0:0 1:0.99642187 2:0 3:0 4:0 5:0 6:0 7:0.084205315 8:0 9:0 10:0.99815983 11:0 12:0 13:0 14:0.031146895 15:0.051973443 16:0 17:0 18:0 19:0.98560286 20:0 21:0 22:0 23:0.15334944 24:0.026561996 25:0.066028662 26:0 27:0 28:0.99178046 29:0 30:0 31:0 32:0.042868223 33:0.085067824 34:0.085397236 35:0 36:0 37:0.99995929 38:0 39:0.00067280937 40:4.5819324e-05 41:0.0087356223 42:0 43:0.00041667532 44:0 45:0 46:0.8754378 47:0 48:0 49:0.48161769 50:0.038666062 51:0 52:0.011278157 53:0 54:0 55:0.13034737 56:0.00031681877 57:0.001916372 58:0.76299274 59:0.62792116 60:0.079542853 61:0.015075312 62:0 63:0 64:0.94285268 65:0 66:0.069716416 67:0.060296416 68:0.28548071 69:0.10816415 70:0.09657535 71:0 72:0 73:0.98336411 74:0 75:0.050958849 76:0.029132161 77:0.15280145 78:0.053839635 79:0.057421967 80:0 81:0 82:0.9993397 83:0.021331577 84:0.027954748 85:0 86:0.008211744 87:3.0962674e-05 88:0.003641363 89:0 90:0 91:0.99999803 92:0 93:0 94:0 95:8.0706697e-05 96:0 97:0 98:0 99:0 100:0.92760819 101:0.0051457728 102:0.047572207 103:0.29967383 104:0.21107051 105:0.02449749 106:0.047889668 107:0 108:0 109:0.58736765 110:0.00030423334 111:0.0014364095 112:0.6163938 113:0.52029228 114:0.044021402 115:0.049080338 116:0 117:0 118:0.94954109 119:0 120:0.053670432 121:0.026222372 122:0.29483557 123:0.047113612 124:0.075167589 125:0 126:0 127:0.98150432 128:0 129:0.081094012 130:0.15206945 131:0.068078704 132:0.011823966 133:0.046570789 134:0 135:0 136:0.9884662 137:0.032244775 138:0.026524106 139:0.11097261 140:0.090539999 141:0.00058310671 142:0.025929218 143:0 144:0 145:0.99999881 146:0 147:0 148:0 149:4.9484664e-05 150:0 151:0 152:0 153:0 154:0.99868554 155:4.7073281e-05 156:0 157:0.028295094 158:0.040183712 159:0.012517152 160:0.0072584525 161:0 162:0 163:0.95382529 164:0.00017109032 165:0.00054046157 166:0.25800422 167:0.15124384 168:0.013687224 169:0.024123734 170:0 171:0 172:0.94333225 173:0.27015209 174:0.06729015 175:0.10819668 176:0.13419271 177:0.013942662 178:0.051923413 179:0 180:0 181:0.99999774 182:0 183:0 184:0 185:0 186:0 187:0 188:0 189:0 190:0.99999732 191:0 192:0 193:0 194:0 195:0 196:0 197:0 198:0 199:0.9964177 200:0.043924909 201:0.037380543 202:0.057457332 203:0.011203069 204:0.0088737188 205:0.017747439 206:0 207:0 208:0.99808651 209:0 210:0 211:0 212:0.061783809 213:0 214:0 215:0 216:0 217:0.59138519 218:0.029412087 219:0.3497915 220:0.61524928 221:0.38536191 222:0.00019739123 223:0.00017032155 224:0 
0.5715960373122968 0.1948749232925151 0.4530534849596036 0.6177819339272934 0.4043399088285939 0.3771248297028333 0.576405145185089 0.09708211898030142 0.3438803692454942 0.3401295641885014 0.52607699923634 0.3305607575116765 0.5445667109012227 0.5076006434027397 0.3257389983799757 0.3591073020137553 0:0 1:0.054474909 2:0 3:0.0016518107 4:0.4509128 5:0.83115208 6:0.31022009 7:0.0815285 8:0 9:0 10:0.86144543 11:0 12:0.025566006 13:0.072521612 14:0.36429486 15:0.18506937 16:0.29160225 17:0 18:0 19:0.9820829 20:0 21:0.023454756 22:0 23:0.10217544 24:0.072562546 25:0.1387579 26:0 27:0 28:0.95666659 29:0 30:0 31:0 32:0.11589714 33:0.04011675 34:0.26408979 35:0 36:0 37:0.89370233 38:0 39:0.033673294 40:0.28742683 41:0.33680716 42:0.055838421 43:0.031425055 44:0 45:0 46:0.067083307 47:0.03895618 48:0.38365233 49:0.58033544 50:0.69957364 51:0.098477028 52:0.10438331 53:0 54:0 55:0.26924846 56:0 57:0.055300262 58:0.42145449 59:0.79663515 60:0.33055282 61:0.054054424 62:0 63:0 64:0.98497063 65:0 66:0 67:0.023336576 68:0.030576307 69:0.060035069 70:0.15730281 71:0 72:0 73:0.84625053 74:0.00090011 75:0.0031854596 76:0.12882736 77:0.48265335 78:0.16867144 79:0.076419242 80:0 81:0 82:0.99963486 83:0 84:0 85:8.4101463e-05 86:0.015270132 87:0 88:0.022226658 89:0 90:0 91:0.79736686 92:0.15428549 93:0.3104535 94:0.43591055 95:0.22809651 96:0.040712103 97:0.017588431 98:0 99:0 100:0.0069872299 101:0 102:0.0010448152 103:0.85092866 104:0.5252015 105:0.0047365678 106:0.00023605462 107:0 108:0 109:0.86137176 110:0.00058590941 111:0.023600198 112:0.14637464 113:0.4760139 114:0.05811885 115:0.077995203 116:0 117:0 118:0.99999857 119:0 120:0.00028057341 121:0 122:0.0005216893 123:0 124:0.00014460579 125:0 126:0 127:0.69562453 128:0.039581083 129:0.15093704 130:0.54513675 131:0.44022036 132:0.023306873 133:0.015464237 134:0 135:0 136:0.9957251 137:0.041372322 138:0.054572433 139:0.016552076 140:0.057408549 141:0 142:0.016400822 143:0 144:0 145:0.87467974 146:0 147:0.0010088489 148:0.343079 149:0.32172552 150:0.058534764 151:0.1014419 152:0 153:0 154:0.77633709 155:0 156:0.035355676 157:0.49495092 158:0.37767175 159:0.090262428 160:0.016917655 161:0 162:0 163:0.85129696 164:0.010304617 165:0.0013605619 166:0.20835084 167:0.40044549 168:0.054585267 169:0.26158252 170:0 171:0 172:0.99986589 173:0 174:0.0086099962 175:0.0067280349 176:0.012072006 177:0 178:0.00060337811 179:0 180:0 181:0.99230808 182:0.092911638 183:0.074265778 184:0.029133046 185:0.017090488 186:2.6724316e-05 187:0.0057700155 188:0 189:0 190:0.94533622 191:0 192:0.053148352 193:0.21452576 194:0.23550728 195:0.019694194 196:0.040448178 197:0 198:0 199:0.24392921 200:0 201:0.0028565642 202:0.58849299 203:0.72336233 204:0.26617771 205:0.0065420629 206:0 207:0 208:0.99999672 209:0 210:0.00012609862 211:0 212:0 213:0 214:0 215:0 216:0 217:0.50657451 218:0.0075936746 219:0.23627329 220:0.78187817 221:0.24355696 222:0.00022641252 223:0.12975742 224:0 
0.8065238467410621 0.02903034055286141 0.3672580767356385 0.1732913649895837 0.1609251139340416 1 0.2034245295216524 0.3492380184619797 0.7792351174677657 0.7802364796059739 0.346471790330495 0.2490834251700995 0.238076300841204 0.2872708245716497 0.1495400914508858 0.1017355210964702 0:0 1:0.025858782 2:0.032233935 3:0.093432501 4:0.47808561 5:0.77685177 6:0.39458063 7:0.042344805 8:0 9:0 10:0.92885923 11:0.021979418 12:0.018370394 13:0.016865905 14:0.25797135 15:0.2208204 16:0.14422299 17:0 18:0 19:0.98088425 20:0.022406338 21:0.020085573 22:4.6398425e-05 23:0.06879057 24:0.061881199 25:0.16850735 26:0 27:0 28:0.95919061 29:0.018215556 30:0 31:0 32:0.088266239 33:0.089681543 34:0.25255463 35:0 36:0 37:0.99981815 38:0 39:0.0060784714 40:9.6097152e-05 41:0.017667284 42:0.0002871883 43:0.0034702399 44:0 45:0 46:0.31167129 47:0.027871687 48:0.40485364 49:0.47239831 50:0.62639201 51:0.3063513 52:0.16968125 53:0 54:0 55:0.19736175 56:0.019615412 57:0.068855874 58:0.5296306 59:0.77586526 60:0.26411906 61:0.060673606 62:0 63:0 64:0.86628973 65:0 66:0.041673329 67:0.25209892 68:0.34749812 69:0.1394361 70:0.20988105 71:0 72:0 73:0.90152377 74:0.0029950773 75:0.010698095 76:0.11256613 77:0.39516252 78:0.066452041 79:0.11783315 80:0 81:0 82:0.98181617 83:0.17388944 84:0.071973138 85:0.024782157 86:0.0012314004 87:7.1222275e-05 88:0 89:0 90:0 91:0.95901942 92:0.13083571 93:0.21154769 94:0.11557286 95:0.070831165 96:0.0043320474 97:0.003810968 98:0 99:0 100:0.99383503 101:0 102:0.02996555 103:0.038554348 104:0.070115842 105:0 106:0.07062193 107:0 108:0 109:0.93268651 110:0 111:0.024326185 112:0.24302627 113:0.25044703 114:0.0013287985 115:0.087819099 116:0 117:0 118:0.8044641 119:0.032244649 120:0.11906226 121:0.42616186 122:0.37360963 123:0.078051224 124:0.10161758 125:0 126:0 127:0.99694824 128:0.017936232 129:0.0024714463 130:0.038937476 131:0.041897789 132:0.046542928 133:0.018044306 134:0 135:0 136:0.99624139 137:0.070570678 138:0.043206684 139:0 140:0 141:0 142:0.02555521 143:0 144:0 145:0.99118268 146:0 147:0.093514033 148:0.063277006 149:0.064664647 150:0.024933698 151:0 152:0 153:0 154:0.99893457 155:0 156:0.00013819366 157:0.011574683 158:0.039868981 159:0 160:0.020096971 161:0 162:0 163:0.99471062 164:0.042319179 165:0.013192089 166:0.070270732 167:0.04401717 168:0.029780162 169:0.02860463 170:0 171:0 172:0.95775998 173:0.21528764 174:0.16291989 175:0.086583525 176:0.037295613 177:0.022248356 178:0.020430414 179:0 180:0 181:0.70392591 182:0.1285731 183:0.34971645 184:0.32956082 185:0.45079112 186:0.23160093 187:0.013737071 188:0 189:0 190:0.96687043 191:0 192:6.7949739e-05 193:0.034739178 194:0.065253191 195:0.18598655 196:0.15842734 197:0 198:0 199:0.99890971 200:0.019940635 201:0.019739715 202:0.0022383155 203:0.029376818 204:0.02281243 205:0.00025953466 206:0 207:0 208:0.96008146 209:0 210:0 211:0.027486509 212:0.26834786 213:0.073976152 214:0 215:0 216:0 217:0.2073997 218:0.30477649 219:0.48576999 220:0.6752516 221:0.41310218 222:0.038675476 223:0.0017372255 224:0 
0.4234524073238254 0.192515158036451 0.4165402169337161 0.6119016575235053 0.3331829582675171 0.3362823462856394 0.5554334972810425 0.0851925445331802 0.3287261393968477 0.314853867184096 0.4390034464540057 0.287052263894321 0.5029822104145042 0.4902944241377611 0.3096751035970801 0.3476963043165077 0:0 1:0.043346204 2:0 3:0 4:0 5:0.99696517 6:0 7:0 8:0 9:0 10:0.31292382 11:0 12:0 13:0.13226399 14:0.16850504 15:0.40080008 16:0.83394557 17:0 18:0 19:0.92024887 20:0 21:0 22:0.10739911 23:0.37414843 24:0.028153056 25:0.028693141 26:0 27:0 28:0.99999809 29:0 30:0 31:0 32:0 33:0 34:0 35:0 36:0 37:0.99998766 38:0 39:0 40:0 41:0 42:0 43:0 44:0 45:0 46:0.0010130734 47:0 48:0 49:0.80439204 50:0.59408736 51:0 52:0 53:0 54:0 55:0.48008335 56:0 57:0 58:0.59557593 59:0.64246786 60:0.00029723521 61:0.045119334 62:0 63:0 64:0.8127284 65:0.029708846 66:0.038437732 67:0.41517672 68:0.40414146 69:0.031167783 70:0.020804841 71:0 72:0 73:0.5960753 74:0 75:0 76:0.43794435 77:0.67294878 78:0.0059020915 79:0 80:0 81:0 82:0.99999815 83:0 84:0 85:0 86:0 87:0 88:0 89:0 90:0 91:0.34646249 92:0 93:0 94:0.49780092 95:0.79147953 96:0.034465875 97:0.06724827 98:0 99:0 100:0.74447834 101:0 102:0 103:0.48242864 104:0.46152973 105:0 106:0 107:0 108:0 109:0.99397528 110:0 111:0 112:0.085611634 113:0.068418443 114:0 115:0 116:0 117:0 118:0.99000448 119:0 120:0.013069651 121:0.10605477 122:0.092032127 123:0 124:0 125:0 126:0 127:0.27944598 128:0.043959714 129:0.090562418 130:0.62127346 131:0.72496903 132:0.014453727 133:0.00037459482 134:0 135:0 136:0.95776588 137:0 138:0 139:0 140:0.25777966 141:0.07980337 142:0.099267311 143:0 144:0 145:0.97092962 146:0 147:0 148:0.13554208 149:0.19727568 150:0 151:0 152:0 153:0 154:0.99999839 155:0 156:0 157:0 158:0 159:0 160:0 161:0 162:0 163:0.99965638 164:0 165:0 166:0.026109328 167:1.8340432e-10 168:0 169:0 170:0 171:0 172:0.9999975 173:0 174:0 175:0 176:0 177:0 178:0 179:0 180:0 181:0 182:0 183:0 184:0 185:0 186:0 187:0 188:0 189:0 190:0.99999678 191:0 192:0 193:0 194:0 195:0 196:0 197:0 198:0 199:0.99999839 200:0 201:0 202:0 203:0 204:0 205:0 206:0 207:0 208:0.99999744 209:0 210:0 211:0 212:0 213:0 214:0 215:0 216:0 217:0 218:0 219:0 220:0 221:0 222:0 223:0 224:0 
0.5143924366671845 0.233983236950045 0.4843650265034365 0.7419161954284035 0.4047292149060443 0.40136278070987 0.6612506064148208 0.1157005290017741 0.4003133535590185 0.3805482295191175 0.5292929938117659 0.3451482932544542 0.6026677036593244 0.5917892337542874 0.3721217059893934 0.4263036325174804 0:0 1:0 2:0 3:0 4:0 5:0 6:0 7:0 8:0 9:0 10:0.99949944 11:0 12:0 13:0 14:0 15:0 16:0 17:0 18:0 19:0.87656808 20:0 21:0 22:0.34230337 23:0.29795057 24:0.08938399 25:0.13298865 26:0 27:0 28:0.99999678 29:0 30:0 31:0 32:0 33:0 34:0 35:0 36:0 37:0.99997616 38:0 39:0 40:0 41:0 42:0 43:0 44:0 45:0 46:0.95393962 47:0 48:0 49:0 50:0 51:0 52:0 53:0 54:0 55:0.024975348 56:0 57:0 58:0.62704962 59:0.77855963 60:0 61:0 62:0 63:0 64:0.91549712 65:0 66:0 67:0.1887244 68:0.3551622 69:0.0039881286 70:0.0092827212 71:0 72:0 73:0.48575172 74:0 75:0 76:0.63066769 77:0.59373093 78:0.06548766 79:0.097434841 80:0 81:0 82:0.99999714 83:0 84:0 85:0 86:0 87:0 88:0 89:0 90:0 91:0.16858257 92:0 93:0 94:0.69788158 95:0.69606817 96:0 97:0 98:0 99:0 100:0.00014516868 101:0 102:0 103:0.68510258 104:0.72844177 105:0 106:0 107:0 108:0 109:0.91316152 110:0 111:0 112:0.16023149 113:0.36934158 114:0.0059642033 115:0.063310958 116:0 117:0 118:0.99619961 119:0 120:0 121:0.013174308 122:0.086059898 123:0.0019248177 124:0 125:0 126:0 127:0.4095225 128:0.032845061 129:0.045444567 130:0.685507 131:0.59935218 132:0 133:0 134:0 135:0 136:0.79296964 137:0 138:0 139:0.31883672 140:0.49392268 141:0.025280986 142:0.15791488 143:0 144:0 145:0.012519521 146:0 147:0 148:0.61849034 149:0.77829784 150:0.020398566 151:0.10556481 152:0 153:0 154:0.69493675 155:0 156:0 157:0.47500095 158:0.53984225 159:0 160:0 161:0 162:0 163:0.99999154 164:0 165:0 166:0 167:0.0036280395 168:0 169:0 170:0 171:0 172:0.99611706 173:0.0052960231 174:0.011135161 175:0.022734759 176:0.06225083 177:0.03439438 178:0.044956088 179:0 180:0 181:0.99999684 182:0 183:0 184:0 185:0 186:0 187:0.00012159414 188:0 189:0 190:0.033133224 191:0 192:0 193:0.48045573 194:0.84040791 195:0.049707539 196:0.24350677 197:0 198:0 199:0.0092419805 200:0 201:0 202:0.99809694 203:0.053148314 204:0 205:0 206:0 207:0 208:0.99999481 209:0 210:0 211:0 212:0 213:0 214:0 215:0 216:0 217:0.99999809 218:0 219:0 220:0 221:0 222:0 223:0 224:0 
0.5619984002641726 0.2593502574235959 0.5306840099188621 0.8097660322619495 0.4363805638550521 0.4390011502065372 0.7333546424697814 0.1277769293025203 0.444572135461047 0.4224638912332024 0.585347075338411 0.3817259236304522 0.6636135181524259 0.6437614462465625 0.4121512414516499 0.4619139200991742 0:0 1:0 2:0 3:0 4:0 5:0 6:0 7:0 8:0 9:0 10:0.99983966 11:0 12:0.0024922905 13:0 14:0 15:0 16:0 17:0 18:0 19:0.99999505 20:0 21:0 22:0 23:0 24:0 25:0 26:0 27:0 28:0.99999094 29:0 30:0 31:0 32:0 33:0 34:0 35:0 36:0 37:0 38:0 39:0 40:0 41:0 42:0 43:0 44:0 45:0 46:0 47:0 48:0 49:0.99955583 50:0 51:0 52:0 53:0 54:0 55:0.040856738 56:0 57:0.015199292 58:0.67508352 59:0.73622483 60:0 61:0.017927501 62:0 63:0 64:0.81839526 65:0 66:3.9172839e-05 67:0.25693765 68:0.51196373 69:0.032524411 70:0.032289658 71:0 72:0 73:0.99999839 74:0 75:0 76:0 77:0 78:0 79:0 80:0 81:0 82:0.99999207 83:0 84:0 85:0 86:0 87:0 88:0 89:0 90:0 91:0.00011938473 92:0 93:0.0016014596 94:0.76480025 95:0.64425647 96:0 97:0 98:0 99:0 100:0.00030293025 101:0 102:0.0054957694 103:0.74213761 104:0.67019159 105:0 106:0.0062299846 107:0 108:0 109:0.84905702 110:0 111:0.0050111203 112:0.31251857 113:0.42587531 114:0 115:0.0059105954 116:0 117:0 118:0.061019201 119:0 120:4.7941772e-05 121:0.44044033 122:0.89483029 123:0 124:0.039517775 125:0 126:0 127:0.99999845 128:0 129:0 130:0 131:0 132:0 133:0 134:0 135:0 136:0.0001257978 137:0 138:6.28989e-05 139:0.651232 140:0.75697756 141:0.02006237 142:0.04973207 143:0 144:0 145:0.00041044471 146:0 147:0.0011011636 148:0.67651796 149:0.7364198 150:0 151:0 152:0 153:0 154:0.76809704 155:0 156:0 157:0.55113429 158:0.32597092 159:0 160:0 161:0 162:0 163:0.99999821 164:0 165:0 166:0 167:0 168:0 169:0 170:0 171:0 172:0.0811157 173:0.0153743 174:0.074452899 175:0.53421855 176:0.83788538 177:0.013875734 178:0 179:0 180:0 181:0.32277486 182:0 183:0 184:0.54258466 185:0.765827 186:0.046090804 187:0.113089 188:0 189:0 190:0 191:0 192:0 193:0.53900474 194:0.84228295 195:0 196:0 197:0 198:0 199:0 200:0 201:0 202:0 203:0 204:0 205:0 206:0 207:0 208:0.99998689 209:0 210:0 211:0 212:0 213:0 214:0 215:0 216:0 217:0.99999803 218:0 219:0 220:0 221:0 222:0 223:0 224:0 
0.1242283800482246 0.0588744789902797 0.121483211611098 0.1958704321317469 0.1299154657188418 0.02714483152888303 0.1592907553306987 0 0.03909104169393474 0.02293235968291112 0.1678537866490236 0.08985435205334232 0.1261607097516252 0.1598303853044803 0.09443624565107381 0.1050323102285983 0:0 1:0.01308616 2:0 3:0.055849779 4:0.55763435 5:0.73865157 6:0.37279058 7:0.034122489 8:0 9:0 10:0.85240465 11:0 12:0.072057009 13:0.034991741 14:0.41611591 15:0.24340658 16:0.18596955 17:0 18:0 19:0.99358547 20:0.010455695 21:0.010994133 22:0.020460252 23:0.060996722 24:0.030306816 25:0.086578451 26:0 27:0 28:0.98503983 29:0 30:0 31:0.017431574 32:0.036539488 33:0.068496823 34:0.15284306 35:0 36:0 37:0.98033375 38:0.0090138819 39:0.020189974 40:0.027178353 41:0.18875703 42:0.0034534486 43:0.04553856 44:0 45:0 46:0.18773754 47:0.016187452 48:0.35175034 49:0.63456881 50:0.57006443 51:0.29368702 52:0.16386849 53:0 54:0 55:0.048234735 56:0 57:0.00048524671 58:0.45701301 59:0.85995531 60:0.22147597 61:0.015106516 62:0 63:0 64:0.93192255 65:0.020624382 66:0.018899007 67:0.16985075 68:0.29019147 69:0.084474891 70:0.10264698 71:0 72:0 73:0.12782034 74:0 75:0.031153297 76:0.61088532 77:0.74864024 78:0.097561881 79:0.19879265 80:0 81:0 82:0.99391949 83:0.10132065 84:0.03685344 85:0.018162461 86:0.00033780118 87:0.01289418 88:0 89:0 90:0 91:0.8865841 92:0.15400305 93:0.25493038 94:0.26725322 95:0.23109886 96:0.020306963 97:0.0036429069 98:0 99:0 100:0.0038609952 101:0 102:0.00048065023 103:0.77846682 104:0.62761056 105:0.0083780289 106:0.00095748703 107:0 108:0 109:0.83841467 110:0.014798157 111:0.044108178 112:0.25632825 113:0.46284065 114:0.029608814 115:0.1186985 116:0 117:0 118:0.8433131 119:0.016861236 120:0.088263661 121:0.26332369 122:0.4448539 123:0.060606349 124:0.099180035 125:0 126:0 127:0.78044307 128:0.21064287 129:0.38088402 130:0.33590797 131:0.29228076 132:0.024597267 133:0.050920222 134:0 135:0 136:0.92219526 137:0.054625832 138:0.22872087 139:0.25840428 140:0.16571532 141:4.7599366e-05 142:0.0044449479 143:0 144:0 145:0.64643502 146:0 147:0.092330292 148:0.48778811 149:0.56004953 150:0.1337738 151:0.064008497 152:0 153:0 154:0.86487007 155:0 156:0.0064600902 157:0.35646141 158:0.35339186 159:0.0007368286 160:0.00075003953 161:0 162:0 163:0.99999821 164:0 165:0 166:0 167:0 168:0 169:0.00024847084 170:0 171:0 172:0.93513709 173:0.10724678 174:0.22854199 175:0.14450537 176:0.19849199 177:0.0064919079 178:0.038192831 179:0 180:0 181:0.88243717 182:0.10252331 183:0.23600025 184:0.19213869 185:0.30711815 186:0.13575764 187:0.073651411 188:0 189:0 190:0.99763352 191:0 192:0.030845987 193:0.0015722276 194:0.05851528 195:3.7361293e-05 196:0.018596003 197:0 198:0 199:0.99727279 200:0 201:0.00021312282 202:0 203:0.00085516897 204:0.073719971 205:0.00065692741 206:0 207:0 208:0.79501134 209:0 210:0.03839257 211:0.016998574 212:0.51985544 213:0.30956116 214:0.010244711 215:0 216:0 217:0.52617073 218:0.11429818 219:0.49008876 220:0.55914932 221:0.39397356 222:0.044526104 223:0.0063709598 224:0 
0.529620168104844 0.367530956244021 0.6769363662627298 0.4793408431283671 0.4480835446635615 0.6458399254204429 0.4911629298277497 0.274868337090252 0.5339235746117124 0.4498495524309002 0.6202060200120169 0.5296605253704643 0.5039186139073889 0.6716461741116476 0.6771721652047568 0.3633059355397824 0:0 1:0.3591468 2:0 3:0.20016275 4:0.80377245 5:0.27685985 6:0.29819983 7:0.13872433 8:0 9:0 10:0.98635334 11:0.0096161319 12:0.028046828 13:0.06040258 14:0.12334265 15:0.046935219 16:0.071818136 17:0 18:0 19:0.96137637 20:0 21:0 22:0.062175646 23:0.26811579 24:7.4033975e-05 25:0 26:0 27:0 28:0.99999708 29:0 30:0 31:0 32:0 33:0 34:0 35:0 36:0 37:0.99970675 38:0 39:0 40:0 41:0 42:0 43:0 44:0 45:0 46:0.36198378 47:0.027695049 48:0.183834 49:0.59455669 50:0.68652117 51:0.094765417 52:0.024418764 53:0 54:0 55:0.93257576 56:0.023590377 57:0.078262895 58:0.17325918 59:0.2800687 60:0.096437961 61:0.076512016 62:0 63:0 64:0.96393484 65:0.086302452 66:0.05125476 67:0.090934142 68:0.22412333 69:0.038598865 70:0.027562166 71:0 72:0 73:0.93159461 74:3.364672e-05 75:0.013057326 76:0.086813696 77:0.35263452 78:0.0083714975 79:0 80:0 81:0 82:0.99999684 83:0 84:0 85:0 86:0 87:0 88:0 89:0 90:0 91:0.63209277 92:0.00629718 93:0.11393234 94:0.37866542 95:0.60533285 96:0.24641581 97:0.12998267 98:0 99:0 100:0.98253101 101:0.0053750291 102:0.023791321 103:0.039952226 104:0.17966405 105:0.012106537 106:0.0034531082 107:0 108:0 109:0.99237067 110:0.056919694 111:0.021779258 112:0.03245689 113:0.099283241 114:0.0093621779 115:0.021983741 116:0 117:0 118:0.70901954 119:0.23483393 120:0.18961945 121:0.34157735 122:0.52080554 123:0.12845883 124:0.042059142 125:0 126:0 127:0.97696513 128:4.2943095e-05 129:0.016664982 130:0.03867032 131:0.20892036 132:0.010684488 133:0 134:0 135:0 136:0.99922657 137:0.0043385373 138:0 139:0.0026424117 140:0.027297225 141:0.0002280726 142:0.027785717 143:0 144:0 145:0.93490237 146:0 147:0.003000427 148:0.14375372 149:0.26538473 150:0.17402431 151:0.067562304 152:0 153:0 154:0.99999851 155:7.024713e-05 156:7.024713e-05 157:7.024713e-05 158:0.00035123562 159:0 160:0.00014049423 161:0 162:0 163:0.99115872 164:0.066490062 165:0.019669645 166:0.05940396 167:0.094537519 168:0.0070250011 169:0.016657129 170:0 171:0 172:0.55546945 173:0.47575423 174:0.31125042 175:0.45262504 176:0.19254453 177:0.31386212 178:0.16661803 179:0 180:0 181:0.99999714 182:0 183:0 184:0 185:0 186:0 187:0 188:0 189:0 190:0.99999797 191:0 192:0 193:0 194:0 195:0 196:0 197:0 198:0 199:0.99999774 200:0 201:0 202:0 203:0 204:0 205:0 206:0 207:0 208:0.99999779 209:0 210:0 211:0 212:0 213:0 214:0 215:0 216:0 217:0 218:0 219:0 220:0 221:0 222:0 223:0 224:0 
