svm_type c_svc
kernel_type rbf
gamma 0.5
nr_class 17
total_sv 905
rho 0.0317782 -0.373057 -0.207215 -0.0767489 -0.15353 -0.292439 -0.0972362 -0.700284 -0.652817 -0.0769403 -0.0253714 -0.493264 0.0522561 -0.216983 -0.0227022 -0.224019 -0.402413 -0.252663 -0.0131713 -0.114825 -0.296942 -0.129124 -0.713531 -0.622423 -0.199878 -0.000705668 -0.479722 0.129764 -0.266867 -0.185209 -0.18004 0.239724 0.275087 0.381001 0.0737956 0.349438 -0.643383 -0.424889 0.264862 0.338221 -0.272095 0.474418 0.152907 0.390106 0.2191 0.126713 0.0391453 -0.156374 0.176496 -0.823529 -0.785446 0.100445 0.143059 -0.533113 0.299072 -0.0908014 0.152929 -0.070005 -0.0539353 -0.199874 -0.0733132 -0.638321 -0.507918 -0.0700531 0.00218908 -0.39914 0.0166126 -0.106266 0.0261832 -0.0972723 -0.218707 0.0532252 -0.740303 -0.629263 -0.0509758 0.0438494 -0.610627 0.124532 -0.173937 -0.0234845 -0.19235 0.209093 -0.624238 -0.475499 0.269281 0.43741 -0.342151 0.31956 0.0464821 0.228797 0.0596138 -0.757493 -0.590131 -0.0509013 0.0291658 -0.444442 0.103301 -0.117902 -0.019298 -0.180044 0.496381 0.819064 0.778347 0.390135 0.745442 0.731666 1.02585 0.641586 0.704004 0.656039 0.135766 0.704361 0.613935 0.869361 0.529464 0.0445342 -0.499438 0.320438 -0.203055 0.0570747 -0.127609 -0.583699 0.15137 -0.203849 -0.0377211 -0.20491 0.50289 0.347491 0.653778 0.433231 -0.378316 -0.227117 -0.224705 0.145793 0.064925 -0.17735
label 0 1 2 3 4 5 6 7 8 9 10 11 12 13 14 15 16
nr_sv 55 53 55 51 49 54 55 48 52 55 55 54 51 55 54 55 54
SV
0.6596145763978841 0.219577510340002 0.4441610559535333 0.5169381673234837 0.1458417454998271 0.2355437304564016 0.5395125127813382 0.08879675304397612 0.09712272068384138 0.3460873731340577 0.3428786450395228 0.1840737570130809 0.5548932613478511 0.3364482123771558 0.3473454304687346 0.2831951989583253 0:0 1:0.32316431 2:0.1018637 3:0 4:0 5:0.14387147 6:0.05233442 7:0.17321168 8:0.90329564 9:0.06876231 10:0 11:0.058584005 12:0.087342374 13:0 14:0 15:0 16:0.29276606 17:0.12191674 18:0 19:0 20:0.18268017 21:0.020343505 22:0.17938933 23:0.90534818 24:0.080072083 25:0.084796712 26:0 27:0.013417467 28:0 29:0 30:0 31:0.71737838 32:0.064817749 33:0 34:0 35:0 36:0 37:0.077209361 38:0.67144454 39:0.072491974 40:0.014240609 41:0.13739343 42:0 43:0 44:0 45:0 46:0.53364444 47:0.0041160402 48:0 49:0 50:0.0003103106 51:0 52:0.016935848 53:0.83777148 54:0 55:0.044735219 56:0.10354145 57:0.01790172 58:0 59:0 60:0 61:0.87895077 62:0.10563821 63:0 64:0 65:0.041918732 66:0 67:0.084061794 68:0.45544922 69:0.00024867296 70:0.0033960992 71:0 72:0 73:0 74:0 75:0 76:0.26674712 77:0 78:0 79:0 80:0 81:0 82:0.054780141 83:0.93838102 84:0.083376825 85:0.14312848 86:0.13347635 87:0 88:0 89:0 90:0 91:0.72676212 92:1.1073088e-09 93:0 94:0 95:0 96:0 97:0 98:0.67976278 99:0 100:0.068800479 101:0.039521959 102:0.058544513 103:0 104:0 105:0 106:0.99337971 107:0.00049357227 108:0 109:0 110:0 111:0 112:0 113:0.11479031 114:0 115:0 116:0 117:0 118:0 119:0 120:0 121:0.0049822847 122:0.0014981403 123:0 124:0 125:4.0410622e-09 126:0 127:0.15280961 128:0.89529467 129:0 130:0.067656323 131:0.41283444 132:0 133:0 134:0 
0.06306595236814665 0.09274522111579013 0.3434273408813786 0.5305330577019348 0.2525979689919448 0.1714281740388816 0.08796371899842455 0.02649896028730038 0.07158515440377375 0 0.1292096579164892 0.1083047768775919 0.09682548913864086 0.0114334247919005 0.1640469920591172 0.4701056848663138 0:0 1:0.26084575 2:0 3:0 4:0 5:0 6:0 7:0 8:0.91492474 9:0 10:0.30775118 11:0 12:0 13:0 14:0 15:0 16:0.87211716 17:0 18:0 19:0 20:0 21:0 22:0.14514729 23:0.45623779 24:0.10085551 25:0 26:0 27:0 28:0 29:0 30:0 31:0.99999011 32:0 33:0 34:0 35:0 36:0 37:0 38:0 39:0 40:0 41:0 42:0 43:0 44:0 45:0 46:0.00075850944 47:0 48:0 49:0 50:0 51:0 52:0.3429181 53:0.93669248 54:0 55:0.070549227 56:0 57:0 58:0 59:0 60:0 61:0.55140561 62:0 63:0 64:0 65:0 66:0 67:0.096892752 68:0.81404835 69:0.14638966 70:0.049326994 71:0 72:0 73:0 74:0 75:0 76:0.63510358 77:0 78:0 79:0 80:0 81:0.026143076 82:0.19550636 83:0.73899192 84:0.089924611 85:0.059368528 86:0 87:0 88:0 89:0 90:0 91:0.42780364 92:0 93:0 94:0 95:0 96:0 97:0.42610797 98:0.76828015 99:0 100:0.092062235 101:0 102:0.19140288 103:0 104:0 105:0 106:0.78200972 107:0 108:0 109:0 110:0 111:0 112:0.17584823 113:0.59792525 114:0 115:0 116:0 117:0 118:0 119:0 120:0 121:0.99998689 122:0 123:0 124:0 125:0 126:0 127:0 128:0 129:0 130:0 131:0 132:0 133:0 134:0 
0 0 0.9026619258427165 0 0.1200169669973111 0.06911236935921894 0 0.0632137702475809 0.2314415883012033 0 0 0.2379931683791687 0 0 0.06186782939401121 0.07835954118266186 0:0 1:0.52686977 2:0.092367686 3:0 4:0 5:0.021815309 6:0 7:0.21952949 8:0.60382259 9:0.53188092 10:0 11:0.13286375 12:0 13:0 14:0 15:0 16:0.56422049 17:0.060465656 18:0.0094846515 19:0 20:0.023286214 21:0 22:0.55500263 23:0.56513423 24:0.22346613 25:0 26:0 27:0 28:0 29:0 30:0 31:0.94939256 32:0 33:0 34:0 35:0.00014364663 36:0.00068375049 37:0.050077248 38:0.31005058 39:0.00057459017 40:0 41:0 42:0 43:0 44:0 45:0 46:0.98989379 47:0 48:0 49:0 50:0 51:0 52:0.057345904 53:0.042371713 54:0.1049364 55:0 56:0.051530182 57:0.036619853 58:0 59:0 60:0 61:0.91169584 62:0 63:0.15808102 64:0 65:0.013139826 66:0 67:0.15899234 68:0.30551705 69:0.15810044 70:0 71:0 72:0 73:0 74:0 75:0 76:0.83587795 77:0 78:0.012535079 79:0 80:0.028899193 81:0 82:0.46551317 83:0.25187117 84:0.14192443 85:0.00089442369 86:0 87:0 88:0 89:0 90:0 91:0.99999255 92:0 93:0 94:0 95:0 96:0 97:0 98:0 99:0 100:0 101:0 102:0 103:0 104:0 105:0 106:0.99997157 107:0 108:0 109:0 110:0 111:0 112:0 113:0.0062105879 114:0 115:0 116:0 117:0 118:0 119:0 120:0 121:0.94819862 122:0 123:0 124:0 125:0 126:0.21432164 127:0 128:0.23359926 129:0 130:0.019277608 131:0 132:0 133:0 134:0 
1 0.2045271374766561 0.3511631068384257 0.5317281300999692 0.415296576194322 0.3193296746756499 0.5638816527261634 0.08002547504075157 0.03034163208261108 0.6119094265876689 0.4662086193047288 0.2120376352421632 0.7710665178484793 0.42833610561186 0.4141397139062827 0.3372586084546437 0:0 1:0.24487637 2:0.28910163 3:0.31001917 4:0.15420377 5:0 6:0.42418572 7:0.38953859 8:0.28850818 9:0 10:0 11:0.19610697 12:0.53206497 13:0 14:0 15:0 16:0.21849868 17:0.0028828131 18:0 19:0 20:0 21:0.17983621 22:0.0072320867 23:0.74547565 24:0.093576096 25:0 26:0.31261781 27:0.5074932 28:0 29:0 30:0 31:0.86093944 32:0 33:0 34:0 35:0.0025597233 36:0 37:0.0064215432 38:0.36306179 39:0.23069263 40:0 41:0.16055638 42:0.2187396 43:0 44:0 45:0 46:0.23516713 47:0.325425 48:0.14762351 49:0.20205738 50:0 51:0.087585039 52:0.64987087 53:0.57679451 54:0 55:0.035647314 56:0.055973407 57:0.094758295 58:0 59:0 60:0 61:0.034080673 62:0.024601493 63:0.09373711 64:0 65:0 66:0.020837832 67:0.12434178 68:0.97254306 69:0 70:0.11445662 71:0.085566856 72:0.084888972 73:0 74:0 75:0 76:0.56088793 77:0.0516298 78:0.42747039 79:0 80:0.044811644 81:0.25862476 82:0.012845408 83:0.54205644 84:0 85:0 86:0.32024354 87:0.18566288 88:0 89:0 90:0 91:0.81177622 92:0.090434566 93:0.24521968 94:0 95:0.062663265 96:0 97:0.059991375 98:0.47487995 99:0.073351137 100:0.15818073 101:0.093941703 102:0.019483654 103:0 104:0 105:0 106:0.51127434 107:0.23584777 108:0.19660386 109:0 110:0.094854377 111:0.16318838 112:0.37981829 113:0.6144622 114:0.090424448 115:0.033457179 116:0.20248969 117:0.19099402 118:0 119:0 120:0 121:0 122:0.038266458 123:0.33329752 124:0.094091833 125:0.25638634 126:0.032412261 127:0.74302518 128:0.38613591 129:0.30642149 130:0 131:0.0032426345 132:0.12879814 133:0 134:0 
0 0 0.4245667654448398 0.1584423245916687 0 0 0 0 0 0 0 0 0 0 0 0 0:0 1:0.25383806 2:0.0010428235 3:0 4:0 5:0.01832089 6:0.076016024 7:0.16263674 8:0.95024139 9:0 10:0 11:0 12:0 13:0 14:0 15:0 16:0.46790519 17:0.09520293 18:0 19:0 20:0.031140698 21:0.086189471 22:0.57409227 23:0.65877211 24:0 25:0 26:0 27:0 28:0 29:0 30:0 31:0.83631361 32:0.0015764743 33:0 34:0.0012065831 35:0 36:0 37:0.07310462 38:0.54332286 39:0 40:0 41:0 42:0 43:0 44:0 45:0 46:0.87548751 47:0 48:0 49:0 50:0 51:0 52:0.11006696 53:0.44675824 54:0 55:0 56:0.14758532 57:0 58:0 59:0 60:0 61:0.84348875 62:0.0023280249 63:0 64:0 65:0 66:0 67:0.32238388 68:0.42958516 69:0 70:0 71:0 72:0 73:0 74:0 75:0 76:0.80693972 77:0.11761373 78:0 79:0 80:0.00051397609 81:0 82:0.55698764 83:0.15725556 84:0 85:0.00094970694 86:0 87:0 88:0 89:0 90:0 91:0.99953544 92:0 93:0 94:0 95:0 96:0 97:0 98:0.0013604166 99:0 100:0 101:0.030035585 102:0 103:0 104:0 105:0 106:0.99998522 107:0 108:0 109:0 110:0 111:0 112:0 113:0.00030496137 114:0 115:0 116:0 117:0 118:0 119:0 120:0 121:0.98600531 122:0 123:0 124:0 125:0.16650321 126:0 127:0 128:0 129:0.002752098 130:0.002752098 131:0 132:0 133:0 134:0 
0.7992063557755659 0.01189973420509417 0.02787698409934038 0.07491268115490812 0.1652625587035884 0.5953581994977317 0.06524170028807662 0 0 0.3781232878190968 0.3441395874477589 0 0.2661812379254033 0 0.1869915810137032 0.133401949982279 0:0 1:0.15037423 2:0 3:0.029929154 4:0.0010103798 5:0.44881791 6:0.21653524 7:0.48609617 8:0.030938532 9:0.39947033 10:0.26281172 11:0.2849614 12:0.42546067 13:0 14:0 15:0 16:0 17:0 18:0 19:0.15766466 20:0 21:0 22:0.37404278 23:0.6276204 24:0.46371323 25:0.29796028 26:0.31292158 27:0.19889881 28:0 29:0 30:0 31:0.89881277 32:0.17585477 33:0.085848443 34:0 35:0.18439145 36:0.05079411 37:0.050517857 38:0.22817209 39:0.15546651 40:0.094017826 41:0.17153932 42:0.013784662 43:0 44:0 45:0 46:0.21286455 47:0.11695988 48:0.37179521 49:0.0066942512 50:0.20161809 51:0.062796831 52:0.30711293 53:0.66230571 54:0.3659496 55:0.093013331 56:0.2826485 57:0.051766466 58:0 59:0 60:0 61:0.20045352 62:0.0032505509 63:0.11156207 64:0.016034681 65:0 66:0 67:0.24290952 68:0.90604544 69:0.20051217 70:0.056043647 71:0.15429421 72:0 73:0 74:0 75:0 76:0.75791633 77:0.48755905 78:0.23801857 79:0.12172472 80:0.064746082 81:0.004018046 82:0.18993896 83:0.26315713 84:0 85:0.0086901048 86:0.082065456 87:0 88:0 89:0 90:0 91:0.86175436 92:0.1042137 93:0.091625199 94:0.011400309 95:0.076048046 96:0.0079680039 97:0 98:0.37691048 99:0.0035835295 100:0.014704468 101:0.27588913 102:0.11712075 103:0 104:0 105:0 106:0.55287737 107:0.070113055 108:0.14195536 109:0 110:0.035176646 111:0 112:0.26002195 113:0.52420056 114:0.065183632 115:0.13303822 116:0.55103707 117:0 118:0 119:0 120:0 121:0.59981245 122:0.16289143 123:0.00049252069 124:0.35764128 125:0.20711578 126:0.43566746 127:0.058184486 128:0.41353258 129:0.18117069 130:0.022305479 131:0.21288085 132:0 133:0 134:0 
0 0.1674418248595667 1 0.1681499779809923 0.6934188318559725 0.6308624087070048 0.5492308299523757 0.0990713948369162 0.4077274871335801 0.2651619251039296 0.2561563901936568 0.5524849502717289 0.3282179979894597 0.2775414852964916 0.4954789919382216 0.4532561632764668 0:0 1:0.35063219 2:0.067549981 3:0 4:0.047509782 5:0.11392065 6:0.044192735 7:0.23080392 8:0.87861353 9:0.14833562 10:0.05137993 11:0.060070187 12:0.042522412 13:0 14:0 15:0 16:0.35572466 17:0.1192549 18:0 19:0 20:0.17973535 21:0.025980117 22:0.23828624 23:0.84638584 24:0.22700208 25:0.016142873 26:0.03605178 27:0 28:0 29:0 30:0 31:0.98692554 32:0 33:0 34:0 35:0 36:0 37:0 38:0.13207579 39:0.042983267 40:0 41:0.081669882 42:0 43:0 44:0 45:0 46:0.93715286 47:0.0038594308 48:0 49:0.015151823 50:0 51:0 52:0.018593572 53:0.3339183 54:0.05305513 55:0 56:0.081103712 57:0.015808456 58:0 59:0 60:0 61:0.9397462 62:0.052258503 63:0 64:0 65:0 66:0.034188703 67:0.071130082 68:0.3243275 69:0.0042858315 70:0 71:0.051965706 72:0 73:0 74:0 75:0 76:0.7556082 77:0 78:0 79:0 80:0 81:0 82:0.056255132 83:0.61504954 84:0.19973166 85:0 86:0.087691858 87:0 88:0 89:0 90:0 91:0.99826169 92:0 93:0 94:0 95:0 96:0 97:0 98:0 99:0 100:0 101:0.045996573 102:0.036730345 103:0 104:0 105:0 106:0.99999523 107:0 108:0 109:0 110:0 111:0 112:0 113:0 114:0 115:0 116:0 117:0 118:0 119:0 120:0 121:0.32769117 122:0 123:0 124:0 125:0 126:0 127:0.15897766 128:0.82301039 129:0 130:0 131:0.43583855 132:0 133:0 134:0 
0.2767607934113854 0.8471751762509935 1 0.277345678722044 0.8185330391897736 0.9112333675194363 0.2774499389122287 0.9840866516445609 1 0.7586825531770994 1 0.451271338377953 0.2745778443429943 0.3242744465630242 0.8004138865196796 0.1629583055233027 0:0 1:0.89505094 2:0 3:0 4:0 5:0 6:0 7:0.089922301 8:0.35946414 9:0 10:0.19129527 11:0.13780066 12:0.077200606 13:0 14:0 15:0 16:0.52430207 17:0.083389714 18:0 19:0 20:0.19433358 21:0 22:0.68052256 23:0.42608857 24:0.045475502 25:0.12387959 26:0.094252132 27:0.096991919 28:0 29:0 30:0 31:0.80533177 32:0.0023726879 33:0 34:0.011701065 35:0.089099877 36:0.055507228 37:0.45588356 38:0.35756361 39:0.06766016 40:0 41:0.0018981477 42:0 43:0 44:0 45:0 46:0.9999938 47:0 48:0 49:0 50:0 51:0 52:0 53:0 54:0 55:0 56:0 57:0 58:0 59:0 60:0 61:0.98293877 62:0 63:0 64:0 65:0 66:0 67:0.10364594 68:0.11961076 69:0 70:0.063653007 71:0.063694827 72:0.025688304 73:0 74:0 75:0 76:0.94499803 77:0 78:0 79:0.012413117 80:0.27530727 81:0.10068417 82:0.12278524 83:0.073592804 84:0 85:0.015120582 86:0.012413117 87:0 88:0 89:0 90:0 91:0.99998921 92:0 93:0 94:0 95:0 96:0 97:0 98:0 99:0 100:0 101:0 102:0 103:0 104:0 105:0 106:0.99999392 107:0 108:0 109:0 110:0 111:0 112:0 113:0 114:0 115:0 116:0 117:0 118:0 119:0 120:0 121:0.99968046 122:0 123:0 124:0 125:0 126:0 127:0 128:0.024897115 129:0 130:0 131:0 132:0 133:0 134:0 
1 0.256597435721605 0.5148142867818172 0.4014240341902646 0.9067195871459215 0.4209853200085229 0.4604223924693635 0 0.07807641501130132 1 0.520484345956664 0.08517833614988266 1 0.8322556731234686 0.6297882957704508 0.3171688878253585 0:0 1:0.29759568 2:0.0088301916 3:0 4:0.23131365 5:0.17652886 6:0.55342585 7:0.6604473 8:0.17928182 9:0.19850901 10:0.013662352 11:0 12:0.11151576 13:0 14:0 15:0 16:0.23460838 17:0 18:0 19:0 20:0.16742548 21:0.11723579 22:0.42763168 23:0.59691 24:0.536322 25:0.076950274 26:0.22781964 27:0.13602032 28:0 29:0 30:0 31:0.95308852 32:0.06333866 33:0 34:0.078036889 35:0 36:0.0013701109 37:0.070329428 38:0.25090435 39:0.0040473249 40:0.026758827 41:0.11342471 42:0 43:0 44:0 45:0 46:0.3863416 47:0.080754615 48:0.13330773 49:0.25186238 50:0.3033649 51:0.378647 52:0.33903462 53:0.62983018 54:0 55:0 56:0 57:0.12627387 58:0 59:0 60:0 61:0.02475141 62:0 63:0.13341245 64:0 65:0.47295964 66:0.45592219 67:0.55359799 68:0.48520729 69:0.086306438 70:0 71:0.025634032 72:0 73:0 74:0 75:0 76:0.75813717 77:0.19699141 78:0.27649325 79:0.20358916 80:0.13309938 81:0.15446818 82:0.24062683 83:0.26764649 84:0.10692757 85:0 86:0.29315984 87:0 88:0 89:0 90:0 91:0.96733254 92:0.10176458 93:0.020443127 94:0.0094724754 95:0.097499005 96:0.078834988 97:0.061433222 98:0.1446034 99:0.054956391 100:0.069884121 101:0.00069639657 102:0.071139358 103:0 104:0 105:0 106:0.64599204 107:0.17050083 108:0.066696756 109:0.078600876 110:0.11213103 111:0.03554967 112:0.16982359 113:0.37290615 114:0.34477681 115:0.26949915 116:0.34029767 117:0.23219989 118:0 119:0 120:0 121:0.16870017 122:0.025237985 123:0.38575277 124:0.13932468 125:0.58955073 126:0.20515758 127:0.24499191 128:0.29596382 129:0.49933919 130:0.076746687 131:0.040210873 132:0.092292562 133:0 134:0 
0.9335111367159535 0.2277016998091414 1 0.4003496660025492 0.7755866600689971 1 0.8817767401730233 0.5280806244219741 1 0.6374856583309468 0.7177353883031815 0.199562533137213 0.4857123732392259 0.9440651497989608 0.2249033742334787 0.4944066307183138 0:0 1:0.64742655 2:0 3:0 4:0 5:0 6:0.158246 7:0.13509472 8:0.73304898 9:0 10:0 11:0 12:0 13:0 14:0 15:0 16:0.56605238 17:0 18:0 19:0 20:0 21:0.11480898 22:0.12571034 23:0.79879957 24:0.044682156 25:0.0018781965 26:0.096505247 27:0.034034546 28:0 29:0 30:0 31:0.75146627 32:0.22670409 33:0.092680581 34:0.25624788 35:0.020313729 36:0.042813472 37:0.17646587 38:0.40514573 39:0.03534697 40:0.017307768 41:0.14167064 42:0.30076474 43:0 44:0 45:0 46:0.91666192 47:0 48:0 49:0 50:0.055557396 51:0.027047511 52:0.10968372 53:0.37922236 54:0 55:0 56:0 57:0 58:0 59:0 60:0 61:0.59992301 62:0 63:0 64:0 65:0 66:0.08222989 67:0.33270329 68:0.72097009 69:0 70:0 71:0.052390907 72:0 73:0 74:0 75:0 76:0.61456966 77:0.1428086 78:0.39341164 79:0.14610496 80:0.10745966 81:0 82:0.13002627 83:0.62999475 84:0 85:0 86:0.019958802 87:0 88:0 89:0 90:0 91:0.98481834 92:0 93:0 94:0 95:0.030784773 96:0 97:0.16227555 98:0.052988116 99:0 100:0 101:0 102:0 103:0 104:0 105:0 106:0.70059991 107:0 108:0 109:0 110:0.053955294 111:0 112:0.060198512 113:0.44579402 114:0.34647653 115:0.26454467 116:0.25875968 117:0.2164152 118:0 119:0 120:0 121:0.32164168 122:0.12942046 123:0.40087765 124:0.25566536 125:0.095512971 126:0.21954685 127:0.31227541 128:0.56928736 129:0.26519385 130:0.15954946 131:0.1744251 132:0.22030215 133:0 134:0 
1 0.6453109017131184 1 0.571144050845468 0.8159425957695922 1 0.8173689668503591 0.2650170289354987 0.5536950892543036 1 1 0.3124766818855929 1 1 0.9221271042599796 0.7176204018436221 0:0 1:0.59116018 2:0.05317755 3:0.19364423 4:0.14752983 5:0.32969034 6:0.17897148 7:0 8:0.38967407 9:0.059361041 10:0.54065281 11:0 12:0 13:0 14:0 15:0 16:0 17:0 18:0 19:0.039510313 20:0.18011294 21:0.11323749 22:0.29050836 23:0.60002548 24:0.31820202 25:0.62793452 26:0 27:0.11477712 28:0 29:0 30:0 31:0.82887679 32:0.12411914 33:0.085903443 34:0 35:0.17809129 36:0.088503994 37:0.24733512 38:0.38643402 39:0.048429165 40:0.19378959 41:0 42:0.01443127 43:0 44:0 45:0 46:0.43122935 47:0.17535853 48:0.19897549 49:0.025332659 50:0.57184422 51:0.38020661 52:0 53:0.41946074 54:0.097206555 55:0.26440746 56:0.1271321 57:0 58:0 59:0 60:0 61:0.25401571 62:0.0036935878 63:0 64:0.19673935 65:0.31005213 66:0.28871024 67:0.53843194 68:0.43916801 69:0.14289266 70:0.4511084 71:0.10272299 72:0 73:0 74:0 75:0 76:0.69610828 77:0.31316429 78:0.29577911 79:0.026754932 80:0.43793201 81:0.081048638 82:0.2296813 83:0.22638497 84:0.087268211 85:0.13840476 86:0.0041034706 87:0 88:0 89:0 90:0 91:0.91723335 92:0.13241102 93:0.10848279 94:0 95:0.17249142 96:0.15342933 97:0 98:0.09193255 99:0.02467493 100:0.230629 101:0.11753322 102:0 103:0 104:0 105:0 106:0.75202125 107:0.016775353 108:0 109:0.023012407 110:0.19806869 111:0.28604165 112:0.1642905 113:0.20130822 114:0.088303275 115:0.32013875 116:0.32919186 117:0.16251107 118:0 119:0 120:0 121:0.45401847 122:0.1873706 123:0.16468939 124:0.14840579 125:0.36433503 126:0.1558193 127:0.49848372 128:0.37610212 129:0 130:0.25577211 131:0.21895415 132:0.22196586 133:0 134:0 
0 0 0.09733702561589022 0 0 0.02480779380984326 0 0 0 0 0 0 0 0 0 0 0:0 1:0.51704472 2:0 3:0.16541898 4:0 5:0 6:0 7:0.24683198 8:0.73605245 9:0.16202666 10:0.16290829 11:0.22310197 12:0 13:0 14:0 15:0 16:0.3052175 17:0 18:0.068661623 19:0 20:0.065945908 21:0.042436939 22:0.35759768 23:0.86534703 24:0.13802063 25:0.014545999 26:0.000757934 27:0 28:0 29:0 30:0 31:0.83555782 32:0.014557366 33:0.020143099 34:0 35:0.00041140107 36:0.00051425071 37:0.3671082 38:0.40639335 39:0.032431446 40:0.015468618 41:0 42:0 43:0 44:0 45:0 46:0.90079653 47:0 48:0 49:0 50:0 51:0 52:0.29545668 53:0.26959541 54:0.022324327 55:0.07015688 56:0.15216403 57:0 58:0 59:0 60:0 61:0.91746247 62:0 63:0.0094910935 64:0 65:0.092278607 66:0 67:0.10207275 68:0.3691723 69:0.02288691 70:0 71:0.049085435 72:0 73:0 74:0 75:0 76:0.82748038 77:0 78:0.034186013 79:0 80:0.066671975 81:0 82:0.21614869 83:0.51276445 84:0.00059523113 85:0 86:0 87:0 88:0 89:0 90:0 91:0.99999404 92:0 93:0 94:0 95:0 96:0 97:0 98:0 99:0 100:0.00060578494 101:0.0010388044 102:0 103:0 104:0 105:0 106:0.99980211 107:0 108:0 109:0 110:0 111:0 112:0 113:0.019624738 114:0 115:0 116:0 117:0 118:0 119:0 120:0 121:0.9722591 122:0 123:0 124:0.057632454 125:0.089099616 126:0.13039485 127:0.12470458 128:0.044866338 129:0.079511523 130:0.050378498 131:0 132:0 133:0 134:0 
1 0.2485293909910989 0.3432648117640228 0.231579835847113 0.3883727383680725 1 0.2551279084237016 0.05142823861205674 0.121458672795281 1 0.9354992384800526 0.2884164647309755 1 0.634562137120289 0.5495106017735708 0.300326919790058 0:0 1:0.15954056 2:0.15710014 3:0.20274095 4:0 5:0 6:0.082393825 7:0.50174898 8:0.61668736 9:0.20004717 10:0 11:0.37133411 12:0.30317315 13:0 14:0 15:0 16:0.089229353 17:0.10229263 18:0.0072125634 19:0 20:0 21:0.085997887 22:0.31435189 23:0.8307327 24:0.073134363 25:0.14092426 26:0.3477695 27:0.19747534 28:0 29:0 30:0 31:0.73265117 32:0.15547763 33:0.076833732 34:0.20271744 35:0.015914736 36:0.033263788 37:0.23323797 38:0.5419175 39:0.032056499 40:0.021769956 41:0.12399774 42:0.16032782 43:0 44:0 45:0 46:0.26695874 47:0.18626644 48:0.032861058 49:0 50:0 51:0.17563558 52:0.13814653 53:0.76310843 54:0.24966641 55:0 56:0.37715942 57:0.23672071 58:0 59:0 60:0 61:0.35320583 62:0.28099653 63:0.1402285 64:0 65:0 66:0.059316535 67:0.52961391 68:0.47477788 69:0.21897292 70:0.10732028 71:0.41920602 72:0.17869526 73:0 74:0 75:0 76:0.71834421 77:0.50317132 78:0.01243322 79:0.16241771 80:0.27998149 81:0.049057983 82:0.32358682 83:0.12528375 84:0 85:0.013551552 86:0.053304378 87:0 88:0 89:0 90:0 91:0.95075679 92:0.083146825 93:0 94:0 95:0 96:0.11446814 97:0.16360204 98:0 99:0.14526241 100:0 101:0.16771947 102:0 103:0 104:0 105:0 106:0.81040919 107:0.12364215 108:0 109:0 110:0 111:0.11658547 112:0.048919752 113:0.31078106 114:0.14536136 115:0.30198359 116:0.320948 117:0 118:0 119:0 120:0 121:0.30685455 122:0.51211357 123:0 124:0.27860758 125:0.094606176 126:0.29157719 127:0.29850742 128:0.33019274 129:0.020346191 130:0.48445752 131:0.19668639 132:0 133:0 134:0 
0.2476671950041611 0.1456043527607521 0.1410587624873838 0.1634214263100034 0.04344194595710543 0.1354905785213867 0.1728947500950459 0.08041445366363664 0.06505965042029073 0.2342131299551174 0.2531781056956411 0.06961655496257171 0.2696532493080692 0.2803830747632178 0.2169571415164834 0.03112807756553399 0:0 1:0.43175679 2:0 3:0 4:0 5:0 6:0 7:0.2206912 8:0.86690485 9:0.10918102 10:0 11:0.035865806 12:0 13:0 14:0 15:0 16:0.78217673 17:0 18:0 19:0 20:0 21:0 22:0.31589907 23:0.5355702 24:0.037941061 25:0 26:0.0059939139 27:0 28:0 29:0 30:0 31:0.99997085 32:0 33:0 34:0 35:0 36:0 37:0 38:0 39:0 40:0 41:0 42:0 43:0 44:0 45:0 46:0.10941743 47:0 48:0 49:0 50:0 51:0 52:0.51023406 53:0.8331545 54:0.14050245 55:0.095863104 56:0.058146741 57:0.033159517 58:0 59:0 60:0 61:0.89307719 62:0 63:0 64:0 65:0 66:0 67:0.029727757 68:0.44855067 69:0 70:0 71:0.016231516 72:0 73:0 74:0 75:0 76:0.11192883 77:0 78:0 79:0 80:0 81:0.080138184 82:0.68517959 83:0.71460742 84:0.028146485 85:0 86:0 87:0 88:0 89:0 90:0 91:0.067216069 92:0 93:0 94:0 95:0 96:0 97:0.74743634 98:0.48324069 99:0.24446559 100:0.20545788 101:0.24325509 102:0.20461603 103:0 104:0 105:0 106:0.97732085 107:0 108:0 109:0 110:0 111:0 112:0.18395913 113:0.10387295 114:0 115:0 116:0 117:0 118:0 119:0 120:0 121:0.99996006 122:0 123:0 124:0 125:0 126:0 127:0 128:0 129:0 130:0 131:0 132:0 133:0 134:0 
1 0.3757469390585323 0.8428293452998359 0.2296914866813053 1 1 0.4806163378530179 0.2443850186939303 0.7064986447374335 1 1 0.5736688568454112 1 1 0.9628557563241638 0.4874641192045767 0:0 1:0.29938594 2:0.15881982 3:0 4:0.39377937 5:0.048267499 6:0.60413325 7:0.50010782 8:0.24037154 9:0 10:0.0061080744 11:0.11830248 12:0.20166746 13:0 14:0 15:0 16:0.3034431 17:0.00097614777 18:0 19:0.077426665 20:0 21:0.5214529 22:0.22336237 23:0.69244486 24:0.13857687 25:0.15595886 26:0.23872799 27:0.0055392375 28:0 29:0 30:0 31:0.84950447 32:0.073025219 33:0.14613174 34:0.14078087 35:0.083220422 36:0.25194156 37:0.081903368 38:0.30806568 39:0.15073775 40:0.11498985 41:0.15429635 42:0 43:0 44:0 45:0 46:0.73861915 47:0.15428002 48:0 49:0.088799447 50:0.091704771 51:0.19190158 52:0.31781918 53:0.41732609 54:0.1398997 55:0.006144701 56:0.24259682 57:0.1541288 58:0 59:0 60:0 61:0.54944462 62:0.15654595 63:0 64:0.19186391 65:0.11019644 66:0.5530625 67:0.2436469 68:0.49143037 69:0 70:0.0029546998 71:0.091035694 72:0.097553946 73:0 74:0 75:0 76:0.63304996 77:0.44232216 78:0.14623551 79:0.23635086 80:0.33328182 81:0.40478376 82:0.027829496 83:0.22487265 84:0 85:0 86:0 87:0 88:0 89:0 90:0 91:0.95975685 92:0.042784598 93:0 94:0.096800022 95:0.053489253 96:0 97:0.022514246 98:0.18317108 99:0.12032814 100:0 101:0.083688237 102:0.095799394 103:0 104:0 105:0 106:0.82551295 107:0.09779945 108:0 109:0.014119153 110:0.1375487 111:0 112:0.042003006 113:0.20948575 114:0.24100086 115:0.27893484 116:0.30027133 117:0.13439213 118:0 119:0 120:0 121:0.36204109 122:0.48018965 123:0.11464225 124:0.13912483 125:0.35879076 126:0.37880543 127:0.092725009 128:0.44358045 129:0.15205331 130:0.2517952 131:0.1913878 132:0.070686638 133:0 134:0 
0.6665675805751488 0.3429018486526308 0.5291803202022878 1 0.9482185427954071 0.4704079763424536 0.5619905307789577 0.1405824715615304 0.2294486405577804 0.4726072347959623 0.4636243315192679 0.3571023264200508 0.5628571291217696 0.4460166644298721 0.7267916531497556 0.3525676224634994 0:0 1:0 2:0 3:0 4:0 5:0 6:0 7:0.952492 8:0.1963701 9:0.23099163 10:0 11:0.02848025 12:0 13:0 14:0 15:0 16:0.32626373 17:0 18:0 19:0 20:0 21:0 22:0.79016447 23:0.51273626 24:0.07921645 25:0 26:0 27:0 28:0 29:0 30:0 31:0.66209364 32:0 33:0 34:0 35:0 36:0 37:0.54202968 38:0.51292413 39:0.052176353 40:0.044792347 41:0 42:0 43:0 44:0 45:0 46:0.33156136 47:0 48:0 49:0 50:0 51:0 52:0.90297365 53:0.088043228 54:0.00026661652 55:0 56:0.062563345 57:0.25102606 58:0 59:0 60:0 61:0.76844287 62:0 63:0 64:0 65:0 66:0 67:0.55796534 68:0.29479346 69:0.10608269 70:0 71:0 72:0 73:0 74:0 75:0 76:0.93821251 77:0.073431335 78:0 79:0 80:0 81:0 82:0.32038641 83:0.0038909689 84:0 85:0 86:0.10798488 87:0 88:0 89:0 90:0 91:0.99997443 92:0 93:0 94:0 95:0 96:0 97:0 98:0 99:0 100:0 101:0 102:0.0022734178 103:0 104:0 105:0 106:0.7787956 107:0 108:0 109:0 110:0 111:0 112:0.61338866 113:0.13112204 114:0 115:0 116:0 117:0 118:0 119:0 120:0 121:0.99999046 122:0 123:0 124:0 125:0 126:0 127:0 128:0 129:0 130:0 131:0 132:0 133:0 134:0 
0.5961552281471868 0.1955478762285403 0.7185103975669928 0.9751561160935946 0.7416505306066069 0.283816643991718 0.373692273887914 0.02129070679191637 0.05235543243395473 0.3593398779566249 0.2796815258635486 0.1371634144221634 0.3932357145051715 0.1630918540768599 0.3424978398596626 0.2673826743410252 0:0 1:0 2:0 3:0 4:0 5:0 6:0 7:0 8:0.99932975 9:0 10:0 11:0 12:0 13:0 14:0 15:0 16:0.41773537 17:0 18:0 19:0 20:0.04282707 21:0 22:0.41357005 23:0.68082559 24:0 25:0.033807561 26:0.19482461 27:0.38722387 28:0 29:0 30:0 31:0.99981952 32:0 33:0 34:0 35:0.0010054189 36:0 37:0 38:0.018498123 39:0 40:0.00050270947 41:0.00033199051 42:0 43:0 44:0 45:0 46:0.11077163 47:0 48:0 49:0 50:0 51:0 52:0.82917398 53:0.51551765 54:0.18544175 55:0 56:0 57:0 58:0 59:0 60:0 61:0 62:0 63:0 64:0 65:0.064822912 66:0 67:0.64670205 68:0.70601773 69:0.24540961 70:0.09553203 71:0 72:0.098658189 73:0 74:0 75:0 76:0.49758771 77:0 78:0 79:0 80:0.037348337 81:0 82:0.48438072 83:0.65670264 84:0.0008516981 85:0.20659508 86:0.056205977 87:0.19813569 88:0 89:0 90:0 91:0.97738302 92:0 93:0 94:0 95:0 96:0 97:0.016988249 98:0.13512488 99:0.1616932 100:0 101:0 102:0 103:0 104:0 105:0 106:0.62695855 107:0 108:0 109:0 110:0 111:0.0015768118 112:0.52597362 113:0.46972871 114:0.31832194 115:0.090910181 116:0 117:0 118:0 119:0 120:0 121:0.92785996 122:0 123:0 124:0 125:0 126:0 127:0.086588643 128:0.27503818 129:0.21823132 130:0.090999484 131:0 132:0 133:0 134:0 
1 0.2240587404771154 0.2594614505396023 0.1843869798300189 0.5496885731943847 1 0.3983731175108255 0.4150611025577705 0.6065852425638462 1 0.7927571706926102 0.469036903724341 1 0.938879181301323 0.8110035844809733 0.4134058309075389 0:0 1:0.25483599 2:0.14594074 3:0.12251099 4:0 5:0.26165095 6:0.33019403 7:0.15100439 8:0.59906965 9:0.1599523 10:0.049698405 11:0.24127054 12:0.5031389 13:0 14:0 15:0 16:0.13332774 17:0.21469428 18:0.22265756 19:0 20:0.1780723 21:0.23311962 22:0.28424633 23:0.65737581 24:0.32982525 25:0.14180303 26:0.076212808 27:0.39088544 28:0 29:0 30:0 31:0.74048358 32:0.16058403 33:0.11262236 34:0.15885405 35:0.19222891 36:0.075589202 37:0.20614187 38:0.4598859 39:0.034675121 40:0.19092505 41:0.04416576 42:0.22733997 43:0 44:0 45:0 46:0.42442539 47:0 48:0.30595598 49:0 50:0 51:0.28718287 52:0.29868859 53:0.74120247 54:0.034544669 55:0.062568694 56:0 57:0.00077981333 58:0 59:0 60:0 61:0.8849538 62:0.062381331 63:0.14237493 64:0 65:0.11184084 66:0.14113909 67:0.15834361 68:0.33776519 69:0.068370476 70:0.021243231 71:0.10312938 72:0.072651021 73:0 74:0 75:0 76:0.91496313 77:0.21569303 78:0 79:0.22218709 80:0.09424369 81:0.1598479 82:0.038114596 83:0.17616054 84:0 85:0 86:0 87:0 88:0 89:0 90:0 91:0.93897671 92:0 93:0.11914299 94:0 95:0 96:0 97:0.17831878 98:0.26888049 99:0 100:0 101:0 102:0 103:0 104:0 105:0 106:0.84931797 107:0 108:0.09754324 109:0 110:0 111:0 112:0.031895462 113:0.40202394 114:0.28846842 115:0 116:0.1068198 117:0.10879535 118:0 119:0 120:0 121:0.31438178 122:0.23191153 123:0 124:0.21009174 125:0.39043888 126:0.090558127 127:0.26167861 128:0.45614377 129:0.49801338 130:0 131:0.15594488 132:0.30605927 133:0 134:0 
0.5848477415365063 0.3366685384409602 0.4589426240153848 1 0.4818318724520242 0.3151745837304155 0.8418782006077665 0.1472546916423013 0.1413307354932699 0.4564419064954353 0.5249712611222606 0.3126804119787661 0.5940396598182497 0.3942976937861689 0.5610924627102829 0.4203660566133217 0:0 1:0 2:0 3:0 4:0 5:0 6:0 7:0.024320787 8:0.98401457 9:0.10910428 10:0.13837154 11:0 12:0 13:0 14:0 15:0 16:0 17:0 18:0 19:0 20:0 21:0 22:0.0088717369 23:0.99993849 24:1.196531e-08 25:1.196531e-08 26:0 27:0 28:0 29:0 30:0 31:0.86214292 32:0 33:0.3246358 34:0 35:0 36:0 37:0 38:0.38889122 39:0 40:0 41:0 42:0 43:0 44:0 45:0 46:0.034801453 47:0 48:0 49:0.19126101 50:0 51:0.011632309 52:0.59271038 53:0.76145869 54:0.077816829 55:0.11095095 56:0 57:0.11177666 58:0 59:0 60:0 61:0 62:0 63:0 64:0 65:0 66:0 67:0.012291745 68:0.99373758 69:0.055141438 70:0.096212216 71:0 72:0 73:0 74:0 75:0 76:0.5672074 77:0 78:0 79:0 80:0 81:0 82:0 83:0.8231613 84:0 85:0.025281508 86:0 87:0 88:0 89:0 90:0 91:0.45129246 92:0 93:0 94:0.23780565 95:0 96:0.13031814 97:0.55312896 98:0.62470502 99:0 100:1.7800824e-08 101:0 102:0.16266777 103:0 104:0 105:0 106:0.30595329 107:0 108:0 109:0 110:0 111:0 112:0.009747793 113:0.95186937 114:0 115:0.012979588 116:0 117:0 118:0 119:0 120:0 121:0.09556412 122:0 123:0 124:0 125:0 126:0 127:0 128:0.99500346 129:0 130:0.028209409 131:0 132:0 133:0 134:0 
1 0.6278886607900447 0.8016947076903197 1 0.8499521295769494 0.7095525430994249 0.9130370298878614 0.2996189605360952 0.3461918202320128 0.9260594134534431 0.9781963645743518 0.5084772777096628 1 0.7855474958243106 1 0.7787955747496346 0:0 1:0 2:0 3:0 4:0 5:0 6:0 7:0 8:0 9:0 10:0 11:0 12:0 13:0 14:0 15:0 16:0 17:0 18:0 19:0 20:0 21:0 22:0 23:0 24:0 25:0 26:0 27:0 28:0 29:0 30:0 31:0 32:0 33:0 34:0 35:0 36:0 37:0 38:0 39:0 40:0 41:0 42:0 43:0 44:0 45:0 46:0 47:0 48:0 49:0 50:0 51:0 52:0 53:0 54:0 55:0 56:0 57:0 58:0 59:0 60:0 61:0 62:0 63:0 64:0 65:0 66:0 67:0 68:0 69:0 70:0 71:0 72:0 73:0 74:0 75:0 76:0 77:0 78:0 79:0 80:0 81:0 82:0 83:0 84:0 85:0 86:0 87:0 88:0 89:0 90:0 91:0 92:0 93:0 94:0 95:0 96:0 97:0 98:0 99:0 100:0 101:0 102:0 103:0 104:0 105:0 106:0 107:0 108:0 109:0 110:0 111:0 112:0 113:0 114:0 115:0 116:0 117:0 118:0 119:0 120:0 121:0 122:0 123:0 124:0 125:0 126:0 127:0 128:0 129:0 130:0 131:0 132:0 133:0 134:0 
0.3521491493444628 0.2094703312832702 0.2058785611256149 0.1741588188195035 0.193497629014032 0.1901091467419618 0.3037005334445237 0.08857422153424832 0.1195951185221765 0.331881412314239 0.3190319977121612 0.153341936438122 0.3426404922343148 0.2706508356616704 0.3021716558871388 0.2755685422920387 0:0 1:0.3680203 2:0 3:0 4:0 5:0 6:0 7:0.24433795 8:0.86639023 9:0.23218969 10:0 11:0 12:0.016925039 13:0 14:0 15:0 16:0.74527603 17:0 18:0 19:0 20:0 21:0 22:0.62853092 23:0.20711419 24:0.081245407 25:0 26:0 27:0 28:0 29:0 30:0 31:0.99999487 32:0 33:0 34:0 35:0 36:0 37:0 38:0 39:0 40:0 41:0 42:0 43:0 44:0 45:0 46:0.05233689 47:0 48:0 49:0 50:0 51:0 52:0.19520856 53:0.97119635 54:0.057224639 55:0.060291976 56:0.094322413 57:0.010267489 58:0 59:0 60:0 61:0.89163238 62:0 63:0 64:0 65:0 66:0 67:0.15013173 68:0.42603457 69:0.029733023 70:0 71:0 72:0.0070930296 73:0 74:0 75:0 76:0.13386463 77:0 78:0.065290757 79:0 80:0 81:0.11718582 82:0.94772631 83:0.25164491 84:0 85:0 86:0.050569043 87:0 88:0 89:0 90:0 91:0.15728934 92:0 93:0 94:0 95:0 96:0 97:0 98:0.96315211 99:0 100:0.10844374 101:0.18920897 102:0 103:0 104:0 105:0 106:0.94041902 107:0 108:0 109:0 110:0 111:0 112:0 113:0.33997679 114:0 115:0 116:0 117:0 118:0 119:0 120:0 121:0.99999321 122:0 123:0 124:0 125:0 126:0 127:0 128:0 129:0 130:0 131:0 132:0 133:0 134:0 
0.490886605666761 0 0.6997249419281093 0 0.2130952313578689 0.2575823219838555 0.5651455088409355 0.1121147024805719 0.1225185164189839 0.2197478741299022 0.2701434029440609 0.07076927912987199 0.1940486836172382 0.0723285622688551 0.09109016739748702 0.2840280230005698 0:0 1:0.46746144 2:0.5158633 3:0.19135661 4:0 5:0.089642428 6:0.034443147 7:0.380992 8:0.19368622 9:0.10888384 10:0.20285293 11:0.432484 12:0.21613073 13:0 14:0 15:0 16:0.41599852 17:0 18:0 19:0.0017759458 20:0.15724012 21:0.00062362797 22:0 23:0.83236873 24:0.022907678 25:0.30108348 26:0.077723011 27:0.11001085 28:0 29:0 30:0 31:0.78247929 32:0 33:0 34:0.14343323 35:0.00047476593 36:0.00094953185 37:0.083210975 38:0.58487064 39:0.00067142036 40:0 41:0.00094953185 42:0.13456221 43:0 44:0 45:0 46:0.5674817 47:0.21640706 48:0.19841211 49:0 50:0.12237271 51:0.10060144 52:0.25921568 53:0.66930687 54:0 55:0.033088226 56:0.22441275 57:0 58:0 59:0 60:0 61:0.28667253 62:0 63:0 64:0.0069874758 65:0 66:0 67:0 68:0.89828265 69:0 70:0.18743332 71:0.27507401 72:0 73:0 74:0 75:0 76:0.79050648 77:0.14807229 78:0 79:0.22966382 80:0 81:0.00065010559 82:0.020125713 83:0.54418737 84:0 85:0.04772713 86:0.039275728 87:0 88:0 89:0 90:0 91:0.86445743 92:0.10318799 93:0.037439849 94:0 95:0.069887936 96:0 97:0.04339657 98:0.47937083 99:0.056656972 100:0.025014726 101:0 102:0.015107066 103:0 104:0 105:0 106:0.72631103 107:0.057441525 108:0 109:0.013502896 110:0 111:0.098150879 112:0.11586292 113:0.62727743 114:0.092768803 115:0.19198829 116:0 117:0.083280347 118:0 119:0 120:0 121:0.24898385 122:0.051712804 123:0 124:0.32210487 125:0 126:0.50476247 127:0.53109574 128:0.46415493 129:0.17362194 130:0.14838566 131:0.16440083 132:0 133:0 134:0 
0.2376599869640564 0.1201422193321948 0.1234716969710893 0.0749924471131295 0.1933763541199582 0.05035279337757653 0.2445556644765565 0 0 0.2210046997395591 0 0 0.1333140572874786 0.06585142846884093 0.1358078490632369 0.2303333302324462 0:0 1:0.34275317 2:0.12537353 3:0.21538609 4:0 5:0 6:0 7:0.58904177 8:0.515971 9:0.18168044 10:0.34142917 11:0.18968283 12:0.14705318 13:0 14:0 15:0 16:0.79994613 17:0.056142241 18:0.063747101 19:0 20:0 21:0.058573715 22:0.45905516 23:0.30731222 24:0.15639244 25:0.14068659 26:0 27:0.0015452643 28:0 29:0 30:0 31:0.9999916 32:0 33:0 34:0 35:0 36:0 37:0 38:0 39:0 40:0 41:0 42:0 43:0 44:0 45:0 46:0.98336673 47:0 48:0.0018220482 49:0 50:0 51:0 52:0 53:0.13470164 54:0 55:0.058500491 56:0.10680606 57:0 58:0 59:0 60:0 61:0.84173566 62:0.15137449 63:0.11958835 64:0 65:0 66:0.052929107 67:0.45407534 68:0.1370627 69:0.14075235 70:0 71:0 72:0.081648014 73:0 74:0 75:0 76:0.32384628 77:0.19578797 78:0 79:0 80:0 81:0.20426738 82:0.84533012 83:0.24277303 84:0.20370674 85:0 86:0 87:0 88:0 89:0 90:0 91:0.99999446 92:0 93:0 94:0 95:0 96:0 97:0 98:0 99:0 100:0 101:0 102:0 103:0 104:0 105:0 106:0.99221629 107:0 108:0 109:0 110:0 111:0 112:0 113:0.12447806 114:0 115:0 116:0 117:0 118:0 119:0 120:0 121:0.99976563 122:0 123:0 124:0 125:0 126:0 127:0 128:0 129:0 130:0 131:0 132:0 133:0 134:0 
1 0.1239524514380137 0.4651953118425356 0.2742746267638124 0.2470782652679553 0.6242968445427831 0.4007382890327829 0.01802536351549376 0.03792065702130347 0.9881213972176001 0.4913798183928408 0.1054212386728298 1 0.7375411868882324 0.3120251738589478 0.2382979861067575 0:0 1:0.030489553 2:0.20917043 3:0.15210022 4:0.24867263 5:0.1707661 6:0.040533751 7:0.23376653 8:0.74236256 9:0.14821611 10:0.21518236 11:0.26255465 12:0.310684 13:0 14:0 15:0 16:0.16552076 17:0 18:0 19:0 20:0 21:0 22:0.38606098 23:0.78140706 24:0.14875278 25:0.26119548 26:0.27999035 27:0.21016896 28:0 29:0 30:0 31:0.78086442 32:0.044997141 33:0.065161407 34:0.12789331 35:0.066634208 36:0 37:0.18294187 38:0.54371953 39:0.079147324 40:0.078445375 41:0.1310086 42:0.066856489 43:0 44:0 45:0 46:0.14962877 47:0.34002373 48:0.14908963 49:0.3230277 50:0.35856494 51:0.2551088 52:0.34432918 53:0.59137756 54:0.077609137 55:0.11290983 56:0.14499253 57:0.1833981 58:0 59:0 60:0 61:0.1931476 62:0.13862312 63:0.2560176 64:0.16295384 65:0.11686776 66:0.25032946 67:0.3963412 68:0.65681368 69:0.1472389 70:0.039241061 71:0.26082355 72:0.30863556 73:0 74:0 75:0 76:0.54314154 77:0.20953026 78:0.1851204 79:0.23804042 80:0.10186239 81:0.097777091 82:0.4632127 83:0.57750654 84:0 85:0.045948226 86:0 87:0 88:0 89:0 90:0 91:0.79203421 92:0.31292596 93:0.086813778 94:0.23545182 95:0.29546028 96:0.18143648 97:0.22489706 98:0.18876958 99:0.059574008 100:0 101:0 102:0.041981433 103:0 104:0 105:0 106:0.77938688 107:0.26322284 108:0.20240653 109:0.016548332 110:0.15862682 111:0.3705253 112:0.22530012 113:0.21843021 114:0.077417448 115:0.083211482 116:0 117:0.090194695 118:0 119:0 120:0 121:0.49193221 122:0.20123789 123:0.46454403 124:0.27453962 125:0.34013015 126:0.18099998 127:0.45029947 128:0.21793832 129:0 130:0.1660347 131:0 132:0 133:0 134:0 
0 0 0.2527615149014025 0.09213462280732053 0.5509510085993875 0 0 0.09820249723699592 0.1607992299652859 0.03363542724721252 0 0.03251789145894375 0 0 0.1730690766935269 0 0:0 1:0.47627506 2:0 3:0 4:0.066954359 5:0 6:0.11032435 7:0.7873559 8:0.2507444 9:0.25126871 10:0 11:0 12:0.10260594 13:0 14:0 15:0 16:0.50353271 17:0 18:0.052206904 19:0.046168763 20:0 21:0.11325944 22:0.77507818 23:0.3456175 24:0.092428699 25:0 26:0 27:0 28:0 29:0 30:0 31:0.94144797 32:0 33:0 34:0 35:0 36:0 37:0.074374229 38:0.32882893 39:0.00063388824 40:0 41:0 42:0 43:0 44:0 45:0 46:0.95548373 47:0 48:0 49:0 50:0 51:0.068730496 52:0.2282079 53:0.15894026 54:0.065698572 55:0 56:0 57:0.025458999 58:0 59:0 60:0 61:0.93681926 62:0 63:0 64:0 65:0 66:0.066668414 67:0.3251445 68:0.1103652 69:0.00062940241 70:0 71:0 72:0 73:0 74:0 75:0 76:0.86735243 77:0.0013101246 78:0.056274202 79:0.00032752904 80:0 81:0 82:0.47267836 83:0.12921605 84:0.05600775 85:0.035227947 86:0 87:0 88:0 89:0 90:0 91:0.99998963 92:0 93:0 94:0 95:0 96:0 97:0 98:0.00042466976 99:0.00021233423 100:0 101:0 102:0 103:0 104:0 105:0 106:0.9999882 107:0.00053977902 108:0 109:0 110:0 111:0 112:0 113:0.0013415109 114:0 115:0 116:0 117:0 118:0 119:0 120:0 121:0.93837792 122:0.13476276 123:0 124:0.20711285 125:0.11737826 126:0 127:0.0011596116 128:0 129:0 130:0.21107019 131:0 132:0 133:0 134:0 
0 0 0 0.1043282651132583 0.1498732663751772 0.09051661987875788 0 0 0 0 0 0 0.02637080101515243 0.1218841926755929 0.1157581040915716 0 0:0 1:0.024256535 2:0 3:0 4:0 5:0 6:0 7:0.71471804 8:0.58554631 9:0.14837161 10:0.1981898 11:0.19804919 12:0.21250841 13:0 14:0 15:0 16:0.57344902 17:0 18:0 19:0 20:0 21:0 22:0.21056652 23:0.77917439 24:0.046181086 25:0.095738553 26:0.016570298 27:0.09005399 28:0 29:0 30:0 31:0.99984133 32:0 33:0 34:0 35:0 36:0 37:0 38:0.017513473 39:0 40:0 41:0 42:0 43:0 44:0 45:0 46:0.31295669 47:0 48:0 49:0 50:0 51:0 52:0.82920277 53:0.36008644 54:0.29096633 55:0.010862257 56:0 57:0 58:0 59:0 60:0 61:0.84961826 62:0 63:0 64:0 65:0 66:0 67:0.42484796 68:0.29163647 69:0.052497786 70:0.070124768 71:0.07007502 72:0 73:0 74:0 75:0 76:0.051727869 77:0 78:0 79:0.11980958 80:0.17704232 81:0.10700195 82:0.32049268 83:0.90726531 84:0.11566835 85:0 86:0.030179009 87:0 88:0 89:0 90:0 91:0.99872768 92:0 93:0 94:0 95:0 96:0 97:0 98:0.022624236 99:0.044185497 100:0 101:0 102:0 103:0 104:0 105:0 106:0.86951417 107:0 108:0 109:0 110:0 111:0 112:0.48847935 113:0.072723724 114:0 115:0 116:0 117:0 118:0 119:0 120:0 121:0.99998832 122:0 123:0 124:0 125:0 126:0 127:0 128:0 129:0 130:0 131:0 132:0 133:0 134:0 
1 0.3313894869167101 0.554086934607618 0.4384079603936961 0.5284752479890186 1 0.4246699463232325 0.01416940113477138 0.1377808162098319 1 0.6080812720367491 0.1435731575557611 0.7211838881872183 0.2313036144222096 0.5342972512442533 0.4435980365968614 0:0 1:0.33675835 2:0.33959034 3:0.084177583 4:0 5:0.25944078 6:0.43442354 7:0.25772399 8:0.0089032929 9:0.43393478 10:0.39352828 11:0.031290807 12:0.31219372 13:0 14:0 15:0 16:0.086487569 17:0 18:0 19:0 20:0 21:0 22:0.52093834 23:0.42845276 24:0.49388421 25:0.30650455 26:0.32171434 27:0.3101216 28:0 29:0 30:0 31:0.91806042 32:0.086467251 33:0.099993654 34:0 35:0.18072997 36:0.069500223 37:0.092818201 38:0.13611123 39:0.19167113 40:0.093179524 41:0.1703719 42:0.024291473 43:0 44:0 45:0 46:0.083764918 47:0.20063619 48:0.34619039 49:0 50:0.27572012 51:0.25723726 52:0.30252153 53:0.67997801 54:0.31301954 55:0.1305211 56:0.14749733 57:0 58:0 59:0 60:0 61:0.22047919 62:0.038062934 63:0 64:0 65:0.038235389 66:0 67:0.55572712 68:0.69183046 69:0.27259818 70:0.15022162 71:0.25320363 72:0 73:0 74:0 75:0 76:0.86754161 77:0.15254609 78:0.29189387 79:0.067247808 80:0.15700737 81:0.044131927 82:0.29345128 83:0.024972986 84:0.097669087 85:0.079553865 86:0.071782507 87:0 88:0 89:0 90:0 91:0.81189829 92:0 93:0.14302653 94:0 95:0.078843005 96:0.096556783 97:0 98:0.52848703 99:0 100:0.018180871 101:0.096880697 102:0.12565412 103:0 104:0 105:0 106:0.67705178 107:0.051547237 108:0 109:0 110:0.05197157 111:0.046666928 112:0.35497564 113:0.5072462 114:0 115:0.16034573 116:0.23310827 117:0.26586226 118:0 119:0 120:0 121:0.64027178 122:0.089425027 123:0.15626223 124:0.1337132 125:0.18137975 126:0.48271182 127:0.40541792 128:0.18441479 129:0.14666431 130:0.14954473 131:0.11360706 132:0.13661982 133:0 134:0 
0.004024608080002088 0 0 0.1921814058491281 0 0 0 0 0 0 0 0 0 0 0 0 0:0 1:0.0053436733 2:0 3:0 4:0 5:0 6:0 7:0.70204234 8:0.65654826 9:0.16782549 10:0.13191368 11:0.11671593 12:0.12974147 13:0 14:0 15:0 16:0.30878946 17:0 18:0 19:0 20:0 21:0 22:0.77898329 23:0.50404495 24:0.16047594 25:0.089455932 26:0.089927725 27:0.043707971 28:0 29:0 30:0 31:0.93385172 32:0 33:0 34:0 35:0 36:0 37:0.015158546 38:0.35732225 39:0.00077460019 40:0.00023586082 41:0 42:0 43:0 44:0 45:0 46:0.23981136 47:0 48:0 49:0 50:0 51:0 52:0.66477561 53:0.6892724 54:0.031273723 55:0 56:0.043009173 57:0.15038116 58:0 59:0 60:0 61:0.87782657 62:0 63:0 64:0 65:0 66:0 67:0.28859222 68:0.37099689 69:0.02161742 70:0 71:0.059869844 72:0.066551343 73:0 74:0 75:0 76:0.16411327 77:0.051975247 78:0 79:0.14440639 80:0 81:0 82:0.95889103 83:0.15094878 84:0.06447465 85:0.055341266 86:0 87:0 88:0 89:0 90:0 91:0.45090967 92:0 93:0 94:0 95:0 96:0 97:0.50033039 98:0.69310457 99:0 100:0 101:0 102:0.25668952 103:0 104:0 105:0 106:0.95815343 107:0 108:0 109:0 110:0 111:0 112:0.071542814 113:0.27707803 114:0 115:0 116:0 117:0 118:0 119:0 120:0 121:0.9999904 122:0 123:0 124:0 125:0 126:0 127:0 128:0 129:0 130:0 131:0 132:0 133:0 134:0 
0.8925465523182256 1 1 0.8827050663147193 1 1 0.8256703963058959 0.9017692023599266 1 1 1 1 0.9550969554716336 0.819376318419891 1 1 0:0 1:0.65509981 2:0 3:0.0062046242 4:0.26830372 5:0 6:0.22480154 7:0.36694396 8:0.13141797 9:0.4441871 10:0.068823181 11:0.30697137 12:0 13:0 14:0 15:0 16:0.7254833 17:0 18:0.010348108 19:0.090715259 20:0 21:0 22:0.00096436741 23:0.47340241 24:0.3368744 25:0.00096436741 26:0.35727924 27:0 28:0 29:0 30:0 31:0.97759032 32:0.10024981 33:0 34:0.10531695 35:0 36:0.00052240386 37:0.0010448077 38:0.10753149 39:0.003526631 40:0 41:0.10746259 42:0 43:0 44:0 45:0 46:0.73366874 47:0 48:0.20758176 49:0.21523838 50:0.071363114 51:0.08089865 52:0.29604304 53:0.50508857 54:0.077473588 55:0.076588079 56:0.076618955 57:0.011222227 58:0 59:0 60:0 61:0.32508552 62:0 63:0.028876305 64:0.14137359 65:0 66:0.039021172 67:0 68:0.83265674 69:0 70:0.21748558 71:0.36229265 72:0 73:0 74:0 75:0 76:0.97174454 77:0.1357262 78:0.0062284321 79:0.15147236 80:0 81:0.11138777 82:0.00058044394 83:0.0082679968 84:0.021177955 85:0.0039184466 86:0.03622805 87:0 88:0 89:0 90:0 91:0.93805075 92:0 93:0.094445691 94:0.013899458 95:0.048884157 96:0 97:0.061926719 98:0.32177663 99:0 100:0.03316427 101:0.00081761269 102:0.0065409229 103:0 104:0 105:0 106:0.80197185 107:0 108:0.058303241 109:0.10881868 110:0 111:0.097900935 112:0.081818461 113:0.45368204 114:0.18434985 115:0.22004962 116:0 117:0.19240357 118:0 119:0 120:0 121:0.55160862 122:0.17865023 123:0.26095155 124:0.34274873 125:0.16907889 126:0.19857952 127:0.36502358 128:0.1710088 129:0.43913254 130:0.04550596 131:0 132:0.22957195 133:0 134:0 
0.329825841427573 0.2242970387549522 0.5570232668124137 0.1681201597543332 0.3290475913995755 0.5654036463856714 0.283930292815342 0.05869855873621407 0.08314873362335631 0.2693182757449963 0.5807342652838131 0.1050416353496316 0.3079566920880302 0.1782100459694218 0.3311282684613252 0.2375602405224624 0:0 1:0.32907268 2:0 3:0 4:0 5:0 6:0 7:0 8:0.11362831 9:0.033327825 10:0 11:0.92704594 12:0.13493109 13:0 14:0 15:0 16:0.51209354 17:0 18:0 19:0 20:0 21:0 22:0.044978693 23:0.82406765 24:0.012352298 25:0 26:0.21737351 27:0.09602268 28:0 29:0 30:0 31:0.93094862 32:0 33:0 34:0 35:0 36:0 37:0.032839645 38:0.36365348 39:0 40:0 41:0 42:0 43:0 44:0 45:0 46:0.029675901 47:0 48:0 49:0 50:0 51:0 52:0.2837505 53:0.90310603 54:0.17955132 55:0 56:0.23898409 57:0.11673098 58:0 59:0 60:0 61:0.18422219 62:0 63:0 64:0 65:0 66:0 67:0.1290053 68:0.96397579 69:0.059632305 70:0 71:0.12272037 72:0.039171226 73:0 74:0 75:0 76:0.15531535 77:0.17887808 78:0 79:0.039969314 80:0.15020911 81:0 82:0.57745773 83:0.76317066 84:0.061739691 85:0 86:0 87:0 88:0 89:0 90:0 91:0.99188423 92:0 93:0 94:0 95:0 96:0 97:0.012266391 98:0.099467002 99:0.043373991 100:0 101:0.064923622 102:0 103:0 104:0 105:0 106:0.84326732 107:0 108:0 109:0 110:0 111:0 112:0.19027314 113:0.48207772 114:0.12040082 115:0 116:0.076048613 117:0 118:0 119:0 120:0 121:0.9999879 122:0 123:0 124:0 125:0 126:0 127:0 128:0 129:0 130:0 131:0 132:0 133:0 134:0 
0.5285999951424124 0.108360269797125 0.9937639810996191 0.06719288338716067 0.339802721234252 0.8000182213818349 0.7688888939899087 0.3343359935596592 0.2083161678887559 0.4176502180332088 0.6664987223038786 0.2863061683521386 0.5546085983196039 0.3276148221131783 0.1231959540260244 0.3425532188007526 0:0 1:0.34437796 2:0 3:0.10849952 4:0 5:0 6:0.32584077 7:0.47606897 8:0.40809304 9:0.085458569 10:0.166245 11:0.25585669 12:0.51945502 13:0 14:0 15:0 16:0.16189195 17:0 18:0 19:0 20:0 21:0.031210076 22:0.23239458 23:0.79892504 24:0.38452527 25:0.30102265 26:0.1580544 27:0.13059197 28:0 29:0 30:0 31:0.72013056 32:0.061045028 33:0.086325094 34:0.1448942 35:0.031758733 36:0.1575819 37:0.16159721 38:0.5508846 39:0.063477226 40:0.27174869 41:0.090562209 42:0.087847471 43:0 44:0 45:0 46:0.91632688 47:0.080044568 48:0.062890828 49:0 50:0 51:0.039166283 52:0.077072188 53:0.3215839 54:0.053611152 55:0.0025364901 56:0.0050215488 57:0.19018154 58:0 59:0 60:0 61:0.64566344 62:0.06370011 63:0.077360831 64:0 65:0 66:0.38437197 67:0.33419883 68:0.37736169 69:0.097278804 70:0.11853372 71:0.10258513 72:0.37037468 73:0 74:0 75:0 76:0.76834673 77:0.090485699 78:0.19508457 79:0.096816525 80:0.062310308 81:0.28460434 82:0.38724712 83:0.34519628 84:0 85:0 86:0 87:0 88:0 89:0 90:0 91:0.98767388 92:0.051894914 93:0.065636016 94:0 95:0 96:0.062335096 97:0.056577846 98:0.046163522 99:0.076871194 100:0 101:0.016707189 102:0.045585413 103:0 104:0 105:0 106:0.98146528 107:0.07201501 108:0.056582026 109:0.11181543 110:0 111:0.0045178188 112:0 113:0.064380512 114:0.097030282 115:0 116:0.0045178193 117:0.047108557 118:0 119:0 120:0 121:0.35761085 122:0.0027072772 123:0.04423571 124:0.6377477 125:0.14213395 126:0.30182743 127:0.31964785 128:0.49992549 129:0 130:0 131:0 132:0 133:0 134:0 
1 0.1576164622826718 0.2937041271099045 0.4040508158270756 0.572930591633002 0.8160899082048889 0.5475247304652331 0 0.07937202053957264 0.7600895422332589 0.3690319888959087 0.1696674069745722 0.6419084744855761 0.193229996542764 0.3328961267313778 0.3837183020533845 0:0 1:0.31999236 2:0.096588396 3:0.13409461 4:0.3930026 5:0.18897071 6:0 7:0.3934916 8:0.29932308 9:0.1198532 10:0 11:0.63527662 12:0.13312195 13:0 14:0 15:0 16:0.34732717 17:0 18:0 19:0 20:0 21:0 22:0.11589981 23:0.64609319 24:0.31499857 25:0.087089069 26:0.52074635 27:0.26545584 28:0 29:0 30:0 31:0.95137405 32:0 33:0 34:0 35:0 36:0.011196798 37:0.043830901 38:0.2316702 39:0.00047229574 40:0.09755601 41:0.076713271 42:0.15409312 43:0 44:0 45:0 46:0.23670645 47:0.069794714 48:0.094746009 49:0.31662518 50:0.14619312 51:0 52:0.36185405 53:0.7311551 54:0.20108441 55:0 56:0.32017604 57:0 58:0 59:0 60:0 61:0.15176097 62:0 63:0 64:0.10433461 65:0 66:0.13938639 67:0.28980824 68:0.72335321 69:0.2018671 70:0 71:0.54647839 72:0 73:0 74:0 75:0 76:0.8292861 77:0 78:0 79:0.1628262 80:0 81:0.18922034 82:0.42377183 83:0.047605131 84:0 85:0 86:0.23873229 87:0.10530344 88:0 89:0 90:0 91:0.87002468 92:0.051747646 93:0 94:0.28493223 95:0.056512866 96:0.0026383447 97:0.19923472 98:0.31405833 99:0.017240332 100:0 101:0.13170642 102:0 103:0 104:0 105:0 106:0.60014814 107:0 108:0 109:0.10433546 110:0.11657051 111:0.11019337 112:0.32007498 113:0.60287589 114:0.3025369 115:0 116:0.213865 117:0 118:0 119:0 120:0 121:0.1006477 122:0.2356752 123:0.091070622 124:0.17495611 125:0.15210992 126:0.46225867 127:0.77931601 128:0.12563503 129:0.085241832 130:0 131:0.16780291 132:0 133:0 134:0 
1 0.1048996756050753 0.9914049120951191 0.2312890037321416 0.9696366052615845 1 0.3424054747008314 0.2199347474474965 0.4324600448209125 0.8494240582552295 0.6864899688338736 0.3956134026181979 0.9792517214742791 0.7902461832310173 0.422503362816191 0 0:0 1:0.2906135 2:0 3:0.55786031 4:0.31952581 5:0 6:0.18873562 7:0.40892446 8:0.33408457 9:0.17609972 10:0.29171807 11:0.21553008 12:0.15863222 13:0 14:0 15:0 16:0.12829018 17:0 18:0.055227514 19:0.12571074 20:0 21:0.057763997 22:0.41724297 23:0.67719686 24:0.24957319 25:0.38572752 26:0.2707516 27:0.2103533 28:0 29:0 30:0 31:0.88277322 32:0.036028765 33:0.077846773 34:0.071984135 35:0.072527513 36:0.13345821 37:0.11522208 38:0.37065431 39:0.10023905 40:0.1325233 41:0.078320526 42:0.025971368 43:0 44:0 45:0 46:0.57015204 47:0.091760769 48:0.55760843 49:0.17931548 50:0.089766175 51:0.090985149 52:0.40476328 53:0.27685919 54:0 55:0.25780556 56:0.010542562 57:0 58:0 59:0 60:0 61:0.51324201 62:0.031780493 63:0.12857369 64:0.17141514 65:0.002752692 66:0.16395853 67:0.50766355 68:0.57133639 69:0 70:0.22405098 71:0.16845566 72:0 73:0 74:0 75:0 76:0.85041869 77:0.16182587 78:0.050657563 79:0.14573695 80:0.082656518 81:0.13483965 82:0.3315433 83:0.23826499 84:0 85:0.18114345 86:0.047486901 87:0 88:0 89:0 90:0 91:0.94906116 92:0.041701738 93:0.14512481 94:0.0080109304 95:0 96:0 97:0.12578759 98:0.17990191 99:0.036762398 100:0 101:0.13436295 102:0.093816184 103:0 104:0 105:0 106:0.93304586 107:0.036858611 108:0 109:0.063481569 110:0.1445269 111:0 112:0.052594922 113:0.28534067 114:0.077322513 115:0 116:0.1138391 117:0.00026111893 118:0 119:0 120:0 121:0.66507882 122:0.12209801 123:0 124:0.31142318 125:0.12168928 126:0.32562861 127:0.40654135 128:0.35195631 129:0.12564161 130:0 131:0.14129135 132:0 133:0 134:0 
0 0 0.6584252254716778 0 0 0 0 0 0.08471432694120991 0 0 0 0 0 0 0 0:0 1:0.62988776 2:0 3:0.18900354 4:0 5:0.037293352 6:0 7:0.37554795 8:0.58506078 9:0.16758052 10:0.23225799 11:0.027018161 12:0 13:0 14:0 15:0 16:0.55696613 17:0 18:0.075311497 19:0 20:0.046503481 21:0 22:0.3809948 23:0.72870827 24:0 25:0.0050587738 26:0.075733885 27:0 28:0 29:0 30:0 31:0.9998641 32:0 33:0 34:0 35:0 36:0 37:0 38:0.01615998 39:0 40:0 41:0 42:0 43:0 44:0 45:0 46:0.94117922 47:0 48:0 49:0 50:0 51:0 52:0.16415025 53:0.26027516 54:0.10093887 55:0.096369088 56:0 57:0 58:0 59:0 60:0 61:0.90866596 62:0 63:0.10193441 64:0 65:0.020113252 66:0 67:0.37201104 68:0.095993698 69:0 70:0.12526263 71:0.01457158 72:0 73:0 74:0 75:0 76:0.68387824 77:0 78:0.11092035 79:0.085190549 80:0.068491302 81:0.012992827 82:0.53215277 83:0.46726662 84:0 85:0 86:0.079594567 87:0 88:0 89:0 90:0 91:0.99992985 92:0 93:0 94:0 95:0 96:0 97:0 98:0.0049506249 99:0.010182819 100:0 101:0 102:0 103:0 104:0 105:0 106:0.99967867 107:0 108:0 109:0 110:0 111:0 112:0 113:0.025071412 114:0 115:0 116:0 117:0 118:0 119:0 120:0 121:0.95687073 122:0 123:0 124:0.29046068 125:0 126:0.00074668549 127:0 128:0 129:0 130:0 131:0.00074668549 132:0 133:0 134:0 
0.2784271676754061 0.239070166160042 0.2424281091276027 0.8884987452601406 0.5338219096494404 0.1623452607914855 0.2546382927360774 0.06488288914471334 0.1815648240910374 0.207450473645263 0.1796992517812727 0.1402970117180182 0.2332589810353668 0.2609873088499872 0.2750743843791211 0.2008230607278473 0:0 1:0.3141695 2:0 3:0 4:0 5:0 6:0 7:0.47089031 8:0.23160256 9:0.21892585 10:0.041490499 11:0.7590974 12:0 13:0 14:0 15:0 16:0.71168262 17:0 18:0 19:0 20:0 21:0 22:0.63282323 23:0.25744161 24:0 25:0.057556339 26:0.15309861 27:0 28:0 29:0 30:0 31:0.99999493 32:0 33:0 34:0 35:0 36:0 37:0 38:0.0011745092 39:0 40:0 41:0 42:0 43:0 44:0 45:0 46:0.015741726 47:0 48:0 49:0 50:0 51:0 52:0.81617558 53:0.4303959 54:0.30232188 55:0.031760775 56:0.23651585 57:0 58:0 59:0 60:0 61:0.5364663 62:0 63:0 64:0 65:0 66:0 67:0.68080401 68:0.46641842 69:0.083328441 70:0.01579228 71:0.15477391 72:0 73:0 74:0 75:0 76:0.34591782 77:0 78:0 79:0 80:0.048088457 81:0.095496416 82:0.70572078 83:0.60107791 84:0 85:0.056862723 86:0 87:0.079528064 88:0 89:0 90:0 91:0.76553541 92:0 93:0 94:0 95:0 96:0 97:0.42252395 98:0.38198927 99:0.299128 100:0 101:0 102:0 103:0 104:0 105:0 106:0.87079877 107:0 108:0 109:0 110:0 111:0 112:0.44767535 113:0.19710198 114:0.049308535 115:0 116:0 117:0 118:0 119:0 120:0 121:0.99999243 122:0 123:0 124:0 125:0 126:0 127:0 128:0 129:0 130:0 131:0 132:0 133:0 134:0 
0.1788515944552175 0.156443087409198 0.1445799518369832 0.6401268794892401 0.4291025684300497 0.1488369300718902 0.1802228835432504 0.1107416631572892 0.1186060221727474 0.08139161770663136 0.1097367184842144 0.1655276986327273 0.1256698458801531 0.130912272791252 0.2618701918078446 0.2910112333149298 0:0 1:0.38708997 2:0 3:0 4:0 5:0 6:0 7:0.6233505 8:0.38306111 9:0.54878259 10:0 11:0 12:0.11675324 13:0 14:0 15:0 16:0.88085091 17:0 18:0 19:0 20:0 21:0 22:0.35589918 23:0.27834511 24:0.14121565 25:0 26:0 27:0 28:0 29:0 30:0 31:0.99998897 32:0 33:0 34:0 35:0 36:0 37:0 38:0 39:0 40:0 41:0 42:0 43:0 44:0 45:0 46:0.032256316 47:0 48:0 49:0 50:0 51:0 52:0.59968168 53:0.77726722 54:0.16863555 55:0.059081584 56:0 57:0.056854997 58:0 59:0 60:0 61:0.75451231 62:0 63:0 64:0 65:0 66:0 67:0.32395807 68:0.53907061 69:0.18030162 70:0 71:0 72:0.05125913 73:0 74:0 75:0 76:0.5612244 77:0.04460286 78:0.036578886 79:0 80:0 81:0 82:0.64276505 83:0.5125736 84:0.076153435 85:0 86:0 87:0 88:0 89:0 90:0 91:0.14774486 92:0 93:0 94:0 95:0 96:0 97:0.60403514 98:0.73763907 99:0 100:0.18585122 101:0 102:0.18602288 103:0 104:0 105:0 106:0.947115 107:0 108:0 109:0 110:0 111:0 112:0.16580607 113:0.2746644 114:0.0027629319 115:0 116:0 117:0 118:0 119:0 120:0 121:0.99998659 122:0 123:0 124:0 125:0 126:0 127:0 128:0 129:0 130:0 131:0 132:0 133:0 134:0 
0.3987416340328302 0 0 0 0 0.4366362432229604 0 0 0 0 0.02155135946438377 0 0.1317778264961761 0 0 0.05169756673329341 0:0 1:0.2418194 2:0.046001285 3:0.18845223 4:0.12302502 5:0.36124057 6:0.1346103 7:0.11399213 8:0.6570701 9:0.44975182 10:0.10484369 11:0.28651759 12:0 13:0 14:0 15:0 16:0.20559368 17:0 18:0 19:0 20:0 21:0 22:0.17784543 23:0.84043843 24:0.33825478 25:0.24833104 26:0.20779684 27:0.021626074 28:0 29:0 30:0 31:0.92326528 32:0.091867581 33:0.16152179 34:0 35:0.13750136 36:0 37:0.03333775 38:0.23596482 39:0.083404809 40:0.14232296 41:0 42:0.10059236 43:0 44:0 45:0 46:0.18872866 47:0.15791978 48:0.076998733 49:0.22276926 50:0.12649611 51:0.1268809 52:0.14840217 53:0.8874858 54:0.16603021 55:0.070447594 56:0.058302946 57:0.07861197 58:0 59:0 60:0 61:0.29594803 62:0.0023135762 63:0.00033050968 64:0.007738648 65:0 66:0 67:0.018503169 68:0.93141639 69:0.11742052 70:0.14967403 71:0.087294683 72:0.025066452 73:0 74:0 75:0 76:0.7265268 77:0.47494602 78:0.27899349 79:0.12020291 80:0.0050984467 81:0 82:0.1890855 83:0.34303939 84:0.02813345 85:0 86:0.0040422543 87:0 88:0 89:0 90:0 91:0.80669326 92:0.12839638 93:0 94:0.12249887 95:0.058100142 96:0.020738976 97:0.014600856 98:0.53939384 99:0.034286685 100:0.075348206 101:0 102:0.12614353 103:0 104:0 105:0 106:0.593521 107:0.11536627 108:0 109:0 110:0.012975325 111:0.10863147 112:0.1604685 113:0.69521767 114:0.19739397 115:0.10810672 116:0.15289366 117:0.19826582 118:0 119:0 120:0 121:0.57921576 122:0.27083445 123:0.00054033508 124:0.29697588 125:0.1961527 126:0.61857003 127:0.19695388 128:0.11521126 129:0.16937399 130:0 131:0.032463267 132:0 133:0 134:0 
0.143475021411278 0.9044678950050501 1 0.3393572476676135 1 0.4084128103679835 0.04594696763452861 0.232692928021587 0.6181496754602414 0.5703982885531743 0.7815824179776931 1 0.3699531378119787 1 0.8634768804064741 1 0:0 1:0.59162068 2:0.023390487 3:0 4:0.085217163 5:0 6:0.14455228 7:0.5930475 8:0.31428471 9:0.22383112 10:0 11:0.21203867 12:0.2751244 13:0 14:0 15:0 16:0.63772845 17:0.26937026 18:0 19:0.096507236 20:0.049606625 21:0.16165045 22:0.51119721 23:0.43439451 24:0.12318898 25:0.033445645 26:0 27:0.12846044 28:0 29:0 30:0 31:0.99999362 32:0 33:0 34:0 35:0 36:0 37:0 38:0 39:0 40:0 41:0 42:0 43:0 44:0 45:0 46:0.97210616 47:0.089402378 48:0 49:0.13427681 50:0 51:0.15083529 52:0 53:0.067925826 54:0 55:0 56:0.021471415 57:0.033769716 58:0 59:0 60:0 61:0.71717787 62:0.37009215 63:0 64:0.10882478 65:0.076667361 66:0.092010498 67:0.19159703 68:0.52681559 69:0 70:0.067748755 71:0 72:0.060412053 73:0 74:0 75:0 76:0.77421087 77:0.28637344 78:0 79:0.050360605 80:0.05406541 81:0.17618005 82:0.48295766 83:0.21792471 84:0 85:0.036451835 86:0 87:0 88:0 89:0 90:0 91:0.99999565 92:0 93:0 94:0 95:0 96:0 97:0 98:0 99:0 100:0 101:0 102:0 103:0 104:0 105:0 106:0.97937888 107:0.060918666 108:0 109:0.072275519 110:0.074531779 111:0.074531779 112:0 113:0.10720325 114:0 115:0.074531779 116:0 117:0.060918666 118:0 119:0 120:0 121:0.93723512 122:0.1314809 123:0 124:0.16093831 125:0.16093831 126:0 127:0 128:0.13864823 129:0 130:0.14221658 131:0 132:0.11408511 133:0 134:0 
0.6969798098645336 0 0 0.1837748800642475 0.06607154998113278 0.6807791635469034 0 0 0 0.2104308789364431 0 0 0.08827405676965706 0 0.1221984600986607 0 0:0 1:0.21949933 2:0.21595879 3:0.20214018 4:0.090458937 5:0 6:0 7:0.66841799 8:0.53434753 9:0.12380286 10:0.0010539718 11:0.15268263 12:0.29179403 13:0 14:0 15:0 16:0.032650821 17:0 18:0.13047653 19:0 20:0 21:0.10984997 22:0.31077155 23:0.81364632 24:0.1110123 25:0.19399568 26:0.22273923 27:0.33412364 28:0 29:0 30:0 31:0.91541916 32:0 33:0.047197174 34:0.071118526 35:0.14477019 36:0.084472477 37:0.15713856 38:0.2828151 39:0.074716575 40:0.12373658 41:0.032188095 42:0 43:0 44:0 45:0 46:0.12381905 47:0.14279784 48:0.2996493 49:0.13336043 50:0.13377911 51:0.049144521 52:0.65006119 53:0.537054 54:0.26764485 55:0.16490436 56:0 57:0.16284786 58:0 59:0 60:0 61:0.28654996 62:0 63:0.013118488 64:0 65:0.00050595298 66:0.11644948 67:0.23471378 68:0.9112196 69:0.11765689 70:0.069395304 71:0 72:0.007155274 73:0 74:0 75:0 76:0.85877442 77:0.1898528 78:0.26635098 79:0.098149374 80:0.10266431 81:0.22937053 82:0.16204485 83:0.23745874 84:0.0073879608 85:0 86:0 87:0 88:0 89:0 90:0 91:0.78148997 92:0.069417886 93:0.027903259 94:0.053024419 95:0.049602244 96:0.12110046 97:0.20713879 98:0.50505733 99:0.085654773 100:0.13850243 101:0 102:0.19797394 103:0 104:0 105:0 106:0.68321908 107:0 108:0.070059955 109:0 110:0.13217486 111:0.18794975 112:0.030785313 113:0.37583619 114:0.19266938 115:0.47948667 116:0.13020235 117:0.22200172 118:0 119:0 120:0 121:0.45137048 122:0.15675609 123:0.025448436 124:0.43779272 125:0.19965683 126:0.3781943 127:0.5263074 128:0.15088752 129:0.012298934 130:0.26512906 131:0.12571882 132:0.10200471 133:0 134:0 
0 0 0 0.007634590267992679 0 0 0 0 0 0 0 0 0 0 0 0 0:0 1:0.29971159 2:0 3:0 4:0 5:0.32957774 6:0 7:0.36276937 8:0.6169557 9:0.33226529 10:0.056174073 11:0.25059974 12:0.3359924 13:0 14:0 15:0 16:0.58321285 17:0 18:0 19:0 20:0.077283286 21:0 22:0.098241411 23:0.79622293 24:0.079209335 25:0.020295834 26:0.05970994 27:0 28:0 29:0 30:0 31:0.99994588 32:0 33:0 34:0 35:0 36:0 37:0 38:0.0099618761 39:0 40:0 41:0 42:0 43:0 44:0 45:0 46:0.01973905 47:0 48:0 49:0 50:0.06836722 51:0 52:0.47243026 53:0.8660534 54:0.050593968 55:0 56:0.13276571 57:0.038598407 58:0 59:0 60:0 61:0.4895688 62:0 63:0 64:0 65:0.087722763 66:0 67:0.33048242 68:0.79711509 69:0 70:0 71:0 72:0.089430131 73:0 74:0 75:0 76:0.27533853 77:0.069797628 78:0 79:0 80:0.16564812 81:0.044071581 82:0.26971462 83:0.90397698 84:0 85:0 86:0 87:0 88:0 89:0 90:0 91:0.46008131 92:0 93:0 94:0 95:0 96:0 97:0.2049069 98:0.75695652 99:0.096446447 100:0 101:0.40498954 102:0 103:0 104:0 105:0 106:0.89921701 107:0 108:0 109:0 110:0 111:0 112:0.35606724 113:0.25210643 114:0 115:0 116:0 117:0.032396361 118:0 119:0 120:0 121:0.99999106 122:0 123:0 124:0 125:0 126:0 127:0 128:0 129:0 130:0 131:0 132:0 133:0 134:0 
0.8736962432845398 0.2472678916893402 0.3264625123575883 1 0.326812433314749 0.3318696633862248 0.5696620344211391 0.1183574469321543 0.1237668943497252 0.4975801069896056 0.3701057080657176 0.2345523641290682 0.5292033547847811 0.3107477538919226 0.4160835325184344 0.3357659863185099 0:0 1:0.0074255788 2:0 3:0 4:0 5:0 6:0 7:1.8995288e-09 8:0.9713698 9:0 10:0 11:0.23733786 12:9.4976438e-10 13:0 14:0 15:0 16:0.024724137 17:0 18:0 19:0 20:0 21:0 22:0.18413813 23:0.90459317 24:0.09910059 25:0.077990547 26:0.36175546 27:0.020003488 28:0 29:0 30:0 31:0.57206011 32:0 33:0.086197719 34:0.13139987 35:0.21567452 36:0.30496207 37:0.33608118 38:0.40120649 39:0.057022572 40:0.22237018 41:0.3732391 42:0.20636313 43:0 44:0 45:0 46:0.043893561 47:0 48:0.1726284 49:0.12125578 50:0.13799489 51:0 52:0.43871707 53:0.83625519 54:0 55:0.054090802 56:0.19941463 57:0 58:0 59:0 60:0 61:0 62:0 63:0 64:0.011777577 65:0 66:0 67:0.48409411 68:0.81784987 69:0 70:0.066560246 71:0.30360061 72:0 73:0 74:0 75:0 76:0.4967095 77:0.10880361 78:0.18282543 79:0.13669479 80:0.19605055 81:0.30955517 82:0.65325159 83:0.32846302 84:0 85:0.0070368298 86:0.14271891 87:0 88:0 89:0 90:0 91:0.54685956 92:0 93:0.11549913 94:0.0081260437 95:0.0076745963 96:0 97:0.45623434 98:0.68240339 99:0 100:0.082955644 101:0.082037918 102:0 103:0 104:0 105:0 106:0.19976519 107:0 108:0 109:0.082238317 110:0 111:0 112:0.24651152 113:0.93649745 114:0 115:0.033678938 116:0.11990155 117:0 118:0 119:0 120:0 121:4.466964e-10 122:1.3400892e-09 123:0.14009525 124:0.29386747 125:0.34628075 126:0.29404554 127:0.30010667 128:0.76059568 129:0 130:4.466964e-10 131:0.13800664 132:0 133:0 134:0 
0.7775910460363467 0.7823107744333548 1 0.6615364975038412 0.856727837666838 0.85192034025245 0.9337153698727004 0.4826575618281329 0.7342662167285247 1 1 0.5407483417296313 0.8665967242250511 0.883957137705397 0.9545452309773234 0.8075474939851214 0:0 1:0.92198205 2:0 3:0.16847372 4:0.012514569 5:0 6:0 7:0.01277427 8:0.094495907 9:0.22149566 10:0.21643226 11:0 12:0.12797399 13:0 14:0 15:0 16:0.70024198 17:0 18:0.15657559 19:0.052245039 20:0 21:0.08890526 22:0.30082464 23:0.59890401 24:0.04753609 25:0.0026139186 26:0.064439289 27:0.13743423 28:0 29:0 30:0 31:0.99994314 32:0 33:0 34:0 35:0 36:0 37:0 38:0.0096012503 39:0 40:0 41:0 42:0 43:0 44:0 45:0 46:0.99995375 47:0 48:0 49:0 50:0 51:0 52:0 53:0.0039942353 54:0.0080713583 55:0 56:0 57:0 58:0 59:0 60:0 61:0.94780368 62:0 63:0.22199404 64:0 65:0 66:0.023616387 67:0.070849158 68:0.15822978 69:0.023444097 70:0.14259396 71:0.023616387 72:0.017572563 73:0 74:0 75:0 76:0.057822101 77:0 78:0.48552889 79:0 80:0 81:0.64855689 82:0.34244993 83:0.043337103 84:0 85:0 86:0.47007957 87:0 88:0 89:0 90:0 91:0.99999267 92:0 93:0 94:0 95:0 96:0 97:0 98:0 99:0 100:0 101:0 102:0 103:0 104:0 105:0 106:0.99999267 107:0 108:0 109:0 110:0 111:0 112:0 113:0 114:0 115:0 116:0 117:0 118:0 119:0 120:0 121:0 122:0 123:0 124:0 125:0 126:0 127:0 128:0 129:0 130:0 131:0 132:0 133:0 134:0 
0.495719440325898 0.8285632168775144 1 0.2944326116237935 1 1 0.5461925185671527 0.2784228073217813 0.3063329812635756 1 0.9535383315784549 0.4947064807623247 0.5758897176357952 0.613165574544137 1 1 0:0 1:0.31428543 2:0 3:0.087828346 4:0 5:0.15788786 6:0.087970018 7:0.058694251 8:0.45233509 9:0.60769814 10:0.53239518 11:0 12:0 13:0 14:0 15:0 16:0.80532503 17:0.048928961 18:0 19:0.062157296 20:0.22484913 21:0.0069267363 22:0.076214299 23:0.48493552 24:0.21824403 25:0.039679796 26:0 27:0.066285156 28:0 29:0 30:0 31:0.99999195 32:0 33:0 34:0 35:0 36:0 37:0 38:0 39:0 40:0 41:0 42:0 43:0 44:0 45:0 46:0.98156506 47:0 48:0.0069136014 49:0 50:0 51:0 52:0 53:0.10908802 54:0.087352149 55:0.13012238 56:0 57:0 58:0 59:0 60:0 61:0.74967462 62:0.11634147 63:0.050584923 64:0.11634147 65:0.24605782 66:0.050666519 67:0.095566601 68:0.53944027 69:0.1512038 70:0.093228072 71:0 72:0.11634147 73:0 74:0 75:0 76:0.52931017 77:0.11658999 78:0 79:0.14811103 80:0.35915136 81:0 82:0.18160665 83:0.70325387 84:0.052642073 85:0 86:0 87:0.15794708 88:0 89:0 90:0 91:0.99999356 92:0 93:0 94:0 95:0 96:0 97:0 98:0 99:0 100:0 101:0 102:0 103:0 104:0 105:0 106:0.99606305 107:0 108:0.0070289201 109:0 110:0 111:0 112:0 113:0.08275675 114:0.030662134 115:0 116:0 117:0 118:0 119:0 120:0 121:0.97643811 122:0 123:0.1080789 124:0 125:0 126:0 127:0.13195862 128:0 129:0.13195862 130:0 131:0 132:0 133:0 134:0 
0.487260348228164 0.4415831727394492 0.8526611026726074 0.630569447606293 0.7631789064612494 0.4758300581041766 0.2610836385586377 0.08813861693350139 0.2257905670274307 0.3461708220447796 0.5674308676542533 0.2763448398096595 0.4709399397346926 0.4433840877503078 0.579592930948955 0.5503484215659199 0:0 1:0.57398152 2:0 3:0 4:0 5:0.14774573 6:0.77348471 7:0 8:0 9:0 10:0.16153277 11:0 12:0.1541948 13:0 14:0 15:0 16:0.71823013 17:0.14759199 18:0 19:0 20:0.13418081 21:0 22:0.075000718 23:0.55684662 24:0.32015583 25:0 26:0 27:0.16154654 28:0 29:0 30:0 31:0.99998605 32:0 33:0 34:0 35:0 36:0 37:0 38:0.002615737 39:0 40:0 41:0 42:0 43:0 44:0 45:0 46:0.050406806 47:0 48:0 49:0.022985289 50:0.14961296 51:0.084668741 52:0.53841788 53:0.73153836 54:0.25489673 55:0.18922204 56:0 57:0.20365371 58:0 59:0 60:0 61:0.11931065 62:0.00054991717 63:0 64:0.081775159 65:0.062959716 66:0.072189599 67:0.34113836 68:0.90110373 69:0.13306528 70:0.15353259 71:0 72:0.014391054 73:0 74:0 75:0 76:0.51142955 77:0.086333647 78:0.04761631 79:0.085064396 80:0.077794589 81:0.058368452 82:0.12402759 83:0.81877816 84:0.16189557 85:0 86:0 87:0 88:0 89:0 90:0 91:0.90201074 92:0 93:0 94:0.18772602 95:0 96:0 97:0.15225975 98:0.2843219 99:0.15932369 100:0.14720446 101:0 102:0 103:0 104:0 105:0 106:0.72628492 107:0 108:0 109:0.0001672299 110:0 111:0.013007332 112:0.29393399 113:0.59610963 114:0.14034462 115:0.10418453 116:0 117:0 118:0 119:0 120:0 121:0.99997753 122:0.00037981666 123:0 124:0 125:0 126:0 127:0 128:0.0028346989 129:0 130:0 131:0 132:0 133:0 134:0 
0 0 1 0 0 0.03090268520103382 0 0 0.2276483294061313 0 0 0 0 0 0 0 0:0 1:0.71545482 2:0 3:0 4:0.20992729 5:0.039572354 6:0 7:0.18541604 8:0.53313482 9:0.17092961 10:0 11:0.30757558 12:0 13:0 14:0 15:0 16:0.41167957 17:0 18:0 19:0.020387754 20:0.016959777 21:0.069519669 22:0.62821358 23:0.64733815 24:0.028595297 25:0 26:0.085918881 27:0.055374697 28:0 29:0 30:0 31:0.81955117 32:0 33:0.00023462265 34:0.086897805 35:0 36:0.00076186215 37:0.45787776 38:0.32941785 39:0 40:0 41:0.051025201 42:0 43:0 44:0 45:0 46:0.98180634 47:0 48:0 49:0 50:0 51:0 52:0.05696322 53:0.10596871 54:0.0050799283 55:0.025731763 56:0.14449307 57:0 58:0 59:0 60:0 61:0.9652546 62:0 63:0 64:0 65:0.013532881 66:0.17785241 67:0.063408233 68:0.16241473 69:0.058454189 70:0 71:0.048687134 72:0.016213069 73:0 74:0 75:0 76:0.82795912 77:0 78:0 79:0 80:0.016025983 81:0.069335707 82:0.41056368 83:0.37145248 84:0 85:0.011151851 86:0 87:0.0523258 88:0 89:0 90:0 91:0.99999446 92:0 93:0 94:0 95:0 96:0 97:0 98:0 99:0 100:0 101:0 102:0 103:0 104:0 105:0 106:0.99948102 107:0 108:0 109:0 110:0 111:0 112:0 113:0.032032356 114:0 115:0 116:0 117:0 118:0 119:0 120:0 121:0.94442374 122:0.0036522301 123:0 124:0.046949916 125:0 126:0 127:0.11532284 128:0.19114962 129:0 130:0.23660411 131:0 132:0 133:0 134:0 
0.258825606156005 0.1332746171787416 0.2373237717257409 0.245768186562127 0.1976759009158686 0.3154948422732728 0.2417965269645767 0.0379819819647969 0.05898098600754436 0.1317626317850611 0.2484167627593977 0.1245904735485839 0.3010015180140468 0.150502430181745 0.2722447008554553 0.2871796573817952 0:0 1:0.11865485 2:0 3:0 4:0 5:0 6:0 7:0 8:0.9774729 9:0.14328662 10:0 11:0 12:0.099408366 13:0 14:0 15:0 16:0.74545836 17:0 18:0 19:0 20:0.01224795 21:0 22:0.51590472 23:0.41141388 24:0.032942593 25:0 26:0 27:0.087227404 28:0 29:0 30:0 31:0.99999195 32:0 33:0 34:0 35:0 36:0 37:0 38:0.00094913814 39:0 40:0 41:0 42:0 43:0 44:0 45:0 46:0.00070011115 47:0 48:0 49:0 50:0 51:0 52:0 53:0.96022558 54:0.23423827 55:0.11813515 56:0.050389998 57:0.081054769 58:0 59:0 60:0 61:0.7153843 62:0 63:0 64:0 65:0 66:0 67:0.023082616 68:0.69553995 69:0.051291816 70:0 71:0 72:0.035584867 73:0 74:0 75:0 76:0.15945177 77:0 78:0 79:0 80:0.011578434 81:0.067062236 82:0.97022521 83:0.16905454 84:0 85:0 86:0 87:0 88:0 89:0 90:0 91:0.68790889 92:0 93:0 94:0 95:0 96:0 97:0 98:0.52089608 99:0.25157765 100:0.33402267 101:0.28369212 102:0 103:0 104:0 105:0 106:0.80209941 107:0 108:0 109:0 110:0 111:0 112:0 113:0.59715271 114:0 115:0 116:0 117:0 118:0 119:0 120:0 121:0.99998969 122:0 123:0 124:0 125:0 126:0 127:0 128:0 129:0 130:0 131:0 132:0 133:0 134:0 
0.3453862877583161 0.1983159906240227 0.234741934840216 0.4853716684647875 0.317212876548696 0.2413358864545631 0.3776830892648911 0.07010443620755076 0.0443001531687337 0.3024057812774668 0.3086852320063356 0.1357720278552869 0.4060004274101316 0.4381714431932566 0.3694159949450448 0.1919076932925773 0:0 1:0.058723722 2:0 3:0 4:0 5:0 6:0 7:0.90161884 8:0.061037477 9:0.11608148 10:0.29070333 11:0 12:0.28617808 13:0 14:0 15:0 16:0.6076929 17:0 18:0 19:0 20:0 21:0 22:0.69790041 23:0.3169618 24:0.052084126 25:0.10662096 26:0 27:0.17053266 28:0 29:0 30:0 31:0.99952608 32:0 33:0 34:0 35:0 36:0 37:0 38:0.030650148 39:0 40:0 41:0 42:0 43:0 44:0 45:0 46:0.24232611 47:0 48:0 49:0 50:0 51:0 52:0.91213274 53:0.31132981 54:0.037253186 55:0.036775079 56:0 57:0.097989045 58:0 59:0 60:0 61:0.80299199 62:0 63:0 64:0 65:0 66:0 67:0.53771394 68:0.21177064 69:0.054004945 70:0.1352448 71:0 72:0 73:0 74:0 75:0 76:0.053694285 77:0.11750888 78:0 79:0 80:0 81:0.14708865 82:0.95458525 83:0.18221465 84:0.10956342 85:0.019613413 86:0.069456354 87:0 88:0 89:0 90:0 91:0.94989759 92:0 93:0 94:0 95:0 96:0 97:0.033228021 98:0.225885 99:0 100:0 101:0 102:0.2133376 103:0 104:0 105:0 106:0.85573024 107:0 108:0 109:0 110:0 111:0 112:0.51515871 113:0.048016924 114:0 115:0 116:0 117:0 118:0 119:0 120:0 121:0.99999219 122:0 123:0 124:0 125:0 126:0 127:0 128:0 129:0 130:0 131:0 132:0 133:0 134:0 
0.5230588457692283 1 1 1 1 1 0.4260590784545066 1 1 1 1 1 0.5377185110148605 1 1 1 0:0 1:0.99905252 2:0 3:0 4:0 5:0.030652275 6:0 7:0.030652275 8:0 9:0 10:0 11:0 12:0 13:0 14:0 15:0 16:0.78357869 17:0.10419247 18:0 19:0.098545991 20:0.21934773 21:0.15597199 22:0.086808898 23:0.50626117 24:0 25:0.052407678 26:0.024113571 27:0.16064565 28:0 29:0 30:0 31:0.99990344 32:0 33:0 34:0 35:0 36:0 37:0 38:0.013089363 39:0 40:0 41:0 42:0 43:0 44:0 45:0 46:0.99999464 47:0 48:0 49:0 50:0 51:0 52:0 53:0 54:0 55:0 56:0 57:0 58:0 59:0 60:0 61:0.99379843 62:0 63:0 64:0 65:0.029495167 66:0 67:0.058990333 68:0.059709728 69:0 70:0.029495167 71:0.059709728 72:0 73:0 74:0 75:0 76:0.93994868 77:0.14939466 78:0 79:0 80:0.2544885 81:0.15010902 82:0.0013824273 83:0.00074816879 84:0 85:0.075143896 86:0.034574851 87:0 88:0 89:0 90:0 91:0.99999398 92:0 93:0 94:0 95:0 96:0 97:0 98:0 99:0 100:0 101:0 102:0 103:0 104:0 105:0 106:0.99999326 107:0 108:0 109:0 110:0 111:0 112:0 113:0 114:0 115:0 116:0 117:0 118:0 119:0 120:0 121:0.99998492 122:0 123:0 124:0 125:0 126:0 127:0 128:0 129:0 130:0 131:0 132:0 133:0 134:0 
0 0.3011927340310944 1 0.1438096354267138 1 0.2949096989342248 0.1591367088254572 0.1403626267116691 0.110060090812167 0.08336552228061242 0.456968477778633 0.3694987096221498 0.005985044963386865 0.04314635975740617 0.504778759469001 0.3429912341181789 0:0 1:0.33755043 2:0 3:0 4:0.1968216 5:0 6:0 7:0.48576036 8:0.31588185 9:0.073636986 10:0.6979624 11:0.13762295 12:0 13:0 14:0 15:0 16:0.70535153 17:0 18:0 19:0.076012053 20:0.024450634 21:0 22:0.29067478 23:0.6263352 24:0.080296651 25:0.076788396 26:0.033936396 27:0.076193891 28:0 29:0 30:0 31:0.99986595 32:0 33:0 34:0 35:0 36:0 37:0 38:0.016108096 39:0 40:0 41:0 42:0 43:0 44:0 45:0 46:0.98554158 47:0 48:0 49:0 50:0 51:0 52:0 53:0 54:0.03053635 55:0.11869003 56:0.11693349 57:0 58:0 59:0 60:0 61:0.83126748 62:0 63:0 64:0.16644494 65:0.015856029 66:0 67:0.3613404 68:0.30854711 69:0.095016956 70:0.054919805 71:0.19877593 72:0.060788594 73:0 74:0 75:0 76:0.71879381 77:0 78:0 79:0.088014811 80:0.028311536 81:0.05628489 82:0.33657408 83:0.58960736 84:0.036816917 85:0 86:0.039295159 87:0.088225365 88:0 89:0 90:0 91:0.99999553 92:0 93:0 94:0 95:0 96:0 97:0 98:0 99:0 100:0 101:0 102:0 103:0 104:0 105:0 106:0.99688309 107:0 108:0 109:0 110:0 111:0 112:0 113:0 114:0 115:0.019826427 116:0.076298468 117:0 118:0 119:0 120:0 121:0.93732369 122:0.00020753536 123:0 124:0.10972688 125:0 126:0.10972688 127:0 128:0.29997271 129:0.085677147 130:0 131:0 132:0 133:0 134:0 
0 0 0 0 0 0.2719385281318122 0 0.02298618088328024 0.09545286459200605 0 0 0 0 0 0 0 0:0 1:0.3544499 2:0 3:0 4:0 5:0 6:0 7:0.57834792 8:0.70102268 9:0.18920378 10:0 11:0.11225855 12:0 13:0 14:0 15:0 16:0.8669998 17:0 18:0 19:0 20:0 21:0 22:0.16125372 23:0.41784629 24:0.033552837 25:0.11065126 26:0.1852559 27:0 28:0 29:0 30:0 31:0.99999195 32:0 33:0 34:0 35:0 36:0 37:0 38:0.0020675999 39:0 40:0 41:0 42:0 43:0 44:0 45:0 46:0.34448946 47:0 48:0 49:0 50:0 51:0 52:0.53103405 53:0.70003742 54:0.31919479 55:0.085755952 56:0 57:0 58:0 59:0 60:0 61:0.91148335 62:0 63:0 64:0 65:0 66:0 67:0.21815301 68:0.33973533 69:0.071367726 70:0 71:0.032810759 72:0 73:0 74:0 75:0 76:0.16561756 77:0 78:0 79:0.11760091 80:0 81:0 82:0.68850833 83:0.65206182 84:0 85:0.14052181 86:0.19930609 87:0 88:0 89:0 90:0 91:0.76955342 92:0 93:0 94:0 95:0 96:0 97:0.12135902 98:0.43617663 99:0.3449865 100:0.28930795 101:0 102:0 103:0 104:0 105:0 106:0.94465494 107:0 108:0 109:0 110:0 111:0 112:0.30722398 113:0.11484147 114:0 115:0 116:0 117:0 118:0 119:0 120:0 121:0.99998939 122:0 123:0 124:0 125:0 126:0 127:0 128:0 129:0 130:0 131:0 132:0 133:0 134:0 
0.5801113106593353 0.09862452199803212 0.2356145137192844 0.6388044477429718 0.08588563882016584 0.1058181654324964 0.3447219351418623 0.02843521183657732 0.04252801557717374 0.2625489423779511 0.2482027715401674 0.05000785134311409 0.3838851064779034 0.2008869810025578 0.1645835679519367 0.2420673516878135 0:0 1:0.55796975 2:0 3:0 4:0 5:0 6:0 7:0.013679587 8:0.64638072 9:0.1967684 10:0 11:0.48153648 12:0 13:0 14:0 15:0 16:0.21497002 17:0 18:0 19:0 20:0 21:0 22:0.050484236 23:0.92861617 24:0.13258806 25:0.14938214 26:0.21790321 27:0.038796801 28:0 29:0 30:0 31:0.84770054 32:0 33:0.1241257 34:0.17385237 35:0.12232254 36:0.095420599 37:0.14013863 38:0.34747946 39:0.039591704 40:0.23473084 41:0.068787634 42:0.099457122 43:0 44:0 45:0 46:0 47:0.080607601 48:0.11439941 49:0.054321334 50:0.1185227 51:0 52:0.42414153 53:0.84469879 54:0.098288037 55:0.037089441 56:0.24273598 57:0 58:0 59:0 60:0 61:0 62:0.0064231642 63:0 64:0 65:0 66:0 67:0.14756206 68:0.8971414 69:0.090379618 70:0.29273295 71:0.28182244 72:0 73:0 74:0 75:0 76:0.4913888 77:0.23018178 78:0.22623447 79:0.12215957 80:0.15214069 81:0.095041081 82:0.46836242 83:0.57673824 84:0.074963294 85:0.2029378 86:0.091861151 87:0 88:0 89:0 90:0 91:0.35117906 92:0.057952195 93:0.0053366921 94:0.010462537 95:0.1223347 96:0 97:0.75532383 98:0.53250664 99:0.00075468118 100:0.063719697 101:0 102:0 103:0 104:0 105:0 106:0.47495139 107:0.075968236 108:0 109:0.083886951 110:0 111:0 112:0.34674552 113:0.79293704 114:0.092631072 115:0.034954779 116:0.052763388 117:0 118:0 119:0 120:0 121:0.0011724918 122:0.027240375 123:0.045234971 124:0.3903991 125:0.23484546 126:0.12355703 127:0.2377021 128:0.80224192 129:0.00039082987 130:0.26516622 131:0.062728405 132:0 133:0 134:0 
0.8949884979240069 0.6095511384128872 0.9910260837175008 0.1870142410916206 1 1 0.7206002895887259 0.5762685060466596 0.6254646232329535 0.7555306737819807 0.9042284165927555 0.6529811890261429 0.6816484640226447 0.4944106296390364 0.7646711452369416 0.8535621289001862 0:0 1:0.53073388 2:0.017436987 3:0 4:0.24698371 5:0.46433619 6:0.20392549 7:0.3473565 8:0.11641403 9:0.17996874 10:0.25061497 11:0.21262418 12:0.35378429 13:0 14:0 15:0 16:0.49516892 17:0 18:0.016726963 19:0 20:0.00095305993 21:0.094773337 22:0.12098788 23:0.67319554 24:0.23133358 25:0.2381084 26:0.2015539 27:0.35613221 28:0 29:0 30:0 31:0.96517199 32:0 33:0 34:0.0084488308 35:0.13433285 36:0.0018919518 37:0.035853136 38:0.16719505 39:0.0015631699 40:0.0030567276 41:0.064315818 42:0.13003711 43:0 44:0 45:0 46:0.61107171 47:0.087327376 48:0.01191735 49:0.044538248 50:0.43255568 51:0.11774301 52:0.20475885 53:0.59822077 54:0.031176578 55:0.010446497 56:0.093623556 57:0.078781933 58:0 59:0 60:0 61:0.5628491 62:0 63:0.023866015 64:0 65:0 66:0.11676814 67:0.056248937 68:0.68700671 69:0.1013653 70:0.25086015 71:0.1115486 72:0.32888243 73:0 74:0 75:0 76:0.96165246 77:0 78:0.10535061 79:0.135713 80:0.00066498201 81:0.075438529 82:0.14530024 83:0.1154739 84:0 85:0 86:0.05259579 87:0.052620433 88:0 89:0 90:0 91:0.9727506 92:0.00073587522 93:0.00033316071 94:0.057850327 95:0.020322081 96:0.02262643 97:0.10142879 98:0.18315737 99:0.0572556 100:0.02039643 101:0.040231105 102:0.017872166 103:0 104:0 105:0 106:0.78888786 107:0 108:0.31027839 109:0 110:0.060413733 111:0.077296451 112:0.13130562 113:0.43487957 114:0.042077169 115:0.034701649 116:0.21521837 117:0.12677008 118:0 119:0 120:0 121:0.29573855 122:0 123:0.34198293 124:0.10763264 125:0.40816635 126:0.55032295 127:0.49276131 128:0.21347079 129:0 130:0 131:0.071239665 132:0.14501181 133:0 134:0 
0.7202803852881757 0 1 0.3619168687636996 1 0.3926758427661214 0.9306716682345658 0.03338621912024602 0.1208148653158647 0.4213357103546653 0.06537605323047124 0.4028767315438028 0.4000243299957643 0.28536560125257 0.1539532569476602 0.5952078082418084 0:0 1:0.16486974 2:0 3:0 4:0 5:0 6:0.0097253947 7:0.67986482 8:0.66195303 9:0 10:0.26051083 11:0 12:0.066351257 13:0 14:0 15:0 16:0.70174557 17:0 18:0 19:0 20:0 21:0.021931056 22:0.37322006 23:0.56934744 24:0.17584132 25:0.10115059 26:0 27:0.049533278 28:0 29:0 30:0 31:0.93627691 32:0.10611849 33:0.054005478 34:0 35:0.00012184597 36:0.019338837 37:0.081125982 38:0.31563216 39:0.00024369216 40:0 41:0.034971107 42:0.037334189 43:0 44:0 45:0 46:0.79269034 47:0 48:0 49:0.062783517 50:0 51:0.31456637 52:0.35900161 53:0.35751149 54:0 55:0 56:0.10963038 57:0 58:0 59:0 60:0 61:0.41739675 62:0 63:0 64:0.00053939235 65:0 66:0.0044432515 67:0.36918905 68:0.82174665 69:0 70:0.11901987 71:0 72:0 73:0 74:0 75:0 76:0.73798555 77:0.089041501 78:0.21038602 79:0.19389957 80:0.1893889 81:0.15639791 82:0 83:0.55241305 84:0 85:0.0091626178 86:0 87:0 88:0 89:0 90:0 91:0.97761548 92:0 93:0 94:0.10465824 95:0 96:0.16691896 97:0.02077448 98:0.0076557761 99:0 100:0 101:0.070310779 102:0 103:0 104:0 105:0 106:0.85523379 107:0 108:0 109:0.05235707 110:0 111:0.12858658 112:0.10056794 113:0.18080403 114:0.34802994 115:0.19362976 116:0.21797203 117:0.018410651 118:0 119:0 120:0 121:0.22675702 122:0.065891862 123:0.17280601 124:0.2206547 125:0.14149013 126:0.233951 127:0.26661482 128:0.6659959 129:0.34010339 130:0.32590702 131:0.2094665 132:0.10256005 133:0 134:0 
0.4136648552365412 0.02242854240820563 0.1841749967640275 0.2872097476967754 0 0.417382572295205 0.2367379726366803 0.0309960182955433 0 0.3691677438662331 0.1872928765077562 0 0.2178409669248251 0.1646701437014544 0.1976165130221916 0.003221311739563035 0:0 1:0.3187902 2:0.26323313 3:0.41692486 4:0.036310703 5:0.057688814 6:0.38711002 7:0.22726694 8:0.25908145 9:0.030529866 10:0.40609297 11:0.18184693 12:0.42780542 13:0 14:0 15:0 16:0.12100958 17:0 18:0 19:0 20:0.13775463 21:0 22:0.32727799 23:0.82535905 24:0.15577517 25:0.36628789 26:0.041524354 27:0.13365811 28:0 29:0 30:0 31:0.64163804 32:0 33:0 34:0.0027158917 35:0 36:0.049117539 37:0.25148413 38:0.70383906 39:0.068539657 40:0.010982147 41:0.023611225 42:0.14780679 43:0 44:0 45:0 46:0.21905886 47:0.21482624 48:0.42390892 49:0.15673426 50:0.16522281 51:0.35857359 52:0.34761712 53:0.54186416 54:0 55:0.11697315 56:0.27523649 57:0.2044346 58:0 59:0 60:0 61:0.31167495 62:0 63:0.0012776225 64:0 65:0 66:0.00031940357 67:0.40931401 68:0.83462238 69:0 70:0.04676345 71:0.13666166 72:0.13353074 73:0 74:0 75:0 76:0.61954147 77:0.042465478 78:0.066600248 79:0.001631272 80:0 81:0.16926293 82:0.26181594 83:0.69932181 84:0 85:0 86:0.15374069 87:0.001978203 88:0 89:0 90:0 91:0.83230394 92:0.14724909 93:0.11710828 94:0 95:0.07698071 96:0.054051142 97:0.056025587 98:0.48494491 99:0.05620924 100:0.070962146 101:0.05123578 102:0.1177668 103:0 104:0 105:0 106:0.66978669 107:0.073636077 108:0.093392648 109:0 110:0 111:0 112:0.38829774 113:0.40065339 114:0.23527882 115:0.18133625 116:0.30896118 117:0.20544946 118:0 119:0 120:0 121:0.43243268 122:0.14795363 123:0.05221444 124:0.021657402 125:0 126:0.73341006 127:0.44314027 128:0.20364408 129:0 130:0 131:0.040583331 132:0.10237318 133:0 134:0 
0 1 1 0.3769225972120381 1 1 0.3655755767663738 1 1 1 1 1 0.06904547330769555 0.4718352013190447 1 0.9140447755455696 0:0 1:0.9692288 2:0 3:0.0030325805 4:0 5:0 6:0 7:0.12020919 8:0.10315509 9:0.057778493 10:0.15668531 11:0.050578132 12:0.070904382 13:0 14:0 15:0 16:0.65477824 17:0 18:0.13864328 19:0 20:0 21:0.069611132 22:0.43131715 23:0.52094412 24:0 25:0.24636346 26:0.065793604 27:0.15727898 28:0 29:0 30:0 31:0.84233701 32:0 33:0.022336785 34:0 35:0 36:0 37:0.28337273 38:0.45222288 39:0 40:0.071743183 41:0 42:0.00034420707 43:0 44:0 45:0 46:0.99988949 47:0 48:0 49:0 50:0 51:0 52:0 53:0 54:0.0087386249 55:0.0087386267 56:0.0076125176 57:0 58:0 59:0 60:0 61:0.98793447 62:0 63:0.0022228721 64:0 65:0 66:0 67:0.088112965 68:0.075612366 69:0.073597476 70:0.064641692 71:0.02108261 72:0.02108261 73:0 74:0 75:0 76:0.93753022 77:0 78:0 79:0 80:0 81:0.081373483 82:0.33821875 83:0 84:0 85:0 86:0 87:0 88:0 89:0 90:0 91:0.99999404 92:0 93:0 94:0 95:0 96:0 97:0 98:0 99:0 100:0 101:0 102:0 103:0 104:0 105:0 106:0.99999326 107:0 108:0 109:0 110:0 111:0 112:0 113:0 114:0 115:0 116:0 117:0 118:0 119:0 120:0 121:0.99998701 122:0 123:0 124:0 125:0 126:0 127:0 128:0 129:0 130:0 131:0 132:0 133:0 134:0 
-1 0.08640948169691634 0.6619602885409633 0.4412111735020773 0.2294030117041966 0.9450908371312015 0.4994569690406471 0.2355832794857443 0.4269810981943051 0.5921479098733936 0.9220132715702011 0.07591849267532916 0.7584129394860656 0.6412538796925746 0.3280788193747745 0.53314271821798 0:0 1:0.74485856 2:0 3:0.18784158 4:0.063588992 5:0.077093907 6:0 7:0.072507635 8:0.52629888 9:0.078348987 10:0.25742283 11:2.8264649e-08 12:0.21225388 13:0 14:0 15:0 16:0.53853816 17:0 18:0.071181685 19:0.073635951 20:0.12213587 21:0 22:0.24434528 23:0.68082416 24:0.2131179 25:0.20500022 26:0.18659753 27:0.19752043 28:0 29:0 30:0 31:0.76031804 32:0.12474995 33:0.1749583 34:0.25516197 35:0.038820118 36:0 37:0.13538922 38:0.42230433 39:0.046654992 40:0.033149555 41:0.30388024 42:0.12959568 43:0 44:0 45:0 46:0.35084406 47:0.064878337 48:0.080995649 49:1.2544156e-08 50:0.23192026 51:0 52:0.21170405 53:0.78920084 54:0.2113706 55:0.31607741 56:0 57:0.0044643679 58:0 59:0 60:0 61:0.4618116 62:0 63:0.10497114 64:0.035535313 65:0.043082237 66:1.5795079e-08 67:0.45345268 68:0.60188764 69:0.19696465 70:0.29075578 71:0 72:0.28504932 73:0 74:0 75:0 76:0.45705238 77:0.26278564 78:0.23973913 79:0.65230632 80:0.14328521 81:0.040602673 82:0.21851732 83:0.39318809 84:0.050040871 85:0.022298843 86:0 87:0.10716987 88:0 89:0 90:0 91:0.80914295 92:0.07582894 93:0.016988339 94:0 95:0.0032810224 96:0 97:0.28971392 98:0.50436372 99:0.029021759 100:0.0032810222 101:0 102:0 103:0 104:0 105:0 106:0.63902313 107:0 108:0.057109185 109:0 110:0 111:8.8447534e-09 112:0.14519571 113:0.48611328 114:0.28860083 115:0.39756054 116:0.2984235 117:0.023089478 118:0 119:0 120:0 121:0.18414187 122:0.23975781 123:0.15044959 124:0.43996483 125:0 126:0.35515118 127:0.2863121 128:0.55019122 129:0.17742342 130:0.22731544 131:0.27763355 132:0.14593734 133:0 134:0 
-0.9520377073837453 0.03195056214280231 0.3123776060337908 0.239038086528478 0.3723303103639463 0.3522537803738462 0 0 0.01353493551104335 0.3484555724760434 0.1997701014985257 0.0846415891562025 0.5082271146599397 0.2380239553876782 0.2678368115694678 0.3752776241858825 0:0 1:0.41229552 2:0.13487995 3:0.17823011 4:0.20555538 5:0.39017323 6:0.014953528 7:0.2792795 8:0.6101318 9:0.078305423 10:0.06342008 11:0.14527266 12:0.32212213 13:0 14:0 15:0 16:0.11416528 17:0.30016136 18:0.18274225 19:0.091373838 20:0 21:0.022647811 22:0.061786823 23:0.73381752 24:0.4421086 25:0.012116478 26:0.31912136 27:0.12169486 28:0 29:0 30:0 31:0.92292821 32:0.17331052 33:0 34:0.076897264 35:0.13564281 36:0 37:0.042541254 38:0.21323392 39:0.1671568 40:0 41:0.10385875 42:0.088392206 43:0 44:0 45:0 46:0.30490607 47:0.04713282 48:0.23621194 49:0.39556184 50:0.16718891 51:0.14119758 52:0.20677286 53:0.76605338 54:0.12255685 55:0 56:0 57:0 58:0 59:0 60:0 61:0.1589196 62:0.41084918 63:0.16027761 64:0.18739921 65:0.11700008 66:0.23754565 67:0.33084303 68:0.6573776 69:0.35053244 70:0.10243138 71:0 72:0 73:0 74:0 75:0 76:0.63332301 77:0.59493315 78:0.14788336 79:0.070759945 80:0.29731217 81:0.017069384 82:0.3276172 83:0.10267159 84:0.080116853 85:0.07114654 86:0 87:0 88:0 89:0 90:0 91:0.8967039 92:0 93:0.13552453 94:0.1385446 95:0.055935755 96:0.0040524965 97:0.060220547 98:0.31067345 99:0.23190732 100:0.035370439 101:0 102:0 103:0 104:0 105:0 106:0.61830783 107:0.14164393 108:0.1789239 109:0.12976633 110:0.059086271 111:0.092719883 112:0.17977087 113:0.67913002 114:0.12925021 115:0.16249415 116:0 117:0 118:0 119:0 120:0 121:0.68154544 122:0.2941536 123:0.17482769 124:0.091899276 125:0.3445127 126:0.21188645 127:0.24376158 128:0.3231841 129:0.26906562 130:0.10027994 131:0 132:0 133:0 134:0 
-0 0 0 0 0.1368820449636551 0 0 0.07532514206457493 0.01959982111445331 0 0 0 0 0 0 0 0:0 1:0.12755045 2:0 3:0 4:0 5:0 6:0 7:0.92616868 8:0.28174633 9:0.0064140102 10:0.17745008 11:0.08247339 12:0.090386569 13:0 14:0 15:0 16:0.88454598 17:0 18:0 19:0 20:0.026087765 21:0.071592666 22:0.31328043 23:0.32470715 24:0.0038451888 25:0 26:0.084638104 27:0.031362027 28:0 29:0 30:0 31:0.38303456 32:0.23990953 33:0 34:0.091574647 35:0 36:0.092843764 37:0.76750416 38:0.41769093 39:0 40:0 41:0 42:0.12309534 43:0 44:0 45:0 46:0.78178984 47:0 48:0 49:0 50:0 51:0 52:0.52542782 53:0.30996001 54:0.041448835 55:0 56:0.10827072 57:0.056353793 58:0 59:0 60:0 61:0.15807316 62:0 63:0 64:0 65:0.077252142 66:0.048075188 67:0.8488211 68:0.49269971 69:0.02974293 70:0 71:0.034195907 72:0.037476946 73:0 74:0 75:0 76:0.92497391 77:0 78:0 79:0 80:0.01745886 81:0.047912356 82:0.16661051 83:0.33225632 84:0 85:0 86:0.056642827 87:0.020988584 88:0 89:0 90:0 91:0.32590279 92:0 93:0 94:0 95:0 96:0 97:0.87084872 98:0.31956914 99:0.15564461 100:0 101:0.094925188 102:0 103:0 104:0 105:0 106:0.89613914 107:0 108:0 109:0 110:0.026081337 111:0 112:0.33996701 113:0.27450407 114:0.02514315 115:0 116:0.068320371 117:0 118:0 119:0 120:0 121:0.12405495 122:0.020223355 123:0 124:0 125:0.17211366 126:0.020223346 127:0.85104775 128:0.41551727 129:0.11997595 130:0 131:0.20683953 132:0 133:0 134:0 
-0.800796893651642 0.1932952995522874 0.4353640484232095 0.2516911481566176 0.5283258063585465 0.5828935271868767 0.4087411630172739 0.06931221444885517 0.1184425505054339 1 0.7810833288504908 0.2301475141024689 1 0.7233456072240556 0.6547732477947622 0.3441773710043333 0:0 1:0.0061050043 2:0.39909586 3:0.22810356 4:0 5:0.18479289 6:0.71107805 7:0.2519348 8:0.30911964 9:0 10:0.17799708 11:0 12:0.24105091 13:0 14:0 15:0 16:0.12171353 17:0.24110854 18:0.072212733 19:0 20:0.13709636 21:0.46294811 22:0.21683933 23:0.66606331 24:0.31900874 25:0.17829341 26:0.1702778 27:0.18837318 28:0 29:0 30:0 31:0.64524633 32:0.061426215 33:0.048831638 34:0.053855326 35:0 36:0.11191454 37:0.25480908 38:0.69339317 39:0.11583605 40:0.0053015826 41:0.053747173 42:0.00053523306 43:0 44:0 45:0 46:0.45036548 47:0.38052058 48:0.0016104609 49:0 50:0.096157268 51:0.50564784 52:0.20832089 53:0.44545937 54:0 55:0.19819725 56:0 57:0.3260273 58:0 59:0 60:0 61:0 62:0.3054305 63:0.12222783 64:0 65:0.099020086 66:0.69359988 67:0.23806566 68:0.45614347 69:0.21373978 70:0.199917 71:0 72:0.22463666 73:0 74:0 75:0 76:0.56389612 77:0.095910139 78:0.28876624 79:0.34903848 80:0.3494392 81:0.19622377 82:0.16725349 83:0.40520838 84:0.24285862 85:0.22350001 86:0 87:0.07661926 88:0 89:0 90:0 91:0.92981064 92:0.10466239 93:0 94:0 95:0.0068204799 96:0.29495567 97:0.038168084 98:0.15987056 99:0 100:0 101:0 102:0.10205715 103:0 104:0 105:0 106:0.72753781 107:0.21582782 108:0 109:0 110:0.080726363 111:0.42179957 112:0.067688994 113:0.17804952 114:0.23522966 115:0.25277975 116:0.14226548 117:0.25276327 118:0 119:0 120:0 121:0.060283523 122:0.14077251 123:0.1156904 124:0.23730719 125:0.2281484 126:0.38881645 127:0.26730499 128:0.18856743 129:0.67792207 130:0.31315559 131:0.15238895 132:0.12536338 133:0 134:0 
-0.1142371217752066 0.1367827175069264 0.1967725385166197 0.2700909162627958 0.1985433302776527 0.135917621330645 0.3367534471651525 0.04626080930453474 0.08493847430508047 0.1607119265703195 0.2731947073151061 0.1817002148200912 0.3142498035165149 0.1880427359239427 0.1811476056857252 0.2063369607065741 0:0 1:0 2:0 3:0 4:0 5:0 6:0 7:0.90799648 8:0.051416431 9:0.040679019 10:0.39710367 11:0.11629878 12:0 13:0 14:0 15:0 16:0.82940477 17:0 18:0.18733086 19:0.13977033 20:0 21:0 22:0.48178533 23:0.084042065 24:0.09086591 25:0.042810638 26:0.090386637 27:0 28:0 29:0 30:0 31:0.42583546 32:0.11409739 33:0.030548844 34:0.033955313 35:0 36:0.23873736 37:0.69562596 38:0.5124858 39:0 40:0.00131011 41:0 42:0 43:0 44:0 45:0 46:0.83190525 47:0 48:0 49:0 50:0 51:0 52:0.48099303 53:0.087938577 54:0.091851756 55:0.15974376 56:0.18673551 57:0 58:0 59:0 60:0 61:0 62:0 63:0.088979922 64:0.11835763 65:0 66:0 67:0.9471615 68:0.23740143 69:0.0088315876 70:0.12634745 71:0.092445672 72:0 73:0 74:0 75:0 76:0.86381745 77:0 78:0.13005869 79:0.097038709 80:0 81:0 82:0.33592004 83:0.33258602 84:0.063085712 85:0.0061885254 86:0 87:0 88:0 89:0 90:0 91:0.29922032 92:0 93:0 94:0 95:0 96:0 97:0.92059231 98:0.06387797 99:0.17575762 100:0.16521701 101:0.026131876 102:0 103:0 104:0 105:0 106:0.85669863 107:0 108:0.070285931 109:0.033881772 110:0 111:0 112:0.44754574 113:0.2181678 114:0.059938796 115:0.069675371 116:0.060198113 117:0 118:0 119:0 120:0 121:0.035683278 122:0.12249538 123:0.11069549 124:0.13666378 125:0 126:0.26029491 127:0.71005028 128:0.61676192 129:0.02103959 130:0 131:0 132:0 133:0 134:0 
-0.3838461058379809 0 0.2656505593660031 0.1204330562783454 0.1066772454583849 0.3621369121558728 0.4197304155643576 0.1613386092124182 0.1544022343134785 0.8976866007638881 0.3238785423328226 0 0.5036206147745473 0.4046602082682967 0.06253239485362949 0.03899284561937894 0:0 1:0.55649126 2:0.14417775 3:0.022826469 4:0.096446767 5:0.52632999 6:0.099109307 7:0.16718949 8:0.49395594 9:0.23460138 10:0 11:0.095605634 12:0.19152869 13:0 14:0 15:0 16:0.39013919 17:0 18:0 19:0.16412094 20:0.11659048 21:0 22:0.35886717 23:0.54955554 24:0.26769602 25:0.067513257 26:0.25570834 27:0.4845655 28:0 29:0 30:0 31:0.52283508 32:0.12514101 33:0.10182826 34:0.15848912 35:0.034169778 36:0.087511703 37:0.35492003 38:0.66447663 39:0.25066939 40:0.033204738 41:0.15846519 42:0.10038971 43:0 44:0 45:0 46:0.63554788 47:0.2998004 48:0.074695759 49:0.091905996 50:0.43984765 51:0.11780263 52:0.2747395 53:0.34282181 54:0.20423664 55:0.071522981 56:0.13341045 57:0.16478156 58:0 59:0 60:0 61:0.29158905 62:0 63:0.088877521 64:0.081015728 65:0.19558114 66:0.081168234 67:0.52978009 68:0.59356558 69:0.24950136 70:0.14134775 71:0.22837475 72:0.29707643 73:0 74:0 75:0 76:0.68101621 77:0.15557751 78:0.28714904 79:0.1884035 80:0.10113542 81:0.069233768 82:0.49825224 83:0.27104789 84:0.041627195 85:0.082063474 86:0.20437256 87:0.083905205 88:0 89:0 90:0 91:0.8776958 92:0.0075551942 93:0 94:0.0044501293 95:0.11053595 96:0.040345937 97:0.3298015 98:0.26659867 99:0.13761109 100:0.1173892 101:0.010621252 102:0.054979961 103:0 104:0 105:0 106:0.47841817 107:0 108:0.13948643 109:0.066673957 110:0.20352821 111:0.16004688 112:0.48054621 113:0.43106371 114:0.030092178 115:0.39289364 116:0.08306513 117:0.31815538 118:0 119:0 120:0 121:0.21022208 122:0.038989596 123:0.3501032 124:0.37438929 125:0.29527646 126:0.36638549 127:0.37584516 128:0.32478046 129:0 130:0.12026915 131:0.25275433 132:0.38073513 133:0 134:0 
-0 0 0 0 0 0.0119164129118986 0 0.02082746883914431 0 0 0 0.00567320347591305 0 0 0 0 0:0 1:0.0040549343 2:0.0091135157 3:0 4:0 5:0 6:0 7:0.75597131 8:0.60927671 9:0.13001919 10:0.10348788 11:0 12:0.17190373 13:0 14:0 15:0 16:0.82626569 17:0.088704184 18:0.16732389 19:0 20:0.20824856 21:0 22:0.33549881 23:0.31111047 24:0 25:0.015136664 26:0 27:0.16868278 28:0 29:0 30:0 31:0.31877723 32:0 33:0.20534319 34:0 35:0.32608122 36:0 37:0.76393652 38:0.35246909 39:0 40:0.0018036312 41:0 42:0.20500949 43:0 44:0 45:0 46:0.79551947 47:0.096371524 48:0 49:0 50:0.0033448271 51:0 52:0.21110444 53:0.38526145 54:0 55:0.012947766 56:0.077031016 57:0.39841595 58:0 59:0 60:0 61:0.0021672382 62:0.0044890982 63:0.083239116 64:0 65:0.1391114 66:0 67:0.86259001 68:0.43474758 69:0 70:0.052151937 71:0.037465617 72:0.19102909 73:0 74:0 75:0 76:0.85095221 77:0.055810466 78:0.10527603 79:0 80:0.13102481 81:0 82:0.40398163 83:0.2851322 84:0 85:0.0010565596 86:0 87:0 88:0 89:0 90:0 91:0.3689149 92:0 93:0 94:0 95:0 96:0 97:0.70338845 98:0.53411508 99:0.23461641 100:0 101:0.072286002 102:0.15352868 103:0 104:0 105:0 106:0.84129483 107:0.061619684 108:0.1208133 109:0 110:0.010021666 111:0 112:0.30774391 113:0.39707544 114:0 115:0 116:0.049253415 117:0.13753021 118:0 119:0 120:0 121:0.15933199 122:0.072044931 123:0.13482642 124:0 125:0.083730683 126:0.23275575 127:0.90963608 128:0.22989114 129:0 130:0 131:0.094136387 132:0.029832486 133:0 134:0 
-0.1141935246473562 0.05694321844583547 0.1093895520003101 0.4260118943215318 0.1450388986205776 0.05619136793902939 0.2588663114830161 0 0.01555024748000807 0.04339848155122805 0.07459660991565301 0.03208664244342226 0.1302263600203978 0.05456433773009563 0.06206358346067051 0.1000855193443126 0:0 1:0 2:0.018450158 3:0 4:0.016027698 5:0 6:0 7:0.77017915 8:0.58298892 9:0 10:0.015309295 11:0.25708282 12:0 13:0 14:0 15:0 16:0.72712541 17:0.19045174 18:0.07856182 19:0.11501822 20:0.077110492 21:0.044317245 22:0.60489762 23:0.17381848 24:0 25:0 26:0.10756629 27:0 28:0 29:0 30:0 31:0.33719856 32:0.023552116 33:0.077841654 34:0.10885059 35:0 36:0.081694216 37:0.91753376 38:0.037169199 39:0.07421878 40:0.033255368 41:0.025916658 42:0.10298049 43:0 44:0 45:0 46:0.80606359 47:0.06723322 48:0 49:0.12771536 50:0 51:0 52:0.42232719 53:0.36603072 54:0 55:0 56:0.10421271 57:0.078787826 58:0 59:0 60:0 61:0.00023975197 62:0.049976494 63:0.048954643 64:0.006720488 65:0.036333617 66:0.071520761 67:0.95123351 68:0.28934258 69:0 70:0 71:0.0071121329 72:0 73:0 74:0 75:0 76:0.61362195 77:0.1653235 78:0.068196364 79:0.09984269 80:0.066936515 81:0.038470022 82:0.72774446 83:0.21339849 84:0 85:0 86:0 87:0.019680681 88:0 89:0 90:0 91:0.30635148 92:0 93:0 94:0 95:0 96:0 97:0.74032766 98:0.52145767 99:0 100:0 101:0.29346767 102:0.00045933915 103:0 104:0 105:0 106:0.87764484 107:0 108:0 109:0.066789433 110:0.050283842 111:0.016591156 112:0.28829706 113:0.37101197 114:0 115:0 116:0 117:0.041202515 118:0 119:0 120:0 121:0.21895595 122:0 123:0 124:0.093447603 125:0.075903393 126:0.20444071 127:0.91217262 128:0.22884078 129:0 130:0 131:0.076267689 132:0.0741826 133:0 134:0 
-0.2350385913619764 0.08041373502600424 0.1619450053699052 0.4125643151220932 0.06136155909090937 0.1052864612489951 0.195984105971994 0.01246905566470807 0.04756416370949845 0.1575444112685975 0.1177500386435403 0.050004903340946 0.2170166221844986 0.1989668981168194 0.1062638732564554 0.06266436240723083 0:0 1:0.00028242689 2:0 3:0 4:0 5:0 6:0 7:0.7645092 8:0.57687563 9:0.24096516 10:0.06474752 11:0.14302589 12:0 13:0 14:0 15:0 16:0.40695816 17:0.053705763 18:0.21603344 19:0 20:0.26443687 21:0.107975 22:0.59128439 23:0.57941008 24:0.13375601 25:0 26:0 27:0 28:0 29:0 30:0 31:0.36908355 32:0.15633361 33:0.16554397 34:0 35:0.14860544 36:0 37:0.83555984 38:0.30257294 39:0.010850035 40:0 41:0 42:0 43:0 44:0 45:0 46:0.74316233 47:0 48:0 49:0 50:0 51:0 52:0.38472161 53:0.28313908 54:0.46851423 55:0 56:0 57:0 58:0 59:0 60:0 61:0 62:0.018766226 63:0.12605773 64:0 65:0.14489067 66:0.018844008 67:0.91033381 68:0.28089729 69:0.23406181 70:0 71:0 72:0 73:0 74:0 75:0 76:0.6015321 77:0.036168586 78:0.14548948 79:0 80:0.17808717 81:0.072716638 82:0.60608786 83:0.45970041 84:0 85:0 86:0 87:0 88:0 89:0 90:0 91:0.2832171 92:0 93:0 94:0 95:0 96:0 97:0.77468276 98:0.4161866 99:0.29838735 100:0 101:0.23955142 102:0 103:0 104:0 105:0 106:0.8127234 107:0 108:0 109:0 110:0.10532849 111:0.077876113 112:0.31103188 113:0.43377584 114:0.19340196 115:0 116:0 117:0 118:0 119:0 120:0 121:0.00022946324 122:0.20939784 123:0 124:0 125:0.31682041 126:0.094898671 127:0.85017616 128:0.32039484 129:0.11793411 130:0 131:0.085957021 132:0 133:0 134:0 
-0.2581225693383621 0.1841161249903522 0.4072602850370527 0.2309184512754655 0.1204511856622284 0.3195375405984576 0.4352527403189615 0.09932286580416581 0.1248210139488463 0.9636776743143476 0.9139665063034562 0.1914454930559012 1 0.772388555502194 0.3199753681715672 0.3571830788974958 0:0 1:0.65126354 2:0.10212111 3:0.25722691 4:0.20435178 5:0.14824103 6:0.29121792 7:0.011052041 8:0.33387122 9:0.2571927 10:0.3356345 11:0.13832639 12:0.20277582 13:0 14:0 15:0 16:0.20649651 17:0.22249606 18:0.18940493 19:0.0053520361 20:0.21994238 21:0.21639051 22:0 23:0.32815146 24:0.48726338 25:0.44264778 26:0.07309103 27:0.47988552 28:0 29:0 30:0 31:0.58831686 32:0.090699188 33:0.0097947065 34:0 35:0.097858988 36:0.081483923 37:0.27884674 38:0.69277763 39:0.26107889 40:0.038320314 41:0 42:0.044447135 43:0 44:0 45:0 46:0.37309474 47:0.4252162 48:0.28309602 49:0.22950268 50:0.17257482 51:0.39704508 52:0.15388006 53:0.36210251 54:0.089891344 55:0.1826324 56:0.40430191 57:0 58:0 59:0 60:0 61:0.12179139 62:0.43009678 63:0.13703938 64:0.359777 65:0.25255597 66:0.42580789 67:0.058663461 68:0.26481852 69:0.24391806 70:0.35310832 71:0.38575318 72:0.015683267 73:0 74:0 75:0 76:0.66447222 77:0.30537647 78:0.40273011 79:0.17783399 80:0.16375212 81:0.34533635 82:0.1526874 83:0.15336369 84:0.1796452 85:0.16493893 86:0 87:0.13772202 88:0 89:0 90:0 91:0.79358947 92:0.1576336 93:0.12518133 94:0.026275754 95:0 96:0.26613313 97:0.1499317 98:0.25134861 99:0.1183505 100:0.030933872 101:0.38652343 102:0.090060867 103:0 104:0 105:0 106:0.55472046 107:0.29860646 108:0.17540419 109:0.27204192 110:0.097664349 111:0.24635018 112:0.12572421 113:0.097034544 114:0.24458608 115:0.27647653 116:0.43728065 117:0.27451944 118:0 119:0 120:0 121:0 122:0.30055058 123:0.13942735 124:0.45722044 125:0.11976963 126:0.33017471 127:0.60251862 128:0.40228164 129:0 130:0.10615286 131:0.14705677 132:0 133:0 134:0 
