svm_type c_svc
kernel_type rbf
gamma 0.5
nr_class 17
total_sv 889
rho -0.222134 -0.323307 -0.116325 0.00895682 -0.0666527 -0.201321 -0.133744 -0.607623 -0.470676 -0.276274 -0.105065 -0.525224 -0.192328 -0.375559 -0.0668713 -0.253927 -0.136472 0.0940211 0.200036 0.154526 0.024506 0.0670964 -0.473387 -0.283985 -0.0761141 0.14791 -0.350492 0.0663232 -0.205339 0.10488 -0.0381819 0.273403 0.320261 0.302388 0.15207 0.218031 -0.376729 -0.182138 0.0457104 0.221513 -0.346988 0.166018 -0.0683352 0.349847 0.0892387 0.103003 0.0434552 -0.0793049 -0.0302163 -0.584812 -0.45716 -0.203122 0.0318069 -0.483436 -0.0521951 -0.305931 0.0305224 -0.189069 -0.0572593 -0.174695 -0.140022 -0.572145 -0.435682 -0.253527 -0.106383 -0.498548 -0.189223 -0.345185 -0.0514206 -0.243187 -0.118466 -0.0557923 -0.612883 -0.439135 -0.242721 -0.0315797 -0.541081 -0.134273 -0.358536 -0.0283662 -0.212224 0.0447782 -0.55011 -0.364313 -0.0913774 0.139985 -0.443579 -0.00861396 -0.26697 0.0959148 -0.0971065 -0.567671 -0.381219 -0.126571 0.0407455 -0.419394 -0.0523268 -0.25241 0.0411002 -0.139871 0.501403 0.465841 0.592815 0.136821 0.504464 0.336125 0.64986 0.412742 0.269432 0.449635 -0.101389 0.368333 0.155917 0.460409 0.214993 0.235492 -0.365936 0.179144 -0.194881 0.23005 0.00713721 -0.525907 -0.0496321 -0.332887 0.0256233 -0.172815 0.382581 0.194536 0.595437 0.337419 -0.30704 0.0779632 -0.0581716 0.321603 0.108205 -0.20231
label 0 1 2 3 4 5 6 7 8 9 10 11 12 13 14 15 16
nr_sv 55 51 54 52 54 55 55 51 47 55 54 55 42 54 48 54 53
SV
0.6819144680187628 0.585821604332065 0.782194141993128 0.8751987182325879 0.7984540693807713 0.7739248176203747 0.776864719356035 0.3394547849689522 0.4828070396777146 0.629552878188424 0.7679170773270942 0.4100843784025899 0.7399566674615065 0.5632485287459964 0.8129588636539411 0.6505297302050914 0:0 1:0.063879192 2:0.074535027 3:0.20289834 4:0.97425717 5:0 6:0 7:0 8:0.14531022 9:0.18582717 10:0.29009515 11:0.92745554 12:0 13:0 14:0 15:0.18134052 16:0.23974462 17:0.19582357 18:0.93341345 19:0 20:0 21:0 22:0.22496369 23:0 24:0 25:0.97427666 26:0 27:0 28:0 29:0.23349696 30:0 31:0.21046351 32:0.94929433 33:0 34:0 35:0 36:0.84603572 37:0 38:0.14243351 39:0.51372367 40:0 41:0 42:0 43:0.60230809 44:0 45:0.11329048 46:0.79016542 47:0 48:0 49:0 50:0 51:0 52:0.192288 53:0.98132497 54:0 55:0 56:0 57:0.37275884 58:0 59:0.14976178 60:0.91574031 61:0 62:0 63:0 64:0.97473079 65:0 66:0 67:0.22333466 68:0 69:0 70:0 71:0.89017493 72:0 73:0.05119352 74:0.45271161 75:0 76:0 77:0 78:0 79:0 80:0.094117314 81:0.99552953 82:0 83:0 84:0 85:0.35126543 86:0 87:0 88:0.93625152 89:0 90:0 91:0 92:0.86507303 93:0 94:0 95:0.50162673 96:0 97:0 98:0 99:0.98936963 100:0 101:0 102:0.14531635 103:0 104:0 105:0 106:0.010988641 107:0 108:6.8522934e-09 109:0.99988884 110:0 111:0 
0.642764880396906 0.6325107250685292 0.7755550082286365 0.9224144392201523 0.8339683506756408 0.7430576870568341 0.7193034694450855 0.3214594468461558 0.4329921191167726 0.6033140655068246 0.7859002053526307 0.4171478119064667 0.7234052525378448 0.5563892416636536 0.7973906748150686 0.6932891263914494 0:0 1:0.95393962 2:0 3:0 4:0 5:0 6:0 7:0 8:0.68351203 9:0 10:0 11:0.72987074 12:0 13:0 14:0 15:0.99997264 16:0 17:0 18:0.0049699727 19:0 20:0 21:0 22:0.99996501 23:0 24:0 25:0 26:0 27:0 28:0 29:0.0013690758 30:0 31:0 32:0.99993294 33:0 34:0 35:0 36:0.22929551 37:0 38:0 39:0.97333431 40:0 41:0 42:0 43:0.54147273 44:0 45:0.29747868 46:0.78631109 47:0 48:0 49:0 50:0.99997133 51:0 52:0 53:0.006171864 54:0 55:0 56:0 57:0 58:0 59:0.43415561 60:0.90081221 61:0 62:0 63:0 64:0.058163136 65:0 66:0.28140521 67:0.95780903 68:0 69:0 70:0 71:0.60791504 72:0 73:0.14359592 74:0.78088456 75:0 76:0 77:0 78:0.0090652118 79:0.043146923 80:0.41558489 81:0.90847135 82:0 83:0 84:0 85:0.45241567 86:0 87:0.60943347 88:0.65102303 89:0 90:0 91:0 92:0.084134363 93:0 94:0.40683731 95:0.90959412 96:0 97:0 98:0 99:0.97190213 100:0 101:0.069800235 102:0.22471204 103:0 104:0 105:0 106:0.99998355 107:0 108:0 109:0 110:0 111:0 
0.01206818175844086 0 0 0 0 0.04511848813360424 0 0 0 0 0 0 0 0 0 0.03746011080153554 0:0 1:0.0011499191 2:0 3:0.43888155 4:0.89848238 5:0 6:0 7:0 8:0.25559691 9:0.12955749 10:0.54525465 11:0.78774697 12:0 13:0 14:0 15:0.4682079 16:0.071901813 17:0.45790499 18:0.75227022 19:0 20:0 21:0 22:0.9999826 23:0 24:0 25:0.0036065339 26:0 27:0 28:0 29:0.2468112 30:0 31:0.32401624 32:0.913261 33:0 34:0 35:0 36:0.64853221 37:0.014446255 38:0.14613581 39:0.74686337 40:0 41:0 42:0 43:0.61591554 44:0.13153513 45:0.62969887 46:0.45474419 47:0 48:0 49:0 50:0.12240277 51:0.31935069 52:0.81622708 53:0.46558216 54:0 55:0 56:0 57:0.99998212 58:0 59:0 60:0.0023718965 61:0 62:0 63:0 64:0.92820281 65:0 66:0.085653372 67:0.36204681 68:0 69:0 70:0 71:0.97024274 72:0.24201505 73:0 74:0.0025610058 75:0 76:0 77:0 78:0.94423175 79:0.073862113 80:0.036931057 81:0.31862199 82:0 83:0 84:0 85:0.99998051 86:0 87:0 88:0 89:0 90:0 91:0 92:0.99998772 93:0 94:0 95:0.00050267891 96:0 97:0 98:0 99:0.99998587 100:0 101:0 102:0 103:0 104:0 105:0 106:0.74977756 107:0 108:0 109:0.66110206 110:0 111:0 
0.9255943902610121 0.3953623121179136 0.6024381722702954 0.6300118948373739 0.6185417848839503 0.5838734954994906 0.6033501740613241 0.2666628868575249 0.3589401596240455 0.7427644387405059 0.7294879531780036 0.2902237863850742 0.6722437236136782 0.4697574376902968 0.6355040001873629 0.4656237566311219 0:0 1:0.12878351 2:0.017977305 3:0.93538475 4:0.32867664 5:0 6:0 7:0 8:0.19600026 9:0 10:0.7202726 11:0.66531861 12:0 13:0 14:0 15:0.28370601 16:0 17:0 18:0.95882833 19:0 20:0 21:0 22:0.0026093239 23:0 24:0.37914208 25:0.92529225 26:0 27:0 28:0 29:0.56400335 30:0.4372367 31:0.4146533 32:0.5645023 33:0 34:0 35:0 36:0.30161533 37:0.14524952 38:0.6612367 39:0.67126089 40:0 41:0 42:0 43:0.78457183 44:0.0045988606 45:0.25453517 46:0.56520247 47:0 48:0 49:0 50:0.53673816 51:0.12005079 52:0.38661653 53:0.74024355 54:0 55:0 56:0 57:0.88922119 58:0.38244417 59:0.21474768 60:0.12961957 61:0 62:0 63:0 64:0.14820342 65:0.0049191513 66:0.32997915 67:0.9321714 68:0 69:0 70:0 71:0.11386773 72:0.18916254 73:0.29297408 74:0.93018794 75:0 76:0 77:0 78:0.36970466 79:0.0095965872 80:0.18444367 81:0.91053772 82:0 83:0 84:0 85:0.57735091 86:0.087685138 87:0.60728908 88:0.53862345 89:0 90:0 91:0 92:0.053891476 93:0.28414407 94:0.5843612 95:0.75808847 96:0 97:0 98:0 99:0.66165328 100:0.29041225 101:0.052117806 102:0.68919522 103:0 104:0 105:0 106:0.031778201 107:0.62041092 108:0.64303309 109:0.44774002 110:0 111:0 
0.1500576685906636 0.03111200672170729 0.117465752500284 0.2056505469497294 0.1631050494308088 0.2827088162222499 0.1611457254203046 0.05153218233318253 0.04730831986849766 0.1280648718063224 0.1710611650469238 0.05124215555123791 0.1389043892349451 0.08250964993308289 0.1642688207805294 0.1090331129346302 0:0 1:0.0011048157 2:0 3:0.41487718 4:0.90981811 5:0 6:0 7:0 8:0.27503195 9:0.1647025 10:0.54641336 11:0.7736941 12:0 13:0 14:0 15:0.4166224 16:0.083484717 17:0.47020063 18:0.77351761 19:0 20:0 21:0 22:0.99961632 23:0 24:0.0034965605 25:0.026172752 26:0 27:0 28:0 29:0.16618219 30:0 31:0.19635786 32:0.96631885 33:0 34:0 35:0 36:0.53364199 37:0.021783067 38:0.19388449 39:0.82286751 40:0 41:0 42:0 43:0.69080049 44:0.12558381 45:0.14613046 46:0.69686669 47:0 48:0 49:0 50:0.13929933 51:0.19700581 52:0.39689258 53:0.88554847 54:0 55:0 56:0 57:0.93275076 58:0 59:0.0014915682 60:0.36043605 61:0 62:0 63:0 64:0.93793297 65:0 66:0.077693976 67:0.33793905 68:0 69:0 70:0 71:0.97197539 72:0 73:0.23491733 74:0 75:0 76:0 77:0 78:0.99994659 79:0 80:0.0030373554 81:0.0060747107 82:0 83:0 84:0 85:0.99996817 86:0 87:0 88:0 89:0 90:0 91:0 92:0.99997962 93:0 94:0 95:0.00042093906 96:0 97:0 98:0 99:0.99997962 100:0 101:0 102:0 103:0 104:0 105:0 106:0.99925733 107:0 108:0 109:0.033857066 110:0 111:0 
0.8975262379559124 0.05378682355349896 0.2426443215021392 0.04091543073237137 0.09824036219694272 1 0.1233248582445255 0.02543996926207127 0.1049321144111443 0.9490821338509252 0.7533096434173607 0.0278430110408588 0.5590254915740216 0.1724015404126673 0.2462081391551496 0.04967585046061501 0:0 1:0.044177197 2:0.66397315 3:0.39178151 4:0.63530886 5:0 6:0 7:0 8:0 9:0.14422606 10:0.20207082 11:0.96867406 12:0 13:0 14:0 15:0 16:0 17:0.082531162 18:0.99657094 19:0 20:0 21:0 22:0.27613521 23:0.28421292 24:0.38679218 25:0.83266747 26:0 27:0 28:0 29:0.36075294 30:0.57263368 31:0.51527995 32:0.52572215 33:0 34:0 35:0 36:0 37:0.31905001 38:0.44362769 39:0.83747488 40:0 41:0 42:0 43:0.039428983 44:0.047192533 45:0.52661711 46:0.84785563 47:0 48:0 49:0 50:0.4620727 51:0.31950203 52:0.65276307 53:0.50821483 54:0 55:0 56:0 57:0.76001871 58:0.3554098 59:0.18546188 60:0.51149029 61:0 62:0 63:0 64:0.2308521 65:0.21760091 66:0.19168164 67:0.92875385 68:0 69:0 70:0 71:0.32776427 72:0.025397049 73:0.28948274 74:0.8989324 75:0 76:0 77:0 78:0.6581071 79:0.45852908 80:0.53683108 81:0.26158071 82:0 83:0 84:0 85:0.84757304 86:0.27041298 87:0.15877189 88:0.42807099 89:0 90:0 91:0 92:0.77003169 93:0.18444131 94:0.1696004 95:0.58670634 96:0 97:0 98:0 99:0.24150249 100:0.22291163 101:0.017608557 102:0.94426489 103:0 104:0 105:0 106:0.34838158 107:0.34171593 108:0.66319412 109:0.56744045 110:0 111:0 
0.3077337350725059 0.2746768185097428 0.4177855128776933 0.4379338057841326 0.448578721972689 0.3053241558845721 0.411854637258005 0.1780065060316289 0.2659417410829706 0.3166098835302964 0.3696308706400101 0.225965663784913 0.3545958080720082 0.2642431142252602 0.4108928798586639 0.3301618076297153 0:0 1:0.066434845 2:0.07357616 3:0.1985662 4:0.97505337 5:0 6:0 7:0 8:0.13942568 9:0.08347217 10:0.36991146 11:0.91473454 12:0 13:0 14:0 15:0.21012914 16:0.13317205 17:0.40539935 18:0.87962013 19:0 20:0 21:0 22:0.99998671 23:0 24:0 25:0 26:0 27:0 28:0 29:0.33317223 30:0.031683359 31:0.21582578 32:0.91727364 33:0 34:0 35:0 36:0.88871008 37:0 38:0.14181605 39:0.43596321 40:0 41:0 42:0 43:0.6998955 44:0 45:0.10863841 46:0.70591766 47:0 48:0 49:0 50:0.21062677 51:0 52:0.12410887 53:0.96964234 54:0 55:0 56:0 57:0.97082657 58:0.034551322 59:0.1053319 60:0.21256118 61:0 62:0 63:0 64:0.99999446 65:0 66:0 67:0 68:0 69:0 70:0 71:0.9128722 72:0 73:0.05249254 74:0.40483907 75:0 76:0 77:0 78:0.88780391 79:0 80:0 81:0.46018845 82:0 83:0 84:0 85:0.99998772 86:0 87:0 88:0 89:0 90:0 91:0 92:0.99999475 93:0 94:0 95:0 96:0 97:0 98:0 99:0.9979142 100:0 101:0 102:0.064449906 103:0 104:0 105:0 106:0.54451585 107:0 108:0 109:0.83870775 110:0 111:0 
0.3670124984038088 0.6882652109104824 0.6504306457036464 0.4234514139445133 0.8038926994760823 0.5131739366000216 0.4024180986243248 0.5606178805712014 0.5706010555059398 0.6683768376979971 0.5591469661106346 0.4690439521085873 0.4145142132221145 0.3698348629825834 0.7240436414581376 0.6683596686379287 0:0 1:0.27393487 2:0 3:0.24033619 4:0.93117672 5:0 6:0 7:0 8:0.40792948 9:0.023936199 10:0.1447369 11:0.90112984 12:0 13:0 14:0 15:0.41735208 16:0.25576702 17:0.68501151 18:0.53956681 19:0 20:0 21:0 22:0.89201683 23:0 24:0.12285654 25:0.43496597 26:0 27:0 28:0 29:0.99991196 30:0 31:0.0010322173 32:0.011908758 33:0 34:0 35:0 36:0.93157679 37:0 38:0.058574326 39:0.35875815 40:0 41:0 42:0 43:0.90855485 44:0.032071099 45:0.37388101 46:0.18354237 47:0 48:0 49:0 50:0.47001034 51:0.35731456 52:0.71068573 53:0.38250908 54:0 55:0 56:0 57:0.99998349 58:0 59:0 60:0 61:0 62:0 63:0 64:0.99997675 65:0 66:0 67:0.0055677509 68:0 69:0 70:0 71:0.99314541 72:0 73:0.11679407 74:0 75:0 76:0 77:0 78:0.99055982 79:0.13309076 80:0.028010998 81:0.016408451 82:0 83:0 84:0 85:0.99993712 86:0 87:0 88:0 89:0 90:0 91:0 92:0.99999225 93:0 94:0 95:0 96:0 97:0 98:0 99:0.99999267 100:0 101:0 102:0 103:0 104:0 105:0 106:0.99998838 107:0 108:0 109:0 110:0 111:0 
1 0.4178858899056407 0.6728318381528356 0.8242834814983889 0.7363709564063169 0.5576198605021552 0.6087110221898203 0.2207289702321336 0.3060547490714464 0.9710371264669018 0.6217680305312776 0.3457333872038827 0.7848901138375866 0.4885243806871621 0.6850908921465969 0.467060148805069 0:0 1:0.018096896 2:0.39888653 3:0.84826165 4:0.34775817 5:0 6:0 7:0 8:0.0064371224 9:0 10:0.83719897 11:0.54683083 12:0 13:0 14:0 15:0.064224303 16:0 17:0.43861341 18:0.89635801 19:0 20:0 21:0 22:0.7109192 23:0.13821574 24:0.52585936 25:0.44598508 26:0 27:0 28:0 29:0.37436506 30:0.38652048 31:0.59321123 32:0.59874362 33:0 34:0 35:0 36:0.0013625983 37:0.34038419 38:0.848351 39:0.4054682 40:0 41:0 42:0 43:0.1675778 44:0.014649459 45:0.83429819 46:0.5249936 47:0 48:0 49:0 50:0.32257274 51:0.28894478 52:0.88241458 53:0.18377398 54:0 55:0 56:0 57:0.37919089 58:0.2774725 59:0.56849384 60:0.67527604 61:0 62:0 63:0 64:0.41156697 65:0.040858757 66:0.15001398 67:0.89799398 68:0 69:0 70:0 71:0.025379855 72:0.47758284 73:0.84505391 74:0.23900248 75:0 76:0 77:0 78:0.63538432 79:0.079901695 80:0.66835797 81:0.37836775 82:0 83:0 84:0 85:0.73329127 86:0.26671168 87:0.19054043 88:0.59563565 89:0 90:0 91:0 92:0.37047592 93:0.046052985 94:0 95:0.9276768 96:0 97:0 98:0 99:0.67825389 100:0.16275433 101:0.17670731 102:0.69440526 103:0 104:0 105:0 106:0.24092998 107:0.42361385 108:0.31916907 109:0.8127678 110:0 111:0 
0.8769705621266127 0.6657886203013869 0.8512650097117409 0.794877204986139 0.8234085033447545 1 0.9110222102809764 0.4258726180736199 0.6180846884640659 0.7935064683694207 1 0.5138360306404778 0.9004478782733845 0.6826482381344475 0.8498930703233157 1 0:0 1:0.050185513 2:0 3:0 4:0.99851936 5:0 6:0 7:0 8:0.88592917 9:0 10:0 11:0.46372834 12:0 13:0 14:0 15:0.93754864 16:0 17:0.074509852 18:0.3396624 19:0 20:0 21:0 22:0.090280361 23:0.35110223 24:0.57084864 25:0.73665339 26:0 27:0 28:0 29:0.92850214 30:0.10765193 31:0.1924306 32:0.2985653 33:0 34:0 35:0 36:0.42719436 37:0 38:0.25143829 39:0.86840343 40:0 41:0 42:0 43:0.78933954 44:0 45:0.23712288 46:0.56619251 47:0 48:0 49:0 50:0.98528928 51:0.069838978 52:0.15055497 53:0.040173568 54:0 55:0 56:0 57:0.32609233 58:0.029848581 59:0.29813597 60:0.89655256 61:0 62:0 63:0 64:0.74379826 65:0.1569937 66:0.28063029 67:0.58581805 68:0 69:0 70:0 71:0.36709529 72:0 73:0.50668013 74:0.7799809 75:0 76:0 77:0 78:0.63404161 79:0.54832047 80:0.29743752 81:0.45696253 82:0 83:0 84:0 85:0.96987194 86:0 87:0.012158161 88:0.24307045 89:0 90:0 91:0 92:0.75437707 93:0.1242696 94:0.026786674 95:0.64395875 96:0 97:0 98:0 99:0.22821221 100:0 101:0.23264922 102:0.94537443 103:0 104:0 105:0 106:0.27710712 107:0.4743619 108:0.44937843 109:0.70441478 110:0 111:0 
1 0.486128501631566 0.917223744083662 0.8571666098116639 0.8052491592871712 0.9377523927366476 0.980144167012687 0.3721424808807466 0.6596178722430304 1 1 0.3052242885589556 1 0.9839795107830372 0.6854797173670164 0.6214224625130721 0:0 1:0.54909265 2:0.40396538 3:0.45391816 4:0.57374674 5:0 6:0 7:0 8:0.11901832 9:0.14649357 10:0.49943304 11:0.84552205 12:0 13:0 14:0 15:0 16:0 17:0.29206634 18:0.95638239 19:0 20:0 21:0 22:0.60194242 23:0.43148851 24:0.43811521 25:0.50942641 26:0 27:0 28:0 29:0.84277326 30:0.31814396 31:0.29523572 32:0.31831184 33:0 34:0 35:0 36:0.61421895 37:0.36458957 38:0.5679881 39:0.40887061 40:0 41:0 42:0 43:0.27510393 44:0.24131742 45:0.74011606 46:0.5641669 47:0 48:0 49:0 50:0.64994687 51:0.35648251 52:0.55339122 53:0.37977228 54:0 55:0 56:0 57:0.89602488 58:0.37928414 59:0.16691108 60:0.15935615 61:0 62:0 63:0 64:0.57413524 65:0.4695347 66:0.61171019 67:0.27511778 68:0 69:0 70:0 71:0.27587336 72:0.30846593 73:0.87937403 74:0.23541218 75:0 76:0 77:0 78:0.62394416 79:0.3405824 80:0.69975734 81:0.070843391 82:0 83:0 84:0 85:0.32361677 86:0.23880801 87:0.53181005 88:0.74520397 89:0 90:0 91:0 92:0.16060099 93:0.79347867 94:0.33906958 95:0.47914779 96:0 97:0 98:0 99:0.55305135 100:0.21030915 101:0.64838213 102:0.47900975 103:0 104:0 105:0 106:0.43989909 107:0.43257791 108:0.67399144 109:0.40628999 110:0 111:0 
0.0225347334735997 0.06513651443123003 0.05175356602898436 0.03307074549460152 0.1288924967568091 0.2087760846182029 0.03834235028269894 0.04793818803481281 0.1850015158475732 0.1132920264856786 0.106991729679262 0.07651134561168188 0.2179658744590966 0.08476127775897548 0.1672980101988901 0.005728225798826994 0:0 1:0 2:0 3:0.30039808 4:0.95377159 5:0 6:0 7:0 8:0.087852888 9:0.29002291 10:0.40754941 11:0.86142099 12:0 13:0 14:0 15:0.24620877 16:0.17399779 17:0.45751357 18:0.83652067 19:0 20:0 21:0 22:0.84199315 23:0 24:0.077930905 25:0.53381449 26:0 27:0 28:0 29:0 30:0 31:0.63791198 32:0.77008915 33:0 34:0 35:0 36:0.79272342 37:0.25249282 38:0.26773626 39:0.48593128 40:0 41:0 42:0 43:0.59466666 44:0.24317007 45:0.60895222 46:0.46518317 47:0 48:0 49:0 50:0.30957767 51:0.066122167 52:0.88427544 53:0.34325787 54:0 55:0 56:0 57:0.98009807 58:0 59:0.11656096 60:0.16059688 61:0 62:0 63:0 64:0.91200382 65:0 66:0.29103011 67:0.28902465 68:0 69:0 70:0 71:0.98534238 72:0.12057837 73:0 74:0.12057837 75:0 76:0 77:0 78:0.9625054 79:0.062214937 80:0.25044572 81:0.083481908 82:0 83:0 84:0 85:0.99998528 86:0 87:0 88:0 89:0 90:0 91:0 92:0.98490131 93:0.065726638 94:0.14873919 95:0.059225358 96:0 97:0 98:0 99:0.99999321 100:0 101:0 102:0 103:0 104:0 105:0 106:0.91591543 107:0.16721864 108:0.053211208 109:0.36087823 110:0 111:0 
0.5369072289208358 0.1490951722363401 0.4216638715569617 0.235354523426606 0.444809881487035 0.902051789298069 0.4383577115889933 0.2956997263849594 0.4136720059233646 0.6504438997782196 0.784866757381005 0.1628598803887063 0.6722339609173427 0.5732255397168226 0.3403188459959537 0.1597626788041633 0:0 1:0.12053691 2:0 3:0.57157773 4:0.81156808 5:0 6:0 7:0 8:0.027308034 9:0 10:0.62990397 11:0.77611029 12:0 13:0 14:0 15:0.00067830668 16:0 17:0.2617529 18:0.96510077 19:0 20:0 21:0 22:0.43885261 23:0.35259435 24:0.61016721 25:0.55743504 26:0 27:0 28:0 29:0.4664304 30:0 31:0.27698085 32:0.84001982 33:0 34:0 35:0 36:0.5968793 37:0 38:0.45903963 39:0.65798324 40:0 41:0 42:0 43:0.40269068 44:0 45:0.67912048 46:0.61362749 47:0 48:0 49:0 50:0.74365067 51:0.21406306 52:0.50255477 53:0.38542253 54:0 55:0 56:0 57:0.62602663 58:0 59:0.77490896 60:0.086687192 61:0 62:0 63:0 64:0.88768691 65:0 66:0.29775545 67:0.35110858 68:0 69:0 70:0 71:0.84492052 72:0 73:0.40091237 74:0.35396293 75:0 76:0 77:0 78:0.77757907 79:0.44978744 80:0.33052835 81:0.28941762 82:0 83:0 84:0 85:0.95231241 86:0 87:0.29747352 88:0.06629619 89:0 90:0 91:0 92:0.92310441 93:0 94:0.36020169 95:0.13407418 96:0 97:0 98:0 99:0.58521479 100:0 101:0.32807869 102:0.7415148 103:0 104:0 105:0 106:0.4942179 107:0.34576499 108:0.54668564 109:0.58075523 110:0 111:0 
0.3944242040297329 0.338232612334782 0.4504127649419789 0.5423013914633693 0.4739345031914413 0.4332103497423722 0.434088942526909 0.1992163083427638 0.2678170576252541 0.3671592612731657 0.4698174610776639 0.2355621609615135 0.44438169470551 0.3299130155314898 0.4678734611811066 0.3822363204638133 0:0 1:0.0044974433 2:0 3:0 4:0.99977273 5:0 6:0 7:0 8:0.45618108 9:0 10:0 11:0.88980943 12:0 13:0 14:0 15:0.84145141 16:0 17:0.13108234 18:0.52410555 19:0 20:0 21:0 22:0.99992645 23:0 24:0 25:0 26:0 27:0 28:0 29:0.0018827686 30:0 31:0.70387244 32:0.7101959 33:0 34:0 35:0 36:0.29634887 37:0 38:0.24229054 39:0.92377466 40:0 41:0 42:0 43:0.25777838 44:0 45:0.025071429 46:0.96581608 47:0 48:0 49:0 50:0.58747089 51:0 52:0.19863071 53:0.7844311 54:0 55:0 56:0 57:0.0016419649 58:0 59:0.62377024 60:0.78150457 61:0 62:0 63:0 64:0.48337522 65:0 66:0.59083706 67:0.64581102 68:0 69:0 70:0 71:0.99466336 72:0 73:0 74:0.10272005 75:0 76:0 77:0 78:0.64086837 79:0 80:0.22808377 81:0.73283201 82:0 83:0 84:0 85:0.099258959 86:0 87:0.46904278 88:0.87735236 89:0 90:0 91:0 92:0 93:0 94:0.86243469 95:0.50518423 96:0 97:0 98:0 99:0.99981815 100:0 101:0 102:0 103:0 104:0 105:0 106:0.99994451 107:0 108:0 109:0 110:0 111:0 
0.8600472619998221 0.370130566989163 0.6462544740521114 0.5104265856032654 0.7222885809212343 0.7050850831361601 0.5782230421683542 0.2547918101008053 0.5185236554322384 1 1 0.2545915801882419 0.8145441755446123 0.5951214086828512 0.6568579206058808 0.4019575801619957 0:0 1:0 2:0 3:0.99599129 4:0.088341765 5:0 6:0 7:0 8:0 9:0 10:0.88496077 11:0.46545553 12:0 13:0 14:0 15:0.12715837 16:0 17:0.15970941 18:0.97887522 19:0 20:0 21:0 22:0.33225951 23:0.15928848 24:0.54972082 25:0.74963295 26:0 27:0 28:0 29:0.47253016 30:0.52291393 31:0.42672467 32:0.56659448 33:0 34:0 35:0 36:0.63877314 37:0.24675001 38:0.72626132 39:0.059253357 40:0 41:0 42:0 43:0.4274902 44:0.14680509 45:0.36332521 46:0.81457949 47:0 48:0 49:0 50:0.6427604 51:0.048964694 52:0.44998696 53:0.61796647 54:0 55:0 56:0 57:0.72005451 58:0.50819087 59:0.38457498 60:0.27430296 61:0 62:0 63:0 64:0.75921082 65:0.56406063 66:0.19603427 67:0.25862902 68:0 69:0 70:0 71:0.66449797 72:0.1392291 73:0.48273489 74:0.55307323 75:0 76:0 77:0 78:0.77747929 79:0.49204484 80:0.20543234 81:0.3333565 82:0 83:0 84:0 85:0.82837266 86:0.42476252 87:0 88:0.36492625 89:0 90:0 91:0 92:0.84928167 93:0.45596433 94:0 95:0.26573655 96:0 97:0 98:0 99:0.38837534 100:0.095553428 101:0.29536223 102:0.86757797 103:0 104:0 105:0 106:0.45046127 107:0.3352277 108:0.59210974 109:0.57794178 110:0 111:0 
0.4965907835681982 0.4114391878526739 0.5623330741473577 0.6241466117556639 0.661504365159473 0.4975687694535162 0.5400278929801218 0.2491390101342338 0.3341517328527093 0.4737679443740332 0.5684065295864204 0.2871889616757734 0.5500297969519442 0.4178916298635333 0.5625809859094809 0.4633475501298001 0:0 1:0 2:0 3:0.99995238 4:0 5:0 6:0 7:0 8:0 9:0 10:0.64709353 11:0.76238269 12:0 13:0 14:0 15:0.30446091 16:0 17:0.78936404 18:0.53309196 19:0 20:0 21:0 22:0.84261352 23:0 24:0.23364322 25:0.48516375 26:0 27:0 28:0 29:0 30:0 31:0.99917656 32:0.04027155 33:0 34:0 35:0 36:0.03654436 37:0 38:0.91984534 39:0.39054894 40:0 41:0 42:0 43:0.44444099 44:0 45:0.73112994 46:0.51758349 47:0 48:0 49:0 50:0.19369355 51:0 52:0.93661416 53:0.29191718 54:0 55:0 56:0 57:0.90047848 58:0 59:0.42038271 60:0.11113935 61:0 62:0 63:0 64:0.16388786 65:0 66:0.97422904 67:0.15489495 68:0 69:0 70:0 71:0.94152737 72:0 73:0.23896733 74:0.23748587 75:0 76:0 77:0 78:0.99998468 79:0 80:0 81:0 82:0 83:0 84:0 85:0.99997586 86:0 87:0 88:0 89:0 90:0 91:0 92:0.016504183 93:0 94:0.83750504 95:0.54588848 96:0 97:0 98:0 99:0.99992061 100:0 101:0 102:0.0062171738 103:0 104:0 105:0 106:0.9999848 107:0 108:0 109:0 110:0 111:0 
0.7557508898270978 0.6259740617107205 0.8788698686920404 1 0.9211903929449496 0.7628693520308782 0.8303304926884157 0.3403923825106537 0.4616958171653727 0.7082477683751929 0.8595493720749643 0.4247741425163303 0.8213907052705778 0.5849169860113537 0.8398770888424318 0.7471685262620333 0:0 1:0 2:0 3:0 4:0 5:0 6:0 7:0 8:0.98332751 9:0 10:0 11:0 12:0 13:0 14:0 15:0.46283966 16:0 17:0.34799302 18:0.81524044 19:0 20:0 21:0 22:0.99997854 23:0 24:0 25:0.00087427726 26:0 27:0 28:0 29:0.95393962 30:0 31:0 32:0 33:0 34:0 35:0 36:0 37:0 38:0.71943724 39:0.69441718 40:0 41:0 42:0 43:0 44:0 45:0.42307588 46:0.90607065 47:0 48:0 49:0 50:0.47299927 51:0 52:0.27605596 53:0.83668345 54:0 55:0 56:0 57:0.21868128 58:0 59:0.62255585 60:0.75132936 61:0 62:0 63:0 64:0 65:0 66:0.71357757 67:0.70054352 68:0 69:0 70:0 71:0 72:0 73:0.69080299 74:0.72302252 75:0 76:0 77:0 78:0.00044368609 79:0 80:0.79858434 81:0.60184711 82:0 83:0 84:0 85:0.99773133 86:0 87:0 88:0.067013547 89:0 90:0 91:0 92:0.18929371 93:0 94:0.74368268 95:0.64113533 96:0 97:0 98:0 99:0.34340468 100:0 101:0.61300737 102:0.71151751 103:0 104:0 105:0 106:0.93725652 107:0 108:0 109:0.34859365 110:0 111:0 
1 0.3482207176060985 0.6750379419652638 0.4150674172567627 0.6166309417559258 1 0.7086972771269114 1 1 0.7772086723298577 0.9194121411867254 0.499623409841839 0.9344983200796955 0.5219630809935342 0.6994842950202921 0.5431791083318871 0:0 1:0.0075261276 2:0.27828932 3:0.80037844 4:0.53059345 5:0 6:0 7:0 8:0.015421968 9:0.17479521 10:0.43693784 11:0.88214952 12:0 13:0 14:0 15:0.20092462 16:0.303644 17:0.22771071 18:0.90303832 19:0 20:0 21:0 22:0.39715683 23:0.32175222 24:0.57645828 25:0.63749433 26:0 27:0 28:0 29:0.60911 30:0.047507491 31:0.18019824 32:0.77078128 33:0 34:0 35:0 36:0.79706991 37:0.23733042 38:0.29727834 39:0.46891424 40:0 41:0 42:0 43:0.80265194 44:0.18548205 45:0.37212399 46:0.42750105 47:0 48:0 49:0 50:0.86358696 51:0.053614315 52:0.26248521 53:0.42708626 54:0 55:0 56:0 57:0.90974003 58:0.2845118 59:0.085830219 60:0.28977716 61:0 62:0 63:0 64:0.95859993 65:0.080294609 66:0.21758167 67:0.16495159 68:0 69:0 70:0 71:0.90013087 72:0.25312686 73:0.23320691 74:0.2668035 75:0 76:0 77:0 78:0.69819987 79:0.64621466 80:0.18151198 81:0.24887112 82:0 83:0 84:0 85:0.88446379 86:0.0067000329 87:0.097536363 88:0.45613351 89:0 90:0 91:0 92:0.94105262 93:0.054713693 94:0.021328032 95:0.33293632 96:0 97:0 98:0 99:0.40617082 100:0.027038187 101:0.18812367 102:0.89378887 103:0 104:0 105:0 106:0.33529115 107:0.48234013 108:0.282913 109:0.75818831 110:0 111:0 
0.7673358433230109 0.5346611047812262 0.6981054390060547 0.8585525564618114 0.7524202789565231 0.6957816594096089 0.7651489457882801 0.3092628043538984 0.4158720997704944 0.6076954555403854 0.7902305334764935 0.3877521484158614 0.662823667628186 0.4910283436957087 0.7898607148589293 0.6000405870968015 0:0 1:0 2:0 3:0 4:0.99992514 5:0 6:0 7:0 8:0 9:0 10:0 11:0.99993026 12:0 13:0 14:0 15:0 16:0 17:0 18:0.999915 19:0 20:0 21:0 22:0.38283435 23:0.32780346 24:0 25:0.86361057 26:0 27:0 28:0 29:0 30:0 31:0.5734089 32:0.81919879 33:0 34:0 35:0 36:0 37:0 38:0.019915571 39:0.9997716 40:0 41:0 42:0 43:0 44:0 45:0 46:0.99996114 47:0 48:0 49:0 50:0.81739467 51:0 52:0 53:0.5760076 54:0 55:0 56:0 57:0.16292207 58:0.17908123 59:0.75628036 60:0.60770398 61:0 62:0 63:0 64:0 65:0 66:0.18078847 67:0.9834764 68:0 69:0 70:0 71:0 72:0 73:0 74:0.99997514 75:0 76:0 77:0 78:0.6685338 79:0 80:0 81:0.74362409 82:0 83:0 84:0 85:0.24420412 86:0.38311449 87:0.46955472 88:0.75691533 89:0 90:0 91:0 92:0 93:0 94:0.049614567 95:0.9985913 96:0 97:0 98:0 99:0 100:0 101:0 102:0.99996006 103:0 104:0 105:0 106:0.12833577 107:0 108:0 109:0.99170381 110:0 111:0 
0.7775147998562834 0.6763657272560232 0.8841690651704982 1 0.9349127679575461 0.7984856033519881 0.8667856493378565 0.3922328155992212 0.5331716072622219 0.7233880880586843 0.8944585266406812 0.4744568804542216 0.8073331109562422 0.6243518460108929 1 0.74564486643844 0:0 1:0 2:0 3:0 4:0 5:0 6:0 7:0 8:0 9:0 10:0 11:0 12:0 13:0 14:0 15:0 16:0 17:0 18:0 19:0 20:0 21:0 22:0 23:0 24:0 25:0 26:0 27:0 28:0 29:0 30:0 31:0 32:0 33:0 34:0 35:0 36:0 37:0 38:0 39:0 40:0 41:0 42:0 43:0 44:0 45:0 46:0 47:0 48:0 49:0 50:0 51:0 52:0 53:0 54:0 55:0 56:0 57:0 58:0 59:0 60:0 61:0 62:0 63:0 64:0 65:0 66:0 67:0 68:0 69:0 70:0 71:0 72:0 73:0 74:0 75:0 76:0 77:0 78:0 79:0 80:0 81:0 82:0 83:0 84:0 85:0 86:0 87:0 88:0 89:0 90:0 91:0 92:0 93:0 94:0 95:0 96:0 97:0 98:0 99:0 100:0 101:0 102:0 103:0 104:0 105:0 106:0 107:0 108:0 109:0 110:0 111:0 
0.3846553570890528 0.3257140701996617 0.4437924586869733 0.48916773366969 0.4460414415120668 0.3985141827448904 0.4175791781280117 0.1852229595466677 0.2530371345455713 0.3470079615690225 0.4328574186861208 0.2373981803386673 0.4232847201588064 0.2975406403676125 0.461036219245069 0.3751884194089644 0:0 1:0.038707845 2:0 3:0.29640341 4:0.95421058 5:0 6:0 7:0 8:0.59673733 9:0 10:0.45587063 11:0.66034395 12:0 13:0 14:0 15:0.89618021 16:0 17:0.22563168 18:0.38201368 19:0 20:0 21:0 22:0.99998647 23:0 24:0 25:0 26:0 27:0 28:0 29:0 30:0 31:0.29468274 32:0.95557928 33:0 34:0 35:0 36:0.25905451 37:0 38:0.33915448 39:0.9043476 40:0 41:0 42:0 43:0.039260268 44:0 45:0.89104801 46:0.45218077 47:0 48:0 49:0 50:0.75714332 51:0 52:0.39901915 53:0.51720428 54:0 55:0 56:0 57:0 58:0 59:0.29796156 60:0.9545638 61:0 62:0 63:0 64:0.33441168 65:0 66:0.24569154 67:0.90982372 68:0 69:0 70:0 71:0.97792923 72:0 73:0 74:0.20889936 75:0 76:0 77:0 78:0.077701189 79:0.13259773 80:0.98782331 81:0.023524705 82:0 83:0 84:0 85:0.26314136 86:0 87:0 88:0.96472198 89:0 90:0 91:0 92:0.022066519 93:0 94:0 95:0.99971551 96:0 97:0 98:0 99:0.99997604 100:0 101:0 102:0 103:0 104:0 105:0 106:0.99999052 107:0 108:0 109:0 110:0 111:0 
0.5662875120719846 0.2407891430633634 0.5469925086902755 0.3735420242838265 0.3139615987331989 0.5837835997567521 0.5276987349847787 0.1675241949748527 0.2082441814302234 0.6702668185502296 0.7007767904141198 0.1287070763485314 0.5330367472686049 0.3103217512905415 0.3600939078221123 0.3350506755603905 0:0 1:0.55045331 2:0.11356358 3:0.52629435 4:0.637963 5:0 6:0 7:0 8:0.40549707 9:0.071344696 10:0.48550051 11:0.77117509 12:0 13:0 14:0 15:0.42433265 16:0 17:0 18:0.90547043 19:0 20:0 21:0 22:0.24072254 23:0.41796902 24:0.68056267 25:0.55142969 26:0 27:0 28:0 29:0.68055624 30:0.16131625 31:0.28722054 32:0.65440673 33:0 34:0 35:0 36:0.17631473 37:0 38:0.31820568 39:0.93143862 40:0 41:0 42:0 43:0.19787568 44:0.074412823 45:0.056753952 46:0.97571546 47:0 48:0 49:0 50:0.17331967 51:0.37187341 52:0.22755983 53:0.88308251 54:0 55:0 56:0 57:0.88702649 58:0.093328655 59:0.29888377 60:0.33922094 61:0 62:0 63:0 64:0.57193279 65:0 66:0.29464528 67:0.76551098 68:0 69:0 70:0 71:0.31183004 72:0.013164167 73:0 74:0.94998586 75:0 76:0 77:0 78:0.35633814 79:0.3892934 80:0.29464728 81:0.79660273 82:0 83:0 84:0 85:0.79505092 86:0.14128383 87:0.15659852 88:0.5686413 89:0 90:0 91:0 92:0.76759595 93:0 94:0.24427892 95:0.59249121 96:0 97:0 98:0 99:0.5491516 100:0.18977012 101:0.22185314 102:0.78301823 103:0 104:0 105:0 106:0.16533114 107:0.24380177 108:0.81371886 109:0.50100589 110:0 111:0 
0.4689206597512924 0.5643858604432846 0.6874059083195393 0.5384186542286082 0.7219996199218763 0.5811807486146177 0.4929214151366687 0.3035776170235234 0.3831666414469329 0.7327465870496366 0.5648120940415713 0.5121998319353376 0.5274911424418705 0.4713471655002065 0.7480393738697054 0.6406918258034295 0:0 1:0.22166672 2:0 3:0.15166239 4:0.96323001 5:0 6:0 7:0 8:0.30822498 9:0.033137493 10:0.7170223 11:0.62430382 12:0 13:0 14:0 15:0.90502018 16:0 17:0.16049528 18:0.39390668 19:0 20:0 21:0 22:0.99998134 23:0 24:0 25:0 26:0 27:0 28:0 29:0.82180697 30:0 31:0 32:0.56973267 33:0 34:0 35:0 36:0.55460191 37:0.17706425 38:0.47027797 39:0.66323465 40:0 41:0 42:0 43:0.44975194 44:0.069969602 45:0.71879905 46:0.52548438 47:0 48:0 49:0 50:0.91656762 51:0 52:0.19967262 53:0.34640431 54:0 55:0 56:0 57:0.99999171 58:0 59:0 60:0 61:0 62:0 63:0 64:0.96324223 65:0.10668334 66:0 67:0.24650037 68:0 69:0 70:0 71:0.98426425 72:0.049872488 73:0.063406087 74:0.15715651 75:0 76:0 77:0 78:0.53116578 79:0 80:0.10716067 81:0.84040058 82:0 83:0 84:0 85:0.999991 86:0 87:0 88:0 89:0 90:0 91:0 92:0.99999279 93:0 94:0 95:0 96:0 97:0 98:0 99:0.99999177 100:0 101:0 102:0 103:0 104:0 105:0 106:0 107:0 108:0 109:0 110:0 111:0 
0.9175460914954517 0.5574767179803222 0.7626181190626548 0.7549998575093829 0.7884174813422044 0.9511483867503792 0.7137826830287892 0.3322982645869532 0.4246740291857338 0.6693203604767761 0.9056926632863704 0.3725922234684907 0.9224816903539481 0.6359497445417703 0.7193784082082701 0.5868523515312178 0:0 1:0.14452726 2:0.57703155 3:0.17905861 4:0.78357458 5:0 6:0 7:0 8:0 9:0 10:0 11:0.9998762 12:0 13:0 14:0 15:0.17504603 16:0 17:0 18:0.98452342 19:0 20:0 21:0 22:0.65975654 23:0.12615974 24:0.33962473 25:0.65834516 26:0 27:0 28:0 29:0.42649749 30:0.77583641 31:0.35847154 32:0.29595831 33:0 34:0 35:0 36:0.29801816 37:0 38:0.31052825 39:0.90259993 40:0 41:0 42:0 43:0.43568105 44:0.37536052 45:0.64922523 46:0.4976674 47:0 48:0 49:0 50:0.5303005 51:0.3276853 52:0.46168727 53:0.6310215 54:0 55:0 56:0 57:0.27647948 58:0.91249424 59:0.28303483 60:0.10366356 61:0 62:0 63:0 64:0.48446074 65:0.13943344 66:0.7761699 67:0.37861705 68:0 69:0 70:0 71:0.41242379 72:0.28819939 73:0.71256512 74:0.48891872 75:0 76:0 77:0 78:0.69178414 79:0.58912683 80:0.40907463 81:0.083512455 82:0 83:0 84:0 85:0.44827589 86:0.80583787 87:0.30545059 88:0.23731242 89:0 90:0 91:0 92:0.82002717 93:0.3692131 94:0.36601052 95:0.23915897 96:0 97:0 98:0 99:0.65923047 100:0.45078683 101:0.57974255 102:0.16138437 103:0 104:0 105:0 106:0.4802731 107:0.82910872 108:0.20979646 109:0.19456835 110:0 111:0 
0.4635761762745477 0.4823374357111471 0.6335448355201957 0.6021916607544059 0.7960704047804557 0.5222523900335 0.5248340362729006 0.2474396508636513 0.3883571989478412 0.6246988852012151 0.5636807407570564 0.4471618049701673 0.5465809839720196 0.4394898316540241 0.7790424445346126 0.4755810741117546 0:0 1:0.00074065954 2:0 3:0.99996394 4:0 5:0 6:0 7:0 8:0.24093734 9:0.12595245 10:0.91387802 11:0.30145094 12:0 13:0 14:0 15:0.38920113 16:0.082433745 17:0.77674896 18:0.48822173 19:0 20:0 21:0 22:0.99998009 23:0 24:0 25:0.0038701945 26:0 27:0 28:0 29:0.37278718 30:0 31:0.74904764 32:0.5476414 33:0 34:0 35:0 36:0.70764607 37:0.056780726 38:0.67317528 39:0.20691225 40:0 41:0 42:0 43:0.62507921 44:0.11523405 45:0.73050821 46:0.24963707 47:0 48:0 49:0 50:0.23814517 51:0.1757084 52:0.90877229 53:0.29411578 54:0 55:0 56:0 57:0.97853726 58:0 59:0.12368814 60:0.16470584 61:0 62:0 63:0 64:0.95399064 65:0 66:0.26222542 67:0.14530769 68:0 69:0 70:0 71:0.97469491 72:0 73:0.22341087 74:0.0013876453 75:0 76:0 77:0 78:0.98767096 79:0 80:0.004067021 81:0.15631784 82:0 83:0 84:0 85:0.99997592 86:0 87:0 88:0 89:0 90:0 91:0 92:0.99543566 93:0.032088798 94:0.089578986 95:0.003915268 96:0 97:0 98:0 99:0.99998271 100:0 101:0 102:0 103:0 104:0 105:0 106:0.90802604 107:0.4183878 108:0.0073830965 109:0 110:0 111:0 
0.2400845876537613 0.2178334277426505 0.3103653044731539 0.3743414156818336 0.5474439012423369 0.3062972546139036 0.2464305917133955 0.1139074036330705 0.1673448563858412 0.2367169595291801 0.3206462551453092 0.1648260558410395 0.3072937850094726 0.161200536226026 0.3921371795898452 0.2355580951337209 0:0 1:0 2:0 3:0.98415321 4:0.17675713 5:0 6:0 7:0 8:0.28547624 9:0 10:0.64133918 11:0.71213269 12:0 13:0 14:0 15:0.65970844 16:0 17:0.18138497 18:0.72929019 19:0 20:0 21:0 22:0.99998897 23:0 24:0 25:0 26:0 27:0 28:0 29:0 30:0 31:0.90495837 32:0.4254519 33:0 34:0 35:0 36:0.07778991 37:0 38:0.56241196 39:0.82317311 40:0 41:0 42:0 43:0.40793562 44:0 45:0.44239751 46:0.79864597 47:0 48:0 49:0 50:0.48973906 51:0.022433188 52:0.3889496 53:0.77996939 54:0 55:0 56:0 57:0.47755641 58:0 59:0.56294346 60:0.67451799 61:0 62:0 63:0 64:0.2463603 65:0 66:0.68577492 67:0.68482471 68:0 69:0 70:0 71:0.93925369 72:0 73:0.095976032 74:0.32949623 75:0 76:0 77:0 78:0.99722213 79:0.012993399 80:0.020989325 81:0.069931291 82:0 83:0 84:0 85:0.99995768 86:0 87:0 88:0 89:0 90:0 91:0 92:0.0023051007 93:0 94:0.39397869 95:0.91905612 96:0 97:0 98:0 99:0.99995112 100:0 101:0 102:0.0010013271 103:0 104:0 105:0 106:0.99998039 107:0 108:0 109:0 110:0 111:0 
1 0.06218494413325119 0.1592289661495101 0.1946606553984193 0.4261862434250634 0.8629402052937407 0.06678650226156993 0.03243803472919939 0.05119661009268316 1 0.700416573074648 0.08228443369995375 0.4040816014031262 0.1223383479628608 0.293591581393719 0.08413627620898255 0:0 1:0.00068742986 2:0.51645869 3:0.73282838 4:0.4429065 5:0 6:0 7:0 8:0 9:0.081109181 10:0.68569797 11:0.72332782 12:0 13:0 14:0 15:0.18016076 16:0 17:0.14980146 18:0.97213697 19:0 20:0 21:0 22:0.34417188 23:0.41222203 24:0.30721983 25:0.78562641 26:0 27:0 28:0 29:0.44327492 30:0.41670543 31:0.56645745 32:0.5558306 33:0 34:0 35:0 36:0 37:0.15461019 38:0.86781329 39:0.47219217 40:0 41:0 42:0 43:0.13686134 44:0 45:0.32017997 46:0.93739927 47:0 48:0 49:0 50:0.5658825 51:0.19762741 52:0.77059019 53:0.21654221 54:0 55:0 56:0 57:0.58965731 58:0.48424536 59:0.44443187 60:0.4693161 61:0 62:0 63:0 64:0.16572364 65:0.22061898 66:0.52090257 67:0.80777079 68:0 69:0 70:0 71:0.35300955 72:0.052206021 73:0.64123875 74:0.67928916 75:0 76:0 77:0 78:0.78655785 79:0.48943293 80:0.27869824 81:0.25314566 82:0 83:0 84:0 85:0.60347074 86:0.15681645 87:0.36174637 88:0.69306058 89:0 90:0 91:0 92:0.25231376 93:0.086654373 94:0.2355679 95:0.93450761 96:0 97:0 98:0 99:0.42592716 100:0.17114837 101:0.24653856 102:0.85351115 103:0 104:0 105:0 106:0.56795436 107:0.33588192 108:0.67299467 109:0.33415312 110:0 111:0 
0.3868922845153112 0.3171332882074247 0.4410935487041151 0.5254934911417252 0.4853169692200726 0.3850454045353952 0.4379732845008963 0.2001494323648161 0.2596092585920889 0.3586506060277597 0.435516481470474 0.2348836237982354 0.4180249893859148 0.3254281161579781 0.4427554080950356 0.3624718907269963 0:0 1:0 2:0 3:0.99793661 4:0.063598529 5:0 6:0 7:0 8:0 9:0 10:0.72519642 11:0.68851686 12:0 13:0 14:0 15:0.30882269 16:0 17:0.6407842 18:0.70285469 19:0 20:0 21:0 22:0.99998587 23:0 24:0 25:0.0032723376 26:0 27:0 28:0 29:0 30:0 31:0.84244692 32:0.53875041 33:0 34:0 35:0 36:0.16354752 37:0 38:0.72349375 39:0.6706593 40:0 41:0 42:0 43:0.63350105 44:0 45:0.50317502 46:0.58775377 47:0 48:0 49:0 50:0.13958362 51:0.054871596 52:0.78138876 53:0.60574013 54:0 55:0 56:0 57:0.1873184 58:0 59:0.69851464 60:0.69061834 61:0 62:0 63:0 64:0.23252659 65:0 66:0.79453754 67:0.56089729 68:0 69:0 70:0 71:0.99012262 72:0 73:0.088662304 74:0.10850351 75:0 76:0 77:0 78:0.99990529 79:0.005517032 80:0.010114561 81:0.0052105309 82:0 83:0 84:0 85:0.81164098 86:0 87:0 88:0.58405447 89:0 90:0 91:0 92:0 93:0 94:0.95993006 95:0.27991438 96:0 97:0 98:0 99:0.999942 100:0 101:0 102:0 103:0 104:0 105:0 106:0.99998504 107:0 108:0 109:0 110:0 111:0 
0.4948113814982281 0.134347360141843 0.2743683868925144 0.007333572630522662 0.3179326034925865 0.9660815531787648 0.07940447922647688 0.06812591050076391 0.1356669596068539 0.2216738556893502 0.603593716737575 0.1159870684152746 0.3917941125559528 0.1816638829932919 0.1992051551145848 0.2411369787717275 0:0 1:0.010513525 2:0.39279103 3:0.59168637 4:0.70382798 5:0 6:0 7:0 8:0.34050748 9:0 10:0.30182886 11:0.89043492 12:0 13:0 14:0 15:0.49964628 16:0 17:0 18:0.86618537 19:0 20:0 21:0 22:0.39924496 23:0.1716269 24:0.4895401 25:0.75590378 26:0 27:0 28:0 29:0.49929544 30:0.15124862 31:0.29607275 32:0.80006075 33:0 34:0 35:0 36:0.22369196 37:0.17828609 38:0.24764404 39:0.92559075 40:0 41:0 42:0 43:0.5090636 44:0 45:0.018581824 46:0.86045635 47:0 48:0 49:0 50:0.69955701 51:0.19260353 52:0.38771296 53:0.56844634 54:0 55:0 56:0 57:0.76261204 58:0.16838294 59:0.54929012 60:0.29710022 61:0 62:0 63:0 64:0.68823355 65:0.00097862224 66:0.26876858 67:0.67379713 68:0 69:0 70:0 71:0.20554788 72:0.3366583 73:0.092922598 74:0.91407371 75:0 76:0 77:0 78:0.65882862 79:0.22919478 80:0.21225166 81:0.68431437 82:0 83:0 84:0 85:0.75065172 86:0.27999112 87:0.34263185 88:0.49055514 89:0 90:0 91:0 92:0.89004105 93:0 94:0.25244594 95:0.37944824 96:0 97:0 98:0 99:0.58794451 100:0 101:0.016797394 102:0.80866414 103:0 104:0 105:0 106:0.60221529 107:0.29729852 108:0.48293328 109:0.56180298 110:0 111:0 
0.2950527771862957 0.2893805799850339 0.3745503369601588 0.398188042706313 0.4947325080097102 0.556752655083792 0.3434061491668236 0.1426755202362661 0.2033444963910007 0.3253041247064932 0.4623229529965271 0.1876372236002326 0.4260978767043982 0.2570530969578928 0.3858546963940757 0.3229191035551234 0:0 1:0.37056038 2:0 3:0 4:0.92640001 5:0 6:0 7:0 8:0.75460058 9:0 10:0 11:0.656129 12:0 13:0 14:0 15:0.26652366 16:0 17:0.089848712 18:0.95962143 19:0 20:0 21:0 22:0.99998605 23:0 24:0 25:0.0031569586 26:0 27:0 28:0 29:0 30:0 31:0.42669979 32:0.904356 33:0 34:0 35:0 36:0 37:0 38:0.32463431 39:0.94579178 40:0 41:0 42:0 43:0 44:0 45:0.1640552 46:0.98644167 47:0 48:0 49:0 50:0.42683733 51:0.19399214 52:0.45746881 53:0.75556684 54:0 55:0 56:0 57:0.0062638293 58:0 59:0.35061035 60:0.93648434 61:0 62:0 63:0 64:0.20198146 65:0 66:0.27517855 67:0.93992287 68:0 69:0 70:0 71:0.73063749 72:0 73:0 74:0.68270791 75:0 76:0 77:0 78:0.17117912 79:0.22800075 80:0.75382441 81:0.59197688 82:0 83:0 84:0 85:0.99998373 86:0 87:0 88:0 89:0 90:0 91:0 92:0.52603918 93:0 94:0.46989515 95:0.7088306 96:0 97:0 98:0 99:0.96261102 100:0 101:0 102:0.27084437 103:0 104:0 105:0 106:0.99998331 107:0 108:0 109:0 110:0 111:0 
0.35057979669799 0.2987391326746023 0.460915666230323 0.3948618870385335 0.4371805677575998 0.3940742284454676 0.3757531126404994 0.1960478253228216 0.239819047718958 0.331722080737288 0.3284856455837889 0.2242773230659465 0.3415177137148493 0.3390000657211691 0.363830270346593 0.3145691676546157 0:0 1:0.0057229162 2:0 3:0.78740704 4:0.61635083 5:0 6:0 7:0 8:0 9:0 10:0.39490703 11:0.91870183 12:0 13:0 14:0 15:0.14321353 16:0 17:0.034032736 18:0.98909253 19:0 20:0 21:0 22:0.3566148 23:0.22846536 24:0.47297934 25:0.77259308 26:0 27:0 28:0 29:0.52483141 30:0.13039659 31:0.79661983 32:0.27001354 33:0 34:0 35:0 36:0.16824569 37:0.087947935 38:0.86032403 39:0.47304103 40:0 41:0 42:0 43:0.23376031 44:0 45:0.37591499 46:0.89666528 47:0 48:0 49:0 50:0.54434645 51:0.10888491 52:0.60095835 53:0.57502401 54:0 55:0 56:0 57:0.80770749 58:0 59:0.56968874 60:0.15177698 61:0 62:0 63:0 64:0.91734409 65:0.06074905 66:0.37112856 67:0.13051891 68:0 69:0 70:0 71:0.82572889 72:0 73:0.4774375 74:0.30029839 75:0 76:0 77:0 78:0.76791126 79:0.53610927 80:0.30280432 81:0.17658402 82:0 83:0 84:0 85:0.92610925 86:0.046840634 87:0.11534058 88:0.35608733 89:0 90:0 91:0 92:0.967444 93:0.065227985 94:0.020778671 95:0.24360576 96:0 97:0 98:0 99:0.91009462 100:0.35780108 101:0.094744414 102:0.18628857 103:0 104:0 105:0 106:0.21264137 107:0.7101655 108:0.56591964 109:0.36077663 110:0 111:0 
0.6099824140748443 0.2674040934891827 0.3511729242181449 0.4602607499434951 0.3374651717119053 0.5107137087683181 0.3496950575267427 0.1437761000519565 0.1981449932320289 0.4188663627772983 0.3327394086121179 0.194154334305932 0.3661984166703478 0.2315004099071641 0.3817645507205045 0.3018919690074602 0:0 1:0.0021577124 2:0.49664232 3:0.67267025 4:0.54844058 5:0 6:0 7:0 8:0.14057475 9:0.11305996 10:0.26047006 11:0.94845676 12:0 13:0 14:0 15:0.45811114 16:0 17:0 18:0.88886195 19:0 20:0 21:0 22:0.13334547 23:0 24:0.55195761 25:0.82311487 26:0 27:0 28:0 29:0.39832884 30:0.56443048 31:0.26718479 32:0.67181152 33:0 34:0 35:0 36:0.085599966 37:0.012363348 38:0.58989006 39:0.80281186 40:0 41:0 42:0 43:0.18460411 44:0 45:0.40460777 46:0.89563626 47:0 48:0 49:0 50:0.21653156 51:0 52:0.69039357 53:0.69024962 54:0 55:0 56:0 57:0.50427228 58:0.79672468 59:0.24151993 60:0.22929728 61:0 62:0 63:0 64:0.28904942 65:0 66:0.28888753 67:0.91265517 68:0 69:0 70:0 71:0.10400011 72:0.13918981 73:0.57257622 74:0.80119759 75:0 76:0 77:0 78:0.19845283 79:0.037178401 80:0.6537081 81:0.72928053 82:0 83:0 84:0 85:0.73681563 86:0.36525676 87:0.057192151 88:0.56603122 89:0 90:0 91:0 92:0.020316863 93:0.099510625 94:0.72439563 95:0.68181336 96:0 97:0 98:0 99:0.58683026 100:0.075872883 101:0.14070565 102:0.79374456 103:0 104:0 105:0 106:0.23036075 107:0.21954601 108:0.94269395 109:0.1000535 110:0 111:0 
1 0.214955508846931 0.39462445478137 0.1946431626767583 0.3877121226546693 0.5316147695193226 0.328385341342603 0.2219368150911762 0.309435296861291 0.6751023081521669 0.5936765517995682 0.2441188974682394 0.903829805126893 0.7246170388817947 0.27329213774484 0.2004558589177146 0:0 1:0.00075629447 2:0.1556796 3:0.75127131 4:0.64131248 5:0 6:0 7:0 8:0 9:0.23131382 10:0.46629107 11:0.85381883 12:0 13:0 14:0 15:0.10152528 16:0.11577574 17:0.40149015 18:0.90280598 19:0 20:0 21:0 22:0.60704815 23:0.27123913 24:0.36772722 25:0.65012902 26:0 27:0 28:0 29:0.75909221 30:0.47138774 31:0.37819713 32:0.24184887 33:0 34:0 35:0 36:0.41291717 37:0.35701138 38:0.66876221 39:0.50471556 40:0 41:0 42:0 43:0.40545684 44:0.38281989 45:0.50465894 46:0.65903217 47:0 48:0 49:0 50:0.35264149 51:0.37551534 52:0.77365994 53:0.36884609 54:0 55:0 56:0 57:0.63397133 58:0.60326564 59:0.28930774 60:0.3878147 61:0 62:0 63:0 64:0.89051032 65:0.089007072 66:0.34780577 67:0.27940005 68:0 69:0 70:0 71:0.43873072 72:0.37198785 73:0.81688261 74:0.042289272 75:0 76:0 77:0 78:0.8420971 79:0.42576045 80:0.33100563 81:0.0019685454 82:0 83:0 84:0 85:0.74403858 86:0.290645 87:0.34649917 88:0.49175909 89:0 90:0 91:0 92:0.68499285 93:0.36689481 94:0.17672271 95:0.60406762 96:0 97:0 98:0 99:0.88771611 100:0.0620532 101:0.25159362 102:0.38047877 103:0 104:0 105:0 106:0.44821012 107:0.22517318 108:0.79313219 109:0.34540474 110:0 111:0 
0 0.1351925437709242 0 0.01058041751691434 0.04644536536321817 0.1416107582803485 0 0.00902337061275061 0 0 0.07266242519887824 0.1549821311191395 0 0 0.2104701803422153 0 0:0 1:0 2:0 3:0.36188376 4:0.93213934 5:0 6:0 7:0 8:0.17567208 9:0.058944803 10:0.16280892 11:0.96908283 12:0 13:0 14:0 15:0.58276093 16:0.0049492656 17:0.34253481 18:0.73689568 19:0 20:0 21:0 22:0.99998748 23:0 24:0 25:0 26:0 27:0 28:0 29:0 30:0 31:0.35306472 32:0.93557858 33:0 34:0 35:0 36:0.72049469 37:0.030882193 38:0.31132108 39:0.61885428 40:0 41:0 42:0 43:0.68757033 44:0.042928595 45:0.49905372 46:0.52566433 47:0 48:0 49:0 50:0.48648787 51:0.093665622 52:0.63075167 53:0.59722978 54:0 55:0 56:0 57:0.92695111 58:0 59:0.10951908 60:0.35879776 61:0 62:0 63:0 64:0.93002081 65:0 66:0.18107298 67:0.31977236 68:0 69:0 70:0 71:0.97002172 72:0 73:0.24297078 74:0 75:0 76:0 77:0 78:0.99995172 79:0.0019601926 80:0.0052075037 81:0.0015774452 82:0 83:0 84:0 85:0.99998468 86:0 87:0 88:0 89:0 90:0 91:0 92:0.99984413 93:0 94:0 95:0.017149808 96:0 97:0 98:0 99:0.99998951 100:0 101:0 102:0 103:0 104:0 105:0 106:0.99994415 107:0.0024838815 108:0.0024838815 109:0 110:0 111:0 
0.4072769868999513 0.3737623262995898 0.4629639039876889 0.6096980607117696 0.5116574627172595 0.4349864438525593 0.4425415768892821 0.1974078644025659 0.2671945652549169 0.3788612086313591 0.4511465840907941 0.2416269227825183 0.4550250942822555 0.3646929024015094 0.4762159813144982 0.3799236006738928 0:0 1:0.048317287 2:0 3:0 4:0.99836493 5:0 6:0 7:0 8:0.83392537 9:0 10:0.18034688 11:0.52153295 12:0 13:0 14:0 15:0.66823977 16:0 17:0.61272967 18:0.42189848 19:0 20:0 21:0 22:0.99998933 23:0 24:0 25:0 26:0 27:0 28:0 29:0 30:0 31:0.99435061 32:0.10598161 33:0 34:0 35:0 36:0 37:0 38:0.82317662 39:0.56776154 40:0 41:0 42:0 43:0.056876063 44:0 45:0.92955858 46:0.36423555 47:0 48:0 49:0 50:0.43985733 51:0 52:0.62403429 53:0.64582658 54:0 55:0 56:0 57:0 58:0 59:0.72258961 60:0.69126022 61:0 62:0 63:0 64:0.21662684 65:0 66:0.72706056 67:0.65148622 68:0 69:0 70:0 71:0.89724165 72:0 73:0.20033418 74:0.39344165 75:0 76:0 77:0 78:0.17742249 79:0 80:0.92836624 81:0.32655427 82:0 83:0 84:0 85:0.87097663 86:0 87:0.072615273 88:0.48587728 89:0 90:0 91:0 92:0.16131088 93:0 94:0.64072078 95:0.75061399 96:0 97:0 98:0 99:0.99666601 100:0 101:0.075215995 102:0.031226192 103:0 104:0 105:0 106:0.99998927 107:0 108:0 109:0 110:0 111:0 
0.3716731851381923 0.3675512070557581 0.4204544023492074 0.597590910962463 0.4722132024004529 0.3949810300335982 0.4023547027193176 0.1867888237695157 0.2542136680000289 0.3463286365617141 0.4290426224483219 0.2337202263404695 0.3915023794355341 0.3173819386638392 0.4720903094177089 0.3838710137272584 0:0 1:0.017990537 2:0 3:0 4:0.99954855 5:0 6:0 7:0 8:0.76243049 9:0 10:0.21308263 11:0.61092937 12:0 13:0 14:0 15:0.99984771 16:0 17:0 18:0.016687015 19:0 20:0 21:0 22:0.99996245 23:0 24:0 25:0 26:0 27:0 28:0 29:0 30:0 31:0.81982285 32:0.57255596 33:0 34:0 35:0 36:0.086555511 37:0 38:0.4087255 39:0.90852368 40:0 41:0 42:0 43:0.19428968 44:0 45:0.66869068 46:0.71768075 47:0 48:0 49:0 50:0.99969834 51:0 52:0 53:0.024096334 54:0 55:0 56:0 57:0 58:0 59:0.6719833 60:0.74053806 61:0 62:0 63:0 64:0.29705489 65:0 66:0.65373772 67:0.69594753 68:0 69:0 70:0 71:0.94560617 72:0 73:0.136765 74:0.29510614 75:0 76:0 77:0 78:0.084432214 79:0.076896362 80:0.90433681 81:0.41121453 82:0 83:0 84:0 85:0.13994682 86:0 87:0.6012255 88:0.78667784 89:0 90:0 91:0 92:0.094010793 93:0 94:0.50897485 95:0.85557222 96:0 97:0 98:0 99:0.99996197 100:0 101:0 102:0.0045702499 103:0 104:0 105:0 106:0.9999826 107:0 108:0 109:0 110:0 111:0 
0.4836689860558717 0.1057023006001623 0.1309809143545623 0.1773844770136824 0.1628619341769641 0.7357554132960401 0.1802391990287734 0.06361333202546304 0.09465009708487065 0 0.282150773912638 0.09361397657860536 0.2688861206490417 0.08866666339790555 0.1512477931676231 0.1584807763604674 0:0 1:0.063620068 2:0.39169616 3:0.32995802 4:0.85650009 5:0 6:0 7:0 8:0.093470961 9:0 10:0.12001915 11:0.98834556 12:0 13:0 14:0 15:0.11663026 16:0 17:0.094144225 18:0.98868597 19:0 20:0 21:0 22:0.55249137 23:0.16013275 24:0.35589597 25:0.73648566 26:0 27:0 28:0 29:0.44923839 30:0.16177936 31:0.19416077 32:0.85690004 33:0 34:0 35:0 36:0.050515458 37:0 38:0.090330333 39:0.99461299 40:0 41:0 42:0 43:0.11802723 44:0.05625746 45:0.475485 46:0.86993295 47:0 48:0 49:0 50:0.57181692 51:0.3160876 52:0.57304513 53:0.49467632 54:0 55:0 56:0 57:0.58267039 58:0.39075819 59:0.31884387 60:0.63726532 61:0 62:0 63:0 64:0.2539354 65:0 66:0.14642848 67:0.95605206 68:0 69:0 70:0 71:0.53615886 72:0.017293721 73:0.039655767 74:0.84296715 75:0 76:0 77:0 78:0.46622834 79:0.45466688 80:0.71045876 81:0.26668191 82:0 83:0 84:0 85:0.5337252 86:0.30450159 87:0.15113081 88:0.77429879 89:0 90:0 91:0 92:0.75951058 93:0 94:0.16913538 95:0.62805575 96:0 97:0 98:0 99:0.62065446 100:0.50489622 101:0.16161342 102:0.57765806 103:0 104:0 105:0 106:0.38755941 107:0.45879376 108:0.75452465 109:0.26448077 110:0 111:0 
0.7918114299011 1 1 0.842774362543393 1 1 0.7639070055868922 0.5912483320863451 0.8636487947877672 1 1 1 0.8086007022606183 1 1 0.8886366762481586 0:0 1:0.99751925 2:0.068953075 3:0 4:0 5:0 6:0 7:0 8:0.77002871 9:0.33106187 10:0.38845283 11:0.38278252 12:0 13:0 14:0 15:0.76490688 16:0 17:0.095608935 18:0.63699013 19:0 20:0 21:0 22:0.99998564 23:0 24:0 25:0 26:0 27:0 28:0 29:0.74586654 30:0.66603124 31:0 32:0 33:0 34:0 35:0 36:0.18721722 37:0.083598986 38:0.75625163 39:0.62128824 40:0 41:0 42:0 43:0.53539842 44:0.38248056 45:0.51392639 46:0.55037665 47:0 48:0 49:0 50:0.91885877 51:0 52:0.039803412 53:0.39255011 54:0 55:0 56:0 57:0.99997145 58:0 59:0 60:0 61:0 62:0 63:0 64:0.96519315 65:0.062843323 66:0.25295463 67:0.021146337 68:0 69:0 70:0 71:0.9708221 72:0.15581398 73:0.12672532 74:0.1309582 75:0 76:0 77:0 78:0.66442317 79:0.36291271 80:0.56488097 81:0.32817623 82:0 83:0 84:0 85:0.99999064 86:0 87:0 88:0 89:0 90:0 91:0 92:0.99963969 93:0 94:0 95:0.026601505 96:0 97:0 98:0 99:0.97971666 100:0 101:0.016385822 102:0.19967838 103:0 104:0 105:0 106:0.99990958 107:0 108:0 109:0 110:0 111:0 
1 0.2485296367984936 0.5105775807198194 0.4929016235016839 0.3967084369226992 0.5471006626493083 0.4691650099652843 0.1681816524196396 0.1929545033427543 0.8402854714045108 0.4392734515833594 0.1913323215687342 0.4667654450612764 0.2953146445079105 0.4107500707043771 0.3270617992088845 0:0 1:0.25773072 2:0.33367714 3:0.86122423 4:0.28361487 5:0 6:0 7:0 8:0 9:0 10:0.52260792 11:0.8525461 12:0 13:0 14:0 15:0.076027319 16:0 17:0.37262869 18:0.92483282 19:0 20:0 21:0 22:0.43407029 23:0.22943242 24:0.30965912 25:0.81426156 26:0 27:0 28:0 29:0.34277645 30:0.44142866 31:0.35276431 32:0.75044012 33:0 34:0 35:0 36:0 37:0 38:0.6291135 39:0.77728778 40:0 41:0 42:0 43:0 44:0.17141648 45:0.68820804 46:0.70494205 47:0 48:0 49:0 50:0.448293 51:0.4398655 52:0.73815548 53:0.2462649 54:0 55:0 56:0 57:0.61219722 58:0.41402656 59:0.40965518 60:0.53472966 61:0 62:0 63:0 64:0.033396207 65:0 66:0.4020097 67:0.91500807 68:0 69:0 70:0 71:0.56166744 72:0.026705308 73:0.46006322 74:0.68708849 75:0 76:0 77:0 78:0.5540787 79:0.46841693 80:0.68601495 81:0.054114494 82:0 83:0 84:0 85:0.46087322 86:0.42555395 87:0.19060704 88:0.75505573 89:0 90:0 91:0 92:0.66842169 93:0 94:0.57821363 95:0.46775901 96:0 97:0 98:0 99:0.10283521 100:0.49917898 101:0.40410978 102:0.75949889 103:0 104:0 105:0 106:0.15012239 107:0.5779236 108:0.78938359 109:0.14241731 110:0 111:0 
0.1023086983995685 0.05513711884770418 0.09398544238594271 0.1208114354926135 0.09754873588742251 0.04135670501200184 0.1184245582433092 0.04635149062811016 0.0573724309533669 0.07055313253682814 0.08496042495576535 0.0485036602698041 0.1304879210802057 0.06921855973329619 0.0879693348630948 0.06543985992218904 0:0 1:0.0043141493 2:0 3:0 4:0.99978238 5:0 6:0 7:0 8:0.38361612 9:0.0067245741 10:0.012082778 11:0.92336655 12:0 13:0 14:0 15:0.38813445 16:0 17:0.033639278 18:0.92097986 19:0 20:0 21:0 22:0.99998945 23:0 24:0 25:0 26:0 27:0 28:0 29:0 30:0 31:0.74194378 32:0.67043191 33:0 34:0 35:0 36:0 37:0.15002383 38:0.41676381 39:0.89653194 40:0 41:0 42:0 43:0.032163225 44:0.0028539251 45:0.15768224 46:0.9869529 47:0 48:0 49:0 50:0.38800645 51:0.072612055 52:0.18960942 53:0.89900649 54:0 55:0 56:0 57:0 58:0 59:0.48687461 60:0.87345797 61:0 62:0 63:0 64:0.21398996 65:0 66:0.43879309 67:0.87272412 68:0 69:0 70:0 71:0.85326737 72:0 73:0.029145919 74:0.52062565 75:0 76:0 77:0 78:0.21979144 79:0.1961717 80:0.63860202 81:0.71089333 82:0 83:0 84:0 85:0.48162791 86:0 87:0.00060273061 88:0.87634236 89:0 90:0 91:0 92:0.20821504 93:0 94:0.51091218 95:0.83401078 96:0 97:0 98:0 99:0.99887151 100:0 101:0.046750437 102:0.006663884 103:0 104:0 105:0 106:0.99998802 107:0 108:0 109:0 110:0 111:0 
0.7308947846897896 0.3987161906269847 0.5076626253816618 0.6671670352816216 0.5397228453428334 0.6664519781758598 0.5350696949483271 0.2288519974630355 0.3064045606986618 0.5386687576580909 0.5480769802471015 0.2827375452969461 0.4923152660612574 0.3638665060612288 0.5958505524949316 0.4289166429074376 0:0 1:0.050434146 2:0 3:0 4:0.99853581 5:0 6:0 7:0 8:0 9:0 10:0 11:0.9999786 12:0 13:0 14:0 15:0.040969241 16:0 17:0.020063652 18:0.99893564 19:0 20:0 21:0 22:0.064292639 23:0.11813507 24:0.57962012 25:0.80369753 26:0 27:0 28:0 29:0 30:0 31:0.75734025 32:0.65296829 33:0 34:0 35:0 36:0 37:0 38:0.00060484925 39:0.99997061 40:0 41:0 42:0 43:0 44:0 45:0.27988657 46:0.96001786 47:0 48:0 49:0 50:0.22447366 51:0.17419584 52:0.31186479 53:0.90662974 54:0 55:0 56:0 57:0.18123154 58:0.31655669 59:0.50876415 60:0.77977818 61:0 62:0 63:0 64:0 65:0.20422614 66:0.45818368 67:0.86505604 68:0 69:0 70:0 71:0 72:0 73:0.43857867 74:0.89865351 75:0 76:0 77:0 78:0.35959011 79:0.65775782 80:0.45991907 81:0.47591379 82:0 83:0 84:0 85:0.011588875 86:0.27298579 87:0.6848048 88:0.67551541 89:0 90:0 91:0 92:0 93:0.5031051 94:0.48983034 95:0.71196657 96:0 97:0 98:0 99:0 100:0.071086735 101:0.00028960366 102:0.99745607 103:0 104:0 105:0 106:0.034555368 107:0.56571144 108:0.68324119 109:0.46036205 110:0 111:0 
0.04668236630346564 0.1270718230284858 0.08644408935729302 0 0.1063127575092461 0.0940656249642938 0.06995360337320328 0 0 0.01569994509378299 0.09141565405278707 0.1021628073907492 0.03271225985978834 0.01839618177608382 0.0392754977623915 0.1044147729454267 0:0 1:0.45276645 2:0 3:0 4:0.89158458 5:0 6:0 7:0 8:0.33197209 9:0.12581228 10:0.26956505 11:0.89513713 12:0 13:0 14:0 15:0.61944515 16:0.033708327 17:0.340985 18:0.7063002 19:0 20:0 21:0 22:0.99998331 23:0 24:0 25:0 26:0 27:0 28:0 29:0.96771961 30:0 31:0 32:0.25196022 33:0 34:0 35:0 36:0.8688665 37:0.16250198 38:0.032184176 39:0.46647194 40:0 41:0 42:0 43:0.71723777 44:0.15352486 45:0.57721233 46:0.3588734 47:0 48:0 49:0 50:0.41357318 51:0.087932549 52:0.84903055 53:0.31672397 54:0 55:0 56:0 57:0.99998742 58:0 59:0 60:0 61:0 62:0 63:0 64:0.99799836 65:0 66:0 67:0.06310536 68:0 69:0 70:0 71:0.97615385 72:0 73:0.037496351 74:0.21372919 75:0 76:0 77:0 78:0.9997381 79:0 80:0 81:0 82:0 83:0 84:0 85:0.9999851 86:0 87:0 88:0 89:0 90:0 91:0 92:0.99999124 93:0 94:0 95:0 96:0 97:0 98:0 99:0.99998748 100:0 101:0 102:0 103:0 104:0 105:0 106:0 107:0 108:0 109:0 110:0 111:0 
0.4514178402638628 0.5998842114504289 0.7043318747898984 0.5811563538883107 0.652967897677286 0.7444205934655977 0.5200387581377904 0.2726942359611955 0.371925380565592 0.6195240318409432 0.7421375698124559 0.3860255429758754 0.5092156981446067 0.4609176586033279 0.7032472039724579 0.4925852773373788 0:0 1:0.69186515 2:0 3:0 4:0.72061384 5:0 6:0 7:0 8:0.43588105 9:0 10:0.26142344 11:0.8611778 12:0 13:0 14:0 15:0.75174844 16:0 17:0.033434112 18:0.65858507 19:0 20:0 21:0 22:0.99998116 23:0 24:0 25:0 26:0 27:0 28:0 29:0.23357359 30:0 31:0 32:0.97229564 33:0 34:0 35:0 36:0.52481568 37:0 38:0.23811182 39:0.81721008 40:0 41:0 42:0 43:0.36375299 44:0.18528368 45:0.28191027 46:0.86824667 47:0 48:0 49:0 50:0.8329879 51:0 52:0.045923524 53:0.55135441 54:0 55:0 56:0 57:0.99988794 58:0 59:0 60:0.013770627 61:0 62:0 63:0 64:0.95696372 65:0 66:0 67:0.29016411 68:0 69:0 70:0 71:0.95532036 72:0.17709005 73:0.22745533 74:0.065084383 75:0 76:0 77:0 78:0.051588733 79:0.81238025 80:0.39505929 81:0.42565462 82:0 83:0 84:0 85:0.99998063 86:0 87:0 88:0 89:0 90:0 91:0 92:0.99995852 93:0 94:0 95:0.00794206 96:0 97:0 98:0 99:0.99598545 100:0 101:0 102:0.089379497 103:0 104:0 105:0 106:0.99941772 107:0 108:0 109:0 110:0 111:0 
0.6411180854698326 0.6054109149745498 0.812574346273144 0.8662066559350927 0.9060429114159909 0.7079917768739159 0.711763257095363 0.3169065950584015 0.4332052332479093 0.6502759912614693 0.75432760831359 0.4000049761265564 0.7578984388107863 0.5621152751034322 0.8101209105841262 0.6331044189266288 0:0 1:0 2:0.99807811 3:0 4:0 5:0 6:0 7:0 8:0.78950596 9:0.4888013 10:0 11:0.37091812 12:0 13:0 14:0 15:0.66636604 16:0 17:0.32898802 18:0.66908967 19:0 20:0 21:0 22:0.99997783 23:0 24:0 25:0 26:0 27:0 28:0 29:0 30:0.43495929 31:0.90021867 32:0 33:0 34:0 35:0 36:0 37:0.73470467 38:0.38779545 39:0.55647522 40:0 41:0 42:0 43:0.15780552 44:0.25606635 45:0.70848423 46:0.63835883 47:0 48:0 49:0 50:0.27381861 51:0 52:0.70120686 53:0.65825194 54:0 55:0 56:0 57:0.018031674 58:0.1608377 59:0.67947567 60:0.71557635 61:0 62:0 63:0 64:0.036317647 65:0.059032701 66:0.4195683 67:0.90504253 68:0 69:0 70:0 71:0.28604513 72:0.15025227 73:0.31308028 74:0.89300418 75:0 76:0 77:0 78:0.25151035 79:0.028048402 80:0.81275839 81:0.5247196 82:0 83:0 84:0 85:0.99534667 86:0 87:0.058074441 88:0.076329142 89:0 90:0 91:0 92:0.28908569 93:0.16852325 94:0.42647174 95:0.84028476 96:0 97:0 98:0 99:0.89103627 100:0 101:0.37874389 102:0.25009757 103:0 104:0 105:0 106:0.99997723 107:0 108:0 109:0 110:0 111:0 
0.2913696119324846 0.2255916253778033 0.3186941798578 0.407199348149186 0.3128877383847071 0.2443936637354053 0.3317517369545795 0.1169282273841958 0.1684200581129303 0.2827040362047338 0.3453583184621509 0.1362575092138647 0.3005243171479958 0.2237694955295454 0.3041707434504444 0.2693282254395039 0:0 1:0 2:0 3:0.1799814 4:0.9835903 5:0 6:0 7:0 8:0.13040091 9:0.26668611 10:0.72618771 11:0.62006593 12:0 13:0 14:0 15:0.27077004 16:0.15981372 17:0.78846967 18:0.52861214 19:0 20:0 21:0 22:0.87343085 23:0.00056258769 24:0.11692352 25:0.47268182 26:0 27:0 28:0 29:0.087689102 30:0 31:0.2007239 32:0.97569162 33:0 34:0 35:0 36:0.88689405 37:0.13358554 38:0.24830659 39:0.36590564 40:0 41:0 42:0 43:0.56918156 44:0.13848957 45:0.75926018 46:0.28346816 47:0 48:0 49:0 50:0.2167954 51:0.29153705 52:0.89336598 53:0.26434386 54:0 55:0 56:0 57:0.99995571 58:0 59:0 60:0.0079766754 61:0 62:0 63:0 64:0.95405972 65:0 66:0.072059467 67:0.29079345 68:0 69:0 70:0 71:0.975187 72:0 73:0.22132739 74:0 75:0 76:0 77:0 78:0.91423786 79:0.35190442 80:0.20076035 81:0 82:0 83:0 84:0 85:0.99998194 86:0 87:0 88:0 89:0 90:0 91:0 92:0.99029315 93:0.13881491 94:0 95:0.0056656362 96:0 97:0 98:0 99:0.99999285 100:0 101:0 102:0 103:0 104:0 105:0 106:0.95902902 107:0 108:0 109:0.28316742 110:0 111:0 
0.3903355280369321 0.3135567911252815 0.4297830828963058 0.4904671086523743 0.4893181710216161 0.3907941820702703 0.4291948748935874 0.1900564175289198 0.2551456877540117 0.3435972588715649 0.4484457800817518 0.2295529617731341 0.406771704729996 0.2977272123933876 0.447360936767868 0.4090869199228113 0:0 1:0.013887853 2:0 3:0 4:0.99956828 5:0 6:0 7:0 8:0.41565657 9:0 10:0 11:0.90948451 12:0 13:0 14:0 15:0.77803355 16:0 17:0.27187133 18:0.56632364 19:0 20:0 21:0 22:0.99998254 23:0 24:0 25:0 26:0 27:0 28:0 29:0.00048999803 30:0 31:0 32:0.99997622 33:0 34:0 35:0 36:0.076314397 37:0 38:0 39:0.99707019 40:0 41:0 42:0 43:0.27005261 44:0 45:0.2629033 46:0.92623407 47:0 48:0 49:0 50:0.56892204 51:0 52:0.45713159 53:0.683617 54:0 55:0 56:0 57:0 58:0 59:0 60:0.99997735 61:0 62:0 63:0 64:0.074374564 65:0 66:0 67:0.99721712 68:0 69:0 70:0 71:0.88968533 72:0 73:0 74:0.45654473 75:0 76:0 77:0 78:0.52193153 79:0 80:0.85294181 81:0 82:0 83:0 84:0 85:0.97535717 86:0 87:0 88:0.22026454 89:0 90:0 91:0 92:0 93:0 94:0 95:0.99996042 96:0 97:0 98:0 99:0.99994838 100:0 101:0 102:0.0037075081 103:0 104:0 105:0 106:0.99998617 107:0 108:0 109:0 110:0 111:0 
0.1566632441478445 0.1940763159913677 0.2189904163128808 0.3518857912384894 0.402004231872336 0.178425962839618 0.1729362389140404 0.07893690788424886 0.1100562314957328 0.1678316689224504 0.1669166879843121 0.1229575929656804 0.1938642811738001 0.2666838922537645 0.2999356241836557 0.1509005323843338 0:0 1:0 2:0 3:0.99993503 4:0 5:0 6:0 7:0 8:0.29128784 9:0 10:0.6558193 11:0.69643015 12:0 13:0 14:0 15:0.72021532 16:0 17:0.53864193 18:0.43719283 19:0 20:0 21:0 22:0.99999154 23:0 24:0 25:0 26:0 27:0 28:0 29:0 30:0 31:0.98311609 32:0.18290676 33:0 34:0 35:0 36:0.087373443 37:0 38:0.79519176 39:0.60001302 40:0 41:0 42:0 43:0.2460849 44:0 45:0.73186189 46:0.63544673 47:0 48:0 49:0 50:0.56530082 51:0 52:0.67517835 53:0.47387207 54:0 55:0 56:0 57:0.41561449 58:0 59:0.78315192 60:0.4624919 61:0 62:0 63:0 64:0.23531824 65:0 66:0.83191478 67:0.50251245 68:0 69:0 70:0 71:0.94887096 72:0 73:0.23514445 74:0.21055353 75:0 76:0 77:0 78:0.98295903 79:0 80:0.15939665 81:0.091248564 82:0 83:0 84:0 85:0.99997115 86:0 87:0 88:0 89:0 90:0 91:0 92:0.0031740281 93:0 94:0.41435164 95:0.91006923 96:0 97:0 98:0 99:0.99996454 100:0 101:0 102:0.0020725906 103:0 104:0 105:0 106:0.99998778 107:0 108:0 109:0 110:0 111:0 
0.6737882552216089 0.8920030103717301 0.9561647128554162 0.7911497757080668 1 0.8095950928692695 0.7450582324619603 0.6937785011542763 1 0.9228201264560015 0.9178107113703938 0.6318384040572549 0.6584146760795736 0.6834241990335679 1 0.8024450236373161 0:0 1:0.99997234 2:0 3:0 4:0 5:0 6:0 7:0 8:0.28043342 9:0.68334883 10:0.54413438 11:0.39781219 12:0 13:0 14:0 15:0.77575737 16:0.085342959 17:0.16269131 18:0.60367566 19:0 20:0 21:0 22:0.99996525 23:0 24:0 25:0 26:0 27:0 28:0 29:0.99998772 30:0 31:0 32:0 33:0 34:0 35:0 36:0.99816978 37:0.042639624 38:0.042639624 39:0 40:0 41:0 42:0 43:0.80472457 44:0.33531812 45:0.48985022 46:0 47:0 48:0 49:0 50:0.54136014 51:0.14213775 52:0.82861191 53:0 54:0 55:0 56:0 57:0.99998385 58:0 59:0 60:0 61:0 62:0 63:0 64:0.99999195 65:0 66:0 67:0 68:0 69:0 70:0 71:0.99702889 72:0 73:0 74:0.076908357 75:0 76:0 77:0 78:0.9764269 79:0 80:0 81:0 82:0 83:0 84:0 85:0.99998385 86:0 87:0 88:0 89:0 90:0 91:0 92:0.99999195 93:0 94:0 95:0 96:0 97:0 98:0 99:0.99999195 100:0 101:0 102:0 103:0 104:0 105:0 106:0 107:0 108:0 109:0 110:0 111:0 
0.1731590346671432 0.3614238110643899 0.4767447186959297 0.1426605310013498 0.383144641067383 0.2905127894560623 0.1737221756169078 0.05942018810829544 0.1373447220213898 0.3842660380727632 0.3130244753839198 0.232340607146412 0.2817793075424104 0.1451609806394001 0.3708008349125149 0.407720568341792 0:0 1:0 2:0 3:0 4:0.9994486 5:0 6:0 7:0 8:0.46001545 9:0 10:0.23517627 11:0.85617363 12:0 13:0 14:0 15:0.44471622 16:0 17:0.1261103 18:0.88674003 19:0 20:0 21:0 22:0.9999907 23:0 24:0 25:0 26:0 27:0 28:0 29:0.72392225 30:0 31:0 32:0.68983054 33:0 34:0 35:0 36:0.54577291 37:0.36613739 38:0.36490282 39:0.65945345 40:0 41:0 42:0 43:0.39487508 44:0.1749599 45:0.25439996 46:0.86528802 47:0 48:0 49:0 50:0.66439098 51:0 52:0.20902461 53:0.7175492 54:0 55:0 56:0 57:0.99999118 58:0 59:0 60:0 61:0 62:0 63:0 64:0.98506784 65:0.019623304 66:0 67:0.17099375 68:0 69:0 70:0 71:0.86321384 72:0.21297869 73:0.38924623 74:0.24075852 75:0 76:0 77:0 78:0.77135301 79:0.18764472 80:0.50433779 81:0.3397122 82:0 83:0 84:0 85:0.99998689 86:0 87:0 88:0 89:0 90:0 91:0 92:0.99999338 93:0 94:0 95:0 96:0 97:0 98:0 99:0.99788886 100:0 101:0 102:0.064839952 103:0 104:0 105:0 106:0.89708012 107:0 108:0 109:0.44180945 110:0 111:0 
0.2403496029987044 0.3160350580046511 0.2975563665297117 0.3079927068135472 0.3576256325018461 0.4212145065073308 0.2386562399414237 0.1192669773480181 0.1759207746345222 0.2281517570907609 0.3272819302217938 0.2061012401116873 0.2883204690892817 0.1825160622890636 0.3739800337511088 0.3576385259989041 0:0 1:0.009984008 2:0 3:0 4:0.99988985 5:0 6:0 7:0 8:0.71619374 9:0 10:0 11:0.69786513 12:0 13:0 14:0 15:0.83765322 16:0 17:0.18289803 18:0.51464909 19:0 20:0 21:0 22:0.99998683 23:0 24:0 25:0 26:0 27:0 28:0 29:0 30:0 31:0.50696784 32:0.86194074 33:0 34:0 35:0 36:0.22632308 37:0 38:0.40313807 39:0.88669354 40:0 41:0 42:0 43:0.49493271 44:0 45:0.011669047 46:0.86882704 47:0 48:0 49:0 50:0.55952746 51:0.051182173 52:0.45292711 53:0.69220281 54:0 55:0 56:0 57:0.2747224 58:0 59:0.51262373 60:0.81344867 61:0 62:0 63:0 64:0.26842996 65:0 66:0.538032 67:0.79901743 68:0 69:0 70:0 71:0.97129446 72:0 73:0 74:0.23783225 75:0 76:0 77:0 78:0.99704814 79:0 80:0.023430677 81:0.072812155 82:0 83:0 84:0 85:0.90304309 86:0 87:0 88:0.42942095 89:0 90:0 91:0 92:0 93:0 94:0.28842559 95:0.95742255 96:0 97:0 98:0 99:0.99994868 100:0 101:0 102:0 103:0 104:0 105:0 106:0.99998349 107:0 108:0 109:0 110:0 111:0 
0.612460576314127 0.426762994307232 0.5785159965606661 0.7698695582590442 0.60165432301373 0.6970067499968787 0.6147795075985829 0.2461900064646415 0.3342455306024242 0.6172662917107236 0.7200913572555376 0.306859949037422 0.6068921052556436 0.502829098884879 0.6383436633377296 0.5405782293439733 0:0 1:0.90608013 2:0 3:0 4:0.42274812 5:0 6:0 7:0 8:0.50214863 9:0 10:0 11:0.86473733 12:0 13:0 14:0 15:0.4520897 16:0 17:9.4343751e-09 18:0.89193326 19:0 20:0 21:0 22:0.32714683 23:0.10678632 24:0.53936416 25:0.76851225 26:0 27:0 28:0 29:0 30:0 31:0.71130329 32:0.70282775 33:0 34:0 35:0 36:0 37:0 38:0.17573872 39:0.98439842 40:0 41:0 42:0 43:0 44:0 45:0.10300049 46:0.99465966 47:0 48:0 49:0 50:0.48775694 51:0.072638713 52:0.40726388 53:0.76870102 54:0 55:0 56:0 57:0.10538376 58:0.28764555 59:0.25872213 60:0.9160583 61:0 62:0 63:0 64:0.1256711 65:0.18971373 66:0.46830502 67:0.8537302 68:0 69:0 70:0 71:0 72:0 73:0.1314199 74:0.99130136 75:0 76:0 77:0 78:0.51800483 79:0.42685962 80:0.30321792 81:0.67637062 82:0 83:0 84:0 85:0.26827425 86:0.58266783 87:0.36040449 88:0.67714876 89:0 90:0 91:0 92:0.20225407 93:0.42885777 94:0.81326771 95:0.33714315 96:0 97:0 98:0 99:0 100:0.18302524 101:0.01825818 102:0.98291981 103:0 104:0 105:0 106:0.028247656 107:0.52906877 108:0.49667096 109:0.68743634 110:0 111:0 
0.5317046418973255 0.1637896798173729 0.1978576854340746 0.2623986821470079 0.3032779311321144 0.6442111039924492 0.2748361157570167 0.1255519119290649 0.1260629787816297 0.1947841504946851 0.2685002826252378 0.1271063991666589 0.3035084677698127 0.2154710266961075 0.1812448298761554 0.1639535565937443 0:0 1:0.023867572 2:0.54810524 3:0.61056811 4:0.57110202 5:0 6:0 7:0 8:0.15476933 9:0 10:0.11110772 11:0.98166597 12:0 13:0 14:0 15:0.62955993 16:0 17:0.12210769 18:0.76726919 19:0 20:0 21:0 22:0.25563347 23:0.47755402 24:0.63317239 25:0.55283278 26:0 27:0 28:0 29:0.37565216 30:0.27725574 31:0.18502267 32:0.86472768 33:0 34:0 35:0 36:0.23828463 37:0 38:0.290544 39:0.92669177 40:0 41:0 42:0 43:0.48644724 44:0.09447255 45:0.34427035 46:0.79740697 47:0 48:0 49:0 50:0.25413424 51:0.41895169 52:0.6932649 53:0.52843392 54:0 55:0 56:0 57:0.67178369 58:0.33537537 59:0.60024732 60:0.27549806 61:0 62:0 63:0 64:0.81724423 65:0 66:0.28850061 67:0.49883202 68:0 69:0 70:0 71:0.27710885 72:0.043662235 73:0.31653011 74:0.90611053 75:0 76:0 77:0 78:0.60298234 79:0.21366045 80:0.61919564 81:0.45530608 82:0 83:0 84:0 85:0.85714155 86:0.13914359 87:0.30599517 88:0.39023614 89:0 90:0 91:0 92:0.85561311 93:0 94:0.24414347 95:0.4563747 96:0 97:0 98:0 99:0.64258975 100:0.20398094 101:0.23259102 102:0.70093042 103:0 104:0 105:0 106:0.26451305 107:0.11882182 108:0.9440819 109:0.15677996 110:0 111:0 
1 0.5097013345042726 0.756123551254932 0.723801983054788 0.8152800334319926 1 0.9390636770167223 0.3292236730442874 0.4683671166852569 0.8641342146987506 1 0.407893376165864 0.9091566800686443 0.6814278602491403 0.8086354340280065 0.6837032131801681 0:0 1:0.0017834605 2:0 3:0 4:0.99995536 5:0 6:0 7:0 8:0.96106881 9:0 10:0 11:0.27623636 12:0 13:0 14:0 15:0.39481518 16:0 17:0.11562328 18:0.91144085 19:0 20:0 21:0 22:0.64971364 23:0.36283693 24:0.28431186 25:0.60445535 26:0 27:0 28:0 29:0.57681876 30:0.074815631 31:0.76136053 32:0.28631499 33:0 34:0 35:0 36:0.19526379 37:0.00073322398 38:0.42826906 39:0.88228214 40:0 41:0 42:0 43:0.97144073 44:0 45:0.15200938 46:0.18210757 47:0 48:0 49:0 50:0.63222075 51:0.33879161 52:0.60930103 53:0.33799657 54:0 55:0 56:0 57:0.41578442 58:0.082415007 59:0.67352903 60:0.60551929 61:0 62:0 63:0 64:0.5544101 65:0.059857342 66:0.75443512 67:0.34618616 68:0 69:0 70:0 71:0.23425683 72:0 73:0.23081857 74:0.9443593 75:0 76:0 77:0 78:0.59582835 79:0.46000123 80:0.48652825 81:0.44345576 82:0 83:0 84:0 85:0.97365975 86:0.037056249 87:0.18668298 88:0.12541609 89:0 90:0 91:0 92:0.5006063 93:0.067611746 94:0.10896619 95:0.8561067 96:0 97:0 98:0 99:0.44414315 100:0 101:0.093472384 102:0.89105123 103:0 104:0 105:0 106:0.15436725 107:0.34436652 108:0.47994715 109:0.79196858 110:0 111:0 
0.5534257937666258 0.2403121817360813 0.5027906538815805 0.5374991811050889 0.3671377892410414 0.2408939521172699 0.3937833852740479 0.1270310549728673 0.1673953162936787 0.415333056040745 0.2375589281813558 0.1533011437916149 0.3380230492274331 0.2520164564721467 0.3138814681089921 0.2388233367907595 0:0 1:0.40018603 2:0.43742111 3:0.65138346 4:0.47342306 5:0 6:0 7:0 8:0.009852347 9:0.086647771 10:0.31920877 11:0.94364589 12:0 13:0 14:0 15:0 16:0 17:0.14587814 18:0.98928225 19:0 20:0 21:0 22:0.38817528 23:0.27905819 24:0.74818283 25:0.46000299 26:0 27:0 28:0 29:0.27936286 30:0.37276977 31:0.75400984 32:0.46305686 33:0 34:0 35:0 36:0.00042958374 37:0 38:0.7352736 39:0.67773968 40:0 41:0 42:0 43:0.1187821 44:0 45:0.66067839 46:0.74119234 47:0 48:0 49:0 50:0.12830733 51:0.054901637 52:0.8077513 53:0.5727399 54:0 55:0 56:0 57:0.79266024 58:0.28351969 59:0.48635086 60:0.23394024 61:0 62:0 63:0 64:0.20825407 65:0 66:0.6080451 67:0.76607567 68:0 69:0 70:0 71:0.49624106 72:0 73:0.64006925 74:0.58652133 75:0 76:0 77:0 78:0.29991552 79:0 80:0.86237812 81:0.40782011 82:0 83:0 84:0 85:0.55307209 86:0.26225898 87:0.2200117 88:0.75953227 89:0 90:0 91:0 92:0.67792261 93:0 94:0.42262635 95:0.60146886 96:0 97:0 98:0 99:0.71827137 100:0 101:0.54988849 102:0.42621729 103:0 104:0 105:0 106:0.26415345 107:0.017523969 108:0.95011586 109:0.1647775 110:0 111:0 
0.3295944480260934 0.1631972240909584 0.3270341314610823 0.3803905171790412 0.3440415436409832 0.2841874812587293 0.4234201753745521 0.1972098292557127 0.3210013559767436 0.2592419726242932 0.3047855401356735 0.2559316559137332 0.3144187729120758 0.1950166640417856 0.3469857608236798 0.400581446826984 0:0 1:0 2:0 3:0.63681483 4:0.77094495 5:0 6:0 7:0 8:0.56320685 9:0.043331217 10:0.40617847 11:0.71826512 12:0 13:0 14:0 15:0.41196594 16:0.030229352 17:0.48774427 18:0.76905954 19:0 20:0 21:0 22:0.89592397 23:0 24:0.022230405 25:0.44362608 26:0 27:0 28:0 29:0.9796313 30:0 31:0.04729344 32:0.19507924 33:0 34:0 35:0 36:0.96085578 37:0.0032430314 38:0.1285513 39:0.24535242 40:0 41:0 42:0 43:0.94362402 44:0.024696084 45:0.27140898 46:0.18783291 47:0 48:0 49:0 50:0.25044918 51:0 52:0.93554759 53:0.24892382 54:0 55:0 56:0 57:0.9999885 58:0 59:0 60:0 61:0 62:0 63:0 64:0.99453485 65:0 66:0 67:0.10432849 68:0 69:0 70:0 71:0.99422866 72:0 73:0 74:0.10717756 75:0 76:0 77:0 78:0.99995929 79:0 80:0 81:0 82:0 83:0 84:0 85:0.99998379 86:0 87:0 88:0 89:0 90:0 91:0 92:0.99999189 93:0 94:0 95:0 96:0 97:0 98:0 99:0.99999243 100:0 101:0 102:0 103:0 104:0 105:0 106:0 107:0 108:0 109:0 110:0 111:0 
-0.9434020463978889 0.4913757653463954 0.756826136293575 0.6975003014708415 0.6131795443160714 1 0.9907375819147484 0.4302810652292951 0.6560182861252138 1 1 0.3693243760767802 1 0.7773809982293235 0.8241796034444235 0.5872138288119841 0:0 1:0.79944307 2:0.52427065 3:0 4:0.29197642 5:0 6:0 7:0 8:0.34731981 9:0.57689756 10:0 11:0.73922622 12:0 13:0 14:0 15:0 16:0 17:0.09694317 18:0.99525446 19:0 20:0 21:0 22:0.25244796 23:0.49469134 24:0.65922141 25:0.50687921 26:0 27:0 28:0 29:0.54957527 30:4.6645543e-08 31:0.35273752 32:0.75721222 33:0 34:0 35:0 36:0.69827574 37:0.10532372 38:0.26141718 39:0.65789217 40:0 41:0 42:0 43:0.1773966 44:0 45:0.17476897 46:0.96843404 47:0 48:0 49:0 50:0.85021639 51:0.22934555 52:0.33397263 53:0.33605629 54:0 55:0 56:0 57:0.76998508 58:0.26761669 59:0.23005725 60:0.53150672 61:0 62:0 63:0 64:0.68416244 65:0.14723563 66:0.26279205 67:0.66412216 68:0 69:0 70:0 71:0.60254461 72:0 73:0.51376551 74:0.61053002 75:0 76:0 77:0 78:0.42577806 79:0.65159786 80:0.59856093 81:0.18920989 82:0 83:0 84:0 85:0.81177652 86:0.27950796 87:0.029866301 88:0.51174408 89:0 90:0 91:0 92:0.18521266 93:0.12271191 94:0.20555681 95:0.95303601 96:0 97:0 98:0 99:0 100:0 101:0.26496401 102:0.96422249 103:0 104:0 105:0 106:0.35462439 107:0.39863926 108:0.58121109 109:0.61438614 110:0 111:0 
-0.5922587732710797 0.2619424538629946 0.3037101063356659 0.3693338765080756 0.3775326463976371 0.5737764907706744 0.2974203358908059 0.1563595167586634 0.2058745161696362 0.08864587018384111 0.423512629000268 0.2505277363065462 0.2608896890123071 0.1893019028444649 0.3905716920288247 0.3071820459180689 0:0 1:0.11249211 2:0.49973854 3:0.46937275 4:0.71916258 5:0 6:0 7:0 8:0.20044571 9:0 10:0.7157675 11:0.66886401 12:0 13:0 14:0 15:0.21230167 16:0.021705201 17:0 18:0.97693765 19:0 20:0 21:0 22:0.69810688 23:0.081575528 24:0.37097886 25:0.60689169 26:0 27:0 28:0 29:0.37722421 30:0.75028634 31:0.23086196 32:0.49133924 33:0 34:0 35:0 36:0.22496249 37:0 38:0.52437407 39:0.82119608 40:0 41:0 42:0 43:0.54435122 44:0.24807018 45:0.51311064 46:0.61543667 47:0 48:0 49:0 50:0.73606616 51:0.15931739 52:0.63444096 53:0.1739601 54:0 55:0 56:0 57:0.43072113 58:0.81823921 59:0.17976484 60:0.33553895 61:0 62:0 63:0 64:0.25786096 65:0 66:0.25349119 67:0.93229795 68:0 69:0 70:0 71:0.58009958 72:0.25875658 73:0.57634914 74:0.51409596 75:0 76:0 77:0 78:0.82672924 79:0.48818427 80:0.27954274 81:0.002216097 82:0 83:0 84:0 85:0.14468674 86:0.58564991 87:0.25641802 88:0.75515646 89:0 90:0 91:0 92:0 93:0 94:0.34359455 95:0.93908161 96:0 97:0 98:0 99:0.017223155 100:0.30305198 101:0.18152879 102:0.93533957 103:0 104:0 105:0 106:0.55828172 107:0.37644368 108:0.58151472 109:0.45650506 110:0 111:0 
-0.124559075803341 0.06716129884437927 0.113530519622354 0.1052542023179608 0.1371363803366339 0.09311982265468113 0.09595554232459375 0.04848954766151522 0.06502006208700904 0.07404729601568261 0.1047368774342707 0.05950548863562244 0.09567590258056265 0.08465708428935768 0.08636598824695031 0.07166633007379035 0:0 1:0.0019305171 2:0 3:0.95668006 4:0.29102808 5:0 6:0 7:0 8:0.78665298 9:0 10:0.13600877 11:0.60219395 12:0 13:0 14:0 15:0.24626541 16:0 17:0.8241871 18:0.50990248 19:0 20:0 21:0 22:0.23903836 23:0.11044353 24:0.89438361 25:0.36151555 26:0 27:0 28:0 29:0.99773651 30:0 31:0 32:0.066990808 33:0 34:0 35:0 36:0.33010933 37:0 38:0.88046652 39:0.34021229 40:0 41:0 42:0 43:0.50535131 44:0 45:0.42011821 46:0.75371355 47:0 48:0 49:0 50:0.42135572 51:0 52:0.68710959 53:0.59185964 54:0 55:0 56:0 57:0.11511326 58:0 59:0.95577234 60:0.27051857 61:0 62:0 63:0 64:0.47263646 65:0 66:0.74422866 67:0.47190714 68:0 69:0 70:0 71:0.27501765 72:0 73:0.77185434 74:0.57320398 75:0 76:0 77:0 78:0.93336678 79:0 80:0.12989606 81:0.33455649 82:0 83:0 84:0 85:0 86:0 87:0.91654474 88:0.39985842 89:0 90:0 91:0 92:0.24247842 93:0 94:0.8364042 95:0.49151459 96:0 97:0 98:0 99:0.96696186 100:0 101:0.088974558 102:0.23883188 103:0 104:0 105:0 106:0.15422359 107:0 108:0.80529976 109:0.57240546 110:0 111:0 
-0.4914792513101654 0 0 0 0 0.4403518412669329 0.03417091583553385 0 0 0.2177776642846208 0.2879208563635504 0 0 0.2316441429050756 0 0 0:0 1:0.29024628 2:0 3:0.8994891 4:0.32646 5:0 6:0 7:0 8:0.62226856 9:0 10:0.23042816 11:0.74809813 12:0 13:0 14:0 15:0.30741778 16:0 17:0.11055768 18:0.9451049 19:0 20:0 21:0 22:0.11431609 23:0.30361962 24:0.47216985 25:0.81962121 26:0 27:0 28:0 29:0.76333731 30:0.25074309 31:0.5628041 32:0.19403577 33:0 34:0 35:0 36:0.22850953 37:0.23284939 38:0.80149734 39:0.50113201 40:0 41:0 42:0 43:0.63305271 44:0.014662953 45:0.39348352 46:0.66644841 47:0 48:0 49:0 50:0.57639599 51:0.40898672 52:0.69434708 53:0.13543159 54:0 55:0 56:0 57:0.54664779 58:0.24524076 59:0.67765939 60:0.42635494 61:0 62:0 63:0 64:0.70900697 65:0.16671301 66:0.62759995 67:0.27496153 68:0 69:0 70:0 71:0.33154282 72:0.32238257 73:0.41946763 74:0.78109694 75:0 76:0 77:0 78:0.5911628 79:0.39792088 80:0.56835556 81:0.41125453 82:0 83:0 84:0 85:0.86893129 86:0 87:0.34308976 88:0.35664171 89:0 90:0 91:0 92:0.51215261 93:0 94:0.29596648 95:0.80626452 96:0 97:0 98:0 99:0.49666753 100:0 101:0.018408304 102:0.86772865 103:0 104:0 105:0 106:0.0609417 107:0.35663855 108:0.57775944 109:0.73162037 110:0 111:0 
-0.356604162612581 0.2741599464882676 0.337644462970551 0.4053121920498892 0.3626921206209914 0.3179944519323187 0.3200369037172335 0.1609264126230008 0.2195918606941214 0.3126832188938061 0.3503888009071324 0.1990255186664608 0.3568750680261782 0.2579481775978685 0.3447558770098869 0.3058054186465789 0:0 1:0 2:0 3:0.95787078 4:0.28714961 5:0 6:0 7:0 8:0.828237 9:0 10:0.17960468 11:0.53079438 12:0 13:0 14:0 15:0.33850333 16:0 17:0.91936922 18:0.20033029 19:0 20:0 21:0 22:0.25669524 23:0 24:0.78355181 25:0.56579757 26:0 27:0 28:0 29:0.99998611 30:0 31:0.0013433767 32:0 33:0 34:0 35:0 36:0 37:0.27799296 38:0.95281982 39:0.12172583 40:0 41:0 42:0 43:0 44:0.4269838 45:0.5718317 46:0.70047683 47:0 48:0 49:0 50:0.1713143 51:0.37438098 52:0.72059596 53:0.55786067 54:0 55:0 56:0 57:0.23711413 58:0 59:0.97146219 60:0 61:0 62:0 63:0 64:0 65:0.39631519 66:0.66513401 67:0.63284183 68:0 69:0 70:0 71:0 72:0.36422572 73:0.87274891 74:0.3250047 75:0 76:0 77:0 78:0.65190774 79:0.30492342 80:0.34506315 81:0.60245425 82:0 83:0 84:0 85:0 86:0 87:0.90349358 88:0.42856207 89:0 90:0 91:0 92:0.15478513 93:0 94:0.89546335 95:0.41732866 96:0 97:0 98:0 99:0.91248727 100:0 101:0.20355912 102:0.35483229 103:0 104:0 105:0 106:0.14152513 107:0 108:0.82342571 109:0.54946834 110:0 111:0 
-0.454791995922073 0.03785149647672579 0.07161544822715661 0.1218501198244374 0 0.1056719112529282 0.2383019513574539 0 0 0.3640882921818844 0.1530970156051892 0.002252081939394064 0.3185762640684967 0.06923771784674199 0.1206921121320964 0.07412909827934819 0:0 1:0.27999958 2:0.33528221 3:0.47722575 4:0.7624768 5:0 6:0 7:0 8:0.41558439 9:0.19346263 10:0.48145413 11:0.74695206 12:0 13:0 14:0 15:0.16858381 16:0.17011531 17:0.14822192 18:0.95948815 19:0 20:0 21:0 22:0.22310784 23:0.39460102 24:0.41552177 25:0.78854543 26:0 27:0 28:0 29:0.65182126 30:0.19476543 31:0.52072728 32:0.51574832 33:0 34:0 35:0 36:0.34782502 37:0.14021236 38:0.15768181 39:0.913463 40:0 41:0 42:0 43:0.54060858 44:0.041283406 45:0.55771285 46:0.62842149 47:0 48:0 49:0 50:0.25723198 51:0.27925697 52:0.53171277 53:0.75702268 54:0 55:0 56:0 57:0.70426935 58:0.51673448 59:0.44382772 60:0.19990329 61:0 62:0 63:0 64:0.4543975 65:0.013688312 66:0.36374637 67:0.81297582 68:0 69:0 70:0 71:0.16919857 72:0.44409633 73:0.7423774 74:0.47219691 75:0 76:0 77:0 78:0.27309906 79:0.56620944 80:0.66594785 81:0.40159938 82:0 83:0 84:0 85:0.43544376 86:0.47952336 87:0.40537202 88:0.64502782 89:0 90:0 91:0 92:0 93:0 94:0.2877776 95:0.95764607 96:0 97:0 98:0 99:0 100:0.2182159 101:0.52946079 102:0.81975901 103:0 104:0 105:0 106:0.23456196 107:0.58192897 108:0.68298 109:0.37391633 110:0 111:0 
-0.3014348290834274 0.2053827915324191 0.2501034923872806 0.3443629609055666 0.272297935846138 0.2417413000000213 0.2532186317339844 0.123902924265284 0.1694903445386751 0.22112075483318 0.2606290286788294 0.15429549525009 0.2694415381737015 0.1959804702047141 0.2617275123040126 0.2220703485488722 0:0 1:0 2:0 3:0.79732114 4:0.6035341 5:0 6:0 7:0 8:0.81031388 9:0 10:0.21516998 11:0.54504043 12:0 13:0 14:0 15:0.069451042 16:0 17:0.99415177 18:0.082537979 19:0 20:0 21:0 22:0 23:0.22599874 24:0.95785546 25:0.17723559 26:0 27:0 28:0 29:0.98934239 30:0 31:0.0022721391 32:0.1454823 33:0 34:0 35:0 36:0.16859022 37:0.02267083 38:0.79258293 39:0.58552605 40:0 41:0 42:0 43:0.39563417 44:0.11750101 45:0.83969641 46:0.35292423 47:0 48:0 49:0 50:0.17568323 51:0 52:0.97257346 53:0.15237769 54:0 55:0 56:0 57:0.13023706 58:0 59:0.93757248 60:0.32243228 61:0 62:0 63:0 64:0.2823039 65:0.18251568 66:0.90278107 67:0.26822641 68:0 69:0 70:0 71:0.16436505 72:0.011138485 73:0.93841231 74:0.30368611 75:0 76:0 77:0 78:0.48823732 79:0 80:0.76688266 81:0.41652399 82:0 83:0 84:0 85:0 86:0 87:0.89271933 88:0.45058316 89:0 90:0 91:0 92:0.21850921 93:0 94:0.73166025 95:0.64568275 96:0 97:0 98:0 99:0.937428 100:0 101:0.11895902 102:0.327189 103:0 104:0 105:0 106:0.17811739 107:0.082017541 108:0.95605224 109:0.21791978 110:0 111:0 
-0.3573411608468014 0.2247526012020141 0.3481377098151527 0.4249351273354348 0.3099995758055817 0.2350857471310732 0.2735015197778249 0.1374712624437134 0.1847492721168527 0.3044857359187536 0.2729570064682361 0.1690513405746545 0.2761133855600491 0.192011710153623 0.2948909314581315 0.2508496548590712 0:0 1:0.00030923751 2:0 3:0.8370837 4:0.5470475 5:0 6:0 7:0 8:0.34923434 9:0 10:0.57928139 11:0.73651189 12:0 13:0 14:0 15:0.35353628 16:0 17:0.78506655 18:0.50857377 19:0 20:0 21:0 22:0.15091473 23:0 24:0.92432493 25:0.35046917 26:0 27:0 28:0 29:0.99447089 30:0 31:0.10471193 32:0 33:0 34:0 35:0 36:0.050219528 37:0 38:0.65420496 39:0.75462508 40:0 41:0 42:0 43:0.18775675 44:0.41739538 45:0.68257952 46:0.56972998 47:0 48:0 49:0 50:0.24439313 51:0.38824508 52:0.70765495 53:0.5373475 54:0 55:0 56:0 57:0.21377951 58:0 59:0.96945357 60:0.12004311 61:0 62:0 63:0 64:0.36035511 65:0 66:0.39146242 67:0.84667677 68:0 69:0 70:0 71:0.026114287 72:0.3770403 73:0.84021175 74:0.38882476 75:0 76:0 77:0 78:0.31312236 79:0.33181629 80:0.83584088 81:0.30529904 82:0 83:0 84:0 85:0 86:0 87:0.80047339 88:0.59934413 89:0 90:0 91:0 92:0.090844177 93:0 94:0.62910134 95:0.7719838 96:0 97:0 98:0 99:0.54134244 100:0 101:0.20311902 102:0.81587809 103:0 104:0 105:0 106:0.20511988 107:0.11771792 108:0.87183028 109:0.42890397 110:0 111:0 
-0.4550732351619369 0.3197846684642427 0.4360695136666788 0.4688651910261845 0.4176796800957633 0.3836621908356375 0.5332064528750444 0.2384087505224142 0.2788147161966145 0.384937659733411 0.378719146406621 0.2344340921479544 0.6032763232829715 0.3517792931414494 0.3812431355795837 0.3766383487031371 0:0 1:0.39566711 2:0.45039371 3:0.40954754 4:0.68757659 5:0 6:0 7:0 8:0 9:0.10641097 10:0.20665936 11:0.97255939 12:0 13:0 14:0 15:0.30716613 16:0.29108569 17:0.16077936 18:0.89160103 19:0 20:0 21:0 22:0.23634997 23:0 24:0.39689231 25:0.88688427 26:0 27:0 28:0 29:0.80652601 30:0.34186521 31:0.37227869 32:0.30657542 33:0 34:0 35:0 36:0.21766269 37:0.16015834 38:0.39823255 39:0.8765108 40:0 41:0 42:0 43:0.51383126 44:0.614079 45:0.23057409 46:0.55284554 47:0 48:0 49:0 50:0.59964871 51:0.42308074 52:0.57601613 53:0.35995767 54:0 55:0 56:0 57:0.77867138 58:0.27805707 59:0.54223812 60:0.14924096 61:0 62:0 63:0 64:0.03107951 65:0.29889143 66:0.73132819 67:0.61217976 68:0 69:0 70:0 71:0.55564862 72:0.75447839 73:0.32756621 74:0.12104835 75:0 76:0 77:0 78:0.41061336 79:0.59582621 80:0.57327598 81:0.38428769 82:0 83:0 84:0 85:0.47076556 86:0.25502515 87:0.74830109 88:0.39154088 89:0 90:0 91:0 92:0.18417528 93:0 94:0.58273757 95:0.79146153 96:0 97:0 98:0 99:0.020388344 100:0.56193513 101:0.71629328 102:0.4131026 103:0 104:0 105:0 106:0.02981616 107:0.40052822 108:0.85832173 109:0.31924698 110:0 111:0 
-0.4365744823506041 0.3089144074342249 0.3870421316593279 0.5075587395721987 0.4102451626410803 0.3721522841360443 0.3868636778218776 0.1876361864768947 0.2555010778396869 0.3297437227236296 0.4290074076167459 0.230479069891479 0.4030622039657458 0.2871682433340734 0.3924745279658146 0.3561097801297582 0:0 1:0.047598541 2:0 3:0.3099215 4:0.94956005 5:0 6:0 7:0 8:0.99690223 9:0 10:0 11:0.078537941 12:0 13:0 14:0 15:0.15148254 16:0 17:0.97590971 18:0.15687723 19:0 20:0 21:0 22:0.1074779 23:0.22934094 24:0.95432705 25:0.15838644 26:0 27:0 28:0 29:0.99869549 30:0 31:0 32:0.050724976 33:0 34:0 35:0 36:0.14086215 37:0 38:0.72500497 39:0.67416137 40:0 41:0 42:0 43:0.48667231 44:0.016825885 45:0.76048553 46:0.42953542 47:0 48:0 49:0 50:0.18312341 51:0.0037918673 52:0.95714217 53:0.2243053 54:0 55:0 56:0 57:0.48834136 58:0 59:0.66272879 60:0.56768519 61:0 62:0 63:0 64:0.40405914 65:0 66:0.76095724 67:0.50757891 68:0 69:0 70:0 71:0.18823007 72:0.066580772 73:0.59926385 74:0.77524185 75:0 76:0 77:0 78:0.92204612 79:0.0087436391 80:0.30078796 81:0.2434471 82:0 83:0 84:0 85:0 86:0 87:0.83049107 88:0.55700868 89:0 90:0 91:0 92:0.26079598 93:0 94:0.75048804 95:0.60722989 96:0 97:0 98:0 99:0.92013216 100:0 101:0.11810273 102:0.37333831 103:0 104:0 105:0 106:0.2021075 107:0.059454184 108:0.57061148 109:0.79372597 110:0 111:0 
-0.5764721094583409 0.3669227978042192 0.6350602941721476 0.4228883076834439 0.6613461643289605 0.6901972979780322 0.6705778563946648 0.2148759956918024 0.3971731588201405 0.9342101036306864 0.5285977969964002 0.2763998907760171 0.8665191849722937 0.6555477816542832 0.3870478469100372 0.4812788956082024 0:0 1:0.27658606 2:0.16516232 3:0.47251022 4:0.82030547 5:0 6:0 7:0 8:0.49792004 9:0 10:0.55665189 11:0.66496241 12:0 13:0 14:0 15:0.61897612 16:0.25837746 17:0.11702991 18:0.73236215 19:0 20:0 21:0 22:0.66207701 23:0.18838577 24:0.16720864 25:0.70580268 26:0 27:0 28:0 29:0.7625069 30:0.048742831 31:0.56371504 32:0.31367424 33:0 34:0 35:0 36:0.24136664 37:0.16398226 38:0.94807583 39:0.12620111 40:0 41:0 42:0 43:0.72167814 44:0.4317556 45:0.38744846 46:0.37763813 47:0 48:0 49:0 50:0.52155346 51:0.6191321 52:0.54485983 53:0.21846411 54:0 55:0 56:0 57:0.78342211 58:0.18924865 59:0.16999844 60:0.56700301 61:0 62:0 63:0 64:0.29846004 65:0.36403409 66:0.56068081 67:0.68115968 68:0 69:0 70:0 71:0.42973262 72:0.3851009 73:0.60118502 74:0.55272245 75:0 76:0 77:0 78:0.82491988 79:0.34736028 80:0.36551082 81:0.25534311 82:0 83:0 84:0 85:0.61465162 86:0.11593573 87:0.6420719 88:0.44321898 89:0 90:0 91:0 92:0.76870388 93:0.057833176 94:0.32500252 95:0.54774833 96:0 97:0 98:0 99:0.3332279 100:0.25067419 101:0.43890202 102:0.79587865 103:0 104:0 105:0 106:0.043748729 107:0 108:0.46150631 109:0.88602144 110:0 111:0 
-0.01345288634602845 0 0 0 0 0 0 0 0 0.181066695879186 0 0 0 0 0 0 0:0 1:0.36495605 2:0.46578884 3:0.49453703 4:0.63657743 5:0 6:0 7:0 8:0 9:0.03046562 10:0.57829756 11:0.81521624 12:0 13:0 14:0 15:0.086258464 16:0.086850248 17:0.56449705 18:0.81628937 19:0 20:0 21:0 22:0.25071394 23:0.51616073 24:0.38806608 25:0.72117919 26:0 27:0 28:0 29:0.76764268 30:0.25337392 31:0.28254077 32:0.51639593 33:0 34:0 35:0 36:0.21249431 37:0.30642754 38:0.48821154 39:0.78901798 40:0 41:0 42:0 43:0.25462732 44:0.47385359 45:0.69572467 46:0.47597674 47:0 48:0 49:0 50:0.24346639 51:0.68147284 52:0.68900281 53:0.039656162 54:0 55:0 56:0 57:0.55572677 58:0.2001904 59:0.25810245 60:0.76448601 61:0 62:0 63:0 64:0.13970302 65:0.099749848 66:0.33349529 67:0.92697495 68:0 69:0 70:0 71:0.25874519 72:0.4830628 73:0.72117269 74:0.42376265 75:0 76:0 77:0 78:0.44457829 79:0.38845396 80:0.80424154 81:0.068008751 82:0 83:0 84:0 85:0.75587457 86:0.27477357 87:0.26644048 88:0.53114849 89:0 90:0 91:0 92:0 93:0 94:0.26617464 95:0.96390563 96:0 97:0 98:0 99:0.082245901 100:0.16090707 101:0.19568507 102:0.96385688 103:0 104:0 105:0 106:0.12261074 107:0.47205818 108:0.74798125 109:0.45013568 110:0 111:0 
-0.8366859358458032 0.5207035306427945 0.6495268859537954 0.742503208203616 0.6805940837160622 0.6669296564115845 0.660068449949254 0.3080712998114479 0.4320176466131026 0.5426080937506699 0.7472646060567092 0.3980523174045725 0.6281194047811404 0.4966178869461944 0.6679114567041723 0.6265695872131143 0:0 1:0 2:0 3:0.37561139 4:0.92675024 5:0 6:0 7:0 8:0.99924725 9:0 10:0.034671519 11:0.016426533 12:0 13:0 14:0 15:0.33267087 16:0 17:0.15445924 18:0.93026769 19:0 20:0 21:0 22:0.14163378 23:0.056535382 24:0.67148656 25:0.72511703 26:0 27:0 28:0 29:0.99937826 30:0 31:0 32:0.034790613 33:0 34:0 35:0 36:0.21649541 37:0.30265635 38:0.46202084 39:0.80498147 40:0 41:0 42:0 43:0.45829457 44:0.097516753 45:0.24988912 46:0.84733158 47:0 48:0 49:0 50:0.34288153 51:0.064513035 52:0.37825635 53:0.85740525 54:0 55:0 56:0 57:0.44256732 58:0 59:0.40853778 60:0.79821587 61:0 62:0 63:0 64:0.52690643 65:0.10924409 66:0.47258607 67:0.69789088 68:0 69:0 70:0 71:0.14372255 72:0.20092131 73:0.68016267 74:0.69014955 75:0 76:0 77:0 78:0.96420968 79:0.039461076 80:0.071493074 81:0.25219384 82:0 83:0 84:0 85:0 86:0 87:0.3144806 88:0.94923735 89:0 90:0 91:0 92:0.25692865 93:0 94:0.24054733 95:0.93598944 96:0 97:0 98:0 99:0.95626503 100:0 101:0.00065341912 102:0.29244694 103:0 104:0 105:0 106:0.076534159 107:0.026909057 108:0.83821458 109:0.53922743 110:0 111:0 
-1 0.5204754295052495 0.8605194190309137 0.4715426211259433 0.9017704995165403 1 0.9368792094508593 0.9106457069161319 1 0.6574389023232222 1 0.8863872987033683 1 0.7302269585006769 0.7062610616444898 0.9990342473971476 0:0 1:0.19371676 2:0.23135209 3:0.62922102 4:0.71619982 5:0 6:0 7:0 8:0.4060933 9:0.0051772431 10:0.30272225 11:0.86214596 12:0 13:0 14:0 15:0.58050424 16:0.1580615 17:0.031124478 18:0.79811233 19:0 20:0 21:0 22:0.86213028 23:0.28339404 24:0.20411505 25:0.36697078 26:0 27:0 28:0 29:0.66664207 30:0.1903674 31:0.26223564 32:0.6712181 33:0 34:0 35:0 36:0.41563058 37:0.37819082 38:0.13433048 39:0.81613839 40:0 41:0 42:0 43:0.92959958 44:0.12930562 45:0.29614365 46:0.17703491 47:0 48:0 49:0 50:0.77708924 51:0.22009636 52:0.51368147 53:0.28941542 54:0 55:0 56:0 57:0.91630101 58:0.21033895 59:0.25206298 60:0.22927926 61:0 62:0 63:0 64:0.77659923 65:0.006675241 66:0.1055074 67:0.62099653 68:0 69:0 70:0 71:0.89755845 72:0.27044863 73:0.27718252 74:0.21058786 75:0 76:0 77:0 78:0.75014281 79:0.5073812 80:0.28160635 81:0.31698233 82:0 83:0 84:0 85:0.70406741 86:0.034651447 87:0.24233939 88:0.66656554 89:0 90:0 91:0 92:0.49248353 93:0.22533567 94:0.11147624 95:0.83315253 96:0 97:0 98:0 99:0.68148416 100:0.0043407758 101:0.28650513 102:0.67335391 103:0 104:0 105:0 106:0.36437517 107:0.46536395 108:0.57610029 109:0.5645411 110:0 111:0 
-1 1 1 1 1 1 1 1 1 1 1 1 1 1 1 1 0:0 1:0.99319935 2:0.097544052 3:0.063301444 4:0 5:0 6:0 7:0 8:0.9961167 9:0 10:0.080081336 11:0.035872363 12:0 13:0 14:0 15:0.83710521 16:0.030489244 17:0.017109793 18:0.54586953 19:0 20:0 21:0 22:0.93820179 23:0.16641419 24:0.28123015 25:0.11372912 26:0 27:0 28:0 29:0.9999854 30:0 31:0 32:0 33:0 34:0 35:0 36:0.62919027 37:0 38:0.73434871 39:0.25446078 40:0 41:0 42:0 43:0.92771786 44:0.17003654 45:0.28514221 46:0.17055419 47:0 48:0 49:0 50:0.90086985 51:0.084499151 52:0.27910301 53:0.32146949 54:0 55:0 56:0 57:0.99998838 58:0 59:0 60:0 61:0 62:0 63:0 64:0.97993261 65:0 66:0.037182815 67:0.19572036 68:0 69:0 70:0 71:0.59148514 72:0.096766889 73:0.77745497 74:0.19049865 75:0 76:0 77:0 78:0.90573943 79:0.22357252 80:0.26470336 81:0.24399774 82:0 83:0 84:0 85:0.99973059 86:0.019792475 87:0.01052341 88:0 89:0 90:0 91:0 92:0.97558177 93:0 94:0.16592559 95:0.1436622 96:0 97:0 98:0 99:0.87819076 100:0.30941615 101:0.04663993 102:0.36169305 103:0 104:0 105:0 106:0.51944351 107:0.1576573 108:0.83890682 109:0.037723582 110:0 111:0 
-0.4951460878118475 0.2798984490423866 0.3816552804630654 0.4835267611676091 0.3678282699042877 0.3429451451454216 0.394954171771575 0.1678774190829302 0.2260883950657489 0.3409407956317212 0.3965899311960872 0.2185084625289094 0.3912875192781071 0.3280698235138756 0.3459255909879801 0.3187558447681821 0:0 1:0 2:0 3:0.54631251 4:0.83756274 5:0 6:0 7:0 8:0.29841515 9:0 10:0.20112285 11:0.93299437 12:0 13:0 14:0 15:0.41438714 16:0 17:0.83638251 18:0.35874358 19:0 20:0 21:0 22:0.25275257 23:0 24:0.85476261 25:0.45329481 26:0 27:0 28:0 29:0.91390759 30:0 31:0.0074118162 32:0.40578109 33:0 34:0 35:0 36:0.013119826 37:0 38:0.92314786 39:0.38415343 40:0 41:0 42:0 43:0.25863454 44:0.45102873 45:0.58787823 46:0.61972165 47:0 48:0 49:0 50:0.23656072 51:0.31643617 52:0.89434785 53:0.2098372 54:0 55:0 56:0 57:0.46800917 58:0 59:0.67154694 60:0.57439965 61:0 62:0 63:0 64:0.55874991 65:0 66:0.11409808 67:0.8214165 68:0 69:0 70:0 71:0.005835935 72:0.40880623 73:0.75417125 74:0.51385397 75:0 76:0 77:0 78:0.36717042 79:0.29271573 80:0.71212626 81:0.52188408 82:0 83:0 84:0 85:0.01221562 86:0 87:0.7098524 88:0.70422131 89:0 90:0 91:0 92:0.18257892 93:0 94:0.63546145 95:0.7502203 96:0 97:0 98:0 99:0.52147311 100:0 101:0.15145397 102:0.8396939 103:0 104:0 105:0 106:0.21080568 107:0 108:0.77544582 109:0.59516805 110:0 111:0 
-0.08570302008279436 0.07833382736836719 0.08159603474829868 0.09468792448904043 0.09416402799135683 0.09713872632030658 0.09672245333364271 0.05177764614563923 0.0653215123659891 0.07240070718340029 0.1098620648464974 0.05664980306637923 0.09705049099724035 0.08012856199044716 0.1030059532647559 0.08635705691698184 0:0 1:0.016817115 2:0 3:0.35665739 4:0.93407011 5:0 6:0 7:0 8:0.99389774 9:0 10:0.0082356948 11:0.10991286 12:0 13:0 14:0 15:0.16828811 16:0 17:0.97961009 18:0.10956163 19:0 20:0 21:0 22:0.013912008 23:0.35879833 24:0.87159604 25:0.33371267 26:0 27:0 28:0 29:0.99885714 30:0 31:0 32:0.047488131 33:0 34:0 35:0 36:0.17793672 37:0.14101684 38:0.44563302 39:0.86592555 40:0 41:0 42:0 43:0.41981977 44:0.16330956 45:0.84509605 46:0.28786659 47:0 48:0 49:0 50:0.1784995 51:0.13345104 52:0.89255536 53:0.39198431 54:0 55:0 56:0 57:0.36372599 58:0 59:0.85684317 60:0.36534271 61:0 62:0 63:0 64:0.34594291 65:0.17832513 66:0.64046836 67:0.66203111 68:0 69:0 70:0 71:0.091334783 72:0.16685688 73:0.94877511 74:0.25223747 75:0 76:0 77:0 78:0.89762175 79:0.099837236 80:0.35270566 81:0.24472441 82:0 83:0 84:0 85:0 86:0 87:0.92827123 88:0.37186396 89:0 90:0 91:0 92:0.20074157 93:0 94:0.83693486 95:0.50913399 96:0 97:0 98:0 99:0.86308652 100:0 101:0.11424523 102:0.49193931 103:0 104:0 105:0 106:0.079326443 107:0.13339935 108:0.90285385 109:0.40093204 110:0 111:0 
-0.4441222384405992 0.3479640053312767 0.38894699007928 0.4700921960520926 0.4155345303778816 0.4407563095409553 0.3736709743103915 0.1797227417298424 0.2355111526050418 0.8781643969441326 0.5330352535735463 0.2546822243362838 0.6008730553918975 0.2911467234733017 0.5069511708379505 0.3728679276230142 0:0 1:0.28007418 2:0.4578765 3:0.61132348 4:0.58149725 5:0 6:0 7:0 8:0 9:0.14023076 10:0.65841413 11:0.73944068 12:0 13:0 14:0 15:0 16:0.39422667 17:0 18:0.91899168 19:0 20:0 21:0 22:0.31669047 23:0.35508555 24:0.49892959 25:0.72433543 26:0 27:0 28:0 29:0.50026667 30:0.67127794 31:0.42211485 32:0.34771591 33:0 34:0 35:0 36:0.18523681 37:0.35817191 38:0.5099715 39:0.75979173 40:0 41:0 42:0 43:0.17225946 44:0.74280477 45:0.2248366 46:0.60660833 47:0 48:0 49:0 50:0.21185252 51:0.87097788 52:0.426687 53:0.12013592 54:0 55:0 56:0 57:0.61236048 58:0.40902442 59:0.65136057 60:0.18278153 61:0 62:0 63:0 64:0.21270578 65:0.56598121 66:0.39778644 67:0.69003236 68:0 69:0 70:0 71:0.14032865 72:0.90200669 73:0.072703414 74:0.4017106 75:0 76:0 77:0 78:0.34245086 79:0.78949189 80:0.47654477 81:0.17975126 82:0 83:0 84:0 85:0.517452 86:0.37765563 87:0.72786564 88:0.24451923 89:0 90:0 91:0 92:0 93:0.1076693 94:0.55762863 95:0.82304597 96:0 97:0 98:0 99:0 100:0.28855437 101:0 102:0.95744407 103:0 104:0 105:0 106:0.056415971 107:0.57708549 108:0.41097075 109:0.70346624 110:0 111:0 
-0.04471576644449217 0 0 0 0 0 0 0 0 0 0 0 0 0 0 0 0:0 1:0 2:0.0010624253 3:0.50200349 4:0.86484617 5:0 6:0 7:0 8:0.82453799 9:0 10:0.035751946 11:0.56465715 12:0 13:0 14:0 15:0.52375227 16:0 17:0.22900017 18:0.82048804 19:0 20:0 21:0 22:0.14227693 23:0.074197516 24:0.74279028 25:0.64999032 26:0 27:0 28:0 29:0.9999885 30:0 31:0 32:0 33:0 34:0 35:0 36:0.1322377 37:0.084966041 38:0.63050759 39:0.76007622 40:0 41:0 42:0 43:0.33371234 44:0.11524468 45:0.58421469 46:0.7307682 47:0 48:0 49:0 50:0.20519735 51:0.072174422 52:0.79541999 53:0.56565946 54:0 55:0 56:0 57:0.59932983 58:0 59:0.75275606 60:0.27223966 61:0 62:0 63:0 64:0.35919097 65:0.096574798 66:0.57034338 67:0.73234367 68:0 69:0 70:0 71:0.16538733 72:0.078243263 73:0.61501592 74:0.76698154 75:0 76:0 77:0 78:0.65317392 79:0.076673374 80:0.30415577 81:0.68917131 82:0 83:0 84:0 85:0 86:0 87:0.74588388 88:0.66605145 89:0 90:0 91:0 92:0.14779301 93:0 94:0.62562555 95:0.7659806 96:0 97:0 98:0 99:0.82728428 100:0 101:0.17328443 102:0.53436774 103:0 104:0 105:0 106:0.11553129 107:0.12496848 108:0.90136248 109:0.39819005 110:0 111:0 
-0.2290472980792481 0.1859824353444804 0.3631496608191739 0.2839651367504565 0.2315909324015019 0.2187518704159751 0.3495362966459035 0.07870760157567432 0.127042063493445 0.7157605569916046 0.4399043205331849 0.1241459769513492 0.60600495046805 0.2391245058358882 0.2329241576169891 0.3359263540217129 0:0 1:0.41761911 2:0.4983719 3:0.20602663 4:0.7312299 5:0 6:0 7:0 8:0.62829328 9:0.033804171 10:0.0011493738 11:0.77716959 12:0 13:0 14:0 15:0.14497036 16:0.30012605 17:0.40794745 18:0.84996057 19:0 20:0 21:0 22:0.58448672 23:0.22382788 24:0.47293296 25:0.62014097 26:0 27:0 28:0 29:0.89607018 30:0.22503899 31:0.12763074 32:0.36067188 33:0 34:0 35:0 36:0.061628055 37:0.53831917 38:0.30135834 39:0.78455937 40:0 41:0 42:0 43:0.23290902 44:0.62573391 45:0.65168113 46:0.359813 47:0 48:0 49:0 50:0.48329303 51:0.47662389 52:0.70959991 53:0.18893278 54:0 55:0 56:0 57:0.69932657 58:0.26664019 59:0 60:0.66317141 61:0 62:0 63:0 64:0.24489845 65:0.34676096 66:0.096972592 67:0.90018719 68:0 69:0 70:0 71:0.14469163 72:0.46335375 73:0.77261698 74:0.40912771 75:0 76:0 77:0 78:0.55898416 79:0.60432249 80:0.55077243 81:0.13764755 82:0 83:0 84:0 85:0.83927631 86:0.47726399 87:0 88:0.26032957 89:0 90:0 91:0 92:0.01305922 93:0.098070614 94:0 95:0.99506956 96:0 97:0 98:0 99:0.093660414 100:0.20333503 101:0.20896074 102:0.95193058 103:0 104:0 105:0 106:0.33981729 107:0.40116066 108:0.72747809 109:0.44082114 110:0 111:0 
-0.9858605671346556 0.3898301007409445 0.7087970328357373 0.5719881509412451 0.8308024683884813 0.96083963537559 0.4754718257428788 0.1674627723730597 0.2693817912717915 1 1 0.2864954900306175 1 0.6303063062011496 0.6201544769865767 0.4126006662000387 0:0 1:0.28485724 2:0 3:0.90255558 4:0.32270727 5:0 6:0 7:0 8:0.39296404 9:0 10:0.22496346 11:0.89159101 12:0 13:0 14:0 15:0.30716655 16:0.17607158 17:0 18:0.9351989 19:0 20:0 21:0 22:0.44409624 23:0.50321674 24:0.48253363 25:0.56274742 26:0 27:0 28:0 29:0.40918824 30:0.31695113 31:0.68773514 32:0.50899106 33:0 34:0 35:0 36:0.090759873 37:0.24186754 38:0.85298729 39:0.45347574 40:0 41:0 42:0 43:0.43981016 44:0.27841267 45:0.46622062 46:0.71528679 47:0 48:0 49:0 50:0.66999328 51:0.36623544 52:0.55949599 53:0.32235593 54:0 55:0 56:0 57:0.35223192 58:0.23386104 59:0.80143762 60:0.42297307 61:0 62:0 63:0 64:0.49414352 65:0.22285198 66:0.761585 67:0.35511756 68:0 69:0 70:0 71:0.06686835 72:0.3923209 73:0.34188786 74:0.85127473 75:0 76:0 77:0 78:0.40327454 79:0.34269038 80:0.61884141 81:0.58047014 82:0 83:0 84:0 85:0.98509294 86:0 87:0.17182298 88:0.0013835167 89:0 90:0 91:0 92:0.67769724 93:0 94:0.59473491 95:0.43239743 96:0 97:0 98:0 99:0.23203543 100:0 101:0.25949752 102:0.93742853 103:0 104:0 105:0 106:0.26859546 107:0.33543473 108:0.52145135 109:0.73715913 110:0 111:0 
