svm_type c_svc
kernel_type rbf
gamma 0.5
nr_class 17
total_sv 846
rho -0.475788 -0.828551 -0.679548 0.054226 -0.686324 -0.662801 -0.25461 -0.803153 -0.565253 -0.642849 -0.411169 -0.462235 -0.527664 -0.686932 -0.377124 -0.356864 -0.506567 -0.351874 0.316325 -0.26693 -0.163194 0.166243 -0.521052 -0.207828 -0.302943 -0.027899 -0.106112 -0.141309 -0.17471 -0.128342 -0.175732 0.524048 0.694843 0.251065 0.374873 0.896925 0.847946 0.667893 0.30985 0.698032 0.442176 0.513795 0.413542 0.686523 0.499396 0.623442 0.416349 0.0500295 0.729181 0.0707995 0.219548 0.257053 0.744114 0.168489 0.132468 0.266551 0.608543 0.750112 -0.499382 -0.521885 -0.251196 -0.692902 -0.487545 -0.56049 -0.328657 -0.347794 -0.371248 -0.499976 -0.373278 -0.386546 -0.339697 0.321169 0.191586 0.10195 0.0575271 0.334903 -0.178057 -0.215562 -0.274383 0.320545 0.32177 0.611736 0.118772 0.520416 0.842755 0.615208 -0.0503245 0.0866113 0.00733259 0.542191 0.590385 -0.583807 -0.534887 -0.580665 -0.266065 -0.222252 -0.332114 -0.41851 -0.0849041 -0.159584 0.226341 -0.12434 0.33675 0.152797 0.138293 0.126626 0.47412 0.189224 -0.166873 0.0858128 0.0211437 -0.110057 -0.0642649 0.221555 -0.010636 0.118741 0.0598435 0.139531 -0.140824 0.413136 0.142934 -0.342993 -0.0981347 -0.32158 0.0844512 -0.0107672 -0.314799 -0.196746 0.271294 0.170244 -0.0141756 0.256903 0.357086 0.367637 0.497322 -0.085815
label 0 1 2 3 4 5 6 7 8 9 10 11 12 13 14 15 16
nr_sv 53 40 55 50 40 46 55 38 55 55 53 55 49 47 45 55 55
SV
1 0 0.164106905581326 0.980021638692382 0.3267834089062036 0.2195470489252573 0.3965997919823915 0.4981467961848202 0.1808657818745881 0.2360067281564053 0.5401309348674233 0.3709408072988375 0.5212033413162296 0.5355579008729059 0.5165291287777447 0.7427283323118828 0:0 1:0.20026974 2:0.094260834 3:0.086407997 4:0.14185047 5:0.94367182 6:0.17093332 7:0.040592793 8:0.045099095 9:0 10:0 11:0.47862288 12:0.12870646 13:0.11790029 14:0.1936913 15:0.80385435 16:0.21285531 17:0.079883598 18:0.071163319 19:0 20:0 21:0.3810274 22:0.2191806 23:0.29088616 24:0.31427839 25:0.46519101 26:0.40830696 27:0.38602388 28:0.30208355 29:0 30:0 31:0.49843261 32:0.079211548 33:0.029719466 34:0.10084817 35:0.83027983 36:0.15664771 37:0.11761202 38:0.080606483 39:0 40:0 41:0.90041995 42:0.21453339 43:0.1440562 44:0.087818183 45:0.3292045 46:0.051703099 47:0.040776387 48:0.045166321 49:0 50:0 51:0.57067645 52:0.17660265 53:0.14116265 54:0.17480335 55:0.71592879 56:0.25835618 57:0.088334516 58:0.074471451 59:0 60:0 61:0.29618272 62:0.033257443 63:0.031306189 64:0.037579671 65:0.95062643 66:0.031884372 67:0.049919441 68:0.039683662 69:0 70:0 71:0.87071091 72:0.0047233775 73:0.030375997 74:0.0005564348 75:0.4908213 76:0.00030497985 77:0.0025674661 78:0.0013154215 79:0 80:0 81:0.58825076 82:0.1564911 83:0.086565651 84:0.10262928 85:0.76019818 86:0.092296049 87:0.13333818 88:0.085063249 89:0 
0 0 0 0.4939258622128538 0 0 0 0 0 0 0 0 0 0 0.02356781539071305 0 0:0 1:0.0030543078 2:0 3:0.00032496633 4:0.020169377 5:0.99972689 6:0.010819039 7:0.0011092322 8:0 9:0 10:0 11:0.99999833 12:0 13:0 14:0.00019551776 15:0.0013496862 16:1.5854719e-05 17:0.00011959681 18:0 19:0 20:0 21:0.99999875 22:0 23:0 24:0 25:0 26:0 27:0 28:0 29:0 30:0 31:0.0015489715 32:0.0002412021 33:0.0015971698 34:0.010467402 35:0.99990779 36:0.0081553711 37:0.00074470753 38:0.00050466374 39:0 40:0 41:0.93203056 42:0 43:0.0044983448 44:0.011353531 45:0.36083651 46:0.0076685981 47:0.027386373 48:0.012516384 49:0 50:0 51:0.99999273 52:0 53:0.00016154385 54:0.0001820686 55:0.0036734969 56:9.4992363e-05 57:0.00018843183 58:0 59:0 60:0 61:0.57441229 62:6.0177797e-05 63:0.0019426368 64:0.02495639 65:0.81353027 66:0.069647394 67:0.047529716 68:0.021889193 69:0 70:0 71:0.737782 72:0 73:0.0010138347 74:0.0041015078 75:0.67499554 76:0.0061510839 77:0.0004240328 78:0.00045932442 79:0 80:0 81:0.99999934 82:0 83:0 84:0 85:1.7949198e-05 86:0 87:0 88:0 89:0 
0 0 0 0 1 0 0 0 0 0 0 0 0 0 0 0 0:0 1:0.7110002 2:0.024277063 3:0.028381672 4:0.043292642 5:0.69557607 6:0.06819696 7:0.046331402 8:0.024148677 9:0 10:0 11:0.92329711 12:0.028718833 13:0.048933823 14:0.03326023 15:0.37348303 16:0.030020472 17:0.050516896 18:0.015891619 19:0 20:0 21:0.9999994 22:0 23:0 24:0 25:0 26:0 27:0 28:0 29:0 30:0 31:0.99490112 32:0.0063480567 33:0 34:0.00078926951 35:0.098302528 36:0.018583531 37:0.0057227472 38:0.0093917316 39:0 40:0 41:0.97114056 42:0.0050752377 43:0.010608969 44:0.021212786 45:0.23444715 46:0.025174696 47:0.018139862 48:0.019187329 49:0 50:0 51:0.9904601 52:0.010322483 53:0.0004394252 54:0.010138926 55:0.13040729 56:0.015419889 57:0.038714744 58:0.0058504376 59:0 60:0 61:0.99999928 62:0 63:0 64:0 65:0 66:0 67:0 68:0 69:0 70:0 71:0.99982154 72:0.010167611 73:2.954266e-05 74:0.0077584642 75:0.0052881078 76:0 77:0.010181177 78:0.0077584814 79:0 80:0 81:0.99468136 82:0.011507495 83:0.055305712 84:0.00017309545 85:0.06044719 86:0.055305712 87:0.023749981 88:0.01162556 89:0 
1 0 0.259109873627305 0.6296951396478188 0 0.4612887723081517 1 0 0 0.9837842264180365 1 1 1 0.779682710809889 0.4770908872863092 1 0:0 1:0.45983064 2:0.34263504 3:0.33630899 4:0.33662084 5:0.53756815 6:0.3572129 7:0.14815287 8:0.078771688 9:0 10:0 11:0.94630373 12:0.074563444 13:0.064138196 14:0.086195908 15:0.086330175 16:0.10635177 17:0.18832327 18:0.182136 19:0 20:0 21:0.97413933 22:0.11283771 23:0.029304061 24:0.029762827 25:0.063059807 26:0.035062555 27:0.055199966 28:0.16828568 29:0 30:0 31:0.95091838 32:0.037967008 33:0.14712474 34:0.1538548 35:0.19558278 36:0.049508862 37:0.082645886 38:0.038198844 39:0 40:0 41:0.19707359 42:0.16098304 43:0.11208245 44:0.18879205 45:0.79013097 46:0.16003847 47:0.40988779 48:0.26286572 49:0 50:0 51:0.89018869 52:0.28922343 53:0.11992883 54:0.071858197 55:0.24128877 56:0.084696226 57:0.15207744 58:0.1258653 59:0 60:0 61:0.99229175 62:0.033939619 63:0.041279845 64:0.081507713 65:0.050224502 66:0.037543252 67:0.028593173 68:0.033261124 69:0 70:0 71:0.97087842 72:0.13422479 73:0.082850203 74:0.063296355 75:0.12837073 76:0.090972468 77:0.046393596 78:0.039970741 79:0 80:0 81:0.50342685 82:0.28090128 83:0.28117353 84:0.41022137 85:0.57825273 86:0.22686738 87:0.145308 88:0.11554612 89:0 
0 0 0 0 1 0 0 0 0 0 0 0 0 0 0 0 0:0 1:0.68662083 2:0.0035612069 3:0.015487994 4:0.020634757 5:0.72287136 6:0.061370604 7:0.033763073 8:0.02055225 9:0 10:0 11:0.9598043 12:0.01711772 13:0.035811912 14:0.038378321 15:0.2687051 16:0.054756891 17:0.018662725 18:0.013304655 19:0 20:0 21:0.99983054 22:0 23:0.017472662 24:0.0047404882 25:0.003115634 26:0.00025654328 27:0 28:4.1531053e-05 29:0 30:0 31:0.95254779 32:0.00050197612 33:0.00027076592 34:0.00056503614 35:0.30390987 36:0.017018093 37:0.00023110129 38:5.9032845e-05 39:0 40:0 41:0.99252653 42:0.00025944691 43:0.0022161519 44:3.7162805e-05 45:0.12175009 46:0.0016644292 47:0.0053880801 48:0.0054976596 49:0 50:0 51:0.99999046 52:0 53:0.00053253432 54:0.00057057379 55:0.0038418653 56:0.0013693777 57:0.00019019126 58:0.00053253607 59:0 60:0 61:0.99999398 62:3.1612959e-05 63:0 64:0.0001904417 65:0.0032702663 66:0.00020272157 67:0 68:0 69:0 70:0 71:0.99999934 72:0 73:0 74:0 75:0 76:0 77:0 78:0 79:0 80:0 81:0.99995452 82:0 83:0.0017091612 84:0.0082609784 85:0.0028486156 86:0.00056971965 87:0 88:0 89:0 
0.2865858292603966 0 0 0 0 0.1581208281726511 0.6153959552374698 0 0 0 0 0 0 0 0 0 0:0 1:0.61939979 2:0.10251758 3:0.14981748 4:0.23675293 5:0.64803535 6:0.24494117 7:0.19362482 8:0.099483229 9:0 10:0 11:0.97668153 12:0.0025388699 13:0.013371769 14:0.0046689678 15:0.15376222 16:0.079152279 17:0.10345242 18:0.072624624 19:0 20:0 21:0.96054631 22:0.047792107 23:0.1724533 24:0.056402393 25:0.15250237 26:0.057686348 27:0.12118939 28:0.029528202 29:0 30:0 31:0.8800543 32:0.024725664 33:0.17679302 34:0.15563089 35:0.40565288 36:0.01930392 37:0.058169514 38:0.03322611 39:0 40:0 41:0.95901078 42:0.0048828195 43:0.0038244973 44:0.0095683206 45:0.27397394 46:0.037080895 47:0.053320203 48:0.029784266 49:0 50:0 51:0.99254906 52:0.053431429 53:0.063668169 54:0.036562342 55:0.080184683 56:0.0073779454 57:0.010666706 58:0.0012937966 59:0 60:0 61:0.997024 62:0.022799477 63:0.024012608 64:0.0160832 65:0.031501777 66:0.022839446 67:0.048397124 68:0.027032061 69:0 70:0 71:0.59016198 72:0.021486439 73:0.049016908 74:0.078102939 75:0.71111077 76:0.19264087 77:0.28776366 78:0.13093947 79:0 80:0 81:0.92867213 82:0.0248792 83:0.14536197 84:0.15853468 85:0.2888999 86:0.071788289 87:0.045445006 88:0.00148875 89:0 
0 0 0 0 1 0 0 0 0 0 0 0 0 0 0 0 0:0 1:0.33595321 2:0.019685015 3:0.020377541 4:0.097057916 5:0.92162597 6:0.16198164 7:0.030071041 8:0.019335641 9:0 10:0 11:0.68100154 12:0.040471956 13:0.082424365 14:0.069267087 15:0.7021327 16:0.14615186 17:0.087786116 18:0.03078834 19:0 20:0 21:0.97103488 22:0.038556278 23:0.074639313 24:0.040688291 25:0.15846351 26:0.094018906 27:0.11241351 28:0.042301368 29:0 30:0 31:0.88460261 32:0.010823625 33:0.0048912475 34:0.039516378 35:0.45655966 36:0.066307127 37:0.046039183 38:0.028473252 39:0 40:0 41:0.99787575 42:0.0068633943 43:0.0068989154 44:0.018370183 45:0.058933441 46:0.017643837 47:0.0011612454 48:0.0049526975 49:0 50:0 51:0.98594433 52:0.0150927 53:0.045968991 54:0.016915781 55:0.15400051 56:0.031207912 57:0.020880498 58:0.012605917 59:0 60:0 61:0.99782455 62:0.0083073219 63:0.0078707607 64:0.015509127 65:0.046202041 66:0.022001492 67:0.022386068 68:0.029201211 69:0 70:0 71:0.99999923 72:0 73:0 74:0 75:0 76:0 77:0 78:0 79:0 80:0 81:0.98814958 82:0 83:0.0011110419 84:0.033159558 85:0.12586406 86:0.078449875 87:0.019533321 88:0.0088272104 89:0 
0 0 1 0 1 0 0 0 0.2023949994290767 0 0 0 0 0 0 0.1318493958284626 0:0 1:0.81733835 2:0.012495429 3:0.025199478 4:0.01165092 5:0.57072586 6:0.056340449 7:0.043536596 8:0.015196215 9:0 10:0 11:0.89635265 12:0.0071437592 13:0.0082500102 14:0.02529387 15:0.44154024 16:0.025356025 17:0.011274168 18:0.0079770125 19:0 20:0 21:0.99988747 22:0 23:0 24:1.0297472e-05 25:0.01496633 26:1.0297472e-05 27:0 28:0 29:0 30:0 31:0.99999946 32:0 33:0 34:0 35:0 36:0 37:0 38:0 39:0 40:0 41:0.9815231 42:0.00010970611 43:0.0017295216 44:0.00071921031 45:0.1900959 46:0.017220065 47:0.012017655 48:0.005528192 49:0 50:0 51:0.983823 52:0.00097334321 53:0.00020277983 54:0 55:0.17913571 56:0 57:0 58:0 59:0 60:0 61:0.99999881 62:0 63:0 64:0 65:0 66:0 67:0 68:0 69:0 70:0 71:0.99999934 72:0 73:0 74:0 75:0 76:0 77:0 78:0 79:0 80:0 81:0.99999893 82:0 83:0 84:0 85:0 86:0 87:0 88:0 89:0 
0.1654641066304593 1 1 0 0 1 1 1 1 1 1 1 1 1 1 0.9777598007080657 0:0 1:0.81628633 2:0.13278492 3:0.21672237 4:0.26499426 5:0.37226474 6:0.15463458 7:0.18475479 8:0.047160026 9:0 10:0 11:0.99573559 12:0 13:0.0097745303 14:0.0083379196 15:0.034644615 16:0.044118457 17:0.063891962 18:0.033398341 19:0 20:0 21:0.99584943 22:0.040632773 23:0.030420693 24:0.0064051654 25:0.0043368386 26:0.013472398 27:0.026042249 28:0.069185562 29:0 30:0 31:0.97579032 32:0.039345261 33:0.14833573 34:0.12785506 35:0.086101696 36:0.022082202 37:0.005652409 38:0.00052124646 39:0 40:0 41:0.96677399 42:0 43:0.11777485 44:0.16749726 45:0.15246226 46:2.4823608e-05 47:0.013124593 48:0.0015581708 49:0 50:0 51:0.9914217 52:0.068338081 53:0.095850565 54:0.044947121 55:0.028227858 56:0.014657449 57:0.010145197 58:0.0094558429 59:0 60:0 61:0.9996112 62:0.011962071 63:0.014994862 64:0.0065612909 65:0.012977969 66:0.003028417 67:0.013705412 68:9.667447e-05 69:0 70:0 71:0.97114813 72:0.027136417 73:0.037084021 74:0.098255537 75:0.091032453 76:0.078714274 77:0.16014116 78:0.070541389 79:0 80:0 81:0.72015542 82:0.17803901 83:0.37347218 84:0.43985161 85:0.29129928 86:0.1433215 87:0.09985175 88:0.036846403 89:0 
1 1 1 1 1 1 1 1 1 1 1 1 1 1 1 1 0:0 1:0.9464879 2:0.0010955532 3:0.00074080337 4:0 5:0.31147641 6:0.03671537 7:0.070291355 8:0.029069984 9:0 10:0 11:0.99302524 12:0 13:0.0030921879 14:0.005310351 15:0.10079891 16:0.059325509 17:0.01341464 18:0 19:0 20:0 21:0.99765503 22:0.047480777 23:0.023752142 24:0.012078564 25:0.02330594 26:0.020497108 27:0.014246677 28:0.023454638 29:0 30:0 31:0.99248135 32:0 33:0.012926413 34:0.012389759 35:0.12025209 36:0.01349937 37:0.0037395007 38:0 39:0 40:0 41:0.98838019 42:0 43:0.00036866262 44:0 45:0.14784431 46:0.018271495 47:0.026951361 48:0.01351519 49:0 50:0 51:0.99927372 52:0.027278112 53:0.020617878 54:0.0081384042 55:0.014021331 56:2.9041152e-05 57:0 58:0.0041435827 59:0 60:0 61:0.99964672 62:8.4624713e-05 63:0.0085180542 64:0.0072876788 65:0.021511868 66:0.010703531 67:0 68:0 69:0 70:0 71:0.96386713 72:0 73:0.019041669 74:0.018251132 75:0.24577023 76:0.057504568 77:0.079639122 78:0.014398628 79:0 80:0 81:0.90628898 82:0.037394535 83:0.10625272 84:0.12604095 85:0.37590402 86:0.08501488 87:0.037563685 88:0.01089966 89:0 
1 0.9596947853092996 1 0 1 1 0.3885932573435415 1 1 1 1 1 1 1 1 1 0:0 1:0.71520013 2:0.23332021 3:0.19404086 4:0.25429553 5:0.40555525 6:0.19655782 7:0.31496957 8:0.17149751 9:0 10:0 11:0.97688466 12:0.0029824148 13:0.020081382 14:0.017107666 15:0.16664504 16:0.1095944 17:0.068769351 18:0.021899778 19:0 20:0 21:0.98191649 22:0.029663159 23:0.025473451 24:0.096858971 25:0.11079122 26:0.10984725 27:0.0213539 28:0.011452379 29:0 30:0 31:0.98762822 32:0.061898109 33:0.050676584 34:0.10377345 35:0.084457844 36:0.015834007 37:0.0060894527 38:0 39:0 40:0 41:0.95221233 42:0.0080499519 43:0.010426952 44:0.097004957 45:0.26931539 46:0.10315293 47:0.023139985 48:0 49:0 50:0 51:0.99289674 52:0.025157763 53:0.063910015 54:0.037299447 55:0.087083913 56:0.017221471 57:0.012875138 58:0.00067896891 59:0 60:0 61:0.99397582 62:0.024269441 63:0.031256333 64:0.028817171 65:0.075163387 66:0.042199332 67:0.046568599 68:0.0039576623 69:0 70:0 71:0.99134481 72:0.0099425074 73:0.010506281 74:0.030280123 75:0.098449387 76:0.052706558 77:0.052382261 78:0.029904503 79:0 80:0 81:0.97269422 82:0.069834284 83:0.083689548 84:0.060288053 85:0.14564174 86:0.079446554 87:0.081498832 88:0.064683355 89:0 
0 0 0 0 1 0 0 0 0 0 0 0 0 0 0 0 0:0 1:0.68446344 2:0 3:0 4:0 5:0.72739023 6:0.0063428842 7:0.013594448 8:0.046743914 9:0 10:0 11:0.95444363 12:0 13:0 14:0.004708732 15:0.29806024 16:0.00058702461 17:2.3358272e-05 18:0.013180619 19:0 20:0 21:0.99999952 22:0 23:0 24:0 25:5.7256388e-05 26:0 27:0 28:0 29:0 30:0 31:0.91022897 32:0 33:0 34:0.00056620484 35:0.413387 36:0.024338687 37:0 38:0 39:0 40:0 41:0.97670376 42:0 43:0 44:0 45:0.21450613 46:0 47:0.0031569086 48:0.0050899796 49:0 50:0 51:0.99759835 52:0 53:0 54:0.0014287283 55:0.069243118 56:9.5248557e-05 57:0 58:0 59:0 60:0 61:0.99999911 62:0 63:0 64:0 65:0 66:0 67:0 68:0 69:0 70:0 71:0.99999934 72:0 73:0 74:0 75:0 76:0 77:0 78:0 79:0 80:0 81:0.98739266 82:0 83:0 84:0 85:0.15801242 86:0.0092505366 87:0 88:0.00021027555 89:0 
1 0 0 0 0 0 0 0 0 0 0 0 1 0 0 0.1030939654526896 0:0 1:0.46671969 2:0.056211658 3:0.035072725 4:0.065907255 5:0.87497574 6:0.066580795 7:0.056868624 8:0.013493655 9:0 10:0 11:0.83747786 12:0.064387754 13:0.076179601 14:0.059102233 15:0.40878284 16:0.26085964 17:0.18928182 18:0.11917149 19:0 20:0 21:0.99713469 22:0.047648445 23:0.025698943 24:0.0068501998 25:0.031447098 26:0.012724807 27:0.014100597 28:0.037301354 29:0 30:0 31:0.96124679 32:0.0016929607 33:0.0062346687 34:0.023373298 35:0.26814806 36:0.03696933 37:0.046219319 38:5.5316587e-09 39:0 40:0 41:0.68865997 42:0.021208756 43:0.052353587 44:0.052759662 45:0.71551943 46:0.067638919 47:0.037523072 48:0.042639337 49:0 50:0 51:0.97921491 52:0.045824427 53:0.10206272 54:0.06884066 55:0.14287297 56:0.041922778 57:0.040759943 58:0.0068195588 59:0 60:0 61:0.99977058 62:6.702327e-10 63:0.011342041 64:0.00042831153 65:0.01492677 66:0.00012423754 67:0.0094252471 68:0.0036588844 69:0 70:0 71:0.98255622 72:0.00025366087 73:0.026312454 74:0.040654026 75:0.07299611 76:0.058000628 77:0.13547333 78:0.072023116 79:0 80:0 81:0.5553028 82:0.11767712 83:0.27825624 84:0.28766149 85:0.63626176 86:0.29491258 87:0.13547394 88:0.086326815 89:0 
0.2703753918094891 0 0.1699148149786124 0.4571399450178055 0.150372978210874 0.1454253766646086 0.4437920768778396 0.0919131612246487 0.2164844514896145 0.1485464726304023 0.3741857811944368 0.2275804922948571 0.2448013033432606 0.1811155699064384 0.2384796289114727 0.2210502925569795 0:0 1:0.11349784 2:0 3:0 4:0 5:0.99212497 6:0.014749277 7:0.022041136 8:0.045782182 9:0 10:0 11:0.80206627 12:0 13:0 14:0.001764698 15:0.59629357 16:0.00070947735 17:0.0089235008 18:0.032193739 19:0 20:0 21:0.99999803 22:0 23:0 24:0 25:0 26:0 27:0 28:0 29:0 30:0 31:0.062451944 32:0 33:0 34:0 35:0.99803573 36:0.00087325403 37:0.0023903679 38:0.0036519745 39:0 40:0 41:0.91101003 42:0 43:0 44:0 45:0.41222101 46:0.0077533806 47:0.0084137386 48:0 49:0 50:0 51:0.0036991122 52:0.014215232 53:0.024258098 54:0.016693547 55:0.99936402 56:0.013573381 57:0 58:0 59:0 60:0 61:0.013127917 62:0 63:0 64:0 65:0.99984068 66:0 67:0.0013744417 68:0.011534383 69:0 70:0 71:0.99996924 72:0 73:0 74:0 75:0.0041398546 76:0 77:0 78:0 79:0 80:0 81:0.9999975 82:0 83:0 84:0 85:0 86:0 87:0 88:0 89:0 
1 0.1143861887821333 1 0 0 1 1 0 1 1 1 1 1 1 0 0 0:0 1:0.74857986 2:0.064175621 3:0.042247355 4:0.48410103 5:0.43014434 6:0.1071854 7:0.048931744 8:0.021035276 9:0 10:0 11:0.97705621 12:4.1380908e-09 13:0.027148696 14:0.1376045 15:0.1133103 16:0.058784559 17:0.074212067 18:0.062221956 19:0 20:0 21:0.9922117 22:0.058163851 23:0.046107836 24:0.012532413 25:0.063540816 26:0.031044472 27:0.036552221 28:0.059176125 29:0 30:0 31:0.98197943 32:0.022450158 33:0.048457623 34:0.060844898 35:0.16768439 36:0.026488386 37:0.018091287 38:8.1908267e-09 39:0 40:0 41:0.89246911 42:0.00023236511 43:0.042035177 44:0.28814018 45:0.33823124 46:0.059662241 47:0.023144277 48:0.014117844 49:0 50:0 51:0.94452626 52:0.075564057 53:0.19850552 54:0.14957979 55:0.18750396 56:0.020688778 57:0.069133259 58:0 59:0 60:0 61:0.99983531 62:0.0018030765 63:0.0020031233 64:0.00032335232 65:0.015778514 66:0.00774492 67:0.00098982023 68:0.00095955218 69:0 70:0 71:0.98007941 72:0.016686624 73:0.032753538 74:0.034266591 75:0.090809584 76:0.054255068 77:0.15974605 78:0.014038805 79:0 80:0 81:0.80392331 82:0.037321389 83:0.23413084 84:0.28246236 85:0.44614044 86:0.12211207 87:0.058342595 88:0.018510671 89:0 
0.1632209893064386 0 0 1 0.8305716338590768 0 0 0 0 0 0 0 0 0 0.322130252530905 0.7265730326711092 0:0 1:0.0053382465 2:0 3:0 4:0 5:0.99998373 6:0 7:0 8:0 9:0 10:0 11:0.98003846 12:0 13:0 14:0 15:0.19771163 16:0.016829567 17:0 18:0.012235595 19:0 20:0 21:0.99752975 22:0 23:0 24:0 25:0.070238888 26:0 27:0 28:0 29:0 30:0 31:0.78025466 32:0 33:0 34:0 35:0.62497526 36:0.024613272 37:0.00043196397 38:0 39:0 40:0 41:0.78834069 42:0 43:0 44:0 45:0.61504149 46:0.010470013 47:0.011457331 48:0 49:0 50:0 51:0.9998154 52:0 53:0 54:0 55:0.012732374 56:0.0029758995 57:0.0087184059 58:0.011007662 59:0 60:0 61:0.99999839 62:0 63:0 64:0 65:0 66:0 67:0 68:0 69:0 70:0 71:0.3556636 72:0 73:0 74:0 75:0.93460864 76:0 77:0 78:0 79:0 80:0 81:0.99999928 82:0 83:0 84:0 85:0 86:0 87:0 88:0 89:0 
1 0.06600327208910778 0.4605687693622799 1 0 0.2005467200988351 0.7570424577406532 0.1273985847591795 0.119137987182296 0.0806705260119976 0.6332455191475819 0.4604949688758885 0.5881368792939936 0.5476187918928429 0.6576782690106824 1 0:0 1:0.69923252 2:0 3:0.14656955 4:0 5:0 6:0 7:0.35468653 8:0.59788692 9:0 10:0 11:0.94279885 12:0.096675284 13:0.089126021 14:0.097393706 15:0.14585912 16:0.18181764 17:0.13847616 18:0.10408808 19:0 20:0 21:0.99999833 22:0 23:0 24:0 25:0 26:0 27:0 28:0 29:0 30:0 31:0.023524355 32:0.0074424567 33:0.013128586 34:0.040316775 35:0.99822897 36:0.030887559 37:0.011041341 38:0.0069049196 39:0 40:0 41:0.52375013 42:0.059230104 43:0.12072501 44:0.083545603 45:0.82030004 46:0.11137722 47:0.078455009 48:0.095742233 49:0 50:0 51:0.91832536 52:0.087019987 53:0.084891707 54:0.098635346 55:0.28954458 56:0.15048029 57:0.11562108 58:0.110982 59:0 60:0 61:0.98282373 62:0.0041148383 63:0.024173789 64:0.026060762 65:0.17444937 66:0.033843141 67:0.029738983 68:0.017637715 69:0 70:0 71:0.39154685 72:0.0055009425 73:0.0077277962 74:0.03463294 75:0.916951 76:0.059247278 77:0.031546827 78:0.0096659102 79:0 80:0 81:0.97280556 82:0.012887951 83:0.025337165 84:0.0069824918 85:0.22922306 86:0.011564747 87:0.0010707434 88:0.010593298 89:0 
0 1 1 0 1 1 0.1595688570784894 1 1 1 1 1 0.5214769438055553 1 1 1 0:0 1:0.87638265 2:0.025042506 3:0.046991419 4:0.030232968 5:0.47625101 6:0.032516241 7:0.017879995 8:0.0026995339 9:0 10:0 11:0.99846774 12:0 13:0 14:0 15:0.048956599 16:0.0091552474 17:0.022516688 18:0.0085560819 19:0 20:0 21:0.99921584 22:0.010964732 23:0.011403396 24:0.0055009853 25:0.03336864 26:0.0030423789 27:0.0040534427 28:0.012094178 29:0 30:0 31:0.99809426 32:0.0066756108 33:0.011807929 34:0.0078082765 35:0.05945988 36:0.0050536725 37:0 38:0 39:0 40:0 41:0.97861397 42:0.0098714121 43:0.018523373 44:0 45:0.20446129 46:0.0080957143 47:0.0010923428 48:0.0010641193 49:0 50:0 51:0.99824387 52:0.0048711291 53:0.0068812687 54:0.014253141 55:0.056863785 56:0 57:0 58:0 59:0 60:0 61:0.99993312 62:0 63:0.0067926506 64:0 65:0.0017112544 66:3.8384329e-05 67:0.0068568545 68:0.0059612393 69:0 70:0 71:0.99770629 72:0.0075974623 73:0.0033596191 74:0.0069943513 75:0.049806632 76:0.012395391 77:0.042633712 78:0.0031903957 79:0 80:0 81:0.95656937 82:0.010008987 83:0.039461248 84:0.070699401 85:0.27702871 86:0.03724096 87:0.013595778 88:2.7756747e-05 89:0 
0.7287376857436426 0.1276247324170895 0.2175906323129968 1 0.2222717737859363 0.2332350062382366 0.599533448173841 0.0122483130519641 0.3066352562442904 0.251996698292103 0.3733532305431705 0.3724605324016592 0.3109998751621112 0.1106391431779887 0.7047389972923011 0.2562954526487725 0:0 1:0 2:0 3:0 4:0 5:0.99881309 6:0.0042675007 7:0.046233535 8:0.014564653 9:0 10:0 11:0 12:0 13:0 14:0 15:0.99999887 16:6.0903921e-10 17:2.1316371e-09 18:6.0903921e-10 19:0 20:0 21:0.27686113 22:0.005093337 23:0.0012383077 24:0.0087752072 25:0.96085376 26:0 27:0 28:0 29:0 30:0 31:0.021579929 32:0.0004123179 33:0 34:0.032520868 35:0.99831587 36:0.014707251 37:0.033522077 38:0.022314092 39:0 40:0 41:0 42:0 43:0 44:0 45:0.99978793 46:0.0018018874 47:0.01952141 48:0.0061497036 49:0 50:0 51:0.084125116 52:0 53:0 54:0 55:0.99640065 56:0 57:0.010344061 58:0 59:0 60:0 61:0.040829036 62:0.00019064028 63:0 64:0.067218393 65:0.99649435 66:0.0046791215 67:8.3413754e-05 68:0.028040994 69:0 70:0 71:0.067574397 72:0 73:0 74:0 75:0.99771214 76:0 77:0.00012046108 78:0 79:0 80:0 81:0.034565475 82:0 83:0 84:0 85:0.99940145 86:0 87:7.9689544e-10 88:0 89:0 
0.5264060942912282 0.1674453356605403 0.3235577630329639 1 0.3174066664510257 0.3354714207797052 0.7497310352875973 0.198465436405933 0.4907504217643007 0.3567754477431513 0.5892452352892619 0.5404002838763809 0.4728210209926977 0.3122148210684589 1 0.6468804411093971 0:0 1:0 2:0 3:0 4:0 5:0 6:0 7:0 8:0 9:0 10:0 11:0 12:0 13:0 14:0 15:0 16:0 17:0 18:0 19:0 20:0 21:0 22:0 23:0 24:0 25:0 26:0 27:0 28:0 29:0 30:0 31:0 32:0 33:0 34:0 35:0 36:0 37:0 38:0 39:0 40:0 41:0 42:0 43:0 44:0 45:0 46:0 47:0 48:0 49:0 50:0 51:0 52:0 53:0 54:0 55:0 56:0 57:0 58:0 59:0 60:0 61:0 62:0 63:0 64:0 65:0 66:0 67:0 68:0 69:0 70:0 71:0 72:0 73:0 74:0 75:0 76:0 77:0 78:0 79:0 80:0 81:0 82:0 83:0 84:0 85:0 86:0 87:0 88:0 89:0 
0 0 0 0 0 0 0 0 0 0 0 0 0 0.1280687746456213 0 0 0:0 1:0.27048504 2:0 3:0.00036633189 4:0.0074192695 5:0.95943105 6:0.036952127 7:0.068899624 8:0.012570607 9:0 10:0 11:0.93615544 12:0 13:3.6469901e-05 14:0.0025130357 15:0.3514159 16:0.0084992861 17:0.0041801636 18:0.0047303801 19:0 20:0 21:0.99999917 22:0 23:0 24:0 25:0 26:0 27:0 28:0 29:0 30:0 31:0.069429435 32:0 33:0.0097207138 34:0.0098511893 35:0.99634576 36:0.0077164816 37:0.046109572 38:0.009777151 39:0 40:0 41:0.90503991 42:0 43:0 44:0.0083421851 45:0.42445338 46:0.00019884843 47:0.025901027 48:0 49:0 50:0 51:0.57958627 52:0.00017629625 53:0.011634255 54:0.017964967 55:0.81399006 56:0.014539439 57:0.00020223812 58:0.028781777 59:0 60:0 61:0.27801886 62:0 63:0.023705941 64:0.03398449 65:0.95795339 66:0.016607322 67:0.048261411 68:0.0265381 69:0 70:0 71:0.93293667 72:0 73:0 74:0.00066605472 75:0.36003008 76:0 77:0 78:0 79:0 80:0 81:0.99999911 82:0 83:0 84:0 85:0 86:0 87:0 88:0 89:0 
0 0 0 0 1 1 0 0 1 1 0.903207269405961 1 1 0.7841622200692066 0 0.07399138483747528 0:0 1:0.34258825 2:0.20983167 3:0.42642289 4:0.29567111 5:0.65235054 6:0.20489912 7:0.23293988 8:0.21802686 9:0 10:0 11:0.9965148 12:0 13:0.0084277978 14:0.0055875019 15:0.040751755 16:0.040246721 17:0.047941308 18:0.035719171 19:0 20:0 21:0.99832815 22:0.025433121 23:0.015592344 24:0.0060469811 25:0.0057004448 26:0.0058174357 27:0.0035898043 28:0.048312299 29:0 30:0 31:0.99303281 32:0.011269066 33:0.10117785 34:0.032697398 35:0.047312438 36:0.0066369474 37:0.013005335 38:4.5651246e-05 39:0 40:0 41:0.94706196 42:0 43:0.029775953 44:0.0065372377 45:0.30944663 46:0.063771628 47:0.039410282 48:0.027650453 49:0 50:0 51:0.99887335 52:0.035755258 53:0.027957665 54:0.011477743 55:0.0057318681 56:0.0051287557 57:6.0307422e-05 58:0.00012961413 59:0 60:0 61:0.99980772 62:0.012314061 63:0.008531441 64:0.00028645541 65:0.0057346942 66:3.9322942e-05 67:0.00068833481 68:0.011211957 69:0 70:0 71:0.96827918 72:0.0037041034 73:0.04955031 74:0.033158448 75:0.16355315 76:0.083095163 77:0.13733909 78:0.079681784 79:0 80:0 81:0.88648003 82:0.17590864 83:0.24671493 84:0.19041279 85:0.2215845 86:0.14045738 87:0.10441833 88:0.079688847 89:0 
0.3816024614704244 1 1 0 1 1 0 0.6111949369073063 1 0.6643363221285387 1 0.6247005506838222 0.6425524020743905 1 1 1 0:0 1:0.97607005 2:0.013858282 3:0 4:0.0046509048 5:0.21477976 6:0.018176733 7:0.0026105565 8:0.024586193 9:0 10:0 11:0.96470296 12:0.0074470281 13:0 14:0.02013815 15:0.26194298 16:0.010240584 17:0 18:0.012930472 19:0 20:0 21:0.99999881 22:0 23:0 24:0 25:0 26:0 27:0 28:0 29:0 30:0 31:0.99071276 32:0 33:0 34:0 35:0.13541357 36:0.0029397991 37:0.00045704929 38:0.011894763 39:0 40:0 41:0.99145055 42:0.019661438 43:0 44:0.025099708 45:0.12643728 46:0.0027478274 47:0.0018229694 48:0.0032882467 49:0 50:0 51:0.78552705 52:0.026667224 53:0 54:0.072113134 55:0.61402929 56:0 57:0 58:0 59:0 60:0 61:0.99999934 62:0 63:0 64:0 65:0 66:0 67:0 68:0 69:0 70:0 71:0.99999934 72:0 73:0 74:0 75:0 76:0 77:0 78:0 79:0 80:0 81:0.99408138 82:0 83:0 84:0 85:0 86:0 87:0 88:0 89:0 
1 1 1 0 1 1 0.9781888064499664 1 1 1 1 1 1 1 1 1 0:0 1:0.98835403 2:0.0072880075 3:0.028289985 4:0.047809534 5:0.10474716 6:0.075298183 7:0.055478975 8:0.01717142 9:0 10:0 11:0.96425354 12:0.0067117815 13:0.011258902 14:0.020397061 15:0.21652906 16:0.080237471 17:0.11891711 18:0.046470582 19:0 20:0 21:0.96798432 22:0.033662781 23:0.049575523 24:0.051013418 25:0.21283759 26:0.079927966 27:0.061031803 28:0.037367944 29:0 30:0 31:0.96777147 32:0.0082930699 33:0.076059751 34:0.075043246 35:0.21397331 36:0.062550716 37:0.043439746 38:0.018589804 39:0 40:0 41:0.99015528 42:0.048991125 43:0.0090289749 44:0.057301335 45:0.082510181 46:0.054824974 47:0.05342041 48:0.033994094 49:0 50:0 51:0.95940942 52:0.053980585 53:0.060020026 54:0.065656558 55:0.2533012 56:0.053366311 57:0.037610184 58:0.016725704 59:0 60:0 61:0.99793619 62:0.046508558 63:0.029730031 64:0.01088363 65:0.02261168 66:0.018731721 67:0.0094944397 68:0.0019171574 69:0 70:0 71:0.99996221 72:0.0002503827 73:0.0016739717 74:0.0011983237 75:0.0049881712 76:0.00088745687 77:0.006471782 78:0.00069528673 79:0 80:0 81:0.97615325 82:0.097219735 83:0.12334009 84:0.090277761 85:0.10226095 86:0.039673757 87:0.043850534 88:0.018786486 89:0 
0 0 0 0 1 0.506170737772103 0 0 0 0 0 0 0 0 0.2228725830042426 0 0:0 1:0.74891764 2:8.9905174e-05 3:0.010747096 4:0.034182772 5:0.65691274 6:0.029020106 7:0.073892489 8:1.8233137e-05 9:0 10:0 11:0.95783842 12:0.025158491 13:0.020353669 14:0.022238612 15:0.2797676 16:0.030392773 17:0.042447262 18:0.0027167741 19:0 20:0 21:0.99999946 22:0 23:0 24:0 25:0 26:0 27:0 28:0 29:0 30:0 31:0.97015405 32:0 33:0.00015824969 34:0.014837381 35:0.24183968 36:0.0095949955 37:0.001204758 38:0 39:0 40:0 41:0.98899603 42:0 43:7.9402482e-05 44:0.0069183591 45:0.14777689 46:0.00028259371 47:0.00016372805 48:0 49:0 50:0 51:0.99965179 52:0.0092968987 53:0.0038799886 54:5.6473444e-05 55:0.02372678 56:0.0038800121 57:0.0039451979 58:0 59:0 60:0 61:0.9999994 62:0 63:0 64:0 65:0 66:0 67:0 68:0 69:0 70:0 71:0.99999923 72:0 73:0 74:0 75:0 76:0 77:0 78:0 79:0 80:0 81:0.99851674 82:0.040548913 83:0.0002638023 84:0.036249004 85:0 86:0 87:0 88:0 89:0 
0 0 0 0 1 0 0 0 0 0 0 0 0 0 0 0 0:0 1:0.0031852918 2:0 3:0 4:0 5:0.99973184 6:0.011134878 7:0.001927421 8:0.019845797 9:0 10:0 11:0.98117298 12:0 13:0 14:0 15:0.19203037 16:0.00013734662 17:0.020546334 18:0.00054938626 19:0 20:0 21:0.99999917 22:0 23:0 24:0 25:0 26:0 27:0 28:0 29:0 30:0 31:0.64577818 32:0 33:0 34:0 35:0.7629115 36:0.006939746 37:0.02975543 38:0 39:0 40:0 41:0.87842888 42:0 43:0 44:0 45:0.47777393 46:0.0046991128 47:0.00081340532 48:0.0083752731 49:0 50:0 51:0.98608994 52:0 53:0.0013190642 54:0.0079079056 55:0.16461851 56:0.0099861696 57:0.011263654 58:0.01531562 59:0 60:0 61:0.99999785 62:0 63:0 64:0 65:0 66:0 67:0 68:0 69:0 70:0 71:0.69345134 72:0 73:0 74:0 75:0.72049505 76:0 77:0 78:0 79:0 80:0 81:0.99999839 82:0 83:0 84:0 85:0 86:0 87:0 88:0 89:0 
1 1 1 0.04937509209984115 0.9370211355449083 1 1 1 1 1 1 1 1 1 1 1 0:0 1:0.92025632 2:0.010766673 3:0.010840832 4:0.049202908 5:0.35079759 6:0.12039529 7:0.10807266 8:0.035184875 9:0 10:0 11:0.98661518 12:0.010645376 13:0.012968555 14:0 15:0.11236269 16:0.05373456 17:0.098822132 18:0.032078642 19:0 20:0 21:0.97743213 22:0.026496597 23:0.097844616 24:0.040457077 25:0.1580625 26:0.027426265 27:0.083296239 28:0.0061903661 29:0 30:0 31:0.96612412 32:0.044033047 33:0.071660049 34:0.1080448 35:0.21298668 36:0.024809202 37:0.024853159 38:0.035477102 39:0 40:0 41:0.97420102 42:0.00018501993 43:0.0066207028 44:0.014793116 45:0.21398795 46:0.035583533 47:0.05198925 48:0.030133883 49:0 50:0 51:0.97598797 52:0.069108225 53:0.12615703 54:0.054870714 55:0.1506715 56:0.026035003 57:0.014113965 58:0.012840365 59:0 60:0 61:0.9978928 62:0.01281416 63:0.027822681 64:0.0055324389 65:0.03975299 66:0.032360956 67:0.015759917 68:0.019084621 69:0 70:0 71:0.92990422 72:0.01702689 73:0.067339301 74:0.09126284 75:0.29881993 76:0.12973179 77:0.11176019 78:0.059238851 79:0 80:0 81:0.94420189 82:0.014183671 83:0.088343449 84:0.087912142 85:0.29749683 86:0.055446886 87:0.029568268 88:0.01714747 89:0 
0 0 0 0.02499238433663509 1 0 0 0 0 0 0 0 0 0 0 0 0:0 1:0.046477623 2:0 3:0 4:0.00043076547 5:0.99789941 6:0.013897846 7:0.042887289 8:0 9:0 10:0 11:0.98970926 12:0 13:0 14:0.0026522919 15:0.14243568 16:0.00037267894 17:0.013382608 18:0 19:0 20:0 21:0.99999928 22:0 23:0 24:0 25:0 26:0 27:0 28:0 29:0 30:0 31:0.26464549 32:0 33:0 34:0 35:0.96360713 36:0.028234098 37:0.007590624 38:0.023806037 39:0 40:0 41:0.8515783 42:0 43:0 44:0.00022233717 45:0.52417922 46:0.0069598006 47:0 48:0 49:0 50:0 51:0.99962699 52:0 53:0 54:0 55:0.022528319 56:0.010528672 57:0.011230925 58:0 59:0 60:0 61:0.70008039 62:0 63:0 64:0 65:0.70757335 66:0.072925381 67:0.021845629 68:0.058528841 69:0 70:0 71:0.94667852 72:0 73:0 74:0 75:0.322144 76:0.00047144393 77:0 78:0 79:0 80:0 81:0.99999869 82:0 83:0 84:0 85:0 86:0 87:0 88:0 89:0 
0 0 0 0 1 1 0 0.8362109067114476 1 1 0.5106696152008317 1 0 0 0.506377902300341 0.441551769560146 0:0 1:0.61258996 2:0.23852186 3:0.12579314 4:0.26304552 5:0.63219047 6:0.17012578 7:0.21446815 8:0.090641223 9:0 10:0 11:0.99699914 12:0 13:0.0052920217 14:0.010921457 15:0.039854754 16:0.031250577 17:0.029773714 18:0.048912544 19:0 20:0 21:0.99646944 22:0.051752895 23:0.044732869 24:0.0081807338 25:0.011410971 26:0.012060636 27:0.022219302 28:0.039134234 29:0 30:0 31:0.99811953 32:0.030884279 33:0.037193526 34:0.026005408 35:0.024279797 36:0.012375619 37:0.00028986784 38:0 39:0 40:0 41:0.9702242 42:0.015203988 43:0.029376397 44:0.0055999211 45:0.23258239 46:0.052203026 47:0.026774229 48:0 49:0 50:0 51:0.99823511 52:0.031162966 53:0.048382387 54:0.01080987 55:0.0080659045 56:3.4337463e-05 57:0.00071545539 58:0.0055779768 59:0 60:0 61:0.99990064 62:0.0082353298 63:0 64:5.0315739e-05 65:0.0059494041 66:1.9532072e-05 67:0.0055041658 68:0.0080120573 69:0 70:0 71:0.99341434 72:0.013946055 73:0.025884967 74:0.0065911761 75:0.054441094 76:0.033601105 77:0.080429614 78:0.040704366 79:0 80:0 81:0.90604758 82:0.20483445 83:0.23648946 84:0.19814426 85:0.19119489 86:0.036923327 87:0.057008665 88:0.027581971 89:0 
0 0 0 0.01173976038383393 0 0 0 0 0 0 0 0 0 0 0 0 0:0 1:0.61192298 2:0 3:0 4:0 5:0.78815383 6:0 7:0.065751761 8:0.0030252077 9:0 10:0 11:0.99993312 12:0 13:0 14:0 15:0.00094612193 16:6.845679e-10 17:0.011256737 18:0.0009986636 19:0 20:0 21:0.99999893 22:0 23:0 24:0 25:0 26:0 27:0 28:0 29:0 30:0 31:0.1198247 32:0 33:7.4406555e-05 34:0 35:0.99234152 36:0.010292183 37:0.015670998 38:0.023351051 39:0 40:0 41:0.9263202 42:0 43:0 44:0 45:0.37673244 46:0 47:0 48:0 49:0 50:0 51:0.93950999 52:0.01393962 53:0.054573156 54:0.013313708 55:0.33759198 56:0 57:0 58:0 59:0 60:0 61:0.99247605 62:0 63:0.00012868617 64:0 65:0.1147032 66:0.0086118989 67:0.019536709 68:0.037075713 69:0 70:0 71:0.73463941 72:0 73:0 74:0 75:0.67845565 76:0 77:0 78:0 79:0 80:0 81:0.99999881 82:0 83:0 84:0 85:0 86:0 87:0 88:0 89:0 
1 0.797726670904098 1 1 1 0 0.2921281608817721 0 0 0 0.4094939174038274 1 1 0.3331238194154036 0.175939730412842 1 0:0 1:0.82413733 2:7.1139351e-05 3:0.067377441 4:0.032806523 5:0.55520099 6:0.027316608 7:0.071914509 8:0.031834017 9:0 10:0 11:0.98951674 12:0.0046172044 13:0.0014516675 14:0.024628896 15:0.10396143 16:0.064833842 17:0.068296753 18:0.023440029 19:0 20:0 21:0.9980095 22:0.029524749 23:0.027711058 24:0.0089949211 25:0.021410311 26:0.0089589758 27:0.031000881 28:0.027482908 29:0 30:0 31:0.9930405 32:0.01900802 33:0.049592484 34:0.026848685 35:0.093784437 36:0.019873694 37:0.030215632 38:0.014972982 39:0 40:0 41:0.70594537 42:0.045876786 43:0.051782228 44:0.020185251 45:0.69653136 46:0.058878351 47:0.071929075 48:0.051470913 49:0 50:0 51:0.99777639 52:0.0090463003 53:0.005172709 54:0.035067946 55:0.055685662 56:0.00068621343 57:0.00013212746 58:0.0012123812 59:0 60:0 61:0.99039888 62:0.020507524 63:0.0121565 64:0.023431536 65:0.10415079 66:0.041573044 67:0.057581939 68:0.045820005 69:0 70:0 71:0.99698514 72:0.014313474 73:0.020084359 74:0.015662495 75:0.064552307 76:0.021391992 77:0.01733413 78:0.015517119 79:0 80:0 81:0.93306726 82:0.045889322 83:0.07778798 84:0.10292377 85:0.33117884 86:0.022906799 87:0.019681077 88:0.0064510391 89:0 
1 1 1 1 0 1 1 1 1 1 1 1 1 1 1 1 0:0 1:0.86109561 2:0.15298703 3:0.19667098 4:0.096648499 5:0.35696906 6:0.21268661 7:0.10703337 8:0.054475602 9:0 10:0 11:0.9912979 12:0.011963285 13:0.039083235 14:0.032832958 15:0.02263453 16:0.055460416 17:0.061938211 18:0.084579743 19:0 20:0 21:0.98625821 22:0.07396841 23:0.040440481 24:0.059084669 25:0.093942754 26:0.019167054 27:0.060767587 28:0.061724629 29:0 30:0 31:0.87821817 32:0.030219896 33:0.10027521 34:0.053218976 35:0.4558599 36:0.071550727 37:0.035038136 38:0.027840992 39:0 40:0 41:0.98306751 42:0.0017973094 43:0.01372823 44:0.022366453 45:0.17215526 46:0.036923058 47:0.023976864 48:0.036176201 49:0 50:0 51:0.98872662 52:0.081280999 53:0.077942483 54:0.059252743 55:0.0448572 56:0.04211412 57:0.040733527 58:0.027934408 59:0 60:0 61:0.97373241 62:0.0098796608 63:0.042309985 64:0.058101304 65:0.21351306 66:0.021899557 67:0.020654097 68:0.0092963157 69:0 70:0 71:0.92622578 72:0.0076980526 73:0.019447377 74:0.016218781 75:0.36952418 76:0.04992329 77:0.042531379 78:0.023540117 79:0 80:0 81:0.89433247 82:0.089046724 83:0.12979524 84:0.21208045 85:0.3333993 86:0.10203193 87:0.075599112 88:0.05596194 89:0 
0.9223458836667423 0 1 0 1 1 0 0.1564819323698258 1 0.79651143519885 1 1 1 1 0.2390902852642678 0 0:0 1:0.79630351 2:0.1182862 3:0.12107705 4:0.093965404 5:0.55036527 6:0.13908426 7:0.067827269 8:0.039634872 9:0 10:0 11:0.98536831 12:1.0176852e-05 13:0.0079254303 14:0.0024128824 15:0.1305888 16:0.06159592 17:0.080254495 18:0.04112618 19:0 20:0 21:0.98807472 22:0.036833618 23:0.09125866 24:0.025369899 25:0.077796005 26:0.035805561 27:0.065504417 28:0.041875392 29:0 30:0 31:0.98601353 32:0.018260654 33:0.078479789 34:0.067771383 35:0.12650491 36:0.010013284 37:0.024040511 38:0.0030288054 39:0 40:0 41:0.95681393 42:0.014394759 43:0.038836014 44:0.077291422 45:0.27011779 46:0.028759237 47:0.052656792 48:0.015886847 49:0 50:0 51:0.99768597 52:0.021138567 53:0.0096228719 54:0.029937286 55:0.056415573 56:0.0018310793 57:0.00036679325 58:0 59:0 60:0 61:0.99969226 62:0.0069289417 63:0.0042863567 64:0.0041204472 65:0.013998863 66:0.0056418646 67:0.0084859626 68:0.015208625 69:0 70:0 71:0.9930653 72:0 73:0.0055088182 74:0.0084683457 75:0.061536632 76:0.069635056 77:0.070731618 78:0.0089135477 79:0 80:0 81:0.9211179 82:0.076519929 83:0.1268896 84:0.18726961 85:0.30300891 86:0.041870557 87:0.029580563 88:0.0084414417 89:0 
0 0 1 0 1 1 0 0 0 0 0 1 0 0 1 0.5978638759141874 0:0 1:0.80790043 2:0.016891975 3:0.019594273 4:0.0050361617 5:0.58604932 6:0.032024086 7:0.027649647 8:0.036820997 9:0 10:0 11:0.9760229 12:0.0032627503 13:0.009027116 14:0.020944474 15:0.21540616 16:0.0085369935 17:0.0090174684 18:0.017118946 19:0 20:0 21:0.99999934 22:0 23:0 24:0 25:0 26:0 27:0 28:0 29:0 30:0 31:0.95062262 32:0.0049921782 33:0.0030826174 34:0.0018267839 35:0.30943131 36:0.014909473 37:0.011409853 38:0.013320653 39:0 40:0 41:0.97138768 42:0.00078551547 43:0.00036217467 44:0.011203943 45:0.2366717 46:0.01606451 47:0.0026520339 48:7.1272072e-05 49:0 50:0 51:0.9942981 52:0.00010437913 53:0.0016869496 54:0.012990097 55:0.10411631 56:0.0078195892 57:0.013419871 58:0.010765458 59:0 60:0 61:0.99997514 62:0 63:0.0043998831 64:0.00057805539 65:0.0002106622 66:0.0040753828 67:0.00036253512 68:0.0034714702 69:0 70:0 71:0.99999934 72:0 73:0 74:0 75:0 76:0 77:0 78:0 79:0 80:0 81:0.99260515 82:0.00053049432 83:0.00123782 84:0.0019451458 85:0.12015696 86:0.016975818 87:0 88:0 89:0 
0 0 0 0.4435793548235252 0.7183896821612393 0 0 0 0 0 0 0 0 0 0 0 0:0 1:0.41511512 2:0 3:0 4:0 5:0.90240979 6:0.018356599 7:0.029640472 8:0.11004777 9:0 10:0 11:0.99999881 12:0 13:0 14:0 15:0 16:5.4537144e-05 17:0 18:0.0010491984 19:0 20:0 21:0.99999899 22:0 23:0 24:0 25:0 26:0 27:0 28:0 29:0 30:0 31:0.38790259 32:0 33:0 34:0.00012350277 35:0.9181214 36:0.062373042 37:0.036438197 38:0.036933217 39:0 40:0 41:0.94253743 42:0 43:0 44:0 45:0.33372808 46:0.0028106894 47:0.0045384313 48:0.014790254 49:0 50:0 51:0.99967241 52:0.014940605 53:0.016497029 54:0.0029361288 55:0.012248725 56:0 57:0 58:0 59:0 60:0 61:0.9591971 62:0 63:0 64:0.00011474382 65:0.26928443 66:0.053919535 67:0.059188299 68:0.031831294 69:0 70:0 71:0.73877758 72:0 73:0 74:0.00015665944 75:0.67394692 76:0.00015665944 77:0 78:0 79:0 80:0 81:0.99999923 82:0 83:0 84:0 85:0 86:0 87:0 88:0 89:0 
0.2175979671910507 0 0 0.5542446583130611 0.04061184563006227 0 0.06500182536298249 0 0.02622036611246577 0 0.09857497233842703 0.02022513097553269 0.1478847260169472 0.3264025662610978 0.1748917952822349 0.7743901862536254 0:0 1:0.1581165 2:0 3:0 4:0.054737706 5:0.98374981 6:0.056203626 7:0.028834954 8:0.015591522 9:0 10:0 11:0.99654251 12:0 13:0 14:0 15:0.083076745 16:0 17:0 18:0 19:0 20:0 21:0.99999881 22:0 23:0 24:0 25:0 26:0 27:0 28:0 29:0 30:0 31:0.006318788 32:0.00020943952 33:0 34:0.014154878 35:0.99906605 36:0.029573608 37:0.027118826 38:0.003789508 39:0 40:0 41:0.91398072 42:0 43:0 44:0.015756015 45:0.40502134 46:0.016091809 47:0.0082558123 48:0.0044640498 49:0 50:0 51:0.99558282 52:0 53:0 54:0 55:0.093881473 56:0 57:9.1209276e-06 58:0 59:0 60:0 61:0.12086584 62:3.3227796e-05 63:0 64:0.0019657593 65:0.99118274 66:0.011030902 67:0.053093292 68:0 69:0 70:0 71:0.92210788 72:0 73:0 74:0.00058821385 75:0.38692677 76:0 77:0 78:0 79:0 80:0 81:0.99999917 82:0 83:0 84:0 85:0 86:0 87:0 88:0 89:0 
0.5926141097302091 0 0.8209976300454339 1 0 1 1 0 0.810487688455367 0 0.9833853630689811 0 0.9345771605415127 0.8066197605604795 0.0331193998524495 0.9198581373925876 0:0 1:0.77873874 2:0.1195192 3:0.10668482 4:0.11243346 5:0.48215449 6:0.31183192 7:0.14426781 8:0.068774976 9:0 10:0 11:0.97365767 12:0.021606896 13:0.017344579 14:0.031101543 15:0.17634273 16:0.072207138 17:0.11347905 18:0.032652002 19:0 20:0 21:0.98512268 22:0.075446598 23:0.053980254 24:0.065339677 25:0.07255882 26:0.049556129 27:0.081397481 28:0.048063017 29:0 30:0 31:0.85391355 32:0.024063932 33:0.1204454 34:0.15764402 35:0.47512671 36:0.062852696 37:0.033828497 38:0.0071973596 39:0 40:0 41:0.97652781 42:0.00061288214 43:0.003708693 44:0.021151179 45:0.20652008 46:0.052613653 47:0.02261888 48:0.0002824949 49:0 50:0 51:0.9883225 52:0.10689107 53:0.061914284 54:0.053682145 55:0.033759281 56:0.052228149 57:0.026481409 58:0.022528943 59:0 60:0 61:0.9844752 62:0.019960456 63:0.04793559 64:0.067463301 65:0.14515007 66:0.023963053 67:0.035640795 68:0.025429437 69:0 70:0 71:0.60009706 72:0.050712794 73:0.05687467 74:0.058395095 75:0.7447753 76:0.23169012 77:0.12997083 78:0.073496118 79:0 80:0 81:0.953201 82:0.10506938 83:0.08280272 84:0.1766395 85:0.19584821 86:0.051437456 87:0.012711355 88:0.033836149 89:0 
0.4314344538790282 0 1 0 0 0 0 0 0 0 0 0 0 0 0 0 0:0 1:0.85283756 2:0.0080975238 3:0.031997498 4:0.039756123 5:0.5080142 6:0.071044728 7:0.052946694 8:0.063768253 9:0 10:0 11:0.88574207 12:0.023535775 13:0.017174033 14:0.044871125 15:0.45774969 16:0.045468144 17:0.026662886 18:0.016854113 19:0 20:0 21:0.99999923 22:0 23:0 24:0 25:0 26:0 27:0 28:0 29:0 30:0 31:0.93516409 32:0.024431158 33:0.026050966 34:0.055092208 35:0.34237731 36:0.054117411 37:0.017690785 38:0.026305746 39:0 40:0 41:0.97903532 42:0.014539179 43:0.0090456512 44:0.016783956 45:0.20022407 46:0.022697315 47:0.001809913 48:0.017483618 49:0 50:0 51:0.93333352 52:0.02779191 53:0.020560313 54:0.032499079 55:0.35464987 56:0.021090038 57:0.017635681 58:0.010149769 59:0 60:0 61:0.9998191 62:0.0047916165 63:0 64:0.0034795604 65:0.018048016 66:0 67:0.00016108011 68:9.770587e-06 69:0 70:0 71:0.99522138 72:0.021234138 73:0.0071246289 74:0.031728365 75:0.088239133 76:0.0092658056 77:0.0090201218 78:0.0084455879 79:0 80:0 81:0.99829018 82:0.010703776 83:0.020583322 84:0.023574643 85:0.035129383 86:0.031768885 87:0.0025848839 88:0.0082647987 89:0 
0 0 0 0 0 0 0 0 0 0 0 0 0 0.01445242862198458 0 0 0:0 1:0.22459392 2:0.0031791895 3:0.0089873374 4:0.011750353 5:0.9731124 6:0.039982103 7:0.022298126 8:0.01678491 9:0 10:0 11:0.96016312 12:0.0012537242 13:0.0013379586 14:0.0097611919 15:0.27862445 16:0.012257759 17:0.014153535 18:0.0022096438 19:0 20:0 21:0.99999946 22:0 23:0 24:0 25:0 26:0 27:0 28:0 29:0 30:0 31:0.11635347 32:0.012876549 33:0.0097677931 34:0.031413566 35:0.99108577 36:0.040272009 37:0.034478281 38:0.012278691 39:0 40:0 41:0.86507177 42:0.0010208294 43:0.00135376 44:0.0076406254 45:0.50154972 46:0.0060042725 47:0 48:0.00055332883 49:0 50:0 51:0.88024604 52:0.03695925 53:0.039256558 54:0.027375478 55:0.47052038 56:0.0071263579 57:0.0078721708 58:0.0026549578 59:0 60:0 61:0.77601838 62:0.022168491 63:0.020193657 64:0.048383795 65:0.6094135 66:0.052103501 67:0.14041299 68:0.027142104 69:0 70:0 71:0.85376799 72:0 73:0.0027806603 74:0.012719784 75:0.52048826 76:5.4616878e-05 77:0 78:0 79:0 80:0 81:0.99999946 82:0 83:0 84:0 85:0 86:0 87:0 88:0 89:0 
0.4821144402786997 0.08336755748044267 0.1830159008424741 1 0.1765007974889181 0.1660819277576207 0.9582985629561704 0 0.2185909980279535 0.1634172476975439 0.2316740769154655 0.3448942323734865 0.2513630705412849 0.06107591566290094 0 0.2656550636863737 0:0 1:0.71788734 2:8.3287232e-05 3:0.0032181134 4:0.034987543 5:0.68367392 6:0.10448422 7:0.057195995 8:0.042445526 9:0 10:0 11:0.37221143 12:1.1790173e-10 13:0.054109123 14:0.052051041 15:0.90734035 16:0.15455613 17:0.082474157 18:0.043149743 19:0 20:0 21:0.85910314 22:0.071549296 23:0.15611172 24:0.04649023 25:0.45646676 26:0.068666719 27:0.078270495 28:0.10527468 29:0 30:0 31:0.096970297 32:0.0079670558 33:0.09777882 34:0.065072842 35:0.98291963 36:0.08874777 37:0.025577815 38:0.0455385 39:0 40:0 41:0.033221599 42:0.013059291 43:0.036183547 44:0.058594421 45:0.99069238 46:0.091224976 47:0.03226652 48:0.056097623 49:0 50:0 51:0.29578295 52:0.10627355 53:0.13879687 54:0.096036553 55:0.93277282 56:0.048349079 57:0.016819471 58:0.00653583 59:0 60:0 61:0.20676464 62:0.02515807 63:0.080313437 64:0.042253308 65:0.9725185 66:0.033713419 67:0.031707861 68:0.021053888 69:0 70:0 71:0.015435881 72:0.00042869843 73:0.0022851895 74:0.013851415 75:0.99955064 76:0.012483438 77:0.0049629691 78:0.016766969 79:0 80:0 81:0.10651167 82:0.019838767 83:0.092477597 84:0.17180547 85:0.96951497 86:0.08497566 87:0.023160603 88:0.049733844 89:0 
0.5769836938517288 0.8341659292200813 1 0.4782732062603482 0.03296047158016138 0.7440025061781856 1 0.08015577812712917 1 0.6177779877116696 0.835478850561908 0.4741497748618472 0.6065887296320961 0.6010754046177 0.500434035905403 0.4766780484067409 0:0 1:0.93959266 2:0.0064996779 3:0.0083578927 4:0.0019882552 5:0.34180611 6:0.014683067 7:0.00011838882 8:0.0011151992 9:0 10:0 11:0.95800549 12:0.0035797316 13:0.00034524896 14:0.043521699 15:0.28016889 16:0.04177317 17:0.0010624717 18:0.0087381564 19:0 20:0 21:0.99999893 22:0 23:0 24:0 25:0 26:0 27:0 28:0 29:0 30:0 31:0.99993849 32:0 33:0.0074955723 34:0.0037535273 35:0.0053390195 36:0.0048232796 37:0.00012607913 38:0.00012393447 39:0 40:0 41:0.98954725 42:0.011774753 43:0.00049987098 44:0.016551305 45:0.14248906 46:0.0061373124 47:0.0045543858 48:0.0045543858 49:0 50:0 51:0.84391755 52:0.028146379 53:0.00027886129 54:0.17619537 55:0.48157787 56:0.15217522 57:0.00021343106 58:0.029669724 59:0 60:0 61:0.9999994 62:0 63:0 64:0 65:0 66:0 67:0 68:0 69:0 70:0 71:0.9999994 72:0 73:0 74:0 75:0 76:0 77:0 78:0 79:0 80:0 81:0 82:0 83:0 84:0 85:0 86:0 87:0 88:0 89:0 
0 1 1 0.04363864168401514 1 1 0 1 1 1 1 1 1 1 1 1 0:0 1:0.94576359 2:0.012988427 3:0.0041689845 4:0.00032070134 5:0.32081193 6:0.002770565 7:0.048683297 8:0.0066169291 9:0 10:0 11:0.99675649 12:0.0057211393 13:0.018292928 14:0.00073860632 15:0.077728897 16:0.0010238872 17:0.0080302898 18:0 19:0 20:0 21:0.99999875 22:0 23:0 24:0 25:0 26:0 27:0 28:0 29:0 30:0 31:0.98619395 32:0 33:0 34:1.6009823e-05 35:0.16538332 36:4.8029568e-05 37:0.00051231595 38:0.0082488516 39:0 40:0 41:0.98361278 42:0.011316544 43:0.0071696606 44:0.0001937761 45:0.17927653 46:0 47:0.01328373 48:0.0028707874 49:0 50:0 51:0.98267192 52:0.014614418 53:0.046728548 54:0.00188674 55:0.1787516 56:3.2289779e-05 57:0 58:0 59:0 60:0 61:0.99998957 62:0.0043772808 63:0 64:0 65:0 66:0 67:0 68:0 69:0 70:0 71:0.99999923 72:0 73:0 74:0 75:0 76:0 77:0 78:0 79:0 80:0 81:0.99999005 82:0 83:0 84:0 85:0 86:0 87:0 88:0 89:0 
0.3015678164892978 0 0 0.8972307124559119 0 0 0 0 0 0 0 0 0 0 0 0 0:0 1:0.00038892822 2:0 3:0 4:0 5:0.99999821 6:0 7:0 8:0 9:0 10:0 11:0.94912082 12:0 13:0.0050164531 14:0 15:0.31346849 16:0.022126071 17:0.019000394 18:0.0055100489 19:0 20:0 21:0.99999946 22:0 23:0 24:0 25:0 26:0 27:0 28:0 29:0 30:0 31:0.29677212 32:0.011569101 33:0.02046877 34:0.0078543676 35:0.95447749 36:0.010857315 37:0.0024308295 38:0.012621198 39:0 40:0 41:0.75007254 42:0 43:0 44:3.6224537e-05 45:0.66108328 46:0.0062406743 47:0.014096781 48:0.01102754 49:0 50:0 51:0.89945465 52:0.011614758 53:0.018498361 54:0.00074218545 55:0.4360674 56:0.0129292 57:0.012556151 58:0.0048040189 59:0 60:0 61:0.97661865 62:0.0056779268 63:0.0079397969 64:0.01285193 65:0.20985734 66:0.043275986 67:0.0021032505 68:0.0060668108 69:0 70:0 71:0.72294122 72:0 73:0 74:0.00030695548 75:0.69090807 76:0 77:0 78:0 79:0 80:0 81:0.99999475 82:0 83:0 84:0 85:0.0030910687 86:0 87:0 88:0 89:0 
0 0 0 0 1 0 0 0 0 0 0 0 0 0 0 0 0:0 1:0.68773484 2:0.028220737 3:0.015586338 4:0.036919467 5:0.72279197 6:0.019548215 7:0.037211679 8:0.020531405 9:0 10:0 11:0.8077246 12:0.035504226 13:0.022068931 14:0.034040853 15:0.58588719 16:0.019169049 17:0.023184931 18:0.02246437 19:0 20:0 21:0.99999964 22:0 23:0 24:0 25:6.5986416e-05 26:0 27:0 28:0 29:0 30:0 31:0.99616128 32:0.0056285537 33:0.0018182457 34:0.0088240104 35:0.082430184 36:0.0198642 37:0.0096405912 38:0.016333792 39:0 40:0 41:0.98374546 42:0 43:0.0029328624 44:0.0087330192 45:0.17924362 46:0.0017499769 47:0.0023423061 48:0.0047442438 49:0 50:0 51:0.98034179 52:0.013399092 53:0.0081376247 54:0.014003695 55:0.19584526 56:0.0040937979 57:0.0060648858 58:0.0088434126 59:0 60:0 61:0.99998534 62:0 63:5.9013277e-05 64:0.00032712318 65:0.0053010741 66:0 67:0 68:0 69:0 70:0 71:0.99999958 72:0 73:0 74:0 75:8.499449e-06 76:0 77:0 78:0 79:0 80:0 81:0.99957186 82:0 83:0 84:0 85:0.019182377 86:0.012671285 87:0.012866228 88:0.012671285 89:0 
0.3128967110786782 0 0 0.5299440905386478 0 0 0.02999960447259464 0.1481238637118625 0 0 0.02488514296671799 0 0 0.1776491516262722 0.3185997552676871 0.1725430068630725 0:0 1:0.0075742844 2:4.7476467e-05 3:0.0003201958 4:0.010504573 5:0.99258983 6:0.12080178 7:0.00011461875 8:0 9:0 10:0 11:0.87210536 12:2.0331237e-05 13:0.00098365266 14:0.087402642 15:0.47862089 16:0.041101884 17:0.0088499384 18:0.030731881 19:0 20:0 21:0.99999923 22:0 23:0 24:0 25:0 26:0 27:0 28:0 29:0 30:0 31:0.25269395 32:0.00025289261 33:0.0009565716 34:0.023025781 35:0.95643955 36:0.13953081 37:0.034925368 38:0.01211081 39:0 40:0 41:0.84534937 42:0.00020982092 43:0.0068184617 44:0.0093544479 45:0.52436686 46:0.097142391 47:0.028843993 48:0.0044124732 49:0 50:0 51:0.07878118 52:0.012055071 53:0.062164877 54:0.22200298 55:0.96677017 56:0.075416148 57:0.0078292955 58:0.010133275 59:0 60:0 61:0.79873335 62:0 63:0 64:0.000727434 65:0.5995037 66:0.025429115 67:0.043216471 68:0.01001073 69:0 70:0 71:0.68869948 72:0.00090041908 73:0.00073398533 74:0.00036054273 75:0.71620828 76:0.11280517 77:0.0015812472 78:0 79:0 80:0 81:0.99999911 82:0 83:0 84:0 85:0 86:0 87:0 88:0 89:0 
0 0 0 0 0.6728464954833481 0 0 0 0 0 0 0 0 0 0 0 0:0 1:0.055025525 2:0 3:0 4:0 5:0.99797231 6:0.031922933 7:0 8:0 9:0 10:0 11:0.9862113 12:0 13:0 14:0 15:0.16544619 16:0.00099967001 17:0 18:0.0035469951 19:0 20:0 21:0.99999928 22:0 23:0 24:0 25:0 26:0 27:0 28:0 29:0 30:0 31:0.51760077 32:0 33:0 34:0 35:0.85324204 36:0.057523388 37:0.024236539 38:0.012981758 39:0 40:0 41:0.89295989 42:0 43:0 44:0 45:0.44996142 46:0.012474671 47:0 48:0 49:0 50:0 51:0.99085057 52:0.0050513376 53:0.017344693 54:0.00019442374 55:0.12906533 56:0.028668089 57:0.0016475741 58:0.02011795 59:0 60:0 61:0.99613237 62:0 63:0 64:0 65:0.052020218 66:0.05774748 67:0.035675045 68:0.020078173 69:0 70:0 71:0.70134068 72:0 73:0 74:0 75:0.71282041 76:0 77:0 78:0 79:0 80:0 81:0.99999881 82:0 83:0 84:0 85:0 86:0 87:0 88:0 89:0 
0.04271934608181366 1 1 0.4937666927154453 1 1 0.8740226741668475 1 1 1 1 1 1 1 1 1 0:0 1:0.99986178 2:0.0072854413 3:0 4:0.011320149 5:0.0065498836 6:0.0067876484 7:0.00051364052 8:0.0021500583 9:0 10:0 11:0.91032964 12:0.0033689791 13:0.012033774 14:0.030368881 15:0.41090608 16:0.019381197 17:0.029467499 18:0.011486717 19:0 20:0 21:0.99999803 22:0 23:0 24:0 25:0 26:0 27:0 28:0 29:0 30:0 31:0.99999946 32:0 33:0 34:0 35:0 36:0 37:0 38:0 39:0 40:0 41:0.99992961 42:0.0051924083 43:0 44:0.0080679851 45:0.0046681687 46:0.0048376261 47:0.0003660768 48:0.0015323685 49:0 50:0 51:0.74406677 52:0 53:0.35588032 54:0.0093994318 55:0.36196506 56:0.12911077 57:0.37290448 58:0.18115053 59:0 60:0 61:0.9999994 62:0 63:0 64:0 65:0 66:0 67:0 68:0 69:0 70:0 71:0.9999994 72:0 73:0 74:0 75:0 76:0 77:0 78:0 79:0 80:0 81:0.99974364 82:0 83:0 84:0 85:0 86:0 87:0 88:0 89:0 
1 1 1 0.7765657741898494 0.2989979374611029 1 0.1049655462839761 1 1 1 1 1 1 1 1 1 0:0 1:0.99529976 2:0 3:0 4:0 5:0.08168228 6:0.040494882 7:0 8:0.032570571 9:0 10:0 11:0.95527089 12:0 13:0.0066990135 14:0 15:0.29488149 16:0.017458985 17:0.0078496421 18:0.009461238 19:0 20:0 21:0.99999928 22:0 23:0 24:0 25:0 26:0 27:0 28:0 29:0 30:0 31:0.99413031 32:0 33:0 34:0 35:0.10591469 36:0.015950399 37:0 38:0.015197625 39:0 40:0 41:0.99873674 42:0 43:0.016189685 44:0 45:0.045834191 46:0.0049805595 47:0.011664443 48:0 49:0 50:0 51:0.78456223 52:0.0084259138 53:0.03511896 54:0.013337267 55:0.61810565 56:0.020637507 57:0.022298118 58:0 59:0 60:0 61:0.99999911 62:0 63:0 64:0 65:0 66:0 67:0 68:0 69:0 70:0 71:0.9988721 72:0 73:0 74:0 75:0.045268286 76:0.010348788 77:0 78:0.0098603815 79:0 80:0 81:0.99807304 82:0 83:0 84:0 85:0.058431406 86:0 87:0.020832501 88:0 89:0 
1 0 0 1 0 0 0.1777367412851585 0.8898629586418304 0 0 0.2411188710605268 0 0 0.3156169945472416 1 0.5444309037168144 0:0 1:0.53505844 2:0.00015825826 3:0.020643849 4:0.016036488 5:0.84268945 6:0.03304984 7:0.031259634 8:0.028777475 9:0 10:0 11:0.31566921 12:0.0031132426 13:0.019803893 14:0.012210335 15:0.94358444 16:0.014562834 17:0.093715742 18:0.021240205 19:0 20:0 21:0.83704245 22:0.024324685 23:0.098070987 24:0.065777272 25:0.51568806 26:0.015793236 27:0.13028014 28:0.040757943 29:0 30:0 31:0.14104392 32:0.0099525414 33:0.039753594 34:0.053964373 35:0.98761851 36:0.00066928897 37:0.010876641 38:0.0016451249 39:0 40:0 41:0.08623179 42:8.6683045e-05 43:0.029280422 44:0.059661064 45:0.99225968 46:0.043338973 47:0.033903681 48:0.0231726 49:0 50:0 51:0.44255614 52:0.032516215 53:0.057881519 54:0.10805497 55:0.88732648 56:0.014808532 57:0.020911176 58:0.0072532943 59:0 60:0 61:0.37010995 62:0.0042127771 63:0.043590888 64:0.039090052 65:0.92696136 66:0.0018988838 67:0.017552549 68:5.206684e-05 69:0 70:0 71:0.11456734 72:7.0844842e-05 73:0.018253125 74:0.022653913 75:0.99276775 76:0.0093818391 77:0.013525283 78:0.012886351 79:0 80:0 81:0.2397524 82:0.00065544382 83:0.077364005 84:0.2524446 85:0.93025523 86:0.044486377 87:0.072476923 88:0.013888715 89:0 
0 0 0 0 1 1 0 0 1 1 0.4672005001078171 0.6565049507367438 0 0 0 0 0:0 1:0.60111427 2:0.13185833 3:0.20055547 4:0.23379777 5:0.63651925 6:0.25475729 7:0.22899203 8:0.062391344 9:0 10:0 11:0.98413098 12:1.5346583e-05 13:0.0077849356 14:0.0043539372 15:0.08264105 16:0.074432909 17:0.13356109 18:0.034594204 19:0 20:0 21:0.9924376 22:0.052294031 23:0.05136371 24:0.032998879 25:0.036110684 26:0.0082562128 27:0.044274941 28:0.072608367 29:0 30:0 31:0.98754793 32:0.0019624638 33:0.071126536 34:0.066904522 35:0.12119826 36:0.018076211 37:0.013890331 38:7.5395743e-05 39:0 40:0 41:0.97340399 42:0.00025634846 43:0.0054216776 44:0.013137529 45:0.19322978 46:0.089903183 47:0.058274057 48:0.058855306 49:0 50:0 51:0.99697948 52:0.052650642 53:0.040172793 54:0.021205544 55:0.026295941 56:4.1994415e-05 57:0.021834761 58:0.0051868488 59:0 60:0 61:0.99962026 62:0.0089543844 63:0.015407441 64:0.0075445054 65:0.013360135 66:0.010840049 67:0.0093659377 68:0.00021721549 69:0 70:0 71:0.99029821 72:0.010399905 73:0.022229001 74:0.01689446 75:0.074541502 76:0.08286196 77:0.076310135 78:0.013210985 79:0 80:0 81:0.87557518 82:0.055591252 83:0.087268062 84:0.35786232 85:0.29701418 86:0.07373549 87:0.018077582 88:0.024760759 89:0 
1 0 0 0.1351756942226081 0 0 0.9468428361297153 0 0 0 0 0 0 0 0 0 0:0 1:0.25001556 2:0.00022560981 3:0.03027696 4:0 5:0.93591964 6:0.15745364 7:0.17726095 8:0.066413157 9:0 10:0 11:0.99323332 12:0 13:2.6279642e-05 14:0 15:0.10461274 16:0.028115146 17:0.041711707 18:0.0034586545 19:0 20:0 21:0.99974751 22:0.0050972407 23:8.75306e-05 24:0.0010602409 25:0.014231094 26:0.004627286 27:0.0065018269 28:0.014500489 29:0 30:0 31:0.98367548 32:0.0021314132 33:0.021253847 34:0.016130883 35:0.17517835 36:9.2652655e-05 37:0.031257976 38:0 39:0 40:0 41:0.85317427 42:0.00012689429 43:0.0080162799 44:0 45:0.51459044 46:0.060676992 47:0.055285875 48:0.022051647 49:0 50:0 51:0.99880451 52:0.024961824 53:0.033108648 54:0.016458614 55:0.019957246 56:0 57:0 58:0 59:0 60:0 61:0.99900723 62:0.0093706204 63:0.025927657 64:0.021294221 65:0.019912302 66:0.0072933668 67:0.017888721 68:0 69:0 70:0 71:0.96684229 72:0.0026671174 73:0.014848766 74:0.029059241 75:0.2182499 76:0.040832374 77:0.12160515 78:0.0073416177 79:0 80:0 81:0.63182145 82:0.1059748 83:0.16189514 84:0.19651763 85:0.67050523 86:0.24458022 87:0.10696097 88:0.062466979 89:0 
0 0 0 0 0.3370826604035314 0.1001156378054266 1 0 0 0.9703946266146524 0 0 0 0 0 0 0:0 1:0.21607554 2:0.14170168 3:0.28462929 4:0.3951844 5:0.68930686 6:0.29852217 7:0.29029891 8:0.21796852 9:0 10:0 11:0.98806459 12:0 13:0.031619743 14:0.006905044 15:0.076029658 16:0.085531108 17:0.089569323 18:0.039507583 19:0 20:0 21:0.99762106 22:0.011996576 23:0.021258073 24:0.0094497837 25:0.018719632 26:0.0053731324 27:0.031460617 28:0.051932942 29:0 30:0 31:0.95068657 32:0.025089376 33:0.10712191 34:0.15208086 35:0.23538347 36:0.034305453 37:0.059700001 38:0.028531885 39:0 40:0 41:0.96745187 42:6.8329573e-05 43:0.020872982 44:0.020170901 45:0.24782227 46:0.023506053 47:0.022977918 48:0.026390051 49:0 50:0 51:0.99826449 52:0.039709348 53:0.036112234 54:0.01596562 55:0.010633942 56:0.014070922 57:0.0044386033 58:0.00070121553 59:0 60:0 61:0.99520326 62:0.014239098 63:0.02968495 64:0.024124239 65:0.076295421 66:0.02650466 67:0.028354611 68:0.023999637 69:0 70:0 71:0.71941465 72:0.017020386 73:0.041538749 74:0.050893776 75:0.62721997 76:0.19317803 77:0.19405335 78:0.097239934 79:0 80:0 81:0.90043384 82:0.043614995 83:0.16243577 84:0.23271084 85:0.27176604 86:0.13829711 87:0.10642543 88:0.049654402 89:0 
0 1 1 0 1 1 0 1 1 1 1 1 0.8123172595586023 1 1 1 0:0 1:0.9018659 2:0.0041748523 3:0.0075782733 4:0.0080264909 5:0.42992312 6:0.036029156 7:0.018390713 8:0.005193342 9:0 10:0 11:0.93739724 12:0.010636755 13:0.025603728 14:0.026503796 15:0.34257704 16:0.032061156 17:0.037059236 18:0.0073289252 19:0 20:0 21:0.99999934 22:0 23:0 24:0 25:0.0002763395 26:0 27:0 28:0 29:0 30:0 31:0.99994779 32:0.0050037922 33:0.0051494408 34:0 35:0.0071431398 36:9.2539767e-06 37:6.3886393e-05 38:0.00093588443 39:0 40:0 41:0.99335527 42:0.0042281523 43:0.005580178 44:0.00013464701 45:0.11487069 46:5.8853388e-05 47:0 48:0 49:0 50:0 51:0.99875325 52:0 53:0 54:0 55:0.049654406 56:0 57:0.0049083666 58:0 59:0 60:0 61:0.9999994 62:0 63:0 64:0 65:0 66:0 67:0 68:0 69:0 70:0 71:0.99999934 72:0 73:0 74:0 75:0 76:0 77:0 78:0 79:0 80:0 81:0.99999428 82:0 83:0 84:0 85:0 86:0 87:0 88:0 89:0 
-1 0.306382511030362 0.319921118095269 1 0.4173744397683208 0.5750684642841369 1 0.5482950343055298 0.4928595833688807 0.3838069052997847 0.8628009163021129 0.5458879725195228 0.5282337290545647 0.5722727706193839 0.7024348377648917 0.7057747377219652 0:0 1:0.85578376 2:0 3:0.017579315 4:4.0352934e-09 5:0.4951162 6:0.080763042 7:0.096557148 8:0.079524726 9:0 10:0 11:0.28998077 12:0.0011942848 13:0.015608601 14:0.035857696 15:0.83839297 16:0.25653446 17:0.35708269 18:0.13472874 19:0 20:0 21:0.99817139 22:0.025875667 23:0.0045572734 24:0.018269988 25:0.021871133 26:0.01268902 27:0.0098466147 28:0.043466683 29:0 30:0 31:0.22239543 32:0 33:0.079961151 34:0.019435717 35:0.97100681 36:0.0088216914 37:0.028697671 38:3.5300405e-09 39:0 40:0 41:0.059497725 42:5.9190515e-05 43:0.00061069138 44:4.6255235e-09 45:0.99319875 46:0.017690592 47:0.093669206 48:0.030385522 49:0 50:0 51:0.37867787 52:0.26923728 53:0.27200255 54:0.23349039 55:0.80658114 56:0.015480557 57:0.06921947 58:0 59:0 60:0 61:0.99513686 62:0 63:0.0118018 64:0.0019831937 65:0.097737961 66:1.6427814e-09 67:0.0007505705 68:0 69:0 70:0 71:0.26347354 72:0 73:0.066635221 74:0.021820582 75:0.90717989 76:0.173307 77:0.26943889 78:0.0068170102 79:0 80:0 81:0.50328577 82:0.064567819 83:0.15126869 84:0.35848731 85:0.7241044 86:0.23392728 87:0.10891561 88:0.014812214 89:0 
-1 0 0.6766110014317219 0 0 0.4276739578070257 0 0 0 0 1 0 1 0.6692941461183608 0 0 0:0 1:0.85270798 2:0.13913669 3:0.19794552 4:0.15252031 5:0.37512994 6:0.14197925 7:0.17338422 8:0.011847454 9:0 10:0 11:0.85787088 12:0.029427527 13:0.027115051 14:0.040694565 15:0.40799427 16:0.18388978 17:0.20506883 18:0.13590699 19:0 20:0 21:0.99467516 22:0.056959786 23:0.045252062 24:0.014835046 25:0.029187584 26:0.010542326 27:0.04647956 28:0.044547159 29:0 30:0 31:0.97526127 32:0.0069316896 33:0.053233691 34:0.043432139 35:0.20778686 36:0.016208995 37:0.020574177 38:0.015324115 39:0 40:0 41:0.71384645 42:0.074082933 43:0.14957187 44:0.057948954 45:0.65618598 46:0.10413146 47:0.13047992 48:0.027476491 49:0 50:0 51:0.86104673 52:0.16913469 53:0.19779696 54:0.21813075 55:0.37542316 56:0.039536487 57:0.019328391 58:0.020159865 59:0 60:0 61:0.99008614 62:0.0095389765 63:0.004136397 64:0.00020069779 65:0.13913894 66:0.0024867563 67:0.010026399 68:0.01241181 69:0 70:0 71:0.98346293 72:0.013710349 73:0.0042333342 74:0.0034808533 75:0.16297454 76:0.041309487 77:0.042653583 78:0.049951673 79:0 80:0 81:0.88147378 82:0.18136774 83:0.20042358 84:0.17469618 85:0.32766819 86:0.098411679 87:0.042568993 88:0.023583699 89:0 
-0 0 0 0 0 0 0 0 0 0 0 0 0 0 0 0.2889803767709329 0:0 1:0.57574642 2:0 3:0 4:0.019065186 5:0.81620675 6:0.017471161 7:0.035832953 8:0.019116402 9:0 10:0 11:0.87613088 12:0.020800557 13:0.013573912 14:0.0059961355 15:0.48035556 16:0.0057333265 17:0.02077839 18:0.023104284 19:0 20:0 21:0.32050475 22:0.01661551 23:0.034998517 24:0.0066087246 25:0.94604617 26:0.0060610496 27:0.00029359007 28:0.026254537 29:0 30:0 31:0.8454262 32:0 33:0 34:0.00021943393 35:0.5327341 36:0.0056632641 37:0.028887028 38:0.024088478 39:0 40:0 41:0.085091613 42:0.014429384 43:0.010859136 44:0.0072537847 45:0.99594688 46:0.0076019466 47:0.016104467 48:0.012331446 49:0 50:0 51:0.9144485 52:0.017886419 53:0.01167222 54:0.005156083 55:0.40410304 56:0.0004334508 57:0 58:0 59:0 60:0 61:0.40636683 62:0 63:0 64:0.00077354012 65:0.91291416 66:0.03169167 67:0.021117736 68:0 69:0 70:0 71:0.8911708 72:0 73:0 74:0.00018322586 75:0.4534283 76:0.0031117511 77:0.0058807475 78:0.013090064 79:0 80:0 81:0.11603388 82:0.0021849878 83:0.011729104 84:0.052997891 85:0.99070996 86:0.014281982 87:0 88:0.043260042 89:0 
-0.2512511650962809 0 0 0 0 0 0 0 0 0 0.05226981907404291 0 0.1791897262368193 0 0.0471748742310369 0 0:0 1:0.1320194 2:0.14513315 3:0.023608861 4:0.1603148 5:0.95886779 6:0.033134367 7:0.0013928153 8:0.12130755 9:0 10:0 11:0.96147925 12:0.0083715776 13:0.013159486 14:0.028467637 15:0.26975083 16:0.029837644 17:0.0091288984 18:0.027632918 19:0 20:0 21:0.9865346 22:0.031562876 23:0.0073611829 24:0.041236915 25:0.13924333 26:0.061311856 27:0.020195225 28:0.02101469 29:0 30:0 31:0.98334432 32:0.010232178 33:0.016759837 34:0.0081006661 35:0.17828582 36:0.019423278 37:0.0098511511 38:0.017923063 39:0 40:0 41:0.052638426 42:0.053174626 43:0.025526052 44:0.079530098 45:0.99084169 46:0.04652328 47:0.024550552 48:0.053750407 49:0 50:0 51:0.94289684 52:0.056935847 53:0.069659747 54:0.034440216 55:0.31697774 56:0.026240155 57:0.014788491 58:0.016784927 59:0 60:0 61:0.99899125 62:0.0027732782 63:0.024458706 64:0.024669126 65:0.026445575 66:0.0066958368 67:0.0075088092 68:0 69:0 70:0 71:0.98048496 72:0.0098211793 73:0.016365131 74:0.0077752848 75:0.18175229 76:0.037062414 77:0.05844529 78:0.019998163 79:0 80:0 81:0.23492503 82:0.21838152 83:0.21987273 84:0.16714381 85:0.82586902 86:0.22022903 87:0.23472938 88:0.18755612 89:0 
-0 0 0 1 0 0 0 0 0 0 0 0 0 0 0 0 0:0 1:0.060269013 2:0 3:0 4:0 5:0.99671394 6:0.053998541 7:0.0032273273 8:0.00014102658 9:0 10:0 11:0.9337064 12:0.006574993 13:0.042698558 14:0.00020074548 15:0.35491079 16:0.019035483 17:0 18:0.00043799132 19:0 20:0 21:0.52728915 22:0.022211518 23:0.033309471 24:0.0027342124 25:0.84807414 26:0 27:0 28:0.033520531 29:0 30:0 31:0.92850953 32:0 33:0 34:5.2818752e-05 35:0.36981559 36:0.033219885 37:0 38:0.0010470166 39:0 40:0 41:0.013459159 42:0.0059120059 43:0.021724237 44:0.00053114444 45:0.9994278 46:0.021249231 47:0 48:0.0017318899 49:0 50:0 51:0.90479738 52:0.0062533924 53:0.040610056 54:0.00019092648 55:0.42385307 56:0 57:0 58:0.00056819536 59:0 60:0 61:0.56492245 62:0 63:0 64:2.787495e-05 65:0.82466561 66:0.020832578 67:0.018775091 68:0 69:0 70:0 71:0.88492769 72:0.0082944687 73:0.016574318 74:0.0013128667 75:0.46490827 76:0.02038556 77:0 78:0.00088581262 79:0 80:0 81:0.013473677 82:0.010387892 83:0.055999842 84:0.0093131317 85:0.99782449 86:0 87:0.00031438575 88:0.028841216 89:0 
-0 0 0 0 0 0 0 0 0 0 0 0 0 0 0 0.4957865500129848 0:0 1:0.83510882 2:0 3:0 4:0.011930523 5:0.54959255 6:0.0097310552 7:0.017370731 8:0 9:0 10:0 11:0.93256569 12:0.017644957 13:0.0094536915 14:0.0016637295 15:0.36006597 16:0.0016888698 17:0.016294958 18:0 19:0 20:0 21:0.62863135 22:0.03419093 23:0.037386287 24:0.038294166 25:0.77479833 26:0.0043977774 27:0.014616575 28:0.015534471 29:0 30:0 31:0.96423215 32:0 33:0 34:0 35:0.26330909 36:0.009613012 37:0.028819049 38:0 39:0 40:0 41:0.58154428 42:3.3674856e-05 43:0.0026356834 44:0.015014882 45:0.81317937 46:0.0081750276 47:0.015643906 48:0 49:0 50:0 51:0.91624057 52:0.016680362 53:0.031554583 54:0.0031455569 55:0.39902088 56:0 57:0 58:0 59:0 60:0 61:0.41608688 62:0 63:0 64:0.00017516526 65:0.90872526 66:0.0023872713 67:0.032891866 68:0 69:0 70:0 71:0.94698334 72:0.01508497 73:0.029600823 74:0.0038341922 75:0.31907338 76:0.008195132 77:0.015083019 78:0 79:0 80:0 81:0.86644614 82:0.017556148 83:0.027622996 84:0.069147468 85:0.49315533 86:0.014505143 87:0.0020219067 88:0 89:0 
-0 0 0 0.6278427319179064 0.3493695693298825 0 0 0 0 0 0 0 0 0 0 1 0:0 1:0.059176993 2:0 3:0 4:0 5:0.99643028 6:0.033300702 7:0.029921515 8:0.040222447 9:0 10:0 11:0.90109181 12:0.0087840259 13:0.0054646945 14:0.015628451 15:0.43298218 16:0.0094746491 17:0.0092220567 18:0.0056578182 19:0 20:0 21:0.84135401 22:0.013105027 23:0.023373274 24:0.063371465 25:0.53606212 26:0 27:0.0050308919 28:6.3636042e-05 29:0 30:0 31:0.95080221 32:0 33:0 34:0 35:0.30827183 36:0.012623018 37:0.027892757 38:0.0021451705 39:0 40:0 41:0.10451388 42:0.0026467012 43:0.0064237099 44:0.012411729 45:0.99412733 46:0.014313073 47:0.018702837 48:0.0054147323 49:0 50:0 51:0.92839307 52:0.0057371743 53:0.0035691955 54:0.010207524 55:0.37139633 56:0 57:0 58:0 59:0 60:0 61:0.47895789 62:0 63:0 64:0 65:0.87427628 66:0.048904903 67:0.057870388 68:0.022295561 69:0 70:0 71:0.94989592 72:0 73:0 74:0 75:0.31195128 76:0.0033906263 77:0.019263251 78:0 79:0 80:0 81:0.85357761 82:0.014432621 83:0.021621948 84:0.063637219 85:0.51479864 86:0.016966978 87:0.037050277 88:1.5691438e-05 89:0 
-0 0 0.966239902689797 0.8542351506176578 0 0 0.1436211533724976 0 0 0 0 0 0.2093668666303115 0.03605303881506328 0 0.30352053997622 0:0 1:0.9937681 2:0 3:0 4:0 5:0.10939076 6:0.0035594516 7:0.021079466 8:0 9:0 10:0 11:0.98223919 12:0.0098233782 13:0.01461266 14:0.01413454 15:0.18557538 16:0.0029912747 17:0.015730938 18:0 19:0 20:0 21:0.48922107 22:0.030313667 23:0.052443806 24:0.05030087 25:0.86849606 26:0 27:0.013243788 28:0 29:0 30:0 31:0.96163547 32:0 33:0 34:0 35:0.272724 36:0.019443162 37:0.022335306 38:0 39:0 40:0 41:0.76347208 42:0.012100129 43:0.017370878 44:0.017450755 45:0.6449694 46:0.0063560028 47:0.018156789 48:0 49:0 50:0 51:0.9678185 52:0.0094243204 53:0.014019047 54:0.021750189 55:0.24858128 56:0.018485192 57:0.020806352 58:0 59:0 60:0 61:0.6841926 62:0 63:0 64:0 65:0.72570378 66:0.045792241 67:0.050636917 68:0.023894424 69:0 70:0 71:0.9406504 72:0 73:0 74:0.0080726855 75:0.33880833 76:0.016908959 77:0.0057329447 78:0 79:0 80:0 81:0.94373804 82:0.0069495952 83:0.0068866839 84:0.038486976 85:0.32262281 86:0.046926267 87:0.034571562 88:0.017230136 89:0 
-0 0 0 0 0 0 1 0 0 0 0 0 0 0 0 0.1760977188952451 0:0 1:0.34957543 2:0.16601799 3:0.25247446 4:0.25260031 5:0.71591306 6:0.27210152 7:0.30498481 8:0.20758215 9:0 10:0 11:0.96122879 12:0.0007005604 13:0.040599979 14:0.0082391081 15:0.24540456 16:0.08579991 17:0.066245288 18:0.048434965 19:0 20:0 21:0.97745383 22:0.0045358413 23:0.026747921 24:0.02999614 25:0.20166337 26:0.035843588 27:0.028973905 28:0.012392422 29:0 30:0 31:0.90484881 32:0.032388993 33:0.12841783 34:0.12459906 35:0.38337621 36:0.021205755 37:0.023402371 38:0.014344203 39:0 40:0 41:0.12657033 42:0.0054843426 43:0.07786756 44:0.03015675 45:0.98566675 46:0.045605402 47:0.057316836 48:0.008327364 49:0 50:0 51:0.94004184 52:0.037913661 53:0.14386094 54:0.046963189 55:0.29821402 56:0.0076809041 57:0.053763732 58:0.0098741958 59:0 60:0 61:0.99448633 62:0.017390694 63:0.020271087 64:0.0043848054 65:0.096081562 66:0.0099568041 67:0.026840899 68:0.014522043 69:0 70:0 71:0.86399877 72:0.001293409 73:0.014431586 74:0.040286906 75:0.45475215 76:0.11854019 77:0.1707599 78:0.040735111 79:0 80:0 81:0.13865258 82:0.11248794 83:0.29882976 84:0.30582118 85:0.81808245 86:0.28599235 87:0.18199672 88:0.033413928 89:0 
-1 0.2961404110836195 0.203723681258166 0.9884146684684267 0.3504555076598402 0.6952913830109064 0.7481649973033345 0.512193765546502 0.643688461893595 0.4303559551951965 0.7979972560376429 0.5063853007620455 0.926205569137708 0.9312606224259948 0.5565729710440681 0.6415167321373523 0:0 1:0.99938846 2:0 3:0 4:0 5:0.034378015 6:0 7:0.0063044201 8:0 9:0 10:0 11:0.88985389 12:0 13:0 14:0 15:0.45569828 16:0.0019975852 17:0 18:0.022208819 19:0 20:0 21:0.41183656 22:0.011481751 23:0.055362042 24:0.053482689 25:0.90789229 26:0 27:0.0079082185 28:0 29:0 30:0 31:0.95134914 32:0 33:0 34:0 35:0.30631325 36:0.0012593943 37:0.0066014971 38:0.032559782 39:0 40:0 41:0.88892186 42:0 43:0 44:0 45:0.45793861 46:0 47:0.0045699622 48:0.0093890112 49:0 50:0 51:0.85776764 52:0.014914664 53:0.0065722209 54:0.013855599 55:0.51359063 56:0 57:0 58:0 59:0 60:0 61:0.16088618 62:0 63:0 64:0 65:0.98464638 66:0.040235944 67:0.051176142 68:0.018627964 69:0 70:0 71:0.91114634 72:0.014055135 73:0.0064036436 74:0.013338651 75:0.41132742 76:0 77:0.0062975758 78:0.012819383 79:0 80:0 81:0.99843365 82:0.0063612913 83:0.020938065 84:0.019623615 85:0.047582828 86:0.0010255239 87:3.1410094e-05 88:0.00010735086 89:0 
-1 1 1 0.4097160616616373 0.9922465164948827 1 1 1 1 1 1 1 1 1 1 1 0:0 1:0.89545357 2:0.00095433369 3:0.06268096 4:0.14455171 5:0.3564294 6:0.11990866 7:0.12327775 8:0.12929943 9:0 10:0 11:0.98028803 12:0.022519339 13:0.014904462 14:0.016594941 15:0.16952865 16:0.081619889 17:0.048789717 18:0.015724571 19:0 20:0 21:0.98845941 22:0.021330621 23:0.0036182224 24:0.030204087 25:0.14603171 26:0.012965709 27:3.0594045e-05 28:0.0085561052 29:0 30:0 31:0.9708885 32:0.057748277 33:0.10873074 34:0.083042003 35:0.18683489 36:0.013673379 37:0 38:0.015057313 39:0 40:0 41:0.93565804 42:0.024612002 43:0.022606347 44:0.0074387481 45:0.34534729 46:0.029502003 47:0.048804134 48:0.029206801 49:0 50:0 51:0.99241424 52:0.02240631 53:0.033997495 54:0.030230159 55:0.10950535 56:0.013340149 57:0.013165819 58:0.014080839 59:0 60:0 61:0.99744153 62:0.029445937 63:0.016588459 64:0.019921402 65:0.03814761 66:0.0078191757 67:0.028297374 68:0.035401579 69:0 70:0 71:0.94298595 72:0.010844309 73:0.0090641845 74:0.043681547 75:0.28079244 76:0.10665376 77:0.11268394 78:0.075836629 79:0 80:0 81:0.7506364 82:0 83:0.011888719 84:0.07180807 85:0.51226693 86:0.36339721 87:0.15993242 88:0.1057893 89:0 
-1 1 1 0 1 1 0.5622264553248283 0.8238212011160927 1 1 1 1 1 1 1 1 0:0 1:0.81334686 2:0.10282589 3:0.17298311 4:0.25390351 5:0.43460923 6:0.1335876 7:0.15928058 8:0.037416585 9:0 10:0 11:0.99046254 12:0.0046871807 13:0.028399698 14:0.012613706 15:0.065909527 16:0.052299593 17:0.067690782 18:0.079584524 19:0 20:0 21:0.99912947 22:0.024726462 23:0.016828371 24:0.0068681617 25:0.013414477 26:0.0098188808 27:0.021431215 28:0.0078722266 29:0 30:0 31:0.98975563 32:0.0093737049 33:0.038943693 34:0.050230902 35:0.12677421 36:0.013544455 37:0 38:0 39:0 40:0 41:0.77197772 42:0.023200074 43:0.036014829 44:0.034736514 45:0.63209754 46:0.019625865 47:0.02567124 48:0.0203826 49:0 50:0 51:0.98668486 52:0.086118229 53:0.089888729 54:0.054205135 55:0.082595229 56:0.033230379 57:0.0064964183 58:0.0069825477 59:0 60:0 61:0.99422395 62:0.0045672739 63:0.001828642 64:0.007036055 65:0.10546464 66:0.017923916 67:0 68:0 69:0 70:0 71:0.99063367 72:0 73:1.1292931e-05 74:0.0026907665 75:0.11591996 76:0.053116914 77:0.045487836 78:0.017567109 79:0 80:0 81:0.88683629 82:0.13545132 83:0.13494025 84:0.22063625 85:0.34176549 86:0.10548455 87:0.018770287 88:0.00052967563 89:0 
-0 0.1904737975049215 1 0 0 0 0.2654350936233379 0 0 0 0 0.824948798376626 0.1732717593088423 0 0.0500275816926744 1 0:0 1:0.9131124 2:0 3:0.02705293 4:0.029047657 5:0.39352933 6:0.045004588 7:0.051579699 8:0.071384802 9:0 10:0 11:0.99884731 12:0.021468677 13:0.0074305558 14:0.015975492 15:0.037431058 16:0.0052619781 17:0.0060919188 18:0.0081164828 19:0 20:0 21:0.9857285 22:0.0027740272 23:0.0070332545 24:0.021097086 25:0.16623247 26:0.0034106693 27:0.013317483 28:0.0037296314 29:0 30:0 31:0.99904895 32:0 33:0 34:0 35:0.037581075 36:0.014983484 37:0.0033494642 38:0.015884198 39:0 40:0 41:0.00028593105 42:0.092713632 43:0.055468954 44:0.072008356 45:0.98605442 46:0.053931583 47:0.04680058 48:0.075747274 49:0 50:0 51:0.99824554 52:0.019397197 53:0.0067135924 54:0.014434041 55:0.050118174 56:0.010630125 57:0.00872235 58:0.013209202 59:0 60:0 61:0.99321669 62:0.0039754072 63:0.0082727131 64:0.0053895162 65:0.11498389 66:0.005888042 67:0.0090479385 68:0.0082767559 69:0 70:0 71:0.99835438 72:0.0094831735 73:0.0082118344 74:0.0094899945 75:0.052998848 76:0.010284656 77:0.00017693247 78:0.011201955 79:0 80:0 81:0.92859066 82:0.076196656 83:0.055888705 84:0.07703945 85:0.33787921 86:0.016631093 87:0.049420137 88:0.077273585 89:0 
-0 0.04293687676943884 0 0.6033095526902373 0 0.2102619430294985 0.1896110028385665 0.003616871520637877 0.1557961380157967 0.09408840111496652 0.2384910900534578 0.04790555216900431 0.2536699013052944 0.2307150973099307 0.2484711524731729 0.03835810349828157 0:0 1:6.7131768e-05 2:0 3:0 4:0 5:0.99851644 6:0.046811488 7:0.010928638 8:0.025512261 9:0 10:0 11:0.98270786 12:0 13:0.016156334 14:0.004121847 15:0.18429871 16:0.0062862188 17:0 18:0 19:0 20:0 21:0.63026607 22:0.037827034 23:0.035491608 24:0.033984195 25:0.77282888 26:0.03336069 27:0.014529283 28:0.018112721 29:0 30:0 31:0.98206002 32:0 33:0 34:0.00011033708 35:0.18756507 36:0.010275346 37:0.016434578 38:8.7387816e-05 39:0 40:0 41:0.026947981 42:0 43:0.047081891 44:0.0020358658 45:0.99791837 46:0.025484111 47:0.023663552 48:2.5269397e-05 49:0 50:0 51:0.96575344 52:0 53:0.021951407 54:0.016809609 55:0.25798059 56:0.00046448651 57:0 58:3.6062575e-05 59:0 60:0 61:0.63962221 62:0 63:2.9067047e-05 64:0.00075618195 65:0.7678386 66:0.0074508139 67:0.035333108 68:0 69:0 70:0 71:0.96348023 72:0 73:0.0060014105 74:0.017586201 75:0.26630327 76:0.013223433 77:0.016325882 78:8.6809836e-05 79:0 80:0 81:0.024110796 82:0.020386308 83:0.050765269 84:0.027720192 85:0.99749392 86:0.016089192 87:0.0049454267 88:0.019439632 89:0 
-0 0 0 0 0 0 0 0 0 0.1243197562328525 0 0.4244023343097809 1 0 0 0 0:0 1:0.29823431 2:0.22875845 3:0.22402385 4:0.22578301 5:0.75419271 6:0.25464135 7:0.23092383 8:0.26567373 9:0 10:0 11:0.98281741 12:0.010397275 13:0.0042984788 14:0.022378877 15:0.16034774 16:0.066669099 17:0.047446351 18:0.032155659 19:0 20:0 21:0.9881143 22:0.037031118 23:0.025639251 24:0.033711649 25:0.1364336 26:0.023910942 27:0.028774213 28:0.021213852 29:0 30:0 31:0.96180058 32:0.068835512 33:0.048482653 34:0.070779927 35:0.24678497 36:0.032096371 37:0.027749557 38:0.011694485 39:0 40:0 41:0.090566151 42:0.069931246 43:0.050114442 44:0.071285374 45:0.98270154 46:0.095703021 47:0.039017461 48:0.054115731 49:0 50:0 51:0.98235029 52:0.049175087 53:0.065948948 54:0.070586883 55:0.15220664 56:0.0072180117 57:0.0042359801 58:0.00018962513 59:0 60:0 61:0.99282861 62:0.013742029 63:0.038869582 64:0.033762909 65:0.087866955 66:0.039150529 67:0.042727794 68:0.019277148 69:0 70:0 71:0.96682763 72:0.00023365658 73:0.026309382 74:0.022477109 75:0.21804523 76:0.069805406 77:0.088502765 78:0.061615527 79:0 80:0 81:0.31937563 82:0.258255 83:0.28073496 84:0.21740481 85:0.73731434 86:0.23686235 87:0.22385354 88:0.23532262 89:0 
-0 0 0 0.4544665381560844 0 0 0 0 0 0 0 0 0 0 0.2484069558984137 0 0:0 1:0.20071892 2:0.19662024 3:0.19615394 4:0.17410119 5:0.86253595 6:0.14245276 7:0.25577891 8:0.15025836 9:0 10:0 11:0.74553448 12:0.017047696 13:0.05092549 14:0.029632133 15:0.62354827 16:0.10244911 17:0.14795281 18:0.13862133 19:0 20:0 21:0.9812659 22:0.022030398 23:0.042248659 24:0.040246092 25:0.16893971 26:0.056847215 27:0.02037615 28:0.032226838 29:0 30:0 31:0.70365328 32:0.09764228 33:0.12627228 34:0.16263069 35:0.67060471 36:0.032520443 37:0.046580017 38:0.0022398485 39:0 40:0 41:0.054983474 42:0.025954336 43:0.0460186 44:0.051133458 45:0.9932906 46:0.032700829 47:0.062228009 48:0.0012485567 49:0 50:0 51:0.7990877 52:0.13542628 53:0.20080189 54:0.097041354 55:0.54112738 56:0.016896129 57:0.012726341 58:0.010582672 59:0 60:0 61:0.9832924 62:0.030195929 63:0.02123758 64:0.012569256 65:0.16345435 66:0.041444656 67:0.032479018 68:0.046088696 69:0 70:0 71:0.7388925 72:0.015730649 73:0.0088454746 74:0.040247433 75:0.63334697 76:0.097097658 77:0.15460096 78:0.13278879 79:0 80:0 81:0.26030466 82:0.14955424 83:0.24889651 84:0.23109655 85:0.84617329 86:0.19610564 87:0.14856613 88:0.134084 89:0 
-1 0.5059505475038256 1 1 0 1 1 0 1 0.4309135296297527 1 1 1 1 0.2264918082821814 1 0:0 1:0.85649681 2:0.035580516 3:0.035149317 4:0.0930347 5:0.46389809 6:0.16075325 7:0.11732812 8:0.021110315 9:0 10:0 11:0.96022487 12:0 13:0 14:0 15:0.17870325 16:0.14804798 17:0.14510989 18:0.055288527 19:0 20:0 21:0.99209106 22:0.043396894 23:0.039621256 24:0.026860148 25:0.079886012 26:0.019073782 27:0.05046729 28:0.047820602 29:0 30:0 31:0.96843296 32:0.0043331292 33:0.048251837 34:0.049425464 35:0.23816165 36:0.01410928 37:0.0165317 38:0.012375431 39:0 40:0 41:0.88905257 42:0.019467838 43:0.017090373 44:0.047488026 45:0.45072699 46:0.051374216 47:0.02867092 48:0.0064593158 49:0 50:0 51:0.95596659 52:0.089750811 53:0.08781857 54:0.15427765 55:0.21553041 56:0.0068757012 57:2.5316884e-05 58:0.0075540021 59:0 60:0 61:0.9844349 62:0.046895795 63:0.017193215 64:0.023550272 65:0.16389066 66:0.014177521 67:0.0089116124 68:0.026394319 69:0 70:0 71:0.95681632 72:0.0010677496 73:0.0042915964 74:0.03218475 75:0.28363493 76:0.04596623 77:0.027507929 78:0.011296825 79:0 80:0 81:0.85623246 82:0.041999713 83:0.10725699 84:0.21395622 85:0.45475727 86:0.031850021 87:0.00065666239 88:0 89:0 
-1 1 1 0 1 1 1 1 1 1 1 1 1 1 1 1 0:0 1:0.95716059 2:0.084339812 3:0.055718053 4:0.079086393 5:0.23063903 6:0.10584439 7:0.054508559 8:0.001087573 9:0 10:0 11:0.94220895 12:0.00045966319 13:0.017455239 14:0.010277133 15:0.27845937 16:0.10826805 17:0.12111107 18:0.088888504 19:0 20:0 21:0.98496974 22:0.026131069 23:0.084091708 24:0.065022551 25:0.076591484 26:0.036662418 27:0.097551137 28:0.033532847 29:0 30:0 31:0.97365522 32:0.0019912156 33:0.032011941 34:0.059286758 35:0.21640839 36:0.014420589 37:0.017417919 38:0.01034126 39:0 40:0 41:0.96092218 42:0.014224026 43:0.038710497 44:0.022416521 45:0.270684 46:0.013579953 47:0.031143071 48:0 49:0 50:0 51:0.93264461 52:0.058332663 53:0.12769908 54:0.097868472 55:0.31712171 56:0.01410642 57:0.010942945 58:0 59:0 60:0 61:0.99011189 62:0 63:0.015218887 64:0.0054772641 65:0.13790914 66:0.0167684 67:0.0055361683 68:0.0092312489 69:0 70:0 71:0.97918618 72:0.0038114076 73:0.0020939719 74:0.0087581165 75:0.18499948 76:0.046645615 77:0.06192784 78:0.029360265 79:0 80:0 81:0.95391649 82:0.071812153 83:0.084155396 84:0.14960216 85:0.2345897 86:0.019739915 87:0.00029607487 88:0 89:0 
-0.4802058259902419 0.1441782530005131 0.0934246235881874 0.07481618676772263 0.1915259767382246 0.2958368879639753 0.3451755091050123 0.1317811721239013 0.2354412071799017 0.2718426324134585 0.4046148197193718 0.5027054165088215 0.4417447030327095 0.3290916944504337 0.1154914895646948 0.1789989122442515 0:0 1:0.06564042 2:0.053448252 3:0.10357696 4:0.25756398 5:0.92702049 6:0.19665544 7:0.12417375 8:0.048004508 9:0 10:0 11:0.87297356 12:0.031326901 13:0.057228472 14:0.08601059 15:0.46718684 16:0.069765471 17:0.043498702 18:0.035179567 19:0 20:0 21:0.079313651 22:0.015264276 23:0.023646493 24:0.10241727 25:0.98211247 26:0.12986936 27:0.022529222 28:0.022510009 29:0 30:0 31:0.88490629 32:0.056678649 33:0.053521838 34:0.07747148 35:0.44608864 36:0.032893289 37:0.039700881 38:0.056626074 39:0 40:0 41:0.03613532 42:0.049778365 43:0.063406982 44:0.21411406 45:0.95518321 46:0.15450223 47:0.091257893 48:0.04213037 49:0 50:0 51:0.92905754 52:0.031379037 53:0.015907327 54:0.081457682 55:0.34301773 56:0.056928307 57:0.045425858 58:0.077532053 59:0 60:0 61:0.07847666 62:0.031439688 63:0.017512841 64:0.098977052 65:0.98681468 66:0.091712803 67:0.015988497 68:0.016646899 69:0 70:0 71:0.94281453 72:0.048727669 73:0.039494269 74:0.056665167 75:0.31016341 76:0.047588024 77:0.044427801 78:0.059275318 79:0 80:0 81:0.035404291 82:0.067016609 83:0.065278165 84:0.23599516 85:0.93425477 86:0.21952549 87:0.094965965 88:0.065230794 89:0 
-0.4338847136754174 0 0 0 0 0 0.3183559573048759 0 0 0.1434917015007838 0.1578852141686577 1 1 0 0 0.03529187562944963 0:0 1:0.43879345 2:0.17638592 3:0.23619325 4:0.23812315 5:0.70079845 6:0.26627281 7:0.26307988 8:0.18062097 9:0 10:0 11:0.99391186 12:0.011517989 13:0.0037096317 14:0.012324366 15:0.066560343 16:0.044727221 17:0.071623348 18:0.016707333 19:0 20:0 21:0.99939352 22:0.017619783 23:0.0079161804 24:0.014731922 25:0.01817598 26:0.0081724385 27:0.0094626658 28:0.011611822 29:0 30:0 31:0.96133858 32:0.064544588 33:0.13800699 34:0.13867812 35:0.1797992 36:0.03107832 37:0.0091590472 38:0.0024158065 39:0 40:0 41:0.16445337 42:0.052615158 43:0.063283823 44:0.07198099 45:0.97333086 46:0.087633863 47:0.053194147 48:0.055819977 49:0 50:0 51:0.99231893 52:0.038395029 53:0.074299842 54:0.025495671 55:0.083973594 56:0.010529322 57:0.019607166 58:0.010511898 59:0 60:0 61:0.99728107 62:0.04387043 63:0.035746809 64:0.017533055 65:0.022939948 66:0.01317988 67:0.020848479 68:0.028018773 69:0 70:0 71:0.97048426 72:0.003852946 73:0.0087586632 74:0.019242289 75:0.1477678 76:0.10432035 77:0.13656329 78:0.079559572 79:0 80:0 81:0.36208764 82:0.1276167 83:0.3447051 84:0.28025019 85:0.67408037 86:0.2693136 87:0.25647929 88:0.25009066 89:0 
-1 0.3825447916864115 0.5101354588671239 1 0.5796753720705319 0.6372111506614324 1 0.534048000846056 0.6078703711230985 0.5372175664806188 0.7021111968311381 0.8047231728194039 0.6445437084128094 0.5868281204988579 1 0.5804991593286497 0:0 1:0.049008764 2:0.032658193 3:0.086467236 4:0.16177253 5:0.95935529 6:0.19005069 7:0.06030431 8:0.052560195 9:0 10:0 11:0.20347363 12:0.16502258 13:0.14989972 14:0.18955667 15:0.89486033 16:0.20157912 17:0.16136314 18:0.07424482 19:0 20:0 21:0.071921334 22:0.01837186 23:0.027385991 24:0.1204686 25:0.95937836 26:0.2368871 27:0.038931914 28:0.034431558 29:0 30:0 31:0.21852742 32:0.089502707 33:0.16021512 34:0.11617447 35:0.90999496 36:0.19658801 37:0.14136131 38:0.13544248 39:0 40:0 41:0.029177798 42:0.027709283 43:0.045298439 44:0.15235706 45:0.9714244 46:0.15597202 47:0.044081699 48:0.056371305 49:0 50:0 51:0.34617811 52:0.071914166 53:0.12220596 54:0.15238456 55:0.83587867 56:0.22191714 57:0.23571286 58:0.18255676 59:0 60:0 61:0.061270215 62:0.028120479 63:0.023615679 64:0.068621844 65:0.98428077 66:0.13578276 67:0.038238451 68:0.03843924 69:0 70:0 71:0.29315853 72:0.071511008 73:0.10135104 74:0.077216305 75:0.89352143 76:0.19065629 77:0.1774949 78:0.16269401 79:0 80:0 81:0.019433191 82:0.044698603 83:0.062710457 84:0.15344158 85:0.9563151 86:0.21447259 87:0.076068759 88:0.061806757 89:0 
-0 0 0 0 0 0 0 0 0 0 0 0 0 0 0 0.9241178834863464 0:0 1:0.90938359 2:0 3:0.0071626692 4:0 5:0.41372702 6:0.017011331 7:0.038787745 8:0.0019864102 9:0 10:0 11:0.97236305 12:0.015464162 13:0.012674171 14:0.014002519 15:0.23141025 16:0.010865957 17:0.0095240055 18:0.012400596 19:0 20:0 21:0.98655903 22:0.0064085382 23:0.0073933084 24:0.0050547165 25:0.1619764 26:0.013438524 27:0.0080262572 28:0.0098882187 29:0 30:0 31:0.97233969 32:0 33:0 34:0 35:0.23289536 36:0.0032013457 37:0.016972536 38:0.0040098652 39:0 40:0 41:0.059768513 42:0.030038852 43:0.026293874 44:0.061726294 45:0.9937861 46:0.037912991 47:0.039178338 48:0.020960728 49:0 50:0 51:0.95557743 52:0.018546415 53:0.016095882 54:0.030180313 55:0.29144299 56:0.012667555 57:0 58:0.016041491 59:0 60:0 61:0.99501771 62:0 63:0.0027094013 64:0 65:0.099637732 66:1.5010171e-05 67:0.0019864796 68:0 69:0 70:0 71:0.96374846 72:0.0033193808 73:0.0033193808 74:0.014503141 75:0.26604861 76:0.0084505556 77:0.0099863084 78:0.0015970373 79:0 80:0 81:0.91450375 82:0.044351913 83:0.029461829 84:0.056331426 85:0.39393964 86:0.036458947 87:0.016349761 88:0.029789774 89:0 
-0 0 0 0 0 0 0 0 0 0 0 0 0 0 0 0.002163567570384505 0:0 1:0.2775524 2:0.16573831 3:0.14283319 4:0.21540639 5:0.84138888 6:0.21073274 7:0.20618837 8:0.18393952 9:0 10:0 11:0.83358657 12:0.0067297355 13:0.0088240141 14:0.01813741 15:0.52232838 16:0.11136968 17:0.07189592 18:0.11950108 19:0 20:0 21:0.97815269 22:0.049649522 23:0.035323489 24:0.02671708 25:0.19317408 26:0.020894736 27:0.010780951 28:0.030340554 29:0 30:0 31:0.80145478 32:0.072549328 33:0.032200489 34:0.13809387 35:0.57603884 36:0.0048969979 37:0.019718351 38:0.0080675986 39:0 40:0 41:0.053796154 42:0.021179818 43:0.060337104 44:0.015984666 45:0.9940244 46:0.030190533 47:0.057768449 48:0.020658042 49:0 50:0 51:0.83645755 52:0.15976919 53:0.10989006 54:0.073822543 55:0.50695199 56:0.0079708258 57:0.0059714993 58:0.013640298 59:0 60:0 61:0.97867638 62:0.04273542 63:0.037419401 64:0.042483393 65:0.17490339 66:0.053177014 67:0.051659569 68:0.032745723 69:0 70:0 71:0.76819205 72:0 73:0.020185193 74:0.0039569116 75:0.61476016 76:0.11091775 77:0.10485776 78:0.090710975 79:0 80:0 81:0.27792525 82:0.19350493 83:0.27498862 84:0.20407979 85:0.80079472 86:0.191027 87:0.23171228 88:0.19128273 89:0 
-0 0 0.1242144800624164 0 0 0 0 0 0 0 0 0 0 0 0 0 0:0 1:0.86900955 2:0.04593813 3:0.095404685 4:0.085504636 5:0.44275564 6:0.12260498 7:0.11384302 8:0.047670361 9:0 10:0 11:0.91080296 12:0.0279685 13:0.038701817 14:0.058754731 15:0.34806752 16:0.061261486 17:0.12799256 18:0.15303051 19:0 20:0 21:0.98529118 22:0.026307473 23:0.045093499 24:0.08467412 25:0.094097592 26:0.03528773 27:0.076848745 28:0.057441667 29:0 30:0 31:0.91989762 32:0.018207803 33:0.073635086 34:0.069814928 35:0.37134224 36:0.058764715 37:0.030024022 38:0.030159805 39:0 40:0 41:0.74681282 42:0.04130711 43:0.034580871 44:0.070782654 45:0.65595502 46:0.042025004 47:0.028995998 48:0.038380407 49:0 50:0 51:0.83805001 52:0.12178013 53:0.11455898 54:0.14854315 55:0.49411222 56:0.056879859 57:0.015813781 58:0.0043704719 59:0 60:0 61:0.97549802 62:0.010944971 63:0.008471542 64:0.03469431 65:0.21179561 66:0.038683396 67:0.016531896 68:0.019499257 69:0 70:0 71:0.92399019 72:0.010433386 73:0.027137134 74:0.038928542 75:0.36888871 76:0.034772515 77:0.070925161 78:0.039519105 79:0 80:0 81:0.86818409 82:0.078884222 83:0.106778 84:0.1471789 85:0.43898192 86:0.10000456 87:0.063936733 88:0.013224941 89:0 
-1 0 0 1 0.3346888123219161 0.06379740194884982 0.4144575905018309 0.7147591818836121 0.05409217748729123 0.01114184926635839 0.5255169842794277 0 0.122322276365278 0.4337427475795507 1 0.7024414585475539 0:0 1:0.40078095 2:0.017731272 3:0.023819625 4:0.08710333 5:0.90885407 6:0.052104007 7:0.02098101 8:0.041609295 9:0 10:0 11:0.29232237 12:0.00065123651 13:0.030445298 14:0.013100437 15:0.95290345 16:0.065027013 17:0.028408132 18:0.019537097 19:0 20:0 21:0.86846757 22:0.058071267 23:0.10907228 24:0.05441238 25:0.44476923 26:0.11375497 27:0.12949114 28:0.0012656132 29:0 30:0 31:0.58239371 32:0.084577292 33:0.021402474 34:0.0069825295 35:0.80712289 36:0.0034392476 37:0.039727036 38:0.01073185 39:0 40:0 41:0.043767978 42:0.014925956 43:0.016376534 44:0.049582504 45:0.99499565 46:0.059114017 47:0.017418701 48:0.036321472 49:0 50:0 51:0.73154455 52:0 53:0 54:0.0014509101 55:0.67276639 56:0.093345664 57:0.03405755 58:0.048466407 59:0 60:0 61:0.85112286 62:1.160669e-09 63:6.6323946e-10 64:0.038396671 65:0.51473546 66:6.6323946e-10 67:0.012414172 68:0.094863236 69:0 70:0 71:0.37455249 72:0.052238069 73:0.024192998 74:0.025232598 75:0.92391878 76:0.0036154496 77:0.044362336 78:0.012131102 79:0 80:0 81:0.69145328 82:0.069544896 83:0.084229909 84:0.13733558 85:0.66220576 86:0.16067067 87:0.15174986 88:0.061132934 89:0 
-1 1 1 1 1 1 1 1 1 1 1 1 1 1 1 1 0:0 1:0.9937762 2:0 3:0 4:0 5:0.10847615 6:0.002235821 7:0.017644409 8:0.0179935 9:0 10:0 11:0.96491444 12:0 13:0 14:0 15:0.25497016 16:0.032469366 17:0.040392034 18:0.035260443 19:0 20:0 21:0.99799263 22:0.017079737 23:0.014387578 24:0.0013392785 25:0.042413168 26:0.010679764 27:0.012990521 28:0.037781432 29:0 30:0 31:0.9862985 32:0 33:0 34:0.029136511 35:0.16206808 36:0 37:0.0018664835 38:0.0097862072 39:0 40:0 41:0.94544256 42:0 43:0 44:0.030830048 45:0.32325375 46:0.0069700261 47:0.013440367 48:0.021554803 49:0 50:0 51:0.97395808 52:0.032070391 53:0.045983151 54:0.021688135 55:0.21819523 56:0.0094045065 57:0.0096691484 58:0 59:0 60:0 61:0.99717283 62:0 63:0 64:0 65:0.07513386 66:0 67:0 68:0 69:0 70:0 71:0.97255045 72:0 73:0.00030370869 74:0.034581441 75:0.22121345 76:0.046589933 77:0.0413213 78:0.01161502 79:0 80:0 81:0.94440001 82:0.0042358954 83:0.10131662 84:0.14558569 85:0.27339116 86:0.043399334 87:0.0015938041 88:7.1770468e-05 89:0 
-1 0 0.3759722532146281 1 0.3805185173360247 0 0.7304517090493756 0 0 0 0 0.3871513925631074 0 0 0.09544201677104967 0.9632352237889079 0:0 1:0.1403522 2:0 3:0 4:0 5:0.98281217 6:0.10239096 7:0.062386412 8:0 9:0 10:0 11:0.98981208 12:0.026119983 13:0.020068493 14:0.016432965 15:0.13654235 16:0.016474323 17:0 18:0 19:0 20:0 21:0.99999863 22:0 23:0 24:0 25:0 26:0 27:0 28:0 29:0 30:0 31:0.97746968 32:0 33:0 34:0.00020344245 35:0.20962664 36:0.0039795432 37:0.024252074 38:0.0019212581 39:0 40:0 41:0.10961691 42:0.031905189 43:0.035487503 44:0.050074406 45:0.98877525 46:0.067282617 47:0.03153437 48:0 49:0 50:0 51:0.98864454 52:0.027568016 53:0.021181045 54:0.017343972 55:0.14411195 56:0.017387623 57:0 58:0 59:0 60:0 61:0.99999875 62:0 63:0 64:0 65:0 66:0 67:0 68:0 69:0 70:0 71:0.97375888 72:0 73:0 74:0.00021935233 75:0.22602014 76:0.0042907568 77:0.026148668 78:0.0020715068 79:0 80:0 81:0.18059097 82:0.04064149 83:0.069952719 84:0.10354219 85:0.97378612 86:0.043083813 87:0 88:0 89:0 
-0.6456094789427075 0.155150369915162 0.2340222680549103 0.2917139989013381 0.08924111910507304 0.1609635023478269 0.3196936595624444 0.1584043837571044 0.2062398038528976 0.158094948823766 0.1842939149010688 0.1332744210336748 0.04725453122060226 0.06863440485647326 0.336112358066315 0 0:0 1:0.00617918 2:0.0013824617 3:0.0013824615 4:4.117244e-05 5:0.99927753 6:0.0152876 7:0.034153525 8:0 9:0 10:0 11:0.86932588 12:0.022216814 13:0.027513061 14:0.00061485497 15:0.49230361 16:0.0012695693 17:0.025598792 18:0 19:0 20:0 21:0.12555832 22:0.018134847 23:0.027614268 24:0.021336926 25:0.99090618 26:0.027785838 27:0.0043860329 28:0 29:0 30:0 31:0.87558711 32:0.006394777 33:0.0024775325 34:0.00039506843 35:0.48144841 36:0.0071790344 37:0.038133446 38:0 39:0 40:0 41:0.00027677036 42:0.008273555 43:0.013529904 44:0.0015900495 45:0.99970925 46:0.0049961372 47:0.01736027 48:0 49:0 50:0 51:0.89028966 52:0.019771438 53:0.024484735 54:0.0077871997 55:0.45421472 56:0.0045439703 57:0 58:0 59:0 60:0 61:0.12971306 62:0 63:0 64:0.0012252394 65:0.99124509 66:0.0095314924 67:0.02265279 68:0 69:0 70:0 71:0.87809747 72:0 73:0 74:0.0003515018 75:0.47816142 76:0.0060144537 77:0.016391123 78:0 79:0 80:0 81:0.0011802991 82:0.021629086 83:0.017088268 84:0.029305544 85:0.9990083 86:0.018982518 87:3.9817118e-05 88:0 89:0 
-1 1 1 0 1 1 0.6146382515195502 1 1 1 1 1 1 1 1 1 0:0 1:0.91032159 2:0.018372666 3:0.0096032303 4:0.049621295 5:0.39273477 6:0.11051661 7:0.042366236 8:0.013101076 9:0 10:0 11:0.97321618 12:0 13:0 14:0 15:0.20195912 16:0.081370391 17:0.060690656 18:0.041917037 19:0 20:0 21:0.99256688 22:0.050814185 23:0.0053398707 24:0.016248308 25:0.091738872 26:0.005408742 27:0.023093097 28:0.054374117 29:0 30:0 31:0.99423712 32:0.0035266874 33:0.029156059 34:0.03752866 35:0.095368467 36:0.0053472598 37:0.0098456172 38:3.5333702e-05 39:0 40:0 41:0.88835734 42:0.014959625 43:0.048042599 44:0.037417408 45:0.45233721 46:0.040662952 47:0.024925437 48:0.0019514004 49:0 50:0 51:0.9683013 52:0.027780281 53:0.071347505 54:0.10066234 55:0.21521303 56:0.0040389947 57:0 58:0.0079542762 59:0 60:0 61:0.99955672 62:0 63:0.0029288726 64:0.009235925 65:0.026737547 66:0.0050566532 67:0.0067513227 68:0.0023653908 69:0 70:0 71:0.99561155 72:0 73:0.0091135399 74:0.00019366054 75:0.076856658 76:0.024616785 77:0.046417251 78:0.002455102 79:0 80:0 81:0.90802836 82:0.064256169 83:0.042358287 84:0.11844217 85:0.39427677 86:0.0082726181 87:0.0029707551 88:0 89:0 
-1 0 1 0.3471203426608295 0 0 0 0 0 0 0 0 0.04315105197168332 0.3996940616975704 0 0 0:0 1:0.89750791 2:0.025172543 3:0.088510878 4:0.15146624 5:0.36054319 6:0.1317526 7:0.11293039 8:0.054444477 9:0 10:0 11:0.8879078 12:0.014043055 13:0.013933241 14:0.030315032 15:0.38723764 16:0.14179875 17:0.189154 18:0.066848926 19:0 20:0 21:0.99494982 22:0.049932089 23:0.045369837 24:0.013032167 25:0.046557091 26:0.0323647 27:0.043430362 28:0.015843296 29:0 30:0 31:0.89624649 32:0.056750804 33:0.10567546 34:0.097216457 35:0.41533214 36:0.0052020573 37:0.019342169 38:0 39:0 40:0 41:0.83711559 42:0.012886175 43:0.046168625 44:0.043477997 45:0.5406118 46:0.043491747 47:0.029227283 48:0.0064123436 49:0 50:0 51:0.89614969 52:0.094216444 53:0.16649097 54:0.12309474 55:0.38030419 56:0.021988627 57:0.0026641747 58:0.0066410173 59:0 60:0 61:0.99567872 62:0.02814096 63:0.023658542 64:0.013503467 65:0.069710858 66:0.017454103 67:0.031808857 68:0.030213017 69:0 70:0 71:0.87651426 72:0.0088815708 73:0.0019603299 74:0.026773497 75:0.43708462 76:0.098854244 77:0.16059254 78:0.065702565 79:0 80:0 81:0.85665226 82:0.070196725 83:0.18828541 84:0.18760128 85:0.41318533 86:0.12708066 87:0.05461878 88:0.026778525 89:0 
-0.4416749538893842 0 0 1 0.01784505650214538 0.03980199254068174 0 0.06292575936806204 0 0.02573891296223037 0.1039245880425692 0.02290510861007722 0.1489134993865772 0.2337999715128927 0.4428628101359759 0.2411710893866055 0:0 1:0.25944436 2:0.1795858 3:0.18600747 4:0.17081971 5:0.83757728 6:0.2696071 7:0.18167594 8:0.1715394 9:0 10:0 11:0.44574201 12:0.0093219932 13:0.069221467 14:0.073944449 15:0.83723921 16:0.16856319 17:0.20251855 18:0.14341697 19:0 20:0 21:0.9531365 22:0.074015819 23:0.05184114 24:0.080271244 25:0.25119045 26:0.074666984 27:0.066480622 28:0.061872408 29:0 30:0 31:0.54870796 32:0.084687918 33:0.0922039 34:0.1533826 35:0.80613273 36:0.076568745 37:0.055328466 38:0.030715581 39:0 40:0 41:0.041539907 42:0.04190512 43:0.060943346 44:0.061737891 45:0.99094307 46:0.070997551 47:0.0271281 48:0.03530569 49:0 50:0 51:0.69693601 52:0.18065757 53:0.20591174 54:0.10110366 55:0.65357286 56:0.040928014 57:0.011430413 58:0.0074966727 59:0 60:0 61:0.90929884 62:0.018382 63:0.061843034 64:0.090134598 65:0.37503862 66:0.091397822 67:0.10332849 68:0.034681655 69:0 70:0 71:0.63229918 72:0.024344131 73:0.024812773 74:0.021617567 75:0.72369498 76:0.17777477 77:0.16936557 78:0.12040227 79:0 80:0 81:0.27650729 82:0.19288592 83:0.25540698 84:0.30022448 85:0.76772815 86:0.26254255 87:0.18059196 88:0.20004869 89:0 
-0 0 0 0 0.07164746671122088 0 0 0 0 0 0 0 0 0 0 0.378479890545639 0:0 1:0.36268389 2:0.12380043 3:0.16844626 4:0.26069921 5:0.794819 6:0.21091056 7:0.17802608 8:0.22108512 9:0 10:0 11:0.8512553 12:0.02485944 13:0.029502993 14:0.020368341 15:0.46185625 16:0.078191228 17:0.13707931 18:0.1877328 19:0 20:0 21:0.99747753 22:0.026937908 23:0.010080104 24:0.016441172 25:0.043750372 26:0.0076949988 27:0.013094226 28:0.042371523 29:0 30:0 31:0.84726888 32:0.088588029 33:0.12499192 34:0.077796727 35:0.50155306 36:0.00011393358 37:0.0026696976 38:0.032378506 39:0 40:0 41:0.05560115 42:0.02629406 43:0.029670231 44:0.034034286 45:0.99614036 46:0.024219805 47:0.015181672 48:0.032624487 49:0 50:0 51:0.89905971 52:0.18583609 53:0.079107329 54:0.097186476 55:0.37574801 56:0.0062153679 57:0.013859905 58:0.0058765984 59:0 60:0 61:0.9967221 62:0.029817151 63:0.015939469 64:0.010491077 65:0.046768002 66:0.022073064 67:0.019626293 68:0.047237985 69:0 70:0 71:0.88446969 72:0.0031799336 73:0.015193802 74:0.010416151 75:0.42653039 76:0.11861388 77:0.11046916 78:0.095718235 79:0 80:0 81:0.84557021 82:0.13654111 83:0.1113833 84:0.15708028 85:0.436544 86:0.11912553 87:0.11581215 88:0.10541052 89:0 
-0.6636539294694237 0 0 0.1055002127832131 0.3893068982401244 0 0 0.04204819028084818 0 0 0.01229628238166944 0 0 0.3338787876112006 0.2779966772456688 0 0:0 1:0.33438131 2:0.020098548 3:0.0054392265 4:0.075802021 5:0.93865991 6:0.024358923 7:0.016298017 8:0.0081406692 9:0 10:0 11:0.84126723 12:0.02348391 13:0 14:0.041098252 15:0.53788942 16:0 17:0.026490977 18:0 19:0 20:0 21:0.42627203 22:0 23:0.064560324 24:0.01028694 25:0.90197289 26:0.014297323 27:3.0862055e-05 28:0.015993418 29:0 30:0 31:0.90736157 32:0.01477789 33:0.0091690794 34:0.016394263 35:0.41929242 36:0.0078286678 37:0.014969267 38:0.005506373 39:0 40:0 41:0.51630282 42:0.018034818 43:0.0031414204 44:0.055649176 45:0.85410172 46:0.014663942 47:0.016122753 48:0.0057917912 49:0 50:0 51:0.88028938 52:0.013051468 53:0.00092428975 54:0.028596982 55:0.47339094 56:0 57:0.00078051165 58:0 59:0 60:0 61:0.26884016 62:0 63:0 64:0.073695436 65:0.95963293 66:0.027552085 67:0.012802731 68:0.021745436 69:0 70:0 71:0.89703894 72:0.013412733 73:0.0083220545 74:0.02316873 75:0.44097301 76:0.0071054678 77:0.00086798955 78:0.0049977032 79:0 80:0 81:0.97956115 82:0.0081424993 83:0.0055439733 84:0.012991515 85:0.20033665 86:0.0076059857 87:0 88:0 89:0 
-1 0 0.6739874644263241 0 0 1 1 0 0.6398069370865006 1 1 0.08437644055286908 1 1 0.08299713430281926 0.2872449565917463 0:0 1:0.76670516 2:0.12430256 3:0.19291152 4:0.2246803 5:0.45262954 6:0.25099838 7:0.18100661 8:0.091515809 9:0 10:0 11:0.9795332 12:0 13:0.0071721841 14:0.032297716 15:0.17333916 16:0.061151747 17:0.059692387 18:0.045492504 19:0 20:0 21:0.99805337 22:0.043548431 23:0.023027705 24:0.015981318 25:0.0084697073 26:0.024400866 27:0.014968429 28:0.017750008 29:0 30:0 31:0.95873153 32:0.069198616 33:0.074449144 34:0.10573047 35:0.24279936 36:0.0029978948 37:0.0016176834 38:0.018952955 39:0 40:0 41:0.74550313 42:0 43:0.073744752 44:0.001605201 45:0.6602115 46:0.032209404 47:0.026763732 48:0.033891976 49:0 50:0 51:0.97216761 52:0.069384158 53:0.08299955 54:0.086799219 55:0.18666579 56:0.016177878 57:0.022832489 58:0.0049500815 59:0 60:0 61:0.97690529 62:0.022486508 63:0.04129862 64:0.077732585 65:0.16982271 66:0.079257973 67:0.044813659 68:0.016471608 69:0 70:0 71:0.94986153 72:0.0038649342 73:0.019309971 74:0.00035699253 75:0.25219497 76:0.14415877 77:0.093010344 78:0.065868616 79:0 80:0 81:0.63985401 82:0.18927231 83:0.26940268 84:0.26012501 85:0.42984205 86:0.34895849 87:0.27406847 88:0.18129092 89:0 
-0 0 0.9950484314823493 0.8543588465931491 0 0 0 0 0 0 0 0 0 0 0 1 0:0 1:0.92631733 2:0.012439823 3:0.013653855 4:0.0067088627 5:0.37452263 6:0.027572699 7:0.022325221 8:0.0046834284 9:0 10:0 11:0.93079376 12:0.028438624 13:0.012130356 14:0.020921683 15:0.36362857 16:0.00033714401 17:8.3102568e-05 18:0.0014457337 19:0 20:0 21:0.98880601 22:0.0023762728 23:0.0047169183 24:0.001935613 25:0.1486994 26:0.00042219347 27:0.010873488 28:0.00040523781 29:0 30:0 31:0.94268548 32:0 33:0 34:0.0038244668 35:0.3330729 36:0.017844435 37:0.0071072648 38:0.0046954569 39:0 40:0 41:0.15554745 42:0.05307661 43:6.8289482e-05 44:0.035772499 45:0.98314101 46:0.05781386 47:0.038179852 48:0.018452059 49:0 50:0 51:0.95374751 52:0.036426306 53:0.019056223 54:0.027650235 55:0.29644558 56:0.0054375594 57:0.00076742144 58:0 59:0 60:0 61:0.994398 62:0.00018755325 63:0.0002164076 64:0 65:0.10440937 66:0.016039342 67:0.0036397639 68:0 69:0 70:0 71:0.95309049 72:0.0093869232 73:0.0046934616 74:0.022501664 75:0.30091941 76:0.018104827 77:0.010129049 78:0.0042735185 79:0 80:0 81:0.98605055 82:0.015315506 83:0.0048071854 84:0.0064941435 85:0.16366789 86:0.010854647 87:0.022270661 88:0.0016053191 89:0 
