svm_type c_svc
kernel_type rbf
gamma 0.5
nr_class 17
total_sv 836
rho -0.396043 -0.776547 -0.525599 -0.0865922 -0.592271 -0.590232 -0.178191 -0.887026 -0.497385 -0.636427 -0.480776 -0.65678 -0.406806 -0.369894 -0.569888 -0.494014 -0.508566 -0.124392 0.249633 -0.182372 -0.154436 0.20685 -0.572546 -0.118909 -0.290085 -0.0351133 -0.327778 -0.0447718 0.0469132 -0.13696 -0.136872 0.43986 0.65171 0.428568 0.518083 0.710611 0.183677 0.521415 0.446808 0.593107 0.269158 0.517905 0.536206 0.518764 0.313385 0.355275 0.0714688 0.0123575 0.426387 -0.509739 0.0319852 -0.167595 0.16032 -0.23291 0.0736222 0.163139 0.0364595 -0.011751 -0.390536 -0.42688 -0.0325161 -0.68501 -0.349154 -0.50248 -0.315008 -0.491999 -0.243718 -0.197741 -0.343723 -0.355113 -0.0395462 0.353462 -0.448528 0.0680026 -0.159222 0.0792129 -0.239485 0.0976898 0.201527 0.00416457 -0.0287623 0.43364 -0.754917 0.0326423 -0.162845 0.12651 -0.298393 0.069074 0.207588 -0.0145579 -0.0417263 -0.744719 -0.320772 -0.506159 -0.301794 -0.518232 -0.236012 -0.148833 -0.377349 -0.317632 0.793797 0.771089 0.67313 0.329375 0.516695 0.618512 0.527487 0.385896 -0.254702 -0.00693833 -0.24198 0.0248066 0.121969 -0.0722998 -0.122551 0.302061 -0.0286934 0.230389 0.296495 0.143371 0.0734971 -0.384137 -0.0195141 0.112538 -0.171543 -0.155552 0.224613 0.372173 0.266355 0.143781 0.136766 -0.0801975 -0.091218 -0.183012 -0.178248 -0.0948562
label 0 1 2 3 4 5 6 7 8 9 10 11 12 13 14 15 16
nr_sv 54 41 53 48 47 44 53 42 52 52 55 55 47 48 45 54 46
SV
0.5821722845053188 0.205626943660162 0.4276642163154158 0.8311937717967242 0.3946404965211428 0.3767406295549493 0.7376061761402414 0.2372523064638608 0.4600032411529432 0.3573369281118363 0.4836782419220022 0.3184643108768003 0.5646529567613661 0.5898976981672094 0.4002937288120879 0.4640261728026404 0:0 1:0.0099120438 2:0.0067283632 3:0.017053694 4:0.46221665 5:0.88562185 6:0.038013693 7:0.012026323 8:0 9:0 10:0.2911014 11:0.071490645 12:0.17100666 13:0.54632241 14:0.75452793 15:0.10703956 16:0.040772062 17:0 18:0 19:0.29908511 20:0.16306524 21:0.16030096 22:0.57247627 23:0.70547569 24:0.14200422 25:0.11253642 26:0 27:0 28:0.47249818 29:0.14336821 30:0.25475711 31:0.11355784 32:0.68796766 33:0.15311848 34:0.42618421 35:0 36:0 37:0.023185024 38:0.051518973 39:0.01750773 40:0.40478539 41:0.90817851 42:0.069644466 43:0.05482823 44:0 45:0 46:0.71167105 47:0.14408651 48:0.23319228 49:0.23766367 50:0.58195788 51:0.14002562 52:0.060092151 53:0 54:0 55:0.76153982 56:0.10811042 57:0.27744177 58:0.25421661 59:0.48691913 60:0.11523602 61:0.1280352 62:0 63:0 64:0.080250248 65:0.118854 66:0.13165578 67:0.53444338 68:0.80878234 69:0.13678052 70:0.060224898 71:0 72:0 73:0.048416413 74:0.11507026 75:0.088477127 76:0.38915682 77:0.82364762 78:0.29787359 79:0.24084121 80:0 81:0 82:0.97360158 83:0.050961163 84:0.1166082 85:0.022055659 86:0.1855271 87:0.0045062839 88:0.031161204 89:0 90:0 91:0.9542836 92:0.043759234 93:0.17443042 94:0.053051434 95:0.22439387 96:0.043549098 97:0.043958127 98:0 99:0 100:0.39576885 101:0.11099436 102:0.064811632 103:0.20672041 104:0.87743801 105:0.047458563 106:0.10932748 107:0 108:0 109:0.063692138 110:0.021098109 111:0.20312585 112:0.10751918 113:0.92966229 114:0.079365805 115:0.26840526 116:0 117:0 118:0.82352042 119:0.076833516 120:0.050224584 121:0.0018528635 122:0.55600327 123:0.034774601 124:0.055038758 125:0 126:0 127:0.96404064 128:0.00024566415 129:0.031436287 130:6.8140804e-10 131:0.26387858 132:9.6672622e-05 133:0.00061012438 134:0 135:0 136:0.63015026 137:0.028147452 138:0.18993977 139:0.20106672 140:0.7058363 141:0.13496719 142:0.095780283 143:0 
0.2060378738726824 0.07666351656897827 0.1640750832329189 0.3517184136739746 0.1346918616308464 0.1354596993974134 0.2812948140539412 0.03946138611602266 0.1711288390731621 0.1262852343858427 0.1791204553116027 0.1185707899749183 0.212787849636238 0.2236215935782837 0.1462061475566344 0.1762792251600832 0:0 1:0 2:0 3:0 4:0 5:0 6:0 7:0 8:0 9:0 10:0.45700371 11:0 12:0 13:0.056520227 14:0.60786289 15:0.44842061 16:0.46620578 17:0 18:0 19:0.99999499 20:0 21:0 22:0 23:0 24:0 25:0 26:0 27:0 28:0.99998027 29:0 30:0 31:0 32:0 33:0 34:0 35:0 36:0 37:0.00077039801 38:0 39:0 40:0.98788118 41:0.15497053 42:0 43:0 44:0 45:0 46:0.22130466 47:0 48:0.029432779 49:0.50691217 50:0.80034977 51:0.14656301 52:0.17649251 53:0 54:0 55:0.82346839 56:0 57:0.0071917293 58:0.24736144 59:0.50661457 60:0.043826956 61:0.045592438 62:0 63:0 64:0.99999845 65:0 66:0 67:0 68:0 69:0 70:0 71:0 72:0 73:0.00043208283 74:0 75:0.00053634495 76:0.76767617 77:0.64083201 78:0.00020673558 79:7.388855e-05 80:0 81:0 82:0.030917406 83:0 84:0.032324523 85:0.70096987 86:0.7104997 87:0.021298507 88:0.037050482 89:0 90:0 91:0.93642151 92:0 93:0.023649158 94:0.19287643 95:0.28938374 96:0.020890448 97:0.034236152 98:0 99:0 100:0.31882387 101:0 102:0.0068114293 103:0.46295348 104:0.82702869 105:0 106:0 107:0 108:0 109:0.76998007 110:0 111:0.00069552142 112:0.36180276 113:0.51929671 114:0.075158641 115:0.030082123 116:0 117:0 118:0.00048585172 119:0 120:0.0009979168 121:0.77421921 122:0.63291073 123:0.0005122936 124:0.00034815565 125:0 126:0 127:0.98773295 128:0 129:0.00064400764 130:0.15485696 131:0.019820234 132:0.0001832572 133:0.00027749329 134:0 135:0 136:0.99999893 137:0 138:0 139:0 140:0 141:0 142:0 143:0 
0 0 0 0 0 0.1268140421059963 0 0 0.04240187621931986 0 0 0 0 0.009307888920639329 0 0 0:0 1:0.0011670991 2:0 3:0.0015790828 4:0.82497698 5:0.56514758 6:0 7:0.0020945901 8:0 9:0 10:0.79334736 11:0.047468539 12:0.084963903 13:0.34604734 14:0.46305111 15:0.03554178 16:0.16029215 17:0 18:0 19:0.86304343 20:0.0081421807 21:0.050656386 22:0.40006471 23:0.29891625 24:0.023373339 25:0.050715841 26:0 27:0 28:0.99999815 29:0 30:0 31:0 32:0 33:0 34:0 35:0 36:0 37:0.75055861 38:7.4326403e-05 39:0.0018223037 40:0.43311691 41:0.49380609 42:0.035209682 43:0.063061722 44:0 45:0 46:0.91291231 47:0.035520218 48:0.049078107 49:0.27977988 50:0.28962362 51:0.02395886 52:0.013605043 53:0 54:0 55:0.93578202 56:0.071209349 57:0.03187925 58:0.2442901 59:0.23311643 60:0.026124345 61:0.05931817 62:0 63:0 64:0.65509301 65:0.0096458942 66:0.13085754 67:0.64413995 68:0.37141845 69:0.0066125598 70:0.026842603 71:0 72:0 73:0.99999708 74:0 75:0 76:0 77:0 78:0 79:0.00012104121 80:0 81:0 82:0.9803679 83:0.045623973 84:0.024336012 85:0.13431452 86:0.13476478 87:0.00027612998 88:0.00035600326 89:0 90:0 91:0.99846488 92:0.031163789 93:0.035916172 94:0.028262246 95:0.0018841494 96:0 97:0 98:0 99:0 100:0.99999756 101:0 102:0 103:0 104:0 105:0 106:0 107:0 108:0 109:0.99916738 110:0 111:0 112:0 113:0 114:0 115:0 116:0 117:0 118:0.99955779 119:0.024085958 120:0.0143933 121:0 122:0.0096971495 123:0 124:0 125:0 126:0 127:0.99837828 128:0.046452247 129:0.024040679 130:0 131:0.022408286 132:0 133:0 134:0 135:0 136:0 137:0 138:0 139:0 140:0 141:0 142:0 143:0 
0.8899710912894981 0.148474919088698 0.3035763479186659 0.6530227659162723 0.2455521766735091 0.08046203542587722 0.7536168552277416 0 0.2138421789746608 0.2963181534883446 0.4271867531220246 0.3988342645044363 0.6906177054573276 0.5179180719692457 0.2662083846262958 0.3475989013265205 0:0 1:0.08434964 2:0.0012046131 3:0.34460777 4:0.6928705 5:0.49977207 6:0.34754923 7:0.15325589 8:0 9:0 10:0.87364137 11:0.05339535 12:0.094042763 13:0.072341524 14:0.24839132 15:0.31894952 16:0.23746423 17:0 18:0 19:0.98656255 20:0 21:0.00080739014 22:0.00021797606 23:0.038267583 24:0.042147815 25:0.15312652 26:0 27:0 28:0.61625141 29:0.03905211 30:0.28597718 31:0.10492593 32:0.16727547 33:0.53237259 34:0.46314606 35:0 36:0 37:0.21965574 38:0.10571307 39:0.29221332 40:0.56417173 41:0.71595323 42:0.087334991 43:0.1291239 44:0 45:0 46:0.074619234 47:0.037841648 48:0.026452482 49:0.418282 50:0.85982198 51:0.26987958 52:0.072110556 53:0 54:0 55:0.9400025 56:0.012576436 57:0.069650307 58:0.04725695 59:0.24690314 60:0.024512049 61:0.21812084 62:0 63:0 64:0.91863912 65:0.073953912 66:0.081395157 67:0.1056318 68:0.33440343 69:0.04670072 70:0.13724884 71:0 72:0 73:0.96545881 74:0.20985273 75:0.11963659 76:0.070213296 77:0.064837269 78:0 79:0.019996911 80:0 81:0 82:0.88436919 83:0.0040484485 84:0.0062845182 85:0.2483279 86:0.3521018 87:0.00890774 88:0.17915808 89:0 90:0 91:0.24046268 92:0.10038549 93:0.14808299 94:0.32669574 95:0.79563236 96:0.19946142 97:0.36139089 98:0 99:0 100:0.9954688 101:0.03753629 102:0.020373046 103:0.0025718217 104:0.082019657 105:0.0012486117 106:0.021819709 107:0 108:0 109:0.99651927 110:0.081423976 111:0.006693637 112:0.012877538 113:0.0072081476 114:0.00063281931 115:0.0073191295 116:0 117:0 118:0.89523023 119:0.11396325 120:0.25111035 121:0.29297397 122:0.094630957 123:0.089518465 124:0.14036335 125:0 126:0 127:0.9500587 128:0.0032264162 129:0.0029662286 130:0.14172441 131:0.2647486 132:0.0060479338 133:0.084515229 134:0 135:0 136:0.10106221 137:0.27783334 138:0.29247537 139:0.76128519 140:0.49106744 141:0.07496468 142:0.026769916 143:0 
0.276537017501239 0.1141119357400817 0.1415969335676439 0.4029609073694507 0 0.1281051491470133 0.4007920833678479 0.0354896924616409 0.1967877848729383 0.1362511107956072 0.1940000331198329 0.1295328142859512 0.2707439520346231 0.1969235210338694 0.1912996861106936 0.2387108535108587 0:0 1:0.0012449708 2:0.0042462335 3:0.0053591314 4:0.81203145 5:0.58327132 6:0.018445469 7:0.00046225169 8:0 9:0 10:0.83830643 11:0.01516515 12:0.10019433 13:0.32228976 14:0.40651062 15:0.079193071 16:0.1075917 17:0 18:0 19:0.75608301 20:0.00012126729 21:0.03287394 22:0.39199069 23:0.51633877 24:0.060177431 25:0.058065329 26:0 27:0 28:0.99999827 29:0 30:0 31:0 32:0 33:0 34:0 35:0 36:0 37:0.0024210671 38:0.0039510853 39:0.0070837913 40:0.69833678 41:0.70717937 42:0.11015967 43:0.0031154016 44:0 45:0 46:0.93701929 47:0.00097815925 48:0.0016678621 49:0.22506811 50:0.26543283 51:0.023548594 52:0.017996857 53:0 54:0 55:0.94023299 56:0.0057792957 57:0.060657237 58:0.21234173 59:0.25590086 60:0.035660375 61:0.020010564 62:0 63:0 64:0.026126454 65:0.011471247 66:0.15054584 67:0.66376507 68:0.73035687 69:0.020129347 70:0.045912348 71:0 72:0 73:0.26883548 74:0 75:0.11034518 76:0.55399549 77:0.74703854 78:0.22466184 79:0.0091079874 80:0 81:0 82:0.99803978 83:0 84:0.00031139239 85:0.046607625 86:0.041713916 87:0.0011988466 88:0.00013962312 89:0 90:0 91:0.99999845 92:0 93:0 94:0.00015661662 95:0 96:0 97:0 98:0 99:0 100:0.99999809 101:0 102:0 103:0 104:0 105:0 106:0 107:0 108:0 109:0.99900794 110:0 111:0 112:0 113:0 114:0 115:0 116:0 117:0 118:0.99999863 119:0 120:0 121:0 122:0 123:0 124:0 125:0 126:0 127:0.99999863 128:0 129:0 130:0 131:0 132:0 133:0 134:0 135:0 136:0.9991771 137:0 138:0 139:0 140:0 141:0 142:0 143:0 
0.8523566783094685 0 0 0.01089297927217268 0.2925713346439985 0 0.1331806502771832 0 0 0.03702673529543728 0 0 0.071901778347118 0.09766661505555935 0 0.07489409652515026 0:0 1:0.051767394 2:0.00079400139 3:0.20562346 4:0.66657269 5:0.55279732 6:0.44557714 7:0.081158273 8:0 9:0 10:0.96816355 11:0.0029214711 12:0.014356608 13:0.0051585338 14:0.17416067 15:0.15311983 16:0.092939325 17:0 18:0 19:0.99288732 20:0 21:0.0015121133 22:0.015747722 23:0.097927958 24:0.032933969 25:0.056985151 26:0 27:0 28:0.838314 29:0.0080121011 30:0.18333153 31:0.28662273 32:0.39293793 33:0.13892725 34:0.08773794 35:0 36:0 37:0.84339601 38:0.013516656 39:0.23502213 40:0.26635289 41:0.39875406 42:0.055805534 43:0.014068085 44:0 45:0 46:0.2788851 47:0.00042135283 48:0.071918301 49:0.53425956 50:0.7275176 51:0.24246977 52:0.20866081 53:0 54:0 55:0.97123075 56:0.00022561819 57:0.044059351 58:0.10875704 59:0.20093045 60:0.0086016189 61:0.049917664 62:0 63:0 64:0.93660206 65:0.018211814 66:0.045486402 67:0.23260292 68:0.25186688 69:0.011488259 70:0.051969033 71:0 72:0 73:0.9428944 74:0.15047263 75:0.17709106 76:0.14214432 77:0.18723333 78:0.009931162 79:0.039796297 80:0 81:0 82:0.71715295 83:0.0011722007 84:0.073208533 85:0.41426906 86:0.54562306 87:0.080123179 88:0.067693368 89:0 90:0 91:0.92348272 92:0.0055308798 93:0.01150037 94:0.19191204 95:0.32284111 96:0.014806766 97:0.075747907 98:0 99:0 100:0.99218482 101:0.081228189 102:0.055152014 103:0.033863291 104:0.063711666 105:6.3690008e-05 106:0.026866667 107:0 108:0 109:0.94554734 110:0.079835296 111:0.16335258 112:0.13580696 113:0.19698147 114:0.10303486 115:0.070842087 116:0 117:0 118:0.99004316 119:0.0011124816 120:0.044056118 121:0.032385889 122:0.12888959 123:0.0077352184 124:0.012198758 125:0 126:0 127:0.82533073 128:0.051277239 129:0.072815679 130:0.091737814 131:0.48595843 132:0.2016201 133:0.16022091 134:0 135:0 136:0.74428153 137:0.11500754 138:0.27916709 139:0.37316313 140:0.44597206 141:0.12906796 142:0.0088995183 143:0 
0.1946632027592059 0 0.2988209546977521 0.3384280760203013 0.1288366404101148 0.115595209623445 0.3016721853159153 0 0.1784575455914518 0.09819946986060961 0.3016699385043659 0.08996335019473582 0.2331882306303753 0.3545984872628313 0.1059282154580869 0.1037907951447632 0:0 1:0.0011574173 2:0.0016281676 3:0.0085807675 4:0.51392269 5:0.85778546 6:0.0017647259 7:0.0015056925 8:0 9:0 10:0.42044473 11:0.02586565 12:0.13272358 13:0.50479811 14:0.7393328 15:0.030308351 16:0.050840914 17:0 18:0 19:0.57261205 20:0.10576327 21:0.14808244 22:0.48401481 23:0.62637055 24:0.081010193 25:0.076309949 26:0 27:0 28:0.95439988 29:4.2203399e-05 30:0.055103276 31:0.19305503 32:0.18044236 33:0.096188471 34:0.083656676 35:0 36:0 37:0.024089957 38:0.0031453916 39:0.036202673 40:0.49789229 41:0.86021727 42:0.048303295 43:0.088829227 44:0 45:0 46:0.88516206 47:0.019903935 48:0.041052055 49:0.2111205 50:0.40924588 51:0.021079207 52:0.043634988 53:0 54:0 55:0.87188101 56:0.042789403 57:0.077478066 58:0.27426413 59:0.38589433 60:0.073173739 61:0.049951296 62:0 63:0 64:0.84627807 65:0.053106721 66:0.056349557 67:0.25775859 68:0.45244673 69:0.081646822 70:0.00052981777 71:0 72:0 73:0.46549186 74:0.0014934675 75:0.076312378 76:0.47161317 77:0.70789438 78:0.18518163 79:0.14019381 80:0 81:0 82:0.99999249 83:0.00066033786 84:0.0016311248 85:0.0016851466 86:0.0017933636 87:0.00085870113 88:0.0014507987 89:0 90:0 91:0.9981218 92:0 93:0.0071860044 94:0.039069533 95:0.046604373 96:0 97:0 98:0 99:0 100:0.95605159 101:0.019135578 102:0.025397688 103:0.13101648 104:0.25760946 105:0.03738866 106:0.004847765 107:0 108:0 109:0.99828184 110:0 111:0 112:0.033236291 113:0.047831587 114:0.0023540205 115:0 116:0 117:0 118:0.99999845 119:0 120:0 121:0 122:3.1931177e-05 123:0 124:0 125:0 126:0 127:0.99999875 128:0 129:0 130:0 131:0 132:0 133:0 134:0 135:0 136:0.98183686 137:0 138:0 139:0.071569405 140:0.16638084 141:0.040184874 142:0.03960843 143:0 
0.2949322459674155 0.1887227567098415 1 0.3611908887336571 0.7423454842298415 0.605575607334182 0.2348595610964119 0.3168395440145443 0.8030401350163211 0.8095007412131132 0.2751060113521267 0.4832748410848724 0.3326003284548126 0.4082076370743183 0.4741709115980597 0.4917467618800708 0:0 1:0.0011498774 2:0 3:0 4:0.94442701 5:0.3286854 6:0 7:0 8:0 9:0 10:0.94089448 11:0 12:0.00028441724 13:0.089508243 14:0.31955171 15:0.015022081 16:0.066038348 17:0 18:0 19:0.93189406 20:0 21:0.023722788 22:0.099902123 23:0.34736678 24:0.014137017 25:0.012817768 26:0 27:0 28:0.99999899 29:0 30:0 31:0 32:0 33:0 34:0 35:0 36:0 37:0.99982071 38:0 39:0 40:0 41:0.0014606288 42:0.00011696266 43:0.018774752 44:0 45:0 46:0.92353892 47:0 48:0 49:0.28817999 50:0.24697679 51:0.026660604 52:0.048133504 53:0 54:0 55:0.98783368 56:0 57:0.00013081798 58:0.095971242 59:0.12110955 60:0.0022239059 61:0.017290896 62:0 63:0 64:0.83468628 65:0.0069533903 66:0.036042415 67:0.18150522 68:0.51597714 69:0.012030612 70:0.051248677 71:0 72:0 73:0.99999642 74:0 75:0 76:0 77:0 78:0 79:0 80:0 81:0 82:0.99994057 83:0 84:0 85:0 86:0.00083750254 87:6.7064626e-05 88:0.01076516 89:0 90:0 91:0.99999869 92:0 93:0 94:0.00075822661 95:0 96:0 97:0 98:0 99:0 100:0.99720985 101:0.064699426 102:0.021566477 103:0.02126969 104:0.021566477 105:0 106:0 107:0 108:0 109:0 110:0 111:0 112:0 113:0 114:0 115:0 116:0 117:0 118:0.99999869 119:0 120:0 121:0 122:0 123:0 124:0 125:0 126:0 127:0.99999887 128:0 129:0 130:0 131:0 132:0 133:0 134:0 135:0 136:0.9999975 137:0 138:0 139:0 140:0 141:0 142:0 143:0 
0.09663721029827985 0 0 0.07264934228621435 0 1 0.1275550576384103 1 1 1 0.5954695226679323 0.01002824397243639 0 1 0 0 0:0 1:0.07425338 2:0.36704463 3:0.32006618 4:0.58081573 5:0.56969571 6:0.26772061 7:0.15407521 8:0 9:0 10:0.98220384 11:0.0082588913 12:0.019878073 13:0.033680506 14:0.11560687 15:0.11367597 16:0.08595451 17:0 18:0 19:0.95253009 20:0.016521268 21:0.1328048 22:0.080972217 23:0.19643518 24:0.14651951 25:0.090342738 26:0 27:0 28:0.58741421 29:0.17508055 30:0.44089088 31:0.25356513 32:0.44892138 33:0.33503702 34:0.22764826 35:0 36:0 37:0.92609715 38:0.059385251 39:0.17296223 40:0.24508801 41:0.22045882 42:0 43:0.015064186 44:0 45:0 46:0.92376935 47:0.0084273247 48:0.12887684 49:0.15399981 50:0.32192221 51:0.051095232 52:0.0011576125 53:0 54:0 55:0.99825668 56:0.010048229 57:0.0095030675 58:0.027119396 59:0.048268698 60:5.9198414e-05 61:0.01496209 62:0 63:0 64:0.97582966 65:0.039062757 66:0.092780359 67:0.1070894 68:0.15953395 69:0.0044718478 70:0.026089635 71:0 72:0 73:0.99284256 74:0.049015801 75:0.079962663 76:0.066774584 77:0.031646051 78:0 79:0.0020996816 80:0 81:0 82:0.99999833 83:0 84:0 85:0 86:0 87:0 88:0 89:0 90:0 91:0.93766195 92:0.055505615 93:0.24080712 94:0.19668627 95:0.14164078 96:0.00352193 97:0.030910458 98:0 99:0 100:0.9937731 101:0.084390946 102:0.068239465 103:0.015865268 104:0.019565959 105:0 106:0 107:0 108:0 109:0.9961291 110:0.056291096 111:0.028225105 112:0.026404807 113:0.031862222 114:0.0095534502 115:0.044225909 116:0 117:0 118:0.99400359 119:0.0017498356 120:0.0030797108 121:0.0030797108 122:0.077923894 123:0.071393289 124:0.027619535 125:0 126:0 127:0.9886418 128:3.1218569e-05 129:0 130:5.7684574e-05 131:0.080495559 132:0.11111777 133:0.06130027 134:0 135:0 136:0.43660048 137:0.32937154 138:0.546152 139:0.46348187 140:0.37635803 141:0.1856264 142:0.10811009 143:0 
0.4213829335107332 1 1 0.5757123918298537 0.9292045584527283 1 0.6772830693925448 1 1 1 1 0.5603639881292786 1 1 1 0.9603634188642023 0:0 1:0.99995863 2:0 3:0 4:0 5:0 6:0 7:0 8:0 9:0 10:0.99999517 11:0 12:0 13:0 14:0 15:0 16:0 17:0 18:0 19:0.99998796 20:0 21:0 22:0.00080762675 23:0.0038463222 24:0 25:0 26:0 27:0 28:0.66738957 29:0.0036112806 30:0.22609685 31:0.40838706 32:0.53318298 33:0.22868904 34:0.0090082278 35:0 36:0 37:0.94612318 38:0 39:0 40:0.22809359 41:0.22980528 42:0.00089928409 43:0.0011762889 44:0 45:0 46:0.9762882 47:0 48:0 49:0.11214112 50:0.1767312 51:0.055149313 52:0 53:0 54:0 55:0.99997532 56:0 57:0 58:0 59:0.0066245813 60:0 61:0 62:0 63:0 64:0.99934584 65:0.032077659 66:0.0050266786 67:0.0020990833 68:0.015608175 69:0 70:0 71:0 72:0 73:0.9979943 74:0 75:0 76:0.050689325 77:0.037834723 78:0 79:0 80:0 81:0 82:0.93101156 83:0.060771864 84:0.031189755 85:0.23461787 86:0.2672542 87:0.0394913 88:0.022609068 89:0 90:0 91:0.98750526 92:0 93:0 94:0.079446167 95:0.13146998 96:0.035062164 97:0 98:0 99:0 100:0.99484497 101:0.057658736 102:0.07332892 103:0.019830531 104:0.034394223 105:0 106:0 107:0 108:0 109:0.99999702 110:0 111:0 112:0 113:0 114:0 115:0 116:0 117:0 118:0.99899828 119:0 120:0 121:0 122:0.0038988602 123:0.01974635 124:0.03986026 125:0 126:0 127:0.94327205 128:0 129:0 130:0.013176894 131:0.28807554 132:0.1642233 133:0.0098122275 134:0 135:0 136:0.63300997 137:0.16190153 138:0.2896755 139:0.38619077 140:0.5613786 141:0.14162309 142:0.069402613 143:0 
0.7720250767833068 0.4769469430917945 1 0.143586669677682 0.07759274223498644 1 0.9485872539200595 1 1 1 1 0.9902726534396399 1 1 0.5899521747941492 0.3203340368176509 0:0 1:0.0040993597 2:0.058652803 3:0.47690716 4:0.56285352 5:0.44325235 6:0.49439183 7:0.10672788 8:0 9:0 10:0.90312821 11:3.9053124e-05 12:0.064979993 13:0.22264646 14:0.24843051 15:0.16156238 16:0.20674069 17:0 18:0 19:0.96845067 20:0 21:0.011324085 22:0.045033198 23:0.21578814 24:0.062130675 25:0.09756887 26:0 27:0 28:0.96936834 29:0.039502896 30:0.075082496 31:0.081069939 32:0.18973342 33:0.081519663 34:0.062514819 35:0 36:0 37:0.95861328 38:0.096120842 39:0.14037512 40:0.055785533 41:0.20120437 42:0.090412833 43:0.018525198 44:0 45:0 46:0.92432564 47:0.15348198 48:0.14789982 49:0.18954054 50:0.16879933 51:0.15899798 52:0.10241362 53:0 54:0 55:0.95784187 56:0.0043047522 57:0.041564796 58:0.15170373 59:0.19946374 60:0.077278458 61:0.10962757 62:0 63:0 64:0.96319574 65:0.10592791 66:0.11608382 67:0.10778836 68:0.18893635 69:0.015495766 70:0.00029239821 71:0 72:0 73:0.98788011 74:0.10535806 75:0.076401755 76:0.031844381 77:0.075011589 78:0.019509058 79:0.011442235 80:0 81:0 82:0.97440088 83:0.087962121 84:0.092428423 85:0.039911248 86:0.15750489 87:0.08771351 88:0.012878828 89:0 90:0 91:0.98322362 92:0 93:0.04834599 94:0.11647701 95:0.13133393 96:0.010768039 97:0 98:0 99:0 100:0.92920572 101:0.069886662 102:0.17113228 103:0.24066184 104:0.21065758 105:0.010443189 106:0 107:0 108:0 109:0.9999724 110:0 111:0 112:0.00045632714 113:0.0056672208 114:2.8141581e-05 115:0.0044901185 116:0 117:0 118:0.98780078 119:0.026257794 120:0.026479322 121:0.023264999 122:0.12483482 123:0.042432088 124:0.070222437 125:0 126:0 127:0.95865679 128:0 129:0.049212459 130:0.00040670572 131:0.24260756 132:0.12806606 133:0.057386741 134:0 135:0 136:0.47670048 137:0.333518 138:0.36278158 139:0.37086228 140:0.39783204 141:0.28588489 142:0.39034143 143:0 
0 0 0 0 0 0.02690952521810003 0.02246425567866134 0 0.04691074723986703 0 0.02658114226986371 0 0 0 0 0 0:0 1:0.00048159712 2:0 3:0 4:0.8167097 5:0.57703513 6:0 7:0 8:0 9:0 10:0.94917935 11:0.0013816681 12:0.025659548 13:0.076435462 14:0.30370775 15:0.00040878973 16:0.01770018 17:0 18:0 19:0.91606331 20:0.0039812429 21:0.011456815 22:0.19991408 23:0.34689778 24:3.2379874e-05 25:0.019342875 26:0 27:0 28:0.99999875 29:0 30:0 31:0 32:0 33:0 34:0 35:0 36:0 37:0.21030794 38:0 39:0 40:0.72073823 41:0.65862679 42:0.050124791 43:0 44:0 45:0 46:0.95400256 47:0 48:0 49:0.23829943 50:0.18029356 51:0.02157148 52:0.010905744 53:0 54:0 55:0.99199593 56:0.00068136933 57:0.012654 58:0.060447186 59:0.10994379 60:0 61:0.006327 62:0 63:0 64:0.016836487 65:0.048664652 66:0.036051802 67:0.73393321 68:0.6748504 69:0.044309057 70:0 71:0 72:0 73:0.9124136 74:0 75:0 76:0.25277618 77:0.31454301 78:0.068253994 79:0.0016484803 80:0 81:0 82:0.98145455 83:0 84:0 85:0.14048608 86:0.13041687 87:0 88:0 89:0 90:0 91:0.99999881 92:0 93:0 94:0 95:0 96:0 97:0 98:0 99:0 100:0.99999785 101:0 102:0 103:0.0010241651 104:0.00075149932 105:0 106:0 107:0 108:0 109:0.99996293 110:0 111:0 112:0 113:0 114:0 115:0 116:0 117:0 118:0.99980462 119:0.0097476868 120:0.00010769357 121:0.012165682 122:0.012059615 123:0.00020858429 124:0 125:0 126:0 127:0.99999899 128:0 129:0 130:0 131:0 132:0 133:0 134:0 135:0 136:0.99987048 137:0 138:0 139:0.007772428 140:0.007772428 141:0.007772428 142:0 143:0 
0.3999206758370809 0.06341779840425719 0.284687781587899 0.494334641907692 0.1384056163749438 0.1740304136792222 0.5716999966407609 0 0.3034748877670381 0.3661703385908185 0.5097915780063847 0.07022782893481729 0.4638789767492257 0.6524301511316025 0.2230240480783653 0.2382121053676621 0:0 1:0.12250027 2:0.031889971 3:0.0019495711 4:0.74744034 5:0.65190536 6:0.01387205 7:0.0067077815 8:0 9:0 10:0.84452575 11:0.0036757679 12:0.081124946 13:0.3026033 14:0.35915363 15:0.10932125 16:0.21828033 17:0 18:0 19:0.84624493 20:0.019650467 21:0.0934048 22:0.029191103 23:0.40190604 24:0.23612642 25:0.23792036 26:0 27:0 28:0.71861023 29:0.0064947279 30:0.27934161 31:0.28778285 32:0.48836878 33:0.28943789 34:0.020373533 35:0 36:0 37:0.51047051 38:0.20684369 39:0.34746793 40:0.25052184 41:0.69081473 42:0.11499895 43:0.15048763 44:0 45:0 46:0.67325807 47:0.087488592 48:0.064737059 49:0.36525604 50:0.63110358 51:0.055977508 52:0.0057151676 53:0 54:0 55:0.29895508 56:0.050308555 57:0.15621805 58:0.50508654 59:0.73765486 60:0.089814357 61:0.27633095 62:0 63:0 64:0.41731542 65:0.1279372 66:0.28176117 67:0.47411379 68:0.7056219 69:0.080757536 70:0.029492058 71:0 72:0 73:0.76107651 74:0.028003803 75:0.38287741 76:0.079032771 77:0.5140962 78:0.018206574 79:0.049834777 80:0 81:0 82:0.97010726 83:0.074759521 84:0.088210054 85:0.090546109 86:0.18619312 87:0.042673521 88:0.028608635 89:0 90:0 91:0.8974613 92:0.061952528 93:0.068756044 94:0.1601705 95:0.39880905 96:0.02722018 97:0.023344297 98:0 99:0 100:0.93514729 101:0.1483708 102:0.13975814 103:0.22036101 104:0.18647607 105:0.0031736197 106:0.024516311 107:0 108:0 109:0.77000999 110:0 111:0.43309522 112:0.0032850816 113:0.42867583 114:0.0024354993 115:0.18881036 116:0 117:0 118:0.99127889 119:2.9850611e-09 120:0.059435122 121:0.00097681582 122:0.079662539 123:0.025619498 124:0.082511015 125:0 126:0 127:0.9756307 128:0 129:0.00012889376 130:0.018999835 131:0.14386673 132:0.16126496 133:0.032757349 134:0 135:0 136:0.25478455 137:0.30079165 138:0.41560465 139:0.52965117 140:0.56143606 141:0.24582839 142:0.12528218 143:0 
0.3823074106771919 0.1408311375080446 0.3029499865097937 0.5899738482683358 0.2960383253661922 0.2557017920184103 0.5207246445071483 0.07033855272497069 0.3318985832204592 0.234805963469809 0.3413087972838689 0.2150719331679936 0.3772437145077389 0.4203407954956768 0.2721764733587159 0.3269965727287849 0:0 1:0 2:0 3:0 4:0.74173397 5:0.6706292 6:0 7:0 8:0 9:0 10:0.92190129 11:0 12:0.025730195 13:0.21121772 14:0.32288122 15:0.0034144821 16:0.023397326 17:0 18:0 19:0.9999972 20:0 21:0 22:0 23:0 24:0 25:0 26:0 27:0 28:0.9999904 29:0 30:0 31:0 32:0 33:0 34:0 35:0 36:0 37:0.0036138464 38:0 39:0 40:0.70679176 41:0.70740056 42:0 43:0 44:0 45:0 46:0.57994956 47:0 48:0.025236966 49:0.52005017 50:0.62653244 51:0.0039828671 52:0 53:0 54:0 55:0.98112577 56:0 57:0.01360301 58:0.11166634 59:0.15725251 60:0.0018051644 61:0 62:0 63:0 64:0.99999732 65:0 66:0 67:0 68:0 69:0 70:0 71:0 72:0 73:0.029085012 74:0 75:0 76:0.73215753 77:0.67695963 78:0.069215894 79:0.0045696255 80:0 81:0 82:0.0082454113 83:0 84:0 85:0.78418428 86:0.62045515 87:0 88:0 89:0 90:0 91:0.99999028 92:0 93:0 94:0 95:0.00313009 96:0 97:0 98:0 99:0 100:0.99999756 101:0 102:0 103:0 104:0 105:0 106:0 107:0 108:0 109:0.078210317 110:0 111:0 112:0.71336603 113:0.66750777 114:0.19798234 115:0.013848841 116:0 117:0 118:0 119:0 120:0 121:0 122:0.99867576 123:0 124:0 125:0 126:0 127:0.99871212 128:0 129:0 130:0 131:0 132:0 133:0 134:0 135:0 136:0.99999493 137:0 138:0 139:0 140:0 141:0 142:0 143:0 
0.4024716246682564 0.0610545453990361 0.2914522045269002 0.4897608320583888 0.2491229158559966 0.347017870334568 0.7335844247476954 0 0.4133791694935895 0.4763112816206665 0.699942128851495 0.1629166292865661 0.7311941369457026 0.8811970506264671 0.2712688817661514 0.211026347240109 0:0 1:0.76097459 2:0 3:0.0048582465 4:0.59321362 5:0.22653291 6:0 7:0.13221258 8:0 9:0 10:0.8332845 11:0.0016015072 12:0.15086587 13:0.13773586 14:0.44680294 15:0.001381879 16:0.25340202 17:0 18:0 19:0.88511592 20:0.00064886629 21:0.012863288 22:0.0051653185 23:0.32953206 24:0.30081266 25:0.13142104 26:0 27:0 28:0.87193 29:0.00047278323 30:0.12021953 31:0.29096323 32:0.35435057 33:0.11468558 34:0.043401811 35:0 36:0 37:0.88985163 38:0.10997277 39:0.13779303 40:0.30393451 41:0.27729866 42:0.032709677 43:0.081794657 44:0 45:0 46:0.32869044 47:0.072303295 48:0.26191095 49:0.8031764 50:0.40974432 51:0.031833615 52:0.064054377 53:0 54:0 55:0.43362513 56:0.043317795 57:0.2803514 58:0.18728504 59:0.77673137 60:0.081638731 61:0.29389238 62:0 63:0 64:0.86741215 65:0.075831227 66:0.13589017 67:0.33217573 68:0.32061908 69:0.092270508 70:0.041229181 71:0 72:0 73:0.86005843 74:0.05584665 75:0.17563929 76:0.24303401 77:0.34327379 78:0.10012171 79:0.19839856 80:0 81:0 82:0.98375934 83:0.052874114 84:0.019662602 85:0.1461295 86:0.079857856 87:0.015726589 88:0.032121986 89:0 90:0 91:0.98476267 92:0 93:0.10290314 94:0.090826213 95:0.10345061 96:0.0046768645 97:0.025653435 98:0 99:0 100:0.51183718 101:0.66573608 102:0.4598096 103:0.16055077 104:0.22938989 105:0.046169128 106:0.05309695 107:0 108:0 109:0.99685967 110:0.0018849168 111:0.025008688 112:0.0081307106 113:0.074495219 114:0.00047354723 115:0.0010922811 116:0 117:0 118:0.99894744 119:1.2025487e-08 120:3.0063718e-09 121:6.0127436e-09 122:0.00042652694 123:6.0127436e-09 124:0.045624118 125:0 126:0 127:0.88677043 128:0.028618384 129:0.036435056 130:0.069327749 131:0.32263392 132:0.31815103 133:0.036660608 134:0 135:0 136:0.30495903 137:0.17133562 138:0.49757802 139:0.39692011 140:0.65341532 141:0.16815513 142:0.13138108 143:0 
0.3264484802308056 0.1242426735911237 0.2651025761542875 0.8448814257398982 0.735938438065168 0.2667209333714081 0.3616991571442446 0.04668131131655144 0.2406222171139115 0.1594992177083775 0.2802663177063078 0.2306688448088006 0.3474417367065221 0.522557441535849 0.2532827923534287 0.4257380989219744 0:0 1:0.9764269 2:0 3:0 4:0 5:0 6:0 7:0 8:0 9:0 10:0.88350648 11:0 12:0 13:0.22780415 14:0.37059724 15:0.13431139 16:0.11013892 17:0 18:0 19:0.99805951 20:0 21:0 22:0.0088530444 23:0.055309802 24:0.027154101 25:2.3909624e-05 26:0 27:0 28:0.99999851 29:0 30:0 31:0 32:0 33:0 34:0 35:0 36:0 37:0.46726909 38:0 39:0 40:0.6635533 41:0.58424985 42:0 43:0 44:0 45:0 46:0.24007379 47:0 48:0 49:0.7329523 50:0.63315946 51:0.016631469 52:0.063026592 53:0 54:0 55:0.97327298 56:0 57:0 58:0.12115907 59:0.19226165 60:0.006890404 61:0.032333862 62:0 63:0 64:0.99311483 65:0.0035211646 66:0.0089655071 67:0.04354234 68:0.10831574 69:0 70:0 71:0 72:0 73:0.97417206 74:0 75:0 76:0.16179886 77:0.15731245 78:0 79:0.0076386048 80:0 81:0 82:0.0014327974 83:0 84:0 85:0.82500398 86:0.56498361 87:0 88:0.012411959 89:0 90:0 91:0.9463461 92:0 93:0 94:0.28406787 95:0.15404005 96:0 97:0 98:0 99:0 100:0.99999893 101:0 102:0 103:0 104:0 105:0 106:0 107:0 108:0 109:0.99999619 110:0 111:0 112:0 113:0 114:0 115:0 116:0 117:0 118:0 119:0 120:0 121:0.80326861 122:0.59388828 123:0 124:0.045060605 125:0 126:0 127:0.99519479 128:0 129:0 130:0 131:0 132:0 133:0 134:0 135:0 136:0.99999613 137:0 138:0 139:0 140:0 141:0 142:0 143:0 
0.6059179903332762 0.2138462967147043 0.4517946852858461 1 0.3952351534768854 0.3665902549105305 0.7649224632816808 0.09567621715465087 0.4444185425401728 0.3243854746862672 0.4804762230914667 0.3153724017669392 0.6160784515553389 0.6087676544444927 0.3959967794457074 0.5635979041081465 0:0 1:0 2:0 3:0 4:0 5:0 6:0 7:0 8:0 9:0 10:0.99737114 11:0 12:0 13:0 14:0 15:0 16:0 17:0 18:0 19:0.98407215 20:0.057090644 21:0.06428989 22:0.0069591547 23:0.13905461 24:0.00088469341 25:0.069306053 26:0 27:0 28:0.99999267 29:0 30:0 31:0 32:0 33:0 34:0 35:0 36:0 37:0.80191076 38:0 39:0.25811493 40:0 41:0 42:0 43:0.53355134 44:0 45:0 46:0.02156689 47:0.010835972 48:0.018156685 49:0.95798022 50:0.28491744 51:0.0092897527 52:0.0053806044 53:0 54:0 55:0.59806806 56:0.011322651 57:0.18480943 58:0.54929191 59:0.48663837 60:0.15635423 61:0.2122159 62:0 63:0 64:0.99783665 65:0.010352791 66:0.02341911 67:0.0025668778 68:0.050848063 69:0.0003785032 70:0.032717627 71:0 72:0 73:0.060590107 74:0.014247445 75:0.0031970972 76:0.36183408 77:0.92987818 78:0.017484494 79:0.011945338 80:0 81:0 82:0.013561506 83:0.005519161 84:0.007293696 85:0.6353507 86:0.77197236 87:0.0091928616 88:0.0051459637 89:0 90:0 91:0.4526467 92:0.045008164 93:0.11146595 94:0.63341463 95:0.61370242 96:0.041621275 97:0.032814015 98:0 99:0 100:0.054677565 101:0.098628633 102:0.17915948 103:0.73653698 104:0.62550247 105:0.12393349 106:0.077946834 107:0 108:0 109:0.99939817 110:0 111:0.00041584784 112:0.0001818459 113:0.0099980934 114:0.011314693 115:0.031126836 116:0 117:0 118:0.43043596 119:0.0022814465 120:0.016618699 121:0.41228756 122:0.7935859 123:0.045419823 124:0.11230314 125:0 126:0 127:0.43552491 128:0.003840103 129:0.0053101112 130:0.58254099 131:0.68620586 132:0.0046471003 133:0.0033720909 134:0 135:0 136:0.99973255 137:0.00029001606 138:0.00041801293 139:0.020228149 140:0.010975878 141:0.00066574145 142:0.00038149944 143:0 
0.8969825121601187 0.8698623579947617 1 0.2170939853709831 0 1 0.9297862237172705 1 1 1 1 0.2740378415527029 0.9570720621309388 1 0.7160458357659697 0.4750080335868779 0:0 1:0.8397243 2:0 3:0.24835989 4:0 5:0.48273295 6:0 7:0 8:0 9:0 10:0.99712622 11:0.0056900778 12:0 13:0.033689726 14:0.06300474 15:0.0006161948 16:0.024414681 17:0 18:0 19:0.96972579 20:0 21:0 22:0.031643875 23:0.1588753 24:0.17417398 25:0.055189941 26:0 27:0 28:0.82416773 29:0.0058956933 30:0.11864143 31:0.34208921 32:0.4093059 33:0.14855573 34:0.0016806417 35:0 36:0 37:0.99999702 38:0 39:0.00017024789 40:0 41:6.0847626e-05 42:0 43:0 44:0 45:0 46:0.93436897 47:0.030609464 48:0.045944624 49:0.33596712 50:0.10242873 51:0.02247089 52:0.0054491176 53:0 54:0 55:0.98624718 56:0.0042771674 57:0 58:0.12733886 59:0.10076276 60:0.023102088 61:0.019789217 62:0 63:0 64:0.81202668 65:0.024048503 66:0.054486495 67:0.38365701 68:0.4294197 69:0.073491186 70:0.0079401592 71:0 72:0 73:0.99629426 74:0.013835029 75:0.015633186 76:0.045287531 77:0.053230349 78:0.045483619 79:0 80:0 81:0 82:0.99999851 83:0 84:0 85:0 86:3.1274878e-05 87:0 88:0 89:0 90:0 91:0.99112499 92:0.0021108829 93:0 94:0.12266081 95:0.045730617 96:0.017397365 97:0.014940111 98:0 99:0 100:0.95139188 101:0.10173827 102:0.10468271 103:0.22186235 104:0.15069382 105:0.039981063 106:0.002537749 107:0 108:0 109:0.99999702 110:0 111:0 112:0 113:6.1727267e-05 114:0 115:0 116:0 117:0 118:0.99929631 119:0 120:0.00048179424 121:0 122:0.037407707 123:0 124:0 125:0 126:0 127:0.97965723 128:0 129:0 130:0.021383444 131:0.1418948 132:0.13916045 133:0.017513685 134:0 135:0 136:0.3332074 137:0.11073419 138:0.3785736 139:0.50584334 140:0.65083921 141:0.22563283 142:0.054794099 143:0 
0.5158181266881349 0.1792951024796788 0.380471219732281 0.7284655053759919 0.3265852135210447 0.3280513807962071 0.6798241192524265 0.09211470504713487 0.4031236982667387 0.2912421887911049 0.413757621983577 0.2755169578044932 0.4740977419138871 0.501019983337268 0.4541915617557189 0.4001286016025062 0:0 1:0 2:0 3:0 4:0 5:0.9999882 6:0 7:0 8:0 9:0 10:0 11:0 12:0 13:7.3215083e-09 14:0.99999458 15:1.4643017e-09 16:4.3929047e-09 17:0 18:0 19:0 20:0 21:0 22:0.023768116 23:0.9997111 24:1.7327586e-09 25:5.1982756e-09 26:0 27:0 28:0 29:0 30:0 31:0 32:0.99998772 33:0 34:0 35:0 36:0 37:0 38:0 39:0 40:0.71924537 41:0.69474441 42:0 43:0.00033523038 44:0 45:0 46:0 47:0 48:0 49:0.14330561 50:0.98892879 51:0.020980449 52:0.032219313 53:0 54:0 55:0 56:0 57:0 58:1.2832569e-08 59:0.99999815 60:1.480681e-09 61:1.480681e-09 62:0 63:0 64:0 65:0 66:0 67:1.1205449e-08 68:0.99999481 69:0 70:0 71:0 72:0 73:0.04747203 74:0.0093562426 75:0.056276247 76:0.60700387 77:0.79013979 78:0.041324191 79:0.00041769043 80:0 81:0 82:0.0064376984 83:0 84:0 85:0.35749111 86:0.93364137 87:0.021580786 88:0.00013882437 89:0 90:0 91:0 92:0 93:0 94:0.028198196 95:0.99953562 96:0.011392074 97:0 98:0 99:0 100:0 101:0 102:0 103:1.2860458e-08 104:0.99999797 105:0 106:0 107:0 108:0 109:0.055159792 110:0.011892187 111:0.068401746 112:0.21714218 113:0.97096604 114:0.046909288 115:2.9337328e-09 116:0 117:0 118:9.7965174e-09 119:0 120:0 121:0.42925084 122:0.90313935 123:0 124:0.0032365283 125:0 126:0 127:0 128:0 129:0 130:2.1014845e-08 131:0.99999571 132:0 133:0 134:0 135:0 136:0 137:0 138:0 139:1.5185138e-08 140:0.9999969 141:0 142:0 143:0 
0.6024937119520388 0.2231230333866871 0.4764778265857506 1 0.406364981329115 0.4083702738084802 0.8217600025022617 0.1121581721789932 0.5286757294109272 0.3626862339162434 0.5171442420269257 0.3423760018640845 0.5913209662200133 0.6283460019625201 1 0.5044346113244741 0:0 1:0 2:0 3:0 4:0 5:0 6:0 7:0 8:0 9:0 10:0 11:0 12:0 13:0 14:0 15:0 16:0 17:0 18:0 19:0 20:0 21:0 22:0 23:0 24:0 25:0 26:0 27:0 28:0 29:0 30:0 31:0 32:0 33:0 34:0 35:0 36:0 37:0 38:0 39:0 40:0 41:0 42:0 43:0 44:0 45:0 46:0 47:0 48:0 49:0 50:0 51:0 52:0 53:0 54:0 55:0 56:0 57:0 58:0 59:0 60:0 61:0 62:0 63:0 64:0 65:0 66:0 67:0 68:0 69:0 70:0 71:0 72:0 73:0 74:0 75:0 76:0 77:0 78:0 79:0 80:0 81:0 82:0 83:0 84:0 85:0 86:0 87:0 88:0 89:0 90:0 91:0 92:0 93:0 94:0 95:0 96:0 97:0 98:0 99:0 100:0 101:0 102:0 103:0 104:0 105:0 106:0 107:0 108:0 109:0 110:0 111:0 112:0 113:0 114:0 115:0 116:0 117:0 118:0 119:0 120:0 121:0 122:0 123:0 124:0 125:0 126:0 127:0 128:0 129:0 130:0 131:0 132:0 133:0 134:0 135:0 136:0 137:0 138:0 139:0 140:0 141:0 142:0 143:0 
0.09980917701566168 0.02444893343995731 0.05992533518407254 0.2006274201946068 0.0825379141258428 0.08837095523105945 0.1005542519590915 0.01840611820112678 0.0747179288549745 0.05606368223415602 0.08535967075556912 0.04646040923686172 0.08127780635311828 0.07629170386180462 0.05335597892864458 0.1052312619885048 0:0 1:0.0087344181 2:0 3:0 4:0 5:0.99975103 6:0 7:0 8:0 9:0 10:0.92236447 11:0 12:0.011147044 13:0.2566874 14:0.28735805 15:0.0068923864 16:0.024570229 17:0 18:0 19:0.99999881 20:0 21:0 22:0 23:0 24:0 25:0 26:0 27:0 28:0.99999589 29:0 30:0 31:0 32:0 33:0 34:0 35:0 36:0 37:0.002766721 38:0 39:0 40:0.61728835 41:0.78672707 42:0 43:0 44:0 45:0 46:0.54996419 47:0 48:0.0088602277 49:0.50878751 50:0.66223311 51:0.0011916591 52:0.0061430805 53:0 54:0 55:0.9766919 56:0 57:0.00544977 58:0.12588608 59:0.17373317 60:0.00042502297 61:0.0031571654 62:0 63:0 64:0.99999893 65:0 66:0 67:0 68:0 69:0 70:0 71:0 72:0 73:0.15757602 74:0 75:0 76:0.59644955 77:0.78082758 78:0.078505598 79:0.059647329 80:0 81:0 82:0.26603785 83:0 84:0 85:0.62227345 86:0.73620218 87:0 88:0 89:0 90:0 91:0.99617469 92:0 93:0 94:0.063670143 95:0.059824888 96:0 97:0 98:0 99:0 100:0.99778664 101:0.0019544095 102:0.0051022833 103:0.0030294966 104:0.062354274 105:0.020340784 106:0.0088621136 107:0 108:0 109:0.6449995 110:0 111:0 112:0.36486828 113:0.63429344 114:0.17541555 115:0.13317916 116:0 117:0 118:0 119:0 120:0 121:0.77974045 122:0.62607551 123:0 124:0 125:0 126:0 127:0.99998885 128:0 129:0 130:0 131:0 132:0 133:0 134:0 135:0 136:0.99999839 137:0 138:0 139:0 140:0 141:0 142:0 143:0 
0.8728879294382611 0.08763645942966254 0.7024996806498878 0 0.2916700296012603 1 0.2572762047019693 0.1280346139023388 0.7494128853371281 1 0.3912495435556967 1 0.6093643391006983 0.3289762109472296 0 0.2749845600253762 0:0 1:0.063519135 2:0.21322498 3:0.39713815 4:0.65231854 5:0.36563101 6:0.3668091 7:0.3146691 8:0 9:0 10:0.96196038 11:0 12:0.0235982 13:0.021219105 14:0.16305722 15:0.13503499 16:0.16970298 17:0 18:0 19:0.99758106 20:0.0172734 21:0.0016181252 22:0.028456843 23:0.057776198 24:0.019494267 25:7.9493635e-05 26:0 27:0 28:0.91009182 29:0.17277083 30:0.14574234 31:0.0047238711 32:0.081027806 33:0.11548229 34:0.31735116 35:0 36:0 37:0.94601238 38:0.044998102 39:0.20447789 40:0.23020567 41:0.090423003 42:7.703295e-05 43:0.007034875 44:0 45:0 46:0.56853628 47:0 48:0.025388211 49:0.42697063 50:0.6675089 51:0.13278215 52:0.17496176 53:0 54:0 55:0.99983418 56:0 57:0 58:0.014591643 59:0.0054069911 60:7.8995283e-05 61:0.009313941 62:0 63:0 64:0.89136249 65:0.011255627 66:0.074849628 67:0.24767651 68:0.36764157 69:0 70:0.056889437 71:0 72:0 73:0.99187487 74:0.085493587 75:0.084334083 76:0.017038016 77:0.034177288 78:0 79:0.017369013 80:0 81:0 82:0.98938972 83:0 84:0.00064713659 85:0.073110051 86:0.12317588 87:0.019715596 88:0.014039546 89:0 90:0 91:0.90296417 92:0 93:0.016872332 94:0.19638364 95:0.35276833 96:0.074026264 97:0.12599199 98:0 99:0 100:0.99396479 101:0.094410524 102:0.055713162 103:0.0035668921 104:0.001084054 105:0 106:0 107:0 108:0 109:0.99203414 110:0.066626191 111:0.039925762 112:0.0045794663 113:0.073591962 114:0.040038295 115:0.052849237 116:0 117:0 118:0.99932677 119:0 120:0.00028917749 121:0.00074270996 122:0.031070976 123:0.01069443 124:0.016198996 125:0 126:0 127:0.97823691 128:0 129:0.00095337461 130:0.054990221 131:0.070033945 132:0.17321098 133:0.071518645 134:0 135:0 136:0.5933677 137:0.25228044 138:0.38860151 139:0.38368908 140:0.43821323 141:0.28140047 142:0.12171856 143:0 
0.3950794973193872 0.6114360489900871 0.7740139422339704 0.6057875070189869 0.2962018489392466 0.3999539851602291 0.6190349447227037 0.0135391734891159 0.5961871528878495 0.4068844596009439 0.657702698581571 0.2663226699546729 0.5117560120823139 0.61977263835191 0.537427475535198 0.3633948510822343 0:0 1:0.9897216 2:0 3:0 4:0.0060916785 5:0.13719878 6:0 7:0.039762203 8:0 9:0 10:0.94927454 11:0.025702784 12:0.012096589 13:0.21829911 14:0.22421616 15:0.0089502148 16:0.0077790851 17:0 18:0 19:0.99999881 20:0 21:0 22:0 23:0 24:0 25:0 26:0 27:0 28:0.9999947 29:0 30:0 31:0 32:0 33:0 34:0 35:0 36:0 37:0.81183851 38:0 39:0 40:0.41271263 41:0.40779358 42:0.030993745 43:0.05766825 44:0 45:0 46:0.99518621 47:0.020837301 48:0.0028466261 49:0.074562415 50:0.059822228 51:0.0012525152 52:0.0044704787 53:0 54:0 55:0.67411655 56:0.06211831 57:0.068439126 58:0.48521107 59:0.54902613 60:0.012215588 61:0.00339761 62:0 63:0 64:0.99999762 65:0 66:0 67:0 68:0 69:0 70:0 71:0 72:0 73:0.99999857 74:0 75:0 76:0 77:0 78:0 79:0.000323944 80:0 81:0 82:0.9983502 83:0 84:0 85:0.033591468 86:0.046546075 87:0 88:0 89:0 90:0 91:0.99578047 92:0.056333803 93:0.038701471 94:0.034143962 95:0.050805021 96:0 97:0 98:0 99:0 100:0.0025368119 101:0.11555076 102:0.22192544 103:0.23390368 104:0.93950135 105:0 106:0 107:0 108:0 109:0.99999785 110:0 111:0 112:0 113:0 114:0 115:0 116:0 117:0 118:0.99999893 119:0 120:0 121:0 122:0 123:0 124:0 125:0 126:0 127:0.99999821 128:0 129:0 130:0 131:0 132:0 133:0 134:0 135:0 136:0 137:0 138:0 139:0 140:0 141:0 142:0 143:0 
0.734889976798041 1 1 0.7212946823361165 1 1 0.8456369720977742 1 1 1 1 1 1 1 1 1 0:0 1:0.98098242 2:0.0032127914 3:0.024084814 4:0.11255353 5:0.11013134 6:0.10450342 7:0.036874361 8:0 9:0 10:0.99269128 11:0.0036940477 12:0 13:0.012475071 14:0.073225439 15:0.058667425 16:0.074730001 17:0 18:0 19:0.99491322 20:0 21:0 22:0.0078046285 23:0.074678086 24:0.014214667 25:0.06558466 26:0 27:0 28:0.98282182 29:0 30:0.00027719853 31:0.062685907 32:0.17355464 33:0.002249086 34:0 35:0 36:0 37:0.64425296 38:0.25492471 39:0.27866319 40:0.31686589 41:0.36058018 42:0.34969765 43:0.29929399 44:0 45:0 46:0.99074376 47:0.0033576004 48:0 49:0.011836243 50:0.067432486 51:0.11531929 52:0.020596486 53:0 54:0 55:0.99749267 56:0 57:0 58:0.0039782734 59:0.069863357 60:0.00099548092 61:0.010251485 62:0 63:0 64:0.99554652 65:0.087699309 66:0.012364184 67:0.017031349 68:0.02734594 69:0 70:0 71:0 72:0 73:0.98924994 74:0.039898731 75:0.090578645 76:0.092129067 77:0.055634931 78:0 79:0 80:0 81:0 82:0.98034716 83:0 84:0 85:0.14421791 86:0.1303703 87:0.032174449 88:0.0089121163 89:0 90:0 91:0.98324049 92:0.021752236 93:0.046567664 94:0.055472344 95:0.16262026 96:0.016955983 97:0.027885227 98:0 99:0 100:0.99403256 101:0.013666779 102:0.065898232 103:0.042071421 104:0.074779652 105:0.00020936732 106:0.0016752309 107:0 108:0 109:0.96804899 110:0.052238874 111:0.143078 112:0.18246211 113:0.079893388 114:0 115:0 116:0 117:0 118:0.99976254 119:0 120:0 121:0 122:0.015207223 123:0 124:0.015410134 125:0 126:0 127:0.98814166 128:0.020845344 129:0.063812278 130:0.085020825 131:0.10655059 132:0.020846089 133:0.0066976021 134:0 135:0 136:0.9329254 137:0.080730893 138:0.22107902 139:0.20293547 140:0.17923504 141:0.0041021691 142:0.030400578 143:0 
0.035995898232984 0 0.1750549479374626 0.2311881708419853 0.9248601662453244 0.1293173117785414 0.1891345837185431 0 0.2430123019699984 0.01475473156959893 0.2020748549732288 0.145076285485769 0.1145359446055534 0.3712764742594133 0.144103182533961 0.08657630045566506 0:0 1:0.00088221458 2:0 3:0.00078239432 4:0.98688722 5:0.1613805 6:0.00047333087 7:0 8:0 9:0 10:0.87852192 11:0.0010315059 12:0.071056612 13:0.35430557 14:0.2996088 15:0.074237622 16:0.048338465 17:0 18:0 19:0.84895474 20:0.0026405039 21:0.06664028 22:0.41921619 23:0.30618417 24:0.012172122 25:0.072018795 26:0 27:0 28:0.99999839 29:0 30:0 31:0 32:0 33:0 34:0 35:0 36:0 37:0.18637326 38:0 39:0.011320589 40:0.93561292 41:0.29550788 42:0.04804698 43:0.011262121 44:0 45:0 46:0.92673254 47:0.0016223383 48:0.011058141 49:0.33916932 50:0.15830381 51:0.028807886 52:0.010681504 53:0 54:0 55:0.95904374 56:0.00070655998 57:0.056118891 58:0.23757602 59:0.13882627 60:0.034053706 61:0.014436867 62:0 63:0 64:0.39954725 65:0.025057064 66:0.14873624 67:0.72188121 68:0.53168684 69:0.0085710818 70:0.11718138 71:0 72:0 73:0.86245865 74:0 75:0.0051680463 76:0.47050944 77:0.16251256 78:0.085502706 79:0.03207976 80:0 81:0 82:0.99414802 83:0 84:0.00023159843 85:0.087653071 86:0.06312228 87:9.126326e-05 88:0.00017691663 89:0 90:0 91:0.99999893 92:0 93:0 94:0 95:0 96:0 97:0 98:0 99:0 100:0.99999839 101:0 102:0 103:0 104:0 105:0 106:0 107:0 108:0 109:0.99794483 110:0 111:0 112:0 113:0 114:0 115:0 116:0 117:0 118:0.99927735 119:0.037977472 120:0 121:8.6481741e-05 122:0 123:0 124:8.1066042e-05 125:0 126:0 127:0.99999887 128:0 129:0 130:0 131:0 132:0 133:0 134:0 135:0 136:0.99769735 137:0 138:0 139:0 140:0 141:0 142:0 143:0 
0.176861438680373 0.03824599069383499 0.1284789204164332 0.2235209762044262 0.2379055488487586 0.1235732859699211 0.2342795113919837 0.007558771541207643 0.1222770173821283 0.09552187855415209 0.1480291924380941 0.07147385999289606 0.1438564893600251 0.1600885458148667 0.1026364575689774 0.09233748583465734 0:0 1:0.062284324 2:0 3:0 4:0 5:0.99655181 6:0 7:0 8:0 9:0 10:0.74185747 11:0 12:0 13:0.3855536 14:0.54569364 15:0.056599669 16:0 17:0 18:0 19:0.98969352 20:0 21:0 22:0.015071727 23:0.14239742 24:0.00012903553 25:0 26:0 27:0 28:0.99999726 29:0 30:0 31:0 32:0 33:0 34:0 35:0 36:0 37:0.0029027781 38:0 39:0 40:0.74214011 41:0.67023104 42:0 43:0 44:0 45:0 46:0.30721357 47:0 48:0 49:0.63560796 50:0.70824921 51:0 52:0 53:0 54:0 55:0.92869645 56:0 57:0 58:0.17678446 59:0.32598457 60:0 61:0 62:0 63:0 64:0.97799528 65:0 66:0 67:0.028187616 68:0.20670831 69:0 70:0 71:0 72:0 73:0.91842932 74:0 75:0 76:0.28813934 77:0.26581603 78:0.023959564 79:0.047175478 80:0 81:0 82:0.019208319 83:0 84:0 85:0.79578853 86:0.60526443 87:0 88:0 89:0 90:0 91:0.98580593 92:0 93:0 94:0.13205573 95:0.10364819 96:0 97:0 98:0 99:0 100:0.99999815 101:0 102:0 103:0 104:0 105:0 106:0 107:0 108:0 109:0.99999624 110:0 111:0 112:0 113:0 114:0 115:0 116:0 117:0 118:0.0028267289 119:0 120:0 121:0.90801889 122:0.4188872 123:0 124:0 125:0 126:0 127:0.99985766 128:0 129:0 130:0 131:0 132:0 133:0 134:0 135:0 136:0.99999636 137:0 138:0 139:0 140:0 141:0 142:0 143:0 
1 0 0.5992575888664002 0 0.06079261367415501 0.6105733416596316 0 0 0 0.165115251102238 0.2229289134120384 0.7091276839328464 0.6161108072560548 0.1273304001300293 0 0 0:0 1:0.36013842 2:0 3:0.15948436 4:0.50973481 5:0.67603463 6:0.298058 7:0.19790249 8:0 9:0 10:0.93412125 11:0 12:0.017476104 13:0.020966323 14:0.32357234 15:0.064564817 16:0.13342266 17:0 18:0 19:0.99279612 20:0 21:0.013813167 22:0.0012874067 23:0.09193562 24:0.016040668 25:0.073832355 26:0 27:0 28:0.84586757 29:0.031189572 30:0.19088946 31:0.13247599 32:0.45508516 33:0.12325771 34:0.085137017 35:0 36:0 37:0.77498597 38:0.022955054 39:0.22272816 40:0.18038544 41:0.52924007 42:0.16062994 43:0.10402507 44:0 45:0 46:0.51084286 47:0 48:0.058946855 49:0.62557954 50:0.54980069 51:0.17209217 52:0.11096562 53:0 54:0 55:0.9903903 56:0 57:0.00014281146 58:0.10264976 59:0.084948219 60:0.00021704024 61:0.037020225 62:0 63:0 64:0.97613084 65:0.046172429 66:0.072413228 67:0.054862123 68:0.18582119 69:0.011322023 70:0.046078753 71:0 72:0 73:0.97929579 74:0.071571067 75:0.12292383 76:0.088636212 77:0.11324844 78:0 79:0.0079348143 80:0 81:0 82:0.86758846 83:0 84:0.022488037 85:0.41054612 86:0.27115554 87:0.06853684 88:0.0030972757 89:0 90:0 91:0.80657905 92:0.0096351169 93:0.016014228 94:0.3920117 95:0.41506308 96:0.14793728 97:0.035201225 98:0 99:0 100:0.98297602 101:0.10659183 102:0.070551842 103:0.080254517 104:0.097940423 105:0.032466132 106:0.01813147 107:0 108:0 109:0.95993036 110:0.062714115 111:0.092058763 112:0.14804369 113:0.18933809 114:0.091051348 115:0.0082021579 116:0 117:0 118:0.95763403 119:0 120:0.030270368 121:0.24694188 122:0.14504257 123:0 124:0 125:0 126:0 127:0.9354192 128:0.019642679 129:0.096692726 130:0.23636472 131:0.20591205 132:0.12964106 133:0.013316956 134:0 135:0 136:0.65186727 137:0.096877858 138:0.19450609 139:0.44719183 140:0.55976391 141:0.1200754 142:0.010591622 143:0 
0.1746808630058166 0.0586639062472492 0.09717149508869184 0.2229748976701954 0.1374156651087369 0.07454548951568282 0.1837194547469105 0.03241189691005525 0.1051168139951175 0.08063945589410081 0.1205977881179571 0.06260720347646923 0.1449271132730758 0.1503744132793857 0.0938805732226083 0.118125941064416 0:0 1:0.0015615229 2:0 3:0 4:0.87294835 5:0.48773289 6:0 7:0 8:0 9:0 10:0.90519524 11:0 12:0 13:0.28619599 14:0.31110281 15:0.043847024 16:0 17:0 18:0 19:0.87870663 20:0 21:0 22:0.36997384 23:0.29893175 24:0.040382255 25:0 26:0 27:0 28:0.99999779 29:0 30:0 31:0 32:0 33:0 34:0 35:0 36:0 37:0.00081535842 38:0 39:0 40:0.74831188 41:0.66334069 42:0 43:0 44:0 45:0 46:0.39795685 47:0 48:0 49:0.62461579 50:0.67192268 51:0 52:0 53:0 54:0 55:0.98120564 56:0 57:0 58:0.12077764 59:0.15048397 60:0 61:0 62:0 63:0 64:0.66842544 65:0 66:0 67:0.61317378 68:0.42097685 69:0.0008423063 70:0 71:0 72:0 73:0.45719725 74:0 75:0 76:0.59542435 77:0.65838742 78:0.017016193 79:0.05167982 80:0 81:0 82:0.0047456543 83:0 84:0 85:0.69940245 86:0.71470654 87:0 88:0 89:0 90:0 91:0.9984495 92:0 93:0 94:0.047438871 95:0.02901184 96:0 97:0 98:0 99:0 100:0.99999875 101:0 102:0 103:0 104:0 105:0 106:0 107:0 108:0 109:0.91629028 110:0 111:0 112:0.29221639 113:0.24896279 114:0.035536174 115:0.10845973 116:0 117:0 118:0 119:0 120:0 121:0.83222902 122:0.55432886 123:0 124:0 125:0 126:0 127:0.99908721 128:0 129:0 130:0 131:0 132:0 133:0 134:0 135:0 136:0.99999666 137:0 138:0 139:0 140:0 141:0 142:0 143:0 
0.7122773397201458 0 0.3797450736445223 0 0.01685246173659051 1 0 0.7367470439002498 1 0.858199604498513 0.1185898251596812 0.6609417244549149 0.0210834364303541 0 0.4326435876810732 0 0:0 1:0.17615354 2:0.31709278 3:0.27743739 4:0.70032454 5:0.40379518 6:0.27348259 7:0.25127843 8:0 9:0 10:0.98042858 11:0 12:0.0027851858 13:0.019112842 14:0.12228692 15:0.092280991 16:0.12211615 17:0 18:0 19:0.99769998 20:0 21:0 22:0 23:0 24:0.0018792292 25:0.067732356 26:0 27:0 28:0.67706692 29:0.27769461 30:0.28405571 31:0.13278136 32:0.47733226 33:0.17093328 34:0.33025974 35:0 36:0 37:0.92288178 38:0.067702167 39:0.12698254 40:0.25756833 41:0.23778865 42:0.00019586425 43:0.068487875 44:0 45:0 46:0.83750826 47:0.031064408 48:0.069012627 49:0.16375525 50:0.50193775 51:0.060273677 52:0.10224442 53:0 54:0 55:0.99944776 56:0 57:0.00010220055 58:0.0022100571 59:0.033100877 60:0 61:0 62:0 63:0 64:0.99850351 65:4.7820555e-05 66:0.015634203 67:0.0057420959 68:0.050488804 69:0.012716479 70:0.00010562458 71:0 72:0 73:0.98989975 74:0.090762533 75:0.044596449 76:0.048625808 77:0.086621597 78:0 79:0.00069891801 80:0 81:0 82:0.98957562 83:0 84:0.00052804325 85:0.042236216 86:0.13247286 87:0 88:0.037438758 89:0 90:0 91:0.93939525 92:0.025751391 93:0.057209238 94:0.12255961 95:0.29823139 96:0.049964931 97:0.08446563 98:0 99:0 100:0.99576873 101:0.082791701 102:0.028918194 103:0.02663555 104:0.0064431569 105:0 106:5.7201873e-05 107:0 108:0 109:0.99479389 110:0.048618302 111:0.034408309 112:0.0079420395 113:0.078922205 114:0.017177353 115:0.01574615 116:0 117:0 118:0.99999791 119:0 120:0.00017199773 121:0 122:7.7870383e-05 123:0 124:0.00012001339 125:0 126:0 127:0.9606725 128:0 129:0.024089318 130:0.017872252 131:0.159575 132:0.18292466 133:0.13142981 134:0 135:0 136:0.67332327 137:0.32611054 138:0.23599638 139:0.56632996 140:0.22053024 141:0.10081425 142:0.071123712 143:0 
0.5343521888289752 0.1965654230593999 0.4012965719855766 0.7893473349615611 0.3418064647945209 0.3408124114411183 0.6886352245804649 0.1063110353636308 0.4097527038206457 0.2918680079750616 0.4797844905755523 0.2807767726555664 0.5358932955080317 0.555299272727255 0.3697661754617671 0.4642745489659787 0:0 1:0.95393962 2:0 3:0 4:0 5:3.1060808e-06 6:0 7:0 8:0 9:0 10:0.99778998 11:0 12:0 13:4.3671471e-09 14:0.034076851 15:0.01081914 16:0.055878595 17:0 18:0 19:0.54049379 20:0 21:0 22:0.50235611 23:0.6706149 24:0.050474089 25:0.056805309 26:0 27:0 28:0.99999726 29:0 30:0 31:0 32:0 33:0 34:0 35:0 36:0 37:0.37000704 38:0 39:0 40:0.19657996 41:0.90787041 42:0 43:0 44:0 45:0 46:0.3153863 47:0 48:0 49:0.082020059 50:0.91522014 51:0 52:0.23690376 53:0 54:0 55:0.5115093 56:0 57:0 58:0.5152446 59:0.68637484 60:0 61:0.041969195 62:0 63:0 64:0.18740833 65:0 66:0.03979234 67:0.62621647 68:0.75573999 69:0 70:0 71:0 72:0 73:0.14673254 74:0 75:3.4155398e-10 76:0.63514227 77:0.7492426 78:0.037075765 79:0.11097145 80:0 81:0 82:0.34156528 83:0 84:0 85:0.53648216 86:0.77162915 87:2.37382e-10 88:0.010071052 89:0 90:0 91:0.93082505 92:0 93:0 94:0.031586114 95:0.35245341 96:0 97:0.091232188 98:0 99:0 100:0.085894741 101:0.030996064 102:0.044665281 103:0.58222765 104:0.80461907 105:0.057095341 106:0 107:0 108:0 109:0.99999726 110:0 111:0 112:0 113:0 114:0 115:0 116:0 117:0 118:0.2102333 119:0 120:0 121:0.66267985 122:0.70833945 123:0.038683243 124:0.11578279 125:0 126:0 127:0.99075687 128:0 129:0 130:0.069510646 131:0.11645894 132:0 133:0 134:0 135:0 136:0.99999732 137:0 138:0 139:0 140:0 141:0 142:0 143:0 
0.4369115871669108 0.01753807248545122 0.2199721310915023 0.1149644942504798 0.9396512526513702 0.6052637920943394 0 0.159519551416141 0.4005068808871168 0.4142455637315686 0.2435180257213551 0.3820351689808208 0.471464864102482 0.3543488414130824 0.4849742889154958 0.1967157891585111 0:0 1:0.99976724 2:0 3:0 4:0.013005698 5:0.00065976102 6:0 7:0.016888725 8:0 9:0 10:0.99990797 11:0 12:3.6436268e-05 13:0 14:0.013427011 15:0.00053705205 16:0 17:0 18:0 19:0.97494143 20:0 21:0 22:0.00029463146 23:0.1330819 24:0.17779174 25:0.012821013 26:0 27:0 28:0.71561629 29:0 30:0.11769093 31:0.45776734 32:0.49712932 33:0.13171028 34:0.00058227213 35:0 36:0 37:0.9314869 38:0.035137914 39:0.061212264 40:0.32755765 41:0.136994 42:0.030470597 43:0.018832257 44:0 45:0 46:0.45565537 47:0.0090319579 48:0.0015361721 49:0.60284323 50:0.64638865 51:0.078102089 52:0.070355557 53:0 54:0 55:0.99864811 56:0 57:2.750684e-05 58:2.7506796e-05 59:0.047424197 60:0.02121985 61:0 62:0 63:0 64:0.89560932 65:0 66:0.087474369 67:0.31207365 68:0.29723716 69:0.066992149 70:0.00014603981 71:0 72:0 73:0.99303538 74:0 75:0 76:0.013380862 77:0.11704161 78:0 79:0 80:0 81:0 82:0.98956335 83:0.013053047 84:0.022739159 85:0.12168126 86:0.067871973 87:0.02302289 88:0.011476483 89:0 90:0 91:0.95706671 92:8.9749272e-05 93:0.0008893942 94:0.22756261 95:0.17541704 96:0.019819191 97:0.032713663 98:0 99:0 100:0.99429595 101:0.10157365 102:0.022576129 103:0.020825334 104:0.010538006 105:0 106:0 107:0 108:0 109:0.99999845 110:0 111:0 112:0 113:0 114:0 115:0 116:0 117:0 118:0.99947166 119:0.00027316046 120:0.0079671042 121:0.020095386 122:0.014597784 123:6.08542e-05 124:0.019332061 125:0 126:0 127:0.9999975 128:0 129:0.00055175461 130:0 131:0.0015184893 132:0 133:4.5870409e-05 134:0 135:0 136:0.78044987 137:0.022804052 138:0.27120358 139:0.47702074 140:0.29878235 141:0.00015304319 142:0.00013205528 143:0 
0.4353565674226836 0 0 0.3760366064889062 0.2122964202316867 0.05726838109866379 0.07627791330729637 0 0 0.02667647406680499 0.2576611397890905 0 0.1516904081865911 0.3115781399432805 0.09262956052430596 0.1690205983463523 0:0 1:0.31721216 2:0 3:0.16873969 4:0.5542329 5:0.71016055 6:0.22818464 7:0.085592695 8:0 9:0 10:0.94428301 11:0 12:0.077791333 13:0.055567376 14:0.23674208 15:0.13441163 16:0.15834545 17:0 18:0 19:0.98674804 20:0 21:0 22:0 23:0.073176429 24:0.0082384069 25:0.14457841 26:0 27:0 28:0.53527081 29:0 30:0.19868313 31:0.4676787 32:0.54456913 33:0.30686176 34:0.25408936 35:0 36:0 37:0.40049773 38:0.017233936 39:0.4322778 40:0.57322013 41:0.50920045 42:0.1822806 43:0.17703375 44:0 45:0 46:0.38679916 47:0 48:0.030159554 49:0.24104264 50:0.86755967 51:0.18352142 52:0.070918187 53:0 54:0 55:0.99769646 56:0 57:0 58:0.029794803 59:0.054846626 60:0.003835255 61:0.0262293 62:0 63:0 64:0.93712848 65:0.01050149 66:0.063275427 67:0.26254991 68:0.21656027 69:0.0245288 70:0.035226967 71:0 72:0 73:0.97790992 74:0.071212411 75:0.1190014 76:0.05579301 77:0.13740206 78:0.0227443 79:0.044126995 80:0 81:0 82:0.39365116 83:0 84:0.0022172811 85:0.61227399 86:0.66957605 87:0.12262359 88:0.0823346 89:0 90:0 91:0.81449717 92:0.0051475456 93:0.025684889 94:0.16359016 95:0.52551574 96:0.062592261 97:0.17045768 98:0 99:0 100:0.99903327 101:0 102:6.7586683e-05 103:0.0010783516 104:0.022451775 105:0.0033140902 106:0.037601959 107:0 108:0 109:0.97374249 110:0.036781285 111:0.067342393 112:0.14432478 113:0.15179108 114:0.0022830947 115:0.045381848 116:0 117:0 118:0.90503114 119:0 120:0.039955568 121:0.08482594 122:0.38860562 123:0.067849062 124:0.12845653 125:0 126:0 127:0.98041201 128:0 129:0.0011814364 130:0.16151495 131:0.11269476 132:0.00020998735 133:0.00029127291 134:0 135:0 136:0.81104422 137:0.0050836345 138:0.15817468 139:0.53012133 140:0.16906098 141:0.00015157332 142:0.086866938 143:0 
0.624595051641839 0 0 0 0 0.7627369815054424 0 0 0.3814847777019084 0.809760408789739 0.2191662494708108 0.1134625028272962 0 0.08517295567770435 0 0 0:0 1:0.2820617 2:0.021499781 3:0.28758794 4:0.54976708 5:0.65219623 6:0.32271317 7:0.074277446 8:0 9:0 10:0.95757067 11:0.00092577952 12:0.026744811 13:0.094240412 14:0.17178926 15:0.15280308 16:0.14352025 17:0 18:0 19:0.91475791 20:0 21:0.047615759 22:0.14526077 23:0.30026883 24:0.1918835 25:0.11343079 26:0 27:0 28:0.83871549 29:0.0080209104 30:0.21197397 31:0.23871024 32:0.41473594 33:0.14775702 34:0.027114326 35:0 36:0 37:0.81434661 38:0.010165998 39:0.2188679 40:0.21321313 41:0.46556693 42:0.12407782 43:0.10593107 44:0 45:0 46:0.67755675 47:0 48:0.028855531 49:0.31385854 50:0.63292181 51:0.16055031 52:0.12330984 53:0 54:0 55:0.89908177 56:0.035566952 57:0.097678415 58:0.32432345 59:0.26233363 60:0.048014842 61:0.067327954 62:0 63:0 64:0.84808099 65:0.040743068 66:0.13869199 67:0.36508429 68:0.35027468 69:0.034277134 70:0.052026197 71:0 72:0 73:0.87834966 74:0.28440031 75:0.29342744 76:0.18643045 77:0.15879458 78:0.0045654657 79:0.039009478 80:0 81:0 82:0.99979079 83:0 84:3.1229811e-05 85:0.00010326321 86:0.00035318377 87:0 88:0.020410584 89:0 90:0 91:0.9591369 92:0.026341019 93:0.064430006 94:0.24596639 95:0.11633477 96:0.02011111 97:0.027756108 98:0 99:0 100:0.95743209 101:0.1559962 102:0.12381961 103:0.17943522 104:0.10562973 105:0.017330168 106:0.00039020902 107:0 108:0 109:0.99144268 110:0.063158475 111:0.071055509 112:0.011825342 113:0.06661728 114:0.0149953 115:0.056558207 116:0 117:0 118:0.96918672 119:0 120:0.023449145 121:0.058414664 122:0.22412467 123:0.073145874 124:0.033619013 125:0 126:0 127:0.99638492 128:0 129:0 130:0.00061598344 131:0.071557373 132:0.045755982 133:0 134:0 135:0 136:0.52990949 137:0.26401484 138:0.42080179 139:0.58494163 140:0.35785276 141:0.04069151 142:0.023251234 143:0 
0 0 0 0 0.9937285453133465 0.1385527582610454 0 0 0.115886250019929 0 0.002145897873040001 0.1755073113684014 0 0 0.00424316976943521 0 0:0 1:0.00068320968 2:0 3:0 4:0.8121258 5:0.5834679 6:0 7:0 8:0 9:0 10:0.83259147 11:1.5963927e-10 12:0.00018118446 13:0.12524545 14:0.53833073 15:0.021274289 16:0.029114641 17:0 18:0 19:0.98501647 20:0 21:0 22:0.04016421 23:0.16771227 24:2.0975061e-05 25:3.8756982e-05 26:0 27:0 28:0.99999768 29:0 30:0 31:0 32:0 33:0 34:0 35:0 36:0 37:0.042874482 38:0 39:0 40:0.59383839 41:0.80312151 42:0.0083369156 43:0.020941317 44:0 45:0 46:0.94544244 47:0 48:0 49:0.19761921 50:0.2585932 51:0 52:0.01456104 53:0 54:0 55:0.94436377 56:7.1852781e-11 57:8.1550155e-05 58:0.055095136 59:0.32425222 60:7.1852781e-11 61:1.4370556e-10 62:0 63:0 64:0.97242123 65:7.8851503e-05 66:0.0041458663 67:0.051331859 68:0.22746961 69:0 70:0 71:0 72:0 73:0.70870715 74:0 75:0 76:0.19270213 77:0.67371422 78:0.0365774 79:0.073231176 80:0 81:0 82:0.98119789 83:0 84:0 85:0.12402285 86:0.1478733 87:0 88:0 89:0 90:0 91:0.99767721 92:0 93:0 94:0.055015791 95:0.040130068 96:0 97:0 98:0 99:0 100:0.99999863 101:0 102:0 103:0 104:0 105:0 106:0 107:0 108:0 109:0.99998844 110:0 111:0 112:0 113:0 114:0 115:0 116:0 117:0 118:0.99999869 119:0 120:0 121:0 122:0 123:0 124:0 125:0 126:0 127:0.99999875 128:0 129:0 130:0 131:0 132:0 133:0 134:0 135:0 136:0.9999885 137:0 138:0 139:0 140:0 141:0 142:0 143:0 
0.2026988438143009 0.08221279720945505 0.20854521113859 0.3063331059904704 0.1388454377030064 0.1891096925742893 0.2418403859741594 0.02299003977945643 0.1664543733323033 0.1218907384330305 0.2115822844105033 0.1141098384715581 0.2195392742724176 0.2889629369770848 0.1497696816934285 0.1677935332679792 0:0 1:0 2:0 3:0 4:0 5:0 6:0 7:0 8:0 9:0 10:0.999928 11:0 12:0 13:0 14:0.0012439123 15:0 16:0.011615478 17:0 18:0 19:0.99999833 20:0 21:0 22:0 23:0.00023722462 24:0 25:0 26:0 27:0 28:0.99999654 29:0 30:0 31:0 32:0 33:0 34:0 35:0 36:0 37:0.0025192681 38:0 39:0 40:0.73025453 41:0.68314826 42:0 43:0 44:0 45:0 46:0.93316334 47:0 48:0 49:0.12924875 50:0.32712978 51:0.0068469001 52:0.073719241 53:0 54:0 55:0.76407963 56:0 57:0 58:0.32206649 59:0.55596703 60:0.0090825176 61:0.057177261 62:0 63:0 64:0.99999881 65:0 66:0 67:0 68:0.00027052034 69:0 70:0 71:0 72:0 73:0.57121277 74:0 75:0 76:0.51022834 77:0.63397247 78:0.0200129 79:0.10514784 80:0 81:0 82:0.37573832 83:0 84:0 85:0.6350202 86:0.67205215 87:0.0052609481 88:0.062317021 89:0 90:0 91:0.98235434 92:0 93:0 94:0.067288637 95:0.17030816 96:0.0035645878 97:0.03783866 98:0 99:0 100:0.19106439 101:0.074066408 102:0.1072079 103:0.64780867 104:0.72047937 105:0.059656363 106:0.064840406 107:0 108:0 109:0.98620623 110:0 111:0 112:8.2811712e-05 113:0.11831118 114:0.012349754 115:0.1150791 116:0 117:0 118:0.00084847258 119:0 120:0 121:0.70378679 122:0.71040481 123:0 124:0 125:0 126:0 127:0.9999547 128:0 129:0 130:0 131:0.0090985307 132:0 133:0 134:0 135:0 136:0.99999869 137:0 138:0 139:0 140:0 141:0 142:0 143:0 
0.2618956151948101 0.09355646487376365 0.205820425633532 0.398972068943414 0.1772848476737703 0.1661219752464505 0.3520616525151977 0.05240811089877975 0.2242980034115791 0.1568868454713435 0.2135321310811419 0.1440076957225438 0.2464725019819125 0.2835064867170341 0.1800475456738238 0.2171945812090667 0:0 1:0 2:0 3:0 4:0 5:0 6:0 7:0 8:0 9:0 10:0.85705549 11:0 12:0.035241235 13:0.16682348 14:0.48295176 15:0.05597391 16:0 17:0 18:0 19:0.99999803 20:0 21:0 22:0 23:0 24:0 25:0 26:0 27:0 28:0.99998534 29:0 30:0 31:0 32:0 33:0 34:0 35:0 36:0 37:0.00011762802 38:0 39:0 40:0.82167721 41:0.56994313 42:0 43:0 44:0 45:0 46:0.71608156 47:0 48:0.0050280462 49:0.43773672 50:0.54285657 51:0.029250812 52:0.0059305592 53:0 54:0 55:0.55431736 56:0 57:0.01535367 58:0.36198857 59:0.74890757 60:0.024386346 61:0 62:0 63:0 64:0.99999845 65:0 66:0 67:0 68:0 69:0 70:0 71:0 72:0 73:0.00035957168 74:0 75:0.00060245959 76:0.70355111 77:0.71044689 78:0.016601603 79:0 80:0 81:0 82:0.3492631 83:0 84:0.00068116933 85:0.72966671 86:0.58782268 87:0 88:0.007758115 89:0 90:0 91:0.99111831 92:0 93:0 94:0.11323348 95:0.069627889 96:0 97:0.0034734043 98:0 99:0 100:0.12277579 101:0.021842226 102:0.031156469 103:0.44512016 104:0.88619584 105:0 106:0 107:0 108:0 109:0.21281271 110:0 111:0 112:0.60066795 113:0.76644707 114:0.030580321 115:0.074319527 116:0 117:0 118:0.00062747113 119:0 120:0.0024530871 121:0.81343979 122:0.58162624 123:0 124:0 125:0 126:0 127:0.99999261 128:0 129:0 130:0 131:0 132:0 133:0 134:0 135:0 136:0.99999863 137:0 138:0 139:0 140:0 141:0 142:0 143:0 
1 1 1 0.2229875775727558 1 1 0.08897461353329872 1 1 0.9040148886559484 1 1 1 1 1 1 0:0 1:0.67015678 2:0.066843279 3:0.18663393 4:0.45538181 5:0.47878033 6:0.17743246 7:0.20851175 8:0 9:0 10:0.98062265 11:0.024290815 12:0.014296248 13:0.09140747 14:0.14995043 15:0.053254645 16:0.062490318 17:0 18:0 19:0.99999869 20:0 21:0 22:0 23:0 24:0 25:0 26:0 27:0 28:0.99999613 29:0 30:0 31:0 32:0 33:0 34:0 35:0 36:0 37:0.95900607 38:0.0092642149 39:0.047736868 40:0.20578064 41:0.18480738 42:0.023905268 43:0.029443784 44:0 45:0 46:0.77411616 47:0.069553621 48:0.074694075 49:0.40498415 50:0.46962705 51:0.057514668 52:0.049525812 53:0 54:0 55:0.88941652 56:0.11200713 57:0.10875095 58:0.27616474 59:0.32472676 60:0.049564108 61:0.019789647 62:0 63:0 64:0.99999875 65:0 66:0 67:0 68:0 69:0 70:0 71:0 72:0 73:0.96111643 74:0.022912726 75:0.034579284 76:0.13429669 77:0.18741444 78:0.12616704 79:0.073842406 80:0 81:0 82:0.99412143 83:0.038065154 84:0.023547046 85:0.050771296 86:0.084431283 87:0.0024908066 88:0.0020594494 89:0 90:0 91:0.99627435 92:0.043454319 93:0.013441054 94:0.038362488 95:0.061283406 96:0.0045366762 97:0.010873014 98:0 99:0 100:0.84489316 101:0.19770998 102:0.19025797 103:0.33015898 104:0.31400141 105:0.05652079 106:0.0080522187 107:0 108:0 109:0.99999845 110:0 111:0 112:0 113:0 114:0 115:0 116:0 117:0 118:0.99896985 119:0 120:0 121:2.2619532e-05 122:0.015697936 123:0.042551428 124:0 125:0 126:0 127:0.99999869 128:0 129:0 130:0 131:0 132:0 133:0 134:0 135:0 136:0.99664128 137:0 138:0 139:0 140:0.00018265859 141:0 142:0.08178331 143:0 
0 0 0.4209027835970163 0.1456117301458537 0.2572347587843685 1 0.4130186138904908 0.2245384995163251 0.75524019346051 0.2192951489865196 1 0.3652955086357526 0.2257985913667033 0.5405732273714355 0.2077127542465528 0.233378306387804 0:0 1:0.09175472 2:0.10501672 3:0.36848289 4:0.57527238 5:0.5956322 6:0.37969816 7:0.12197598 8:0 9:0 10:0.97767961 11:0 12:0.027033892 13:0.018393449 14:0.10611693 15:0.13704963 16:0.11413793 17:0 18:0 19:0.97499394 20:0 21:0.032245573 22:0.0019906068 23:0.18957832 24:0.046415232 25:0.10122418 26:0 27:0 28:0.94036722 29:0.00011961615 30:0.067505069 31:0.18955702 32:0.26729012 33:0.0487765 34:0.037345991 35:0 36:0 37:0.65147406 38:0.021152001 39:0.21630549 40:0.39806411 41:0.60434043 42:0.050898962 43:0.045486595 44:0 45:0 46:0.74718189 47:0 48:0.023242233 49:0.17258579 50:0.62562937 51:0.079572476 52:0.11681552 53:0 54:0 55:0.99073106 56:0 57:0.041678563 58:0.037489813 59:0.11534364 60:0.0078192046 61:0.044070195 62:0 63:0 64:0.98497373 65:0.016529243 66:0.085625246 67:0.078885071 68:0.11621843 69:0.032694515 70:0.037704147 71:0 72:0 73:0.89182884 74:0.20545599 75:0.17262994 76:0.29474044 77:0.21072125 78:0.030632233 79:0.020277269 80:0 81:0 82:0.6664654 83:0 84:0.018880174 85:0.30806834 86:0.67486697 87:0.045092653 88:0.055477839 89:0 90:0 91:0.98245853 92:0 93:0.0014483646 94:0.036364697 95:0.17800766 96:0.0055328715 97:0.041605849 98:0 99:0 100:0.98924983 101:0.068390265 102:0.091486819 103:0.041024387 104:0.076248579 105:0.0059890575 106:0.028340185 107:0 108:0 109:0.9351815 110:0.1331287 111:0.1478966 112:0.099996582 113:0.16976014 114:0.11084056 115:0.18636701 116:0 117:0 118:0.99632967 119:0 120:0 121:0.016661949 122:0.031642381 123:0.050935499 124:0.058748398 125:0 126:0 127:0.72127569 128:0.14326671 129:0.031376634 130:0.13390051 131:0.4395119 132:0.37526113 133:0.32607451 134:0 135:0 136:0.82479346 137:0.13060716 138:0.34338525 139:0.33336985 140:0.26373106 141:0.04998675 142:0.039396491 143:0 
0.1124837452844081 0.02932549859845075 0.06040519482532779 0.1499945613721912 0.07311113675656149 0.05615829423497757 0.1294526940419848 0.01238282466721798 0.05935018373902987 0.04786221615882212 0.101635528976275 0.03990121443090493 0.1105507632093555 0.1002686627999706 0.06373912509117373 0.07351822780298414 0:0 1:0 2:0 3:0 4:0.40372768 5:0.91484588 6:0 7:0 8:0 9:0 10:0.8824628 11:0 12:0.0057213767 13:0.24408264 14:0.39099187 15:0.060779154 16:0.071238816 17:0 18:0 19:0.99753094 20:0 21:0 22:0.0037003614 23:0.070114858 24:0 25:0 26:0 27:0 28:0.99999756 29:0 30:0 31:0 32:0 33:0 34:0 35:0 36:0 37:0.0050963773 38:0.0026808758 39:0.019809511 40:0.63075882 41:0.77569509 42:0.0017409631 43:0.0017708269 44:0 45:0 46:0.54576731 47:0.00098704116 48:0.011558966 49:0.59073114 50:0.58611119 51:0.043558199 52:0.087247536 53:0 54:0 55:0.47016278 56:0.014472317 57:0.0032837179 58:0.50205666 59:0.72164553 60:0.041572556 61:0.064510405 62:0 63:0 64:0.99545538 65:0 66:0 67:0.0064505017 68:0.095000647 69:0 70:0 71:0 72:0 73:0.10153987 74:0.036167916 75:0.029659815 76:0.55069751 77:0.81872213 78:0.065853775 79:0.0979148 80:0 81:0 82:0.30152991 83:0.0012143163 84:0.010015315 85:0.65366137 86:0.6918413 87:0.039047688 88:0.039136987 89:0 90:0 91:0.98445153 92:0 93:0 94:0.13655439 95:0.10733073 96:0.014944004 97:0.021508832 98:0 99:0 100:0.25271067 101:0.17522638 102:0.053112488 103:0.56881148 104:0.74798518 105:0.083332248 106:0.11240347 107:0 108:0 109:0.9085539 110:0.01440839 111:0.018551046 112:0.1877016 113:0.33130884 114:0.087900072 115:0.14576766 116:0 117:0 118:0.0022795068 119:0 120:0.0089608096 121:0.7262165 122:0.68710715 123:0.019958908 124:0 125:0 126:0 127:0.99999672 128:0 129:0 130:0 131:6.8419409e-05 132:0 133:0 134:0 135:0 136:0.99999893 137:0 138:0 139:0 140:0 141:0 142:0 143:0 
0.3658612636597305 0.1183456667995136 0.2517017618320421 0.5561192365751384 0.217257323197025 0.2178308570051695 0.4677533973370254 0.004184980538665079 0.2679738002188152 0.1933864513705901 0.2615113721292035 0.1858041639176231 0.313653846731474 0.3233029204909323 0.1737367883349683 0.2526929159864209 0:0 1:0.77001554 2:0 3:0.0055022044 4:0 5:0.63799232 6:0 7:0.00032638109 8:0 9:0 10:0.52275914 11:0 12:0.0001287245 13:0 14:0.852476 15:2.268329e-10 16:0.00089504168 17:0 18:0 19:0.37215903 20:0 21:2.8129868e-10 22:1.8753246e-10 23:0.9279567 24:5.7596964e-05 25:0.019708661 26:0 27:0 28:0.83060956 29:0.053100888 30:0.083606459 31:0.27037576 32:0.47271383 33:0.02776459 34:0.054220606 35:0 36:0 37:0.11889412 38:0 39:0.0018779965 40:0.81488752 41:0.54631984 42:0 43:0.15271194 44:0 45:0 46:0.00023883366 47:0 48:0.075360723 49:0.12468613 50:0.96634513 51:0.083835542 52:0.19471681 53:0 54:0 55:4.4649536e-05 56:0 57:8.2501916e-05 58:0.15986912 59:0.98068881 60:0.1114051 61:0.016609486 62:0 63:0 64:0.16207805 65:9.3247829e-05 66:0.0035310797 67:3.5685942e-05 68:0.98676986 69:7.5522832e-10 70:3.5684254e-05 71:0 72:0 73:0.10186628 74:0.12335154 75:0.10441619 76:0.56153935 77:0.79542536 78:0.012853219 79:0.12370551 80:0 81:0 82:0.03669909 83:0.022592241 84:0.081295714 85:0.53283101 86:0.82604092 87:0.049148776 88:0.15119988 89:0 90:0 91:0.019449569 92:0 93:0.051678665 94:0.24888614 95:0.95864218 96:0.057041999 97:0.11293421 98:0 99:0 100:0.029250635 101:0.040362455 102:0.039347261 103:0.039116058 104:0.99704736 105:0.018184785 106:2.4544791e-10 107:0 108:0 109:0.11289706 110:3.9016074e-10 111:0.00024779711 112:0.1708317 113:0.97880822 114:1.5606429e-10 115:0.00074191584 116:0 117:0 118:0.0668616 119:0.08083152 120:0.052153908 121:0.3679733 122:0.9193725 123:0.0084226364 124:0.074491285 125:0 126:0 127:0.010494689 128:0 129:0.00017355876 130:0.015474731 131:0.99974847 132:0.0038640695 133:0.011639456 134:0 135:0 136:0.056495436 137:0.0071209935 138:0.28270078 139:0.6493991 140:0.7015478 141:0.026201867 142:0.047497999 143:0 
0.278286915515175 1 0.8872983694339013 0.143121844839598 1 1 0.3181948664216701 1 1 1 0.6641670690883441 1 0.5676760057973815 0.4553692542724892 1 0.6172685970837688 0:0 1:0.60196435 2:0 3:0 4:0.64037389 5:0.47681379 6:0 7:0.014215619 8:0 9:0 10:0.91302675 11:0.013085039 12:0.0034730898 13:0.21404944 14:0.34640628 15:0.0048894957 16:0.018922366 17:0 18:0 19:0.99956119 20:0 21:3.0120967e-05 22:0.00073655992 23:0.02958554 24:0 25:0 26:0 27:0 28:0.99999756 29:0 30:0 31:0 32:0 33:0 34:0 35:0 36:0 37:0.99400127 38:0 39:0 40:0.040340517 41:0.099329166 42:0 43:0.021574831 44:0 45:0 46:0.98111117 47:0 48:0 49:0.15523325 50:0.11542042 51:0 52:0 53:0 54:0 55:0.99084079 56:0.010866037 57:0.0028841121 58:0.035178173 59:0.12984665 60:0.0029273794 61:0 62:0 63:0 64:0.99896693 65:0 66:9.0493413e-05 67:0.00057475537 68:0.04538846 69:0 70:0 71:0 72:0 73:0.99999821 74:0 75:0 76:0 77:0 78:0 79:0 80:0 81:0 82:0.99995536 83:0 84:0 85:0 86:0.0093431156 87:0 88:0 89:0 90:0 91:0.99883676 92:0 93:0 94:0 95:0.048183449 96:0 97:0 98:0 99:0 100:0.9999876 101:0 102:0 103:0 104:0 105:0 106:0 107:0 108:0 109:0.99999791 110:0 111:0 112:0 113:0 114:0 115:0 116:0 117:0 118:0.99999899 119:0 120:0 121:0 122:0 123:0 124:0 125:0 126:0 127:0.99999833 128:0 129:0 130:0 131:0 132:0 133:0 134:0 135:0 136:0 137:0 138:0 139:0 140:0 141:0 142:0 143:0 
0.06081855028268388 0 0.6287520455387203 0.0449624193754684 0 0.6296861289282729 0.06422805987397151 0 0.3174807153503333 0 0 0 0 0 0.05181527950235775 0 0:0 1:0.45623183 2:0 3:0 4:0.66079694 5:0.48680687 6:0.25199404 7:0.23373941 8:0 9:0 10:0.98619205 11:0.0068553546 12:0.0091085788 13:0.035683185 14:0.15743376 15:0.035104714 16:0 17:0 18:0 19:0.99999827 20:0 21:0 22:0 23:0 24:0 25:0 26:0 27:0 28:0.99999422 29:0 30:0 31:0 32:0 33:0 34:0 35:0 36:0 37:0.84183228 38:0 39:0 40:0.48369357 41:0.23881403 42:0.0097261611 43:0.015053973 44:0 45:0 46:0.96999156 47:0.015416607 48:0.0033289881 49:0.18279681 50:0.15875724 51:0.01143468 52:0.010701507 53:0 54:0 55:0.93004066 56:0.018915972 57:0.018783001 58:0.1635225 59:0.32775375 60:0.0016562336 61:0.012065032 62:0 63:0 64:0.99999803 65:0 66:0 67:0 68:0 69:0 70:0 71:0 72:0 73:0.99999851 74:0 75:0 76:0 77:0 78:0 79:0 80:0 81:0 82:0.97464156 83:0 84:0 85:0.2079796 86:0.082552806 87:0.0007905463 88:0 89:0 90:0 91:0.991512 92:0.00033790257 93:0.035564296 94:0.10677737 95:0.06504634 96:0.001773991 97:0 98:0 99:0 100:0.72993308 101:0.0063926773 102:0.05075071 103:0.49327481 104:0.46735093 105:0.0072345682 106:0.052701078 107:0 108:0 109:0.99999708 110:0 111:0 112:0 113:0 114:0 115:0 116:0 117:0 118:0.99999845 119:0 120:0 121:0 122:0 123:0 124:0 125:0 126:0 127:0.99999797 128:0 129:0 130:0 131:0 132:0 133:0 134:0 135:0 136:0 137:0 138:0 139:0 140:0 141:0 142:0 143:0 
0.3043485298661269 0.1099355310201018 0.2373112363819033 0.59178406172858 0.2959068331021402 0.1920483523727172 0.4108562445048493 0.05606802650541669 0.2480821338158964 0.1814907725974207 0.2509493703888763 0.1666939457382288 0.3063987222382771 0.325896144686774 0.211936216606307 0.2437082439528548 0:0 1:0 2:0 3:0 4:0 5:0 6:0 7:0 8:0 9:0 10:0.21923298 11:0.050890557 12:0.0051269247 13:0.72650069 14:0.63024706 15:0.15201727 16:0.034440201 17:0 18:0 19:0.99999899 20:0 21:0 22:0 23:0.00021016736 24:0 25:0 26:0 27:0 28:0.99999768 29:0 30:0 31:0 32:0 33:0 34:0 35:0 36:0 37:0.00085609261 38:0 39:0 40:0.80259353 41:0.59651697 42:0 43:0 44:0 45:0 46:0.079440989 47:0.00019316359 48:0.00067724136 49:0.69343364 50:0.71248251 51:0.058305573 52:0.042476058 53:0 54:0 55:0.51797664 56:0.013010601 57:0.0013635096 58:0.59431612 59:0.61108732 60:0.052697122 61:0.045934163 62:0 63:0 64:0.99999934 65:0 66:0 67:0 68:0.00018991942 69:0 70:0 71:0 72:0 73:0.56778055 74:0.004783439 75:0.021212554 76:0.65035188 77:0.50368285 78:0 79:0.022236204 80:0 81:0 82:0.056003701 83:0.0022029364 84:0.0013025091 85:0.72317278 86:0.68770367 87:0.012221777 88:0.028102396 89:0 90:0 91:0.9401319 92:0 93:0.0049480046 94:0.20712157 95:0.26919433 96:0.018180829 97:0.020741245 98:0 99:0 100:0.023340672 101:0.015330725 102:0.025250701 103:0.84574991 104:0.5316385 105:0.024406245 106:0.0071768556 107:0 108:0 109:0.99999785 110:0 111:0 112:8.7958353e-05 113:6.5098757e-05 114:0 115:0.0014730473 116:0 117:0 118:0.05798218 119:0.0076848054 120:0.0052817203 121:0.70329344 122:0.70742816 123:0 124:0.038320627 125:0 126:0 127:0.97497118 128:0 129:0 130:0.099675432 131:0.1987216 132:0 133:0 134:0 135:0 136:0.99999917 137:0 138:0 139:0 140:0 141:0 142:0 143:0 
0.0566051884675846 0 0.1602407086444738 0.05468530471029504 0.07336923602732771 0 0.06065782820359062 0 0 0 0.1525748269543613 0 0.0456200973639462 0.1290928207718418 0 0 0:0 1:0.00061018916 2:0.032411184 3:0.054645557 4:0.84535682 5:0.52759796 6:0.048715815 7:0.02423319 8:0 9:0 10:0.67029291 11:0.10654597 12:0.054887813 13:0.48873624 14:0.50190538 15:0.084928349 16:0.19583561 17:0 18:0 19:0.85770816 20:0.017468693 21:0.040167533 22:0.31880376 23:0.39703444 24:0.046543002 25:0.031253915 26:0 27:0 28:0.99999887 29:0 30:0 31:0 32:0 33:0 34:0 35:0 36:0 37:0.76771432 38:0.050875969 39:0.027199399 40:0.53271842 41:0.33668116 42:0.062170427 43:0.079201706 44:0 45:0 46:0.90189731 47:0.038747787 48:0.020899415 49:0.31996554 50:0.27963167 51:0.033450793 52:0.054309521 53:0 54:0 55:0.9330858 56:0.036952116 57:0.030892186 58:0.25451937 59:0.24380597 60:0.019468766 61:0.049272798 62:0 63:0 64:0.464136 65:0.10605626 66:0.15595949 67:0.56361198 68:0.65017492 69:0.080656186 70:0.045942828 71:0 72:0 73:0.99999815 74:0 75:0 76:0 77:0 78:0 79:0 80:0 81:0 82:0.98623013 83:0.0034284468 84:0.0074455137 85:0.12602988 86:0.10172583 87:0.023431888 88:0.022366863 89:0 90:0 91:0.99987113 92:0.012155673 93:0 94:0.0073159155 95:0.0073625366 96:0 97:0 98:0 99:0 100:0.99668777 101:0.011274974 102:0 103:0.011274974 104:0.07892482 105:0.011274974 106:0 107:0 108:0 109:0 110:0 111:0 112:0 113:0 114:0 115:0 116:0 117:0 118:0.99943864 119:0.013411117 120:0.023056537 121:0.011795156 122:0.011795156 123:0.0079688048 124:0.0081865927 125:0 126:0 127:0.99999899 128:0 129:0 130:0 131:0 132:0 133:0 134:0 135:0 136:0.9999944 137:0 138:0 139:0 140:0 141:0 142:0 143:0 
0.4540919381717712 0.1688987111359511 0.3704452989900703 0.7076137659494491 0.3938302404097775 0.3213383468608459 0.6161810389775262 0.09048467118630529 0.4089818593238154 0.2764969456290962 0.4391053534437845 0.271225088358042 0.4826695372278375 0.5246101020878946 0.3376722126799352 0.5742646628825827 0:0 1:0.9971655 2:0 3:0 4:0 5:0 6:0 7:0 8:0 9:0 10:0.36542168 11:0 12:0 13:0.25246766 14:0.85210264 15:0.21373013 16:0.175944 17:0 18:0 19:0.99999887 20:0 21:4.2700009e-05 22:2.3109007e-05 23:0.0002121759 24:6.4657572e-05 25:0 26:0 27:0 28:0.9999972 29:0 30:0 31:0 32:0 33:0 34:0 35:0 36:0 37:0.0060265083 38:0 39:0.00016612594 40:0.15922037 41:0.9872188 42:0.0018450122 43:0.00040106455 44:0 45:0 46:0.15402061 47:0 48:0.0028899794 49:0.15266857 50:0.97057676 51:0.084455512 52:0.061689638 53:0 54:0 55:0.89392674 56:0 57:0.0098110214 58:0.18123999 59:0.39671576 60:0.070146129 61:0.075121336 62:0 63:0 64:0.99999899 65:0 66:3.6286398e-05 67:1.9637995e-05 68:0.00019994474 69:5.4945896e-05 70:0 71:0 72:0 73:0.31954578 74:0.00030321299 75:0.0010152622 76:0.14030716 77:0.93366504 78:0.079785034 79:0.010092137 80:0 81:0 82:0.0054346956 83:0.00084030227 84:0.007465716 85:0.12354597 86:0.99208552 87:0.017527921 88:0.010242572 89:0 90:0 91:0.96602809 92:0 93:0.001112783 94:0.022766395 95:0.25742233 96:0.00050991972 97:0.00012683071 98:0 99:0 100:0.9999944 101:0 102:0.00029742581 103:0.0011942275 104:0.0014262196 105:0.0020093441 106:0 107:0 108:0 109:0.97055143 110:0 111:0 112:0.0044170138 113:0.21340078 114:0.11163206 115:9.1122092e-05 116:0 117:0 118:0.0011867221 119:0.00093829725 120:0.0031417448 121:0.024839455 122:0.99960172 123:0.0093087228 124:0.0079886941 125:0 126:0 127:0.99992442 128:0 129:0 130:0 131:0 132:0 133:0 134:0 135:0 136:0.99999833 137:0 138:0 139:0 140:0 141:0 142:0 143:0 
0.08603107151531927 0.02532242141535051 0.06923790780315339 0.139735706960354 0.02924998250297265 0.04935292965288415 0.1277511060530288 0.01287684941029229 0.07642499748039319 0.04934155890755367 0.09754446145091185 0.05500539166628943 0.08936753989467119 0.1615590725908033 0.05717013482647779 0.07967422099149346 0:0 1:0 2:0 3:0 4:0 5:0 6:0 7:0 8:0 9:0 10:0.98147345 11:0 12:0 13:0.12032507 14:0.14107716 15:0.047342103 16:0.0089593288 17:0 18:0 19:0.89728129 20:0 21:0 22:0.14295512 23:0.41766456 24:0.0017494053 25:0.00074867549 26:0 27:0 28:0.99999762 29:0 30:0 31:0 32:0 33:0 34:0 35:0 36:0 37:0.0060362532 38:0 39:0 40:0.83516866 41:0.54995233 42:0 43:0 44:0 45:0 46:0.487295 47:0 48:0 49:0.60451812 50:0.62998712 51:0.014574935 52:0 53:0 54:0 55:0.95041621 56:0 57:0 58:0.20103733 59:0.23699847 60:0.010978785 61:0 62:0 63:0 64:0.70722759 65:0 66:0.0070686238 67:0.25597048 68:0.65898061 69:0 70:0 71:0 72:0 73:0.8122139 74:0 75:0 76:0.37275586 77:0.44014877 78:0.052071802 79:0.070098147 80:0 81:0 82:0.057854537 83:0 84:0 85:0.80436134 86:0.59131223 87:0 88:0 89:0 90:0 91:0.97928971 92:0 93:0 94:0.149638 95:0.1363664 96:0 97:0 98:0 99:0 100:0.99999815 101:0 102:0 103:0 104:0 105:0 106:0 107:0 108:0 109:0.9999966 110:0 111:0 112:0 113:0 114:0 115:0 116:0 117:0 118:0 119:0 120:0 121:0.80777442 122:0.58947468 123:0 124:0 125:0 126:0 127:0.99995738 128:0 129:0 130:0 131:0 132:0 133:0 134:0 135:0 136:0.99999756 137:0 138:0 139:0 140:0 141:0 142:0 143:0 
0.4736547019604764 0.3204410862500372 0.758503806222493 0.7295336197210088 0.4702836258477731 0.5161859199963249 0.6805013798344994 0.2186266963910049 1 0.6375383435712448 0.5677138837212462 0.3104274959285903 0.5559614724025986 0.6923797254076508 0.4616609425718503 0.5017264621466395 0:0 1:0.99999654 2:0 3:0 4:0 5:0.00021320471 6:0 7:0 8:0 9:0 10:0.82427579 11:0.0018845627 12:0.015882559 13:0.38729599 14:0.40603262 15:0.07381016 16:0 17:0 18:0 19:0.99790746 20:0.00019291761 21:0.00012485971 22:0.0071928874 23:0.064237207 24:0.00073355908 25:0 26:0 27:0 28:0.99999362 29:0 30:0 31:0 32:0 33:0 34:0 35:0 36:0 37:0.99999696 38:0 39:0 40:0 41:0 42:0 43:0 44:0 45:0 46:0.99999923 47:0 48:0 49:0 50:4.8305214e-05 51:0 52:0 53:0 54:0 55:0.96802372 56:0.0038021817 57:0.0089614727 58:0.18286321 59:0.17085777 60:0.014194812 61:0 62:0 63:0 64:0.98371178 65:0.001470568 66:0.00095177774 67:0.027887912 68:0.17752464 69:0 70:0 71:0 72:0 73:0 74:0 75:0 76:0 77:0 78:0 79:0 80:0 81:0 82:0.99999899 83:0 84:0 85:0 86:0 87:0 88:0 89:0 90:0 91:0.99999899 92:0 93:0 94:0 95:0 96:0 97:0 98:0 99:0 100:0 101:0 102:0 103:0 104:0 105:0 106:0 107:0 108:0 109:0 110:0 111:0 112:0 113:0 114:0 115:0 116:0 117:0 118:0.99999899 119:0 120:0 121:0 122:0 123:0 124:0 125:0 126:0 127:0.99999899 128:0 129:0 130:0 131:0 132:0 133:0 134:0 135:0 136:0 137:0 138:0 139:0 140:0 141:0 142:0 143:0 
0.5857625630229317 0.5742466763982248 1 0.2901859685872561 0.7510717832536641 1 0.1002176024066099 0.953320478579 1 1 0.7486386568398516 1 0.6458880399947178 0.4961197844543821 1 0.6780570059533053 0:0 1:0 2:0 3:0 4:0 5:0.99629956 6:0 7:0 8:0 9:0 10:0.99472123 11:0 12:0 13:0.0026169054 14:0.080079973 15:0.035725579 16:0.053158317 17:0 18:0 19:0.93242496 20:0 21:0 22:0.086689271 23:0.35080582 24:0 25:0 26:0 27:0 28:0.99999714 29:0 30:0 31:0 32:0 33:0 34:0 35:0 36:0 37:0.83011174 38:0 39:0 40:0.32777804 41:0.4444173 42:0 43:0.077221103 44:0 45:0 46:0.9901678 47:0.0050498745 48:0.031605251 49:0.052865192 50:0.12301021 51:0.021098338 52:0.012982077 53:0 54:0 55:0.96931231 56:0 57:0 58:0.12168974 59:0.20871134 60:0.045407012 61:0.00053851621 62:0 63:0 64:0.97135049 65:2.6759e-05 66:4.9444341e-05 67:0.054028165 68:0.23142292 69:0 70:0 71:0 72:0 73:0.99999839 74:0 75:0 76:0 77:0 78:0 79:0 80:0 81:0 82:0.98199356 83:0 84:0 85:0.11104935 86:0.15056607 87:0 88:0.026162073 89:0 90:0 91:0.9952172 92:0.003526479 93:0.022070896 94:0.033927161 95:0.078301236 96:0.041303802 97:0.0072524725 98:0 99:0 100:0.99655521 101:0 102:0 103:0.0081566889 104:0.054250196 105:0.062145684 106:0 107:0 108:0 109:0.99976516 110:0 111:0 112:0 113:0 114:0 115:0 116:0 117:0 118:0.99999893 119:0 120:0 121:0 122:0 123:0 124:0 125:0 126:0 127:0.99999893 128:0 129:0 130:0 131:0 132:0 133:0 134:0 135:0 136:0.99400628 137:0 138:0 139:0 140:0.097485736 141:0.048742868 142:0 143:0 
0.05154751485655025 0.02191219432636464 0.049719903559551 0.1258477053655004 0.3908515588070159 0.07871952051390439 0.1211833682576281 0.008260426500637923 0.07381641333713924 0.05868265657618202 0.07994062115176452 0.05981131540986924 0.06976346000646101 0.2037694311640582 0.06919437255495754 0.07927818704305586 0:0 1:0.00080138311 2:0 3:0 4:0.99020106 5:0.13936968 6:0 7:0 8:0 9:0 10:0.92920852 11:0 12:0 13:0.027799392 14:0.36155179 15:0.056404196 16:0.043499041 17:0 18:0 19:0.99999887 20:0 21:0 22:0 23:0.00034539876 24:0 25:0 26:0 27:0 28:0.99999732 29:0 30:0 31:0 32:0 33:0 34:0 35:0 36:0 37:0.0017740525 38:0 39:0 40:0.74327981 41:0.66897291 42:0 43:0 44:0 45:0 46:0.57954788 47:0 48:0 49:0.46474314 50:0.66229516 51:0.056461912 52:0.079440176 53:0 54:0 55:0.98599243 56:0 57:0 58:0.012546286 59:0.16317378 60:0.025456065 61:0.019631775 62:0 63:0 64:0.99999899 65:0 66:0 67:0 68:0.00051801192 69:0 70:0 71:0 72:0 73:0.49321654 74:0 75:0 76:0.51379871 77:0.69637001 78:0 79:0.088380456 80:0 81:0 82:0.0076292879 83:0 84:0 85:0.7847563 86:0.61975193 87:0 88:0 89:0 90:0 91:0.99823707 92:0 93:0 94:0.053828694 95:0.024920408 96:0 97:0 98:0 99:0 100:0.99999905 101:0 102:0 103:0 104:0 105:0 106:0 107:0 108:0 109:0.97872072 110:0 111:0 112:0.00020738413 113:0.11490948 114:0 115:0.16997248 116:0 117:0 118:0.00072848494 119:0 120:0 121:0.80536306 122:0.59272212 123:0 124:0 125:0 126:0 127:0.99959439 128:0 129:0 130:0 131:0 132:0 133:0 134:0 135:0 136:0.99999756 137:0 138:0 139:0 140:0 141:0 142:0 143:0 
0.4091727287916397 0.133500291225738 0.2839202551916214 0.5868610595053498 0.2416254359355883 0.246211253017371 0.6716731457954949 0.2985277174200976 0.2977667927417447 0.2153404134305836 0.3641199152793093 0.2057256188234775 0.366837896988486 0.4257008699568137 0.847059356961943 0.3796588032079186 0:0 1:0.76781595 2:0 3:0 4:0 5:0.64064956 6:0 7:0 8:0 9:0 10:0.6012308 11:0 12:0 13:0 14:0.79906768 15:3.3552017e-09 16:3.3552017e-09 17:0 18:0 19:0.42254826 20:0 21:0 22:1.5506256e-09 23:0.90595585 24:0.0034491918 25:0.025953041 26:0 27:0 28:0.89622116 29:0 30:0.001733322 31:0.15227684 32:0.41663688 33:0.00010458628 34:0 35:0 36:0 37:0.33006433 38:0 39:0 40:0.26232302 41:0.90676892 42:0 43:0 44:0 45:0 46:0.21983479 47:0 48:0 49:0.14644229 50:0.95943636 51:0.091264121 52:0.036942866 53:0 54:0 55:0.05284521 56:0 57:0 58:0.040693309 59:0.99606615 60:0.058284879 61:5.3344302e-09 62:0 63:0 64:0.378795 65:1.2119997e-08 66:1.5582852e-08 67:2.2508567e-08 68:0.92547715 69:6.9257129e-09 70:0 71:0 72:0 73:0.1614054 74:0.028938547 75:0.059773389 76:0.13895923 77:0.97476751 78:0 79:0.0070596533 80:0 81:0 82:0.12799732 83:0.047589246 84:0.10802448 85:0.52734476 86:0.82125717 87:0.052918755 88:0.11965466 89:0 90:0 91:0.2749972 92:0 93:0 94:0.13046178 95:0.94963098 96:0.0725687 97:0.01685991 98:0 99:0 100:0.061916295 101:0.075746961 102:0.030091172 103:0.0050977413 104:0.99454057 105:0.019540189 106:0.00038888812 107:0 108:0 109:0.38251609 110:0.0043924879 111:0.029555911 112:0.09410999 113:0.91865331 114:0 115:4.3176263e-09 116:0 117:0 118:0.1955218 119:0.046231024 120:0.095491491 121:0.23978925 122:0.94462687 123:1.4457157e-09 124:0.026186597 125:0 126:0 127:0.00013195779 128:0 129:0 130:2.0620128e-08 131:0.9999553 132:0.0018470879 133:0.0089182109 134:0 135:0 136:0.19421084 137:0.0073585152 138:0.15824059 139:0.26039949 140:0.93203831 141:0.025746556 142:0.0037252859 143:0 
0 0 0 0 0 0.1296792978166444 0 0 0 0.1189465421150437 0 0 0 0 0 0 0:0 1:0.12180795 2:0.014967146 3:0.2499534 4:0.6690563 5:0.61332959 6:0.27865681 7:0.14490141 8:0 9:0 10:0.94513679 11:0 12:0.027731037 13:0.032604381 14:0.24049823 15:0.17533432 16:0.12766822 17:0 18:0 19:0.99795729 20:0 21:0.014457991 22:0 23:0.040547494 24:0.027635053 25:0.038231939 26:0 27:0 28:0.44586316 29:0.10964042 30:0.38829774 31:0.19099583 32:0.49037346 33:0.46905571 34:0.37608925 35:0 36:0 37:0.65047997 38:0.008678888 39:0.29887432 40:0.49419776 41:0.49045512 42:0.042400021 43:0.029883912 44:0 45:0 46:0.68569463 47:0 48:0.015351273 49:0.22783244 50:0.64579368 51:0.2045384 52:0.13706726 53:0 54:0 55:0.99856204 56:0 57:0.0001678855 58:0.049667306 59:0.020080727 60:4.9172661e-05 61:0.0010666525 62:0 63:0 64:0.90501994 65:0.013359318 66:0.096321724 67:0.33465376 68:0.24012604 69:0.00049751851 70:0.042730022 71:0 72:0 73:0.98776591 74:0.11579456 75:0.066038355 76:0.063084133 77:0.040284228 78:0 79:0.030721322 80:0 81:0 82:0.97264355 83:0.00011196711 84:0.0001583454 85:0.15813167 86:0.16141924 87:0.0082762549 88:0.053198669 89:0 90:0 91:0.8852343 92:0.00025891181 93:0.016900435 94:0.16538884 95:0.36542052 96:0.16319959 97:0.16896383 98:0 99:0 100:0.9957698 101:0.064378105 102:0.06201794 103:0.02111125 104:0.0018805817 105:0 106:9.4507552e-05 107:0 108:0 109:0.99937326 110:0.031730726 111:0.0069989976 112:0.0088939192 113:0.007200541 114:0.00045398946 115:0.0080339406 116:0 117:0 118:0.99994183 119:0 120:0.0012386916 121:0 122:0.010490957 123:0 124:4.9182803e-05 125:0 126:0 127:0.97778898 128:0.00028654432 129:0.00040523487 130:0.17911296 131:0.080592833 132:0.073081359 133:0.00059273432 134:0 135:0 136:0.55643022 137:0.089568749 138:0.38003132 139:0.61575222 140:0.3824845 141:0.092000969 142:0.063428506 143:0 
1 0.5213523331740397 0.7688057612643849 0.5712454126742904 0.2058314996633785 0.7968646019854952 0.9518021426615569 0 0.3603782957008225 0.738036545751075 0.9990606545627047 0.8821231247882748 1 0.8473119000538123 0.4970265276602767 0.6278650513765875 0:0 1:0.87710768 2:0 3:0 4:0 5:0 6:0.030831315 7:0.47856006 8:0 9:0 10:0.99979639 11:0 12:0 13:0 14:0 15:0.020077014 16:0.00021630329 17:0 18:0 19:0.9761377 20:0 21:0 22:9.5378891e-05 23:0.1968741 24:0.090585761 25:0.013617033 26:0 27:0 28:0.99127758 29:0.062231507 30:0.019743819 31:0.024605939 32:0.084102243 33:0.051403016 34:0.052742612 35:0 36:0 37:0.83969569 38:0 39:0.031393733 40:0.43416983 41:0.32467851 42:0 43:0.00014969871 44:0 45:0 46:0.55399805 47:0 48:0.00054786581 49:0.4567593 50:0.67441291 51:0.17141446 52:0.015344904 53:0 54:0 55:0.99999899 56:0 57:0 58:0 59:0 60:0 61:0 62:0 63:0 64:0.79928565 65:0.1892162 66:0.35365009 67:0.41335538 68:0.16984624 69:0.016581312 70:0.016686589 71:0 72:0 73:0.99201858 74:0 75:0.009896988 76:0.070692845 77:0.10351066 78:0.0089968527 79:0.0023838039 80:0 81:0 82:0.87477511 83:0.041053936 84:0.063426517 85:0.37342024 86:0.29879868 87:0.0015506021 88:0.018174965 89:0 90:0 91:0.78649163 92:0 93:0.00035023133 94:0.35943195 95:0.4868938 96:0.12277644 97:0.0098094568 98:0 99:0 100:0.99521375 101:0.032616265 102:0.068336777 103:0.050381575 104:0.035709977 105:0 106:0 107:0 108:0 109:0.99985021 110:2.2764159e-05 111:4.2062813e-05 112:0.00097881095 113:0.016181916 114:4.2062813e-05 115:0.0058819731 116:0 117:0 118:0.99215907 119:0 120:0.016553625 121:0.066689193 122:0.10320926 123:0.015048066 124:0.0039871321 125:0 126:0 127:0.95962381 128:0 129:0.00015031869 130:0.0010993811 131:0.19203791 132:0.20540613 133:0.0067491424 134:0 135:0 136:0.41092056 137:0.16341399 138:0.31605655 139:0.41551378 140:0.64028299 141:0.33002275 142:0.11408209 143:0 
0 0 0 0.1679202112709735 0.2144760551906373 0 0.3361553175486976 0 0 0.1186378359098473 0 0 0 0.125492193220172 0 0.005556492900881751 0:0 1:0.0056339926 2:0.10493135 3:0.44329959 4:0.51023734 5:0.53288466 6:0.45315877 7:0.20681798 8:0 9:0 10:0.91876483 11:0.00011491679 12:0.053496223 13:0.037149675 14:0.32317716 15:0.19976833 16:0.08529298 17:0 18:0 19:0.96781844 20:0.013302681 21:0.017569926 22:0.017173279 23:0.1645021 24:0.10963659 25:0.1531729 26:0 27:0 28:0.85093462 29:0.049438704 30:0.10197242 31:0.036333501 32:0.31055135 33:0.18694261 34:0.36104286 35:0 36:0 37:0.82084554 38:0.024490524 39:0.30227008 40:0.37750635 41:0.29874894 42:0.047575857 43:0.014678689 44:0 45:0 46:0.28059068 47:0.018440675 48:0.026873238 49:0.55141449 50:0.77937227 51:0.058665298 52:0.072666943 53:0 54:0 55:0.99521518 56:7.213746e-05 57:0.020479938 58:0.041990384 59:0.07843817 60:0 61:0.034776516 62:0 63:0 64:0.60245925 65:0.042281363 66:0.16220035 67:0.55292469 68:0.54649872 69:0 70:0.067496888 71:0 72:0 73:0.9797622 74:0.098063849 75:0.1204655 76:0.095569536 77:0.079376556 78:0 79:0.022379991 80:0 81:0 82:0.75276101 83:0 84:0.027238987 85:0.39973763 86:0.5168553 87:0.074123718 88:0.013403707 89:0 90:0 91:0.94338495 92:0 93:0.002511665 94:0.17893632 95:0.2774986 96:0.017693028 97:0.026058657 98:0 99:0 100:0.9961136 101:0.016150003 102:0.056296274 103:0.013298376 104:0.06106288 105:0 106:0.020498736 107:0 108:0 109:0.98852372 110:0.092489287 111:0.054726969 112:0.01861635 113:0.084171861 114:0.026457367 115:0.056018651 116:0 117:0 118:0.99597842 119:0 120:0.025160741 121:0.048483822 122:0.065027423 123:0.013628417 124:0.02501861 125:0 126:0 127:0.92697483 128:0.00011870492 129:0.11534208 130:0.31208938 131:0.11532388 132:0.087151073 133:0.095461749 134:0 135:0 136:0.82782668 137:0.018757425 138:0.16817723 139:0.37164539 140:0.36974141 141:0.10346305 142:0.023003707 143:0 
0.3056416440991779 0 0.2519840215401109 0.4745496667232434 0 0.1502340430094462 0.5182679185522246 0 0.2723564743494836 0.1664834388687665 0.1519098511551625 0 0.2199943907600345 0.1998206577681592 0.01157282431739798 0.1239374047246927 0:0 1:0.062799543 2:0 3:0 4:0.65042233 5:0.75670105 6:0.020085627 7:0 8:0 9:0 10:0.94668633 11:2.8520943e-05 12:0 13:0.12856509 14:0.28439936 15:0.077865466 16:0.017527038 17:0 18:0 19:0.88465345 20:0.030583775 21:0 22:0.25711894 23:0.38773072 24:0.0013468122 25:0.001883714 26:0 27:0 28:0.99999881 29:0 30:0 31:0 32:0 33:0 34:0 35:0 36:0 37:0.98323125 38:0 39:0 40:0.045184061 41:0.17042905 42:0.020318294 43:0.041852847 44:0 45:0 46:0.95206326 47:0 48:0 49:0.17291886 50:0.25230253 51:0.0040062233 52:0 53:0 54:0 55:0.96446675 56:0 57:0 58:0.18084757 59:0.19255778 60:0.0041381367 61:0 62:0 63:0 64:0.15234222 65:0.092348143 66:0.066822104 67:0.56612802 68:0.80151957 69:0.029249948 70:0 71:0 72:0 73:0.99999261 74:0 75:0 76:0 77:0 78:0 79:0 80:0 81:0 82:0.99948841 83:0 84:0 85:0.017902603 86:0.026462896 87:0 88:0 89:0 90:0 91:0.99999887 92:0 93:0 94:0 95:0 96:0 97:0 98:0 99:0 100:0.99999243 101:0 102:0 103:0 104:0 105:0 106:0 107:0 108:0 109:0 110:0 111:0 112:0 113:0 114:0 115:0 116:0 117:0 118:0.99999893 119:0 120:0 121:0 122:0 123:0 124:0 125:0 126:0 127:0.99999893 128:0 129:0 130:0 131:0 132:0 133:0 134:0 135:0 136:0 137:0 138:0 139:0 140:0 141:0 142:0 143:0 
-1 0.4579724469649865 0.8003677142085527 1 0.7381565838516611 0.8234225004323332 1 0.395646920753698 0.8071771140024401 0.6516512925673682 0.9098659470409093 0.6126087441573557 0.9836378142668526 0.9877216559558309 0.9453529313531217 0.9421660062320478 0:0 1:0.84898859 2:0.0020890869 3:2.7208383e-08 4:0.0010445571 5:0.49465966 6:0.0019300581 7:0.18552645 8:0 9:0 10:0.99248052 11:0.0017373834 12:0.054453164 13:0.058458891 14:0.089728981 15:1.4693831e-08 16:0.022563936 17:0 18:0 19:0.88027716 20:0 21:2.9048701e-08 22:0.020175671 23:0.44385588 24:0.14942327 25:0.072909974 26:0 27:0 28:0.86428791 29:0.052346967 30:0.28324324 31:0.14935562 32:0.28624046 33:0.24930696 34:0.060275931 35:0 36:0 37:0.98783833 38:3.4626581e-08 39:2.5969934e-08 40:1.0387973e-07 41:0.15527806 42:8.6566452e-09 43:8.6566452e-09 44:0 45:0 46:0 47:0.18409103 48:0.03418212 49:0.52366799 50:0.82405573 51:0.061415236 52:0.08862114 53:0 54:0 55:0 56:1.3954438e-08 57:0.041615803 58:0.53410494 59:0.83472168 60:0.043189019 61:0.11978519 62:0 63:0 64:0.60998601 65:0.033477928 66:0.049724739 67:0.61125439 68:0.50066096 69:4.1006905e-09 70:1.2302071e-08 71:0 72:0 73:0.83123374 74:0 75:0.17028053 76:0.17895816 77:0.49469635 78:0.057262205 79:0 80:0 81:0 82:0.087367348 83:0.18019819 84:0.17236421 85:0.51790506 86:0.80232316 87:0.12494589 88:0.051051896 89:0 90:0 91:0.0056030401 92:0.15172958 93:0.028238265 94:0.54557043 95:0.82107925 96:0.050412271 97:0.04210458 98:0 99:0 100:0.2210073 101:0.40973189 102:0.63045782 103:0.43786749 104:0.44020453 105:0 106:0.016021436 107:0 108:0 109:0.99856609 110:0 111:0.0025650696 112:0 113:0.053285919 114:0.0025650696 115:0 116:0 117:0 118:0.42594621 119:0 120:0.21153258 121:0.42200798 122:0.76030028 123:0.064950287 124:0.11588386 125:0 126:0 127:0.0021722533 128:0 129:3.2386021e-09 130:0.11222725 131:0.88035095 132:0.46078274 133:0.0061476598 134:0 135:0 136:0.073532023 137:0.12326985 138:0.4634265 139:0.48928246 140:0.70110619 141:0.176046 142:0.05179169 143:0 
-0.3124702361924653 0 0 0 0 0 0 0 0 0 0 0 0.003484091211509275 0 0 0 0:0 1:0.31196529 2:0.22614464 3:0.29745805 4:0.61145175 5:0.51738256 6:0.30293974 7:0.17238462 8:0 9:0 10:0.94359529 11:0 12:0.00015141057 13:0.00012925261 14:0.2404795 15:0.19294582 16:0.12068483 17:0 18:0 19:0.99895138 20:0 21:0 22:0 23:0.026678158 24:3.0874511e-05 25:0.037168313 26:0 27:0 28:0.78251499 29:0.054171059 30:0.20386131 31:0.32853943 32:0.4313302 33:0.20523304 34:0.084068984 35:0 36:0 37:0.94923145 38:0.037655883 39:0.10897333 40:0.16071424 41:0.24311669 42:0.010709303 43:0.024780067 44:0 45:0 46:0.6532352 47:0.021947514 48:0.056715127 49:0.35251456 50:0.61776805 51:0.15774518 52:0.19695827 53:0 54:0 55:0.95245981 56:0.013708711 57:0.016507491 58:0.25376615 59:0.15910996 60:0.047205191 61:0.020347528 62:0 63:0 64:0.95446789 65:0.00016374502 66:0.010440945 67:0.18545334 68:0.23123616 69:0.02046616 70:0.024437331 71:0 72:0 73:0.98570222 74:0.13819149 75:0.066795342 76:0.027660524 77:0.047256008 78:0.039772738 79:0.015788443 80:0 81:0 82:0.94440961 83:0 84:0.014911717 85:0.20451114 86:0.24431859 87:0.043800946 88:0.06656085 89:0 90:0 91:0.54609764 92:0.020008933 93:0.10816677 94:0.52341813 95:0.61837775 96:0.054620937 97:0.17416191 98:0 99:0 100:0.93288553 101:0.18348686 102:0.058660414 103:0.28498384 104:0.10277634 105:0.028875535 106:0.00022757055 107:0 108:0 109:0.99698305 110:0.041826449 111:0.027317736 112:0.021180224 113:0.035208594 114:0.00088608719 115:0.04287282 116:0 117:0 118:0.94629961 119:0 120:0.044927686 121:0.11417183 122:0.26924241 123:0.1005927 124:0.082754806 125:0 126:0 127:0.93959498 128:0 129:0.016772255 130:0.12403142 131:0.2739853 132:0.14628471 133:0.070892133 134:0 135:0 136:0.70942819 137:0.22983222 138:0.29822356 139:0.45529917 140:0.35775602 141:0.098747931 142:0.099544093 143:0 
-0.4733597601674429 0.1650540964355679 0.281534579777599 0.4603329663736959 0.2650473987842497 0.284236033884711 0.3967184451713142 0.1475760591449204 0.2970188408035784 0.242853688325411 0.3211801774613008 0.2116385739811674 0.3093821843414085 0.3566485206005489 0.2911004914136642 0.297886043647226 0:0 1:0.6333921 2:0 3:0 4:0.61479741 5:0.4680213 6:0 7:0.042219583 8:0 9:0 10:0.99999869 11:0 12:0 13:0 14:0 15:0 16:0 17:0 18:0 19:0.55707443 20:0 21:0 22:0.65304875 23:0.51301759 24:0 25:0 26:0 27:0 28:0.15169191 29:0.10887988 30:0.024858095 31:0.74407965 32:0.63792425 33:0 34:0.062524758 35:0 36:0 37:0.99999839 38:0 39:0 40:0 41:0 42:0 43:0 44:0 45:0 46:0.23535211 47:0.067295752 48:0.068036914 49:0.65322471 50:0.70860547 51:0.081364505 52:0.00077685324 53:0 54:0 55:0.75378191 56:0.03991323 57:0.040231071 58:0.443591 59:0.47638169 60:0.069578208 61:0.0066371202 62:0 63:0 64:0.36922595 65:0 66:0 67:0.66251159 68:0.65172416 69:0 70:0 71:0 72:0 73:0.28396326 74:0 75:0.0013946689 76:0.8218292 77:0.49391282 78:0 79:0 80:0 81:0 82:0.65882051 83:0.046601877 84:0.041692302 85:0.55409819 86:0.50083578 87:0.064556025 88:0.0035591947 89:0 90:0 91:0.020251572 92:0.039240368 93:0.039712578 94:0.71153671 95:0.69852239 96:0.0474439 97:0.00045298558 98:0 99:0 100:0.99540162 101:0 102:0 103:0.079623826 104:0.053226352 105:0 106:0 107:0 108:0 109:0.34838963 110:0 111:0 112:0.78894055 113:0.50542736 114:0 115:0.02710171 116:0 117:0 118:0.22320347 119:0 120:0.00085626339 121:0.87147599 122:0.43669564 123:0 124:0 125:0 126:0 127:0.99330133 128:0 129:0.0003935234 130:0.093832083 131:0.067415245 132:0 133:0 134:0 135:0 136:0.064083546 137:0.026750408 138:0.021344237 139:0.70155263 140:0.70595407 141:0 142:0.064566664 143:0 
