svm_type c_svc
kernel_type rbf
gamma 0.5
nr_class 17
total_sv 832
rho -0.418902 -0.778364 -0.68073 -0.10145 -0.576321 -0.609504 -0.210943 -0.778856 -0.54053 -0.638164 -0.346353 -0.486388 -0.56978 -0.660795 -0.343609 -0.355097 -0.622709 -0.406032 0.212088 -0.35833 -0.164498 0.210295 -0.430789 -0.246203 -0.352308 0.000754572 -0.137182 -0.167835 -0.125246 -0.00986377 -0.0239141 0.553119 0.707831 0.36282 0.498698 0.899337 0.859863 0.813235 0.366714 0.71514 0.505019 0.461759 0.409057 0.707363 0.508207 0.62976 0.375593 0.115598 0.839765 0.0890882 0.470174 0.306533 0.746151 0.169938 0.115982 0.313897 0.688421 0.63684 -0.473813 -0.496287 -0.0818406 -0.549925 -0.490275 -0.562502 -0.266878 -0.344197 -0.383671 -0.428115 -0.134255 -0.234804 -0.279639 0.370787 0.0122596 0.0557728 -0.0027574 0.34908 -0.176311 -0.154997 -0.232178 0.3429 0.244816 0.58394 0.05787 0.452896 0.408893 0.642606 -0.0509549 0.0939072 0.0480305 0.569966 0.491962 -0.630178 -0.553511 -0.637556 -0.255916 -0.30941 -0.366238 -0.409226 -0.102375 -0.176364 0.275634 -0.200678 0.433667 0.218684 0.189689 0.194248 0.563199 0.247695 -0.324462 0.0667554 0.0569947 -0.0198282 0.0506088 0.258348 0.0555142 0.292067 0.295097 0.225998 0.00284821 0.438428 0.17933 -0.291192 -0.121323 -0.25302 0.0165463 -0.102272 -0.415701 -0.130349 0.27149 0.224703 0.0238069 0.262346 0.400351 0.352433 0.410043 -0.101845
label 0 1 2 3 4 5 6 7 8 9 10 11 12 13 14 15 16
nr_sv 52 39 55 52 41 40 55 36 55 55 55 55 48 47 41 55 51
SV
0.8514359643327477 0 0.1491162468231319 0.6012538820227588 0.203668417759919 0.378454713987446 0.3366245205100909 0.4044042233090375 0.2461530717115349 0.3471051740256304 0.6718838301663477 0.3652126490541288 0.6108828974464908 0.7259035491809158 0.5366674446146518 0.8186472051473306 0:0 1:0.22976553 2:0.071990892 3:0.12511577 4:0.49391031 5:0.81923103 6:0.08974392 7:0.056803755 8:0 9:0 10:0.48767212 11:0.12627761 12:0.20397423 13:0.46867558 14:0.68493235 15:0.10268722 16:0.072707616 17:0 18:0 19:0.51746178 20:0.17160729 21:0.40641963 22:0.31634241 23:0.4005214 24:0.27329525 25:0.4499107 26:0 27:0 28:0.50697082 29:0.055573534 30:0.09447284 31:0.32564065 32:0.7432642 33:0.17174314 34:0.20732266 35:0 36:0 37:0.89907765 38:0.17166822 39:0.20902759 40:0.059791729 41:0.32462358 42:0.076867513 43:0.06023423 44:0 45:0 46:0.70477444 47:0.16212173 48:0.15836945 49:0.19901125 50:0.63384402 51:0.078535452 52:0.066261433 53:0 54:0 55:0.26459113 56:0.046329103 57:0.029472247 58:0.081342168 59:0.95359296 60:0.080524616 61:0.067318566 62:0 63:0 64:0.92826623 65:0.022013776 66:0.042779092 67:0.0015121314 68:0.36847818 69:0.014606188 70:0.0033529573 71:0 72:0 73:0.79373026 74:0.042178694 75:0.24745876 76:0.16531035 77:0.50939971 78:0.11544338 79:0.082601801 80:0 
0 0 0 0.4107782142300011 0 0 0 0 0 0 0 0 0 0 0 0 0:0 1:0.0019003008 2:0 3:0.00036215753 4:0.65190578 5:0.75828505 6:0 7:0 8:0 9:0 10:0.99989003 11:0 12:0 13:0.00049075758 14:0.014754093 15:5.664026e-05 16:0 17:0 18:0 19:0.99999845 20:0 21:0 22:0 23:0 24:0 25:0 26:0 27:0 28:0.00071039359 29:0 30:0.00063309248 31:0.74946749 32:0.66203701 33:0.00025575495 34:0.00034020553 35:0 36:0 37:0.94340622 38:0 39:0.016826695 40:0.18287575 41:0.26952475 42:0.04139705 43:0.043574113 44:0 45:0 46:0.99981391 47:0 48:0 49:0.00084084464 50:0.019238951 51:0.00014054541 52:0 53:0 54:0 55:0.67338532 56:0 57:0.00056149013 58:0.45594555 59:0.57800579 60:0.062341549 61:0.026140403 62:0 63:0 64:0.84148109 65:0 66:0.00058435451 67:0.40585622 68:0.35663149 69:0.00022017131 70:0.00029287214 71:0 72:0 73:0.99999917 74:0 75:3.0128242e-05 76:0 77:1.6305235e-05 78:0 79:0 80:0 
0 0 0 0 1 0 0 0 0 0 0 0 0 0 0 0 0:0 1:0.75140482 2:0.04167093 3:0.055408653 4:0.4412753 5:0.48297271 6:0.03740222 7:0.034555748 8:0 9:0 10:0.92136914 11:0.018783586 12:0.063329794 13:0.20783255 14:0.31492805 15:0.034097727 16:0.056359842 17:0 18:0 19:0.99999923 20:0 21:0 22:0 23:0 24:0 25:0 26:0 27:0 28:0.99626833 29:0 30:0.0071109063 31:0.047254391 32:0.071180299 33:0.0071314881 34:0.0068384316 35:0 36:0 37:0.97997755 38:0.021070609 39:0.031594742 40:0.1499501 41:0.1249446 42:0.0062479288 43:0.0080502909 44:0 45:0 46:0.99267107 47:0.018133055 48:0.028930012 49:0.043797798 50:0.096732743 51:0.031913936 52:0.033783361 53:0 54:0 55:0.99999899 56:0 57:0 58:0 59:0 60:0 61:0 62:0 63:0 64:0.99977368 65:0.017222259 66:0.010290598 67:0 68:0.006934688 69:0 70:0 71:0 72:0 73:0.99256927 74:0.00087028701 75:0.0662755 76:0 77:0.089733951 78:0.033066656 79:0.035497654 80:0 
1 0 0 0.5606819246905305 0.01945730182378982 0.4571774915935245 0.7788021460357297 0 0 1 1 1 1 0.8251105632098891 0.4953912091565469 0.9350302739303208 0:0 1:0.29805443 2:0.39515528 3:0.32675326 4:0.64492786 5:0.38673371 6:0.25140724 7:0.13978899 8:0 9:0 10:0.84973288 11:0.042126134 12:0.077294387 13:0.025237517 14:0.22250989 15:0.14414319 16:0.44640189 17:0 18:0 19:0.93923241 20:0.09573856 21:0.12597439 22:0.027762329 23:0.11835603 24:0.10625622 25:0.25832748 26:0 27:0 28:0.89518702 29:0.057962775 30:0.21713488 31:0.26205939 32:0.23852298 33:0.046824012 34:0.14271602 35:0 36:0 37:0.2746453 38:0.097420514 39:0.14481419 40:0.31721297 41:0.79245675 42:0.19513917 43:0.35692438 44:0 45:0 46:0.86405164 47:0.30055952 48:0.21499637 49:0.0056101712 50:0.19029169 51:0.078428499 52:0.27286547 53:0 54:0 55:0.99139792 56:0.035270691 57:0.06450215 58:0.0054558772 59:0.053936675 60:0.021563474 61:0.091209061 62:0 63:0 64:0.95777738 65:0.053826552 66:0.10761967 67:0.040375505 68:0.20939027 69:0.050201252 70:0.14206974 71:0 72:0 73:0.47546709 74:0.43882442 75:0.34007731 76:0.54159641 77:0.34240746 78:0.19383724 79:0.13251883 80:0 
0 0 0 0 1 0.5885249357663731 0 0 1 0 0 1 0 0 1 0 0:0 1:0.75715178 2:0.0023107757 3:0.019118376 4:0.40179282 5:0.50313115 6:0.075929038 7:0.077484332 8:0 9:0 10:0.96044403 11:0.025637481 12:0.051107038 13:0.17957824 14:0.1946117 15:0.034066878 16:0.054714516 17:0 18:0 19:0.99999511 20:0 21:4.5031433e-05 22:0.0023996895 23:0.001503301 24:0 25:0 26:0 27:0 28:0.9752233 29:0.0058292574 30:0.0017182 31:0.14917625 32:0.16123423 33:0.025487486 34:0.0010222362 35:0 36:0 37:0.99541438 38:0.00060176948 39:0.00030291203 40:0.066301033 41:0.06893491 42:0.00064633443 43:6.5509572e-05 44:0 45:0 46:0.99996287 47:0 48:0 49:0.0022762374 50:0.0079668313 51:0.0018623761 52:0 53:0 54:0 55:0.99999881 56:0 57:0 58:0 59:0.00016548656 60:0.00061541208 61:0.00014255164 62:0 63:0 64:0.99999899 65:0 66:0 67:0 68:0 69:0 70:0 71:0 72:0 73:0.9995783 74:0.0023461711 75:0.028740596 76:0 77:0 78:0 79:0 80:0 
0.3644622076707439 0 0 0 0 0 1 0 0 0 0.3181444294312213 0 0.1369325007560334 0 0 0.2257837201527106 0:0 1:0.52564168 2:0.1257353 3:0.22918521 4:0.52232784 5:0.5160296 6:0.24598475 7:0.23609254 8:0 9:0 10:0.96655411 11:0 12:0.0050162948 13:0.039226711 14:0.18401667 15:0.10622697 16:0.13806143 17:0 18:0 19:0.95716369 20:0.11836537 21:0.13396904 22:0.10262319 23:0.15161017 24:0.09087541 25:0.10050727 26:0 27:0 28:0.88752252 29:0.073191725 30:0.21061528 31:0.30917317 32:0.24978252 33:0.032095652 34:0.059800822 35:0 36:0 37:0.95609093 38:0.0036973807 39:0.0097204857 40:0.12555712 41:0.24881959 42:0.040291816 43:0.080503047 44:0 45:0 46:0.98808318 47:0.097861566 48:0.075436071 49:0.055593792 50:0.064976372 51:3.9054186e-05 52:0.033308994 53:0 54:0 55:0.99378294 56:0.036377966 57:0.036482882 58:0.020346807 59:0.063174888 60:0.041301318 61:0.060240641 62:0 63:0 64:0.5442456 65:0.03190219 66:0.024642412 67:0.38424763 68:0.62954259 69:0.28997567 70:0.27223638 71:0 72:0 73:0.88761091 74:0.083679773 75:0.22527206 76:0.22780751 77:0.30734745 78:0.083508097 79:0.032593887 80:0 
0 1 1 0 1 1 0 1 1 1 1 1 0 0 1 1 0:0 1:0.86412525 2:0 3:0 4:0.37818226 5:0.32411078 6:0.034987047 7:0.063166209 8:0 9:0 10:0.95694679 11:0 12:0.011757535 13:0.17505221 14:0.23018059 15:0.012817703 16:0.017947847 17:0 18:0 19:0.99900264 20:0 21:0 22:0.00091734336 23:0.044626825 24:1.3808928e-05 25:2.551565e-05 26:0 27:0 28:0.99999923 29:0 30:0 31:0 32:0 33:0 34:0 35:0 36:0 37:0.98844653 38:0 39:0 40:0.11385654 41:0.097444221 42:0.010980001 43:0.019823479 44:0 45:0 46:0.99476629 47:0 48:0.0035415685 49:0.056578711 50:0.084997632 51:0 52:0 53:0 54:0 55:0.99999839 56:0 57:0 58:0 59:0 60:0 61:0 62:0 63:0 64:0.99999917 65:0 66:0 67:0 68:0 69:0 70:0 71:0 72:0 73:0.99999863 74:0 75:0 76:0 77:0 78:0 79:0 80:0 
0.657639927898037 0.8156181683996184 0.8943974675297127 0 0 1 1 1 1 1 1 1 1 1 1 0 0:0 1:0.73918313 2:0.25060791 3:0.28709686 4:0.35461837 5:0.38775885 6:0.15382013 7:0.092754766 8:0 9:0 10:0.99371493 11:0.00010071382 12:0.0082020825 13:0.0070051071 14:0.080164447 15:0.060810797 16:0.047836732 17:0 18:0 19:0.99381429 20:0.067984588 21:0.016110476 22:0.0080891075 23:7.4834854e-05 24:0.017725985 25:0.084085122 26:0 27:0 28:0.96817619 29:0.095652021 30:0.17868115 31:0.12304814 32:0.076507129 33:0.019288423 34:0.013796994 35:0 36:0 37:0.95755535 38:0.035857305 39:0.19274688 40:0.17281441 41:0.11795706 42:0.023004904 43:0.01842369 44:0 45:0 46:0.98790795 47:0.10372008 48:0.10087459 49:0.040719412 50:0.034948424 51:0.0062708184 52:0.013554723 53:0 54:0 55:0.99941868 56:0 57:0.014070184 58:0.0053028488 59:0.021670528 60:0.010015448 61:0.019101474 62:0 63:0 64:0.95925736 65:0.0080026649 66:0.070237882 67:0.11148166 68:0.15242542 69:0.13424422 70:0.14540538 71:0 72:0 73:0.68390352 74:0.23002635 75:0.51629168 76:0.35326549 77:0.24453364 78:0.11401649 79:0.12332771 80:0 
1 1 1 1 1 1 1 1 1 1 1 1 1 1 1 1 0:0 1:0.97152001 2:0 3:0 4:0.12164949 5:0.19171612 6:0.059825387 7:0.031701505 8:0 9:0 10:0.98901331 11:0 12:0 13:0.026250111 14:0.13967119 15:0.040635269 16:4.5004315e-05 17:0 18:0 19:0.99477118 20:0.07627432 21:0.013687726 22:0.013986595 23:0.053137891 24:0.021785991 25:0.030440034 26:0 27:0 28:0.99449998 29:0.027759476 30:0.014219538 31:0.06455832 32:0.075115919 33:0.0093316603 34:0.0097479075 35:0 36:0 37:0.99401051 38:0 39:0 40:0.056606825 41:0.089210741 42:0.027838385 43:0 44:0 45:0 46:0.99802732 47:0.052958027 48:0.027502626 49:0.001250713 50:0.019243723 51:0.00039691306 52:0.00217263 53:0 54:0 55:0.99948615 56:0.014977328 57:0.018196134 58:0.015188104 59:0.008757405 60:0.010270271 61:0.0073878639 62:0 63:0 64:0.96151876 65:0.041647762 66:0 67:0.096857361 68:0.22470221 69:0.092942514 70:0.072314337 71:0 72:0 73:0.87504351 74:0.10080127 75:0.19159144 76:0.23409678 77:0.34974635 78:0.085847497 79:0.054131232 80:0 
1 0 1 0 0.4809584933402122 1 0 0.7512925174331636 1 1 1 1 1 1 1 1 0:0 1:0.72404224 2:0.20929174 3:0.28599748 4:0.34804857 5:0.31134161 6:0.30271563 7:0.20112376 8:0 9:0 10:0.93074256 11:0 12:0.026497778 13:0.10189378 14:0.32467106 15:0.10092039 16:0.083879493 17:0 18:0 19:0.97289944 20:0.071870014 21:0.059603561 22:0.11890083 23:0.15949748 24:0.066558622 25:0.027207538 26:0 27:0 28:0.97851205 29:0.059708465 30:0.077998631 31:0.15702371 32:0.090110354 33:0.0045960229 34:0.0081438301 35:0 36:0 37:0.92809057 38:0 39:0.037853975 40:0.24981757 41:0.26788405 42:0.055154886 43:0.00057380297 44:0 45:0 46:0.98249304 47:0.057865936 48:0.087430075 49:0.098196432 50:0.11694948 51:0.015629709 52:0.0122291 53:0 54:0 55:0.98811436 56:0.021816969 57:0.059114598 58:0.070089914 59:0.10657451 60:0.045115564 61:0.036765676 62:0 63:0 64:0.97562361 65:0.001172001 66:0.023612041 67:0.050273433 68:0.17358814 69:0.067685895 70:0.10176701 71:0 72:0 73:0.96133065 74:0.10013279 75:0.10987785 76:0.11128106 77:0.14231938 78:0.085801795 79:0.11722466 80:0 
0 0 0 0 1 0 0 0 0 0 0 0 0 0 0 0 0:0 1:0.76552755 2:0 3:0 4:0.49494439 5:0.4072237 6:0.044914249 7:0.033825297 8:0 9:0 10:0.95453238 11:0.0088468688 12:0 13:0.12362389 14:0.27111149 15:0.00011454568 16:0.0019361861 17:0 18:0 19:0.99999928 20:0 21:0 22:0 23:0.00053411647 24:0 25:0 26:0 27:0 28:0.94188279 29:0 30:0 31:0.2256048 32:0.2479478 33:0.021881921 34:0.00025679878 35:0 36:0 37:0.98678178 38:0 39:0 40:0.12989619 41:0.095988065 42:0.011758539 43:0.0059446832 44:0 45:0 46:0.9975394 47:0.0071051759 48:0 49:0.041065812 50:0.05636476 51:0 52:0 53:0 54:0 55:0.99999887 56:0 57:0 58:0 59:0 60:0 61:0 62:0 63:0 64:0.99999917 65:0 66:0 67:0 68:0 69:0 70:0 71:0 72:0 73:0.98795038 74:3.1852156e-05 75:0 76:0.074851386 77:0.13127992 78:0.033373777 79:0 80:0 
1 0 0.6970837082784259 0 0 0 1 0 0 0 0.7274506929617427 0.2099467555164144 1 0.1713476027731782 0 0 0:0 1:0.549721 2:0.071327619 3:0.083031639 4:0.43638122 5:0.70052731 6:0.065619983 7:0.018462431 8:0 9:0 10:0.73268247 11:0.05090078 12:0.12055886 13:0.18210979 14:0.58422643 15:0.1723972 16:0.20453799 17:0 18:0 19:0.99700522 20:0.044739723 21:0.037685905 22:0.01583878 23:0.021738654 24:0.021908632 25:0.036752969 26:0 27:0 28:0.94043052 29:0.01963417 30:0.069149539 31:0.10960093 32:0.30155042 33:0.086214237 34:0.0055494029 35:0 36:0 37:0.7105388 38:0.067253701 39:0.066049032 40:0.32966027 41:0.61292064 42:0.037826587 43:0.021559773 44:0 45:0 46:0.9596014 47:0.10640261 48:0.1533253 49:0.11916206 50:0.17069584 51:0.022465575 52:0.022081658 53:0 54:0 55:0.99985141 56:0 57:0.01239221 58:0.00075867755 59:0.011705583 60:7.8700019e-10 61:0.00028072202 62:0 63:0 64:0.98045641 65:0.0093535939 66:0.018602779 67:0.053739473 68:0.1241909 69:0.098855168 70:0.10090133 71:0 72:0 73:0.4529905 74:0.22102608 75:0.27306095 76:0.44429699 77:0.65879828 78:0.1611879 79:0.1182331 80:0 
0.3776379590902901 0.05932249770999907 0.1398128585981511 0.4354370341921301 0.1711654129522634 0.1837383615468242 0.3962956383469993 0.02474855039088548 0.1866014142594876 0.1370115211471085 0.3015014695610599 0.1713489589897247 0.1745750607779399 0.1623960445531102 0.2607472363384397 0.1837264233896488 0:0 1:0.13148011 2:0 3:0.032162178 4:0.63181132 5:0.76271909 6:0.0050757951 7:0.02670561 8:0 9:0 10:0.86433917 11:0 12:0.0042553688 13:0.36135423 14:0.34949461 15:0.002246927 16:0.012839864 17:0 18:0 19:0.99999732 20:0 21:0 22:0 23:0 24:0 25:0 26:0 27:0 28:0.10673656 29:0 30:0 31:0.73587161 32:0.66690844 33:0.04811288 34:0.003021057 35:0 36:0 37:0.95280206 38:0 39:0 40:0.20742105 41:0.22166534 42:0.0019744434 43:0 44:0 45:0 46:0.026445545 47:0.015337764 48:0.025453242 49:0.72404385 50:0.68835014 51:0.018366192 52:0.002516533 53:0 54:0 55:0.048894592 56:0 57:0 58:0.75294566 59:0.6443668 60:0.12405449 61:0.007812948 62:0 63:0 64:0.99976647 65:0 66:0 67:0 68:0.020309512 69:0 70:0 71:0 72:0 73:0.9999966 74:0 75:0 76:0 77:0 78:0 79:0 80:0 
1 0 0.02579743930053994 0 0.2816376349152512 0.9091216863366411 0 0 0 0.5510634147142371 0.4420300502871993 0 1 1 0 0 0:0 1:0.66839433 2:0.054137543 3:0.22215223 4:0.59947199 5:0.36327162 6:0.0066456525 7:0.097778402 8:0 9:0 10:0.96161771 11:1.0190937e-08 12:0.084231324 13:0.17243682 14:0.10139096 15:0.058063485 16:0.15745346 17:0 18:0 19:0.98680359 20:0.088007793 21:0.046243571 22:0.046970475 23:0.027788687 24:0.042902254 25:0.10725027 26:0 27:0 28:0.9695667 29:0.014326749 30:0.08014553 31:0.14787006 32:0.16846123 33:0.024631683 34:0.049389713 35:0 36:0 37:0.86239952 38:0.032576814 39:0.18390264 40:0.37855759 41:0.27489623 42:0.014125356 43:0.047908749 44:0 45:0 46:0.90761614 47:0.19477493 48:0.31333902 49:0.087644935 50:0.1732669 51:8.4539424e-09 52:0.048891831 53:0 54:0 55:0.99944448 56:0.0056211124 57:0.00026098805 58:7.3581536e-09 59:0.031631578 60:0.00026098493 61:0.0080475686 62:0 63:0 64:0.96271473 65:0.0024205793 66:0.018157674 67:0.04825424 68:0.12827906 69:0.19654547 70:0.12414661 71:0 72:0 73:0.7784971 74:0.11115147 75:0.33106133 76:0.25709262 77:0.43200007 78:0.10891725 79:0.085938856 80:0 
0.1225100615811499 0 0 1 1 0 0.04624478835867778 0 0 0 0 0 0 0 0 0 0:0 1:0.0018902619 2:0 3:0 4:0.75207222 5:0.65907282 6:0 7:0 8:0 9:0 10:0.98224467 11:0 12:0 13:0.12566678 14:0.13624555 15:0.028912907 16:0.001437105 17:0 18:0 19:0.99891728 20:0 21:0 22:0.026988884 23:0.037877046 24:0 25:0 26:0 27:0 28:0.85208684 29:0 30:0 31:0.39261466 32:0.34602636 33:0 34:0.0079822615 35:0 36:0 37:0.86673039 38:0 39:0 40:0.37659225 41:0.32531852 42:0.0085452795 43:0.032383177 44:0 45:0 46:0.99973822 47:0 48:0 49:0.0086565688 50:0.019000079 51:0 52:0.0092771184 53:0 54:0 55:0.99999797 56:0 57:0 58:0 59:0 60:0 61:0 62:0 63:0 64:0.51847243 65:0 66:0 67:0.63375705 68:0.57404 69:0 70:0 71:0 72:0 73:0.99999899 74:0 75:0 76:0 77:0 78:0 79:0 80:0 
1 0.2904284632850983 0.6646736403535355 1 0.1757602788513564 0.3795055529030872 0.7162146164800095 0.1359317912137347 0.1282874850025155 0.01978331054712703 0.6138460983667294 0.2142999239686086 0.7793766155876473 0.9569150819223069 0.3798449402233384 0.7101026996279349 0:0 1:0.9881919 2:0 3:0.086897813 4:0 5:0 6:0 7:0.086898863 8:0 9:0 10:0.89517277 11:0.024468897 12:0.24574287 13:0.10945251 14:0.27096424 15:0.089244813 16:0.21046463 17:0 18:0 19:0.99999791 20:0 21:0 22:0 23:0 24:0 25:0 26:0 27:0 28:0.019182231 29:0.0026804365 30:0.0052909632 31:0.70055914 32:0.71322733 33:0.0078319693 34:0.0067569944 35:0 36:0 37:0.53044951 38:0.044945158 39:0.10887896 40:0.55789196 41:0.61608964 42:0.061483048 43:0.10076021 44:0 45:0 46:0.84786934 47:0.090315931 48:0.1191197 49:0.31427261 50:0.35066372 51:0.12308082 52:0.1479315 53:0 54:0 55:0.98313594 56:0.0087627051 57:0.00428236 58:0.06022327 59:0.16723149 60:0.02571146 61:0.033012543 62:0 63:0 64:0.49957049 65:0.0023529986 66:0.0042931428 67:0.5155099 68:0.69323462 69:0.046941862 70:0.043260843 71:0 72:0 73:0.98441839 74:0.0098474454 75:0.018878689 76:0.12967543 77:0.11680865 78:0.00081594673 79:0.0018970342 80:0 
0 1 1 0 1 1 0 1 1 1 0.3556829077797537 1 0 0.9778174917981223 0.7558839021558407 0.8018162572026848 0:0 1:0.81570244 2:0.046226457 3:0.11797737 4:0.50737804 5:0.24476962 6:0.033935569 7:0.008229265 8:0 9:0 10:0.99534708 11:0.0032332418 12:0 13:0.030184194 14:0.079481527 15:0.040189609 16:0.020685008 17:0 18:0 19:0.99704313 20:0.053396203 21:0.015535782 22:0.010851134 23:0.02132928 24:0.013227466 25:0.045412872 26:0 27:0 28:0.99708116 29:0.0037120606 30:0.010382917 31:0.062900856 32:0.04071974 33:0.0080404859 34:0.0050430894 35:0 36:0 37:0.97728145 38:0.015192241 39:0.022803465 40:0.19603753 41:0.069595844 42:0.025714925 43:0.015209808 44:0 45:0 46:0.9980644 47:0.02096775 48:0.019254368 49:0.048851248 50:0.025853194 51:0 52:0.00011188538 53:0 54:0 55:0.99994653 56:0 57:0.0093785599 58:0 59:0.00015900761 60:0 61:0.0039946693 62:0 63:0 64:0.99324554 65:0.0021571997 66:0.0019438233 67:0.027182654 68:0.087115712 69:0.042414624 70:0.057659913 71:0 72:0 73:0.87901551 74:0.04923575 75:0.19162658 76:0.22491316 77:0.35222819 78:0.10032314 79:0.058877211 80:0 
0.4840692469881142 0.1509615135708594 0.2097528194808573 0.5326175572596893 0.2903967465282643 0.2465044548503812 0.5167143757433 0 0.2996372728849831 0.2370528506788396 0.3867900567342895 0.3404165522736867 0.2722978188316436 0.1311719009384994 0.6287865826267518 0.2755927185759332 0:0 1:0 2:0 3:0 4:0.21253414 5:0.97548461 6:0.03111575 7:0.047783922 8:0 9:0 10:0 11:0 12:0 13:0.0058599641 14:0.99998128 15:1.2478909e-09 16:1.2478909e-09 17:0 18:0 19:0.39776739 20:0.023296118 21:0 22:0.047584694 23:0.91595209 24:0 25:0 26:0 27:0 28:0.015661819 29:0.020511642 30:0.043913528 31:0.64193004 32:0.76098704 33:0.057926726 34:0.05354685 35:0 36:0 37:0 38:0 39:0 40:0.076527782 41:0.99685466 42:0.011203937 43:0.017205695 44:0 45:0 46:0.11410475 47:0 48:0 49:0.0059702531 50:0.99344951 51:0 52:0 53:0 54:0 55:0.045925148 56:0.0098027121 57:0.055574067 58:0.30768457 59:0.94786763 60:0.039679069 61:2.4297087e-09 62:0 63:0 64:0.088421881 65:0 66:0 67:0.041341685 68:0.99522191 69:0 70:4.5941895e-05 71:0 72:0 73:0.039508604 74:0 75:0 76:9.0698151e-09 77:0.99921781 78:0 79:0 80:0 
0.5855417251190412 0.2165995692800947 0.3229041708610842 1 0.4215432795208528 0.3878320158123242 0.7908076005258048 0.2159678090826587 0.5146006424541045 0.3589573510973426 0.653748462595073 0.5123559521657718 0.4320048299251917 0.3366899516271372 1 0.6446862560626403 0:0 1:0 2:0 3:0 4:0 5:0 6:0 7:0 8:0 9:0 10:0 11:0 12:0 13:0 14:0 15:0 16:0 17:0 18:0 19:0 20:0 21:0 22:0 23:0 24:0 25:0 26:0 27:0 28:0 29:0 30:0 31:0 32:0 33:0 34:0 35:0 36:0 37:0 38:0 39:0 40:0 41:0 42:0 43:0 44:0 45:0 46:0 47:0 48:0 49:0 50:0 51:0 52:0 53:0 54:0 55:0 56:0 57:0 58:0 59:0 60:0 61:0 62:0 63:0 64:0 65:0 66:0 67:0 68:0 69:0 70:0 71:0 72:0 73:0 74:0 75:0 76:0 77:0 78:0 79:0 80:0 
0 0 0 0 0 0 0 0 0 0 0 0 0 0.2785810446613077 0 0 0:0 1:0.48941147 2:0 3:0 4:0.55678356 5:0.67011291 6:0.011706438 7:0.035683405 8:0 9:0 10:0.98599488 11:0 12:0.0023933428 13:0.076264113 14:0.14807181 15:0.002494128 16:0.0076802173 17:0 18:0 19:0.99999893 20:0 21:0 22:0 23:0 24:0 25:0 26:0 27:0 28:0.15914766 29:0 30:0 31:0.59168559 32:0.78665382 33:0.064819261 34:0.039379973 35:0 36:0 37:0.945445 38:0 39:0 40:0.19191898 41:0.26324666 42:0 43:0 44:0 45:0 46:0.87645543 47:0.011966583 48:0.04058332 49:0.19607091 50:0.43755159 51:0.011749744 52:0 53:0 54:0 55:0.46473157 56:0 57:0 58:0.531214 59:0.69035786 60:0.12659656 61:0.095955707 62:0 63:0 64:0.95590252 65:0 66:0 67:0.085957393 68:0.28080744 69:0 70:0 71:0 72:0 73:0.99999887 74:0 75:0 76:0 77:0 78:0 79:0 80:0 
0.01135689019489736 0 0 0 1 1 0.9201552113879812 0 1 1 1 1 1 0 0 0.9888915499264807 0:0 1:0.41677809 2:0.27942586 3:0.32329518 4:0.52367461 5:0.41871274 6:0.37122419 7:0.23733646 8:0 9:0 10:0.99190855 11:0 12:0.0057257749 13:0.0097551271 14:0.087771609 15:0.051868901 16:0.074788518 17:0 18:0 19:0.99845254 20:0.023147596 21:0.010369283 22:0.013266272 23:0.023528676 24:0.0020218946 25:0.041398313 26:0 27:0 28:0.9916563 29:0.04635103 30:0.10126787 31:0.052034583 32:0.036164731 33:0.0096472511 34:0.010192893 35:0 36:0 37:0.94443828 38:0 39:0.012779222 40:0.14874235 41:0.27109942 42:0.056068011 43:0.095427215 44:0 45:0 46:0.99903166 47:0.037481844 48:0.021030849 49:0.0073827403 50:0.0057184054 51:1.4002903e-05 52:0 53:0 54:0 55:0.99992299 56:0.011700439 57:0.0039135274 58:1.2917047e-05 59:0.00011830817 60:3.1184591e-05 61:0.00067650684 62:0 63:0 64:0.95373607 65:0.022195823 66:0.054885291 67:0.09737543 68:0.19481069 69:0.13680239 70:0.14398716 71:0 72:0 73:0.88271689 74:0.1755434 75:0.25933066 76:0.19895758 77:0.22078924 78:0.12929125 79:0.13300768 80:0 
0.4813290480997148 1 1 0 1 1 0 1 1 1 1 0.5966307150754053 1 1 1 1 0:0 1:0.97639531 2:0.020317348 3:0.0027755944 4:0.12809958 5:0.17242634 6:0.0020585617 7:0.0092099346 8:0 9:0 10:0.96682042 11:0.02318381 12:0.023797529 13:0.13796388 14:0.21235608 15:0 16:0.0048896121 17:0 18:0 19:0.99999851 20:0 21:0 22:0 23:0 24:0 25:0 26:0 27:0 28:0.99455029 29:0 30:0 31:0.084564127 32:0.059127286 33:0.0088021075 34:0.011991982 35:0 36:0 37:0.98967725 38:0.044562284 39:0.022599444 40:0.097496629 41:0.092329621 42:0.00087533041 43:0.0031242305 44:0 45:0 46:0.83300525 47:0.091130182 48:0.093542576 49:0.31700072 50:0.43422601 51:0 52:0 53:0 54:0 55:0.99999917 56:0 57:0 58:0 59:0 60:0 61:0 62:0 63:0 64:0.99999917 65:0 66:0 67:0 68:0 69:0 70:0 71:0 72:0 73:0.99789619 74:0 75:0 76:0 77:0 78:0 79:0 80:0 
0.2285875160182962 1 1 0.7484673455311579 1 1 0.4215265211310046 1 1 1 1 1 1 1 1 1 0:0 1:0.98984599 2:0.0017507508 3:0.024311051 4:0.089291543 5:0.086573362 6:0.060966775 7:0.020568777 8:0 9:0 10:0.98043251 11:0 12:0 13:0.036045626 14:0.16259514 15:0.061506215 16:0.085022487 17:0 18:0 19:0.98329973 20:0.019866591 21:0.068310663 22:0.060005836 23:0.14149937 24:0.057031907 25:0.034371767 26:0 27:0 28:0.96953976 29:0.014139278 30:0.0799651 31:0.12057146 32:0.18134482 33:0.077070959 34:0.0055741388 35:0 36:0 37:0.99327236 38:0.012733813 39:0.027260827 40:0.03247365 41:0.097429872 42:0.041061155 43:0.016324081 44:0 45:0 46:0.97199607 47:0.028912123 48:0.085278943 49:0.078485079 50:0.20220996 51:0.0031465099 52:0.007308186 53:0 54:0 55:0.99818456 56:0.050795674 57:0.017583925 58:0.015431786 59:0.022303049 60:0 61:0.00011783809 62:0 63:0 64:0.99995857 65:0.00023772799 66:0 67:0.0031814612 68:0.0082990807 69:0 70:0 71:0 72:0 73:0.97641015 74:0.066266999 75:0.10910533 76:0.12358942 77:0.12179265 78:0.0037812546 79:0.014220647 80:0 
0 0 0.9379029642719628 0 1 0.5639462488783998 0 0 0.2251614887324022 0 0 0 0 0 0.05931059544271025 0 0:0 1:0.80225992 2:0.0020468778 3:0.025575787 4:0.51466751 5:0.29600173 6:0.04479862 7:0.034809481 8:0 9:0 10:0.96625131 11:0.013155336 12:0.028374122 13:0.19779676 14:0.15401232 15:0.025430713 16:0.043459471 17:0 18:0 19:0.99999934 20:0 21:0 22:0 23:0 24:0 25:0 26:0 27:0 28:0.98155105 29:0 30:0.0023396935 31:0.17813544 32:0.06813354 33:0.012634337 34:0.0040892903 35:0 36:0 37:0.99071395 38:0 39:0.00015306096 40:0.13362522 41:0.02508055 42:0.00014168814 43:1.2091487e-05 44:0 45:0 46:0.99959129 47:0.006557507 48:0.0059385775 49:0.023728937 50:0.011831822 51:0.0058483346 52:6.4540516e-05 53:0 54:0 55:0.99999923 56:0 57:0 58:0 59:0 60:0 61:0 62:0 63:0 64:0.99999905 65:0 66:0 67:0 68:0 69:0 70:0 71:0 72:0 73:0.98880148 74:0.14670189 75:0.027246244 76:0 77:0 78:0 79:0 80:0 
0 0 0 0 1 0 0 0 0 0 0 0 0 0 0 0 0:0 1:0.0067481515 2:0 3:0 4:0.69805378 5:0.71600795 6:0 7:0 8:0 9:0 10:0.96260315 11:0 12:0 13:0.10881948 14:0.24784407 15:0.011161976 16:0 17:0 18:0 19:0.99999899 20:0 21:0 22:0 23:0 24:0 25:0 26:0 27:0 28:0.724024 29:0 30:0 31:0.51330447 32:0.45866302 33:0.019144602 34:0.03955745 35:0 36:0 37:0.91625947 38:0 39:0 40:0.24821837 41:0.31440994 42:0 43:0 44:0 45:0 46:0.90016031 47:0 48:0.00019347442 49:0.13389884 50:0.41333169 51:0.0020691217 52:0.030520469 53:0 54:0 55:0.99999726 56:0 57:0 58:0 59:0 60:0 61:0 62:0 63:0 64:0.8221972 65:0 66:0 67:0.41359875 68:0.39103836 69:0 70:0 71:0 72:0 73:0.99999797 74:0 75:0 76:0 77:0 78:0 79:0 80:0 
1 0.6673049003824628 1 0.2002126947451647 0 1 1 0.2089235187277159 1 1 1 0.007947717463127937 1 1 0 1 0:0 1:0.84951931 2:0.0023205848 3:0.10270306 4:0.2319041 5:0.4158026 6:0.16498913 7:0.11776042 8:0 9:0 10:0.96787441 11:0 12:0 13:0.020538023 14:0.20982744 15:0.079307079 16:0.11170499 17:0 18:0 19:0.94797975 20:0.068238668 21:0.089108445 22:0.084320009 23:0.26975498 24:0.088863745 25:0.031000981 26:0 27:0 28:0.93415093 29:0.059167776 30:0.099450819 31:0.29453355 32:0.16166811 33:0.025974387 34:0.020188501 35:0 36:0 37:0.94778091 38:0.0045153797 39:0.0076602953 40:0.20219514 41:0.23512024 42:0.06939809 43:0.025475113 44:0 45:0 46:0.91283214 47:0.21686521 48:0.15334249 49:0.15023756 50:0.26402298 51:0.032451563 52:0.053459663 53:0 54:0 55:0.99612284 56:0.038422193 57:0.0002987037 58:0.018377664 59:0.056458876 60:0.044749454 61:0.027087875 62:0 63:0 64:0.84035403 65:0.0078183915 66:0.069706924 67:0.22514948 68:0.4211936 69:0.23673354 70:0.068875149 71:0 72:0 73:0.85261327 74:0.081811823 75:0.17770581 76:0.27029741 77:0.39564338 78:0.071656376 79:0.0068041887 80:0 
0 0 0 0 1 0 0 0 0 0 0 0 0 0 0 0 0:0 1:0.13053635 2:0 3:0 4:0.66057611 5:0.7373575 6:0.053818177 7:0 8:0 9:0 10:0.99091643 11:0 12:0 13:0.10752445 14:0.079550214 15:0.013891825 16:0 17:0 18:0 19:0.99999911 20:0 21:0 22:0 23:0 24:0 25:0 26:0 27:0 28:0.32562262 29:0 30:0 31:0.66346365 32:0.67255312 33:0.011676329 34:0.036298633 35:0 36:0 37:0.9125576 38:0 39:0 40:0.26411715 41:0.3122147 42:0 43:0 44:0 45:0 46:0.9992277 47:0 48:0 49:0.01393821 50:0.027397988 51:6.1395076e-05 52:0.024435073 53:0 54:0 55:0.7553072 56:0 57:0 58:0.45678937 59:0.46215838 60:0.026505804 61:0.080943868 62:0 63:0 64:0.96473992 65:0 66:0 67:0.075543635 68:0.25207749 69:0 70:0 71:0 72:0 73:0.99999839 74:0 75:0 76:0 77:0 78:0 79:0 80:0 
0 0 0.828199553298228 0 1 1 0 0.7839744642790957 1 1 0.03682484807072122 1 0 0 1 1 0:0 1:0.64137357 2:0.29237545 3:0.1911733 4:0.41312608 5:0.47208515 6:0.19541067 7:0.18676403 8:0 9:0 10:0.9927907 11:0 12:0 13:0.014457925 14:0.092137918 15:0.034574851 16:0.066861413 17:0 18:0 19:0.99645931 20:0.068245105 21:0.012207775 22:0.001227606 23:0.016438823 24:0.024709767 25:0.037121147 26:0 27:0 28:0.9962759 29:0.043075059 30:0.046615764 31:0.042470627 32:0.038786974 33:0.0077502294 34:0.005977015 35:0 36:0 37:0.96644896 38:0.019293215 39:0.042861767 40:0.091822959 41:0.22343811 42:0.037434258 43:0.063282549 44:0 45:0 46:0.99869287 47:0.044667963 48:0.021679018 49:0.0085493475 50:0.0084240912 51:5.2630912e-05 52:0.0012007985 53:0 54:0 55:0.99984956 56:0.010826583 57:1.6117569e-05 58:0.002967268 59:0.0059495168 60:0 61:0.011740817 62:0 63:0 64:0.98411775 65:0.019755658 66:0.02768885 67:0.020043673 68:0.14533173 69:0.038639102 70:0.085655838 71:0 72:0 73:0.91733462 74:0.22011033 75:0.14955705 76:0.26549992 77:0.11512283 78:0.049262967 79:0.038822319 80:0 
0.2433686574964692 0.01616124293270325 0.2400426861739408 0.8614150610033412 0 0 0 0 0 0 0.2255477111767878 0.6075944741181042 0.08911904530374518 0 0.781923931538694 0.8882288607069879 0:0 1:0.72694868 2:0 3:0 4:2.9967941e-09 5:0.58113676 6:0.00092037692 7:0.36576003 8:0 9:0 10:0.99961329 11:0 12:0 13:6.5648353e-05 14:0.011758748 15:0.004799949 16:0.024608534 17:0 18:0 19:0.99999869 20:0 21:0 22:0 23:0 24:0 25:0 26:0 27:0 28:0.09461382 29:0 30:2.1003603e-10 31:0.57092017 32:0.81229204 33:0.023755174 34:0.068626016 35:0 36:0 37:0.8103084 38:0 39:0 40:0.27850851 41:0.5144192 42:0 43:0.034619346 44:0 45:0 46:0.95502383 47:0.039107539 48:0.046823896 49:0.1709266 50:0.23449533 51:0 52:0 53:0 54:0 55:0.99225396 56:0 57:9.7956196e-05 58:0.076037198 59:0.074014358 60:0.016266009 61:0.062471416 62:0 63:0 64:0.83301783 65:0 66:0 67:0.35456252 68:0.42465442 69:0 70:0.0055897865 71:0 72:0 73:0.99999797 74:0 75:0 76:0 77:0 78:0 79:0 80:0 
1 1 1 1 1 1 0.9150852499983222 0.3377362889111222 1 0.1511761271896994 1 1 1 0 1 1 0:0 1:0.91309577 2:0.0001927261 3:0.00075411401 4:0.28231439 5:0.29270723 6:0.029014049 7:0.0056247967 8:0 9:0 10:0.98630089 11:0.00062956318 12:0.0043967781 13:0.063007236 14:0.12218612 15:0.072252043 16:0.055403225 17:0 18:0 19:0.99524283 20:0.048029043 21:0.021663314 22:0.027097553 23:0.048032254 24:0.03480139 25:0.04961149 26:0 27:0 28:0.9974761 29:0.0033846812 30:0.022723606 31:0.026571754 32:0.056423638 33:0.022188636 34:0.011401447 35:0 36:0 37:0.85595065 38:0.0042443704 39:0.00086493476 40:0.36704606 41:0.35961545 42:0.042424183 43:0.038483139 44:0 45:0 46:0.99532825 47:0.016399389 48:0.013459389 49:0.092100307 50:0.019693967 51:0 52:0 53:0 54:0 55:0.99819613 56:0 57:0.011559176 58:0.023295099 59:0.051888548 60:0.011792426 61:0.0097400174 62:0 63:0 64:0.99814171 65:0.0031788347 66:0.035731822 67:0.025321297 68:0.038565364 69:0.015081239 70:0.0083018513 71:0 72:0 73:0.93521404 74:0.0084187007 75:0.12604475 76:0.27707541 77:0.18027896 78:0.0052159559 79:0.010743877 80:0 
1 0.1066916254300745 1 0.8343214502916417 0 1 1 0.8516329945748724 1 1 0.8368294867983884 0.7914581318114143 0.6499444251580673 1 0.360604727893929 0 0:0 1:0.7825616 2:0.21621017 3:0.17167816 4:0.31912836 5:0.42199442 6:0.1541719 7:0.087647401 8:0 9:0 10:0.98711866 11:0 12:0.005253626 13:0.030429345 14:0.073473372 15:0.097835489 16:0.098341584 17:0 18:0 19:0.98423004 20:0.068223909 21:0.039929219 22:0.030380769 23:0.072429709 24:0.045771997 25:0.12952141 26:0 27:0 28:0.88175368 29:0.0093791056 30:0.12765124 31:0.3572543 32:0.27507049 33:0.025921578 34:0.046465091 35:0 36:0 37:0.96471351 38:0.0023224535 39:0.012026302 40:0.073887169 41:0.23875423 42:0.02824018 43:0.076906562 44:0 45:0 46:0.98671281 47:0.11680099 48:0.045927122 49:0.05052609 50:0.062778614 51:0.0090471683 52:0.06377735 53:0 54:0 55:0.96797031 56:0.019759499 57:0.069639817 58:0.19929561 59:0.13385892 60:0.007324297 61:0.010050362 62:0 63:0 64:0.93006939 65:0.0067369849 66:0.03578414 67:0.21154131 68:0.28699437 69:0.046689771 70:0.065932132 71:0 72:0 73:0.80666316 74:0.070685372 75:0.17601879 76:0.50604773 77:0.22598873 78:0.028464319 79:0.073118195 80:0 
1 0.6059937667966936 1 0 0.6818649723102918 1 0 0 1 1 1 1 1 1 0 0 0:0 1:0.79340976 2:0.17715347 3:0.17009494 4:0.32932925 5:0.41296169 6:0.1609292 7:0.072725043 8:0 9:0 10:0.97501463 11:0.0067570047 12:0.015355172 13:0.040962867 14:0.17377158 15:0.099079043 16:0.085863173 17:0 18:0 19:0.98522443 20:0.083915882 21:0.088591471 22:0.041831814 23:0.053845901 24:0.084491648 25:0.051504795 26:0 27:0 28:0.98233932 29:0.042752989 30:0.10862737 31:0.11509095 32:0.084138907 33:0.007451023 34:0.031617548 35:0 36:0 37:0.94529778 38:0.022925304 39:0.062968872 40:0.24932769 41:0.18090509 42:0.031069903 43:0.077861279 44:0 45:0 46:0.99811006 47:0.025436064 48:0.016534148 49:0.041754022 50:0.032926667 51:0.0049781813 52:0.0016067447 53:0 54:0 55:0.99971372 56:0.0057728672 57:0.013891123 58:0.00020185627 59:0.0087793013 60:0.0096242968 61:0.013244243 62:0 63:0 64:0.99238032 65:0.00085630635 66:0.014960674 67:0.030991321 68:0.070377804 69:0.091399528 70:0.026230069 71:0 72:0 73:0.90399039 74:0.11836832 75:0.20067367 76:0.29270467 77:0.20390029 78:0.026000736 79:0.024298795 80:0 
0 0 1 0 1 0.8793697673453292 0 0 0 0 0 0.7208553400796804 0 0 0.2638011971879642 0 0:0 1:0.813748 2:0 3:0 4:0.33315018 5:0.473602 6:0.018508509 7:0.046688251 8:0 9:0 10:0.96997476 11:0.00021757901 12:0.0024539533 13:0.026980214 14:0.24005263 15:0.011600172 16:0.025560388 17:0 18:0 19:0.99999917 20:0 21:0 22:0 23:0 24:0 25:0 26:0 27:0 28:0.96538335 29:0 30:0 31:0.15272754 32:0.21088019 33:0.0073644514 34:0.01352377 35:0 36:0 37:0.98067975 38:0 39:0 40:0.13510619 41:0.14133403 42:0 43:0.0060587255 44:0 45:0 46:0.99379748 47:0 48:0.0043502254 49:0.020040402 50:0.10879581 51:0.010022228 52:0.0024911102 53:0 54:0 55:0.99999517 56:0 57:0 58:0 59:1.6491853e-05 60:0.0015257427 61:0.0023889421 62:0 63:0 64:0.99999911 65:0 66:0 67:0 68:0 69:0 70:0 71:0 72:0 73:0.99407524 74:0.00021486776 75:0.021486936 76:0.10442653 77:0.0210572 78:0 79:0 80:0 
0 0 0 0 0.2901113018972117 0 0 0 0 0 0 0 0 0 0 0 0:0 1:0.33903924 2:0 3:0 4:0.37725902 5:0.83277714 6:0.020802142 7:0.22081801 8:0 9:0 10:0.99999666 11:0 12:0 13:0 14:0.00010446652 15:0 16:0.0022299979 17:0 18:0 19:0.99999875 20:0 21:0 22:0 23:0 24:0 25:0 26:0 27:0 28:0.47160184 29:0 30:0 31:0.54001564 32:0.68828291 33:0.023440206 34:0.10811097 35:0 36:0 37:0.95972687 38:0 39:0 40:0.13705006 41:0.24381641 42:0.0024692598 43:0.026211582 44:0 45:0 46:0.99961424 47:0.012648213 48:0.02169162 49:0.007890312 50:0.0087930951 51:0 52:0 53:0 54:0 55:0.95863956 56:0 57:0 58:0.14502628 59:0.22506376 60:0.01479142 61:0.095400043 62:0 63:0 64:0.84388119 65:0 66:0 67:0.38931805 68:0.36917689 69:0 70:0 71:0 72:0 73:0.99999899 74:0 75:0 76:0 77:0 78:0 79:0 80:0 
0.2634534471815111 0 0 0.5122932747693923 0 0.02397088867652654 0.1274444480784352 0 0.06485298757407561 0.03120359711568012 0.1078509200212281 0.03262427467719934 0.1333842090876003 0.1085762139539537 0.09208603746267946 0.2743891555063311 0:0 1:0.25669363 2:0 3:0.0099332258 4:0.61244041 5:0.74527919 6:0.057786841 7:0.011716197 8:0 9:0 10:0.99897653 11:0 12:0 13:0.0043219882 14:0.0450074 15:0 16:0 17:0 18:0 19:0.99999845 20:0 21:0 22:0 23:0 24:0 25:0 26:0 27:0 28:0.0279832 29:0 30:0.0043363185 31:0.62609518 32:0.77782482 33:0.046498474 34:0.0050641843 35:0 36:0 37:0.94055241 38:0 39:0.0024465895 40:0.21299766 41:0.26414779 42:0.01423311 43:0.0028857421 44:0 45:0 46:0.997383 47:0 48:0 49:0.0062131621 50:0.072021827 51:0 52:0 53:0 54:0 55:0.15842886 56:0 57:0.00033502243 58:0.62965101 59:0.75821286 60:0.022836912 61:0.054996923 62:0 63:0 64:0.9580673 65:0 66:0.00079928886 67:0.23877111 68:0.15839534 69:0 70:0 71:0 72:0 73:0.99999893 74:0 75:0 76:0 77:0 78:0 79:0 80:0 
0 0 0 0.8555107754628353 0 0.4097074766187692 0 0 0 0 0 0 0 0.02140579909955557 0 0 0:0 1:0.6875295 2:0.12679844 3:0.15952092 4:0.43848625 5:0.50348127 6:0.17297174 7:0.10045913 8:0 9:0 10:0.96877122 11:0.00014836925 12:0.014803809 13:0.069303833 14:0.16128178 15:0.14955974 16:0.08987876 17:0 18:0 19:0.97468054 20:0.092214175 21:0.077375218 22:0.043568898 23:0.06377434 24:0.094431631 25:0.14360501 26:0 27:0 28:0.85366863 29:0.045889996 30:0.18150266 31:0.3998073 32:0.27058336 33:0.036789443 34:0.04223283 35:0 36:0 37:0.97056526 38:0.0065384242 39:0.019488778 40:0.11325619 41:0.20452331 42:0.013082371 43:0.052445795 44:0 45:0 46:0.98879856 47:0.095727272 48:0.094709441 49:0.031986982 50:0.054134585 51:0.0083051706 52:0.010907392 53:0 54:0 55:0.98208916 56:0.014957582 57:0.088280194 58:0.11041445 59:0.11908596 60:0.013551792 61:0.030423237 62:0 63:0 64:0.60243767 65:0.016307451 66:0.068318903 67:0.37520957 68:0.57423776 69:0.34057674 70:0.21356097 71:0 72:0 73:0.94197851 74:0.10494236 75:0.19314934 76:0.19069113 77:0.16389507 78:0.03085166 79:0.013342259 80:0 
0.8196013865325867 1 1 0 1 1 0 1 1 1 1 1 1 1 1 1 0:0 1:0.94022471 2:0.029831404 3:0.045577373 4:0.20613627 5:0.24039252 6:0.077751361 7:0.081734382 8:0 9:0 10:0.92070276 11:0.039959274 12:0.046720125 13:0.23100337 14:0.30035722 15:0.045078482 16:0.053993046 17:0 18:0 19:0.99999881 20:0 21:0 22:0 23:0 24:0 25:0 26:0 27:0 28:0.98770624 29:0.016713854 30:0.019150332 31:0.10450044 32:0.10499354 33:0.034160238 34:0.02602287 35:0 36:0 37:0.98792541 38:0.029208386 39:0.012920013 40:0.11810227 41:0.092113346 42:0.011037833 43:0.020660354 44:0 45:0 46:0.95651954 47:0.040953778 48:0.04274758 49:0.1880794 50:0.21262391 51:0.028622841 52:0.012679983 53:0 54:0 55:0.99999934 56:0 57:0 58:0 59:0 60:0 61:2.4473535e-05 62:0 63:0 64:0.99473226 65:0.028899172 66:0.032742143 67:0.067392811 68:0.060453787 69:0.016857849 70:0.010853832 71:0 72:0 73:0.99768162 74:0.028332407 75:0.0070005739 76:0.020308774 77:0.050637219 78:0.00061353511 79:0.028224325 80:0 
0 0 0 0 0 1 0 0 0.7373868628830299 0 1 0 0.3544849692896928 0.2940228159938655 0.6615912486840868 0 0:0 1:0.63667893 2:0.13560438 3:0.19451694 4:0.3544983 5:0.6049605 6:0.15208685 7:0.15373611 8:0 9:0 10:0.96235466 11:0 12:0.012264056 13:0.017402017 14:0.2203016 15:0.11624413 16:0.10664436 17:0 18:0 19:0.96225393 20:0.064483158 21:0.1354101 22:0.11232569 23:0.13092522 24:0.12949775 25:0.071015559 26:0 27:0 28:0.76382649 29:0.096759722 30:0.22236341 31:0.41389281 32:0.42281979 33:0.03348 34:0.080955803 35:0 36:0 37:0.96559042 38:0 39:0.0089452611 40:0.065657809 41:0.24343365 42:0.013070786 43:0.061738335 44:0 45:0 46:0.97485334 47:0.19785573 48:0.072204545 49:0.041854952 50:0.053322196 51:0.010447363 52:0.024374295 53:0 54:0 55:0.99102682 56:0.024191691 57:0.0772397 58:0.053457208 59:0.084519453 60:0.0058185845 61:0.035747185 62:0 63:0 64:0.6732356 65:0.015934987 66:0.016137527 67:0.26642513 68:0.51519358 69:0.37706426 70:0.26010001 71:0 72:0 73:0.95078135 74:0.085621916 75:0.18535894 76:0.17995265 77:0.14408158 78:0.026982788 79:0.021287784 80:0 
0.6579138485240482 0.09913639984522918 0.1273849183997968 0.9545425459039533 0.2333935080574843 0.1875599754009019 0.3545237045377363 0 0.2107638193296539 0.1710546072284767 0.1100155315057899 0.3060792638883412 0.2146031185829877 0 0.04650919787857452 0.05714813029660183 0:0 1:0.6597383 2:0 3:0.0020436198 4:0.004928058 5:0.74856853 6:0.019455709 7:0.063081473 8:0 9:0 10:0.29617801 11:0 12:0.013138546 13:0.041012321 14:0.9447785 15:0.12443892 16:0.048255932 17:0 18:0 19:0.72904551 20:0.11907011 21:0.11794941 22:0.13477121 23:0.61983925 24:0.14203364 25:0.13364275 26:0 27:0 28:0.054914631 29:0.06956514 30:0.049981892 31:0.64776796 32:0.74877483 33:0.067857936 34:0.069068983 35:0 36:0 37:0.010838481 38:3.7404153e-11 39:0.028685689 40:0.13820668 41:0.98740202 42:0.031685732 43:0.063163318 44:0 45:0 46:0.24564694 47:0.20830281 48:0.1764738 49:0.44764435 50:0.81531346 51:0 52:0.00022249274 53:0 54:0 55:0.1975031 56:0.0092991991 57:0.015464555 58:0.16123821 59:0.96585387 60:0.0043343636 61:0.042109925 62:0 63:0 64:0.0033457926 65:0.0006116674 66:0.027593272 67:0.24332865 68:0.96915084 69:0.021321164 70:0.017555345 71:0 72:0 73:0.087795444 74:0.010171854 75:0.16519634 76:0.38261664 77:0.90397966 78:0.026366461 79:0.025012698 80:0 
0.2813590251227702 1 1 0.7678388347263991 1 1 1 1 1 1 1 1 0.4415244221489709 0.876677593470343 1 1 0:0 1:0.97864527 2:0 3:0 4:0.16376695 5:0.12416197 6:1.7929797e-05 7:0.003989025 8:0 9:0 10:0.98505491 11:0.0014843947 12:0.00043920078 13:0.10682835 14:0.13427533 15:0.0074747531 16:0.012841358 17:0 18:0 19:0.99999857 20:0 21:0 22:0 23:0 24:0 25:0 26:0 27:0 28:0.99999917 29:0 30:0 31:0 32:0 33:0 34:0.00079264998 35:0 36:0 37:0.99613541 38:0 39:0.0074155726 40:0.070917316 41:0.05127028 42:0 43:0 44:0 45:0 46:0.98686945 47:0 48:0 49:0.07877852 50:0.13348833 51:0.04528207 52:0 53:0 54:0 55:0.99999923 56:0 57:0 58:0 59:0 60:0 61:0 62:0 63:0 64:0.99999923 65:0 66:0 67:0 68:0 69:0 70:0 71:0 72:0 73:0 74:0 75:0 76:0 77:0 78:0 79:0 80:0 
0 1 1 0 1 1 0 1 1 1 1 1 0.7066436690484369 1 1 1 0:0 1:0.93500108 2:0.019199423 3:0.0041458313 4:0.20457143 5:0.28332353 6:0.052505858 7:0.022445755 8:0 9:0 10:0.99580544 11:0.015525799 12:0.014952666 13:0.04431178 14:0.075784586 15:0.014087216 16:1.6933753e-05 17:0 18:0 19:0.99999845 20:0 21:0 22:0 23:0 24:0 25:0 26:0 27:0 28:0.99229044 29:0 30:0 31:0.10757917 32:0.061497975 33:0 34:0.0015712472 35:0 36:0 37:0.98766935 38:0.0087994253 39:0.024317428 40:0.10437108 41:0.11336821 42:0.007527899 43:0.0059971036 44:0 45:0 46:0.97740889 47:0.042625453 48:0.041051939 49:0.12147024 50:0.16250315 51:0.0016929359 52:4.6490932e-05 53:0 54:0 55:0.99999893 56:0 57:0 58:0 59:0 60:0 61:0 62:0 63:0 64:0.99999893 65:0 66:0 67:0 68:0 69:0 70:0 71:0 72:0 73:0.9999873 74:0 75:0 76:0 77:0 78:0 79:0 80:0 
0.1934334897124235 0 0 0.6109334682700676 0 0 0 0 0 0 0 0 0 0 0 0 0:0 1:0.0008510598 2:0.00037101237 3:0.0013007883 4:0.85859603 5:0.51263744 6:0.002355254 7:0.0011666913 8:0 9:0 10:0.93251318 11:0 12:0.0090455944 13:0.11108935 14:0.34151873 15:0.035814833 16:0.008781 17:0 18:0 19:0.99999934 20:0 21:0 22:0 23:0 24:0 25:0 26:0 27:0 28:0.37497506 29:0.01563297 30:0.014215574 31:0.68956172 32:0.61891866 33:0 34:0.019721363 35:0 36:0 37:0.81246543 38:8.1126069e-05 39:0.0038258268 40:0.37222245 41:0.44730967 42:0.030937735 43:0.017066004 44:0 45:0 46:0.82449144 47:0.0099914838 48:0.032486729 49:0.26225549 50:0.49948698 51:0.027081082 52:0.0076491367 53:0 54:0 55:0.98693186 56:0.011032125 57:0.02111779 58:0.10237227 59:0.1214866 60:0 61:0.01252214 62:0 63:0 64:0.83180958 65:0 66:0.0035634951 67:0.42083412 68:0.36190596 69:0 70:0 71:0 72:0 73:0.99999261 74:0 75:0 76:0.0036327862 77:0.00061508542 78:0 79:0 80:0 
0 0 0 0 1 0 0 0 0 0 0 0 0 0 0 0 0:0 1:0.74656248 2:0.071837693 3:0.055247121 4:0.51205099 5:0.39794251 6:0.039586451 7:0.11093394 8:0 9:0 10:0.86478406 11:0.043093551 12:0.048638009 13:0.33688191 14:0.35988942 15:0.052695192 16:0.046228785 17:0 18:0 19:0.99998409 20:0 21:0 22:0.00049122993 23:0.0055296398 24:0 25:0 26:0 27:0 28:0.99483407 29:0.0037014128 30:0.0096176304 31:0.075817645 32:0.057671402 33:0.025194645 34:0.022102343 35:0 36:0 37:0.98734093 38:0.022061951 39:0.0026773 40:0.12093022 41:0.099530615 42:0.00553597 43:0.010079376 44:0 45:0 46:0.99086964 47:0.012519009 48:0.015426662 49:0.099491216 50:0.087272041 51:0.01625935 52:0.0012709467 53:0 54:0 55:0.99999028 56:0 57:0 58:0.0041672965 59:0 60:0 61:0 62:0 63:0 64:0.99999923 65:0 66:0 67:0 68:4.6104338e-05 69:0 70:0 71:0 72:0 73:0.99962592 74:0 75:0 76:0 77:0.021560902 78:0.014352287 79:0.0086373491 80:0 
0.4493218412841271 0.02047862554079644 0.1909927714228846 0.6118999490130465 0 0.11681257434112 0.4217894580408232 0.09789066846893388 0.1785306095251723 0.08659924077074334 0.2928656789656949 0.1202109716367667 0.2525181643209815 0.3084742484878685 0.4367375443343103 0.4708406492075005 0:0 1:0.010953862 2:0 3:0.0040529436 4:0.14829165 5:0.98865443 6:0.016009226 7:0.013163479 8:0 9:0 10:0.88018698 11:0 12:2.5948781e-05 13:0.44973403 14:0.14727488 15:0.026766565 16:0.024523238 17:0 18:0 19:0.99999905 20:0 21:0 22:0 23:0 24:0 25:0 26:0 27:0 28:0.2109099 29:0.0001509069 30:0.0024554252 31:0.13273758 32:0.96744794 33:0.038694128 34:0.020866832 35:0 36:0 37:0.83932811 38:0.0058527626 39:0.0094621107 40:0.087294124 41:0.5343163 42:0.045185275 43:0.015699858 44:0 45:0 46:0.048948001 47:0.032021157 48:0.064904973 49:0.96952546 50:0.22675063 51:0.030964602 52:0.0030196423 53:0 54:0 55:0.83085805 56:0 57:0 58:0.089379363 59:0.54142648 60:0.092382282 61:0.0013735474 62:0 63:0 64:0.72356176 65:0.00052497938 66:0.0079358071 67:0.13234858 68:0.67739689 69:0.00023198201 70:0.00047682112 71:0 72:0 73:0.99999887 74:0 75:0 76:0 77:0 78:0 79:0 80:0 
0 0 0 0 0.6466360211578279 0 0 0 0 0 0 0 0 0 0 0 0:0 1:0.057499632 2:0 3:0 4:0.74291378 5:0.66657466 6:0.021062121 7:0 8:0 9:0 10:0.96706003 11:0 12:0 13:0.12933679 14:0.21909755 15:0.0073767696 16:0.0026221082 17:0 18:0 19:0.99999911 20:0 21:0 22:0 23:0 24:0 25:0 26:0 27:0 28:0.56296176 29:0 30:0 31:0.61271244 32:0.55059695 33:0.040350523 34:0.053555001 35:0 36:0 37:0.93226796 38:0 39:0 40:0.25424448 41:0.25727981 42:0.0064030443 43:0 44:0 45:0 46:0.90792751 47:0.0057719406 48:0.027632086 49:0.10474074 50:0.40302521 51:0.038237102 52:0.0024451965 53:0 54:0 55:0.98635072 56:0 57:0 58:0.00091854 59:0.13937983 60:0.046107221 61:0.074522503 62:0 63:0 64:0.81606907 65:0 66:0 67:0.48869094 68:0.30854622 69:0 70:0 71:0 72:0 73:0.99999845 74:0 75:0 76:0 77:0 78:0 79:0 80:0 
0 1 1 1 1 1 1 1 1 1 1 1 1 1 1 1 0:0 1:0.99999917 2:0 3:0 4:0 5:5.2619765e-05 6:0 7:0 8:0 9:0 10:0.96769595 11:0.0043099779 12:0.0043113921 13:0.17055903 14:0.17561553 15:0.056943316 16:0.018744901 17:0 18:0 19:0.99999756 20:0 21:0 22:0 23:0 24:0 25:0 26:0 27:0 28:0.99999934 29:0 30:0 31:0 32:0 33:0 34:0 35:0 36:0 37:0.9999994 38:0 39:0 40:0 41:3.8317907e-05 42:0 43:0 44:0 45:0 46:0.97110027 47:0.016934518 48:0.060372718 49:0.020439828 50:0.10302085 51:0.2047739 52:0.0061980477 53:0 54:0 55:0.99999923 56:0 57:0 58:0 59:0 60:0 61:0 62:0 63:0 64:0.99999923 65:0 66:0 67:0 68:0 69:0 70:0 71:0 72:0 73:0.99996877 74:0 75:0 76:0 77:0 78:0 79:0 80:0 
0.9153659148243105 1 1 0.728019722022018 1 1 0.6215300425340208 1 1 1 1 1 1 1 1 1 0:0 1:0.99096769 2:0 3:0 4:0 5:0.093797915 6:0.08113841 7:0.050935823 8:0 9:0 10:0.96969694 11:0.003414165 12:0.0035610015 13:0.13390787 14:0.20385548 15:8.1563994e-05 16:0.013161028 17:0 18:0 19:0.99999905 20:0 21:0 22:0 23:0 24:0 25:0 26:0 27:0 28:0.99470592 29:0 30:0 31:0.051847212 32:0.084501036 33:0 34:0.027008515 35:0 36:0 37:0.99805993 38:0.002221833 39:0.013905611 40:0.021375567 41:0.05009805 42:0.026023164 43:0.0057118265 44:0 45:0 46:0.84723639 47:0.047572266 48:0.022186153 49:0.36250898 50:0.38317367 51:0.034600053 52:0 53:0 54:0 55:0.99999887 56:0 57:0 58:0 59:0 60:0 61:0 62:0 63:0 64:0.99908024 65:0 66:0 67:0.032018106 68:0.022740763 69:0 70:0.017176097 71:0 72:0 73:0.99739003 74:0 75:0 76:0.025921643 77:0.060640525 78:0.029346522 79:0 80:0 
0.318976923395351 0.03396806495035957 0.0624669611671331 0.1873110390349091 0.02200317307629938 0.05773305715349913 0.8082809051302803 0.7988450542150072 0.07140952630689601 0.04008350170469384 0.4870442055847393 0.08097121671952713 0.04394675807823609 0.4242629428978583 1 0.7872324535118006 0:0 1:0.61070663 2:0 3:0 4:0.080708951 5:0.78592581 6:0.050298527 7:0.017484199 8:0 9:0 10:0.31290278 11:0 12:0 13:0.031104123 14:0.94613004 15:0.076026924 16:0.01329631 17:0 18:0 19:0.77270728 20:0.077796213 21:0.065208882 22:0.063246675 23:0.6071288 24:0.12504023 25:0.066116773 26:0 27:0 28:0.16792719 29:0.021732762 30:0.044062044 31:0.25769979 32:0.9501276 33:0.0011476997 34:0.01512433 35:0 36:0 37:0.15902515 38:5.3272048e-10 39:1.5981614e-09 40:0.075443335 41:0.98344254 42:0.041964967 43:0.0097497366 44:0 45:0 46:0.35124624 47:0.10163499 48:0.099665247 49:0.28444219 50:0.87997359 51:0.0028932893 52:0.033009235 53:0 54:0 55:0.32472259 56:2.414182e-09 57:4.8283635e-09 58:0.064481057 59:0.94360638 60:0 61:4.6342033e-05 62:0 63:0 64:0.13046059 65:0.0017993938 66:0.026595471 67:0.18344584 68:0.97378129 69:0.0010580654 70:0.019010767 71:0 72:0 73:0.28524521 74:0.0047289105 75:0.10169238 76:0.18717897 77:0.93416196 78:0.023554647 79:0.0041257022 80:0 
0 0 0 0 0.5487065386928723 1 0 0 0.08151426324736182 0.9652957584519718 0 0.2939811472483889 0 0 0 0 0:0 1:0.51846701 2:0.23450549 3:0.22705245 4:0.49076512 5:0.54621643 6:0.23250388 7:0.17714764 8:0 9:0 10:0.97691697 11:0 12:4.0168448e-05 13:0.014736017 14:0.13949548 15:0.094690174 16:0.13034172 17:0 18:0 19:0.98546445 20:0.099063635 21:0.03249608 22:0.005781664 23:0.034561731 24:0.029963769 25:0.12594698 26:0 27:0 28:0.98260111 29:0.015185787 30:0.11369439 31:0.12973027 32:0.061305378 33:0.0036613408 34:0.027103459 35:0 36:0 37:0.95962226 38:0.00015657285 39:0.010220272 40:0.1000163 41:0.22098231 42:0.098692387 43:0.10217822 44:0 45:0 46:0.99723947 47:0.054295525 48:0.032382779 49:0.017828729 50:0.016650304 51:0.00085806637 52:0.030320652 53:0 54:0 55:0.99876988 56:0.013705064 57:0.0014620041 58:0.00086234411 59:0.037299186 60:0.0015274922 61:0.029547507 62:0 63:0 64:0.97907162 65:0.0071871872 66:0.030505074 67:0.053492587 68:0.16094173 69:0.073738307 70:0.078952245 71:0 72:0 73:0.87259561 74:0.11091879 75:0.23795983 76:0.33418468 77:0.22736183 78:0.065713093 79:0.044213027 80:0 
1 0 0 0 0 0 0.4247892035602591 0 0 0.05735765400524423 0 0 0 0 0 0 0:0 1:0.2911205 2:0 3:0.00089979463 4:0.54823714 5:0.73686552 6:0.26073059 7:0.061020542 8:0 9:0 10:0.99360865 11:0 12:0 13:0.045247354 14:0.097128153 15:0.035100374 16:0.0051885168 17:0 18:0 19:0.99968803 20:0.00011071858 21:0 22:0.0023675153 23:0.022215743 24:0.0077418727 25:0.0079505229 26:0 27:0 28:0.98688585 29:0.019812701 30:0.01859121 31:0.13149707 32:0.088880658 33:0.0012161941 34:0.011108777 35:0 36:0 37:0.89711535 38:0 39:0.00021206021 40:0.23701519 41:0.36126924 42:0.091950648 43:0.0059394902 44:0 45:0 46:0.99850702 47:0.040193014 48:0.033909824 49:0.010798922 50:0.010018948 51:0.000112105 52:0 53:0 54:0 55:0.99848711 56:0.016155597 57:0.021449462 58:0.026593467 59:0.036953107 60:0 61:0.015090404 62:0 63:0 64:0.9700051 65:0.011721947 66:0.018577013 67:0.15454075 68:0.13695557 69:0.1166117 70:0.04865323 71:0 72:0 73:0.66890031 74:0.17882068 75:0.24458876 76:0.35178074 77:0.5286172 78:0.21033415 79:0.11551009 80:0 
0.2078229922236534 0 0 0 0 0 1 0 0 0.7900134652501237 0 0 0 0 0 0 0:0 1:0.22000115 2:0.25249192 3:0.38643256 4:0.40966386 5:0.63506109 6:0.33627388 7:0.23303336 8:0 9:0 10:0.98295224 11:0 12:0.027831079 13:0.024066554 14:0.12529844 15:0.10946482 16:0.069045395 17:0 18:0 19:0.99547601 20:0.026663035 21:0.0055596838 22:0.018472603 23:0.030138155 24:0.0054618786 25:0.08369565 26:0 27:0 28:0.92521912 29:0.060167614 30:0.15674488 31:0.27362907 32:0.19091715 33:0.043908373 34:0.050281152 35:0 36:0 37:0.96638876 38:0.0065866099 39:0.0093021486 40:0.12621187 41:0.22090004 42:0.012450936 43:0.032856714 44:0 45:0 46:0.99675649 47:0.065686397 48:0.027565258 49:0.028716637 50:0.0072400244 51:0.018832076 52:0.012996216 53:0 54:0 55:0.99575067 56:0.02385756 57:0.017161421 58:0.068509802 59:0.040807094 60:0.015623285 61:0.031821039 62:0 63:0 64:0.68684167 65:0.00075928163 66:0.059438121 67:0.30660358 68:0.59966964 69:0.23955505 70:0.11711527 71:0 72:0 73:0.87846869 74:0.093632929 75:0.16979201 76:0.29132962 77:0.29186329 78:0.12663871 79:0.067815267 80:0 
0 1 1 0 1 1 0 1 1 1 1 1 0.4733310631894052 1 1 1 0:0 1:0.93847263 2:0 3:0 4:0.183645 5:0.29154071 6:0.01699874 7:0.016025042 8:0 9:0 10:0.96118855 11:0.01481859 12:0 13:0.14200485 14:0.23262127 15:0.038969632 16:0.0099430289 17:0 18:0 19:0.99999917 20:0 21:0 22:0 23:0.00019940041 24:0 25:0 26:0 27:0 28:0.99999917 29:0 30:0 31:0 32:0 33:0.00037807348 34:0.00062897697 35:0 36:0 37:0.99734133 38:0 39:0 40:0.051245909 41:0.05179647 42:0 43:0 44:0 45:0 46:0.99912727 47:0 48:0 49:0.015500131 50:0.038750328 51:0 52:0 53:0 54:0 55:0.99999923 56:0 57:0 58:0 59:0 60:0 61:0 62:0 63:0 64:0.99999917 65:0 66:0 67:0 68:0 69:0 70:0 71:0 72:0 73:0.9999944 74:0 75:0 76:0 77:0 78:0 79:0 80:0 
-1 0.2014073636576307 0.2804223441122362 1 0.3347766011361566 0.6610531135550559 1 0.5704512212180542 0.4908363733639715 0.3124634304789669 0.8316587583510999 0.4524814145095774 0.6137390672475874 0.7237799342945451 0.9604634909450251 0.8995828488837707 0:0 1:0.81862605 2:0.061397329 3:0.037451696 4:0.044094611 5:0.5570727 6:0.037363712 7:0.10481554 8:0 9:0 10:0.31558391 11:0.01072021 12:0.05487993 13:0.39090824 14:0.72527778 15:0.3622143 16:0.29535267 17:0 18:0 19:0.99504721 20:0.047527775 21:0.033141226 22:2.1958554e-08 23:0.025522936 24:0.014985511 25:0.075114585 26:0 27:0 28:0.31653243 29:0.00095744291 30:0.19302942 31:0.54162651 32:0.75240928 33:0.053217851 34:0.014547491 35:0 36:0 37:0.0035787891 38:0.097136773 39:0.040009677 40:0.47401258 41:0.86737305 42:0.050321836 43:0.096870117 44:0 45:0 46:0.39119357 47:0.30933163 48:0.4562625 49:0.46922037 50:0.56622279 51:0.015787277 52:0.04550834 53:0 54:0 55:0.99478894 56:0 57:0.014115429 58:0.058319271 59:0.082377002 60:1.1588315e-09 61:0 62:0 63:0 64:0.31626749 65:0.00068320747 66:0.13774276 67:0.38649622 68:0.75827092 69:0.37491474 70:0.12676631 71:0 72:0 73:0.36757308 74:0.13630101 75:0.43528351 76:0.43208623 77:0.66650355 78:0.15432383 79:0.045702629 80:0 
-0.7394659753490598 0 0.7793727139909689 0 0 1 0 0 0 0 1 0 1 0.4099044387024915 0 0 0:0 1:0.80467886 2:0.25730062 3:0.180042 4:0.26033768 5:0.37762606 6:0.15587328 7:0.13855101 8:0 9:0 10:0.82992917 11:0.0091160806 12:0.0094864322 13:0.21220599 14:0.37818888 15:0.24717969 16:0.24876928 17:0 18:0 19:0.99283993 20:0.079149663 21:0.024082214 22:0.018035248 23:0.042327318 24:0.037866749 25:0.062223051 26:0 27:0 28:0.98102951 29:0.028202634 30:0.065526761 31:0.12696949 32:0.12244587 33:0.023652533 34:0.028580241 35:0 36:0 37:0.71239555 38:0.022928856 39:0.086874634 40:0.42291331 41:0.52168083 42:0.081414834 43:0.16365269 44:0 45:0 46:0.879664 47:0.17958388 48:0.18208565 49:0.33795306 50:0.21082638 51:0.037247922 52:0.027130371 53:0 54:0 55:0.99350762 56:0.011668281 57:0.012364076 58:0.052454896 59:0.098355114 60:0.01153079 61:0.0097028399 62:0 63:0 64:0.98462242 65:0.0078883599 66:0.020773672 67:0.080588326 68:0.11877254 69:0.073199272 70:0.06374912 71:0 72:0 73:0.85599238 74:0.16591761 75:0.19157049 76:0.33804309 77:0.28275681 78:0.053156089 79:0.077437602 80:0 
-0 0 0 0 0 0 0.01471529408971807 0 0 0 0 0 0 0 0 0 0:0 1:0.62016541 2:0.023095574 3:0.010953459 4:0.56846642 5:0.53259879 6:0.082379408 7:0.033618756 8:0 9:0 10:0.92145407 11:0.030459765 12:0.030110672 13:0.26619568 14:0.27680948 15:0.039696641 16:0.0050779963 17:0 18:0 19:0.33653843 20:0.084076986 21:0.018479889 22:0.71308267 23:0.60707217 24:0 25:0.047995519 26:0 27:0 28:0.89848608 29:0.0095216436 30:0.002680867 31:0.3469505 32:0.26467198 33:0.046777118 34:0.0028278306 35:0 36:0 37:0.059878837 38:0.023071719 39:0.023349358 40:0.73790455 41:0.67086023 42:0.027895058 43:0.00026633684 44:0 45:0 46:0.95163476 47:0.025038192 48:0.024751233 49:0.21413374 50:0.21747701 51:0 52:0 53:0 54:0 55:0.48077208 56:0 57:0.00091941899 58:0.74511909 59:0.46180362 60:0 61:0.019691916 62:0 63:0 64:0.93683332 65:0 66:0.00021923562 67:0.27638349 68:0.21356802 69:0.018488672 70:0 71:0 72:0 73:0.056399811 74:0.0222605 75:0.017761724 76:0.69247276 77:0.71665728 78:0 79:0.053729504 80:0 
-0 0 0 0 0 0 0 0 0 0 0 0 0.1398533494929504 0 0 0 0:0 1:0.23024552 2:0.14543958 3:0.2097735 4:0.67265868 5:0.64479131 6:0.04947779 7:0.10557318 8:0 9:0 10:0.97154993 11:0.0095726922 12:0.018349776 13:0.16140915 14:0.16572672 15:0.025231758 16:0.038803555 17:0 18:0 19:0.97944474 20:0.031620491 21:0.012096996 22:0.078428499 23:0.17650273 24:0.028455539 25:0.037763577 26:0 27:0 28:0.98585665 29:0.016779389 30:0.0084910495 31:0.14317539 32:0.08255557 33:0.020156231 34:0.0032184212 35:0 36:0 37:0.077535033 38:0.060880013 39:0.075533494 40:0.78155482 41:0.60168099 42:0.048420954 43:0.096858099 44:0 45:0 46:0.95426309 47:0.10239723 48:0.04191592 49:0.19690968 50:0.19324213 51:0.016357852 52:0.027467515 53:0 54:0 55:0.99856204 56:0.025687326 57:0.0036492206 58:0.04216098 59:0.018111905 60:0.0068464782 61:0.0068205968 62:0 63:0 64:0.98292929 65:0.016403394 66:0.0092719439 67:0.13689169 68:0.094197378 69:0.061834067 70:0.045358602 71:0 72:0 73:0.27125779 74:0.26613319 75:0.27299455 76:0.53655595 77:0.59228498 78:0.23731989 79:0.29333898 80:0 
-0 0 0 0.7672316518285679 0 0 0 0 0 0 0 0 0 0 0 0 0:0 1:0.017621225 2:0 3:0 4:0.70465046 5:0.7088033 6:0.023720514 7:0.013707894 8:0 9:0 10:0.95620996 11:0.017071098 12:0.040412493 13:0.24654579 14:0.15149507 15:0 16:0 17:0 18:0 19:0.63251549 20:0 21:0.017330859 22:0.698035 23:0.33276755 24:0.040410273 25:0 26:0 27:0 28:0.95210284 29:0 30:0.0002417512 31:0.22874972 32:0.20290707 33:0 34:0 35:0 36:0 37:0.0073128454 38:0.01142293 39:0.032386672 40:0.78400636 41:0.61975729 42:0 43:0 44:0 45:0 46:0.94471395 47:0.016252898 48:0.038475562 49:0.26299962 50:0.19131145 51:0 52:0 53:0 54:0 55:0.65126044 56:0 57:0.00077255099 58:0.58124197 59:0.48608333 60:0.021295458 61:0.03580907 62:0 63:0 64:0.92631197 65:0.017420981 66:0.015449123 67:0.29086602 68:0.23832466 69:0 70:0 71:0 72:0 73:0.046218663 74:0.024306817 75:0.047767136 76:0.80548316 77:0.58765614 78:0.029063251 79:0 80:0 
-0 0 0 0.02101694777642374 0.1754386142012911 0 0 0 0 0 0 0 0 0 0 0 0:0 1:0.061346531 2:0 3:0 4:0.65230042 5:0.75318444 6:0.019905593 7:0.055253245 8:0 9:0 10:0.94003946 11:0.012788052 12:0.059422355 13:0.26592723 14:0.20396642 15:0.017582163 16:0 17:0 18:0 19:0.84125262 20:0.050196867 21:0.10353103 22:0.42757252 23:0.3100481 24:0 25:0.010245113 26:0 27:0 28:0.96604228 29:0 30:0 31:0.22926694 32:0.11792844 33:0.017015371 34:0 35:0 36:0 37:0.098000214 38:0.0064340672 39:0.032727037 40:0.80498707 41:0.58386588 42:0.019432027 43:0 44:0 45:0 46:0.95427722 47:0.0087809069 48:0.040802319 49:0.22747709 50:0.18938181 51:0 52:0 53:0 54:0 55:0.50841123 56:0 57:0 58:0.76840919 59:0.37380967 60:0.093026079 61:0.051708039 62:0 63:0 64:0.96628356 65:0 66:0 67:0.22036436 68:0.13300397 69:0.0065943189 70:0 71:0 72:0 73:0.83620715 74:0.046689868 75:0.053061433 76:0.31915936 77:0.4379704 78:0.045061309 79:0.0069548488 80:0 
-0 0 0.2114519973022397 0.2624506409172391 0 0 0 0 0 0 0 0 0 0 0 0 0:0 1:0.93020296 2:0 3:0 4:0.07200484 5:0.35735744 6:0.033839799 7:0.02617844 8:0 9:0 10:0.98536372 11:0.0014031638 12:0 13:0.12160307 14:0.11713746 15:0.021785265 16:0.0084295571 17:0 18:0 19:0.58811152 20:0.062541634 21:0.051194329 22:0.5638659 23:0.57414609 24:0 25:0 26:0 27:0 28:0.97379166 29:0 30:0 31:0.16841152 32:0.14645526 33:0.034265269 34:0.027231645 35:0 36:0 37:0.58888078 38:0.0025110655 39:0 40:0.47611514 41:0.65207326 42:0.033917278 43:0.013205681 44:0 45:0 46:0.973239 47:0.0013687419 48:0 49:0.13912673 50:0.17868686 51:0.032182772 52:0.021929054 53:0 54:0 55:0.7596885 56:0 57:0 58:0.49794835 59:0.40968856 60:0.069623739 61:0.047166862 62:0 63:0 64:0.95509523 65:0 66:0 67:0.20655566 68:0.21152161 69:0.012858438 70:0.014787403 71:0 72:0 73:0.80756623 74:0.017784141 75:0.030028589 76:0.24054398 77:0.53271192 78:0.052241389 79:0.047359627 80:0 
-0.09290429457767392 0 0 0 0 0 1 0 0 0 0 0 0.2093176057827824 0 0 0 0:0 1:0.32306859 2:0.22580439 3:0.21038918 4:0.4832103 5:0.62025297 6:0.27859935 7:0.32332942 8:0 9:0 10:0.9215641 11:0.058427259 12:0.012380105 13:0.098082408 14:0.32389554 15:0.068494573 16:0.16711693 17:0 18:0 19:0.97538155 20:0.033428788 21:0.025428876 22:0.15219532 23:0.14896363 24:0.026376151 25:0.028536264 26:0 27:0 28:0.89635158 29:0.098657809 30:0.16481009 31:0.29396322 32:0.26858708 33:0.032757904 34:0.0052459245 35:0 36:0 37:0.070161343 38:0.096949033 39:0.11216178 40:0.70270085 41:0.67588753 42:0.14354727 43:0.043280143 44:0 45:0 46:0.91554236 47:0.13300711 48:0.18041487 49:0.18873413 50:0.26966774 51:0.032995824 52:0.045898065 53:0 54:0 55:0.99537915 56:0.020677615 57:0.014067519 58:0.025212321 59:0.074698702 60:0.035960607 61:0.032913029 62:0 63:0 64:0.85848439 65:0.030301543 66:0.064759851 67:0.25968525 68:0.35510805 69:0.23945104 70:0.083740994 71:0 72:0 73:0.064712875 74:0.1815003 75:0.44912612 76:0.58290684 77:0.59383106 78:0.25291651 79:0.06902913 80:0 
-1 0.3428095828528487 0.6761012073719397 1 0.2935381965260755 0.9004722291616922 0.8402898010481715 0.6064117524058585 0.7873368796126812 0.5134028655550085 0.9580092733890174 0.5491129087126009 1 1 0.6978575453893513 0.8297997184148026 0:0 1:0.99134892 2:0 3:0 4:0.0067363419 5:0.13100785 6:0.0041487482 7:0.00022324958 8:0 9:0 10:0.93183732 11:0 12:0.0058982815 13:0.25787702 14:0.25321385 15:0.032001369 16:0 17:0 18:0 19:0.45744869 20:0.046823595 21:0.070807941 22:0.67885035 23:0.56767303 24:0.0014630452 25:0.020926164 26:0 27:0 28:0.9728741 29:0 30:0 31:0.16674587 32:0.15319283 33:0.047159135 34:0.0041923407 35:0 36:0 37:0.89743757 38:0 39:0 40:0.29386738 41:0.32864675 42:0.015141141 43:0.0028622304 44:0 45:0 46:0.91388458 47:0.0049922094 48:0.0052977838 49:0.30850244 50:0.26379141 51:0 52:0 53:0 54:0 55:0.21624637 56:0 57:0 58:0.69707197 59:0.6776247 60:0.071799345 61:0.054717496 62:0 63:0 64:0.94934636 65:0.0037978173 66:0.0036728813 67:0.23060137 68:0.2124573 69:0.019518241 70:0.0039275498 71:0 72:0 73:0.98905045 74:0.025007514 75:0.017321955 76:0.031596944 77:0.14086653 78:0.00053029414 79:0.0032014409 80:0 
-1 1 1 0.6891878698051933 0.9356583984168418 1 1 1 1 1 1 1 1 1 1 1 0:0 1:0.82474053 2:0.03555287 3:0.14983229 4:0.25878009 5:0.38410035 6:0.15706556 7:0.23857144 8:0 9:0 10:0.97942621 11:0.038286284 12:0.0027146933 13:0.094174698 14:0.15701488 15:0.07463906 16:0.012491446 17:0 18:0 19:0.98860335 20:0.030655848 21:0.0028122305 22:0.1026306 23:0.10563437 24:0.00085503008 25:0.0046766037 26:0 27:0 28:0.96424872 29:0.12024576 30:0.12195726 31:0.16614248 32:0.11405265 33:0.0046101678 34:0.016046103 35:0 36:0 37:0.95028478 38:0.0024045671 39:0.012238013 40:0.2179255 41:0.21245962 42:0.053466808 43:0.036210503 44:0 45:0 46:0.99267399 47:0.039466564 48:0.027534727 49:0.091036551 50:0.058927905 51:0.020626161 52:0.0097678062 53:0 54:0 55:0.99660766 56:0.028506676 57:0.02952363 58:0.022380942 59:0.031667575 60:0.033659559 61:0.0495065 62:0 63:0 64:0.93680948 65:0.0091200201 66:0.033542484 67:0.10278236 68:0.28994769 69:0.10382502 70:0.12555657 71:0 72:0 73:0.67859447 74:0.020595632 75:0.075047761 76:0.30967093 77:0.55233449 78:0.31889129 79:0.17546582 80:0 
-1 1 1 0 1 1 0.6861733576247275 0.9257788089620067 1 1 1 1 1 1 1 1 0:0 1:0.74525917 2:0.25943273 3:0.20767935 4:0.35534498 5:0.41716215 6:0.14212783 7:0.1168524 8:0 9:0 10:0.98171079 11:0 12:0.052998185 13:0.014550007 14:0.070686936 15:0.075046763 16:0.15030889 17:0 18:0 19:0.99859768 20:0.025991032 21:0.014991478 22:0.01029415 23:0.022750745 24:0.011721075 25:0.033765819 26:0 27:0 28:0.99014229 29:0.016015306 30:0.066027053 31:0.10390947 32:0.063233122 33:0.0036773107 34:0.013841593 35:0 36:0 37:0.77086127 38:0.029734582 39:0.095336035 40:0.41632408 41:0.46824002 42:0.026448729 43:0.050230283 44:0 45:0 46:0.974316 47:0.1372335 48:0.12477615 49:0.073299021 50:0.099954575 51:0.001475535 52:0.030630901 53:0 54:0 55:0.99576551 56:0.006323271 57:0.0001253322 58:0.05464007 59:0.072978936 60:0.00076693867 61:0.0098820841 62:0 63:0 64:0.99253571 65:0 66:0.00059933012 67:0.067326315 68:0.072516114 69:0.056817431 70:0.043027136 71:0 72:0 73:0.82696944 74:0.18392566 75:0.22962359 76:0.35385084 77:0.31993592 78:0.032772463 79:0.030324001 80:0 
-0.3158541027836295 0.7516442099287165 1 0.7609969290258313 0.6387775493560713 0 0.5473100115319375 0 0.09463243943745696 0 0.3208276052767066 1 1 0.3309749658128633 0.5570761812951164 0.6718215446067519 0:0 1:0.94956475 2:0.016201161 3:0.022416448 4:0.2029915 5:0.1993535 6:0.098299697 7:0.083351307 8:0 9:0 10:0.99903762 11:0.016183466 12:0.014277452 13:0.022839824 14:0.028474756 15:0.003312838 16:0.010649943 17:0 18:0 19:0.99087214 20:0.008809316 21:0.032597616 22:0.081154391 23:0.1017399 24:0.0093175378 25:0.0026733482 26:0 27:0 28:0.99923271 29:0 30:0 31:0.01555296 32:0.026034486 33:0.0095909992 34:0.022830874 35:0 36:0 37:0.00046490016 38:0.10427641 39:0.14150919 40:0.81378639 41:0.53338689 42:0.11677111 43:0.093340144 44:0 45:0 46:0.99841881 47:0.015265805 48:0.013467868 49:0.027853239 50:0.038618132 51:0.0033397463 52:0.021589294 53:0 54:0 55:0.99526864 56:0.00059722678 57:0.0099954857 58:0.04607933 59:0.082473442 60:0.01568098 61:0.012957605 62:0 63:0 64:0.99880368 65:0.0051351874 66:0.016717346 67:0.021766409 68:0.03770012 69:0.0046419003 70:0.012943476 71:0 72:0 73:0.94351155 74:0.060806319 75:0.096199095 76:0.27266803 77:0.12649395 78:0.040108398 79:0.069813773 80:0 
-0 0 0 0 0 0.01364039078797023 0.05130849740424061 0 0 0 0.0246302747720542 0 0 0 0.02254222945855616 0 0:0 1:5.7417186e-05 2:0 3:0 4:0.58850151 5:0.80744272 6:0.041191079 7:0.00016064908 8:0 9:0 10:0.98996592 11:0 12:0.021645173 13:0.097605236 14:0.098718323 15:0.014987339 16:0 17:0 18:0 19:0.71044195 20:0 21:0.0377285 22:0.50759387 23:0.48566473 24:0.017824166 25:0.0023426155 26:0 27:0 28:0.98893178 29:0 30:0 31:0.0896644 32:0.11214028 33:0.037368242 34:0 35:0 36:0 37:0.046485923 38:0 39:0.070420228 40:0.65312445 41:0.74947238 42:0.06778948 43:0 44:0 45:0 46:0.97696579 47:0 48:0.031215446 49:0.15100558 50:0.14750761 51:0 52:0 53:0 54:0 55:0.72143 56:0 57:0 58:0.42284682 59:0.54837471 60:0 61:0.0044903099 62:0 63:0 64:0.96807724 65:0 66:0.010296416 67:0.1118921 68:0.22299646 69:0.021700108 70:0 71:0 72:0 73:0.079909317 74:0.00038961883 75:0.041743409 76:0.68269843 77:0.72511435 78:0 79:0.00045954381 80:0 
-0 0 0 0 0 0 0 0 0 0 0 0.09927407208118917 1 0 0 0 0:0 1:0.33528101 2:0.26763153 3:0.26514623 4:0.48397708 5:0.5884223 6:0.26734129 7:0.306115 8:0 9:0 10:0.95047617 11:0.032124866 12:0 13:0.11201888 14:0.27281147 15:0.037628818 16:0.084681645 17:0 18:0 19:0.98665416 20:0.046058387 21:0.017038621 22:0.086033486 23:0.12248927 24:0.016967867 25:0.037511103 26:0 27:0 28:0.91339612 29:0.091266282 30:0.11859085 31:0.16497593 32:0.33725306 33:0.03552331 34:0.033073157 35:0 36:0 37:0.085395016 38:0.14647633 39:0.080711327 40:0.64919806 41:0.72038364 42:0.093677573 43:0.1246932 44:0 45:0 46:0.97028416 47:0.14304157 48:0.079057544 49:0.14399783 50:0.10432023 51:0 52:0.01476074 53:0 54:0 55:0.98461783 56:0.036702912 57:0.058730986 58:0.050792392 59:0.13223065 60:0.066218279 61:0.035779499 62:0 63:0 64:0.92400849 65:0.023317201 66:0.024267985 67:0.081715055 68:0.33034927 69:0.089062504 70:0.14606087 71:0 72:0 73:0.31313363 74:0.34340945 75:0.28707188 76:0.50015908 77:0.57049865 78:0.21569924 79:0.28186688 80:0 
-0 0 0 0.424287820670172 0 0 0 0 0 0 0 0 0 0 0 0 0:0 1:0.24029875 2:0.20956208 3:0.28015888 4:0.60021174 5:0.58293015 6:0.28268886 7:0.19967929 8:0 9:0 10:0.70268494 11:0.067321412 12:0.061935883 13:0.438806 14:0.4370411 15:0.18439285 16:0.28338325 17:0 18:0 19:0.97499323 20:0.054587118 21:0.053861819 22:0.13957138 23:0.13793468 24:0.02117506 25:0.067461967 26:0 27:0 28:0.72384405 29:0.14011577 30:0.20086309 31:0.51464409 32:0.3853775 33:0.050554812 34:0.011791315 35:0 36:0 37:0.032113969 38:0.07702516 39:0.066808946 40:0.69214672 41:0.71146971 42:0.048132375 43:0.031575449 44:0 45:0 46:0.74930865 47:0.30613869 48:0.25825602 49:0.39005294 50:0.3531141 51:0.0047082226 52:0.035548061 53:0 54:0 55:0.98318434 56:0.047924884 57:0.024801513 58:0.095278025 59:0.13303238 60:0.036109123 61:0.048534513 62:0 63:0 64:0.69994342 65:0.024813691 66:0.023633342 67:0.30731556 68:0.57316035 69:0.16920386 70:0.23940989 71:0 72:0 73:0.24364537 74:0.24011306 75:0.26504084 76:0.59023356 77:0.62873948 78:0.14857557 79:0.21672204 80:0 
-0 0 0 0 0 0 0 0 0 0 0 0 0 0 0 0.8426164276042439 0:0 1:0.32586214 2:0.055399403 3:0.10451726 4:0.26923022 5:0.89695895 6:0.052854065 7:0 8:0 9:0 10:0.91647851 11:0.013118416 12:0.012085469 13:0.14087385 14:0.36265808 15:0.077087954 16:0.049377404 17:0 18:0 19:0.97915345 20:0.028470898 21:0.0088145668 22:0.065562718 23:0.18906362 24:0.010296332 25:0.014799487 26:0 27:0 28:0.96096677 29:0.055865381 30:0.05782786 31:0.19500354 32:0.17767671 33:0.02190814 34:0 35:0 36:0 37:0.32601628 38:0.025515418 39:0.057544284 40:0.38335222 41:0.85736489 42:0.087467253 43:0.0080635827 44:0 45:0 46:0.94948912 47:0.063044198 48:0.055527404 49:0.13428441 50:0.26683593 51:0.04665909 52:7.0498696e-05 53:0 54:0 55:0.99951822 56:0.00046860997 57:0.018237166 58:0.00029086141 59:0.020019434 60:0.015103437 61:2.9857885e-05 62:0 63:0 64:0.91679484 65:0.012819186 66:0.030526731 67:0.1884717 68:0.33257186 69:0.069953658 70:0.085845254 71:0 72:0 73:0.55399203 74:0.16854276 75:0.16712654 76:0.25291058 77:0.69370335 78:0.24892733 79:0.17204337 80:0 
-1 0 1 0.3184524211338701 0.4516262336106446 1 0.804019271617806 0.72540474764633 1 1 1 1 1 1 0 0 0:0 1:0.75813317 2:0.054923441 3:0.078230821 4:0.29688212 5:0.54904944 6:0.14686111 7:0.070230447 8:0 9:0 10:0.94490337 11:0 12:3.8197832e-05 13:0.082722366 14:0.22893123 15:0.15937395 16:0.15001011 17:0 18:0 19:0.98598629 20:0.064312123 21:0.04903115 22:0.02738593 23:0.10252361 24:0.040474713 25:0.091595478 26:0 27:0 28:0.96807647 29:0.03865182 30:0.031644374 31:0.19817111 32:0.1436349 33:0.018570526 34:0.0091244951 35:0 36:0 37:0.89994293 38:0.0092765111 39:0.064421654 40:0.30896363 41:0.29782879 42:0.037817456 43:0.016544066 44:0 45:0 46:0.9564957 47:0.094271928 48:0.15055391 49:0.19898255 50:0.11785795 51:0.0087203858 52:3.3052202e-05 53:0 54:0 55:0.98456275 56:0.044434808 57:0.034355346 58:0.091909625 59:0.13328107 60:0.011148785 61:0.0338271 62:0 63:0 64:0.96533734 65:0.0046709613 66:0.025973625 67:0.17383245 68:0.18852648 69:0.039987609 70:0.0081796078 71:0 72:0 73:0.83921981 74:0.064660244 75:0.18392384 76:0.34499401 77:0.37226295 78:0.0099193128 79:0 80:0 
-1 1 1 1 1 1 1 1 1 1 1 1 1 1 1 1 0:0 1:0.9332574 2:0.12435963 3:0.093611881 4:0.15869868 5:0.27161622 6:0.072860673 7:0.023037935 8:0 9:0 10:0.91011125 11:0.022095041 12:0.021598469 13:0.092284255 14:0.34076118 15:0.11565369 16:0.18091677 17:0 18:0 19:0.97178173 20:0.060939524 21:0.11376735 22:0.062687978 23:0.13564821 24:0.088899225 25:0.093532465 26:0 27:0 28:0.96938634 29:0.016466016 30:0.04515408 31:0.12024423 32:0.20787141 33:0.016553696 34:0.0059647942 35:0 36:0 37:0.94439209 38:0.052545089 39:0.043134298 40:0.12386417 41:0.29678047 42:0.0057135713 43:0.0068413136 44:0 45:0 46:0.91875565 47:0.14857104 48:0.15213618 49:0.22238892 50:0.24718817 51:0.0081287222 52:0.0065421709 53:0 54:0 55:0.98851383 56:0.0018005248 57:0.024337862 58:0.053153273 59:0.13888778 60:0.011146473 61:0.0020888038 62:0 63:0 64:0.97277188 65:0.0022638612 66:0.0037369775 67:0.043606181 68:0.21135086 69:0.079460159 70:0.028457811 71:0 72:0 73:0.92710602 74:0.13518722 75:0.14298671 76:0.21348503 77:0.23682864 78:0.0093727466 79:0.00043851952 80:0 
-0.3097452633473856 0 0 0 0 0.07410879119061126 0 0.02077613061587927 0 0.03079293926533794 0.2111153788946446 0.2151658247491197 0.2304253214823213 0.1410148238906044 0.09017757280413224 0 0:0 1:0.070882313 2:0.054082669 3:0.11501972 4:0.67199582 5:0.72133297 6:0.069815286 7:0.045202885 8:0 9:0 10:0.88009131 11:0.031188332 12:0.050515857 13:0.34225655 14:0.32060191 15:0.031022187 16:0.032002151 17:0 18:0 19:0.081782885 20:0.026337577 21:0.025453474 22:0.71728557 23:0.6903252 24:0.020643665 25:0.022191908 26:0 27:0 28:0.90081686 29:0.044105742 30:0.066830672 31:0.29570073 32:0.29962102 33:0.032218445 34:0.062166788 35:0 36:0 37:0.048963971 38:0.041159216 39:0.06476225 40:0.74972308 41:0.65105361 42:0.061170559 43:0.044878557 44:0 45:0 46:0.93009961 47:0.006453292 48:0.031155299 49:0.25367615 50:0.24325788 51:0.088913634 52:0.049676504 53:0 54:0 55:0.11581396 56:0.020759156 57:0.024476983 58:0.69617075 59:0.70661932 60:0.034173924 61:0.020509278 62:0 63:0 64:0.9521395 65:0.023668457 66:0.064260989 67:0.19734892 68:0.20531565 69:0.076225273 70:0.04273659 71:0 72:0 73:0.026209615 74:0.026551539 75:0.049124356 76:0.70216197 77:0.70237619 78:0.08552026 79:0.050132342 80:0 
-0 0 0 0 0 0 0.1359067247522612 0 0 0.619418417821916 0.9402671331362605 1 1 0.06993036460223975 0 0 0:0 1:0.40852845 2:0.25657052 3:0.28087205 4:0.3844398 5:0.59509838 6:0.27174228 7:0.33556244 8:0 9:0 10:0.99142271 11:0.014319684 12:0.015635308 13:0.02849525 14:0.095915899 15:0.057600908 16:0.057448544 17:0 18:0 19:0.99887198 20:0.019494725 21:0.017724272 22:0.01527218 23:0.028613042 24:0.0091808587 25:0.020571083 26:0 27:0 28:0.94322675 29:0.092121437 30:0.20313033 31:0.19827977 32:0.1449668 33:0.0096267294 34:0.012263726 35:0 36:0 37:0.13491553 38:0.080217622 39:0.12457068 40:0.64281946 41:0.72274536 42:0.07448002 43:0.13680568 44:0 45:0 46:0.98727548 47:0.10992616 48:0.071467131 49:0.054079879 50:0.061850563 51:0 52:0.03666275 53:0 54:0 55:0.99672407 56:0.043725338 57:0.029263308 58:0.010165587 59:0.033799902 60:0.021178236 61:0.045578428 62:0 63:0 64:0.95741612 65:0.0044640051 66:0.017897632 67:0.067423977 68:0.17806245 69:0.14323774 70:0.16199784 71:0 72:0 73:0.34193045 74:0.32250768 75:0.26937839 76:0.40294713 77:0.57464552 78:0.23138978 79:0.40047228 80:0 
-1 0.3227321583090305 0.5011074590806177 1 0.5696519393857891 0.6810107351962613 1 0.5870485523340097 0.6243229679187677 0.5375239907976945 0.8351726645593692 0.840680931922751 0.6885272961721765 0.7301348357883342 1 0.8578768158141408 0:0 1:0.058992628 2:0.031176239 3:0.092884846 4:0.50909871 5:0.84512651 6:0.094736896 7:0.067230836 8:0 9:0 10:0.19447181 11:0.17668174 12:0.26917547 13:0.51129472 14:0.74662095 15:0.15505202 16:0.1248843 17:0 18:0 19:0.073186882 20:0.026779007 21:0.046260122 22:0.50540638 23:0.8561666 24:0.043829974 25:0.037469033 26:0 27:0 28:0.22328597 29:0.057871826 30:0.18587241 31:0.36923385 32:0.84668386 33:0.11079887 34:0.21623312 35:0 36:0 37:0.037498079 38:0.01870046 39:0.064464763 40:0.42929086 41:0.89672744 42:0.038780246 43:0.064577192 44:0 45:0 46:0.33711073 47:0.129978 48:0.16910264 49:0.39523923 50:0.69692546 51:0.20690687 52:0.39513192 53:0 54:0 55:0.06860806 56:0.0183047 57:0.043864682 58:0.47516644 59:0.87331343 60:0.039162751 61:0.055098712 62:0 63:0 64:0.30441472 65:0.053773649 66:0.1498327 67:0.1245014 68:0.87792856 69:0.13770187 70:0.27706024 71:0 72:0 73:0.029143976 74:0.03846354 75:0.072600886 76:0.52323133 77:0.83867115 78:0.086421072 79:0.088239208 80:0 
-0 0 0.212525185173706 0 0 0 0 0 0 0 0 0 0 0 0 0 0:0 1:0.93122059 2:0.0033994482 3:0.014969636 4:0.13454491 5:0.33532181 6:0.039203592 7:0.022572061 8:0 9:0 10:0.97522855 11:0.015507133 12:0.0036798301 13:0.12717934 14:0.17875977 15:0.017469482 16:0.015457375 17:0 18:0 19:0.99209231 20:0.0082029793 21:0.0057503469 22:0.055233207 23:0.11148366 24:0.0080561433 25:0.010352705 26:0 27:0 28:0.98289388 29:0 30:0 31:0.11555806 32:0.14149459 33:0.023013027 34:0.0037988871 35:0 36:0 37:0.066921659 38:0.035780217 39:0.075365424 40:0.65640485 41:0.74448413 42:0.053279225 43:0.024418173 44:0 45:0 46:0.97375858 47:0.0137411 48:0.029782621 49:0.14433001 50:0.17271 51:0 52:0.0075547285 53:0 54:0 55:0.99667972 56:0.0024222031 57:0.0028587705 58:0.049670678 59:0.064203672 60:0.0019141805 61:0.0046402235 62:0 63:0 64:0.97266692 65:0 66:0.023846697 67:0.15962313 68:0.16539091 69:0.018495664 70:0.013160355 71:0 72:0 73:0.94526535 74:0.031397663 75:0.082508989 76:0.22351441 77:0.21943556 78:0.013895753 79:0.019328728 80:0 
-0 0 0 0.1047756196192202 0 0 0 0 0 0 0 0 0 0 0.1720107729168379 0 0:0 1:0.3028169 2:0.25489619 3:0.22756922 4:0.50450057 5:0.62583715 6:0.28337651 7:0.25503394 8:0 9:0 10:0.69048357 11:0.030551039 12:0.017493192 13:0.31708065 14:0.59880757 15:0.13959636 16:0.20830894 17:0 18:0 19:0.95406437 20:0.078578383 21:0.042971492 22:0.14170092 23:0.24086091 24:0.019319801 25:0.057201345 26:0 27:0 28:0.6754868 29:0.14496319 30:0.11561137 31:0.41992524 32:0.57420629 33:0.030905534 34:0.048267741 35:0 36:0 37:0.052776206 38:0.048290297 39:0.088515647 40:0.70214587 41:0.69740278 42:0.058508754 43:0.065135315 44:0 45:0 46:0.82436967 47:0.23603837 48:0.13681254 49:0.32525903 50:0.3742342 51:0.011665304 52:0 53:0 54:0 55:0.94708019 56:0.062766209 57:0.08668831 58:0.083300397 59:0.26351252 60:0.088813432 61:0.085540973 62:0 63:0 64:0.61707371 65:0.0052156989 66:0.041938178 67:0.27483177 68:0.69640088 69:0.13934897 70:0.19366698 71:0 72:0 73:0.30266342 74:0.25630105 75:0.31682292 76:0.55869484 77:0.56253737 78:0.26546916 79:0.20799488 80:0 
-1 0 1 0 0 0.4037176019748944 0 0 0 0 0 0 0 0 0 0 0:0 1:0.84718442 2:0.02833496 3:0.06562914 4:0.2766633 5:0.42145273 6:0.14564933 7:0.042280249 8:0 9:0 10:0.89295793 11:0.01591645 12:0.028655831 13:0.14383721 14:0.36401755 15:0.11418809 16:0.18791774 17:0 18:0 19:0.9846676 20:0.054901842 21:0.046243526 22:0.059492588 23:0.12816562 24:0.055213936 25:0.047550451 26:0 27:0 28:0.9413656 29:0.025812177 30:0.068766847 31:0.18171981 32:0.27243194 33:0.029180074 34:0.018478429 35:0 36:0 37:0.80469579 38:0.01564073 39:0.034262143 40:0.40075919 41:0.43098983 42:0.048891872 43:0.047894485 44:0 45:0 46:0.88713646 47:0.15785477 48:0.12654625 49:0.31450737 50:0.2701419 51:0.010482513 52:0.0073304395 53:0 54:0 55:0.97795719 56:3.6504873e-05 57:0.0021212911 58:0.098412506 59:0.1821564 60:0.0046383985 61:0.02657938 62:0 63:0 64:0.94576722 65:0 66:0.045586314 67:0.17403761 68:0.25985989 69:0.027723677 70:0.069711737 71:0 72:0 73:0.87773114 74:0.043018296 75:0.095891707 76:0.31661078 77:0.34392905 78:0.0033130569 79:0 80:0 
-0.585183268649823 0 0.02866106118255299 1 0.3292296415503311 0.2020992736707851 0.4614088606565442 0.1519454555491208 0.1565073799114884 0.0940791643159237 0.3030024703506832 0.04452723776285399 0.2051836777848809 0.2626235354381763 0.2887356695138538 0.2337847880946549 0:0 1:0.41121641 2:0.057129167 3:0.041059289 4:0.77061009 5:0.4759905 6:0.074422225 7:0.00011171478 8:0 9:0 10:0.27869421 11:0.039514001 12:0.013722428 13:0.6103335 14:0.72482061 15:0.00080530648 16:0.15065567 17:0 18:0 19:0.78773689 20:0.088393122 21:0.10648619 22:0.3154043 23:0.49413595 24:0.12799342 25:0.016683158 26:0 27:0 28:0.72144973 29:0.12046964 30:0.0045234766 31:0.60396808 32:0.31374899 33:0.026336763 34:0.032568205 35:0 36:0 37:0.046604451 38:0.045744475 39:0.033728942 40:0.74369448 41:0.66115355 42:0.051644333 43:0.041506045 44:0 45:0 46:0.73414892 47:0 48:0.02946456 49:0.30735829 50:0.58337069 51:0.025487829 52:0.15719974 53:0 54:0 55:0.84795606 56:1.5967325e-09 57:0.037891153 58:0.41608649 59:0.31996283 60:4.5620932e-10 61:0.06338051 62:0 63:0 64:0.45599508 65:0.087567456 66:0.0058698501 67:0.72989488 68:0.4989318 69:0.031900741 70:0.040748384 71:0 72:0 73:0.54469788 74:0.06983649 75:0.16504972 76:0.44125691 77:0.64978784 78:0.1820199 79:0.14531709 80:0 
-1 1 1 1 1 1 1 1 1 1 1 1 1 1 1 1 0:0 1:0.9929769 2:0 3:0 4:0.056693085 5:0.10238434 6:0.013306952 7:0.010977578 8:0 9:0 10:0.94891441 11:0 12:0 13:0.10599262 14:0.29013079 15:0.044592008 16:0.046484005 17:0 18:0 19:0.99544775 20:0.040042695 21:0.010651279 22:0.0057017775 23:0.076981172 24:0.0054468671 25:0.037109409 26:0 27:0 28:0.98981732 29:0.011114228 30:0.014125605 31:0.099052578 32:0.10030567 33:7.189608e-05 34:0.0080377003 35:0 36:0 37:0.95171058 38:0.013269674 39:0.016398283 40:0.1883685 41:0.24037065 42:0.02130542 43:0.0092586968 44:0 45:0 46:0.97279251 47:0.061809689 48:0.057599433 49:0.09343762 50:0.19394018 51:0.01384029 52:0 53:0 54:0 55:0.99724525 56:0 57:0 58:0.021793405 59:0.070889518 60:0 61:0 62:0 63:0 64:0.97705078 65:0.013151608 66:0.016715011 67:0.12022675 68:0.16424173 69:0.053015932 70:0.026023699 71:0 72:0 73:0.90594989 74:0.035585925 75:0.12702033 76:0.22060764 77:0.33519462 78:0.026230309 79:0.011865111 80:0 
-0.8961221268621511 0 0.2022852099668087 0.8312014509153627 0.1547940531694487 0 0.8888144521245079 0 0 0 0 0.6156583867727269 0 0 0.1925036831383692 0.3542384173693284 0:0 1:0.030852368 2:0 3:0 4:0.37499875 5:0.9263202 6:0.01860459 7:0 8:0 9:0 10:0.98776269 11:0 12:0.0075932606 13:0.114084 14:0.1060646 15:0 16:0 17:0 18:0 19:0.99999827 20:0 21:0 22:0 23:0 24:0 25:0 26:0 27:0 28:0.98668849 29:0 30:0 31:0.084202267 32:0.13911597 33:0 34:0 35:0 36:0 37:0.12084202 38:0 39:0.013976705 40:0.62188298 41:0.77349311 42:0.012933295 43:0.0014597697 44:0 45:0 46:0.9859888 47:0 48:0.0081213955 49:0.1220189 50:0.11344173 51:0 52:0 53:0 54:0 55:0.99999839 56:0 57:0 58:0 59:0 60:0 61:0 62:0 63:0 64:0.98393512 65:0 66:0 67:0.092437759 68:0.15272237 69:0 70:0 71:0 72:0 73:0.23149401 74:0 75:0.011184324 76:0.63581568 77:0.73621732 78:0 79:0 80:0 
-0.5075821883242448 0.2017048237884597 0.3020489292365914 0.583379318320048 0.2431659738057606 0.4050707745571154 0.652516230720787 0.3144642944583977 0.4276948168347589 0.3420500203146441 0.3855599291092654 0.3353665761124171 0.2257694148275564 0.3576058012580745 0.434804520962004 0.4319618010986913 0:0 1:0.014082532 2:0 3:0.0031376039 4:0.82370347 5:0.56475133 6:0.048543349 7:7.633632e-05 8:0 9:0 10:0.92369354 11:0.0058757202 12:0.04108068 13:0.32070976 14:0.20395687 15:0.024748715 16:0 17:0 18:0 19:0.1379592 20:0.05254139 21:0.05475476 22:0.71754402 23:0.67699385 24:0.0094670495 25:0.043876957 26:0 27:0 28:0.92373359 29:0 30:0.0028977587 31:0.27256072 32:0.26735899 33:0.030579429 34:0 35:0 36:0 37:0.010870012 38:0.0073861997 39:0.01969463 40:0.81179434 41:0.58297491 42:0.023827193 43:0.00029614987 44:0 45:0 46:0.93540573 47:0.0051678643 48:0.044077203 49:0.29354075 50:0.19184397 51:0.0086101228 52:0 53:0 54:0 55:0.14895241 56:0 57:0.00031634132 58:0.72502786 59:0.67241013 60:0 61:0.0028880157 62:0 63:0 64:0.92488062 65:0 66:0.00020140216 67:0.2617619 68:0.27554899 69:0.012126798 70:0 71:0 72:0 73:0.015027531 74:0.019323962 75:0.056374922 76:0.75995678 77:0.64651358 78:0.02371449 79:0.011928296 80:0 
-1 0.812188852490632 1 0 0 1 0.7058053959889419 0.264782979606682 1 1 1 1 1 0.01223990294365308 0.7992849129730653 1 0:0 1:0.74662924 2:0.05071678 3:0.14498219 4:0.27472708 5:0.55823165 6:0.14665437 7:0.10170992 8:0 9:0 10:0.95232433 11:0 12:0 13:0.055963513 14:0.19334041 15:0.19811629 16:0.11538627 17:0 18:0 19:0.98481476 20:0.089759402 21:0.044616438 22:0.021089753 23:0.079413086 24:0.052968189 25:0.10263436 26:0 27:0 28:0.98876309 29:0.013337588 30:0.05421003 31:0.10736157 32:0.085771859 33:0.014720149 34:0.011386245 35:0 36:0 37:0.84743059 38:0.075276487 39:0.085291751 40:0.23983251 41:0.45604309 42:0.04789621 43:0.033591349 44:0 45:0 46:0.94905353 47:0.098897628 48:0.15890981 49:0.22025536 50:0.12504014 51:0.0077481256 52:0.0074182567 53:0 54:0 55:0.9995113 56:0.00011141236 57:0.0098435907 58:0.0028023128 59:0.025011901 60:0.011652634 61:0.010485122 62:0 63:0 64:0.99174619 65:0 66:0.013578147 67:0.029036833 68:0.094102219 69:0.079410836 70:0.015787663 71:0 72:0 73:0.78950691 74:0.12882449 75:0.22647442 76:0.33525115 77:0.44234037 78:0.027045356 79:0.00019190756 80:0 
-0 0 0 0 0 0 0 0 0 0 0.5338260292731823 0 0.2182597263903902 0.1643373506437964 0 0 0:0 1:0.81407577 2:0.068538733 3:0.1581466 4:0.25162783 5:0.42997921 6:0.19589707 7:0.14489731 8:0 9:0 10:0.85438943 11:0.028462859 12:0.052237563 13:0.15639974 14:0.42030081 15:0.2215351 16:0.12761761 17:0 18:0 19:0.9902572 20:0.064866818 21:0.066469386 22:0.024457831 23:0.082794271 24:0.023444897 25:0.052541047 26:0 27:0 28:0.89363587 29:0.11411227 30:0.11877133 31:0.33125657 32:0.25286868 33:0.021817626 34:0.011636531 35:0 36:0 37:0.69985622 38:0.057642836 39:0.095836081 40:0.3195661 41:0.62545818 42:0.065099761 43:0.011537154 44:0 45:0 46:0.88683313 47:0.18918638 48:0.17179333 49:0.2659511 50:0.27768466 51:0.019541323 52:0 53:0 54:0 55:0.99496394 56:0.053094566 57:0.018184902 58:0.02754911 59:0.048762277 60:0.03423525 61:0.050861463 62:0 63:0 64:0.87519407 65:0.0041364529 66:0.025596643 67:0.16898242 68:0.3965421 69:0.16249125 70:0.14545524 71:0 72:0 73:0.71830267 74:0.15801442 75:0.19851834 76:0.29706484 77:0.55694109 78:0.11493427 79:0.08955276 80:0 
-0.5457521195908039 0 0 1 0.02423847340591015 0.09241919197422829 0.08117229388437414 0.1395516102338206 0.01754391407484567 0.1021859366654441 0.1569505502848457 0.1725914097385297 0.2354395313949622 0.3037156053315511 0.3346763622337388 0.2717819247139958 0:0 1:0.26833114 2:0.22972344 3:0.23020324 4:0.48549113 5:0.67983049 6:0.24813786 7:0.25056607 8:0 9:0 10:0.36658451 11:0.032545988 12:0.12708351 13:0.42996067 14:0.69720405 15:0.24601877 16:0.34193259 17:0 18:0 19:0.92412972 20:0.080151476 21:0.11059864 22:0.16783473 23:0.28831321 24:0.077108428 25:0.10043258 26:0 27:0 28:0.46366146 29:0.19482203 30:0.13689627 31:0.58482426 32:0.61724192 33:0.030482356 34:0.066198543 35:0 36:0 37:0.074997485 38:0.06214159 39:0.093398824 40:0.69142884 41:0.70627981 42:0.030226044 43:0.063002288 44:0 45:0 46:0.73570693 47:0.24481019 48:0.2524637 49:0.44264516 50:0.3727853 51:0.012588946 52:0.0006954018 53:0 54:0 55:0.90445936 56:0.043765504 57:0.095215663 58:0.21915399 59:0.33423194 60:0.091729969 61:0.053061523 62:0 63:0 64:0.52163339 65:0.061130956 66:0.033016492 67:0.35042983 68:0.69544214 69:0.14276099 70:0.31023645 71:0 72:0 73:0.32583037 74:0.20308013 75:0.32301679 76:0.59184378 77:0.544954 78:0.17765924 79:0.26350018 80:0 
-0.7321106901014424 0 0.06228562295778635 0.7087949748610363 0.5997745160138122 0.2199801501376836 0.397893338905028 0.04132870485676308 0.1786629481631347 0.1697333940120791 0.2250980436099823 0.1801859051621739 0.2752743927056844 0.3180182304016012 0.2935129427210992 0.227741924475791 0:0 1:0.29592529 2:0.016910974 3:0.00068857591 4:0.87181133 5:0.38839951 6:0.026191762 7:0.023309669 8:0 9:0 10:0.86334163 11:0.0075934432 12:0.014269139 13:0.50203758 14:0.048163496 15:0 16:0.0039209565 17:0 18:0 19:0.39717367 20:0 21:0.017576113 22:0.90875757 23:0.12122355 24:0 25:0.037478808 26:0 27:0 28:0.94288176 29:0.010660586 30:0.019376529 31:0.29459232 32:0.15361866 33:0.008357876 34:0.0053679179 35:0 36:0 37:0.45408726 38:0.0092770867 39:0.027155198 40:0.81018817 41:0.36919934 42:0.016234327 43:0.0017030496 44:0 45:0 46:0.89191359 47:0.007074018 48:0.0099230185 49:0.44952914 50:0.047563672 51:0 52:0 53:0 54:0 55:0.2750614 56:0 57:0.014491654 58:0.91122341 59:0.30546555 60:0.012514827 61:0.018245958 62:0 63:0 64:0.93819124 65:0.0096402094 66:0.029670745 67:0.30564818 68:0.15912193 69:0.007557903 70:0.0048541282 71:0 72:0 73:0.94864923 74:0.012566335 75:0.023624996 76:0.16176751 77:0.27051333 78:0 79:0 80:0 
-1 0 0.2799854828063692 0 0 1 1 0 0.4127311871169013 1 1 0.7592135065026352 1 1 0.1420846031324249 0.2868982992311259 0:0 1:0.63908243 2:0.18980473 3:0.27283221 4:0.28301999 5:0.51734334 6:0.22257106 7:0.2895214 8:0 9:0 10:0.9703362 11:0.0069711409 12:0.021543583 13:0.091580577 14:0.1732749 15:0.083552048 16:0.11198592 17:0 18:0 19:0.99576551 20:0.050172459 21:0.02528625 22:0.01653206 23:0.035826586 24:0.0091943359 25:0.060429361 26:0 27:0 28:0.95180869 29:0.10507989 30:0.091597959 31:0.20437692 32:0.18091503 33:0.011223955 34:0 35:0 36:0 37:0.70272255 38:0.040359881 39:0.090185821 40:0.42591721 41:0.54896998 42:0.056873452 43:0.10201088 44:0 45:0 46:0.95759958 47:0.13374476 48:0.13102369 49:0.13565138 50:0.15881658 51:0.00039305352 52:0.065742716 53:0 54:0 55:0.96899277 56:0.04325657 57:0.048880756 58:0.10673478 59:0.20418982 60:0.050883435 61:0.033405025 62:0 63:0 64:0.9354617 65:0.0064231707 66:0.026253201 67:0.11301661 68:0.26992878 69:0.13697557 70:0.14064869 71:0 72:0 73:0.57820773 74:0.22870639 75:0.31383285 76:0.30282021 77:0.48978859 78:0.32351777 79:0.28038663 80:0 
-0 0 0.9310224183251514 1 0 0 0 0 0 0 0 0 0.007708890725914483 0 0 1 0:0 1:0.93609464 2:0.01651057 3:0.01794393 4:0.12457734 5:0.32561684 6:0.036778662 7:0.01518941 8:0 9:0 10:0.92275524 11:0.041391261 12:0.048586521 13:0.27374238 14:0.26365048 15:0.00026335861 16:0.00030297998 17:0 18:0 19:0.98712426 20:0.0045800996 21:0.0094826985 22:0.084725894 23:0.13450927 24:0.0050414945 25:0.013296998 26:0 27:0 28:0.9520191 29:0 30:0 31:0.14652352 32:0.26795819 33:0.01894984 34:0.0053378181 35:0 36:0 37:0.11223696 38:0.044519275 39:0.067462385 40:0.51647043 41:0.84136546 42:0.067030214 43:0.041676104 44:0 45:0 46:0.96390784 47:0.041544214 48:0.044990409 49:0.16524729 50:0.19946595 51:0.0059882035 52:0.00093836762 53:0 54:0 55:0.99117821 56:0 57:0.0040654158 58:0.056107629 59:0.11979014 60:0.0055356626 61:0.0044484749 62:0 63:0 64:0.93213993 65:0.0066560158 66:0.013312032 67:0.20943438 68:0.29417169 69:0.021175252 70:0.0066287057 71:0 72:0 73:0.97833413 74:0.018276697 75:0.018500164 76:0.092786714 77:0.18048957 78:0.023138721 79:0.021517597 80:0 
-1 0 0.1240300286435363 0 0 0 0.138856419729821 0 0 0 0 0 0.386958752350656 1 0 0 0:0 1:0.70728219 2:0.10428175 3:0.29582939 4:0.39161646 5:0.44484395 6:0.19803645 7:0.10435829 8:0 9:0 10:0.91262269 11:0 12:0.020201884 13:0.16634406 14:0.31045923 15:0.13054559 16:0.16003798 17:0 18:0 19:0.99634421 20:0.049397551 21:0.0067567364 22:0.019054266 23:0.0023002676 24:0.011906432 25:0.065581888 26:0 27:0 28:0.95268536 29:0.051919989 30:0.088126495 31:0.19487336 32:0.20921883 33:0.0036784618 34:0.012861758 35:0 36:0 37:0.75680554 38:0.031635836 39:0.083116204 40:0.34309867 41:0.54587764 42:0.048318915 43:0.036056917 44:0 45:0 46:0.87410265 47:0.14305593 48:0.18828715 49:0.24359372 50:0.34573635 51:0.024790531 52:0.023224676 53:0 54:0 55:0.97344983 56:0.051828757 57:0.038493343 58:0.11257122 59:0.18466543 60:0.02087006 61:0.031886298 62:0 63:0 64:0.92081076 65:0.024371196 66:0.020646689 67:0.15480377 68:0.3476249 69:0.05874078 70:0.053177044 71:0 72:0 73:0.78742886 74:0.15161657 75:0.21162751 76:0.37972176 77:0.39958942 78:0.069062933 79:0.059576906 80:0 
-1 1 1 1 1 1 1 1 1 1 1 1 1 1 1 1 0:0 1:0.9790417 2:0.046392865 3:0.022995913 4:0.079838216 5:0.14225258 6:0.083112471 7:0.072634228 8:0 9:0 10:0.99025613 11:0.022663752 12:0.040388681 13:0.12343165 14:0.042730987 15:0.0080267675 16:0.010972696 17:0 18:0 19:0.98355615 20:0.011412777 21:0.037689567 22:0.14800081 23:0.08863046 24:0.034498237 25:0.010733539 26:0 27:0 28:0.99106526 29:0.0048353104 30:0.0078976508 31:0.01565389 32:0.12722498 33:0.025747506 34:0.024668623 35:0 36:0 37:0.84366912 38:0.015085864 39:0.058883786 40:0.42032507 41:0.32332659 42:0.051965773 43:0.024711736 44:0 45:0 46:0.99272126 47:0.017816054 48:0.031749681 49:0.097303391 50:0.056040708 51:0.021003028 52:0.011315291 53:0 54:0 55:0.99140066 56:0.016652094 57:0.02506051 58:0.033447593 59:0.11375317 60:0.041684072 61:0.020544339 62:0 63:0 64:0.98044032 65:0.036591362 66:0.0014202128 67:0.10894878 68:0.15599805 69:0.031666912 70:0.013644204 71:0 72:0 73:0.99107343 74:0.0085620405 75:0.021762365 76:0.051987145 77:0.099715523 78:0.048513647 79:0.047172401 80:0 
-0.790468043704069 0 0 0 0.5815108220554022 0 0 0 0 0.469834100454618 0.1459864150998543 1 1 0 0.3282550700983021 0.8580970624850867 0:0 1:0.19960386 2:0.25447938 3:0.21041335 4:0.46575803 5:0.58740544 6:0.44718379 7:0.29861462 8:0 9:0 10:0.97668004 11:0 12:5.7928508e-05 13:0.011895658 14:0.15158953 15:0.1449459 16:0.044316337 17:0 18:0 19:0.98831046 20:0.066576801 21:0.058630545 22:0.026944049 23:0.046056941 24:0.046811633 25:0.10164592 26:0 27:0 28:0.9753325 29:0.061803855 30:0.13042764 31:0.15118773 32:0.06608104 33:0.017109018 34:0.019409372 35:0 36:0 37:0.18746792 38:0.076513849 39:0.19398862 40:0.67136133 41:0.64381576 42:0.15016516 43:0.18327117 44:0 45:0 46:0.9854092 47:0.071524158 48:0.066201404 49:0.066229708 50:0.12186458 51:0.0069688582 52:0.013518689 53:0 54:0 55:0.98141372 56:0.067584783 57:0.029675733 58:0.1002722 59:0.12542854 60:0.052664168 61:0.053075355 62:0 63:0 64:0.96733129 65:0.013705811 66:0.0092784958 67:0.048920453 68:0.20387936 69:0.099253736 70:0.10091338 71:0 72:0 73:0.86233985 74:0.17638734 75:0.17191598 76:0.24600475 77:0.27322951 78:0.14713603 79:0.19717491 80:0 
-1 1 1 1 1 1 1 1 1 1 1 1 1 1 1 1 0:0 1:0.95505524 2:0.035741393 3:0.093901433 4:0.061602924 5:0.21744533 6:0.074164376 7:0.14558175 8:0 9:0 10:0.97949493 11:0.0062612984 12:0.035612077 13:0.096501775 14:0.16089997 15:0.035016757 16:0.053412497 17:0 18:0 19:0.99594092 20:0.012968521 21:0.032284491 22:0.051774859 23:0.064311199 24:3.8910624e-05 25:0.0085464194 26:0 27:0 28:0.95888644 29:0.045572281 30:0.052738294 31:0.21178159 32:0.1753262 33:0.0092497887 34:0 35:0 36:0 37:0.95193321 38:0.011362849 39:0.013727224 40:0.19659862 41:0.23375358 42:0.0088996347 43:0.011514295 44:0 45:0 46:0.97678149 47:0.044696555 48:0.070841558 49:0.1197748 50:0.15495709 51:0.016969817 52:0.015300149 53:0 54:0 55:0.99218935 56:0.038266752 57:0.035635576 58:0.05619562 59:0.086990774 60:0.023186343 61:0.03951275 62:0 63:0 64:0.96823239 65:0 66:0.011773995 67:0.1715292 68:0.15334304 69:0.067237318 70:0.07019712 71:0 72:0 73:0.90770894 74:0.064076491 75:0.054472875 76:0.10146594 77:0.31974766 78:0.18132965 79:0.15353562 80:0 
-0 0 0 0.01592751263110053 0 0 0.08465878521495386 0 0 0 0 0 0 0 0.06685509932747373 0.2617091684945688 0:0 1:0.43040621 2:7.9969675e-10 3:0.019048287 4:0.20940141 5:0.87779319 6:0.0034423422 7:1.5993935e-09 8:0 9:0 10:0.95064849 11:5.3265392e-10 12:5.3265392e-10 13:0.2373936 14:0.19633953 15:0.036859374 16:4.0898234e-05 17:0 18:0 19:0.36242664 20:0.048789639 21:0.061033946 22:0.62277377 23:0.68740404 24:0.044903561 25:0.012146487 26:0 27:0 28:0.9589532 29:0 30:0.00065665046 31:0.17671968 32:0.21228538 33:0.064108014 34:2.3914498e-10 35:0 36:0 37:0.25110522 38:0.010252035 39:0.031720754 40:0.53184909 41:0.80725992 42:0.032858945 43:0.014804015 44:0 45:0 46:0.86490959 47:0.0051252255 48:0.017817322 49:0.42509243 50:0.25054544 51:0.090038508 52:4.2607331e-05 53:0 54:0 55:0.25448284 56:0 57:0.0024445816 58:0.72979409 59:0.63452905 60:0 61:0 62:0 63:0 64:0.91224796 65:0.0073563671 66:0.022238323 67:0.31315801 68:0.25898075 69:0.045964159 70:2.2703781e-10 71:0 72:0 73:0.43593237 74:0.014204087 75:0.11696389 76:0.34687129 77:0.82014614 78:0.046977006 79:0.030172616 80:0 
-0 -0 0 0 0 0 0 1 1 0 0 0 0 0 1 0 0:0 1:0.99857408 2:0.0018103683 3:0.022703812 4:0.01009954 5:0.03866677 6:0.010699572 7:0.024860382 8:0 9:0 10:0.99999911 11:0 12:0 13:0 14:0 15:0 16:0 17:0 18:0 19:0.997989 20:0.025140548 21:0.020444382 22:0.035518929 23:0.034976792 24:0.011068798 25:0.01895418 26:0 27:0 28:0.99851078 29:0.0031569416 30:0.0015264924 31:0.0035132468 32:0.050657149 33:0.0097359819 34:0.017014792 35:0 36:0 37:0.99980652 38:0.0046974495 39:0.000166282 40:0.013468791 41:0.0046974495 42:0.0089376234 43:0.0089376234 44:0 45:0 46:0.9945516 47:0.03774805 48:0.019372223 49:0.038614821 50:0.026984949 51:0.065480754 52:0.050580807 53:0 54:0 55:0.99818623 56:0.023891727 57:0.016623614 58:0.013612748 59:0.03842029 60:0.025272027 61:0.021816723 62:0 63:0 64:0.99990404 65:0.0019537979 66:0.0090610916 67:0.0019537979 68:0.0090610916 69:0.0030014866 70:0.0031430661 71:0 72:0 73:0.99999934 74:0 75:0 76:0 77:0 78:0 79:0 80:0 
-1 -0 1 0 0.2333464636619716 1 0 1 1 1 1 0 0 0 0 0.3596539615815277 0:0 1:0.99825352 2:0.014657867 3:0.020742998 4:0.016131019 5:0.049317729 6:0.00073657621 7:0.012256376 8:0 9:0 10:0.9887262 11:0 12:0 13:0.018841285 14:0.11724727 15:0.060914747 16:0.067870609 17:0 18:0 19:0.99119407 20:0.00039944088 21:0 22:0.010007692 23:0.077225953 24:0.082304947 25:0.068513393 26:0 27:0 28:0.99988043 29:0 30:0.01351015 31:0 32:0.0054831989 33:0 34:0.0050305738 35:0 36:0 37:0.99183142 38:0.033627156 39:0.023045179 40:0.072821438 41:0.092440568 42:0.018342342 43:0.020561233 44:0 45:0 46:0.92183733 47:0.020272801 48:0.022927804 49:0.13344142 50:0.33789626 51:0.10121762 52:0.083975524 53:0 54:0 55:0.99999911 56:0 57:0 58:0 59:0 60:0 61:0 62:0 63:0 64:0.99998683 65:0 66:0 67:0 68:0 69:0 70:0.0050306106 71:0 72:0 73:0.97739178 74:0.062729619 75:0.045907278 76:0.12891585 77:0.1360511 78:0.039214373 79:0.044657834 80:0 
-0.8917325384365223 -0.08011009174436241 1 0.01293491106458893 0 1 0.2316581133962092 0 0 1 1 0 1 0.4801223494626312 0 0.2441638359254037 0:0 1:0.99966621 2:0.0091658086 3:0.010336968 4:0.0094076255 5:0.019258924 6:0.0034929183 7:0.001815211 8:0 9:0 10:0.99613929 11:0 12:0.0047486685 13:0.0037503447 14:0.063963287 15:0.053838119 16:0.026053192 17:0 18:0 19:0.99002767 20:0.011997337 21:0.029104363 22:0.018348439 23:0.094767086 24:0.093805447 25:0.02712656 26:0 27:0 28:0.99973345 29:0.0028897838 30:0.0053982958 31:0.0054230588 32:0.020553144 33:0.0037887122 34:0.005324007 35:0 36:0 37:0.98274344 38:0.067784339 39:0.069688872 40:0.079162627 41:0.12801711 42:0.038030457 43:0.025713289 44:0 45:0 46:0.80047542 47:0.10343865 48:0.096386261 49:0.29343861 50:0.40337294 51:0.27104512 52:0.13025326 53:0 54:0 55:0.99999923 56:0 57:0 58:0 59:0 60:0 61:0 62:0 63:0 64:0.99986494 65:0.0016676097 66:0.0055081658 67:0.0055334326 68:0.012683941 69:0.0038658227 70:0.0054323655 71:0 72:0 73:0.95328867 74:0.097766757 75:0.099389538 76:0.12481818 77:0.2042273 78:0.070276409 79:0.097850576 80:0 
-0 -0 1 0 0 0 0 1 1 1 0.6360966503379396 0 0 0 1 0 0:0 1:0.99948817 2:0.0040446669 3:0.0063594803 4:0.0055714226 5:0.023911327 6:0.01057922 7:0.015836226 8:0 9:0 10:0.99745309 11:0.0020233786 12:0.00036113762 13:0.0090198591 14:0.031968217 15:0.025253735 16:0.057793122 17:0 18:0 19:0.99935591 20:0.0055500772 21:0.0082617588 22:0.0028130529 23:0.02301687 24:0.0094275288 25:0.023687618 26:0 27:0 28:0.99936664 29:0.014656791 30:0.023020113 31:0.0061536143 32:0.018174687 33:0.0061815856 34:0.010676303 35:0 36:0 37:0.99758106 38:0.0073303171 39:0.010271947 40:0.017768422 41:0.043254845 42:0.02935865 43:0.040283103 44:0 45:0 46:0.99970257 47:0.0086381044 48:0.0062344531 49:0.0066055069 50:0.020816484 51:0.0017591941 52:0 53:0 54:0 55:0.99993926 56:0.0030090774 57:0.009525449 58:0.0026971116 59:0.003508867 60:1.4619829e-05 61:0.00082863151 62:0 63:0 64:0.99914992 65:0 66:0 67:0 68:0.035012376 69:0.0073251184 70:0.020459898 71:0 72:0 73:0.9997806 74:0 75:0 76:0.0018129481 77:0.0021608209 78:0 79:0.020701505 80:0 
-0 -0 0.1622996396161251 0 0.5515418739028692 0 0 1 1 0 0 0 0 0 0 0 0:0 1:0.99977207 2:0.012938633 3:0.0098959859 4:0.013322655 5:0 6:0.0034266696 7:0 8:0 9:0 10:0.99999899 11:0 12:0 13:0 14:0 15:0 16:0 17:0 18:0 19:0.99999893 20:0 21:0 22:0 23:0 24:0 25:0 26:0 27:0 28:0.9999994 29:0 30:0 31:0 32:0 33:0 34:0 35:0 36:0 37:0.99999881 38:0 39:0 40:0 41:0 42:0 43:0 44:0 45:0 46:0.99443084 47:0.029496456 48:0.060077008 49:0.063244894 50:0.0452017 51:0.021658769 52:0.010613193 53:0 54:0 55:0.9999975 56:0 57:0.00082537299 58:0 59:0.001650746 60:0 61:0 62:0 63:0 64:0.99999887 65:0 66:0 67:0 68:0 69:0 70:0 71:0 72:0 73:0.99999881 74:0 75:0 76:0 77:0 78:0 79:0 80:0 
-0 -0 1 0.7801965629985668 0 0 0 1 1 0 1 0 0 0 1 0 0:0 1:0.99933529 2:0.017551288 3:0.0056851995 4:0.00737258 5:0.020664202 6:0.011925469 7:0.019069599 8:0 9:0 10:0.99998295 11:0 12:0.00017025664 13:0 14:0.0056865714 15:0.00017025664 16:0.0005107699 17:0 18:0 19:0.9998517 20:0.0054015866 21:0 22:0.0049082907 23:0.0098165814 24:0.010803173 25:0.0054015866 26:0 27:0 28:0.99620926 29:0.018399341 30:0.023306495 31:0.027549772 32:0.069542661 33:0.0056620641 34:0.032511272 35:0 36:0 37:0.99840498 38:0.020182373 39:0.0099812038 40:0.014862112 41:0.038127489 42:0.020771697 43:0.023937406 44:0 45:0 46:0.99999696 47:7.418952e-05 48:0.0022564828 49:0 50:4.8526148e-05 51:0 52:0 53:0 54:0 55:0.99954516 56:0.01347118 57:8.0568811e-05 58:0.025239637 59:0.0062318309 60:0.0044837864 61:0.0055353628 62:0 63:0 64:0.99828988 65:0.0030015535 66:0.011485212 67:0.012838329 68:0.044653784 69:0.0044577532 70:0.033112854 71:0 72:0 73:0.99999905 74:0 75:0 76:0 77:0 78:0 79:0 80:0 
-0 -0 0 0 0 1 0 1 1 1 0 0 0 0 1 1 0:0 1:0.99785364 2:0.010323002 3:0.014516833 4:0.038678993 5:0.037186395 6:0.023625266 7:0.023079021 8:0 9:0 10:0.99998969 11:0 12:0 13:0 14:0 15:0 16:0.0044148895 17:0 18:0 19:0.99654508 20:0.016493678 21:0.018145127 22:0.017876104 23:0.060650799 24:0.012444151 25:0.046289407 26:0 27:0 28:0.99940729 29:0.0022385886 30:0.010292782 31:0.016706716 32:0.017691817 33:0.021456432 34:0.0045453971 35:0 36:0 37:0.99990928 38:0.0081487186 39:0.0036868239 40:0 41:0.0091542164 42:0.0040010419 43:0.00087981025 44:0 45:0 46:0.99723107 47:0.024352355 48:0.029907819 49:0.036583092 50:0.034830373 51:0.014226143 52:0.035884596 53:0 54:0 55:0.99389344 56:0.0071583348 57:0.021145608 58:0.052140232 59:0.06666445 60:0.05056164 61:0.044237442 62:0 63:0 64:0.99844813 65:0.0011931228 66:0.0058720624 67:0.005231936 68:0.029507434 69:0.022670846 70:0.040649313 71:0 72:0 73:0.99890327 74:0.0055380533 75:0.0055380533 76:0.0050228853 77:0.0097109117 78:0.024882602 79:0.037298143 80:0 
