svm_type c_svc
kernel_type rbf
gamma 0.5
nr_class 17
total_sv 889
rho -0.79417 -0.659328 -0.778831 -0.33372 -0.502058 -0.650856 -0.263414 -0.521595 -0.658258 -0.46154 -0.306074 -0.535596 -0.471523 -0.544713 0.0283812 -0.230098 -0.175303 -0.188836 0.526171 -0.12573 -0.147611 0.793933 -0.0658341 -0.0407135 -0.164139 0.113956 0.163505 0.260375 0.111593 0.624106 0.394091 -0.0317284 0.481687 -0.0467272 -0.157911 0.822024 1.31461 0.302589 0.244727 0.212078 0.118875 0.178293 -0.00481781 0.62954 0.129411 0.571634 0.359133 -0.0924113 1.11217 0.859364 0.30203 0.257317 0.621689 0.154971 -0.00759562 0.261592 1.16032 0.952224 -0.38609 -0.421213 0.0705182 -0.263667 -0.421098 -0.410626 -0.19286 -0.271692 -0.415836 -0.44546 0.364124 0.0132985 -0.339072 0.339638 0.561071 0.1871 0.34933 0.36457 -0.106839 -0.181603 -0.485681 0.691753 0.380948 1.0176 0.977024 0.370099 0.598824 0.91137 0.504373 0.649457 0.301281 1.00518 0.938579 -0.65422 -0.931837 -0.684735 -0.286276 0.00218171 -0.413132 -0.46273 0.219009 0.119081 -0.804404 -0.886655 -0.414274 -0.128395 -0.182497 -0.232392 0.357007 -0.330599 0.0707465 0.182369 0.316345 0.306792 0.176296 0.553975 0.190123 0.12726 0.273548 0.84218 -0.191491 0.8744 -0.0797519 -0.0405538 0.23427 -0.347436 0.643556 -0.314812 -0.968578 -0.572097 0.628014 0.563982 -0.102944 0.602912 0.495713 0.735915 0.874128 -0.529216
label 0 1 2 3 4 5 6 7 8 9 10 11 12 13 14 15 16
nr_sv 55 47 55 55 44 51 55 46 55 55 55 55 54 51 48 55 53
SV
0.3854924738588269 0 0 0 0 0 1 0 0 0 0 0 0.287843505335252 0 0.5117200231305212 0 0:0 1:0.46535403 2:0.13160095 3:0.14649749 4:0.3595089 5:0.76354307 6:0.14444487 7:0.10748398 8:0 9:0 10:0.38657266 11:0.1575716 12:0.18048291 13:0.42781195 14:0.76235533 15:0.13590941 16:0.10234586 17:0 18:0 19:0.59213549 20:0.053108286 21:0.1050185 22:0.12613915 23:0.78007686 24:0.061839331 25:0.085248619 26:0 27:0 28:0.94835168 29:0.13099462 30:0.071444407 31:0.14155819 32:0.22590858 33:0.06294892 34:0.057669453 35:0 
1 0 0.733553090577906 1 1 0 0.7147545139353644 0 0 0 0 0.1107553737937306 0 0 0 0.4863230798823062 0:0 1:0.88518107 2:0 3:0 4:0.19944927 5:0.41934836 6:0.028603639 7:0 8:0 9:0 10:0.99999928 11:0 12:0 13:0 14:0 15:0 16:0 17:0 18:0 19:0.76338613 20:0 21:6.0972772e-05 22:0.35734916 23:0.53635681 24:0.04313929 25:0.0004313697 26:0 27:0 28:0.97098255 29:0 30:0 31:0.10832001 32:0.21310075 33:0.0067806463 34:0 35:0 
0 1 1 0 1 1 0 1 1 1 1 1 0 1 1 1 0:0 1:0.96464175 2:0.014176521 3:0.033018384 4:0.18521281 5:0.18054953 6:0.024963552 7:0.025447212 8:0 9:0 10:0.94030941 11:0.0020199795 12:0.070802338 13:0.28545064 14:0.1670174 15:0.031822637 16:0.020235755 17:0 18:0 19:0.99991602 20:0 21:0.0083637107 22:0.00034060999 23:0.0086928271 24:0.0045808489 25:7.1180242e-05 26:0 27:0 28:0.99283665 29:0.0088178879 30:0.083491683 31:0.063517936 32:0.051517256 33:0.022962466 34:0.0029228893 35:0 
1 0 0 1 0 0.02478373257068021 1 0 0 0.9871841687629112 1 1 1 1 0.584081832453906 0.7217126760048154 0:0 1:0.64321589 2:0.36310434 3:0.18433432 4:0.299227 5:0.42400956 6:0.19673903 7:0.33528665 8:0 9:0 10:0.87875998 11:0.12233547 12:0.049158283 13:0.21245334 14:0.36566445 15:0.13505012 16:0.11536703 17:0 18:0 19:0.79656547 20:0.18754062 21:0.1503427 22:0.30651426 23:0.39597455 24:0.136612 25:0.19568916 26:0 27:0 28:0.2330424 29:0.24656378 30:0.50246269 31:0.4372271 32:0.54225659 33:0.32491392 34:0.20406675 35:0 
0 1 1 0 1 1 1 0.9863072877957312 1 1 1 0.6850952287258441 0 0 1 1 0:0 1:0.9291895 2:2.2230714e-05 3:0.021660898 4:0.19707367 5:0.30851901 6:0.034497801 7:0.030388627 8:0 9:0 10:0.95301157 11:0.048695918 12:0.072948128 13:0.12109402 14:0.24805544 15:0.06134047 16:0.064152263 17:0 18:0 19:0.99415821 20:0 21:0.00026326065 22:0.064210609 23:0.084651642 24:0.018644834 25:0.0032863549 26:0 27:0 28:0.98889834 29:0.010709323 30:0.0043751495 31:0.12413672 32:0.080831118 33:0 34:0.00019590174 35:0 
1 0 0.629374913542662 0 0 1 1 0 0 1 1 0.9292506567896351 1 1 0 0.8246883064462089 0:0 1:0.82932061 2:0.17694783 3:0.1199565 4:0.26026657 5:0.31592342 6:0.12745461 7:0.28763542 8:0 9:0 10:0.87207597 11:0.059996262 12:0.14251249 13:0.25065064 14:0.37742078 15:0.057822295 16:0.083408095 17:0 18:0 19:0.97533506 20:0.084275611 21:0.10250016 22:0.1136831 23:0.11239464 24:0.049505703 25:0.055713464 26:0 27:0 28:0.82233071 29:0.18792906 30:0.1701719 31:0.27162179 32:0.37738085 33:0.09252274 34:0.18638441 35:0 
0 0 1 0 0 0 1 0 0 0 0 0 0 0 0 0 0:0 1:0.7695865 2:0.013000228 3:0.029570144 4:0.30333552 5:0.55289233 6:0.086402096 7:0.039030656 8:0 9:0 10:0.81708324 11:0.0056511024 12:0.033553377 13:0.28174588 14:0.4986605 15:0.036534723 16:0.04286598 17:0 18:0 19:0.98965675 20:0.010357729 21:0.0089613171 22:0.05475862 23:0.12736762 24:0.033060357 25:0.0087314388 26:0 27:0 28:0.97652638 29:0.024487825 30:0.010732013 31:0.13305987 32:0.16330341 33:0.010687727 34:0.034522742 35:0 
0 1 1 0 1 1 0 1 1 1 1 1 0 1 1 1 0:0 1:0.98615909 2:0 3:0 4:0.14245392 5:0.082459465 6:0.019844802 7:0.0014443245 8:0 9:0 10:0.97835141 11:0.0010156751 12:0.0032044013 13:0.13945417 14:0.15187125 15:0.0074873222 16:0.015718428 17:0 18:0 19:0.99999934 20:0 21:0 22:0 23:0 24:0 25:0 26:0 27:0 28:0.99851876 29:0 30:0 31:0.051324956 32:0.017183188 33:0 34:0.0054203682 35:0 
0 1 1 0 1 1 1 1 1 1 1 1 1 1 1 1 0:0 1:0.87579662 2:0.13563685 3:0.26364195 4:0.26662099 5:0.16727838 6:0.13294892 7:0.16831312 8:0 9:0 10:0.95329481 11:0.016008684 12:0.221295 13:0.1598334 14:0.11665983 15:0.042811789 16:0.031788856 17:0 18:0 19:0.99013793 20:0.048173543 21:0.051438339 22:0.066728771 23:0.080252595 24:0.019461568 25:0.058196243 26:0 27:0 28:0.85142022 29:0.16805448 30:0.37466094 31:0.2301771 32:0.1849955 33:0.070362374 34:0.11963303 35:0 
0 1 1 1 1 1 1 1 1 1 1 0 1 1 1 1 0:0 1:0.99115652 2:0.00010643082 3:0.012127548 4:0.03925037 5:0.11178208 6:0.039473768 7:0.043156803 8:0 9:0 10:0.95992315 11:0.03446738 12:0.079885013 13:0.14585419 14:0.21913943 15:0.026468191 16:0.031254683 17:0 18:0 19:0.99135149 20:0.0055217617 21:0 22:0.04298228 23:0.11303736 24:0.024410186 25:0.044354431 26:0 27:0 28:0.91150665 29:0.088479698 30:0.1397934 31:0.22847354 32:0.27023178 33:0.072223015 34:0.10647849 35:0 
0 1 1 0 1 1 1 1 1 1 1 1 1 1 1 1 0:0 1:0.88136601 2:0.1888466 3:0.13741514 4:0.24716231 5:0.20969313 6:0.12268049 7:0.22030491 8:0 9:0 10:0.95673585 11:0.013376912 12:0.050215434 13:0.14477609 14:0.22345909 15:0.040547229 16:0.097038291 17:0 18:0 19:0.97987562 20:0.05377505 21:0.018268233 22:0.056776557 23:0.15134262 24:0.076205753 25:0.068420507 26:0 27:0 28:0.94113159 29:0.13848844 30:0.10000902 31:0.16000071 32:0.18598136 33:0.10438547 34:0.11833476 35:0 
0 1 1 0.2864058408266121 1 1 1 1 1 1 1 1 0 0 1 1 0:0 1:0.96295184 2:0 3:0 4:0.13968086 5:0.22689508 6:0.041589577 7:0 8:0 9:0 10:0.97250342 11:0 12:0.00046585011 13:0.028254256 14:0.23019752 15:0 16:0.02112324 17:0 18:0 19:0.99549693 20:0 21:0 22:0.045710437 23:0.081616685 24:0.015289092 25:0 26:0 27:0 28:0.97930002 29:0 30:0.00044313952 31:0.14760526 32:0.13690247 33:0 34:0.020971814 35:0 
1 0 0 0.4713148132982922 0 0 1 0 0 0 0.1208633770185166 1 1 0 0 1 0:0 1:0.58175004 2:0.02796362 3:0.021698788 4:0.33310029 5:0.71203572 6:0.12660021 7:0.16225898 8:0 9:0 10:0.90486467 11:0.03085562 12:0.081677936 13:0.24926975 14:0.32181305 15:0.070363171 16:0.054244284 17:0 18:0 19:0.97369671 20:0.016948869 21:0.03638725 22:0.030450476 23:0.20720555 24:0.019821363 25:0.077746756 26:0 27:0 28:0.66939461 29:0.17134239 30:0.20441657 31:0.38562733 32:0.55162537 33:0.15093207 34:0.070577279 35:0 
0 0 0 1 1 0.3723807635065304 0 0.06015696749982283 0 0 0 0 0 0.8085705354096149 1 0 0:0 1:0.94373506 2:0.0044971867 3:0 4:0.23424327 5:0.23034951 6:0.027138174 7:0.025884828 8:0 9:0 10:0.99999744 11:0 12:0 13:0 14:0.0011441306 15:0 16:0 17:0 18:0 19:0.66693211 20:0.0049174209 21:0 22:0.6055603 23:0.43409157 24:0.0042069722 25:0.0026648855 26:0 27:0 28:0.99745256 29:0 30:0 31:0.060411569 32:0.037851822 33:0 34:0 35:0 
1 0 1 1 1 1 1 0 1 1 1 0.1224052747016806 1 1 0 0 0:0 1:0.91611201 2:0.0089698564 3:0.08272516 4:0.3296971 5:0.20719992 6:0.020278096 7:0.04192223 8:0 9:0 10:0.95498544 11:0.053151876 12:0.13235578 13:0.15841605 14:0.18777288 15:0.039634459 16:0.075653128 17:0 18:0 19:0.98771203 20:0.00067607907 21:0.032094788 22:0.097651504 23:0.072571754 24:0.012445613 25:0.091793954 26:0 27:0 28:0.83428955 29:0.099792264 30:0.2272944 31:0.38105288 32:0.29799628 33:0.057067949 34:0.071188562 35:0 
1 0 0 0 1 0 0.08850277653368982 0 0 0 0 0 0 0 0 0 0:0 1:0.54965478 2:0 3:0 4:0.65492672 5:0.51814032 6:0.012440595 7:0.017956411 8:0 9:0 10:0.81712711 11:0.0047024069 12:0 13:0.4418664 14:0.36998165 15:0.012086084 16:0.00068764493 17:0 18:0 19:0.97361004 20:0 21:0 22:0.20148288 23:0.10543855 24:0.0078571746 25:0.017477198 26:0 27:0 28:0.98910695 29:0 30:0 31:0.13217962 32:0.064763509 33:0 34:0 35:0 
1 0 0 1 1 0 1 0 0 0 0 1 0.8488508877513039 0 0 0 0:0 1:0.071034253 2:0.060846213 3:0.048307735 4:0.76810944 5:0.60004151 6:0.16860451 7:0.10214437 8:0 9:0 10:0.98209167 11:0.046334058 12:0.027338048 13:0.10342293 14:0.14329912 15:0.016618894 16:0.033043426 17:0 18:0 19:0.89656025 20:0.00053030247 21:0.01599915 22:0.31527114 23:0.30876568 24:0.034437202 25:0.00046212587 26:0 27:0 28:0.93365169 29:0.042834394 30:0.027772099 31:0.27583978 32:0.21927033 33:0.036982905 34:0.012265542 35:0 
1 1 1 1 1 1 1 1 1 1 1 1 1 1 1 1 0:0 1:0.95946366 2:0.014478182 3:0.055372983 4:0.18777768 5:0.19736613 6:0.03920402 7:0.019949267 8:0 9:0 10:0.97573191 11:0.0085499538 12:0.01206698 13:0.061775386 14:0.19797646 15:0.056599174 16:0.038878709 17:0 18:0 19:0.9979884 20:4.6313242e-05 21:0.0053120893 22:0.037945453 23:0.030000685 24:0.012952588 25:0.038481403 26:0 27:0 28:0.91775376 29:0.07094752 30:0.10570753 31:0.25468713 32:0.26151353 33:0.0781729 34:0.046379834 35:0 
0.2298289935524738 0.05098075796437453 0 0.2931774698921656 0.1258840262971599 0.09420696049281088 1 0.4792957126927472 0.07098167384354863 0.1821187665831857 0.518591628092772 0.09169395568900586 0.1079224197217361 0.1557385800042764 1 0.2287168011870831 0:0 1:0 2:9.0628277e-10 3:8.3482613e-05 4:0.055001155 5:0.99848461 6:9.0628277e-10 7:4.5314139e-10 8:0 9:0 10:0.16057105 11:2.7177165e-09 12:0.0060451962 13:0.030813716 14:0.98652297 15:9.0590552e-10 16:4.5295276e-10 17:0 18:0 19:0.066399708 20:0.037526935 21:1.3301021e-09 22:0.24756002 23:0.96581155 24:0.0099991187 25:6.6505107e-10 26:0 27:0 28:0.022306902 29:8.3570184e-10 30:7.6981021e-05 31:0.046444695 32:0.99867022 33:8.3570184e-10 34:1.2535527e-09 35:0 
0.2377464115884936 0.3939401141006139 0.2561356623771336 1 0.575698315594887 0.4037700404369134 0.8521868839989331 0.5536271664891339 0.3952513410426659 0.622615190150533 0.8029250733686535 0.5375367329971783 0.6113568813895705 0.5264779575363076 1 0.8900427820997791 0:0 1:0 2:0 3:0 4:0 5:0 6:0 7:0 8:0 9:0 10:0 11:0 12:0 13:0 14:0 15:0 16:0 17:0 18:0 19:0 20:0 21:0 22:0 23:0 24:0 25:0 26:0 27:0 28:0 29:0 30:0 31:0 32:0 33:0 34:0 35:0 
0 0 0 1 1 0 0 0 0 0 0 0 0 0 0 0 0:0 1:0.92740744 2:0 3:0 4:0.21515629 5:0.30370706 6:0.0025717455 7:0.037099995 8:0 9:0 10:0.98979747 11:0 12:0 13:0.036173109 14:0.13780826 15:0 16:0 17:0 18:0 19:0.77879316 20:0 21:0 22:0.39953712 23:0.48169398 24:0.026583297 25:0.03334713 26:0 27:0 28:0.99228483 29:0 30:0 31:0.085722722 32:0.089273639 33:0.0021126869 34:0.0068077953 35:0 
1 0.3929532283620969 1 0 0 1 1 0 1 1 1 1 1 1 0 1 0:0 1:0.80243009 2:0.14216244 3:0.16343774 4:0.3442708 5:0.3132312 6:0.13477153 7:0.27272844 8:0 9:0 10:0.94123614 11:0.057728585 12:0.10085131 13:0.1623971 14:0.24861377 15:0.062671117 16:0.091974959 17:0 18:0 19:0.98852146 20:0.038609542 21:0.070379227 22:0.082261495 23:0.059343833 24:0.032778088 25:0.070826061 26:0 27:0 28:0.67549896 29:0.28561193 30:0.28742713 31:0.34788474 32:0.37571019 33:0.20619614 34:0.2735137 35:0 
0 1 1 1 1 1 0.409808478700179 1 1 1 1 1 1 1 1 1 0:0 1:0.928361 2:0.0020196119 3:0.021259069 4:0.21982202 5:0.29892924 6:0.0026918296 7:0.00011007274 8:0 9:0 10:0.99999601 11:0 12:3.0334095e-05 13:1.6416643e-05 14:0.0025218285 15:0 16:0 17:0 18:0 19:0.99988097 20:0 21:0 22:0.0051709856 23:0.0073583182 24:0.0055253315 25:0.011202787 26:0 27:0 28:0.99778003 29:0.0022040827 30:0.0022040827 31:0.057538152 32:0.033351246 33:0 34:0 35:0 
0 1 1 1 1 1 0.5152561753666715 1 1 1 1 1 1 1 1 1 0:0 1:0.9832561 2:0.0065265135 3:0.026793776 4:0.11724897 5:0.12502216 6:0.051357813 7:0.020706747 8:0 9:0 10:0.98971945 11:0.015634686 12:0.0014450906 13:0.026284363 14:0.13713425 15:0.0068830927 16:0.025734603 17:0 18:0 19:0.93805087 20:0.039028496 21:0.10382493 22:0.16509567 23:0.28275672 24:0.0068493164 25:0.022351194 26:0 27:0 28:0.96963596 29:0.050074153 30:0.11246781 31:0.15415569 32:0.14174855 33:0.024266779 34:0.014155249 35:0 
0 0.4326925929498343 1 0 1 1 0 0.04942748695809032 0 0 0.8559925758441008 0 0 0 1 0 0:0 1:0.93487024 2:0 3:0.015100096 4:0.31516731 5:0.16107941 6:0.010124994 7:0.020206805 8:0 9:0 10:0.91755831 11:4.7835321e-05 12:0.032161035 13:0.37340617 14:0.13039275 15:0.024337724 16:0.0048692995 17:0 18:0 19:0.9942733 20:0 21:6.3359948e-05 22:0.10199802 23:0.030502487 24:0 25:0.0092042089 26:0 27:0 28:0.99553323 29:0.0054368265 30:0.010483145 31:0.087737389 32:0.0327751 33:0 34:0 35:0 
0 0 0.419649571312234 0 0 0 0 0 0 0 0 0 0 0 0 0 0:0 1:0.77692437 2:0 3:0 4:0.40148446 5:0.48496792 6:0 7:0.0011802764 8:0 9:0 10:0.91177016 11:0.046086185 12:0.012997924 13:0.26108009 14:0.3133634 15:0 16:0.0045391954 17:0 18:0 19:0.94958651 20:0 21:0 22:0.22838235 23:0.21453176 24:0.0099517349 25:0 26:0 27:0 28:0.98622644 29:0 30:0 31:0.13324431 32:0.097984143 33:0 34:0 35:0 
1 0 0.1102253037244686 1 0 1 1 0 0 1 1 1 1 1 0 0.06597458865266824 0:0 1:0.83317167 2:0.098257892 3:0.10987622 4:0.27024391 5:0.39870331 6:0.096941233 7:0.20664443 8:0 9:0 10:0.9562012 11:0.025988985 12:0.094680384 13:0.17120253 14:0.20820814 15:0.044272646 16:0.037645396 17:0 18:0 19:0.92208332 20:0.069543011 21:0.15368415 22:0.23495305 23:0.23676184 24:0.065685488 25:0.075706601 26:0 27:0 28:0.77038503 29:0.12699203 30:0.18406305 31:0.36489087 32:0.42015955 33:0.13433363 34:0.16962752 35:0 
0 0 0 1 0 0 0 0 0 0 0 0 0 0 0 0 0:0 1:0.87570864 2:0 3:0 4:0.33168417 5:0.34986371 6:0.026693534 7:0 8:0 9:0 10:0.87391585 11:0.027813338 12:0.016867075 13:0.22618182 14:0.42810786 15:0.027855337 16:0 17:0 18:0 19:0.72130829 20:0 21:0 22:0.45140049 23:0.52182603 24:0.060366206 25:0 26:0 27:0 28:0.99513644 29:0 30:0 31:0.066162527 32:0.072964147 33:0 34:0 35:0 
1 1 1 0 0.430433549387547 1 1 0 1 1 1 1 1 1 1 1 0:0 1:0.85712278 2:0.16560639 3:0.17206804 4:0.18915561 5:0.34692618 6:0.08099544 7:0.2135551 8:0 9:0 10:0.95022672 11:0.056126956 12:0.078377739 13:0.15897983 14:0.24645266 15:0.022329953 16:0.035513859 17:0 18:0 19:0.9886148 20:0.04860004 21:0.060625833 22:0.080370449 23:0.08934734 24:0.022547923 25:0.040618185 26:0 27:0 28:0.893462 29:0.16289848 30:0.22427219 31:0.20743197 32:0.25036219 33:0.056206103 34:0.12656824 35:0 
0 0.910613678047666 1 1 1 1 0 1 0.9935378177876664 1 1 0.05370246402739511 0 0 1 1 0:0 1:0.91425633 2:0 3:0 4:0.22434999 5:0.30590808 6:0.00024588424 7:0.14217857 8:0 9:0 10:0.99480492 11:0.026567496 12:0.013045986 13:0.026048413 14:0.092765316 15:0.00028560904 16:0.014148876 17:0 18:0 19:0.86717939 20:0 21:0 22:0.29843745 23:0.39400312 24:0.060753867 25:0 26:0 27:0 28:0.99817407 29:0 30:0 31:0.011979501 32:0.036093663 33:0 34:0.046889938 35:0 
0 1 1 1 1 1 1 1 1 1 1 0 0 1 0.3094014516633554 1 0:0 1:0.96421528 2:0.0027574552 3:0.0021423954 4:0.149847 5:0.21789701 6:0.016273303 7:0.0087608844 8:0 9:0 10:0.96300644 11:0.0012719351 12:0.038570408 13:0.11374614 14:0.23466094 15:0.0282066 16:0.048253391 17:0 18:0 19:0.9873324 20:0.0045688613 21:0.011715852 22:0.070370138 23:0.14100131 24:0.011123658 25:0.0076195425 26:0 27:0 28:0.94232678 29:0.018552288 30:0.059712753 31:0.22960518 32:0.23504911 33:0.0098466109 34:0.0067203376 35:0 
1 0 0 1 0 0 1 0 0 0 0 0 1 1 0 0 0:0 1:0.86574239 2:0.13568091 3:0.060436912 4:0.2239033 5:0.37837064 6:0.090220071 7:0.16428477 8:0 9:0 10:0.87256205 11:0.044669475 12:0.095164992 13:0.27791151 14:0.37462792 15:0.061353371 16:0.078975305 17:0 18:0 19:0.74040318 20:0.085579559 21:0.13988444 22:0.37483296 23:0.51791185 24:0.10434167 25:0.072729789 26:0 27:0 28:0.85198379 29:0.065688953 30:0.17105594 31:0.30567148 32:0.37049985 33:0.030557722 34:0.094375581 35:0 
1 1 1 1 1 1 1 0.8796673000602206 1 1 1 1 1 1 1 1 0:0 1:0.9137544 2:0.14178866 3:0.14818048 4:0.21320191 5:0.22192757 6:0.12900445 7:0.10789125 8:0 9:0 10:0.95740855 11:0.029599747 12:0.028816918 13:0.13883591 14:0.23413864 15:0.051169388 16:0.070329621 17:0 18:0 19:0.97555846 20:0.088580668 21:0.11927043 22:0.10892173 23:0.11547039 24:0.019717773 25:0.025027176 26:0 27:0 28:0.89717317 29:0.16912931 30:0.15497506 31:0.297737 32:0.20934984 33:0.059314728 34:0.080396079 35:0 
0 1 1 0 1 1 1 1 1 1 1 0 0 0 1 1 0:0 1:0.94656456 2:0 3:0 4:0.13440163 5:0.29230371 6:0.012608059 7:0.018689161 8:0 9:0 10:0.93759483 11:0.023723265 12:0.018980706 13:0.17704359 14:0.29741886 15:0.011302209 16:0.0078199748 17:0 18:0 19:0.99389386 20:0 21:0 22:0.066206671 23:0.087880746 24:0.0069591333 25:0.0043307506 26:0 27:0 28:0.98350513 29:0.00028919749 30:0.018701579 31:0.10073529 32:0.14897674 33:0.0049163946 34:0 35:0 
0 0 0 1 0 0 0 0 0 0 0 0 0 0 0 0 0:0 1:0.95346671 2:0 3:0 4:0.1792756 5:0.2399582 6:0.0055495724 7:0.033885334 8:0 9:0 10:0.90966195 11:0.0016821257 12:0.0086154174 13:0.27140087 14:0.31409261 15:0.0076637501 16:0.0080500739 17:0 18:0 19:0.86841738 20:0 21:0 22:0.30868289 23:0.38543755 24:0.02620817 25:0.036244489 26:0 27:0 28:0.99610138 29:0 30:0 31:0.048905808 32:0.069856785 33:0 34:0.022551583 35:0 
0.4530846606820717 1 1 1 1 1 0 1 1 0.1851812703079263 0.849136813791858 0 0.6135532685168444 1 1 1 0:0 1:0.95399463 2:0 3:0 4:0.19858156 5:0.22135991 6:0.020736132 7:0.032046609 8:0 9:0 10:0.99999923 11:0 12:0 13:0 14:0 15:0 16:0 17:0 18:0 19:0.76068234 20:0 21:0 22:0.43538645 23:0.47960499 24:0.0051118233 25:0.041836355 26:0 27:0 28:0.99036062 29:0 30:0 31:0.079196289 32:0.11215888 33:0.0055548204 34:0.017358072 35:0 
0.6949833999277726 0 0 0 0 1 1 0 0 0 0 0 1 1 0 0 0:0 1:0.88944602 2:0.13292669 3:0.11820301 4:0.20855962 5:0.32087034 6:0.12180294 7:0.12629916 8:0 9:0 10:0.85432309 11:0.08373183 12:0.11610851 13:0.31476721 14:0.37281021 15:0.066720136 16:0.084383227 17:0 18:0 19:0.92078149 20:0.11368918 21:0.20661913 22:0.19631423 23:0.23056334 24:0.058260094 25:0.038066301 26:0 27:0 28:0.87791967 29:0.16134262 30:0.19263166 31:0.23713906 32:0.30614135 33:0.0659969 34:0.10864284 35:0 
0 1 1 0 1 1 0 1 1 1 1 1 1 1 1 1 0:0 1:0.93466729 2:0.023506703 3:0.028915204 4:0.16150868 5:0.30912855 6:0.036757503 7:0.044826899 8:0 9:0 10:0.9980709 11:0 12:3.1776151e-05 13:0.0046017007 14:0.061899941 15:0 16:0 17:0 18:0 19:0.99070543 20:0.0056098755 21:0.0043110582 22:0.049989443 23:0.11541884 24:0.03938514 25:0.03285303 26:0 27:0 28:0.99673694 29:0.014222729 30:0.038445029 31:0.027066119 32:0.044150792 33:0 34:0.046376631 35:0 
0 0 1 0 0 1 1 0 1 1 1 0 1 1 0 0 0:0 1:0.90434623 2:0.11940264 3:0.14510269 4:0.16214962 5:0.30699664 6:0.095551074 7:0.13105354 8:0 9:0 10:0.86526799 11:0.090719864 12:0.17396729 13:0.22403443 14:0.39171928 15:0.087449953 16:0.039141104 17:0 18:0 19:0.96930087 20:0.079979241 21:0.1072949 22:0.088233829 23:0.16134229 24:0.024249453 25:0.090227216 26:0 27:0 28:0.94757265 29:0.08708933 30:0.15226321 31:0.14258239 32:0.2203936 33:0.042908933 34:0.024321683 35:0 
0 0 0 1 0 0 0 0 0 0 0 0 0 0 0 0 0:0 1:0.89657474 2:0.0061456664 3:0.014738848 4:0.26487362 5:0.34974593 6:0.055616509 7:0.017964458 8:0 9:0 10:0.95477647 11:0.017092038 12:0.025910016 13:0.20887104 14:0.20623966 15:0.033412021 16:0.012585563 17:0 18:0 19:0.77327406 20:0.019800298 21:0.016828017 22:0.34438321 23:0.5257771 24:0.050801571 25:0.061206076 26:0 27:0 28:0.99304426 29:0.0023916678 30:0.0027037468 31:0.075647399 32:0.089119643 33:0.011541861 34:0.0070883059 35:0 
0.6537704962492967 0 0 0.5552549717065828 0 0 0 0.0548074580210872 0 0 0.06711975910373645 0.3515958195896182 0.3698520232947397 0.1169463404264648 0.9663007870562444 0.4779277318969357 0:0 1:0.2293022 2:0 3:0.009793696 4:0.081195965 5:0.9691335 6:0.029445566 7:0.025355751 8:0 9:0 10:0.80260324 11:1.7118567e-05 12:0.03478029 13:0.014749769 14:0.59410775 15:1.711868e-05 16:0.037883561 17:0 18:0 19:0.050212868 20:0.026631467 21:0.021018695 22:0.12133971 23:0.99057889 24:0.0048502428 25:0.018231664 26:0 27:0 28:0.018267827 29:0.006128571 30:0.099708341 31:0.21482892 32:0.96952391 33:0.042534906 34:0.04180425 35:0 
0 1 1 0 1 1 0 1 1 1 1 1 0 1 1 1 0:0 1:0.98298818 2:0.010435276 3:0.025557904 4:0.12972689 5:0.12675825 6:0.0028613857 7:0.0080949487 8:0 9:0 10:0.97204077 11:0.017511379 12:0.010260383 13:0.16805218 14:0.16182037 15:0.012254525 16:0.012075939 17:0 18:0 19:0.9999994 20:0 21:0 22:0 23:0 24:0 25:0 26:0 27:0 28:0.99668562 29:0.018111425 30:0.056145415 31:0 32:0.055994485 33:0 34:0 35:0 
0 1 1 0.5849032170249574 1 1 1 1 1 1 1 1 0 1 1 1 0:0 1:0.92142177 2:0.013998206 3:0.0059864535 4:0.18981859 5:0.33666426 6:0.00025922604 7:0.037049066 8:0 9:0 10:0.99691945 11:0 12:0 13:0.009067581 14:0.077894844 15:0 16:0 17:0 18:0 19:0.99993068 20:0 21:0 22:0.0060839807 23:0.010007914 24:0 25:0 26:0 27:0 28:0.98578149 29:0.014242879 30:0.0043278798 31:0.1186282 32:0.11794875 33:0.00018740632 34:0.0051112701 35:0 
1 0 0.4988533862422482 1 1 0 1 0 0 0 0 0.1527737572530904 0 0 0 0 0:0 1:0.61208987 2:0 3:0.013031965 4:0.59830737 5:0.51655954 6:0.011805408 7:0.015126837 8:0 9:0 10:0.98012608 11:0 12:0.0045295502 13:0.12013233 14:0.15770103 15:0.0041715298 16:0.0035325752 17:0 18:0 19:0.92336971 20:0.0022850754 21:0.011031136 22:0.32638589 23:0.20152172 24:0 25:0.010982011 26:0 27:0 28:0.96207911 29:0 30:0 31:0.21221288 32:0.17131951 33:0.00089059683 34:0.004104896 35:0 
0 1 1 0 1 1 0 1 1 1 1 1 0 1 1 1 0:0 1:0.977139 2:0.028646177 3:0.026996432 4:0.14906068 5:0.14053196 6:0.01075503 7:0.039542627 8:0 9:0 10:0.96429527 11:0.039230276 12:0.024792129 13:0.18083084 14:0.17543277 15:0.041650228 16:0.052607395 17:0 18:0 19:0.99993211 20:0 21:0 22:0.0057584615 23:0.0064750318 24:0.0028385278 25:0.0071577453 26:0 27:0 28:0.99309582 29:0.035512902 30:0.0053518624 31:0.096287377 32:0.053715095 33:0.0068085422 34:0.016303558 35:0 
0.6884395003957503 0 1 0 0 0.008501423147870925 0 0 0 0 1 0.4421800635189957 0 0 1 1 0:0 1:0.81720275 2:2.8433988e-05 3:0.0080011366 4:0.10317583 5:0.56635457 6:0.016395608 7:0.021007618 8:0 9:0 10:0.98352897 11:5.2409621e-05 12:0.029620897 13:0.05592582 14:0.1656606 15:0.0020244604 16:0.034879554 17:0 18:0 19:0.79354161 20:0 21:6.7847905e-05 22:0.041212428 23:0.60641664 24:0.018165074 25:0.022773271 26:0 27:0 28:0.97982335 29:1.9561334e-05 30:0.00020139606 31:0.014765986 32:0.19916132 33:1.9561456e-05 34:0.007811259 35:0 
0 0 1 1 1 0 0 0 0 0 0 0 0 0 0 0 0:0 1:0.88938534 2:0 3:0 4:0.35126653 5:0.29117036 6:0.028683443 7:0 8:0 9:0 10:0.9623782 11:0.037781022 12:0.0066699716 13:0.11580636 14:0.24266094 15:0.0076967981 16:1.6578912e-05 17:0 18:0 19:0.92291278 20:0 21:0 22:0.28340495 23:0.25786486 24:0.027531181 25:0.025645297 26:0 27:0 28:0.98599225 29:0 30:0 31:0.12018427 32:0.11564157 33:0 34:0 35:0 
0 1 1 1 1 1 0 1 1 1 1 1 1 1 1 1 0:0 1:0.99999911 2:0 3:0 4:0 5:0 6:0 7:0.00056578958 8:0 9:0 10:0.9874922 11:0.024651622 12:0.0082773101 13:0.089698978 14:0.12702455 15:0.00019504614 16:1.7731427e-05 17:0 18:0 19:0.99999923 20:0 21:0 22:0 23:0 24:0 25:0 26:0 27:0 28:0.99999917 29:0 30:0 31:0 32:0 33:0 34:0.00026610473 35:0 
0 1 1 0 1 1 1 1 1 1 1 1 0.3576514206430921 1 1 1 0:0 1:0.99136782 2:0.014955808 3:0.021146817 4:0.053505357 5:0.1164209 6:0.005342037 7:0.0084226625 8:0 9:0 10:0.96589023 11:0 12:0.019111428 13:0.1158713 14:0.23074096 15:0 16:0.0046591726 17:0 18:0 19:0.9999994 20:0 21:0 22:0 23:0 24:0 25:0 26:0 27:0 28:0.98891836 29:0.0096077435 30:0.021539221 31:0.063634545 32:0.13057527 33:0 34:0.019572984 35:0 
0 0 0 1 0 0 0 0 0 0 0 0 0 0 0 0 0:0 1:0.94244194 2:0 3:0 4:0.17890446 5:0.27989864 6:0.026243065 7:0.027608411 8:0 9:0 10:0.94432998 11:0.0086953361 12:0.00045279844 13:0.19706912 14:0.26286757 15:0.014987805 16:0.0017494381 17:0 18:0 19:0.82481039 20:0 21:0 22:0.4590542 23:0.32730857 24:0.039683435 25:0.01571166 26:0 27:0 28:0.99390262 29:0 30:0 31:0.075357951 32:0.080455333 33:0.0018911859 34:0 35:0 
1 0 0 0.585257959853877 0 0 1 0 0 0 0 0 0 0 0 1 0:0 1:0.4451617 2:0.00040082872 3:5.8005284e-10 4:0.079298608 5:0.89131469 6:0.029759506 7:0.014521173 8:0 9:0 10:0.82709277 11:0.0057133334 12:0.0235877 13:0.11259499 14:0.54982495 15:0.018427897 16:0.0001200907 17:0 18:0 19:0.1015744 20:0.03139133 21:0.012272874 22:0.12473399 23:0.98564911 24:0.021583434 25:0.031832457 26:0 27:0 28:0.078548625 29:0.010040312 30:0.064719625 31:0.18438816 32:0.97646588 33:0.042435437 34:0.015854426 35:0 
1 0 0 1 0.07998726126896963 1 1 0 1 1 1 1 1 1 1 1 0:0 1:0.8646453 2:0.1317322 3:0.21458521 4:0.2550495 5:0.22924265 6:0.16957039 7:0.20646867 8:0 9:0 10:0.94344425 11:0.056939062 12:0.096789114 13:0.17958973 14:0.23749723 15:0.060564008 16:0.070538849 17:0 18:0 19:0.94139475 20:0.078954853 21:0.11135693 22:0.20027378 23:0.21856783 24:0.080868408 25:0.026804451 26:0 27:0 28:0.84446645 29:0.28352311 30:0.17196758 31:0.25874105 32:0.27260733 33:0.11759606 34:0.14773318 35:0 
1 0 1 1 0 0.4229818624380968 1 0 0 0.07981286385406509 1 0 1 0 0 0.7012508038898058 0:0 1:0.84436649 2:0 3:0 4:0.19549388 5:0.45395228 6:0.07558687 7:0.19245331 8:0 9:0 10:0.90101874 11:0.093273193 12:0.086369529 13:0.24806708 14:0.32720342 15:0.046926148 16:0.034677505 17:0 18:0 19:0.97067308 20:0.015472639 21:0.013483219 22:0.14547996 23:0.17123139 24:0.021393789 25:0.080179147 26:0 27:0 28:0.70602906 29:0.20326471 30:0.11448422 31:0.36145121 32:0.51366246 33:0.1541747 34:0.16979802 35:0 
1 0 0 0 0 1 1 0 0 1 1 1 1 1 0 0 0:0 1:0.79616064 2:0.2115781 3:0.14839517 4:0.25964111 5:0.38610166 6:0.20202748 7:0.20502754 8:0 9:0 10:0.86675858 11:0.1376593 12:0.1158955 13:0.26495978 14:0.36150253 15:0.082379803 16:0.093120396 17:0 18:0 19:0.96623892 20:0.10009449 21:0.10808018 22:0.16822754 23:0.12189926 24:0.035792507 25:0.01546338 26:0 27:0 28:0.74051553 29:0.17534496 30:0.2195514 31:0.34152317 32:0.43843335 33:0.23108912 34:0.10208441 35:0 
0 1 1 0 1 1 0 1 1 1 1 1 1 1 1 1 0:0 1:0.9865939 2:0 3:0 4:0.081602365 5:0.13989069 6:0 7:0.020071371 8:0 9:0 10:0.9852367 11:0 12:0.0045168456 13:0.04260736 14:0.16225956 15:0.029930254 16:0.015726017 17:0 18:0 19:0.99999934 20:0 21:0 22:0 23:0 24:0 25:0 26:0 27:0 28:0.99939406 29:0.0003320676 30:0.00066413521 31:0.0065168208 32:0.030550191 33:0.0003320676 34:0.015275096 35:0 
-1 0 0 1 0 0 1 0 0 0 0.9552736218674078 0.6982009356092748 1 1 0 0 0:0 1:0.73391968 2:0.13914742 3:0.20558846 4:0.36767653 5:0.48895279 6:0.11257901 7:0.11312041 8:0 9:0 10:0.98955518 11:0.00056963344 12:0.021151941 13:0.037187926 14:0.13496105 15:0.0075908764 16:0.026012981 17:0 18:0 19:0.77546996 20:0.11126299 21:0.14420696 22:0.39867949 23:0.41114384 24:0.1484604 25:0.12427321 26:0 27:0 28:0.75214291 29:0.1118164 30:0.21465948 31:0.40007287 32:0.45226389 33:0.071898587 34:0.07698597 35:0 
-0 0 0 1 0 0 0 0 0 0 0 0 0 0 0 0 0:0 1:0.11193307 2:0.0038853828 3:0.066740654 4:0.82507193 5:0.54389393 6:0.078096204 7:0.018284934 8:0 9:0 10:0.88449836 11:0.0013774183 12:0.039790355 13:0.33938748 14:0.31620181 15:0.028226003 16:0.010534122 17:0 18:0 19:0.87048113 20:0.0028692523 21:0.024665534 22:0.4032678 23:0.27912319 24:0.033295985 25:0 26:0 27:0 28:0.081090249 29:0.0036410429 30:0.016419604 31:0.80686861 32:0.58237112 33:0.051607206 34:0.01677876 35:0 
-0 0 0 0 0 0 0 0 0 0 0 0.06338038536291071 0 0 0 0 0:0 1:0.081395827 2:0.038607609 3:0.16212891 4:0.80826843 5:0.49097636 6:0.073554657 7:0.25657111 8:0 9:0 10:0.92446512 11:0.097213864 12:0.13940649 13:0.1164204 14:0.28459966 15:0.085854441 16:0.12064926 17:0 18:0 19:0.9712162 20:0.010080857 21:0.043394152 22:0.12988596 23:0.1847461 24:0.026056962 25:0.0554283 26:0 27:0 28:0.29339448 29:0.26694158 30:0.18905573 31:0.69886047 32:0.50581843 33:0.13919592 34:0.20804606 35:0 
-0 0 0 1 0 0 0 0 0 0 0 0 0 0 0 0 0:0 1:0.024164705 2:0.023485534 3:0.050026193 4:0.84392858 5:0.5298695 6:0.055645037 7:0.016881535 8:0 9:0 10:0.93171388 11:0.042336423 12:0.050263707 13:0.22181082 14:0.27790362 15:0.034029402 16:0 17:0 18:0 19:0.93917578 20:0.016685648 21:0.017819909 22:0.26164982 23:0.21950069 24:0.026638912 25:0 26:0 27:0 28:0.011789902 29:0.045058057 30:0.058973491 31:0.80552018 32:0.58663142 33:0.036753826 34:0.00050519925 35:0 
-0 0 0 1 0 0 0 0 0 0 0 0 0 0 0 0 0:0 1:0.48840082 2:0.18297148 3:0.14449626 4:0.56490397 5:0.58096403 6:0.13586952 7:0.17890912 8:0 9:0 10:0.93997443 11:0.029545411 12:0.08736676 13:0.16375479 14:0.27804121 15:0.024384404 16:0.056778334 17:0 18:0 19:0.68733084 20:0.15600452 21:0.18647303 22:0.44807413 23:0.4850705 24:0.12011547 25:0.1340621 26:0 27:0 28:0.60519814 29:0.13341689 30:0.17223907 31:0.58355755 32:0.47372341 33:0.030345611 34:0.14280218 35:0 
-0 0 0 0 0 0 1 0 0 0 0 0 0 0 0 0 0:0 1:0.43899935 2:0 3:0 4:0.4031541 5:0.80184215 6:0.042326815 7:0 8:0 9:0 10:0.94928229 11:0 12:0.0086314185 13:0.24074546 14:0.2018526 15:0.009151008 16:0 17:0 18:0 19:0.94907039 20:0 21:0.009558063 22:0.19813006 23:0.24297625 24:0.02964833 25:0 26:0 27:0 28:0.39231354 29:0 30:0.047182135 31:0.58036673 32:0.7118268 33:0.010711416 34:0.014948858 35:0 
-0 0 0 0.3737207946138381 0.2883285204873879 0 0 0 0 0 0 0 0 0 0 0 0:0 1:0.059604373 2:0.017045487 3:0.027119169 4:0.8756817 5:0.46880588 6:0.048921958 7:0.080169685 8:0 9:0 10:0.91703498 11:0.003568186 12:0.028740544 13:0.32001773 14:0.23288201 15:0.0096094748 16:0.038321223 17:0 18:0 19:0.93681675 20:0.00057143555 21:0.019066866 22:0.29590985 23:0.17202727 24:0.028095225 25:0.063742869 26:0 27:0 28:0.58070576 29:0.069492474 30:0.049776234 31:0.69193035 32:0.41257921 33:0.028233945 34:0.075399004 35:0 
-0.1698747328750684 0 0.5967731196043953 0 0 0 1 0 0 0 0 0 0 0 0 0.1152060632331978 0:0 1:0.76589209 2:0 3:0 4:0.24274094 5:0.58951455 6:0.051193114 7:0.065830112 8:0 9:0 10:0.96067113 11:0.024374748 12:0.018599998 13:0.19623595 14:0.18870999 15:0.0013800603 16:0.045243654 17:0 18:0 19:0.96607828 20:0 21:0 22:0.17084502 23:0.19159456 24:0.0045248806 25:0.027813694 26:0 27:0 28:0.38658264 29:0.018552212 30:0.042814981 31:0.6277898 32:0.66754979 33:0.061425716 34:0.069697455 35:0 
-0 0 0 0 0 0 0 0 0 0 0 0.3663961484431525 1 0 0 0 0:0 1:0.31253174 2:0.2417575 3:0.20920578 4:0.45334539 5:0.68877387 6:0.18578638 7:0.29267001 8:0 9:0 10:0.90468985 11:0.049091797 12:0.064609542 13:0.12162385 14:0.3886852 15:0.043073684 16:0.084999211 17:0 18:0 19:0.93318802 20:0.065548353 21:0.16387445 22:0.11703645 23:0.27392337 24:0.089937523 25:0.034417294 26:0 27:0 28:0.09192948 29:0.086221665 30:0.34303311 31:0.52480406 32:0.72628623 33:0.21648027 34:0.12908272 35:0 
-1 0 0 1 0 0.1022057305041236 1 0 0 0 0 0 0 0 0 0.5631273238393402 0:0 1:0.78531653 2:0.00046093494 3:0.004493936 4:0.22082289 5:0.57762325 6:0.028989399 7:0.0018625206 8:0 9:0 10:0.85283184 11:0.066712335 12:0.064304158 13:0.3508268 14:0.37366495 15:0.036831096 16:0.0053203073 17:0 18:0 19:0.86822623 20:0.02448287 21:0.026251791 22:0.29016522 23:0.3994123 24:0.032387808 25:0.010842188 26:0 27:0 28:0.70793438 29:0.044141438 30:0.029100021 31:0.33406332 32:0.61993855 33:0.0083824629 34:0.0062601678 35:0 
-1 1 1 1 1 1 1 1 1 1 1 1 1 1 1 1 0:0 1:0.87253129 2:0.033019736 3:0.1018682 4:0.21809483 5:0.37453279 6:0.084880978 7:0.17937164 8:0 9:0 10:0.96264452 11:0.017197859 12:0.00042351722 13:0.15900117 14:0.20380314 15:0.063677087 16:0.046322718 17:0 18:0 19:0.99389905 20:0.026144175 21:0.0062063504 22:0.059696816 23:0.086028568 24:0.0054407138 25:0.021149974 26:0 27:0 28:0.87342429 29:0.0014325987 30:0.063851178 31:0.21860759 32:0.37372145 33:0.10598709 34:0.18535852 35:0 
-0 0 0 1 0 0 0 0 0 0 0 0 0 0 0 0 0:0 1:0.043752421 2:0.0097792642 3:0.0057637463 4:0.6263755 5:0.7776202 6:0.018847723 7:0.023657661 8:0 9:0 10:0.86428601 11:0.0044806842 12:0.011154463 13:0.34772202 14:0.36267328 15:0.016829796 16:0.011704069 17:0 18:0 19:0.85662818 20:0.0046873027 21:0.011447869 22:0.34814861 23:0.37799829 24:0.017690679 25:0.040367652 26:0 27:0 28:0.057278961 29:0.022646004 30:0.02374858 31:0.65917593 32:0.74860746 33:0.020211674 34:0.017465802 35:0 
-1 0 0 1 0.0546168427131905 0.2398649840606767 1 0 0 0 0.898871258942586 1 1 1 0 0 0:0 1:0.72488862 2:0.15307203 3:0.21692796 4:0.4414705 5:0.42240128 6:0.09512046 7:0.14723518 8:0 9:0 10:0.97971237 11:0.025788967 12:0.011581551 13:0.10427956 14:0.16682637 15:0.017668072 16:0.018595772 17:0 18:0 19:0.87876815 20:0.098337844 21:0.081628591 22:0.2943911 23:0.33750284 24:0.083724461 25:0.062023569 26:0 27:0 28:0.76854926 29:0.15782776 30:0.15503669 31:0.47488168 32:0.3480607 33:0.06482695 34:0.097581781 35:0 
-1 1 1 1 1 1 1 1 1 1 1 1 1 1 1 1 0:0 1:0.77027726 2:0.18040851 3:0.038236082 4:0.50295365 5:0.30911952 6:0.063106298 7:0.14198786 8:0 9:0 10:0.98403066 11:0.031304091 12:0.013682591 13:0.1001941 14:0.14085113 15:0.01675876 16:0.01888155 17:0 18:0 19:0.97653341 20:0.031888995 21:0.012487201 22:0.15481928 23:0.14265352 24:0.011622362 25:0.027465429 26:0 27:0 28:0.85296667 29:0.14475866 30:0.046106543 31:0.40243441 32:0.25125393 33:0.049518332 34:0.1477505 35:0 
-0 0 0 1 0 0 0 0 0 0 0 0 0 0 0 0 0:0 1:0.32638171 2:0 3:0.014457237 4:0.60654938 5:0.72463602 6:0.0048233997 7:0.015496181 8:0 9:0 10:0.88661861 11:0.017144617 12:0.036464684 13:0.34661791 14:0.30330929 15:0.010905262 16:0.0047182152 17:0 18:0 19:0.88423431 20:0 21:0.00089605636 22:0.33535919 23:0.32424724 24:0.0229086 25:0 26:0 27:0 28:0.29894665 29:0 30:0.051877018 31:0.71346229 32:0.63150936 33:0.01022741 34:0 35:0 
-0 0 0 0 0 0 0 0 0 0 0.3670850914614484 1 1 0 0 0 0:0 1:0.29938641 2:0.29150534 3:0.25599581 4:0.54097122 5:0.57274926 6:0.20124903 7:0.31410629 8:0 9:0 10:0.91388398 11:0.078546576 12:0.078424014 13:0.15834381 14:0.33801651 15:0.064082183 16:0.095186718 17:0 18:0 19:0.9814648 20:0.033294655 21:0.023521181 22:0.08974728 23:0.16002126 24:0.016790807 25:0.033473887 26:0 27:0 28:0.36020336 29:0.30139259 30:0.21856244 31:0.52360219 32:0.56636828 33:0.23224351 34:0.28770515 35:0 
-0 0 0 1 0 0 0 0 0 0 0 0 0 0 0 0 0:0 1:0.0030891607 2:0.030556027 3:0.038035057 4:0.66863525 5:0.73767573 6:0.041743796 7:0.068011813 8:0 9:0 10:0.89008868 11:0.049282987 12:0.039511755 13:0.33192724 14:0.30322596 15:0.010593135 16:0.038937371 17:0 18:0 19:0.90664816 20:0.01801019 21:0.013430962 22:0.26523697 23:0.32318398 24:0.028805736 25:0.043056279 26:0 27:0 28:0.021714155 29:0.028934184 30:0.04670044 31:0.70934856 32:0.70036614 33:0.021950116 34:0.048352931 35:0 
-0.4450417209734283 0 0 0 0 0 0.6168945671215725 0 0 0 0 1 0.4350080169932652 0 0.3307546046594882 1 0:0 1:0.18922742 2:0.048061434 3:0.07579536 4:0.32034016 5:0.91563487 6:0.073639609 7:0.098526731 8:0 9:0 10:0.93609214 11:0.079668626 12:0.083162375 13:0.13102661 14:0.29269394 15:0.082468092 16:0.028778221 17:0 18:0 19:0.99342197 20:0.0048257224 21:0.032356493 22:0.028447386 23:0.10259262 24:0.0031002609 25:0.02640602 26:0 27:0 28:0.38150069 29:0.18467721 30:0.1280894 31:0.32408053 32:0.81625634 33:0.13914046 34:0.11523701 35:0 
-1 0.233232771241723 1 1 1 1 1 0.5727686031486843 1 1 1 1 1 1 0.9923760038881442 1 0:0 1:0.81712317 2:0.078928247 3:0.14760545 4:0.34158686 5:0.40099725 6:0.12199206 7:0.10921694 8:0 9:0 10:0.97736752 11:0.01633258 12:0.022901833 13:0.080300018 14:0.19149415 15:0.012725153 16:0.026084175 17:0 18:0 19:0.8570345 20:0.090903684 21:0.1240975 22:0.3150669 23:0.35676575 24:0.1055134 25:0.064374931 26:0 27:0 28:0.8364535 29:0.14656001 30:0.19691485 31:0.33383104 32:0.34517288 33:0.053799905 34:0.0812805 35:0 
-1 1 1 1 1 1 1 1 1 1 1 1 1 1 1 1 0:0 1:0.9059341 2:0.068143956 3:0.11514968 4:0.24443819 5:0.29256037 6:0.085772738 7:0.093168974 8:0 9:0 10:0.99386632 11:0.015512972 12:0.015291038 13:0.069039367 14:0.078503355 15:0.0053091682 16:0.02823058 17:0 18:0 19:0.82323629 20:0.11511497 21:0.17832656 22:0.30368525 23:0.39389843 24:0.12831366 25:0.1156868 26:0 27:0 28:0.88317293 29:0.085787445 30:0.18543378 31:0.28547999 32:0.30235863 33:0.03722921 34:0.062874705 35:0 
-0.6199442638046883 0 0 1 0 0 0 0 0 0 0 0 0 0 0.4523343956452347 0 0:0 1:0.036431223 2:0.016575908 3:0.041694865 4:0.59016669 5:0.80217046 6:0.05079858 7:0.047982544 8:0 9:0 10:0.70043206 11:0.047310237 12:0.095775567 13:0.34938866 14:0.60585189 15:0.059982628 16:0.072481483 17:0 18:0 19:0.73853093 20:0.034519237 21:0.067807257 22:0.29120237 23:0.59089756 24:0.09624254 25:0.074553467 26:0 27:0 28:0.055900343 29:0.047952812 30:0.081769273 31:0.66825402 32:0.73145974 33:0.066010259 34:0.043946914 35:0 
-0 0 0 0 0 0 0 0 0 0 0 1 1 0 0 0 0:0 1:0.24257672 2:0.24576974 3:0.16614106 4:0.65262085 5:0.5726155 6:0.24448758 7:0.19892718 8:0 9:0 10:0.94395071 11:0.047544423 12:0.050379284 13:0.20600171 14:0.2356212 15:0.054138955 16:0.057204127 17:0 18:0 19:0.92781091 20:0.10314324 21:0.096314862 22:0.2261129 23:0.20795915 24:0.10468231 25:0.11797322 26:0 27:0 28:0.27400514 29:0.2954208 30:0.26985154 31:0.58576494 32:0.58740139 33:0.1987963 34:0.19272934 35:0 
-1 0 0 0 0 0 1 0 0 1 1 1 1 0.04483691682227433 0 0 0:0 1:0.39642647 2:0.31109342 3:0.25138906 4:0.51606679 5:0.49676391 6:0.1722308 7:0.37430495 8:0 9:0 10:0.90640092 11:0.07951875 12:0.095198095 13:0.20331918 14:0.32680416 15:0.079961285 16:0.092285976 17:0 18:0 19:0.98835349 20:0.047390576 21:0.021988301 22:0.088028058 23:0.10014385 24:0.0074496339 25:0.050926555 26:0 27:0 28:0.3831214 29:0.32228062 30:0.18127972 31:0.51524174 32:0.53105408 33:0.17820325 34:0.37045711 35:0 
-0 0 0 1 0 0 0 0 0 0 0 0 0 0 0 0 0:0 1:0.00014652728 2:0.020327702 3:0.042097252 4:0.82435697 5:0.56086761 6:0.05911218 7:0.013439343 8:0 9:0 10:0.8622458 11:0.024187744 12:0.074474975 13:0.43418783 14:0.23990813 15:0.06575302 16:0 17:0 18:0 19:0.87812364 20:0.021472024 21:0.042826336 22:0.32677945 23:0.34280717 24:0.037743814 25:0.029584492 26:0 27:0 28:0.02733444 29:0.030447029 30:0.069383547 31:0.82024014 32:0.56380928 33:0.053239442 34:4.8244267e-05 35:0 
-1 0.3389287737119884 0.1340768655105251 1 0.198194622074462 0.3995390783843384 1 0.7746114829461703 0.4237912739419565 0.19228932689275 0.6424486631730919 0.1897048265747835 0.3853577768708287 0.6772330904479317 1 1 0:0 1:0.0264543 2:0.021815475 3:0.042012807 4:0.40437418 5:0.9092592 6:0.067236498 7:0.047588207 8:0 9:0 10:0.29804111 11:0.15121052 12:0.18433405 13:0.39562723 14:0.80425709 15:0.15009961 16:0.16864905 17:0 18:0 19:0.32052973 20:0.069975026 21:0.17146343 22:0.39930212 23:0.80509508 24:0.17065918 25:0.1619091 26:0 27:0 28:0.047344159 29:0.02754507 30:0.12245914 31:0.42672497 32:0.88300067 33:0.12232956 34:0.07245189 35:0 
-0 0 0 1 0 0 0 0 0 0 0 0 0 0 0 0 0:0 1:0.58291262 2:0.14247036 3:0.16540247 4:0.46631247 5:0.5790509 6:0.13582195 7:0.20337248 8:0 9:0 10:0.96653903 11:0.026418356 12:0.034491956 13:0.12532218 14:0.21491176 15:0.012283125 16:0.043245316 17:0 18:0 19:0.73646361 20:0.13462041 21:0.11551195 22:0.38842949 23:0.49363047 24:0.091052011 25:0.15269181 26:0 27:0 28:0.60524768 29:0.21392702 30:0.16998012 31:0.4866983 32:0.53903723 33:0.100495 34:0.14655961 35:0 
-0 0 0 1 0 0 0 0 0 0 0 0 0 0 0 0 0:0 1:0.0047855447 2:0.011533119 3:0.040701557 4:0.8201685 5:0.56912524 6:0.030921957 7:0.025470559 8:0 9:0 10:0.88144618 11:0.050094727 12:0.062025558 13:0.37136704 14:0.27939385 15:0.01109524 16:0.024418918 17:0 18:0 19:0.88651085 20:0.022586575 21:0.032915067 22:0.31110024 23:0.33665323 24:0 25:0.048825823 26:0 27:0 28:0.051234003 29:0.052234929 30:0.094603606 31:0.77954638 32:0.61322099 33:0 34:0.044285737 35:0 
-1 0 1 1 1 0 1 0 0 0 0 0.2852750181299092 0 0 0 0 0:0 1:0.73589104 2:0.040962383 3:0.059181336 4:0.44292772 5:0.50678933 6:0.015495884 7:0.0045934729 8:0 9:0 10:0.95853692 11:0.0090705995 12:0.021746645 13:0.16296914 14:0.23157521 15:0.013285069 16:0.016976062 17:0 18:0 19:0.96892959 20:0.01073987 21:0.011850599 22:0.13549039 23:0.20604618 24:0.0086923232 25:0.0055079875 26:0 27:0 28:0.76353335 29:0.061170395 30:0.081977166 31:0.46935087 32:0.4307057 33:0.020925101 34:0.017799774 35:0 
-0 0 0 0 0 0 0 0 0 0 0 0.4308474616000942 0 0 0 0 0:0 1:0.1893748 2:0.26634946 3:0.20201726 4:0.63798892 5:0.59908694 6:0.16537423 7:0.24310023 8:0 9:0 10:0.89760733 11:0.057833213 12:0.10966656 13:0.22294365 14:0.3429133 15:0.080017783 16:0.072333649 17:0 18:0 19:0.97454482 20:0.039250411 21:0.017781105 22:0.090904616 23:0.19159006 24:0.032287788 25:0.048902083 26:0 27:0 28:0.27507794 29:0.24263161 30:0.17886735 31:0.66876793 32:0.54213893 33:0.15608141 34:0.26065192 35:0 
-1 0 0 1 0 0 1 0 0 0 0 0 0.05801759919539268 1 0 1 0:0 1:0.84747392 2:0.054067951 3:0.053860873 4:0.30134949 5:0.39777195 6:0.082320869 7:0.14195524 8:0 9:0 10:0.98573685 11:0.011153867 12:0.015543931 13:0.083645873 14:0.14258386 15:0.00070649706 16:0.025071979 17:0 18:0 19:0.65911621 20:0.087683104 21:0.13331814 22:0.37638277 23:0.62126219 24:0.050817396 25:0.099442631 26:0 27:0 28:0.76049805 29:0.10252176 30:0.13962261 31:0.40805578 32:0.46183518 33:0.030247534 34:0.104498 35:0 
-0 0 0 0.5986109481140692 0 0 0 0 0 0 0 0 0 0 0 0 0:0 1:0.26739535 2:0.0090505481 3:0.045279827 4:0.80381185 5:0.51969349 6:0.072852045 7:0.069727547 8:0 9:0 10:0.85658914 11:0.072628096 12:0.084337376 13:0.28381309 14:0.38221371 15:0.11976507 16:0.11350035 17:0 18:0 19:0.89240241 20:0.00014183218 21:0.077222459 22:0.34234226 23:0.27897167 24:0.030039782 25:0.041510992 26:0 27:0 28:0.62251282 29:0.05874794 30:0.050134063 31:0.59879971 32:0.46755174 33:0.15006402 34:0.082609177 35:0 
-1 1 1 1 1 1 1 1 1 1 1 1 1 1 1 1 0:0 1:0.91819817 2:0.032984238 3:0.031106694 4:0.19544753 5:0.3365041 6:0.0210125 7:0.054570343 8:0 9:0 10:0.97292358 11:0.012748536 12:0.046579983 13:0.081223167 14:0.20877913 15:0.029843515 16:0.0030705775 17:0 18:0 19:0.96367306 20:0.024738101 21:0.022540662 22:0.15464152 23:0.21452086 24:0.0055767256 25:0.015747102 26:0 27:0 28:0.84979421 29:0.071849287 30:0.14485155 31:0.27514413 32:0.41588268 33:0.053092312 34:0.014893422 35:0 
-0 0.1169924246944869 0.08243614212037022 0 0 0 0.1875421589719621 0 0 0 0 1 0 0 0 0.8849688748165594 0:0 1:0.086873069 2:0.056322034 3:0.067211792 4:0.5985626 5:0.78719223 6:0.082526706 7:0 8:0 9:0 10:0.99984092 11:0 12:0 13:0.0036816737 14:0.017411333 15:0 16:0 17:0 18:0 19:0.99997473 20:0 21:0 22:4.0959163e-05 23:0.00026054803 24:0.0070068822 25:0 26:0 27:0 28:0.089993469 29:0.065283485 30:0.078260161 31:0.63756996 32:0.75529009 33:0.067466468 34:0 35:0 
-0 0 0 1 0 0 0.0661757323852185 0 0 0 0 0 0 0 0.01242887066090919 0 0:0 1:0.029006878 2:0.0032326102 3:0.0012028731 4:0.91971093 5:0.391496 6:0.0021092789 7:0.0014947746 8:0 9:0 10:0.81917465 11:0.032178205 12:0.026015073 13:0.4586527 14:0.34137705 15:0.011637775 16:0.014220741 17:0 18:0 19:0.82605559 20:0.0017521642 21:0.00084102096 22:0.43515417 23:0.35790116 24:0.00032574238 25:0.013168762 26:0 27:0 28:0.050975177 29:0.0033537215 30:0.016274238 31:0.90211481 32:0.42812872 33:0.0038779017 34:0.001550777 35:0 
-1 1 1 1 1 1 1 1 1 1 1 1 1 1 1 1 0:0 1:0.87655503 2:0.15211363 3:0.13584696 4:0.20277591 5:0.34763926 6:0.078547865 7:0.14803961 8:0 9:0 10:0.98789233 11:0.012327338 12:0.026915131 13:0.067172937 14:0.13527466 15:0.0075140516 16:0.017985065 17:0 18:0 19:0.91223216 20:0.11832403 21:0.12178468 22:0.21338141 23:0.29335132 24:0.068935357 25:0.051576171 26:0 27:0 28:0.8374123 29:0.19073419 30:0.21963008 31:0.25822353 32:0.36635959 33:0.083975449 34:0.078556947 35:0 
-0.1084852186015008 0 0 0 0 0 0 0 0 0 0 0 0 0 0 1 0:0 1:0.50214732 2:0.068610936 3:0.13503566 4:0.31308705 5:0.77151555 6:0.12342019 7:0.12810823 8:0 9:0 10:0.94036192 11:0.041317068 12:0.048233815 13:0.13322441 14:0.30324733 15:0.029231654 16:0.033504788 17:0 18:0 19:0.88631719 20:0.067691721 21:0.08988151 22:0.20051202 23:0.38311821 24:0.095638506 25:0.075152896 26:0 27:0 28:0.4641653 29:0.13774906 30:0.18401442 31:0.35503897 32:0.75289452 33:0.15441193 34:0.12233748 35:0 
-0 0 0 0 0 0 0.02689613736929277 0 0 0 1 1 1 0 0 1 0:0 1:0.20579314 2:0.25877425 3:0.15845101 4:0.41613692 5:0.77746236 6:0.18104801 7:0.23490296 8:0 9:0 10:0.97624665 11:0.025960768 12:0.020489208 13:0.082310073 14:0.1938422 15:0.026051972 16:0.028620573 17:0 18:0 19:0.97905529 20:0.041078776 21:0.014314319 22:0.067565359 23:0.18118304 24:0.028220572 25:0.036989566 26:0 27:0 28:0.62964606 29:0.20511694 30:0.15401307 31:0.32274637 32:0.61586106 33:0.14701095 34:0.18079878 35:0 
-1 0 0.02588314713826084 1 1 0 1 0 0 0 0 0 0 0 0 0 0:0 1:0.27972847 2:6.0206014e-05 3:0.046943661 4:0.89275086 5:0.34711865 6:0.036903821 7:0.026230032 8:0 9:0 10:0.84390098 11:0.019963831 12:0.031637102 13:0.52590603 14:0.094118394 15:0.019260215 16:0.024942862 17:0 18:0 19:0.85385478 20:0 21:0.020547807 22:0.50667024 23:0.11438239 24:0.024414601 25:0.010619858 26:0 27:0 28:0.64391059 29:0.00019810822 30:0.023939064 31:0.70465779 32:0.29581553 33:0.012202879 34:0.024594933 35:0 
-1 0 0 0 0 0.9174822806391986 1 0 0 1 1 1 1 1 0 0.277115582528435 0:0 1:0.45430547 2:0.36824724 3:0.1845791 4:0.45143172 5:0.55469143 6:0.12448297 7:0.31137988 8:0 9:0 10:0.94426823 11:0.050798874 12:0.031569738 13:0.11510936 14:0.29253516 15:0.047759991 16:0.060590502 17:0 18:0 19:0.99521899 20:0.0059967889 21:0.005074623 22:0.052335512 23:0.082002886 24:0.0024689543 25:0.0026358659 26:0 27:0 28:0.49035919 29:0.34436694 30:0.19129224 31:0.41712207 32:0.51859015 33:0.25896615 34:0.30720055 35:0 
-0 0 0 0.7578261019135111 0 0 0 0 0 0 0 0 0 0 0 0 0:0 1:0.1200816 2:0 3:0 4:0.6980468 5:0.70104975 6:0.082682893 7:0 8:0 9:0 10:0.95034909 11:0.011796648 12:0.0081704138 13:0.15849881 14:0.2663798 15:0.023425233 16:0 17:0 18:0 19:0.95289433 20:0 21:0 22:0.18443623 23:0.23758197 24:0.039096694 25:0 26:0 27:0 28:0.082654521 29:0.027407462 30:0.037575595 31:0.62306517 32:0.77430505 33:0.056956477 34:0 35:0 
-1 0 1 0 0.6727458863774118 1 1 0.3273262977795716 0.4859601549809465 0.7883983753166316 1 0.3795967753410838 0.8771663031732513 0.1334666644595291 1 1 0:0 1:0.69961977 2:0.035596222 3:0.03849877 4:0.20670368 5:0.6811915 6:0.022849802 7:0.022590546 8:0 9:0 10:0.90258962 11:0.02094038 12:0.022950886 13:0.14310229 14:0.40396541 15:0.022864433 16:0.013279492 17:0 18:0 19:0.94596702 20:0.0098412745 21:0.022024177 22:0.10083131 23:0.30619258 24:0.023100112 25:0.01041724 26:0 27:0 28:0.83667815 29:0.06594377 30:0.02410217 31:0.2168152 32:0.49651691 33:0.023080993 34:0.031109009 35:0 
-1 0 0 0 0 0 1 0 0 0 0 0 1 0.02311131709441046 0 0 0:0 1:0.71146703 2:0.17238775 3:0.13551201 4:0.37498233 5:0.51705474 6:0.12461048 7:0.14915155 8:0 9:0 10:0.96273851 11:0.026765477 12:0.023280341 13:0.13481614 14:0.22769232 15:0.025755076 16:0.034532525 17:0 18:0 19:0.8819471 20:0.12905073 21:0.11628636 22:0.28243387 23:0.32721657 24:0.03253071 25:0.06397634 26:0 27:0 28:0.69578683 29:0.18575849 30:0.18782063 31:0.40013766 32:0.52259254 33:0.063876599 34:0.093822069 35:0 
-1 1 1 1 1 1 1 1 1 1 1 1 1 1 1 1 0:0 1:0.89242887 2:0.079414979 3:0.11798104 4:0.29497921 5:0.28535855 6:0.066096969 7:0.1026176 8:0 9:0 10:0.95871645 11:0.053761434 12:0.072427504 13:0.16380547 14:0.20410626 15:0.050162718 16:0.041438092 17:0 18:0 19:0.9867819 20:0.0097529031 21:0.033579949 22:0.085678428 23:0.13009393 24:0.015066712 25:0.023353364 26:0 27:0 28:0.87586635 29:0.088179678 30:0.088741131 31:0.32254231 32:0.28236064 33:0.12402786 34:0.13438901 35:0 
-1 0.2587850681870406 0.6058509727807974 0 0.7019763111965273 1 1 0 0.3146693366315847 1 1 1 1 1 1 1 0:0 1:0.3236008 2:0.28231999 3:0.30237448 4:0.42847741 5:0.51907855 6:0.40099555 7:0.33213091 8:0 9:0 10:0.97031212 11:0.031384192 12:0.03845495 13:0.1482529 14:0.16951509 15:0.039700598 16:0.061146058 17:0 18:0 19:0.97940767 20:0.039823413 21:0.029419042 22:0.10453299 23:0.15410213 24:0.025009805 25:0.054843351 26:0 27:0 28:0.74026155 29:0.24154577 30:0.20687866 31:0.33697999 32:0.33237225 33:0.23035829 34:0.27161562 35:0 
-0 0 0 0 0 0 0 0 0 0 0 1 1 0 0 0 0:0 1:0.29467809 2:0.28651899 3:0.20441873 4:0.62726259 5:0.55058277 6:0.16632318 7:0.25498676 8:0 9:0 10:0.96508223 11:0.03185704 12:0.02712933 13:0.1397685 14:0.21533646 15:0.020013733 16:0.023640858 17:0 18:0 19:0.99270362 20:0.019098831 21:0.0094924057 22:0.06594032 23:0.095482774 24:0.0042213881 25:0.024509441 26:0 27:0 28:0.30628768 29:0.32983279 30:0.14866073 31:0.62271863 32:0.53240675 33:0.20570427 34:0.24848628 35:0 
-1 1 1 0.8611456395198205 1 1 1 1 1 1 1 1 1 1 1 1 0:0 1:0.90593642 2:0.049936291 3:0.026701486 4:0.21082227 5:0.34657225 6:0.06982518 7:0.081458963 8:0 9:0 10:0.87821788 11:0.061156936 12:0.097749494 13:0.30971524 14:0.32343009 15:0.092108898 16:0.08013393 17:0 18:0 19:0.99633628 20:0.0010415767 21:0 22:0.020544857 23:0.080708422 24:0.0078497576 25:0.017720327 26:0 27:0 28:0.86859757 29:0.039858047 30:0.070206061 31:0.24303165 32:0.39658028 33:0.10118905 34:0.11152286 35:0 
-0 0 0 1 0 0 0 0 0 0 0 0 0 0 0 0 0:0 1:0.19278035 2:0.012801378 3:0.042625632 4:0.48708022 5:0.84588754 6:0.02257934 7:0.086977884 8:0 9:0 10:0.86355001 11:0.036070008 12:0.035920929 13:0.35547042 14:0.34683192 15:0.015926767 16:0.06914328 17:0 18:0 19:0.858428 20:0.03315223 21:0.038002234 22:0.2869049 23:0.41272938 24:0.0043310742 25:0.088746749 26:0 27:0 28:0.17089488 29:0.0059319995 30:0.042819921 31:0.62852955 32:0.75522661 33:0.021189855 34:0.055293351 35:0 
-0 -0 1 0 1 1 0 1 1 1 1 0 0 0 1 0 0:0 1:0.99828517 2:0.028808229 3:0.02360056 4:0.018567314 5:0.017308639 6:0.032864798 7:0.017723035 8:0 9:0 10:0.99210662 11:0.053410403 12:0.042847384 13:0.045081332 14:0.053290349 15:0.075061709 16:0.022979636 17:0 18:0 19:0.99840105 20:0.012386239 21:0.034343854 22:0.02504193 23:0.024370955 24:0.020731438 25:0.014515635 26:0 27:0 28:0.99980086 29:0.0056019709 30:0.0093140025 31:0.0024230906 32:0.0058099041 33:0.012415343 34:0.0092188129 35:0 
-1 -0.1944268738769218 1 0.760336959908117 1 1 1 1 1 1 1 1 1 1 1 1 0:0 1:0.98726237 2:0.046041962 3:0.055628829 4:0.053029142 5:0.12640534 6:0.028023247 7:0.022831097 8:0 9:0 10:0.99100143 11:0.011975085 12:0.015492658 13:0.029961374 14:0.091145039 15:0.071911953 16:0.056171663 17:0 18:0 19:0.99955577 20:0.00088768464 21:0.021232825 22:0.0053679515 23:0.015250807 24:0 25:0.013184279 26:0 27:0 28:0.9892692 29:0.026776023 30:0.028778456 31:0.070685156 32:0.11556861 33:0.03172259 34:0.021008151 35:0 
-1 -0 1 0 0 1 1 1 1 1 1 1 1 1 0 1 0:0 1:0.99279022 2:0.027304076 3:0.069903396 4:0.005829779 5:0.082128868 6:0.037718769 7:0.023065167 8:0 9:0 10:0.97475964 11:0.057888485 12:0.061776087 13:0.1019329 14:0.15501273 15:0.078042433 16:0.046531264 17:0 18:0 19:0.99986595 20:0.0022098774 21:0.014855082 22:0.001225729 23:0.005054004 24:0.0025907818 25:0.0028026749 26:0 27:0 28:0.97711676 29:0.071453743 30:0.056075465 31:0.067982703 32:0.14144105 33:0.088084012 34:0.067860559 35:0 
-0 -0 1 0 0 1 0 1 1 1 1 0 0 0 1 1 0:0 1:0.99453825 2:0.013840461 3:0.013900113 4:0.01727196 5:0.061649509 6:0.040197186 7:0.069231607 8:0 9:0 10:0.99669439 11:0.010964474 12:0.011649754 13:0 14:0.049839042 15:0.01087509 16:0.061163343 17:0 18:0 19:0.99771243 20:0.012935809 21:0.018072162 22:0.024272194 23:0.04354354 24:0.012920912 25:0.037721347 26:0 27:0 28:0.9925518 29:0.020828353 30:0.0208767 31:0.018660678 32:0.059953351 33:0.03246874 34:0.094724335 35:0 
-0 -0 0 0 0.6862398846070317 0 0 1 1 0 0 0 0 0 1 0 0:0 1:0.99982578 2:0.0053711836 3:0.012572303 4:0.00093639916 5:0.012592531 6:0.00091913313 7:0 8:0 9:0 10:0.99999893 11:0 12:0 13:0 14:0 15:0 16:0 17:0 18:0 19:0.99999928 20:0 21:0 22:0 23:0 24:0 25:0 26:0 27:0 28:0.99999887 29:0 30:0 31:0 32:0 33:0 34:0 35:0 
-0 -0 1 0 1 0 0 1 1 0 0 0 0 0 1 1 0:0 1:0.99723428 2:0.028139157 3:0.02262743 4:0.019738508 5:0.046096895 6:0.028551474 7:0.029815096 8:0 9:0 10:0.99986029 11:0.0085823713 12:0.00059374893 13:0.0032656193 14:0.0095269717 15:0 16:0.010147709 17:0 18:0 19:0.99888045 20:0.015319445 21:0.011648742 22:0.0072032777 23:0.032147434 24:0.02087665 25:0.018582886 26:0 27:0 28:0.99907809 29:0.0096759172 30:0.0038778447 31:0.0082719997 32:0.026800182 33:0.01664296 34:0.0258712 35:0 
-1 -0 1 0 0.4001169358917864 1 0 1 1 1 1 0 0 0 1 0.3046635827097564 0:0 1:0.99895209 2:0.0054345853 3:0.0048015048 4:0.020381723 5:0.031959832 6:0.018925805 7:0.015690643 8:0 9:0 10:0.98994237 11:0.014948945 12:0.039567776 13:0.03494833 14:0.11130068 15:0.028217664 16:0.061792769 17:0 18:0 19:0.99910647 20:0.013934261 21:0.010702385 22:0.016313966 23:0.027590025 24:0.012833331 25:0.016869944 26:0 27:0 28:0.99581748 29:0.02219191 30:0.0078512505 31:0.028632583 32:0.054689661 33:0.016727379 34:0.060843047 35:0 
-0.7011201222225566 -0 1 0 1 1 0 1 1 1 1 0 0 0 1 0 0:0 1:0.99866247 2:0.00071410416 3:0 4:0.009447014 5:0.021018988 6:0.030679757 7:0.034628112 8:0 9:0 10:0.99482769 11:0.036490422 12:0.010235749 13:0.055958569 14:0.054159638 15:0.041049249 16:0.033623584 17:0 18:0 19:0.99910456 20:0.02055848 21:0.0019905914 22:0.018499229 23:0.021339139 24:0.021941829 25:0.009130179 26:0 27:0 28:0.99999917 29:0 30:0 31:0 32:0 33:0 34:0 35:0 
-1 -0 1 1 1 1 0 1 1 1 1 1 0 0 1 1 0:0 1:0.99254757 2:0.019158825 3:0.035281643 4:0.03901878 5:0.083915174 6:0.039184853 7:0.056006882 8:0 9:0 10:0.99857968 11:0.0011558349 12:0.0055843517 13:0.0065693371 14:0.017138444 15:0.0098778093 16:0.048688758 17:0 18:0 19:0.99737155 20:0.020249208 21:0.0073782858 22:0.026292542 23:0.053078812 24:0.020867666 25:0.028991822 26:0 27:0 28:0.99542415 29:0.023031294 30:0.022812804 31:0.028296942 32:0.079031192 33:0.0096324664 34:0.030645467 35:0 
-1 -0 1 0 1 1 0 1 1 1 1 0.2001562381516928 0.003091532962192556 1 1 1 0:0 1:0.99316084 2:0.0274422 3:0.034527432 4:0.043501806 5:0.057302505 6:0.04980097 7:0.063473858 8:0 9:0 10:0.99643046 11:0.024798555 12:0.02326352 13:0.045061465 14:0.05087648 15:0.019000344 16:0.031452812 17:0 18:0 19:0.99891078 20:0.0096315024 21:0.011263923 22:0.016122714 23:0.032092813 24:0.020759856 25:0.01535836 26:0 27:0 28:0.97781366 29:0.034510903 30:0.051147871 31:0.084975168 32:0.12957942 33:0.056805443 34:0.11328321 35:0 
-0 -0 1 0 1 0 0 1 1 0 0 0 0 0 1 0 0:0 1:0.99933612 2:0 3:0.017527021 4:0.01162836 5:0.014859981 6:0.015312053 7:0.020699013 8:0 9:0 10:0.99946308 11:0.005666011 12:0.0085358089 13:0.011037683 14:0.027716849 15:0.0070150611 16:0.0053226165 17:0 18:0 19:0.99932027 20:0.0021489519 21:0.0099863373 22:0.011298851 23:0.027068282 24:0.011043353 25:0.016474022 26:0 27:0 28:0.99992949 29:0 30:0.0042927954 31:0.003756196 32:0.0042927954 33:0.0019532167 34:0.0092216823 35:0 
-1 -0 1 0 1 1 0 1 1 1 1 1 1 0.7695339270894609 1 1 0:0 1:0.98893231 2:0.053250864 3:0.060671587 4:0.04639712 5:0.087758966 6:0.05174043 7:0.054433279 8:0 9:0 10:0.94355118 11:0.014991422 12:0.039127592 13:0.048390236 14:0.1004008 15:0.15269914 16:0.26872596 17:0 18:0 19:0.99979126 20:0.00058404083 21:0.0025587536 22:0.0088552814 23:0.011942124 24:0.01071567 25:0.0085935518 26:0 27:0 28:0.99970919 29:0 30:0.0061774938 31:0 32:0.020726077 33:0.0019100846 34:0.010438062 35:0 
-0 -0 1 0 1 1 0 1 1 1 1 0 0 1 1 1 0:0 1:0.99728096 2:0.042725921 3:0.033467516 4:0.021919997 5:0.027824651 6:0.028071476 7:0.021000216 8:0 9:0 10:0.99914151 11:0.0056703375 12:0.025834151 13:0.0058287312 14:0.024922866 15:0.018003108 16:0.0060387179 17:0 18:0 19:0.99887002 20:0.0097463364 21:0.026754549 22:0.016398996 23:0.028160663 24:0.017993448 25:0.0078235632 26:0 27:0 28:0.99830478 29:0.020113334 30:0.033814032 31:0.027068973 32:0.018805765 33:0.023077292 34:0.014807335 35:0 
-0 -0 1 0 1 0 0 1 1 0 0 0 0 0 1 0 0:0 1:0.99970645 2:0.0027622515 3:0.0016913242 4:0.010276199 5:0.019864328 6:0.0055082971 7:0.0067032068 8:0 9:0 10:0.99787891 11:0 12:0.021544978 13:0.0012461324 14:0.057696406 15:0.016396482 16:0.013149979 17:0 18:0 19:0.99841589 20:0.0057392921 21:0.024537466 22:0.016253145 23:0.029957734 24:0.012327265 25:0.03487242 26:0 27:0 28:0.9986673 29:0 30:0.019254727 31:0.0063025984 32:0.045390274 33:0.0087889442 34:0.010697071 35:0 
-0 -0 1 0 0 1 0 1 1 1 1 0 0 1 0 0 0:0 1:0.99999261 2:9.6943375e-05 3:0 4:0.0028502652 5:0.00078043208 6:5.5970886e-05 7:0.0008107468 8:0 9:0 10:0.99992418 11:0 12:0 13:0.0029524171 14:0.011686753 15:0 16:0 17:0 18:0 19:0.99995601 20:0.0091591226 21:5.4975585e-10 22:1.0995117e-09 23:1.0995117e-09 24:1.0995117e-09 25:5.4975585e-10 26:0 27:0 28:0.98113644 29:0.11250912 30:0.072822168 31:0.088419721 32:0.099177167 33:0.031362027 34:0.027549962 35:0 
-0 -0 0 0 0 1 0 1 1 1 1 0 0 0 1 1 0:0 1:0.99669844 2:0.00045982987 3:0.0073237615 4:0.0086035691 5:0.024007933 6:0.027480632 7:0.071633346 8:0 9:0 10:0.9989171 11:0.0074372734 12:0.0074406471 13:0.019160708 14:0.024992354 15:0.021610426 16:0.024380134 17:0 18:0 19:0.99882829 20:0.016462008 21:0.004918735 22:0.015142222 23:0.028146971 24:0.029015549 25:0.01350097 26:0 27:0 28:0.98592246 29:0.02532739 30:0.0097869392 31:0.04452369 32:0.086917907 33:0.054429319 34:0.12131703 35:0 
-1 -1 1 1 1 1 1 1 1 1 1 1 1 1 1 1 0:0 1:0.97980231 2:0.04540782 3:0.058075722 4:0.084888197 5:0.14659841 6:0.027187368 7:0.071521237 8:0 9:0 10:0.99830478 11:0.0062728319 12:0.012211113 13:0.011068064 14:0.042959455 15:0.012378388 16:0.032813881 17:0 18:0 19:0.99454612 20:0.022911195 21:0.050275475 22:0.044884447 23:0.064289808 24:0.016814064 25:0.037333503 26:0 27:0 28:0.99095815 29:0.034705225 30:0.027608685 31:0.050714366 32:0.10179362 33:0.0050850539 34:0.055440184 35:0 
-0 -0 1 0 0 1 0 1 1 1 1 0 0 0 1 1 0:0 1:0.99019301 2:0.0081313644 3:0.034175966 4:0.014742194 5:0.10044074 6:0.046843763 7:0.076041676 8:0 9:0 10:0.99828589 11:0 12:0.00095534784 13:0 14:0.03211841 15:0.024290895 16:0.042448424 17:0 18:0 19:0.99789518 20:0.00051093305 21:0.0071025761 22:0.0048900791 23:0.045803681 24:0.016670138 25:0.041876983 26:0 27:0 28:0.96812862 29:0.00081006874 30:0.034856871 31:0.011225248 32:0.16566053 33:0.095122717 34:0.15776986 35:0 
-1 -1 1 1 1 1 1 0 1 1 1 1 1 1 1 1 0:0 1:0.91886759 2:0.12646151 3:0.14265023 4:0.17138353 5:0.2297481 6:0.13254255 7:0.14005153 8:0 9:0 10:0.99283922 11:0.028489457 12:0.038161665 13:0.066550285 14:0.056437854 15:0.052198973 16:0.040771786 17:0 18:0 19:0.99805462 20:0.023467418 21:0.03090491 22:0.018948486 23:0.036933441 24:0.015501222 25:0.020418294 26:0 27:0 28:0.84431261 29:0.11321778 30:0.20191246 31:0.27526337 32:0.33444753 33:0.16363119 34:0.13837108 35:0 
-1 -0 0.4984141109978484 0 1 1 0 1 1 1 1 1 1 1 1 1 0:0 1:0.97638792 2:0.050064191 3:0.067100093 4:0.043496143 5:0.12143701 6:0.10185777 7:0.11243536 8:0 9:0 10:0.99880034 11:0.019120634 12:0.0064729755 13:0.020492785 14:0.037734166 15:0.0096050603 16:0.0072871502 17:0 18:0 19:0.99566025 20:0.0066708452 21:0.026718708 22:0.01788762 23:0.07043992 24:0.03980327 25:0.032170907 26:0 27:0 28:0.98419654 29:0.027371714 30:0.038511232 31:0.014233521 32:0.041875672 33:0.07465028 34:0.1469456 35:0 
-0 -0 0 0 0 0 0 1 1 0 0 0 0 0 1 0 0:0 1:0.99993217 2:0 3:0 4:2.873638e-05 5:0.0095710736 6:0 7:0.0065556541 8:0 9:0 10:0.99999934 11:0 12:0 13:0 14:0 15:0 16:0 17:0 18:0 19:0.99999928 20:0 21:0 22:0 23:0 24:0 25:0 26:0 27:0 28:0.99999934 29:0 30:0 31:0 32:0 33:0 34:0 35:0 
-0 -0 0.1503281607254871 0 1 0 0 1 1 0 0 0 0 0 1 0 0:0 1:0.99901897 2:0.02602838 3:0.01805089 4:0.018549008 5:0.012670806 6:0.020300347 7:0.0063239415 8:0 9:0 10:0.9999994 11:0 12:0 13:0 14:0 15:0 16:0 17:0 18:0 19:0.99983144 20:0.005165617 21:0.005928189 22:0.0087631727 23:0.011883572 24:0.001142128 25:0.0074046263 26:0 27:0 28:0.9999553 29:0 30:0 31:0.0012174427 32:0.0071769273 33:0.0059344005 34:0 35:0 
-0 -0 1 0 0 1 0 1 1 1 1 0.6370625610396281 0 0.6887176942303364 1 1 0:0 1:0.99277818 2:0.065955989 3:0.025021654 4:0.010639888 5:0.066594489 6:0.058113463 7:0.038582619 8:0 9:0 10:0.9916532 11:0.025692144 12:0.048030663 13:0.031056777 14:0.068797648 15:0.057121724 16:0.068521142 17:0 18:0 19:0.99892455 20:0.013142695 21:0.0050658141 22:0.015029993 23:0.027299475 24:0.014980917 25:0.027476462 26:0 27:0 28:0.99473846 29:0.022080399 30:0.04341685 31:0.026424799 32:0.038383573 33:0.030907331 34:0.070673838 35:0 
-1 -1 1 1 1 1 0.942706399876895 1 1 1 1 1 1 1 1 1 0:0 1:0.99400699 2:0.016959149 3:0.021586198 4:0.046257868 5:0.079760492 6:0.023160106 7:0.046439778 8:0 9:0 10:0.96953332 11:0.049701408 12:0.08337491 13:0.118935 14:0.16790517 15:0.050219174 16:0.075647689 17:0 18:0 19:0.99864072 20:0.004484883 21:0.0060835173 22:0.019095236 23:0.042493723 24:0.015878323 25:0.015369881 26:0 27:0 28:0.99554455 29:0.018926509 30:0.01779967 31:0.046863608 32:0.037280306 33:0.052335799 34:0.043461122 35:0 
-0.3490080552358003 -1 0.9187449581306709 0 0 1 0.7277791825202169 1 1 1 1 1 1 0.6338614549263376 1 1 0:0 1:0.96991241 2:0.043217566 3:0.038626429 4:0.026942985 5:0.15689173 6:0.066892363 7:0.16153403 8:0 9:0 10:0.98384452 11:0.011572831 12:0.017443996 13:0.016191483 14:0.08734569 15:0.039096851 16:0.14896494 17:0 18:0 19:0.99376059 20:0.0059220074 21:0.03440227 22:0.022457812 23:0.07299111 24:0.02114353 25:0.070293315 26:0 27:0 28:0.91987801 29:0.015875354 30:0.045519821 31:0.052692171 32:0.19211479 33:0.096896678 34:0.32003939 35:0 
-1 -1 1 1 0 1 1 0 1 1 1 1 1 1 0 1 0:0 1:0.98059636 2:0.042072069 3:0.053587742 4:0.057946719 5:0.13884506 6:0.07102228 7:0.078150421 8:0 9:0 10:0.99001199 11:0.062315207 12:0.039947663 13:0.047604166 14:0.093722045 15:0.020434212 16:0.054116435 17:0 18:0 19:0.99913234 20:0.0060009952 21:0.020445472 22:0.0063855806 23:0.027565295 24:0.010247321 25:0.019341139 26:0 27:0 28:0.76595157 29:0.20061302 30:0.16049838 31:0.33367458 32:0.38558578 33:0.19661888 34:0.22053477 35:0 
-1 -0 1 0 1 1 1 1 1 1 1 1 1 1 1 1 0:0 1:0.9711647 2:0.066722132 3:0.050953574 4:0.056702897 5:0.1469826 6:0.030139379 7:0.15506966 8:0 9:0 10:0.99798691 11:0.019368332 12:0.017678468 13:0.0088170534 14:0.030321082 15:0.0094190761 16:0.04734233 17:0 18:0 19:0.99942374 20:0.011640646 21:0.013463951 22:0.020218169 23:0.015309545 24:0 25:0.01350288 26:0 27:0 28:0.95487249 29:0.082475089 30:0.13645184 31:0.07052812 32:0.19317202 33:0.024869146 34:0.14095363 35:0 
-0 -0 1 0 1 0 0 1 1 0 0.6960531465883885 1 0 0 1 1 0:0 1:0.99617422 2:0.023075391 3:0.02263895 4:0.034158178 5:0.064348996 6:0.029046314 7:0.020956546 8:0 9:0 10:0.99988872 11:0.0055663087 12:0.0074471622 13:0.0055663087 14:0.0074471622 15:0.0018808532 16:0.0067100711 17:0 18:0 19:0.99902749 20:0.0033486716 21:0.027444232 22:0.015043246 23:0.019717665 24:0.017864781 25:0.015635068 26:0 27:0 28:0.9999972 29:0.0012884778 30:0.00038395615 31:0.00076791231 32:0.0010337714 33:0.00038395615 34:0.00076791231 35:0 
-1 -0 1 1 0 1 1 1 1 1 1 0 1 1 1 1 0:0 1:0.99315721 2:0.0062380838 3:0.016652802 4:0.022501877 5:0.051514659 6:0.066760309 7:0.075524509 8:0 9:0 10:0.98990589 11:0.012034304 12:0.011122047 13:0.0341057 14:0.10303816 15:0.064951159 16:0.061788872 17:0 18:0 19:0.994506 20:0.011625658 21:0.0098654684 22:0.048385404 23:0.068332598 24:0.014013712 25:0.059305359 26:0 27:0 28:0.95233685 29:0.057485353 30:0.087610543 31:0.1052985 32:0.21010707 33:0.084586233 34:0.14030281 35:0 
-0 -0 1 0 0 1 0 1 1 1 1 0 0 0 1 1 0:0 1:0.99609578 2:0.0032947005 3:0.001718598 4:0.013142428 5:0.048378907 6:0.043936562 7:0.057746809 8:0 9:0 10:0.99912935 11:0.0082275504 12:0.00074302219 13:0.013020116 14:0.028659621 15:0.017409336 16:0.019427223 17:0 18:0 19:0.99915707 20:0.015759412 21:0.00908955 22:0.015446551 23:0.02425606 24:0.01438541 25:0.017874548 26:0 27:0 28:0.98732346 29:0.043529537 30:0.063181423 31:0.050963461 32:0.098065302 33:0.066928692 34:0.051093221 35:0 
-0 -0 0 0 0 1 0 1 1 1 1 0 0 0 1 1 0:0 1:0.9973262 2:0.019325238 3:0.034342341 4:0.02143253 5:0.040883094 6:0.02493426 7:0.032152388 8:0 9:0 10:0.99776787 11:0.013049959 12:0.014106822 13:0.022331972 14:0.046656027 15:0.026875716 16:0.026275275 17:0 18:0 19:0.99972832 20:0.0061422125 21:0.0012719085 22:0.0068220585 23:0.012691832 24:0.0057584723 25:0.016188294 26:0 27:0 28:0.97881925 29:0.063972488 30:0.008611002 31:0.026146926 32:0.097774088 33:0.097389154 34:0.13422076 35:0 
-1 -0 1 0 1 1 0 1 1 1 1 1 0 0 1 1 0:0 1:0.98785233 2:0.026689321 3:0.053763658 4:0.074247032 5:0.11411199 6:0.03294266 7:0.030381782 8:0 9:0 10:0.99999845 11:0 12:0 13:0 14:0 15:0 16:0 17:0 18:0 19:0.99980891 20:0.0029110902 21:0.0080985818 22:0.0040950458 23:0.011163193 24:0.0092972359 25:0.008862894 26:0 27:0 28:0.99999034 29:0 30:0 31:0 32:0.0040242169 33:0 34:5.9302831e-05 35:0 
-0 -0 1 0 1 0.3499197473878561 0 1 1 1 1 0 0 1 1 0.1902915566374636 0:0 1:0.9967199 2:0.012470764 3:0.044205189 4:0.030972375 5:0.057825025 6:0.008218646 7:0.0082440563 8:0 9:0 10:0.99999177 11:0 12:0.0022824062 13:0.0022824062 14:0.0022824062 15:0 16:0 17:0 18:0 19:0.9995442 20:0.0087260827 21:0.019286782 22:0.0059052641 23:0.018719079 24:0.0064588832 25:0.005931627 26:0 27:0 28:0.99534649 29:0.0074102958 30:0.05490987 31:0.013139362 32:0.07767234 33:0.0010248282 34:0.002672466 35:0 
-0 -0 0 0 0 1 0 1 1 1 0 0 0 0 1 0 0:0 1:0.99966711 2:0.0087756831 3:0.014043107 4:0.0089626638 5:0.0083091548 6:0.0070215533 7:0.01383732 8:0 9:0 10:0.997235 11:0.013055884 12:0.027268784 13:0.027098509 14:0.051980361 15:0.024473527 16:0.023914386 17:0 18:0 19:0.99942434 20:0.01231069 21:0.01230573 22:0.0039560134 23:0.01910595 24:0.016194919 25:0.014287469 26:0 27:0 28:0.9922244 29:0.0013726463 30:0.018284755 31:0.028240947 32:0.027606532 33:0.067598931 34:0.094989754 35:0 
-1 -0 1 1 1 1 0 1 1 1 1 0 0 0 1 1 0:0 1:0.9962101 2:0.020746326 3:0.023151103 4:0.010732543 5:0.068177253 6:0.0059513212 7:0.042417578 8:0 9:0 10:0.99814183 11:0.0022508167 12:0.016871715 13:0.006238387 14:0.050446529 15:0.0037661169 16:0.028708715 17:0 18:0 19:0.99669302 20:0.019192001 21:0.016644629 22:0.042403206 23:0.04002963 24:0.02384582 25:0.044576719 26:0 27:0 28:0.9999854 29:0 30:0 31:0 32:0.0047296202 33:0 34:0.0023580273 35:0 
-0 -0 0 0 0 1 0 1 1 1 1 0 0 0 1 1 0:0 1:0.99528521 2:0.048656747 3:0.013290136 4:0.030622002 5:0.047566015 6:0.038324885 7:0.046825659 8:0 9:0 10:0.99760365 11:0.0073517556 12:0.0043784473 13:0.023091592 14:0.033784676 15:0.028743053 16:0.047032941 17:0 18:0 19:0.99928522 20:0.02528514 21:0.0013600779 22:0.01076101 23:0.012241229 24:0.0046388535 25:0.022359239 26:0 27:0 28:0.99120915 29:0.035154317 30:0.0085143251 31:0.0064497455 32:0.042362917 33:0.057429787 34:0.10516673 35:0 
-1 -1 1 1 1 1 1 1 1 1 1 1 1 1 1 1 0:0 1:0.96668875 2:0.044071112 3:0.07361123 4:0.07293316 5:0.21053164 6:0.055367164 7:0.073769435 8:0 9:0 10:0.99824333 11:0.0026365265 12:0.019235749 13:0.039817605 14:0.03833349 15:0.0032610137 16:0.008182832 17:0 18:0 19:0.98148924 20:0.057969674 21:0.063094519 22:0.087729849 23:0.13000715 24:0.05135756 25:0.045830112 26:0 27:0 28:0.79662985 29:0.16026385 30:0.26236224 31:0.32764268 32:0.36523345 33:0.1020924 34:0.14032933 35:0 
-1 -0.5578587510704669 1 0 1 1 1 1 1 1 1 1 1 1 1 1 0:0 1:0.9711647 2:0.066722132 3:0.050953574 4:0.056702897 5:0.1469826 6:0.030139379 7:0.15506966 8:0 9:0 10:0.99798691 11:0.019368332 12:0.017678468 13:0.0088170534 14:0.030321082 15:0.0094190761 16:0.04734233 17:0 18:0 19:0.99942374 20:0.011640646 21:0.013463951 22:0.020218169 23:0.015309545 24:0 25:0.01350288 26:0 27:0 28:0.95487249 29:0.082475089 30:0.13645184 31:0.07052812 32:0.19317202 33:0.024869146 34:0.14095363 35:0 
-1 -0.1956534128878501 1 0 1 1 0.3918820562982185 1 1 1 1 1 1 1 1 1 0:0 1:0.98023063 2:0.051312111 3:0.093044922 4:0.047193211 5:0.093983687 6:0.082195617 7:0.10019941 8:0 9:0 10:0.98386425 11:0.047155701 12:0.051962551 13:0.072139949 14:0.13944319 15:0.044642005 16:0.02109305 17:0 18:0 19:0.99806917 20:0.02077806 21:0.027912712 22:0.017838437 23:0.026546799 24:0.03337194 25:0.022571217 26:0 27:0 28:0.98233742 29:0.034245029 30:0.07174252 31:0.039508734 32:0.11023431 33:0.1076498 34:0.058231004 35:0 
-1 -0 1 1 1 1 1 1 1 1 1 1 0 1 1 1 0:0 1:0.98781824 2:0.020570664 3:0.034810655 4:0.042907495 5:0.13727854 6:0.027768334 7:0.033486001 8:0 9:0 10:0.99980575 11:0 12:0.0019398946 13:0 14:0.013830309 15:0.0049524377 16:0.012963061 17:0 18:0 19:0.99556553 20:0.014818766 21:0.015758937 22:0.0295799 23:0.079178445 24:0.022043912 25:0.02739145 26:0 27:0 28:0.99320519 29:0.01401658 30:0.02247037 31:0.037844975 32:0.10610446 33:0.0050553842 34:0.011178781 35:0 
-0 -0 0 0 1 0 0 1 1 0.4195163379632469 0.1248179993706437 0 0 0 1 0 0:0 1:0.9981752 2:0.0056859143 3:0.040525597 4:0.011159538 5:0.023671491 6:0.029303649 7:0.020645486 8:0 9:0 10:0.99909812 11:0.012980774 12:0.02615138 13:0.018487595 14:0.017522465 15:0.0043804348 16:0.016770808 17:0 18:0 19:0.99938655 20:0.0064524249 21:0.019203259 22:0.0064845355 23:0.020737315 24:0.015785348 25:0.0096900687 26:0 27:0 28:0.99744231 29:0.0077980766 30:0.022387387 31:0.017763246 32:0.033192702 33:0.013455574 34:0.054280281 35:0 
-0 -0 1 0 0 0 0 1 1 0 0 0 0 0 1 0 0:0 1:0.99985003 2:0 3:0.0028272984 4:0 5:0.013594308 6:0 7:0.010287279 8:0 9:0 10:0.99928081 11:0 12:0 13:0 14:0.036185671 15:0.0027806265 16:0.01088248 17:0 18:0 19:0.99984413 20:0 21:0 22:0 23:0.017615108 24:8.051558e-05 25:0.00024815364 26:0 27:0 28:0.99700165 29:0 30:0.010312758 31:0 32:0.062418561 33:0.021742018 34:0.038866155 35:0 
-1 -0 1 0 1 1 0 1 1 1 1 1 0 1 1 1 0:0 1:0.98597085 2:0.056372333 3:0.074755587 4:0.057551995 5:0.12288477 6:0.01999638 7:0.016745457 8:0 9:0 10:0.99980044 11:0.010652804 12:0.0055031073 13:0.010678047 14:0.010652804 15:2.5243611e-05 16:0.00517494 17:0 18:0 19:0.99943531 20:0.016218212 21:0.018774165 22:0.013060121 23:0.013992909 24:0.0049519106 25:0.011034776 26:0 27:0 28:0.99583566 29:0.024188239 30:0.024188239 31:0.027938776 32:0.07755658 33:0.0042397357 34:0.018039169 35:0 
-0.4307661071013962 -1 0.9126863165247738 1 0.1547513350683695 1 1 0.2673582828931385 1 1 1 1 1 1 0.2233965921699337 1 0:0 1:0.97783494 2:0.011892433 3:0.069411904 4:0.091754235 5:0.085904591 6:0.13142516 7:0.076200493 8:0 9:0 10:0.99933314 11:0.015306485 12:0.015030354 13:0.0025415414 14:0.020530922 15:0.0056178183 16:0.020313067 17:0 18:0 19:0.99799573 20:0.005210652 21:0.023311477 22:0.034931991 23:0.031018743 24:0.033003338 25:0.012707811 26:0 27:0 28:0.70648724 29:0.20519514 30:0.23885176 31:0.24234667 32:0.29162288 33:0.41089708 34:0.29850501 35:0 
-0 -0 0 0.1764683003691861 1 0 0 1 1 0 0 0 0 0 1 0 0:0 1:0.99899125 2:0.0094958534 3:0.017601455 4:0.026046878 5:0.0037204151 6:0.005909394 7:0.029791102 8:0 9:0 10:0.9999994 11:0 12:0 13:0 14:0 15:0 16:0 17:0 18:0 19:0.9987728 20:0.012124417 21:0.013501822 22:0.018164482 23:0.029445013 24:0.024855882 25:0.017518524 26:0 27:0 28:0.99999917 29:0 30:0 31:0 32:0.00023401517 33:0 34:0.00011700758 35:0 
-0 -0 1 0 0 0 0 1 1 0.4401297608351968 0 0 0 0 0.4321541735082596 0 0:0 1:0.99967641 2:9.4986397e-05 3:0.016693924 4:0 5:0.017923472 6:0.0044643776 7:0.0051282817 8:0 9:0 10:0.99749702 11:0.0093496637 12:0.015791615 13:0.02074871 14:0.051783893 15:0.013185482 16:0.037094418 17:0 18:0 19:0.99984622 20:0.0020233539 21:0.0085735321 22:0.0020233539 23:0.012833683 24:0.0045578713 25:0.0062879501 26:0 27:0 28:0.99533379 29:0.011656811 30:0 31:0.019505953 32:0.077348381 33:0.0073147328 34:0.052504342 35:0 
-1 -0 1 1 1 1 0 1 1 1 1 0 0 1 1 1 0:0 1:0.99784756 2:0.027594831 3:0.023248399 4:0.027284894 5:0.046957396 6:0.0005326987 7:0.0068650292 8:0 9:0 10:0.99142641 11:0.012503798 12:0.029320477 13:0.067411348 14:0.098278128 15:0.029762385 16:0.031112513 17:0 18:0 19:0.99887466 20:0.017789135 21:0.0083874185 22:0.017286746 23:0.03745557 24:0.011092603 25:0.0060690721 26:0 27:0 28:0.99362248 29:0.034510162 30:0.026381167 31:0.044366471 32:0.07489343 33:0.022827568 34:0.052223135 35:0 
-0 -0 0 0 0 0 0 1 1 0 0 0 0 0 1 1 0:0 1:0.99696589 2:0.0065392316 3:0.010421382 4:0.002352433 5:0.014967836 6:0.033093482 7:0.067685202 8:0 9:0 10:0.99997038 11:0 12:0 13:0 14:0.00019099962 15:0.0043348973 16:0.0062694098 17:0 18:0 19:0.9994095 20:0.018857323 21:0.012817704 22:0.011100736 23:0.017829319 24:0.012569779 25:0.0077669686 26:0 27:0 28:0.99985194 29:0.00475427 30:0.00596182 31:0.0020798927 32:0.011921342 33:0.0094872294 34:0 35:0 
-0 -0 1 1 1 1 0 1 1 1 0 0 0 0 1 0 0:0 1:0.99905473 2:0.00019277613 3:0.010223744 4:0.025841193 5:0.025062472 6:0 7:0.022084035 8:0 9:0 10:0.9976902 11:0.0016485989 12:2.9593632e-05 13:0.016248202 14:0.052332435 15:0.018703176 16:0.035465427 17:0 18:0 19:0.9988088 20:0.018642815 21:0.0062457765 22:0.013682954 23:0.040638246 24:0.0016675617 25:0.012317277 26:0 27:0 28:0.9950819 29:0.0063606622 30:0.0046461904 31:0.042935643 32:0.077640153 33:0.02287407 34:0.036792971 35:0 
-0 -0 1 0 0 1 0 1 1 1 1 0 0 0 1 1 0:0 1:0.99914259 2:0.0072440398 3:0.011326837 4:0.02055187 5:0.013061438 6:0.01937763 7:0.023739351 8:0 9:0 10:0.99507773 11:0.019277146 12:0.032978021 13:0.039270524 14:0.073171556 15:0.026355691 16:0.02773403 17:0 18:0 19:0.99943 20:0.012825931 21:0.014409096 22:0.018309647 23:0.019319203 24:0.0043594399 25:0.006255025 26:0 27:0 28:0.99078298 29:0.025863042 30:0.02996688 31:0.048065104 32:0.083198689 33:0.018955603 34:0.084790595 35:0 
-0 -0 1 0 1 0 0 1 1 0 0 0 0 0 1 0 0:0 1:0.99776793 2:0.020161234 3:0.0060229399 4:0.032150064 5:0.0513179 6:0.0053767143 7:0.017864093 8:0 9:0 10:0.99891317 11:0 12:0.0072779437 13:0.0045487145 14:0.03040302 15:0.016169947 16:0.030197594 17:0 18:0 19:0.99910158 20:0.012876485 21:0.0028995476 22:0.01702315 23:0.029089009 24:0.0020577433 25:0.021918084 26:0 27:0 28:0.99976778 29:0 30:0 31:0 32:0.011961136 33:0.0016331202 34:0.017806407 35:0 
-0 -0 1 0 0 1 0 1 1 1 1 0 0 0 0 1 0:0 1:0.99869972 2:0 3:0.0048466874 4:0.028245842 5:0.026462344 6:0.016714029 7:0.028219638 8:0 9:0 10:0.99374712 11:0.012798872 12:0.022467209 13:0.042138971 14:0.078643523 15:0.035465691 16:0.050779965 17:0 18:0 19:0.99970341 20:0.0053978721 21:0.0088360189 22:0.01503685 23:0.0080091879 24:0.0020926336 25:0.013794946 26:0 27:0 28:0.98571235 29:0.01885527 30:0.023391584 31:0.066137381 32:0.096302144 33:0.014756788 34:0.11662213 35:0 
-1 -0 1 0 1 1 0 1 1 1 1 0 0 0 1 1 0:0 1:0.99620819 2:0.017796649 3:0.014348798 4:0.017302424 5:0.060943615 6:0.05135021 7:0.019865632 8:0 9:0 10:0.99574244 11:0.024498906 12:0.022545362 13:0.030656809 14:0.068135463 15:0.03549717 16:0.023347482 17:0 18:0 19:0.99891537 20:0.0047759954 21:0.028067755 22:0.011371023 23:0.0330563 24:0.010675895 25:0.0045523862 26:0 27:0 28:0.99258631 29:0.038139962 30:0.026447419 31:0.056049969 32:0.064401783 33:0.070155263 34:0.020137157 35:0 
-0 -0 0 0 0 0 0 1 1 0 0 0 0 0 1 0 0:0 1:0.99995917 2:0 3:0.0022009599 4:0.002899467 5:0.0081784185 6:3.7616759e-05 7:0 8:0 9:0 10:0.99999905 11:0 12:0 13:0 14:0 15:0 16:0 17:0 18:0 19:0.99999911 20:0 21:0 22:0 23:0 24:0 25:0 26:0 27:0 28:0.99999887 29:0 30:0 31:0 32:0 33:0 34:0 35:0 
-0.7002860868648326 -0 1 0 0 1 1 1 1 1 1 1 1 0 1 1 0:0 1:0.98510808 2:0.013040642 3:0.032939274 4:0.016377527 5:0.14390151 6:0.050610896 7:0.069053814 8:0 9:0 10:0.99587935 11:0.0034257863 12:0.022890832 13:0.017207775 14:0.072821073 15:0.033277079 16:0.031324577 17:0 18:0 19:0.99730474 20:0.0060733948 21:0.02473822 22:0.020887451 23:0.049854148 24:0.032046579 25:0.028013103 26:0 27:0 28:0.94715613 29:0.011396693 30:0.053677768 31:0.034136362 32:0.2308694 33:0.13594918 34:0.16411553 35:0 
-0 -0 -1 0 1 1 0 1 1 1 1 0 0 1 1 1 0:0 1:0.97674906 2:0 3:0.018686682 4:0.11494866 5:0.17631209 6:0.036190473 7:0 8:0 9:0 10:0.99118769 11:0.037121151 12:0.037650414 13:0.0573356 14:0.10556294 15:0.017861709 16:0.00022188402 17:0 18:0 19:0.99999934 20:0 21:0 22:0 23:0 24:0 25:0 26:0 27:0 28:0.97759855 29:0.025429823 30:0.067924358 31:0.12516166 32:0.14373593 33:0.048204247 34:0.019729471 35:0 
-1 -0 -1 0 1 1 0 1 1 1 1 1 0 1 1 1 0:0 1:0.95534986 2:0.051894434 3:0.056969106 4:0.12785709 5:0.24742007 6:0.061648138 7:8.5898719e-05 8:0 9:0 10:0.99762213 11:0.015021834 12:0.023767307 13:0.01630611 14:0.058174655 15:0.017170899 16:0.0036286025 17:0 18:0 19:0.99668688 20:0.017986007 21:0.016223596 22:0.043598741 23:0.06369888 24:0.0054625869 25:0.0061997161 26:0 27:0 28:0.97626245 29:0.045313895 30:0.034608416 31:0.084447764 32:0.18952782 33:0.021645121 34:0.011706444 35:0 
-1 -0 -1 1 1 1 0 1 1 1 1 1 1 1 1 1 0:0 1:0.97347724 2:0.056119025 3:0.075149029 4:0.081013985 5:0.14937192 6:0.074171744 7:0.095742583 8:0 9:0 10:0.99337137 11:0.006319073 12:0.0076642609 13:0.042704925 14:0.099591002 15:0.021981567 16:0.029799297 17:0 18:0 19:0.98154098 20:0.046545777 21:0.083153963 22:0.10946438 23:0.1001431 24:0.039916202 25:0.062369674 26:0 27:0 28:0.99785441 29:0.0014729298 30:0.0071373959 31:0.028858621 32:0.05753145 33:0.0019630347 34:0.0092416126 35:0 
-1 -1 -1 0 0 1 1 0 1 1 1 1 1 1 1 1 0:0 1:0.95310825 2:0.036427587 3:0.045013186 4:0.10562932 5:0.25166649 6:0.058696516 7:0.10144384 8:0 9:0 10:0.98101574 11:0.025810366 12:0.044216037 13:0.086581439 14:0.14358781 15:0.050478287 16:0.06575831 17:0 18:0 19:0.99734187 20:0.0086513758 21:0.0078941658 22:0.01655768 23:0.05511399 24:0.023931149 25:0.035871435 26:0 27:0 28:0.93285632 29:0.075470336 30:0.078805521 31:0.15322006 32:0.2786544 33:0.051814731 34:0.11858362 35:0 
-1 -0 -1 0.7941845172175233 1 1 0.7628467847540524 1 1 1 1 1 0.6738806732931462 1 1 0 0:0 1:0.86664909 2:0.05531577 3:0.038820338 4:0.48359084 5:0.083889991 6:0.055733949 7:0.018577984 8:0 9:0 10:0.98709071 11:0.028094782 12:0.039225705 13:0.12717859 14:0.081178084 15:0.011958564 16:0.020382281 17:0 18:0 19:0.99999928 20:0 21:0 22:0 23:0 24:0 25:0 26:0 27:0 28:0.98077255 29:0.041210011 30:0.037742902 31:0.16886924 32:0.078775875 33:0.014654472 34:0.0048805466 35:0 
-1 -0 -1 0 1 1 0 1 1 1 1 1 1 1 1 1 0:0 1:0.94870919 2:0.13445501 3:0.059417505 4:0.11090084 5:0.17086001 6:0.084634148 7:0.17229232 8:0 9:0 10:0.9956581 11:0.005449791 12:0.011779633 13:0.01748923 14:0.080500044 15:0.023516124 16:0.033998042 17:0 18:0 19:0.99604011 20:0.057305191 21:0.01681477 22:0.037510749 23:0.042594578 24:0.025780478 25:0.021219708 26:0 27:0 28:0.99901158 29:0.0081490092 30:0.019543117 31:0.027147494 32:0.024382604 33:0.011305655 34:0.0081805913 35:0 
-1 -0 -1 1 1 0 1 1 1 1 0 0 0 1 1 0 0:0 1:0.97729224 2:0.007839377 3:0.020345861 4:0.13485971 5:0.16195361 6:5.259825e-05 7:0.0025415467 8:0 9:0 10:0.99471736 11:0.0068528196 12:0.0034264098 13:0.048206046 14:0.090297714 15:0 16:0 17:0 18:0 19:0.99277389 20:0 21:0 22:0.098436557 23:0.06815704 24:0 25:0.0079355836 26:0 27:0 28:0.96512288 29:0.017009245 30:0.025477592 31:0.17198405 32:0.19498494 33:5.0735587e-05 34:0 35:0 
-0 -0 -1 0 1 1 0 1 1 1 1 0 0 0 1 1 0:0 1:0.99821925 2:0 3:0 4:0.039228834 5:0.044892449 6:0 7:0 8:0 9:0 10:0.99512535 11:0.0017661189 12:0.049451344 13:0.03544854 14:0.076415278 15:0.0017661189 16:0.013245896 17:0 18:0 19:0.99999845 20:0 21:0 22:0 23:0 24:0 25:0 26:0 27:0 28:0.99862051 29:0 30:0.0045183292 31:0.030924764 32:0.037501886 33:0.010172176 34:0.016376887 35:0 
-1 -0 -0 0 1 0 0 0 0 0 0 1 0 1 1 0 0:0 1:0.87010747 2:0.033606477 3:0.034966677 4:0.37036017 5:0.31953001 6:0.026074829 7:0.024728725 8:0 9:0 10:0.98816693 11:0.00062756217 12:0.00018690193 13:0.088186339 14:0.12541087 15:0.00043610411 16:0.0044233343 17:0 18:0 19:0.99998587 20:0 21:0 22:0 23:0 24:0 25:0.0051763388 26:0 27:0 28:0.98183793 29:0.032523323 30:0.022156723 31:0.13375179 32:0.12636809 33:0.01160776 34:0.021238776 35:0 
-0 -0 -1 0 0 1 0 1 1 1 1 0 0 0 1 1 0:0 1:0.99999875 2:0 3:0 4:0 5:0 6:0 7:0 8:0 9:0 10:0.97364151 11:0.028056359 12:0.010169075 13:0.15579148 14:0.16388489 15:0 16:0 17:0 18:0 19:0.99999881 20:0 21:0 22:0 23:0 24:0 25:0 26:0 27:0 28:0.98695487 29:0 30:3.7875263e-05 31:0.12996277 32:0.093811139 33:0.015071793 34:0.00037433309 35:0 
-0 -0 -1 0 1 1 0 1 1 1 1 0.5778564497374092 0 0 1 1 0:0 1:0.99934602 2:0 3:0.008320136 4:0.024715355 5:0.018982094 6:0.008320136 7:0.014018818 8:0 9:0 10:0.9970175 11:0.0001631021 12:0.014651282 13:0.060813475 14:0.04220948 15:0.0086234165 16:0.013624211 17:0 18:0 19:0.99981403 20:0 21:0.0061690914 22:0.0067763883 23:0.016228473 24:0.0038529977 25:0.0029044275 26:0 27:0 28:0.99967682 29:0 30:6.8048219e-05 31:0.012284465 32:0.017540265 33:0.0023060502 34:0.013454838 35:0 
-0 -0 -1 1 1 1 0 1 1 1 1 1 0.4172887908403747 1 1 1 0:0 1:0.99307829 2:0.029297074 3:0.0061737206 4:0.023534311 5:0.090519153 6:0.016980665 7:0.062138859 8:0 9:0 10:0.99963844 11:0 12:0 13:0.013276741 14:0.023016967 15:0.0039999112 16:0 17:0 18:0 19:0.99322051 20:0.041084051 21:0.050751682 22:0.036146261 23:0.082293503 24:0.017748529 25:0.02922588 26:0 27:0 28:0.98062134 29:0.026709139 30:0.01537399 31:0.048715595 32:0.17708938 33:0.010558219 34:0.059874639 35:0 
-1 -0 -0 0 0 1 0.347262430661852 1 1 0 1 0 1 0.3063860142717155 0 0 0:0 1:0.99999881 2:0 3:0 4:0 5:0.00071223651 6:0 7:0 8:0 9:0 10:0.81994778 11:0.023388408 12:0.029964022 13:0.21199067 14:0.53012407 15:0.011491054 16:0.011611378 17:0 18:0 19:0.99978024 20:0 21:0 22:0.0058281203 23:0.0079978043 24:0.0058281203 25:0.017484361 26:0 27:0 28:0.99442548 29:0 30:0.01499969 31:0.046529412 32:0.091684937 33:0.003711357 34:0.017507583 35:0 
-0.9283334722862402 -1 -0.4531569209699093 1 0 1 1 0 0.7275868256463908 0.7665372252616302 0.355550363127475 0 1 0.7066225272294872 0 1 0:0 1:0.96876991 2:0 3:0 4:0.11011207 5:0.21863656 6:0.0042287936 7:0.03920874 8:0 9:0 10:0.99938166 11:0.016657514 12:0.022076 13:0.014009015 14:0.015792681 15:0.0047507994 16:0.0013683932 17:0 18:0 19:0.98713547 20:0 21:4.3757464e-05 22:0.06833791 23:0.14235823 24:0.01113646 25:0.022390587 26:0 27:0 28:0.8686201 29:0.025569275 30:0.034717672 31:0.32894844 32:0.36791319 33:0.008409691 34:4.049109e-05 35:0 
-1 -0 -1 1 1 1 0 1 1 1 1 1 0.2294783074038604 1 1 1 0:0 1:0.9905172 2:0.034275964 3:0.051441003 4:0.035008442 5:0.11218721 6:0.022597045 7:0.027038595 8:0 9:0 10:0.99396467 11:0.013138652 12:0.056127023 13:0.030927612 14:0.080747098 15:0.027151452 16:0.022266965 17:0 18:0 19:0.9881624 20:0.080808565 21:0.057184581 22:0.043454912 23:0.099943787 24:0.037666336 25:0.020918468 26:0 27:0 28:0.99962777 29:0.01795274 30:0.017779883 31:0.0062001594 32:0.0038430286 33:0.007129075 34:5.575264e-05 35:0 
-1 -1 -0 1 0.4355650770135088 1 1 0 0 0 1 1 1 1 0 0 0:0 1:0.79987627 2:0.047517892 3:0.026574077 4:0.37809533 5:0.44664267 6:0.10073009 7:0.068112493 8:0 9:0 10:0.95284617 11:0.030580575 12:0.033474393 13:0.18578984 14:0.22715808 15:0.038905788 16:0.048935976 17:0 18:0 19:0.98531502 20:0.068808109 21:0.049408793 22:0.10519965 23:0.096150003 24:0.020118721 25:0.035505269 26:0 27:0 28:0.82159454 29:0.037677683 30:0.12049811 31:0.40815726 32:0.36725175 33:0.078366384 34:0.037863687 35:0 
-0 -0 -1 0 1 0.3818281258696147 0 1 1 1 1 0 0 0 1 1 0:0 1:0.96593738 2:0.0024007275 3:0.0095006758 4:0.051711991 5:0.25292426 6:0 7:0.014901872 8:0 9:0 10:0.9904902 11:0.0079735247 12:0.013534783 13:0.022046153 14:0.13478509 15:0 16:0.0052965982 17:0 18:0 19:0.9993363 20:0 21:0 22:0.0006776668 23:0.02699733 24:0.0052692657 25:0.023835316 26:0 27:0 28:0.98823124 29:0.011495857 30:0.017916523 31:0.027575772 32:0.14836867 33:5.5067201e-05 34:0.013079504 35:0 
-0 -0 -1 0 1 1 0 1 1 1 1 0 0 1 1 1 0:0 1:0.99285382 2:0.016454322 3:0.0047039916 4:0.076989025 5:0.089551277 6:0 7:0 8:0 9:0 10:0.99729049 11:0.0045439438 12:5.7156307e-05 13:0.055024993 14:0.048599068 15:6.8993781e-05 16:0.00048583071 17:0 18:0 19:0.99960297 20:0.0061508534 21:0.0053279568 22:0.0050689937 23:0.026472745 24:0.00011443492 25:0 26:0 27:0 28:0.98298413 29:0.056136739 30:0.029462434 31:0.10865393 32:0.13304153 33:0.014630606 34:0.00090540381 35:0 
-1 -0 -1 1 1 1 1 1 1 1 1 0 0 1 1 1 0:0 1:0.9915821 2:0 3:0.0081373993 4:0.090478398 5:0.090638474 6:0.017138459 7:0 8:0 9:0 10:0.99249089 11:0 12:0 13:0.081226304 14:0.091443449 15:0 16:0 17:0 18:0 19:0.98378885 20:0 21:0.0077462671 22:0.074936107 23:0.15927732 24:0.031143153 25:0.011848873 26:0 27:0 28:0.97529548 29:0.0054398999 30:0.039164156 31:0.14045396 32:0.16581394 33:0.003323318 34:0 35:0 
-0 -0 -1 0 1 1 0 1 1 1 1 0.5215142943611806 0 0 1 1 0:0 1:0.95473617 2:0 3:0 4:0.16337104 5:0.24347895 6:0.015820226 7:0.047467232 8:0 9:0 10:0.99392742 11:0.044578411 12:0.012968413 13:0.072410688 14:0.056584958 15:0.016014041 16:0.035348654 17:0 18:0 19:0.99999934 20:0 21:0 22:0 23:0 24:0 25:0 26:0 27:0 28:0.97811294 29:0.022922385 30:0.021817025 31:0.13059698 32:0.15866286 33:0.007911724 34:4.9983748e-05 35:0 
-1 -1 -0.1713020207095061 1 1 1 1 0 1 1 1 1 1 1 1 1 0:0 1:0.8842029 2:0.10810847 3:0.15477075 4:0.24783124 5:0.29959306 6:0.10857961 7:0.13991214 8:0 9:0 10:0.97859174 11:0.015735593 12:0.048242293 13:0.092942663 14:0.17410178 15:0.0071457974 16:0.027949672 17:0 18:0 19:0.97888172 20:0.044596624 21:0.084459633 22:0.087539814 23:0.13206854 24:0.030881261 25:0.081287622 26:0 27:0 28:0.88563812 29:0.10772206 30:0.22013558 31:0.27290165 32:0.25296137 33:0.032328222 34:0.12676315 35:0 
-0 -0 -1 0 1 1 0 1 1 1 1 1 0 0 1 1 0:0 1:0.98554397 2:0 3:0.014209844 4:0.10578571 5:0.12186494 6:0.049521301 7:0 8:0 9:0 10:0.99841648 11:0.018810462 12:0.0093350429 13:0.039235257 14:0.033012502 15:0.0093350429 16:0.002093252 17:0 18:0 19:0.99999827 20:0 21:0 22:0 23:0 24:0 25:0 26:0 27:0 28:0.99451047 29:0.00024593307 30:0.01978912 31:0.074205294 32:0.067417316 33:0.022402273 34:0.00045197381 35:0 
-0 -0 -1 0 1 1 0 1 1 1 1 0 0 0 1 1 0:0 1:0.99531287 2:0 3:0 4:0.036565647 5:0.089496851 6:0 7:0 8:0 9:0 10:0.99194384 11:0.0034579691 12:0.00011978296 13:0.077443965 14:0.10016732 15:0.00062241295 16:0.0011065119 17:0 18:0 19:0.99999833 20:0 21:0 22:0 23:0 24:0 25:0 26:0 27:0 28:0.99559075 29:0.002145831 30:0.0031521327 31:0.085930355 32:0.037277676 33:0.0029480439 34:0 35:0 
-0 -0 -1 0 1 1 0 1 1 1 1 0 0 1 1 0.6716272267530224 0:0 1:0.97981429 2:0.029966084 3:0.028819147 4:0.11144086 5:0.16066721 6:0 7:0 8:0 9:0 10:0.98564065 11:0.00076003739 12:0.016421638 13:0.091929615 14:0.14051592 15:0.0028124969 16:0.0061071063 17:0 18:0 19:0.99999785 20:0 21:0 22:1.9462832e-05 23:0.001549623 24:0 25:0 26:0 27:0 28:0.98666167 29:0.030717691 30:0.036294922 31:0.085195921 32:0.12871745 33:0.0079955766 34:0.018594766 35:0 
-1 -0 -1 0 1 0 0 1 1 0.7870300947034834 0 0 0 0 1 0 0:0 1:0.94163424 2:0 3:0 4:0.1803524 5:0.28236157 6:0.031819593 7:0.0071262624 8:0 9:0 10:0.99365652 11:0.0063874172 12:0.017176419 13:0.054245979 14:0.096532427 15:0 16:0.0068674074 17:0 18:0 19:0.99999863 20:0 21:0 22:0 23:0 24:0 25:0 26:0 27:0 28:0.98850733 29:0.017000863 30:0.01125043 31:0.091074251 32:0.11878531 33:0.0033912498 34:0.0044119884 35:0 
-1 -0 -1 0 0 0.4366529617151647 0 1 1 0.9874528335771011 0.2385974501847597 0 0 0 0.04434002264639333 0 0:0 1:0.99999911 2:0 3:0 4:0 5:0 6:0 7:0 8:0 9:0 10:0.91473997 11:0 12:0.018864807 13:0.29649118 14:0.27381214 15:0.0035744617 16:8.0582562e-05 17:0 18:0 19:0.99997127 20:0 21:0 22:0 23:0.0074613038 24:0 25:0 26:0 27:0 28:0.99486548 29:0 30:0 31:0.07596454 32:0.066484548 33:0.0044793901 34:0.0055013807 35:0 
-0 -0 -1 0 1 1 1 1 1 1 1 0 0.03039954494937594 1 1 1 0:0 1:0.99114686 2:0.067698956 3:0.052195348 4:0.056937009 5:0.083869651 6:0.0034530864 7:0.0055655949 8:0 9:0 10:0.98727655 11:0.013350734 12:0.027097004 13:0.1169204 14:0.10146041 15:0.018336454 16:0.0083717955 17:0 18:0 19:0.99820107 20:0.02851869 21:0.029569818 22:0.02172563 23:0.028714769 24:0.01376195 25:0.020484408 26:0 27:0 28:0.96170336 29:0.027770959 30:0.038649239 31:0.21300778 32:0.16204591 33:0.028201472 34:0.020815693 35:0 
-0 -0 -1 0 1 1 0 1 1 1 1 0 0 0 1 1 0:0 1:0.99988967 2:0 3:0 4:9.9212062e-05 5:0.0116541 6:0 7:0.0091213463 8:0 9:0 10:0.9880774 11:0 12:0.0043215752 13:0.072812855 14:0.13557881 15:0 16:5.6997051e-05 17:0 18:0 19:0.9999541 20:0 21:0 22:0 23:0.0042549395 24:0 25:0.0084908726 26:0 27:0 28:0.99995768 29:0 30:0 31:6.1289895e-05 32:0.0071995133 33:0 34:0.0056348629 35:0 
-1 -1 -0 0 1 0 1 0 0 0 0 1 0 0 0 0 0:0 1:0.81629032 2:0.032082938 3:0.012312772 4:0.446123 5:0.36518058 6:0.010182833 7:5.5369579e-05 8:0 9:0 10:0.98896742 11:0.032132704 12:0.0098121101 13:0.070508569 14:0.12566964 15:0.0048609129 16:0.0050388854 17:0 18:0 19:0.99999928 20:0 21:0 22:0 23:0 24:0 25:0 26:0 27:0 28:0.95164126 29:0.027634613 30:0.019010175 31:0.21779442 32:0.21251902 33:0.018286988 34:0.017861485 35:0 
-0.719458455490412 -0 -1 0 1 1 0 1 1 1 1 0 0 0 1 1 0:0 1:0.99793577 2:0.016048497 3:0.00012229403 4:0.025658544 5:0.041590296 6:0.029376904 7:0.024784921 8:0 9:0 10:0.96987492 11:0.0085843867 12:0.0062871994 13:0.16359857 14:0.17539559 15:0.017943552 16:0.037113652 17:0 18:0 19:0.99999797 20:0 21:0 22:2.0435955e-05 23:1.1059825e-05 24:0.0016536909 25:0.00051981321 26:0 27:0 28:0.99575615 29:0.021339953 30:0.026032019 31:0.0085120331 32:0.076664329 33:0.032977168 34:0.017236995 35:0 
-0 -0 -1 0 1 1 0 1 1 1 1 1 0 1 1 1 0:0 1:0.98968399 2:0.0043789446 3:0.032227442 4:0.075654894 5:0.10747045 6:0.038016718 7:0.027330324 8:0 9:0 10:0.99163479 11:0.026351923 12:0.034743126 13:0.051369525 14:0.1092555 15:0.006504585 16:0.011838175 17:0 18:0 19:0.99847651 20:0.010648051 21:0.0037028613 22:0.033769108 23:0.039229814 24:0.0037071295 25:0.014950651 26:0 27:0 28:0.98922724 29:0.037692707 30:0.039388042 31:0.067063272 32:0.11109399 33:0.033181425 34:0.022714803 35:0 
-1 -0 -1 0 1 1 0 1 1 0 0 0 0 0 1 0 0:0 1:0.97889894 2:0.017511848 3:0.021579321 4:0.1437282 5:0.14176683 6:0.010650902 7:0.010650902 8:0 9:0 10:0.98268139 11:0 12:0.00018551495 13:0.099995896 14:0.15600252 15:0 16:0 17:0 18:0 19:0.99692911 20:0 21:0 22:0.041894611 23:0.063027062 24:0.020065958 25:0 26:0 27:0 28:0.97778845 29:0.022076366 30:0.022761689 31:0.12236561 32:0.16616222 33:0.017458348 34:0.0058838641 35:0 
-0 -0 -0.9019748594716622 0 0 0.7201280614575107 0.1960932857708244 0 0.6134107303624501 1 1 1 0.233817330070488 0 1 1 0:0 1:0.90200001 2:0 3:0 4:0.00043874586 5:0.4123607 6:0.12787513 7:0 8:0 9:0 10:0.98575854 11:0.01259044 12:0.022098493 13:0.015242296 14:0.16450584 15:0.018366875 16:0.00029084863 17:0 18:0 19:0.99999911 20:0 21:0 22:0 23:0 24:0 25:0 26:0 27:0 28:0.93014586 29:0.0035484061 30:0 31:0.0014826314 32:0.35835245 33:0.079797611 34:0.0052934806 35:0 
-1 -0 -1 0 1 1 0 1 1 1 1 1 1 1 1 1 0:0 1:0.97171032 2:0.090904571 3:0.080089852 4:0.089682244 5:0.16828419 6:0.054646436 7:0.041835476 8:0 9:0 10:0.98354864 11:0.029074119 12:0.027670279 13:0.044352461 14:0.13841768 15:0.095861241 16:0.026527958 17:0 18:0 19:0.9982909 20:0.0085988296 21:0.0063770413 22:0.012431653 23:0.047353286 24:0.012397383 25:0.027366014 26:0 27:0 28:0.96216685 29:0.031722449 30:0.039467927 31:0.059232704 32:0.25119033 33:0.061566252 34:0.035688929 35:0 
-1 -0 -0 0 0 0 1 0 0 0 0.4662365760779633 1 0 0 0 1 0:0 1:0.8912102 2:0 3:0.024335317 4:0.10755792 5:0.43988445 6:0 7:0.0090957051 8:0 9:0 10:0.99026197 11:0.015895588 12:0.034763936 13:0.028068291 14:0.13035011 15:0.0011146839 16:0.011766415 17:0 18:0 19:0.99860573 20:0 21:0 22:0.0042025307 23:0.050048228 24:0 25:0.016212469 26:0 27:0 28:0.95281589 29:0.019130271 30:0.036749609 31:0.12211998 32:0.2702401 33:0.0054574031 34:0.049504116 35:0 
-0 -0 -1 0 0 0 0 0 1 0 0 0 0 0 0 0.114403438505538 0:0 1:0.94718438 2:0 3:0 4:0.1505436 5:0.28304452 6:0 7:0.0078710895 8:0 9:0 10:0.99511063 11:0.013148536 12:0.023468036 13:0.042335145 14:0.084443986 15:0 16:0.010347326 17:0 18:0 19:0.99937725 20:0 21:0 22:0.0077100289 23:0.019949462 24:0.021075731 25:0.01848593 26:0 27:0 28:0.95060557 29:0.017871164 30:0.017273931 31:0.15514004 32:0.26525736 33:0.015077822 34:0.032748483 35:0 
-1 -0.4450202471543488 -1 1 0 1 1 0.8120576782820861 1 1 1 1 1 1 0 1 0:0 1:0.99282008 2:0.037608404 3:0.035277393 4:0.083882809 5:0.056314912 6:0.033265166 7:0.018251248 8:0 9:0 10:0.97756153 11:0.037244253 12:0.043386783 13:0.091840737 14:0.17177606 15:0.05613225 16:0.0031465671 17:0 18:0 19:0.99581331 20:0.021136003 21:0.021386063 22:0.05553367 23:0.051495813 24:0.0078220731 25:0.040663026 26:0 27:0 28:0.89196789 29:0.086188987 30:0.12360547 31:0.3329348 32:0.26031515 33:0.053409517 34:0.014889608 35:0 
-0 -0 -1 0 0 0 0 1 1 1 1 0 0 0 1 0 0:0 1:0.99999917 2:0 3:0 4:0 5:0 6:0 7:0 8:0 9:0 10:0.96270657 11:0.018250506 12:0.015454822 13:0.13557689 14:0.23289737 15:0.00010499467 16:0 17:0 18:0 19:0.99999934 20:0 21:0 22:0 23:0 24:0 25:0 26:0 27:0 28:0.98009443 29:0 30:0 31:0.12018433 32:0.15720943 33:0.015936077 34:0.00042342505 35:0 
-1 -1 -0 1 1 0.8560564749131024 1 0 0 0 1 1 1 1 0 1 0:0 1:0.74371612 2:0.011366897 3:0.031738061 4:0.34865659 5:0.56396389 6:0.074680217 7:0.023487056 8:0 9:0 10:0.99126202 11:0.088991486 12:0.037345953 13:0.059635889 14:0.06481684 15:0.017557327 16:0.0042414353 17:0 18:0 19:0.99944812 20:2.3788187e-05 21:0.0033949546 22:0.015784051 23:0.028550608 24:0.0046333275 25:0.0022273902 26:0 27:0 28:0.93074167 29:0.12109096 30:0.068190157 31:0.2389452 32:0.23934305 33:0.0026154099 34:0.0042986358 35:0 
-0 -0 -1 0 0 1 1 0 1 0.4589798464577854 0.08091100667070643 0 0 0 0 0.04605553824480412 0:0 1:0.99850059 2:0 3:0 4:0.0335279 5:0.043247264 6:0 7:0.00025545011 8:0 9:0 10:0.97102541 11:0.017789444 12:0.021178776 13:0.072079562 14:0.22615637 15:0.00092499662 16:0 17:0 18:0 19:0.99716026 20:0 21:0 22:0.012701373 23:0.074218713 24:0 25:0 26:0 27:0 28:0.91646707 29:0.015871335 30:0.020474665 31:0.13793293 32:0.37466598 33:0.0038769911 34:0 35:0 
-1 -0 -1 0 0.7292842400247856 1 0 1 1 1 1 0 0 0 1 1 0:0 1:0.99999893 2:0 3:0 4:0 5:0 6:0 7:0 8:0 9:0 10:0.9495846 11:0 12:0.040499147 13:0.22644897 14:0.21299666 15:0 16:0.00027637603 17:0 18:0 19:0.99999899 20:0 21:0 22:0 23:0 24:0 25:0 26:0 27:0 28:0.99944806 29:0 30:0 31:0.02173757 32:0.021179888 33:0.013456463 34:0 35:0 
-1 -1 -0 0 0 0 1 0 0 0 1 1 1 0 0 1 0:0 1:0.77569187 2:0.027628001 3:0.011549857 4:0.096540906 5:0.61983776 6:0.024063528 7:0.057486784 8:0 9:0 10:0.99005753 11:0.035235446 12:0.012284908 13:0.031053808 14:0.13012363 15:0.019537164 16:0.010680749 17:0 18:0 19:0.9999994 20:0 21:0 22:0 23:0 24:0 25:0 26:0 27:0 28:0.91040349 29:0.037960473 30:0.017809318 31:0.079564922 32:0.40309533 33:0.021227088 34:0.011757646 35:0 
-0 -0 -1 0 0 0.6403121497389741 0 1 1 1 0 0 0 0 0 0 0:0 1:0.99986887 2:0 3:0 4:0.0050894786 5:0.015293533 6:0 7:0 8:0 9:0 10:0.94972676 11:0.030189112 12:0.014297334 13:0.1901554 14:0.24645925 15:0.00032783629 16:0 17:0 18:0 19:0.99999923 20:0 21:0 22:0 23:0 24:0 25:4.4920274e-05 26:0 27:0 28:0.96859103 29:0.002826279 30:0.010815358 31:0.16042833 32:0.1883956 33:0.02154959 34:0.0031641608 35:0 
-1 -0 -1 0 1 0 0 1 1 1 1 0 0 0 1 1 0:0 1:0.93828475 2:0.021257931 3:0.020762179 4:0.12412928 5:0.31941187 6:0.010066674 7:0.034687012 8:0 9:0 10:0.9792217 11:0.0022582558 12:0.0047046896 13:0.030841343 14:0.19906504 15:0.01005949 16:0.020416403 17:0 18:0 19:0.99926323 20:0.014274032 21:0.0095160212 22:0.028548064 23:0.019032042 24:0 25:0 26:0 27:0 28:0.99045283 29:0.01056625 30:0.010319836 31:0.056133047 32:0.12449826 33:0.0050149383 34:0.010393565 35:0 
-1 -0 -1 0.7049029420316223 0 1 1 1 1 1 1 0.5973420607425038 1 0 1 1 0:0 1:0.94713593 2:0 3:0 4:0.022795049 5:0.30749497 6:0.087437831 7:0.014604911 8:0 9:0 10:0.99138242 11:0.00068639871 12:0.00057657494 13:0.014634021 14:0.12893172 15:0.017928734 16:0 17:0 18:0 19:0.98745745 20:0 21:0 22:0.0032310504 23:0.13853504 24:0.072723232 25:0.020840222 26:0 27:0 28:0.9342857 29:0.036578719 30:0.013845541 31:0.048552517 32:0.34282053 33:0.07450106 34:0.012051738 35:0 
-1 -1 -1 0 0 1 1 0 1 1 1 1 1 1 1 1 0:0 1:0.89818621 2:0.14106843 3:0.12410948 4:0.11663084 5:0.32815373 6:0.101573 7:0.16232695 8:0 9:0 10:0.98088205 11:0.029907545 12:0.053617366 13:0.084529348 14:0.15822811 15:5.0355851e-05 16:0.043799747 17:0 18:0 19:0.99787092 20:0.031456407 21:0.039876103 22:0.010874914 23:0.028092729 24:0.022701243 25:0.015806604 26:0 27:0 28:0.8772856 29:0.15014724 30:0.081761986 31:0.15342791 32:0.32036415 33:0.1852275 34:0.20163085 35:0 
-1 -0 -1 1 1 1 0 1 1 0 0 0 0 0 1 0 0:0 1:0.9793272 2:0 3:0 4:0.12026261 5:0.16264267 6:0 7:0 8:0 9:0 10:0.98585451 11:0.0010747769 12:0.01938181 13:0.10060744 14:0.13191567 15:0.013748357 16:0 17:0 18:0 19:0.99353337 20:0 21:0 22:0.061676674 23:0.095318496 24:0 25:0 26:0 27:0 28:0.97436839 29:0.015366018 30:0.028126355 31:0.14943624 32:0.16419666 33:0.014459381 34:0.0087723238 35:0 
-1 -0 -1 0.688452624879282 1 1 0 1 1 1 1 1 1 1 1 1 0:0 1:0.98850948 2:0.023261625 3:0.030795833 4:0.088215947 5:0.10278893 6:0.049483936 7:0.023693368 8:0 9:0 10:0.99170923 11:0.0026187289 12:0.0058375811 13:0.060827754 14:0.11040224 15:0.023790289 16:0.0040151235 17:0 18:0 19:0.99382514 20:0.029779805 21:0.01379034 22:0.042179819 23:0.088449664 24:0.035956617 25:0.018369062 26:0 27:0 28:0.98800772 29:0.025439622 30:0.019171812 31:0.080070756 32:0.11277354 33:0.039058406 34:0.046575453 35:0 
-0 -0 -1 0 1 1 0 1 1 1 1 0 0 0 1 0 0:0 1:0.9963854 2:0 3:4.8601582e-05 4:0.075730547 5:0.038428914 6:0 7:0.00133292 8:0 9:0 10:0.97623235 11:1.5130991e-05 12:0.0081636747 13:0.11388876 14:0.18420559 15:1.5130991e-05 16:2.7958513e-05 17:0 18:0 19:0.99936324 20:0.0056977747 21:0.0022631588 22:0.012109597 23:0.024799431 24:0.0089598503 25:0.019808549 26:0 27:0 28:0.99117714 29:0.0015843529 30:0 31:0.11830006 32:0.058210272 33:0.0051221512 34:0.012427834 35:0 
-1 -1 -0 1 0 0 1 0 0 0 0 0 0 0 0 0 0:0 1:0.92080444 2:0 3:0 4:0.28526261 5:0.26596063 6:0 7:0.0027293907 8:0 9:0 10:0.91758758 11:0.00076167489 12:0.006673364 13:0.25815696 14:0.30215156 15:0.0061865873 16:0.0027955188 17:0 18:0 19:0.99551082 20:0 21:0 22:0.086362436 23:0.038530391 24:0 25:0.0035621144 26:0 27:0 28:0.92721081 29:0 30:0 31:0.30811009 32:0.2129121 33:0 34:0.0038931705 35:0 
-1 -0 -0 0 0 0 1 0 0 0 0 0 0 0 0 0 0:0 1:0.93127674 2:0.019954465 3:0 4:0.20159759 5:0.29999653 6:0.04100436 7:0 8:0 9:0 10:0.97354627 11:0.015792036 12:0.030950809 13:0.096364357 14:0.203481 15:0.017098146 16:0.0039628618 17:0 18:0 19:0.99999934 20:0 21:0 22:0 23:0 24:0 25:0 26:0 27:0 28:0.95885783 29:0.0059618689 30:0.020443285 31:0.17835478 32:0.21905398 33:0.012251022 34:0.013843842 35:0 
-1 -0 -0 0 1 0 0 0 0 0 0 0 0 0 0 0 0:0 1:0.93978077 2:0 3:0 4:0.22374019 5:0.2582466 6:0.0021220231 7:0.0073681357 8:0 9:0 10:0.98864734 11:0.023507185 12:0.022939544 13:0.095102005 14:0.1108425 15:0.0025546565 16:0.012617593 17:0 18:0 19:0.9999994 20:0 21:0 22:0 23:0 24:0 25:0 26:0 27:0 28:0.9708153 29:0.018825281 30:0.013958041 31:0.17429391 32:0.15956503 33:0.016780099 34:0.029088993 35:0 
-1 -1 -0.9537397452277022 1 0 1 1 0 1 1 1 0 1 1 0 1 0:0 1:0.98443103 2:0.050305638 3:0.030346233 4:0.088656947 5:0.11862603 6:0.030911893 7:0.067490265 8:0 9:0 10:0.96899241 11:0.025662536 12:0.041635495 13:0.15225261 14:0.17931865 15:0.03268531 16:0.04749506 17:0 18:0 19:0.99109614 20:0.039089002 21:0.027656456 22:0.056098763 23:0.10077832 24:0.03910163 25:0.024536258 26:0 27:0 28:0.90375841 29:0.047600918 30:0.063663594 31:0.24930738 32:0.33036843 33:0.062817998 34:0.040693022 35:0 
-1 -1 -1 1 1 1 1 1 1 1 1 1 1 1 1 1 0:0 1:0.97222209 2:0.014109673 3:0.050488867 4:0.10414016 5:0.1599915 6:0.083600536 7:0.092748277 8:0 9:0 10:0.9823997 11:0.027136546 12:0.052889552 13:0.10608412 14:0.13474022 15:0.036904234 16:0.024186002 17:0 18:0 19:0.96187723 20:0.069603339 21:0.10313315 22:0.098684542 23:0.16634893 24:0.044059947 25:0.14126942 26:0 27:0 28:0.96743572 29:0.049231991 30:0.10788177 31:0.16685209 32:0.12621523 33:0.067076832 34:0.041649394 35:0 
-0 -0 -1 0 1 1 0 1 1 1 1 0 0 0 1 1 0:0 1:0.99930173 2:0 3:0 4:0.029339718 5:0.022194752 6:0.0063188621 7:0 8:0 9:0 10:0.99205506 11:3.55829e-05 12:6.5748223e-05 13:0.043192249 14:0.11814965 15:0.00023128932 16:0 17:0 18:0 19:0.99999881 20:0 21:0 22:0 23:0 24:0 25:0 26:0 27:0 28:0.99957484 29:0 30:0 31:0.020325506 32:0.020351788 33:0.0037541802 34:0.0026777911 35:0 
-0 -0.9680930195067047 -0 -0 0 0 0 0 0 0 0 0 0 0 0 0 0:0 1:0.023617527 2:0.047461424 3:0.036508534 4:0.77290577 5:0.62964469 6:0.016274322 7:0.041868202 8:0 9:0 10:0.51706761 11:0.12408923 12:0.053847603 13:0.62398797 14:0.5591889 15:0.035140812 16:0.10513156 17:0 18:0 19:0.51181734 20:0.052122053 21:0.057584751 22:0.60946596 23:0.5888043 24:0.035752784 25:0.11220498 26:0 27:0 28:0.00035538099 29:0 30:0 31:0.80658346 32:0.59072882 33:0.007764169 34:0.019981459 35:0 
