svm_type c_svc
kernel_type rbf
gamma 0.5
nr_class 17
total_sv 841
rho -0.368701 -0.708334 -0.40725 -0.0865561 -0.511023 -0.514636 -0.177326 -0.848123 -0.474194 -0.595234 -0.340915 -0.596746 -0.295518 -0.30452 -0.508453 -0.468084 -0.489648 -0.0920347 0.22311 -0.198956 -0.173013 0.140584 -0.692695 -0.132828 -0.25285 -0.00309743 -0.327586 -0.00368906 0.0245509 -0.200688 -0.181566 0.590908 0.62199 0.324697 0.424304 0.619133 -0.234672 0.380497 0.297541 0.584887 0.244345 0.510744 0.526389 0.465912 0.256712 0.280469 -0.143852 -0.158883 0.237898 -0.752173 -0.0733676 -0.266593 0.0448768 -0.353304 0.0582768 0.096637 -0.159759 -0.158587 -0.392071 -0.375914 -0.0746588 -0.73403 -0.342064 -0.456789 -0.252049 -0.482639 -0.197356 -0.190869 -0.381233 -0.382268 0.046613 0.333493 -0.536946 0.0742934 -0.0586189 0.18347 -0.136315 0.191775 0.25373 0.0194193 0.0354748 0.341249 -0.802719 0.0653215 0.0101385 0.238949 -0.155985 0.203025 0.248778 -0.0668823 -0.0410569 -0.750289 -0.299422 -0.421456 -0.180332 -0.443586 -0.120376 -0.126147 -0.347589 -0.320966 0.772391 0.825809 0.79243 0.508553 0.660812 0.718511 0.610114 0.528532 -0.000221347 0.123901 -0.186543 0.138368 0.143768 -0.0680538 -0.0440815 0.276532 -0.0103933 0.287771 0.291748 0.0455252 0.0599786 -0.370863 -0.00466621 0.0342881 -0.27406 -0.189234 0.322643 0.357735 0.133059 0.100506 0.0375694 -0.195297 -0.189784 -0.270472 -0.188887 -0.0509983
label 0 1 2 3 4 5 6 7 8 9 10 11 12 13 14 15 16
nr_sv 55 44 54 51 51 38 52 45 48 47 51 53 47 51 50 53 51
SV
0.6306196183036403 0.2909751830123403 0.5913281976106071 0.9116832575867124 0.4965167901950397 0.4841400417489485 0.8199268342161796 0.1543460077465555 0.5241213104145309 0.4039862635310338 0.6580020517030644 0.4028503089661296 0.7035158725052648 0.6946929659309397 0.4901145893607156 0.5304198853869875 0:0 1:0.013511435 2:0.0055927071 3:0.052026603 4:0.63238406 5:0.7709409 6:0.048352353 7:0.021825351 8:0 9:0 10:0.15280652 11:0.069869563 12:0.094698161 13:0.6024586 14:0.76972705 15:0.075879492 16:0.040039398 17:0 18:0 19:0.36859223 20:0.11636798 21:0.16866104 22:0.53436029 23:0.71351421 24:0.12184065 25:0.11250766 26:0 27:0 28:0.29643491 29:0.26617953 30:0.34186649 31:0.30280071 32:0.55032086 33:0.27072957 34:0.50651538 35:0 36:0 37:0.38438767 38:0.068515219 39:0.17540619 40:0.10018058 41:0.81167835 42:0.1543012 43:0.35228932 44:0 45:0 46:0.017441275 47:0.016828902 48:0.050580345 49:0.63295519 50:0.76751316 51:0.054283537 52:0.064766645 53:0 54:0 55:0.50406986 56:0.13832711 57:0.23284699 58:0.46953124 59:0.66372466 60:0.084905431 61:0.066005729 62:0 63:0 64:0.93162441 65:0.10427295 66:0.11860006 67:0.16366637 68:0.2393135 69:0.094965272 70:0.11856066 71:0 72:0 73:0.41908985 74:0.10007824 75:0.25369373 76:0.4850722 77:0.64979905 78:0.2278481 79:0.20132446 80:0 81:0 82:0.47624344 83:0.24213791 84:0.29683337 85:0.24517356 86:0.45251527 87:0.25411639 88:0.54496545 89:0 90:0 91:0.076465964 92:0.038602524 93:0.14073932 94:0.59359193 95:0.72687262 96:0.1304947 97:0.27408674 98:0 99:0 100:0.92901254 101:0.1087958 102:0.062695846 103:0.010510255 104:0.30743563 105:0.068337537 106:0.14786306 107:0 108:0 109:0.98408669 110:0.11601264 111:0.11012588 112:0.021435186 113:0.061308134 114:0.017515095 115:0.038181335 116:0 117:0 118:0.62844419 119:0.11691254 120:0.30345613 121:0.34998998 122:0.57588738 123:0.1543335 124:0.14606495 125:0 126:0 127:0.19249372 128:0.030141031 129:0.23149775 130:0.27892086 131:0.88818222 132:0.13792069 133:0.15084372 134:0 135:0 136:0.12751862 137:0.013062285 138:0.17527887 139:0.2848967 140:0.82707524 141:0.29647878 142:0.31576487 143:0 144:0 145:0.87239945 146:0.0090661403 147:0.026524227 148:0.00017598893 149:0.48618072 150:0.0060800659 151:0.041452046 152:0 153:0 154:0.99248135 155:0.055849269 156:0.0034455466 157:8.5396634e-05 158:0.10792534 159:0.0063579767 160:0.012572798 161:0 162:0 163:0.66321236 164:0.064624615 165:0.10168798 166:0.033458117 167:0.73641974 168:0.042583045 169:0.019355936 170:0 171:0 172:0.026516924 173:0.0026750416 174:0.010634644 175:0.0049545499 176:0.99954289 177:0.005847306 178:0.0049575982 179:0 180:0 181:0.094947256 182:0.046286613 183:0.052655295 184:0.0062980363 185:0.99057847 186:0.011982962 187:0.067194358 188:0 189:0 190:0.50301623 191:0.0069680689 192:0.043563023 193:0.027770407 194:0.86245722 195:0.011013928 196:0.017258124 197:0 198:0 199:0.98893332 200:0.08006335 201:0.032024112 202:0.0052335481 203:0.11991189 204:0.0081114713 205:0.0099793468 206:0 207:0 208:0.42347643 209:0.028494373 210:0.018528879 211:0.0019290008 212:0.90515614 213:0.00065820396 214:0.013831721 215:0 216:0 217:0.163213 218:0.065439485 219:0.098233745 220:0.042208899 221:0.97379112 222:0.026643876 223:0.092446521 224:0 
0.5821301231685135 0.2688965473451586 0.5465425001693124 0.8589656923910437 0.450192125781864 0.4474148762077612 0.7581903635595314 0.139604730044451 0.4847405618408178 0.3727498062971017 0.607984065880567 0.371909357315947 0.6507088348478864 0.6436243638141225 0.4531221376569551 0.4935886073739045 0:0 1:0 2:0 3:0 4:0 5:0 6:0 7:0 8:0 9:0 10:0.67849422 11:0 12:0.72514576 13:0.088266924 14:0 15:0 16:0 17:0 18:0 19:0.99996716 20:0 21:0 22:0 23:0 24:0 25:0 26:0 27:0 28:0.99996644 29:0 30:0 31:0 32:0 33:0 34:0 35:0 36:0 37:0 38:0 39:0 40:0 41:0 42:0 43:0 44:0 45:0 46:0.24583319 47:0 48:0.82980877 49:0 50:0.4914656 51:0.039336633 52:0 53:0 54:0 55:0.0042359931 56:0.00085860683 57:0.0053717052 58:0.72362757 59:0.69007015 60:0.0095162643 61:0.0037623651 62:0 63:0 64:0.95092118 65:0.00087858917 66:0.058234286 67:0.15518409 68:0.24461535 69:0.068865068 70:0.060767315 71:0 72:0 73:0.99999893 74:0 75:0 76:0 77:0 78:0 79:0 80:0 81:0 82:0.99999207 83:0 84:0 85:0 86:0 87:0 88:0 89:0 90:0 91:0.0012375861 92:0.0010571956 93:0.0054306211 94:0.64027512 95:0.76803505 96:0.010170958 97:0.0045183739 98:0 99:0 100:0.0035784051 101:0.0016159248 102:0.0021942845 103:0.6549049 104:0.75563669 105:0.0091551887 106:0.0021665003 107:0 108:0 109:0.84403294 110:0.0070996634 111:0.029480936 112:0.39910328 113:0.34966567 114:0.049336467 115:0.051986225 116:0 117:0 118:0.25113267 119:0.050534904 120:0.14928444 121:0.54341948 122:0.76113731 123:0.15434149 124:0.11675926 125:0 126:0 127:0.99999899 128:0 129:0 130:0 131:0 132:0 133:0 134:0 135:0 136:0.14524302 137:0.0012890541 138:0.046997268 139:0.56978744 140:0.80042571 141:0.10510121 142:0.017445039 143:0 144:0 145:0.0011696066 146:0.00098957971 147:0.00368287 148:0.65879053 149:0.7522375 150:0.01034975 151:0.0027229364 152:0 153:0 154:0.63430262 155:0.001201383 156:0.00077321444 157:0.52551532 158:0.56692982 159:0.0086846137 160:0.00095087162 161:0 162:0 163:0.99999917 164:0 165:0 166:0 167:4.3315238e-05 168:0 169:0 170:0 171:0 172:0.12033762 173:0.097097129 174:0.3044557 175:0.59069663 176:0.71417409 177:0.10570686 178:0.1151202 179:0 180:0 181:0.95932746 182:0.00020739532 183:0.098955169 184:0.081616543 185:0.22637372 186:0.093932971 187:0.056250833 188:0 189:0 190:0.0028492422 191:0.00077555334 192:0.0071622171 193:0.67531139 194:0.73743069 195:0.0090436321 196:0.00088545622 197:0 198:0 199:0 200:0 201:0.42499357 202:0 203:0.78528529 204:0 205:0.42499357 206:0 207:0 208:0.99999517 209:0 210:0 211:0 212:0 213:0 214:0 215:0 216:0 217:0.99999893 218:0 219:0 220:0 221:0 222:0 223:0 224:0 
0.110818478692723 0.06955751541044529 0.1592237911655092 0.1604073923459781 0 0.1034639914308052 0.1341512564982847 0.01584406907090833 0.09419951809860089 0.09046153634049874 0.1436788889627222 0.0785278265840674 0.1332513132757505 0.1198883636864942 0.07662947367448594 0.09592914168232124 0:0 1:0.0068156426 2:0.0034143196 3:0.0031501355 4:0.97104484 5:0.2384941 6:0.0085522067 7:0.0048006601 8:0 9:0 10:0.88553715 11:0.051238898 12:0.043406852 13:0.33874241 14:0.26209772 15:0.15240186 16:0.068107262 17:0 18:0 19:0.92535108 20:0.012148315 21:0.071072593 22:0.28464392 23:0.23696762 24:0.027912874 25:0.023854163 26:0 27:0 28:0.99999905 29:0 30:0 31:0 32:0 33:0 34:0 35:0 36:0 37:0.99999362 38:0 39:0 40:0 41:0 42:0 43:0 44:0 45:0 46:0.333094 47:0.0036812571 48:0.02660309 49:0.79139227 50:0.50573623 51:0.071286179 52:0.034188084 53:0 54:0 55:0.81536573 56:0.014696418 57:0.038344562 58:0.51300913 59:0.2617971 60:0.039942544 61:0.013352843 62:0 63:0 64:0.93699896 65:0.03759237 66:0.050025538 67:0.24386044 68:0.23724198 69:0.038702738 70:0.029404692 71:0 72:0 73:0.50294924 74:0.043520696 75:0.090868101 76:0.73846316 77:0.43510532 78:0.03358674 79:0.033395328 80:0 81:0 82:0.99999881 83:0 84:0 85:0 86:0 87:0 88:0 89:0 90:0 91:0.99967772 92:0.00011264873 93:0.016742337 94:0.0013551755 95:0.0030787466 96:0.0052076713 97:0.017953804 98:0 99:0 100:0.96076715 101:0.0010851286 102:0.00043478748 103:0.23030576 104:0.15273398 105:0.023550496 106:0.00033165311 107:0 108:0 109:0.99929601 110:0.0046578115 111:0.030021459 112:0.011206071 113:0.018865859 114:0 115:0.00099939725 116:0 117:0 118:0.98845327 119:0.022853753 120:0.049435753 121:0.063902512 122:0.12424516 123:0.0050420831 124:0.021111023 125:0 126:0 127:0.17218971 128:0.12873451 129:0.15433018 130:0.76524103 131:0.57133782 132:0.091489188 133:0.097773828 134:0 135:0 136:0.99984264 137:0 138:0 139:0 140:0 141:0 142:0 143:0 144:0 145:0.99999857 146:0 147:0 148:0.00018653886 149:0.00088020926 150:3.847546e-05 151:5.8260637e-05 152:0 153:0 154:0.99902332 155:0.0023178349 156:0.028983623 157:0 158:0.02929436 159:0 160:0.015709771 161:0 162:0 163:0.98496974 164:0.019003876 165:0.096474282 166:0.018743088 167:0.080388479 168:0.058798119 169:0.099430315 170:0 171:0 172:0.9998678 173:0 174:0 175:0 176:0 177:0 178:0 179:0 180:0 181:0 182:0 183:0 184:0 185:0 186:0 187:0 188:0 189:0 190:0.99999905 191:0 192:0 193:0 194:0 195:0 196:0 197:0 198:0 199:0.99928236 200:0.012247805 201:0.01817406 202:0 203:0.026366895 204:0 205:0.016034245 206:0 207:0 208:0.99934977 209:0 210:0.034158595 211:0 212:0.011307928 213:0 214:0.00013188647 215:0 216:0 217:0 218:0 219:0 220:0 221:0 222:0 223:0 224:0 
0.6261022386700529 0.2583852797477451 0.5307837448081675 0.8037417001107497 0.4277138285098899 0.4026267668362652 0.7357365698535846 0.1176784843889608 0.4432905988092704 0.3493924977583467 0.6119788509335358 0.3539230538202712 0.6780866552377129 0.6140676837573796 0.4287036048747692 0.4714492513883278 0:0 1:0.093305528 2:0.038073253 3:0.17403264 4:0.6243726 5:0.72455651 6:0.20442665 7:0.054189723 8:0 9:0 10:0.87495083 11:0.092846245 12:0.17528032 13:0.13977176 14:0.21390039 15:0.30732751 16:0.18807925 17:0 18:0 19:0.99607348 20:0.00015237466 21:0.027312858 22:0.011031509 23:0.02982514 24:0.0014397929 25:0.077946939 26:0 27:0 28:0.96313256 29:0.027346898 30:0.03958879 31:0.015189257 32:0.10296978 33:0.068595156 34:0.23349041 35:0 36:0 37:0.99689025 38:0.042819489 39:0.031788934 40:0.024316354 41:0.039850798 42:0.017587511 43:0.029579412 44:0 45:0 46:0.20026609 47:0.070780672 48:0.34926555 49:0.65203452 50:0.62238872 51:0.12797639 52:0.063219503 53:0 54:0 55:0.048478819 56:0.030306313 57:0.043048602 58:0.49314544 59:0.82085401 60:0.26689053 61:0.081520192 62:0 63:0 64:0.90491617 65:0.12054252 66:0.082701035 67:0.13758078 68:0.14881256 69:0.30654922 70:0.15712515 71:0 72:0 73:0.14997919 74:0.099720336 75:0.14623798 76:0.34284705 77:0.84865022 78:0.23234271 79:0.23330735 80:0 81:0 82:0.9737677 83:0.11447284 84:0.13896257 85:0.04989228 86:0.095472813 87:0.058309723 88:0.065984398 89:0 90:0 91:0.95449793 92:0.17159015 93:0.22301343 94:0.0498146 95:0.053346191 96:0.032734975 97:0.057908613 98:0 99:0 100:0.353333 101:0.015164101 102:0.024255348 103:0.61511362 104:0.6932435 105:0.07179559 106:0.10107189 107:0 108:0 109:0.12429616 110:0.095173873 111:0.19909692 112:0.42885116 113:0.73905289 114:0.24591962 115:0.38111779 116:0 117:0 118:0.99433446 119:0.023868728 120:0.083806641 121:0.019696437 122:0.040760767 123:0.020762796 124:0.034915492 125:0 126:0 127:0.98727608 128:0.070008315 129:0.098887533 130:0.087805577 131:0.042510718 132:0.0096103447 133:0.031526998 134:0 135:0 136:0.98592055 137:0.023107894 138:0.095958784 139:0.024303285 140:0.1206919 141:0.012448081 142:0.053883251 143:0 144:0 145:0.98694617 146:0.057102583 147:0.056428779 148:0.10041081 149:0.065799989 150:0.051002394 151:0.049722634 152:0 153:0 154:0.93688631 155:0.0093872398 156:0.0090871565 157:0.22041197 158:0.2560136 159:0.045820966 160:0.076443575 161:0 162:0 163:0.11884241 164:0.13191228 165:0.085584916 166:0.14736076 167:0.71648341 168:0.37540758 169:0.53397077 170:0 171:0 172:0.83955175 173:0.32100978 174:0.37251467 175:0.046116866 176:0.18860194 177:0.058662754 178:0.11042709 179:0 180:0 181:0.21233493 182:0.19411428 183:0.50039011 184:0.42422929 185:0.57121342 186:0.38525608 187:0.11027625 188:0 189:0 190:0.99609929 191:0.028755991 192:0.026930906 193:0.0040377509 194:0.019566378 195:0.029210405 196:0.070554405 197:0 198:0 199:0.84241015 200:0.0068743583 201:0.0071061207 202:0.0034575737 203:0.19076303 204:0.022442585 205:0.50330746 206:0 207:0 208:0.36619368 209:0.13249713 210:0.10583055 211:0.068623222 212:0.77683216 213:0.46957716 214:0.091953076 215:0 216:0 217:0.13129432 218:0.2822932 219:0.52714169 220:0.6044836 221:0.49310663 222:0.10783772 223:0.070745587 224:0 
0.3360613140561185 0.1698608319222687 0.3966519752280266 0.4974116625293552 0.497545021146078 0.297275059195728 0.4498334436055867 0.08173655995086927 0.3184492390756007 0.222122909574524 0.3924610949414793 0.2658980798121247 0.4000952584071825 0.4283261880008583 0.275387431863082 0.2952720100819444 0:0 1:0.0010618429 2:0.00084366091 3:0.0005696899 4:0.74506301 5:0.66698343 6:0.00053026789 7:0.00075259781 8:0 9:0 10:0.51913524 11:0.016378772 12:0.080235176 13:0.56243289 14:0.62815827 15:0.079162814 16:0.081292056 17:0 18:0 19:0.92839599 20:0.031838186 21:0.077463254 22:0.1709179 23:0.30421814 24:0.08236257 25:0.050192177 26:0 27:0 28:0.99999911 29:0 30:0 31:0 32:0 33:0 34:0 35:0 36:0 37:0.99779814 38:0.047126755 39:0.01060515 40:0.032613441 41:0.03140704 42:0.0014376466 43:0 44:0 45:0 46:0.0032330528 47:0.00033763915 48:0.0015783225 49:0.71652704 50:0.69754529 51:0.00092025741 52:0.0013242497 53:0 54:0 55:0.85510433 56:0.00044822349 57:0.02507369 58:0.38031346 59:0.35054097 60:0.015980851 61:0.019830778 62:0 63:0 64:0.94289607 65:0.0089961579 66:0.039580081 67:0.21863097 68:0.24584846 69:0.024288045 70:0.021599106 71:0 72:0 73:0.58581913 74:0.13346735 75:0.22765329 76:0.37939844 77:0.65055978 78:0.12890241 79:0.05811771 80:0 81:0 82:0.9999212 83:0.010913461 84:0.00061165064 85:0.0048297686 86:0.0034871297 87:0.00070812437 88:0.00034636731 89:0 90:0 91:0.17240649 92:0.0010729607 93:0.017601499 94:0.62656438 95:0.75946134 96:0.016803408 97:0.017658023 98:0 99:0 100:0.98370326 101:8.8987479e-05 102:0.00046696604 103:0.12443019 104:0.12978007 105:0.00011575896 106:0.00038339142 107:0 108:0 109:0.99999911 110:0 111:0 112:0 113:0 114:0 115:0 116:0 117:0 118:0.9999705 119:0.00059188437 120:0.0027226696 121:0.0043799481 122:0.0054453406 123:0 124:0.0002367541 125:0 126:0 127:0.65347958 128:0.154911 129:0.043494694 130:0.35611546 131:0.50474453 132:0.12373415 133:0.38750383 134:0 135:0 136:0.9979521 137:0.0012304052 138:0.060747918 139:0.0075389212 140:0.012205361 141:0.0061194529 142:0.010817904 143:0 144:0 145:0.99999911 146:0 147:0 148:0 149:0 150:0 151:0 152:0 153:0 154:0.99999911 155:0 156:0 157:0 158:0 159:0 160:0 161:0 162:0 163:0.9999792 164:0 165:0 166:0 167:0 168:0 169:0 170:0 171:0 172:0.99999613 173:0 174:0 175:0 176:0 177:0 178:0 179:0 180:0 181:0 182:0 183:0 184:0 185:0 186:0 187:0 188:0 189:0 190:0.99999911 191:0 192:0 193:0 194:0 195:0 196:0 197:0 198:0 199:0.99999911 200:0 201:0 202:0 203:0 204:0 205:0 206:0 207:0 208:0.99997067 209:0 210:0 211:0 212:0 213:0 214:0 215:0 216:0 217:0.99997222 218:0 219:0 220:0 221:0 222:0 223:0 224:0 
0 0 0 0 0 0.09531593284637349 0 0 0.01977894908417441 0.01374349222945965 0.2030734668744007 0 0 0.1517172994191693 0 0 0:0 1:0.084406421 2:0.05274684 3:0.21611223 4:0.45287257 5:0.73802125 6:0.43979442 7:0.013891827 8:0 9:0 10:0.96314949 11:0.0065844208 12:0.058722418 13:0.044729061 14:0.19157597 15:0.14167872 16:0.10036979 17:0 18:0 19:0.99777973 20:0.00010586008 21:0.0042023249 22:0.0085986322 23:0.033595994 24:0.016657837 25:0.054181911 26:0 27:0 28:0.9600212 29:0.034291357 30:0.050513547 31:0.076670058 32:0.14537662 33:0.17665476 34:0.12809685 35:0 36:0 37:0.99999917 38:0 39:0 40:0 41:0 42:0 43:0 44:0 45:0 46:0.82120997 47:0.0661311 48:0.30816513 49:0.23237012 50:0.35585454 51:0.20975403 52:0.040569961 53:0 54:0 55:0.28063026 56:0.012760709 57:0.21310353 58:0.61588377 59:0.5861975 60:0.36400598 61:0.14221516 62:0 63:0 64:0.98257095 65:0.0091068847 66:0.058104735 67:0.037745599 68:0.10213318 69:0.060459014 70:0.12482866 71:0 72:0 73:0.75636286 74:0.098474912 75:0.17115171 76:0.26077625 77:0.50712156 78:0.10388487 79:0.23011349 80:0 81:0 82:0.89957428 83:0.14212339 84:0.34744963 85:0.12693584 86:0.16528897 87:0.061390664 88:0.051379677 89:0 90:0 91:0.98594522 92:0.10701133 93:0.076021619 94:0.04291404 95:0.053222466 96:0.036756769 97:0.068221271 98:0 99:0 100:0.3223258 101:0.033482451 102:0.11867099 103:0.75848073 104:0.52903128 105:0.13939865 106:0.079363078 107:0 108:0 109:0.93906134 110:0.0031311845 111:0.019799534 112:0.2305278 113:0.23538731 114:0.063834623 115:0.071655668 116:0 117:0 118:0.98295861 119:0.019224532 120:0.11166186 121:0.026417797 122:0.10921811 123:0.048703808 124:0.077161461 125:0 126:0 127:0.96272361 128:0.094903752 129:0.14657938 130:0.17957993 131:0.093678005 132:0.032949731 133:0.02363909 134:0 135:0 136:0.99388087 137:0.060657788 138:0.036531907 139:0.018832494 140:0.053925976 141:0.043706395 142:0.04485783 143:0 144:0 145:0.91891801 146:0.073258884 147:0.14281882 148:0.25045025 149:0.19762968 150:0.1328425 151:0.10193947 152:0 153:0 154:0.89963633 155:0.0012553193 156:0.0017040231 157:0.33582222 158:0.27903697 159:0.0028182711 160:0.00073130266 161:0 162:0 163:0.99939519 164:0.0026343153 165:0.0031902227 166:0.031076394 167:0.013639521 168:0.00051877886 169:0.0061364588 170:0 171:0 172:0.97774488 173:0.081687652 174:0.15530585 175:0.043748245 176:0.082482606 177:0.057335503 178:0.034866445 179:0 180:0 181:0.99918473 182:0.0042464789 183:0.0019635097 184:0.018887969 185:0.017358508 186:0.0003322048 187:0.030778198 188:0 189:0 190:0.99819803 191:0.00077530887 192:0.0036968142 193:0.00011037225 194:0.039275918 195:0.0090070143 196:0.044283532 197:0 198:0 199:0.99509281 200:0.006341897 201:0.0051123919 202:0.021711838 203:0.028303908 204:0.022948053 205:0.089007884 206:0 207:0 208:0.8160634 209:0.006089461 210:0.032955877 211:0.13365605 212:0.4256013 213:0.30206275 214:0.20656921 215:0 216:0 217:0.13384354 218:0.12190922 219:0.45206937 220:0.56662714 221:0.64083385 222:0.14686154 223:0.097720049 224:0 
0.3761029871121011 0.1720797534116898 0.3528130858309031 0.5647901745100965 0.2630234002600351 0.2765344117085466 0.5067532954926897 0.08245479367199478 0.3114688011119002 0.2337859097565455 0.3991008933967752 0.2323208478968925 0.4348888705524209 0.4317863127022135 0.2905726040730677 0.3236501940924187 0:0 1:0.0067714686 2:0.014031538 3:0.030368818 4:0.63238198 5:0.77305943 6:0.033915449 7:0.012339177 8:0 9:0 10:0.33129239 11:0.064716123 12:0.039424684 13:0.56078607 14:0.75274414 15:0.050367303 16:0.029297119 17:0 18:0 19:0.39198101 20:0.098222971 21:0.073827438 22:0.54820758 23:0.71439123 24:0.12141829 25:0.074968681 26:0 27:0 28:0.95647049 29:0.09753336 30:0.072785728 31:0.094117194 32:0.21387462 33:0.10899205 34:0.062215235 35:0 36:0 37:0.99999869 38:0 39:0 40:0 41:0 42:0 43:0 44:0 45:0 46:0.00894175 47:0.013711321 48:0.017938079 49:0.62411058 50:0.77776015 51:0.050586153 52:0.049226057 53:0 54:0 55:0.77230495 56:0.05982222 57:0.046309106 58:0.37512586 59:0.50124544 60:0.061835669 61:0.04503515 62:0 63:0 64:0.98108429 65:0.067551434 66:0.031915184 67:0.095508389 68:0.14238426 69:0.040404122 70:0.02935164 71:0 72:0 73:0.40546015 74:0.034964759 75:0.062200259 76:0.61273915 77:0.66782945 78:0.092387803 79:0.022934901 80:0 81:0 82:0.92936456 83:0.078039758 84:0.12833403 85:0.037754148 86:0.298832 87:0.073319204 88:0.13272807 89:0 90:0 91:0.34562886 92:0.041239146 93:0.040800396 94:0.57812667 95:0.71669686 96:0.099672645 97:0.13910265 98:0 99:0 100:0.99981558 101:0.0057648164 102:0.0087977834 103:0.0064889165 104:0.013639817 105:0.002556318 106:0.0045336164 107:0 108:0 109:0.99999583 110:0.00018943837 111:0.00066866586 112:0.0004489306 113:0.0008550834 114:0.0005198259 115:0.002140637 116:0 117:0 118:0.92659748 119:0.0046485304 120:0.023931917 121:0.24152474 122:0.28450564 123:0.026586771 124:0.028877188 125:0 126:0 127:0.71682292 128:0.013013784 129:0.012172064 130:0.46649033 131:0.51665878 132:0.035251774 133:0.0072219046 134:0 135:0 136:0.88804889 137:0.0028903084 138:0.10571656 139:0.1633123 140:0.34771815 141:0.16892309 142:0.15509942 143:0 144:0 145:0.99999607 146:0.00077635847 147:0.00012903592 148:0.0012432918 149:0.0010729454 150:0.00067442982 151:0.0010668437 152:0 153:0 154:0.99999899 155:0 156:0 157:0 158:0 159:0 160:0 161:0 162:0 163:0.99999684 164:0 165:0 166:0.00096580957 167:0.0010536098 168:0.00087800802 169:0 170:0 171:0 172:0.99999768 173:0 174:0 175:0 176:0 177:0 178:0 179:0 180:0 181:0 182:0 183:0 184:0 185:0 186:0 187:0 188:0 189:0 190:0.99999851 191:0 192:0 193:0 194:0 195:0 196:0 197:0 198:0 199:0.99999893 200:0 201:0 202:0 203:0 204:0 205:0 206:0 207:0 208:0.99999827 209:0 210:0 211:0 212:0 213:0 214:0 215:0 216:0 217:0 218:0 219:0 220:0 221:0 222:0 223:0 224:0 
0.4061763542769677 0.1537814372339299 0.4687377421691644 0.574687644608241 0.3773664651290871 0.2777826589746977 0.5135578657423641 0.04197888463406506 0.3155827124494378 0.184429450526337 0.3761549419267511 0.2396174903305365 0.4396123235002236 0.4233313466906655 0.2721908487377603 0.3147080441139392 0:0 1:0.05198852 2:0 3:0.028345717 4:0.73666441 5:0.67306584 6:0 7:0 8:0 9:0 10:0.19199212 11:0.031663749 12:0.0048689987 13:0.81218547 14:0.53669041 15:0.009768365 16:0.11968661 17:0 18:0 19:0.87691784 20:0.015250265 21:0.032921668 22:0.29369509 23:0.37386155 24:0.022222392 25:0.056322552 26:0 27:0 28:0.99949855 29:1.4885549e-05 30:0.00027948982 31:0.00011908364 32:0.031628404 33:4.8556165e-05 34:0.00088892999 35:0 36:0 37:0.99999785 38:0 39:0 40:0 41:0 42:0 43:0 44:0 45:0 46:0.99137467 47:0.039453544 48:0.034141604 49:0.036200222 50:0.083888672 51:0.058310606 52:0.051977724 53:0 54:0 55:0.80030715 56:0.0015020701 57:0.019668588 58:0.5226205 59:0.28799984 60:0.044274762 61:0.032866422 62:0 63:0 64:0.98186952 65:0.0057061994 66:0.01920631 67:0.14518002 68:0.11817414 69:0.0065857158 70:0.02105158 71:0 72:0 73:0.98882484 74:0.0011025104 75:0.02551176 76:0.092334062 77:0.11175381 78:0.023464737 79:0.0024940276 80:0 81:0 82:0.99976844 83:1.9526515e-05 84:0.00031948718 85:7.8105571e-05 86:0.021466875 87:6.3694846e-05 88:0.00050070212 89:0 90:0 91:0.99999821 92:0 93:0 94:0 95:0 96:0 97:0 98:0 99:0 100:0.9982627 101:0.0177345 102:0.015346765 103:0.01627212 104:0.037708238 105:0.026210809 106:0.023364158 107:0 108:0 109:0.99432635 110:0 111:0 112:0.099858649 113:0.036628954 114:0 115:3.3616303e-05 116:0 117:0 118:0.99649119 119:0.026236085 120:0.0020862429 121:0.046719197 122:0.060058508 123:0.018902626 124:0.012770335 125:0 126:0 127:0.99906141 128:0.0017106943 129:0.019331057 130:0.001487174 131:0.0052746478 132:0.038243774 133:0.00075270899 134:0 135:0 136:0 137:0 138:0 139:0 140:0 141:0 142:0 143:0 144:0 145:0.99999845 146:0 147:0 148:0 149:0 150:0 151:0 152:0 153:0 154:0.99999917 155:0 156:0 157:0 158:0 159:0 160:0 161:0 162:0 163:0.99999857 164:0 165:0 166:0 167:0 168:0 169:0 170:0 171:0 172:0 173:0 174:0 175:0 176:0 177:0 178:0 179:0 180:0 181:0 182:0 183:0 184:0 185:0 186:0 187:0 188:0 189:0 190:0.99999845 191:0 192:0 193:0 194:0 195:0 196:0 197:0 198:0 199:0.99999911 200:0 201:0 202:0 203:0 204:0 205:0 206:0 207:0 208:0.99999857 209:0 210:0 211:0 212:0 213:0 214:0 215:0 216:0 217:0 218:0 219:0 220:0 221:0 222:0 223:0 224:0 
0.7408648335038619 0.2007675242820933 0.7629972952329372 0.5535760519330225 0.2747225186847795 0.7526822532621285 0.822752090017143 0.3147517644549549 0.6966431122686451 0.8326332940087656 0.8855349276815646 0.7151732494333463 0.7023555671174415 0.8042743838799798 0.3729110176917877 0.318056322972699 0:0 1:0.021605028 2:0.059476022 3:0.35959464 4:0.45265439 5:0.69426137 6:0.40370145 7:0.12966256 8:0 9:0 10:0.96203232 11:0.0072336872 12:0.074688882 13:0.068064228 14:0.16700149 15:0.16572124 16:0.094207719 17:0 18:0 19:0.99362046 20:2.3186602e-05 21:0.022880755 22:0.0095181148 23:0.042870592 24:0.032127585 25:0.09608306 26:0 27:0 28:0.99490589 29:0.0070280456 30:3.0011281e-05 31:0.0097594745 32:0.017281625 33:0.040924046 34:0.089680187 35:0 36:0 37:0.99999923 38:0 39:7.0488277e-05 40:1.517279e-05 41:0.00023274746 42:4.2452528e-05 43:2.8035747e-05 44:0 45:0 46:0.85047835 47:0.076469928 48:0.27831629 49:0.24539001 50:0.35909858 51:0.038054693 52:0.052532371 53:0 54:0 55:0.53310597 56:0.054239772 57:0.26809829 58:0.25148132 59:0.73565483 60:0.18846375 61:0.031944484 62:0 63:0 64:0.98715508 65:0.0080638183 66:0.071475662 67:0.060034562 68:0.11822172 69:0.029948395 70:0.043251641 71:0 72:0 73:0.11406579 74:0.00014869387 75:0.84126103 76:0.48723909 77:0.12154302 78:0.16374685 79:0.016536344 80:0 81:0 82:0.9968099 83:0.042856775 84:0.066573471 85:0.0094997417 86:0.0030780239 87:1.6564578e-05 88:3.0607447e-05 89:0 90:0 91:0.99586529 92:0.045938 93:0.058489252 94:0.033698253 95:0.031674366 96:0.021265795 97:0.011331252 98:0 99:0 100:0.99559355 101:0.012190354 102:0.054033488 103:0.02815216 104:0.069651097 105:0.0017746058 106:0.0086889174 107:0 108:0 109:0.93172181 110:0.029400313 111:0.30439547 112:0.067087971 113:0.16976933 114:0.069831222 115:0.013101508 116:0 117:0 118:0.99866462 119:0.00021915292 120:0.016624639 121:0.0042292881 122:0.042498205 123:0.010852429 124:0.021178756 125:0 126:0 127:0.99509877 128:0.090555273 129:0.017510653 130:0.004106672 131:0.033220399 132:0.0084538627 133:0.0088269496 134:0 135:0 136:0.99833268 137:0.026221497 138:0.040877782 139:0.021098047 140:0.020680962 141:3.0626314e-05 142:0.0099337064 143:0 144:0 145:0.9997108 146:0.013441026 147:0.0026408781 148:0.014323359 149:0.0021549498 150:6.7839632e-05 151:0.013348376 152:0 153:0 154:0.99997175 155:5.1675452e-05 156:0.0064954301 157:0.00012312422 158:0.0034414488 159:0 160:0.00010083844 161:0 162:0 163:0.31197155 164:0.050363932 165:0.69422418 166:0.56878644 167:0.3022604 168:0.056352884 169:0.011180313 170:0 171:0 172:0.97304416 173:0.12397594 174:0.17639431 175:0.044665691 176:0.065712914 177:0.010458898 178:0.016590312 179:0 180:0 181:0.83926207 182:0.081876636 183:0.095156148 184:0.38563374 185:0.34840053 186:0.093128987 187:0.033265792 188:0 189:0 190:0.99953604 191:0 192:0.010950058 193:0 194:0.022567008 195:0.001662571 196:0.017149908 197:0 198:0 199:0.9942928 200:0.027540367 201:0.015151129 202:0.028583663 203:0.028618244 204:0.021170223 205:0.091145881 206:0 207:0 208:0.85271096 209:0.047143057 210:0.049822114 211:0.084765978 212:0.32724538 213:0.30237728 214:0.24993747 215:0 216:0 217:0.11720522 218:0.15557942 219:0.41142938 220:0.65451932 221:0.54819804 222:0.25209019 223:0.017662175 224:0 
0.4217283908151382 0.1643721503310853 0.4320914816783986 0.346435990026688 0.1815424810569005 0.3185864251225796 0.3471006070565373 0.1222418303509426 0.277093407744428 0.2127024965826007 0.3533788316171896 0.1897227330243604 0.3742359380653516 0.3496960080975051 0.2608458994700154 0.3004313401588597 0:0 1:0.64199632 2:0.13992839 3:0.43775696 4:0.061250057 5:0.59954071 6:0.085722968 7:0.077571899 8:0 9:0 10:0.99734592 11:0 12:0 13:0 14:0.070354261 15:0.0012965577 16:0.018489419 17:0 18:0 19:0.99976373 20:0 21:0.0054948037 22:0.00061242568 23:0.0064130281 24:0.00072362047 25:0.019819655 26:0 27:0 28:0.99921775 29:0 30:0.015104425 31:0 32:0.020513941 33:0.02442389 34:0.017662687 35:0 36:0 37:0.99999666 38:0 39:0 40:0 41:0 42:0 43:0 44:0 45:0 46:0.9901368 47:0.020838223 48:0.048722986 49:0.090519242 50:0.08687935 51:0.032699365 52:0.00093717442 53:0 54:0 55:0.2185812 56:0.012325305 57:0.038418513 58:0.68314916 59:0.63530707 60:0.27185401 61:0.079761244 62:0 63:0 64:0.99999821 65:0 66:0 67:0 68:0 69:0 70:0 71:0 72:0 73:0.12443231 74:0.00015274872 75:0.19899915 76:0.70347029 77:0.66723371 78:0.069488756 79:0.0010692411 80:0 81:0 82:0.99753106 83:0.062918358 84:0.028593022 85:0.012102474 86:0.0013414819 87:0.00026398071 88:0.00090914092 89:0 90:0 91:0.99662733 92:0.050553825 93:0.013209385 94:0.035714142 95:0.047509938 96:8.1796366e-05 97:0.021587679 98:0 99:0 100:0.58361608 101:0.10124827 102:0.0014267261 103:0.67953014 104:0.43096468 105:0.0031010429 106:0.040336762 107:0 108:0 109:0.97067988 110:0.0057416391 111:0.017399618 112:0.13753481 113:0.18346328 114:0.067764245 115:0.016561436 116:0 117:0 118:0.99999791 119:0 120:0 121:0 122:0 123:0 124:0 125:0 126:0 127:0.98468435 128:0.076219417 129:0.064131841 130:0.00092702307 131:0.14126524 132:0.0082287742 133:0.021030853 134:0 135:0 136:0.99697512 137:0.022441287 138:0.014974509 139:0.030908532 140:0.05266333 141:0.0081927637 142:0.038878754 143:0 144:0 145:0.99558038 146:0.057867799 147:0 148:0.036070764 149:0.050926533 150:0.00014999614 151:0.039586946 152:0 153:0 154:0.99740154 155:0 156:0.00040491016 157:0.068743005 158:0.021349506 159:0.00087659567 160:8.107788e-05 161:0 162:0 163:0.96908993 164:0 165:0.026611798 166:0.23392224 167:0.073416159 168:0.0063449875 169:0 170:0 171:0 172:0.9938997 173:0.071605906 174:0.047730815 175:0.02054742 176:0.065250933 177:0.0084697157 178:0 179:0 180:0 181:0.99756527 182:0.027550394 183:0.027685488 184:0.048290636 185:0.017272713 186:0.00013759812 187:0.026351104 188:0 189:0 190:0.99980086 191:0 192:0 193:0 194:0.0093376087 195:0.017450145 196:0 197:0 198:0 199:0.99755174 200:0 201:0.012020254 202:0.00024098314 203:0.036856357 204:0.039030839 205:0.043091327 206:0 207:0 208:0.93470114 209:0.013974964 210:0.0018414102 211:0.014669654 212:0.30775011 213:0.17479569 214:0.025448481 215:0 216:0 217:0.082963005 218:0.10341739 219:0.26710808 220:0.66682142 221:0.66782516 222:0.10335308 223:0.09868025 224:0 
0.9733533580660393 0.5679806247431829 1 0.4587965443486723 0.888895839420875 1 0.8159998639627962 1 1 1 1 1 1 1 0.7844723512882753 0.6817003763021635 0:0 1:0.012765171 2:0.0016370806 3:0.28080627 4:0.60862929 5:0.68777668 6:0.27830815 7:0.0070366836 8:0 9:0 10:0.93914396 11:0.0016656934 12:0.11964511 13:0.098471165 14:0.15844083 15:0.11218144 16:0.23728253 17:0 18:0 19:0.9115662 20:0 21:0.098279402 22:0.060306266 23:0.18647645 24:0.17452911 25:0.30085653 26:0 27:0 28:0.90822995 29:0.017983779 30:0.04485108 31:0.24429004 32:0.272618 33:0.14767084 34:0.13028921 35:0 36:0 37:0.99999893 38:2.0379615e-05 39:3.7656737e-05 40:0 41:0.00033763691 42:7.7400517e-05 43:0 44:0 45:0 46:0.95296746 47:0.063049443 48:0.19552027 49:0.026929844 50:0.1767268 51:0.12740165 52:0.038185272 53:0 54:0 55:0.67260921 56:0.26825887 57:0.36486959 58:0.27698404 59:0.31168333 60:0.30272019 61:0.27747706 62:0 63:0 64:0.90608174 65:0.0013251432 66:0.12043996 67:0.17103046 68:0.20595466 69:0.14569283 70:0.26760009 71:0 72:0 73:0.82455063 74:0.038073827 75:0.151554 76:0.32388708 77:0.39021444 78:0.11390421 79:0.15984663 80:0 81:0 82:0.94572312 83:0.065473333 84:0.14835204 85:0.24835114 86:0.11850227 87:0.040218517 88:0.04440188 89:0 90:0 91:0.99020058 92:0.053156842 93:0.11622845 94:0.019105241 95:0.047983631 96:0.0221952 97:0.002481048 98:0 99:0 100:0.98861647 101:0.097230405 102:0.093670957 103:0.0077367104 104:0.060838461 105:0.016347339 106:0.019465199 107:0 108:0 109:0.99651229 110:0.0083383908 111:0.027969658 112:0.044910289 113:0.063901991 114:0.00036467912 115:0.0029922535 116:0 117:0 118:0.98413473 119:0.017602513 120:0.094419159 121:0.12463459 122:0.068390675 123:0.017363759 124:0.041705433 125:0 126:0 127:0.99141663 128:0.078558639 129:0.076091334 130:0.046352796 131:0.049058709 132:0.009028364 133:0.02220208 134:0 135:0 136:0.87362921 137:0.1268542 138:0.2548615 139:0.091596827 140:0.36267868 141:0.12412632 142:0.01972116 143:0 144:0 145:0.97696215 146:0.041128971 147:0.063817613 148:0.0095920283 149:0.14240201 150:0.13186048 151:0.044954941 152:0 153:0 154:0.99510098 155:0.00081060786 156:0.01906324 157:0.02352892 158:0.064675063 159:0.06035294 160:0.032082397 161:0 162:0 163:0.95306075 164:0.003213359 165:0.01725301 166:0.22714083 167:0.1986506 168:0.017263997 169:0.0033366564 170:0 171:0 172:0.93667954 173:0.052677561 174:0.23811612 175:0.097667105 176:0.22743866 177:0.0027815511 178:0.043349694 179:0 180:0 181:0.98937714 182:4.7897374e-05 183:0.023038637 184:0.023134431 185:0.13736966 186:0.032474421 187:0.011830651 188:0 189:0 190:0.93424791 191:0.050305765 192:0.057606179 193:0.048605137 194:0.26836145 195:0.20157227 196:0.079481669 197:0 198:0 199:0.934636 200:0.05538385 201:0.047430638 202:0.057228755 203:0.12683429 204:0.25502124 205:0.19167155 206:0 207:0 208:0.94397581 209:0.0063029649 210:0.038612876 211:0.19463386 212:0.20331623 213:0.14959469 214:0.076015539 215:0 216:0 217:0.90133971 218:0.058222201 219:0.15891954 220:0.27179158 221:0.23629041 222:0.16461946 223:0.046209525 224:0 
0.1576810626619306 0.04877991167635931 0.09556215156302869 0.2215664497841622 0.5286307090322218 0.2774822209461593 0.1855119707136231 0.07947364565633495 0.2074072289239454 0.2284968589436947 0.1823924439617348 0.1752078204791065 0.1210318776993734 0.2214281612789329 0.1291730728357942 0.1149691776371362 0:0 1:0.014384807 2:0.018620403 3:0.020846456 4:0.95437586 5:0.29612517 6:0.0018870134 7:0.017397091 8:0 9:0 10:0.98198086 11:0.001089962 12:0.02526526 13:0.010507021 14:0.16286953 15:0.0065612602 16:0.091581397 17:0 18:0 19:0.98974842 20:1.8899655e-05 21:0.0084422985 22:0.059150744 23:0.1283334 24:0.0018632546 25:0.018793806 26:0 27:0 28:0.99999911 29:0 30:8.5853149e-05 31:0 32:0.00047312828 33:0 34:2.8617716e-05 35:0 36:0 37:0.99999738 38:0 39:0 40:0 41:0 42:0 43:0 44:0 45:0 46:0.040475443 47:0.024156598 48:0.010339624 49:0.70519429 50:0.7073645 51:0.0014535056 52:0.00058889756 53:0 54:0 55:0.79899639 56:0.00058284542 57:0.0013873979 58:0.52131015 59:0.29594794 60:0.0066474974 61:0.046965431 62:0 63:0 64:0.99575663 65:4.1177998e-05 66:0.021399649 67:0.0014554053 68:0.088098265 69:0.0094709396 70:0.012491215 71:0 72:0 73:0.99602765 74:0.00019818265 75:0.0044613243 76:0.032071032 77:0.082936369 78:0.00031253733 79:0.0007988927 80:0 81:0 82:0.99999917 83:0 84:2.9473267e-05 85:0 86:0.000287114 87:0 88:0 89:0 90:0 91:0.80858105 92:0.016411491 93:0.02599564 94:0.31868553 95:0.49357387 96:0.0042823558 97:0.0073250886 98:0 99:0 100:0.85797203 101:0.0001808339 102:0.00020370512 103:0.38761592 104:0.33709806 105:0.00025459271 106:0.00032890981 107:0 108:0 109:0.99925166 110:0.00010687176 111:0 112:0.036422681 113:0.012955504 114:0 115:0.0005333423 116:0 117:0 118:0.99300826 119:0 120:0.010481846 121:0.06528762 122:0.097630508 123:0.0053082556 124:0.00074966572 125:0 126:0 127:0.99027264 128:0.012505467 129:0.0020972569 130:0.05923932 131:0.12497757 132:0.00036264045 133:0.008258733 134:0 135:0 136:0.99999756 137:0 138:0 139:0 140:0 141:0 142:0 143:0 144:0 145:0.99721164 146:0 147:0 148:0.053328618 149:0.05217316 150:0 151:0 152:0 153:0 154:0.99999923 155:0 156:0 157:0 158:0 159:0 160:0 161:0 162:0 163:0.99965459 164:0 165:0.02492393 166:0 167:0.0081654303 168:0 169:0 170:0 171:0 172:0.9999975 173:0 174:0 175:0 176:0 177:0 178:0 179:0 180:0 181:0 182:0 183:0 184:0 185:0 186:0 187:0 188:0 189:0 190:0.9999283 191:0 192:3.1739866e-05 193:0.0072407858 194:0.00010836701 195:0.0093718516 196:0.0002325617 197:0 198:0 199:0.99999917 200:0 201:0 202:0 203:0 204:0 205:0 206:0 207:0 208:0.99999857 209:0 210:0 211:0 212:0 213:0 214:0 215:0 216:0 217:0 218:0 219:0 220:0 221:0 222:0 223:0 224:0 
0.7892719676039204 0.2559203510716894 0.6817460980630808 0.7587118067272894 0.4129838648283534 0.4319556223968484 0.7325490609170097 0.1081277025897529 0.4401250882833053 0.3798023547422759 0.7367334913480714 0.3549098819094054 0.7815928207868353 0.8409203384635667 0.4732880759505936 0.4439778711605252 0:0 1:0.26334885 2:0.10127454 3:0.36572236 4:0.19604693 5:0.74743193 6:0.053948533 7:0.43161121 8:0 9:0 10:0.70138788 11:0.00054884551 12:0.021868823 13:0.1212358 14:0.66771841 15:0.12850146 16:0.17464869 17:0 18:0 19:0.81418943 20:0.024257045 21:0.089136407 22:0.19272365 23:0.44521821 24:0.16589729 25:0.25623992 26:0 27:0 28:0.99384016 29:0.028928921 30:0.00080480095 31:0.015790066 32:0.055477709 33:0.0099112215 34:0.089478835 35:0 36:0 37:0.99999666 38:0 39:0 40:0 41:0 42:0 43:0 44:0 45:0 46:0.74113005 47:0.036334727 48:0.087800302 49:0.29365066 50:0.58981484 51:0.086927444 52:0.0034793757 53:0 54:0 55:0.52336347 56:0.038721021 57:0.020241594 58:0.30544946 59:0.79127336 60:0.061767474 61:0.030763056 62:0 63:0 64:0.43881714 65:0.018954149 66:0.070548639 67:0.49831662 68:0.70394373 69:0.12099945 70:0.20879273 71:0 72:0 73:0.35549507 74:0.067979448 75:0.2465703 76:0.60445589 77:0.64919865 78:0.089042895 79:0.1159017 80:0 81:0 82:0.99167007 83:0.10478148 84:0.018694295 85:0.052941393 86:0.041804247 87:0.026446335 88:0.00091972528 89:0 90:0 91:0.61041868 92:0.042712107 93:0.31998754 94:0.14326118 95:0.70091867 96:0.10646693 97:0.00038828698 98:0 99:0 100:0.78618169 101:0.011774017 102:0.04950567 103:0.33335224 104:0.48017076 105:0.17565989 106:0.082252003 107:0 108:0 109:0.90085816 110:0.027940031 111:0.023459123 112:0.21570468 113:0.36836654 114:0.064549834 115:0.027003406 116:0 117:0 118:0.35026634 119:0.021429751 120:0.094268531 121:0.83157402 122:0.37461996 123:0.15888239 124:0.10416311 125:0 126:0 127:0.94336969 128:0.16226563 129:0.12015495 130:0.16465832 131:0.20505926 132:0.010506914 133:0.0014065152 134:0 135:0 136:0.99902159 137:0.0042285481 138:0.0010395439 139:0.0067012198 140:0.043301735 141:2.055463e-08 142:1.8270782e-08 143:0 144:0 145:0.70761484 146:0.046113733 147:0.23663016 148:0.43645489 149:0.38096067 150:0.30721524 151:0.10532941 152:0 153:0 154:0.99984306 155:0.0033231312 156:0.0016724637 157:0.0029889019 158:0.0027329398 159:0.016677618 160:0.00021039414 161:0 162:0 163:0.50789613 164:0.030913357 165:0.12460025 166:0.6357218 167:0.55762661 168:0.088079594 169:0.051968783 170:0 171:0 172:0.98935318 173:0.081543043 174:0.10525837 175:0.038350284 176:0.037670884 177:0 178:0.023564866 179:0 180:0 181:0.99997741 182:0 183:0.0001667389 184:0.00061612396 185:0.0010502711 186:0.0044722096 187:0.004074981 188:0 189:0 190:0.9931137 191:0.00046702035 192:0.01834585 193:0.019254422 194:0.059185114 195:0.011541313 196:0.096807368 197:0 198:0 199:0.99236351 200:0.0053323521 201:0.020739244 202:0.035824724 203:0.053233095 204:0.037453547 205:0.09606871 206:0 207:0 208:0.97265476 209:0.00015902589 210:0.016922522 211:0.065062724 212:0.1121701 213:0.1873606 214:0.041600976 215:0 216:0 217:0.072293818 218:0.16377197 219:0.32554618 220:0.6392504 221:0.63898188 222:0.1916327 223:0.091090001 224:0 
0.5629928133240385 0.2595855829243564 0.5286346534657417 0.8163563005839716 0.4392028157836932 0.4332376594060623 0.7330475382481407 0.1351687588969989 0.4684786966863309 0.3608330051974776 0.5875124346094662 0.3594298348960674 0.6280328932970598 0.6227090197594956 0.4382659192364264 0.4758130532673517 0:0 1:0.76477975 2:0 3:0 4:0 5:0.58533895 6:0 7:0 8:0 9:0 10:0.15026717 11:0.00018342894 12:0.00018078739 13:0.76676774 14:0.58540666 15:0.099768415 16:0.19187179 17:0 18:0 19:0.99999827 20:0 21:0 22:0 23:0.0001403817 24:0 25:0 26:0 27:0 28:0.99999583 29:0 30:0 31:0 32:0 33:0 34:0 35:0 36:0 37:0 38:0 39:0 40:0 41:0 42:0 43:0 44:0 45:0 46:0.0012167566 47:0.00041409404 48:0.0002745706 49:0.83615816 50:0.54846978 51:0.0013238982 52:0.00045091077 53:0 54:0 55:0.050107367 56:0.00040061781 57:0.011007837 58:0.77969617 59:0.61682671 60:0.047398116 61:0.081930362 62:0 63:0 64:0.96425599 65:4.1024647e-05 66:4.0433853e-05 67:0.18394083 68:0.18447503 69:0.022354057 70:0.042912923 71:0 72:0 73:0.99999851 74:0 75:0 76:0 77:0.00012190296 78:0 79:0 80:0 81:0 82:0.99999583 83:0 84:0 85:0 86:0 87:0 88:0 89:0 90:0 91:0.0015171015 92:0.00025831588 93:0.0041363174 94:0.77732474 95:0.62907737 96:0.0009233579 97:0.00055240659 98:0 99:0 100:0.0013275761 101:0.00043483038 102:0.00015120443 103:0.77711564 104:0.62934846 105:0.00064534775 106:0.00043901458 107:0 108:0 109:0.974922 110:0.00020165589 111:0 112:0.1721254 113:0.14104016 114:0.00012790415 115:0 116:0 117:0 118:0.99999857 119:0 120:0 121:0 122:0 123:0 124:0 125:0 126:0 127:0.99999857 128:0 129:0 130:0 131:0 132:0 133:0 134:0 135:0 136:0.039056845 137:0 138:0.024946392 139:0.67883766 140:0.73277587 141:0.0011820175 142:0.0076350812 143:0 144:0 145:0.0026406324 146:0 147:0.00068592717 148:0.70452237 149:0.70965242 150:0.00077363662 151:0.00068592286 152:0 153:0 154:0 155:0 156:0 157:0 158:0 159:0 160:0 161:0 162:0 163:0.99999624 164:0 165:0 166:0 167:0 168:0 169:0 170:0 171:0 172:0.99999815 173:0 174:0 175:0 176:0 177:0 178:0 179:0 180:0 181:0.43074587 182:0 183:0.27515712 184:0.10416337 185:0.84879953 186:0.0058752811 187:0.085329071 188:0 189:0 190:0 191:0 192:0 193:0 194:0 195:0 196:0 197:0 198:0 199:0 200:0 201:0 202:0 203:0 204:0 205:0 206:0 207:0 208:0 209:0 210:0 211:0 212:0 213:0 214:0 215:0 216:0 217:0.99998844 218:0 219:0 220:0 221:0 222:0 223:0 224:0 
0.465600699001246 0.02919052841003803 0.4074835857808997 0.3645555468901038 0.2383208373505062 0.851172299125043 0.7350781819449378 0.2251959523059609 0.77833349214095 0.9066008026878605 0.8277118048649243 0.3730905193911458 0.6463044387837956 0.8572303845521976 0.1874837974754954 0.1413972991460327 0:0 1:0.41796318 2:0.11844738 3:0.5116353 4:0.60111034 5:0.29638579 6:0.30893004 7:0.068614237 8:0 9:0 10:0.89003378 11:0.053161222 12:0.25702086 13:0.30661681 14:0.16318557 15:0.12056262 16:0.061209958 17:0 18:0 19:0.92935771 20:0.075171687 21:0.14070116 22:0.12800902 23:0.17982131 24:0.16498433 25:0.1867507 26:0 27:0 28:0.98496044 29:0.0034193206 30:0.0027254012 31:0.0024889545 32:0.061084971 33:0.059764747 34:0.15000364 35:0 36:0 37:0.99999267 38:0 39:0 40:0 41:0 42:0 43:0 44:0 45:0 46:0.85392797 47:0.1334496 48:0.16368824 49:0.39745137 50:0.20652448 51:0.040494546 52:0.1546308 53:0 54:0 55:0.10691842 56:0.1335192 57:0.35077977 58:0.87865919 59:0.24401638 60:0.09949749 61:0.078575805 62:0 63:0 64:0.86000258 65:0.061020087 66:0.27254489 67:0.35563865 68:0.22735421 69:0.029035034 70:0.057855472 71:0 72:0 73:0.99758768 74:0.012176569 75:0.041026458 76:0.045444191 77:0.011312497 78:0.0017054846 79:0.027501166 80:0 81:0 82:0.98123163 83:0.16220868 84:0.096924365 85:0.037283216 86:0.0064180326 87:9.056739e-08 88:0.0036940561 89:0 90:0 91:0.87452388 92:0.097606689 93:0.28254369 94:0.04408263 95:0.35654581 96:0.0046723397 97:0.1291378 98:0 99:0 100:0.94241464 101:0.078761436 102:0.11538561 103:0.28526887 104:0.059136886 105:0.067957088 106:0.053117245 107:0 108:0 109:0.97249848 110:0.020321755 111:0.095394745 112:0.20224588 113:0.058330152 114:0.00079237868 115:0.020407677 116:0 117:0 118:0.93272191 119:0.15303917 120:0.16673391 121:0.15775494 122:0.19546419 123:0.078903899 124:0.097046137 125:0 126:0 127:0.87348396 128:0.38955963 129:0.18083212 130:0.094914481 131:0.20768164 132:0.013187378 133:0.014927563 134:0 135:0 136:0.99435771 137:0.031906985 138:0.017008983 139:0.00087460963 140:0.062813528 141:0.00087459071 142:0.077222683 143:0 144:0 145:0.99998957 146:4.0802565e-08 147:2.0401284e-08 148:1.0200642e-08 149:0.0014181428 150:1.0200642e-08 151:3.0601925e-08 152:0 153:0 154:0.9996134 155:0.012424023 156:0.013427584 157:0.0074599106 158:0.018105008 159:0.0011495833 160:0.0068240045 161:0 162:0 163:0.87403589 164:0.021748528 165:0.10085174 166:0.43432078 167:0.18961613 168:0.0002771717 169:0.028451089 170:0 171:0 172:0.91419649 173:0.14912689 174:0.34860584 175:0.12138087 176:0.063800156 177:0.0072916117 178:0.039924476 179:0 180:0 181:0.99851179 182:0 183:0.023150457 184:0.00044390623 185:0.0023882284 186:0.0047425036 187:0.048853219 188:0 189:0 190:0.97904998 191:0 192:0.13607864 193:0.0031137506 194:0.050752919 195:0.080541968 196:0.117673 197:0 198:0 199:0.96492356 200:0.0014367579 201:0.14711654 202:0.022731785 203:0.10767277 204:0.137982 205:0.12694007 206:0 207:0 208:0.90532464 209:0.0014982527 210:0.14036986 211:0.087465815 212:0.2706677 213:0.25524265 214:0.12085035 215:0 216:0 217:0.13067305 218:0.14807124 219:0.44390696 220:0.65407479 221:0.53672034 222:0.16672504 223:0.14225441 224:0 
0.5435273005035544 0.2508571049768585 0.5107533507239418 0.7935703864801278 0.4327837909933069 0.4172188682120073 0.707103005059439 0.1307303730524684 0.451666799918867 0.3473582397745776 0.566458490876056 0.346868569387883 0.6057701379193242 0.5979036740150029 0.4223765167924221 0.4575149249721455 0:0 1:0.057072066 2:0 3:0 4:0.46695897 5:0.86768895 6:0.15776449 7:0 8:0 9:0 10:0.0035071063 11:0 12:0.0020789492 13:0.76608866 14:0.64265776 15:0.004607107 16:0.0060078576 17:0 18:0 19:0.88482594 20:0 21:0.021952052 22:0.26211163 23:0.37955302 24:0.044714037 25:0.042832889 26:0 27:0 28:0.99999905 29:0 30:0 31:0 32:5.6771238e-05 33:0 34:0 35:0 36:0 37:0.98795325 38:0 39:0 40:0.10769258 41:0.11112186 42:0 43:0 44:0 45:0 46:0.0040304484 47:0.0034911679 48:0.010403536 49:0.73079628 50:0.68228364 51:0.016157813 52:0 53:0 54:0 55:0.0028512287 56:0.00082867511 57:0.0022276817 58:0.82666069 59:0.56267923 60:0.0023052646 61:0.00072954828 62:0 63:0 64:0.85812742 65:0 66:0.00022068081 67:0.38245901 68:0.34116831 69:0.017259585 70:0.025413034 71:0 72:0 73:0.014376706 74:0 75:0.019706987 76:0.74359107 77:0.66695464 78:0.0090018436 79:0.03954754 80:0 81:0 82:0.99433917 83:0 84:0.0091610057 85:0.057787951 86:0.088682383 87:0 88:0 89:0 90:0 91:0.81892753 92:0.0031154177 93:0.00019782055 94:0.49392211 95:0.29078978 96:0.0062052845 97:0.028062193 98:0 99:0 100:0.0069319084 101:0.00019656141 102:0.0013401716 103:0.87415618 104:0.48509559 105:0.0031324769 106:0.021686371 107:0 108:0 109:0.69340056 110:0 111:0.00014038851 112:0.61935353 113:0.36822844 114:0 115:0.00067401433 116:0 117:0 118:0.9999975 119:0 120:0 121:0.001760292 122:8.6783904e-05 123:0 124:0 125:0 126:0 127:0.73672539 128:0.023236096 129:0.00485942 130:0.53087169 131:0.41706488 132:0.019480653 133:0.022859126 134:0 135:0 136:0.99999869 137:0 138:0 139:0 140:0 141:0 142:0 143:0 144:0 145:0.020431479 146:0 147:0 148:0.91474682 149:0.40327558 150:0.010018561 151:0.0090167411 152:0 153:0 154:0.01890664 155:0 156:0 157:0.99885243 158:0.036440443 159:0 160:0 161:0 162:0 163:0.99999702 164:0 165:0 166:0 167:0 168:0 169:0 170:0 171:0 172:0.99999934 173:0 174:0 175:0 176:0 177:0 178:0 179:0 180:0 181:0 182:0 183:0 184:0 185:0 186:0 187:0 188:0 189:0 190:0 191:0 192:0 193:0 194:0 195:0 196:0 197:0 198:0 199:0 200:0 201:0 202:0 203:0 204:0 205:0 206:0 207:0 208:0 209:0 210:0 211:0 212:0 213:0 214:0 215:0 216:0 217:0.99999857 218:0 219:0 220:0 221:0 222:0 223:0 224:0 
0.6200294897440776 0.2832938362395604 0.5876061046738251 1 0.4919155164128446 0.4721251871916715 0.7961765628744657 0.1458190649141384 0.5069594517348948 0.3912840254756159 0.6452388360953096 0.3918925577330183 0.712109134802637 0.6918910913901087 0.4784450552605111 0.5572282379897311 0:0 1:0 2:0 3:0 4:0 5:0 6:0 7:0 8:0 9:0 10:0 11:0 12:0 13:0 14:0 15:0 16:0 17:0 18:0 19:0.94003391 20:0 21:0.19408825 22:0 23:0.27775046 24:0.036870465 25:0 26:0 27:0 28:0.999973 29:0 30:0 31:0 32:0 33:0 34:0 35:0 36:0 37:0.99975938 38:0 39:0 40:0 41:0 42:0 43:0 44:0 45:0 46:0 47:0 48:0 49:0 50:0 51:0 52:0 53:0 54:0 55:0.42894638 56:0 57:0.24540968 58:0 59:0.3903971 60:0.077332452 61:0.77090722 62:0 63:0 64:0.65206629 65:0.09668231 66:0.065825433 67:0.034041923 68:0.41614968 69:0.59904748 70:0.16699441 71:0 72:0 73:0.98251504 74:0.041919749 75:0.10062913 76:0.066182695 77:0.12961684 78:0.037063245 79:0.014871471 80:0 81:0 82:0.99999684 83:0 84:0 85:0 86:0 87:0 88:0 89:0 90:0 91:0.8291648 92:0.077454045 93:0.27103207 94:0.1696651 95:0.24387431 96:0.28350434 97:0.25020924 98:0 99:0 100:0.082845718 101:0.015985893 102:0.014554539 103:0.8448413 104:0.5272696 105:0.023690756 106:0.017732805 107:0 108:0 109:0.10320818 110:0.065325513 111:0.085230157 112:0.68183059 113:0.70460874 114:0.058119055 115:0.11429501 116:0 117:0 118:0.6627059 119:0.14429374 120:0.12304258 121:0.47204229 122:0.50943798 123:0.16203292 124:0.12746367 125:0 126:0 127:0.96670765 128:0.070084482 129:0.13294451 130:0.093129285 131:0.16192921 132:0.054536827 133:0.070835084 134:0 135:0 136:0.78594196 137:0.090418041 138:0.089633822 139:0.28600883 140:0.5127331 141:0.096168466 142:0.11012091 143:0 144:0 145:0.094930567 146:0.022519739 147:0.030618414 148:0.73797876 149:0.66069818 150:0.061540794 151:0.067936905 152:0 153:0 154:0.034344707 155:0.018919732 156:0.023704179 157:0.73183179 158:0.6782679 159:0.032486118 160:0.034862205 161:0 162:0 163:0.91788691 164:0.018794369 165:0.038029123 166:0.26414004 167:0.29241189 168:0.013522567 169:0.01491825 170:0 171:0 172:0.93216974 173:0.05527037 174:0.087014928 175:0.12694196 176:0.20934188 177:0.15021998 178:0.19473058 179:0 180:0 181:0.99999797 182:0 183:0 184:0 185:0 186:0 187:0 188:0 189:0 190:0.89433175 191:0.053336795 192:0.051045567 193:0.20778921 194:0.36780035 195:0.078594267 196:0.10040674 197:0 198:0 199:0.015910745 200:0.0057406514 201:0.010753164 202:0.75295955 203:0.65760821 204:0.010472834 205:0.0090208426 206:0 207:0 208:0.99998081 209:0 210:0.0033927441 211:0.0013180568 212:0.00024151878 213:0.00099788688 214:0.0008245997 215:0 216:0 217:0.99999785 218:0 219:0 220:0 221:8.8247405e-05 222:0.00016305895 223:0.00016305895 224:0 
1 0.8013833842796739 1 0.1501487618269031 0.8543667136279501 1 0.4110623674583039 1 1 1 1 1 0.773256137786087 1 0.8772106055659794 0.7915684908458671 0:0 1:0.56527853 2:0.0032431993 3:0.071560912 4:0.52633089 5:0.51920807 6:0.31057775 7:0.17919925 8:0 9:0 10:0.9863503 11:0.00024123253 12:0.018736379 13:0.13634279 14:0.076010816 15:0.023822052 16:0.042684574 17:0 18:0 19:0.98386556 20:0.023059811 21:0.024328828 22:0.14625022 23:0.033787914 24:0.0608395 25:0.068168737 26:0 27:0 28:0.9976483 29:4.4469136e-05 30:0.013312279 31:0.00014284132 32:0.038362246 33:0.031811677 34:0.045085777 35:0 36:0 37:0.99999738 38:0 39:0 40:0 41:0 42:0 43:0 44:0 45:0 46:0.99311215 47:0.0062560765 48:0.028560275 49:0.062285461 50:0.093941912 51:0.0073919985 52:0.010409919 53:0 54:0 55:0.61188477 56:0.012011992 57:0.1343448 58:0.65695447 59:0.41866732 60:0.020716498 61:0.0097466726 62:0 63:0 64:0.91433698 65:0.025144093 66:0.029370593 67:0.30253145 68:0.25677446 69:0.067974664 70:0.02027012 71:0 72:0 73:0.99265122 74:0.01396267 75:0.03177359 76:0.030439874 77:0.093778744 78:0.056316648 79:0.023308368 80:0 81:0 82:0.99843216 83:0.037460174 84:0.039644212 85:0.012300153 86:0.0016271638 87:0 88:0.0006511184 89:0 90:0 91:0.9975695 92:0.029863931 93:0.036790859 94:0.00049584621 95:0.046682496 96:0 97:0.020604815 98:0 99:0 100:0.99999881 101:0 102:0.00011995115 103:6.9950023e-05 104:0.000107893 105:2.5000561e-05 106:0 107:0 108:0 109:0.9731909 110:0.0068808384 111:0.025058253 112:0.17702416 113:0.14187863 114:0.013796191 115:0.023762293 116:0 117:0 118:0.92299736 119:0.026491953 120:0.016819306 121:0.26832882 122:0.26744774 123:0.059191898 124:0.0073800739 125:0 126:0 127:0.99988341 128:0.0029665271 129:0.00088100362 130:0.0016844537 131:0.00023408585 132:0.014615947 133:0.0016199542 134:0 135:0 136:0.99994051 137:0.010587587 138:0 139:0 140:0.001447747 141:0 142:0 143:0 144:0 145:0.99719042 146:0 147:0.0011786667 148:0.001473334 149:0.074845374 150:0 151:0 152:0 153:0 154:0.99999839 155:0 156:0 157:0 158:0.00013907476 159:0 160:0 161:0 162:0 163:0.99424511 164:0.010215277 165:0.00088499824 166:0.097322926 167:0.03744664 168:0.0092618512 169:0.020158147 170:0 171:0 172:0.9924475 173:0.065288223 174:0.10049399 175:0.018030254 176:0.014215918 177:0.012051526 178:0.0028808473 179:0 180:0 181:0.99706817 182:0.041660417 183:0.00090805278 184:0.033688881 185:0.034509283 186:0.0069524078 187:0.041686628 188:0 189:0 190:0.99995589 191:0 192:0 193:0 194:0.0033759933 195:0.00064275658 196:0.0085478071 197:0 198:0 199:0.99926698 200:0 201:0.0091658654 202:0.010180332 203:0.0054152268 204:0.020475544 205:0.028744457 206:0 207:0 208:0.97946811 209:0.01510148 210:0.00056826114 211:0.060105875 212:0.15784407 213:0.10711201 214:0.020215483 215:0 216:0 217:0.18173878 218:0.11456861 219:0.40795425 220:0.56008053 221:0.67362148 222:0.13761824 223:0.031825218 224:0 
0.6226643790368864 0.2853672704916322 0.5798981996828581 0.8944034554525784 0.4781516458191757 0.4747381452230509 0.8054104758309389 0.1483258632992031 0.5143748212469545 0.3957379411953182 0.6446519743106192 0.3944793676988125 0.688999020671698 0.6803351365820518 0.484117686934146 0.52036532357274 0:0 1:0 2:0 3:0 4:0 5:0.99999279 6:0 7:0 8:0 9:0 10:0 11:3.3796026e-09 12:0.00036947808 13:3.3796026e-09 14:0.99999362 15:3.3796026e-09 16:0.00036947842 17:0 18:0 19:0 20:3.377107e-09 21:3.377107e-09 22:3.377107e-09 23:0.99999374 24:3.377107e-09 25:5.0656603e-09 26:0 27:0 28:0 29:0 30:0 31:0 32:0.99999279 33:0 34:0 35:0 36:0 37:0.1083006 38:1.1972529e-09 39:0 40:0 41:0.99411595 42:0 43:1.1972529e-09 44:0 45:0 46:0 47:0 48:0 49:0.828345 50:0.56019467 51:0 52:0 53:0 54:0 55:0 56:0.037393715 57:0.072803065 58:0.49533397 59:0.85399801 60:0.054461174 61:0.1251376 62:0 63:0 64:3.190572e-10 65:2.2334004e-09 66:0.00018479233 67:2.4518908e-05 68:0.99999881 69:6.8544461e-05 70:0.00013952691 71:0 72:0 73:8.6409374e-10 74:3.456375e-09 75:4.3204689e-09 76:1.9874152e-08 77:0.99999678 78:5.1845626e-09 79:3.456375e-09 80:0 81:0 82:0.14654823 83:0 84:0 85:0 86:0.98920047 87:0 88:0 89:0 90:0 91:0.00030479563 92:0.00012179475 93:0.0015402397 94:0.83344817 95:0.55258703 96:0.0013041011 97:0.00046385385 98:0 99:0 100:0.00030902235 101:0.012102052 102:0.027489807 103:0.69824833 104:0.71296996 105:0.0313216 106:0.047273993 107:0 108:0 109:3.6662764e-10 110:0.0134961 111:0.023230784 112:0.17557745 113:0.98354554 114:0.016929701 115:0.028276891 116:0 117:0 118:2.3928256e-05 119:2.392882e-05 120:0.00015656742 121:4.7877977e-05 122:0.99999881 123:0.00020084619 124:6.8140602e-05 125:0 126:0 127:0.52129966 128:7.5045947e-10 129:0.019057801 130:0.090142012 131:0.84821522 132:0.016832074 133:0 134:0 135:0 136:8.1790458e-10 137:0.076163553 138:0.0054661627 139:0.40514854 140:0.91028929 141:0.012401137 142:0.035176527 143:0 144:0 145:0.00056110701 146:0.00036601984 147:0.0043689385 148:0.82987458 149:0.55791473 150:0.00169219 151:0.0018384404 152:0 153:0 154:0 155:8.6503588e-10 156:0.00079304684 157:3.0276261e-08 158:0.99999624 159:8.6503588e-10 160:0.00062527048 161:0 162:0 163:3.5407799e-10 164:1.7703901e-09 165:3.1867016e-09 166:2.5493632e-08 167:0.99999869 168:2.8326237e-09 169:1.062234e-09 170:0 171:0 172:0.059760798 173:2.5352583e-05 174:4.6846562e-05 175:2.5364798e-05 176:0.9982115 177:0.00014186621 178:9.9055442e-10 179:0 180:0 181:4.155401e-08 182:9.0899377e-09 183:6.4928134e-09 184:1.5582749e-08 185:0.99999517 186:2.5971252e-09 187:1.03885e-08 188:0 189:0 190:1.3477082e-05 191:0.092160918 192:0.032336991 193:0.11504279 194:0.91794997 195:0.29583803 196:0.20965031 197:0 198:0 199:0.0067628087 200:0 201:0 202:0 203:0.21640705 204:0 205:0 206:0 207:0 208:0.003218336 209:1.2961144e-09 210:3.888343e-09 211:2.0737827e-08 212:0.99999005 213:3.888343e-09 214:3.888343e-09 215:0 216:0 217:0.067865551 218:1.5004944e-09 219:2.0006592e-09 220:8.5028002e-09 221:0.99769258 222:1.5004944e-09 223:1.5004944e-09 224:0 
0.6309232730539784 0.2917956349602915 0.5931758384394534 1 0.488722947901274 0.4858076306655889 0.8223207371925844 0.1516932694951725 0.5357260908183674 0.4048396773932729 0.6587874552526882 0.4031916784383605 0.7044274459842815 0.6949132113053567 1 0.5318545048189995 0:0 1:0 2:0 3:0 4:0 5:0 6:0 7:0 8:0 9:0 10:0 11:0 12:0 13:0 14:0 15:0 16:0 17:0 18:0 19:0 20:0 21:0 22:0 23:0 24:0 25:0 26:0 27:0 28:0 29:0 30:0 31:0 32:0 33:0 34:0 35:0 36:0 37:0 38:0 39:0 40:0 41:0 42:0 43:0 44:0 45:0 46:0 47:0 48:0 49:0 50:0 51:0 52:0 53:0 54:0 55:0 56:0 57:0 58:0 59:0 60:0 61:0 62:0 63:0 64:0 65:0 66:0 67:0 68:0 69:0 70:0 71:0 72:0 73:0 74:0 75:0 76:0 77:0 78:0 79:0 80:0 81:0 82:0 83:0 84:0 85:0 86:0 87:0 88:0 89:0 90:0 91:0 92:0 93:0 94:0 95:0 96:0 97:0 98:0 99:0 100:0 101:0 102:0 103:0 104:0 105:0 106:0 107:0 108:0 109:0 110:0 111:0 112:0 113:0 114:0 115:0 116:0 117:0 118:0 119:0 120:0 121:0 122:0 123:0 124:0 125:0 126:0 127:0 128:0 129:0 130:0 131:0 132:0 133:0 134:0 135:0 136:0 137:0 138:0 139:0 140:0 141:0 142:0 143:0 144:0 145:0 146:0 147:0 148:0 149:0 150:0 151:0 152:0 153:0 154:0 155:0 156:0 157:0 158:0 159:0 160:0 161:0 162:0 163:0 164:0 165:0 166:0 167:0 168:0 169:0 170:0 171:0 172:0 173:0 174:0 175:0 176:0 177:0 178:0 179:0 180:0 181:0 182:0 183:0 184:0 185:0 186:0 187:0 188:0 189:0 190:0 191:0 192:0 193:0 194:0 195:0 196:0 197:0 198:0 199:0 200:0 201:0 202:0 203:0 204:0 205:0 206:0 207:0 208:0 209:0 210:0 211:0 212:0 213:0 214:0 215:0 216:0 217:0 218:0 219:0 220:0 221:0 222:0 223:0 224:0 
0.2729628057618305 0.1254552545792111 0.2545872540099426 0.39514049482504 0.2243988755791617 0.2111195533359475 0.35514007649748 0.06610119686960865 0.2286354941108031 0.1756330986077599 0.2844206151058342 0.1750148139920588 0.3033578765930338 0.3197192895412095 0.2113106168111551 0.23713324874331 0:0 1:0.073952302 2:0 3:0 4:0.49624342 5:0.85872036 6:0.085471101 7:0 8:0 9:0 10:0.96698415 11:0.00081380259 12:0.049970973 13:0.10388573 14:0.22600386 15:0.001686512 16:0.023633126 17:0 18:0 19:0.9993065 20:0 21:4.1104817e-05 22:0.00016089302 23:0.037181608 24:2.9065588e-05 25:0.0014276 26:0 27:0 28:0.99999768 29:0 30:0 31:0 32:0 33:0 34:0 35:0 36:0 37:0.99070483 38:0 39:0 40:0 41:0 42:0 43:0 44:0 45:0 46:0.0018710338 47:0 48:0.0013601246 49:0.76080489 50:0.6489501 51:0.00437635 52:0.00093578111 53:0 54:0 55:0.25556904 56:0.00038176504 57:0.0020215425 58:0.66066492 59:0.70527047 60:0.026837235 61:0.0084029185 62:0 63:0 64:0.94096982 65:0.0099042188 66:0.055050485 67:0.18184234 68:0.2772857 69:0.023964828 70:0.030260183 71:0 72:0 73:0.99889416 74:0 75:6.0469203e-05 76:0.00024554436 77:0.046971362 78:0.00010517839 79:0.0016298153 80:0 81:0 82:0.99999768 83:0 84:0 85:0 86:0 87:0 88:0 89:0 90:0 91:0.0025321851 92:0.00039436854 93:0.00088698126 94:0.75177628 95:0.65940529 96:0.0023247402 97:0.00059679948 98:0 99:0 100:0.060916647 101:0 102:0.00046543 103:0.74112451 104:0.66859043 105:0.00075565645 106:0.0025497563 107:0 108:0 109:0.9285087 110:0 111:7.9253361e-05 112:0.26000276 113:0.26508 114:0 115:0.00011861099 116:0 117:0 118:0.99284881 119:0.02061183 120:0.065389223 121:0.051980324 122:0.056087635 123:0.032074094 124:0.051683553 125:0 126:0 127:0.99958521 128:0 129:6.0538237e-05 130:0.0001790173 131:0.028759848 132:8.3894796e-05 133:0.00086750567 134:0 135:0 136:0.4338693 137:0.023137255 138:0.0013253117 139:0.59050006 140:0.67277348 141:0.0845581 142:0.052446797 143:0 144:0 145:0.001576777 146:0 147:0.00023149844 148:0.75625384 149:0.65427059 150:0 151:0.00030866425 152:0 153:0 154:0.99998289 155:0 156:0 157:0 158:0.0003531485 159:0 160:0 161:0 162:0 163:0.99999863 164:0 165:0 166:0 167:0 168:0 169:0 170:0 171:0 172:0.99549043 173:0.012597298 174:0.056888953 175:0.051935513 176:0.038654704 177:0.011837308 178:0.03562174 179:0 180:0 181:0.98968029 182:0.073404811 183:0 184:0.00054122595 185:0.067751966 186:0.10264979 187:0.0015587485 188:0 189:0 190:0 191:0 192:0 193:0 194:0.95393962 195:0 196:0 197:0 198:0 199:0 200:0 201:0 202:0 203:0 204:0 205:0 206:0 207:0 208:0.99998301 209:0 210:0 211:0 212:0 213:0 214:0 215:0 216:0 217:0.99999714 218:0 219:0 220:0 221:0 222:0 223:0 224:0 
0.2379949701634561 0 0.06827271926893295 0.1664059638445317 0.09853998050326826 0.2457513007996976 0.1455469435935869 0.08279582022835448 0.3562308817297686 0.3276055868541269 0.123285340843612 0.1138289009389869 0.0410363504818098 0.1061815880745033 0.07506078216236897 0.05616593884916229 0:0 1:0.0068451837 2:0.086484164 3:0.32285237 4:0.55091769 5:0.60918081 6:0.44656524 7:0.11917053 8:0 9:0 10:0.96099359 11:0.017812453 12:0.048123788 13:0.039636225 14:0.11205944 15:0.2200449 16:0.10633731 17:0 18:0 19:0.99605387 20:0 21:0.00020158327 22:0.022523165 23:0.024332415 24:0.03408701 25:0.074922696 26:0 27:0 28:0.99715269 29:0.0088589303 30:0.0090615628 31:0 32:0.00024242066 33:0.044582427 34:0.059468068 35:0 36:0 37:0.99982518 38:4.2627493e-05 39:0.0082127815 40:0.0022090096 41:0.01471475 42:0.0076818736 43:0.00045908033 44:0 45:0 46:0.89584738 47:0.057645179 48:0.19575207 49:0.33340493 50:0.20085189 51:0.03416894 52:0.056077819 53:0 54:0 55:0.0027243725 56:0.00024552044 57:0.0075756386 58:0.65831226 59:0.73049217 60:0.095192701 61:0.15450889 62:0 63:0 64:0.99999893 65:0 66:0 67:0 68:6.9517228e-05 69:0 70:0 71:0 72:0 73:0.0038094106 74:0.0012606492 75:0.0027903891 76:0.60630578 77:0.78513223 78:0.015963085 79:0.12519994 80:0 81:0 82:0.9987762 83:0.047753748 84:0.0082337251 85:0.00020613099 86:0.004275477 87:0 88:0.0088398922 89:0 90:0 91:0.99413556 92:0.089741498 93:0.046286583 94:0.029308543 95:0.024256643 96:0.0070223687 97:0 98:0 99:0 100:0.88491285 101:0.0046307025 102:0.017798461 103:0.3115899 104:0.33650929 105:0.074380361 106:0.026954114 107:0 108:0 109:0.96495622 110:0.012680986 111:0.025387343 112:0.15691675 113:0.19515352 114:0.025054211 115:0.068678774 116:0 117:0 118:0.99999899 119:0 120:0 121:0 122:0.00010658104 123:0 124:0 125:0 126:0 127:0.98955262 128:0.10251283 129:0.060332183 130:0.067064323 131:0.045629226 132:0.0026008373 133:0.006959782 134:0 135:0 136:0.99965417 137:0.011821736 138:0.0082176141 139:0.004962469 140:0.021403929 141:6.6294771e-05 142:0.00029639015 143:0 144:0 145:0.98325557 146:0.017727375 147:0.080191597 148:0.064938635 149:0.14887017 150:0.0082663074 151:0.0034622769 152:0 153:0 154:0.96241689 155:0.00010739336 156:0.00035199546 157:0.17317766 158:0.20657435 159:0.028499581 160:0.016571142 161:0 162:0 163:0.99977887 164:0.00024862267 165:0.0014946227 166:0.020513723 167:0.0039428924 168:0.00017368977 169:0 170:0 171:0 172:0.97844779 173:0.096943349 174:0.1653512 175:0.050113328 176:0.05684353 177:0.012492753 178:0.00010124493 179:0 180:0 181:0.96740317 182:0 183:0.021199815 184:0.16960639 185:0.18101455 186:0.027950965 187:0.036936272 188:0 189:0 190:0.99987608 191:0 192:4.4309199e-05 193:0.0065520434 194:0.011252592 195:0 196:0.0087620113 197:0 198:0 199:0.9932937 200:0 201:0.0050378446 202:0.0046641435 203:0.029155087 204:0.054572981 205:0.097418673 206:0 207:0 208:0.94301331 209:0.0014117784 210:0.052904598 211:0.052276518 212:0.12022411 213:0.28392529 214:0.10060693 215:0 216:0 217:0.063216455 218:0.22214416 219:0.52294266 220:0.52445287 221:0.5194245 222:0.33724943 223:0.1207952 224:0 
0.5419876283776873 0.3941070315152624 0.7453005532380627 0.6940739441800944 0.4691741431257746 0.5233301060594077 0.7255368278281994 0.2037264410139685 0.6232338241469517 0.4996965280654118 0.5977594073185711 0.4467023692350053 0.5959968595684497 0.616573798242538 0.4918205529870361 0.4928544676545366 0:0 1:0.60556245 2:0.019050047 3:0.11639494 4:0.20271589 5:0.75161994 6:0.041249454 7:0.10784483 8:0 9:0 10:0.98577809 11:0.0084475921 12:0.015888922 13:0.059134312 14:0.15399812 15:0.019361243 16:0.018112963 17:0 18:0 19:0.99999911 20:0 21:0 22:0 23:0.00013434481 24:0 25:0 26:0 27:0 28:0.99999708 29:0 30:0 31:0 32:0 33:0 34:0 35:0 36:0 37:0 38:0 39:0 40:0 41:0 42:0 43:0 44:0 45:0 46:0.6553691 47:0.00592128 48:0.025277844 49:0.5055331 50:0.5591231 51:0.027518375 52:0.029567474 53:0 54:0 55:0.97984594 56:0.012933017 57:0.03183933 58:0.077837005 59:0.17982675 60:0.012764785 61:0.012638884 62:0 63:0 64:0.94806266 65:0.00349456 66:0.019449744 67:0.19867836 68:0.24446808 69:0.033749279 70:0.020191474 71:0 72:0 73:0.99999905 74:0 75:0 76:0 77:9.9551791e-05 78:0 79:0 80:0 81:0 82:0.9999755 83:0 84:0 85:0 86:0 87:0 88:0 89:0 90:0 91:0.99593312 92:0.011892158 93:0.014919502 94:0.057621166 95:0.056073733 96:0.035130717 97:0.0072607165 98:0 99:0 100:0.98386914 101:0 102:0.00083238067 103:0.11620291 104:0.13600095 105:0 106:7.0688184e-06 107:0 108:0 109:0.99507284 110:0.025535483 111:0.033915855 112:0.038352519 113:0.079416335 114:0.0043380745 115:0.015133964 116:0 117:0 118:0.8484481 119:0.0010622366 120:0.063027889 121:0.35556689 122:0.37493372 123:0.095648855 124:0.0013998866 125:0 126:0 127:0.9999755 128:0 129:0 130:0 131:0 132:0 133:0 134:0 135:0 136:0.99999851 137:0 138:0 139:0 140:0 141:0 142:0 143:0 144:0 145:0.99999917 146:0 147:0 148:0 149:0 150:0 151:0 152:0 153:0 154:0.99999869 155:0 156:0 157:0 158:0 159:0 160:0 161:0 162:0 163:0 164:0 165:0 166:0 167:0 168:0 169:0 170:0 171:0 172:0 173:0 174:0 175:0 176:0 177:0 178:0 179:0 180:0 181:0.99999845 182:0 183:0 184:0 185:0 186:0 187:0 188:0 189:0 190:0.99999923 191:0 192:0 193:0 194:0 195:0 196:0 197:0 198:0 199:0.99999863 200:0 201:0 202:0 203:0 204:0 205:0 206:0 207:0 208:0 209:0 210:0 211:0 212:0 213:0 214:0 215:0 216:0 217:0 218:0 219:0 220:0 221:0 222:0 223:0 224:0 
0.7678235533758521 1 1 0.7651543596108427 1 1 0.7354284651203886 0.9137360627076818 1 1 1 1 1 1 1 1 0:0 1:0.98619741 2:0.016436499 3:0.037538141 4:0.075896859 5:0.059765182 6:0.10190023 7:0.077560723 8:0 9:0 10:0.98776191 11:0 12:0.015867904 13:0.0067464095 14:0.093371689 15:0.07790105 16:0.096110478 17:0 18:0 19:0.99366188 20:0 21:0.015833549 22:0.011726685 23:0.044723965 24:0.040301159 25:0.092836104 26:0 27:0 28:0.95728374 29:0.017480856 30:0.048500247 31:0.036591168 32:0.24714081 33:0.087498844 34:0.1042659 35:0 36:0 37:0.99999738 38:0 39:0 40:0 41:0 42:0 43:0 44:0 45:0 46:0.54939163 47:0.097106233 48:0.37364826 49:0.44429356 50:0.43259084 51:0.34131134 52:0.21930076 53:0 54:0 55:0.98208189 56:0.027631523 57:0.02683966 58:0.01884147 59:0.092753753 60:0.13227431 61:0.08701013 62:0 63:0 64:0.98952311 65:0.0053191548 66:0.027037328 67:0.0097468859 68:0.086893827 69:0.081660293 70:0.075931266 71:0 72:0 73:0.99770588 74:0.0020400269 75:0.0078316946 76:0.01636086 77:0.060410086 78:0.0166678 79:0.017868193 80:0 81:0 82:0.92263919 83:0.065098837 84:0.11751565 85:0.066355541 86:0.33706349 87:0.054560285 88:0.098447725 89:0 90:0 91:0.97681355 92:0.023674013 93:0.1362554 94:0.13505895 95:0.089344494 96:0.019616975 97:0.0098146144 98:0 99:0 100:0.55482703 101:0.14148423 102:0.10548747 103:0.47923115 104:0.64252746 105:0.11172821 106:0.077492222 107:0 108:0 109:0.98455697 110:0.073430091 111:0.025203841 112:0.055254489 113:0.13981417 114:0.019101059 115:0.04060493 116:0 117:0 118:0.99595422 119:0.016241079 120:0.051734179 121:0.031904038 122:0.058867279 123:0.012417966 124:0.022187606 125:0 126:0 127:0.99916047 128:0.018498147 129:0.014867291 130:0.025194567 131:0.02037761 132:0.0039520678 133:0.0067743012 134:0 135:0 136:0.99650556 137:0.065047137 138:0.040855709 139:0.020527994 140:0.023848219 141:0.0056200293 142:0.0071716015 143:0 144:0 145:0.99519521 146:0.047735024 147:0.07369253 148:0.024810258 149:0.035215769 150:0.0029222439 151:0.0018191442 152:0 153:0 154:0.98763734 155:0.0027568161 156:0.0014830438 157:0.050005142 158:0.14793201 159:0.00075248664 160:0.013132059 161:0 162:0 163:0.98399019 164:0.078384325 165:0.053627547 166:0.069321722 167:0.12690759 168:0.0045122444 169:0.042495519 170:0 171:0 172:0.99478841 173:0.041935418 174:0.069759116 175:0.015728191 176:0.054269128 177:0.0033734264 178:0.023728123 179:0 180:0 181:0.99949974 182:0.01505715 183:0.019668508 184:0.01209139 185:0.0096997377 186:0.0051769521 187:0.010780542 188:0 189:0 190:0.9996022 191:0.00012799697 192:0.012982494 193:0.00012799697 194:0.019332003 195:0 196:0.015746986 197:0 198:0 199:0.99510044 200:0.046208549 201:0.061698474 202:0.030312588 203:0.03256828 204:0.017766941 205:0.039124466 206:0 207:0 208:0.99311864 209:0.037527669 210:0.031286445 211:0.079759054 212:0.068715863 213:0.004272555 214:0.014780289 215:0 216:0 217:0.93354905 218:0.15434743 219:0.2847212 220:0.070903055 221:0.12436378 222:0.043475974 223:0.034728013 224:0 
0.3386864740863181 0.152914376979862 0.2968203154051376 0.5010703306011929 0.2734544432358705 0.2415342126370735 0.4529114560738911 0.07901846014811163 0.2790472732579954 0.190242633347544 0.34348734013315 0.2013498758924478 0.3789980578610465 0.3682468146650819 0.2718400319892008 0.290960020615325 0:0 1:0.0014003386 2:0.0013224906 3:0.0014135086 4:0.99572283 5:0.092088602 6:0.0060477154 7:0.00044165301 8:0 9:0 10:0.67466855 11:0.0049931696 12:0.0047623324 13:0.64699209 14:0.35177299 15:0.032071445 16:0.037407905 17:0 18:0 19:0.92917347 20:0.031907924 21:0.0088591594 22:0.31249586 23:0.18670176 24:0.04498193 25:0.031680029 26:0 27:0 28:0.99999917 29:0 30:0 31:0 32:0 33:0 34:0 35:0 36:0 37:0.9999938 38:0 39:0 40:0 41:0 42:0 43:0 44:0 45:0 46:0.0085475128 47:0.0015200009 48:0.014041917 49:0.92847973 50:0.37098005 51:0.0040068598 52:0.0025746929 53:0 54:0 55:0.84673417 56:0.0090174321 57:0.001159756 58:0.50677514 59:0.16109417 60:0.010363934 61:0.0087825703 62:0 63:0 64:0.9469226 65:0.01103237 66:0.0060212296 67:0.28396723 68:0.14941955 69:0.00051431434 70:0.014630958 71:0 72:0 73:0.25706723 74:0.046138681 75:0.018659331 76:0.85378557 77:0.44845754 78:0.027737603 79:0.024548076 80:0 81:0 82:0.99999911 83:0 84:0 85:0 86:0 87:0 88:0 89:0 90:0 91:0.77564549 92:0.039070379 93:0.010470862 94:0.56360728 95:0.27925763 96:0.025736229 97:0.020817246 98:0 99:0 100:0.9736442 101:0.00055527396 102:6.8676585e-05 103:0.20184483 104:0.10617738 105:0.000331124 106:0.00033708182 107:0 108:0 109:0.99999928 110:9.1483467e-05 111:2.8184761e-05 112:0 113:3.6825146e-05 114:0 115:0 116:0 117:0 118:0.99963099 119:0 120:0.00059289287 121:0.025473153 122:0.0064955698 123:0.0046912874 124:0.0047452301 125:0 126:0 127:0.068358615 128:0.0995197 129:0.030481171 130:0.91209769 131:0.38607892 132:0.012126377 133:0.057985418 134:0 135:0 136:0.99999607 137:0 138:0 139:0 140:0 141:0 142:0 143:0 144:0 145:0.99999923 146:5.1450847e-05 147:0 148:0 149:3.2152493e-05 150:4.498045e-05 151:0 152:0 153:0 154:0.99999923 155:0 156:0 157:0 158:0 159:0 160:0 161:0 162:0 163:0.99972987 164:0 165:0.022847846 166:0 167:0.00297214 168:0 169:0 170:0 171:0 172:0.99999601 173:0 174:0 175:0 176:0 177:0 178:0 179:0 180:0 181:0 182:0 183:0 184:0 185:0 186:0 187:0 188:0 189:0 190:0.99999911 191:0 192:0 193:0 194:0 195:0 196:0 197:0 198:0 199:0.99999881 200:0 201:0 202:0 203:0 204:0 205:0 206:0 207:0 208:0.99999177 209:0 210:0 211:0 212:0 213:0 214:0 215:0 216:0 217:0 218:0 219:0 220:0 221:0 222:0 223:0 224:0 
0.4846431598985542 0.223434891794427 0.4544319749096522 0.7049920289193032 0.3815179952921988 0.377028319851709 0.630600641310457 0.1155510181429879 0.4017562109497175 0.3093906004063355 0.5037538122600709 0.307951558218357 0.5393993297432427 0.5314999259947197 0.3761244503483169 0.4082288602310043 0:0 1:0.041679148 2:0 3:0.19113129 4:0 5:0.97862703 6:0 7:0 8:0 9:0 10:0.011703414 11:0.0029707553 12:0.0037098129 13:0.61934102 14:0.73923844 15:0.12451571 16:0.23292235 17:0 18:0 19:0.94524181 20:3.1115884e-05 21:2.3815142e-05 22:0.26437065 23:0.18953954 24:0.024480242 25:0.0099285869 26:0 27:0 28:0.99999839 29:0 30:0 31:0 32:0 33:0 34:0 35:0 36:0 37:0.99998212 38:0 39:0 40:0 41:0 42:0 43:0 44:0 45:0 46:0.004713166 47:0.0036395094 48:0.0051531992 49:0.66808951 50:0.74402034 51:0.0023572135 52:0.0012332932 53:0 54:0 55:0.0020066488 56:0.0012385778 57:0.0020281957 58:0.71679509 59:0.69536787 60:0.023570638 61:0.045802541 62:0 63:0 64:0.93234235 65:0.0041528186 66:0.003272603 67:0.17156124 68:0.31639531 69:0.017680051 70:0.029247185 71:0 72:0 73:0.80397451 74:2.8617469e-05 75:0 76:0.40367389 77:0.43643674 78:0.010452081 79:0.0091313813 80:0 81:0 82:0.99999845 83:0 84:0 85:0 86:0 87:0 88:0 89:0 90:0 91:0.59714043 92:0.025705663 93:0.0015085267 94:0.50547272 95:0.61807585 96:0.04263996 97:0.058453992 98:0 99:0 100:0.0018787711 101:0.00033777632 102:0.0020329473 103:0.73278636 104:0.68020004 105:0.018404504 106:0.0014183524 107:0 108:0 109:0.81379163 110:0 111:0.00056628243 112:0.44102111 113:0.37846884 114:0.00027154139 115:0.00021391155 116:0 117:0 118:0.99999911 119:1.6667929e-05 120:1.6667929e-05 121:6.6671717e-05 122:0.00033098785 123:3.3335858e-05 124:0 125:0 126:0 127:0.87695444 128:0.074565955 129:0.01373618 130:0.28944221 131:0.37606183 132:0 133:2.2771905e-05 134:0 135:0 136:0.99919844 137:0.0046423948 138:0 139:0.016161216 140:0.035477374 141:0 142:0.0075896205 143:0 144:0 145:0.0016381568 146:0 147:0 148:0.77661109 149:0.62850541 150:0.042894177 151:0.0023635707 152:0 153:0 154:0.46796989 155:0 156:0 157:0 158:0.87384421 159:0 160:0 161:0 162:0 163:0.99999732 164:0 165:0 166:0 167:0 168:0 169:0 170:0 171:0 172:0.99999869 173:0 174:2.6948162e-05 175:8.0844489e-05 176:0.00025640274 177:2.6948162e-05 178:0 179:0 180:0 181:0 182:0 183:0 184:0 185:0 186:0 187:0 188:0 189:0 190:0 191:0 192:0 193:0 194:0 195:0 196:0 197:0 198:0 199:0 200:0 201:0 202:0 203:0 204:0 205:0 206:0 207:0 208:0 209:0 210:0 211:0 212:0 213:0 214:0 215:0 216:0 217:0 218:0 219:0 220:0 221:0 222:0 223:0 224:0 
0.9378017945979704 0 0.398397032412016 0 0.09630515103826311 1 0.320175333456062 0.3930671321532823 0.730298236232136 0.9191353638753141 1 0.4070802480628387 0.4871573717383031 0.5616445410463603 0.1237132316501437 0 0:0 1:0.027240738 2:0.060055491 3:0.11571682 4:0.578834 5:0.70729136 6:0.34463048 7:0.16784912 8:0 9:0 10:0.89397979 11:0.018966554 12:0.052251384 13:0.046556942 14:0.33453548 15:0.10951517 16:0.26764175 17:0 18:0 19:0.99351126 20:0 21:0.0054616574 22:0.0046261228 23:0.025476657 24:0.047101703 25:0.10007169 26:0 27:0 28:0.93221921 29:0.01746244 30:0.075047463 31:0.039180961 32:0.2239857 33:0.15318203 34:0.22328666 35:0 36:0 37:0.99999911 38:0 39:0 40:0 41:1.8326115e-05 42:0 43:0 44:0 45:0 46:0.74245977 47:0.14890644 48:0.2989518 49:0.33017728 50:0.34807795 51:0.28114161 52:0.16729459 53:0 54:0 55:0.4702175 56:0.038216162 57:0.14315405 58:0.45921546 59:0.62494719 60:0.36009955 61:0.16070713 62:0 63:0 64:0.991799 65:2.1475602e-05 66:0.023100086 67:0.035674877 68:0.045542751 69:0.037845973 70:0.1049753 71:0 72:0 73:0.96942234 74:0.00019361358 75:0.0071550179 76:0.15743487 77:0.17801809 78:0.060583919 79:0.004522562 80:0 81:0 82:0.94530648 83:0.13108835 84:0.23745932 85:0.092074491 86:0.12495386 87:0.02866591 88:0.088927209 89:0 90:0 91:0.97484285 92:0.14656176 93:0.14274263 94:0.043358341 95:0.071433313 96:0.01609204 97:0.024122803 98:0 99:0 100:0.46474147 101:0.040594935 102:0.1818361 103:0.76193362 104:0.37904295 105:0.14142524 106:0.071277536 107:0 108:0 109:0.91096842 110:0.038698129 111:0.13048406 112:0.24149701 113:0.26883042 114:0.11586886 115:0.08714164 116:0 117:0 118:0.9996711 119:0.015718916 120:0.005982487 121:0.015182705 122:0.0080460366 123:0.004180871 124:0.0077778706 125:0 126:0 127:0.98882687 128:0.11722513 129:0.059135854 130:0.030054066 131:0.062097844 132:0.014320975 133:0.0040347199 134:0 135:0 136:0.98725992 137:0.11209144 138:0.088963352 139:0.019386206 140:0.057417501 141:0.023702381 142:0.024545696 143:0 144:0 145:0.92343497 146:0.057400547 147:0.15754026 148:0.28193128 149:0.16430181 150:0.055623922 151:0.09785641 152:0 153:0 154:0.91835266 155:0.0019204471 156:0.019106038 157:0.3573316 158:0.15748945 159:0.059344027 160:0.015702838 161:0 162:0 163:0.87291664 164:0.089130923 165:0.15243192 166:0.17956683 167:0.34995362 168:0.1941988 169:0.1200228 170:0 171:0 172:0.97776628 173:0.12581491 174:0.099522881 175:0.078869455 176:0.10004283 177:0.043273464 178:0.011623274 179:0 180:0 181:0.96723187 182:0.011999441 183:0.084347561 184:0.04713916 185:0.20667613 186:0.019573187 187:0.1089986 188:0 189:0 190:0.99699789 191:0.013694287 192:0.024484755 193:0.004836373 194:0.03839533 195:0.024131354 196:0.05591435 197:0 198:0 199:0.98606813 200:0.016706852 201:0.071569547 202:0.0052304985 203:0.04862278 204:0.091586426 205:0.10716927 206:0 207:0 208:0.76674759 209:0.089130431 210:0.054765638 211:0.092848063 212:0.47219589 213:0.38033983 214:0.15780459 215:0 216:0 217:0.34478179 218:0.24596162 219:0.35931697 220:0.6221509 221:0.5242849 222:0.11561523 223:0.12728162 224:0 
0.2735772538822264 0.1273650403068017 0.258244536171614 0.4446011371616575 0.2453484751595962 0.2083927629784402 0.3582385584350077 0.06605482756644238 0.2285668094990755 0.1765434874605416 0.2865131830355858 0.1748966758756572 0.3066449356440306 0.2988314110298079 0.2140991552332329 0.2306404257390221 0:0 1:0.090666108 2:0.067995027 3:0.18662597 4:0.2536414 5:0.93518966 6:0.10248029 7:0.043786358 8:0 9:0 10:0.10285956 11:0.00011324263 12:0.010087847 13:0.60309279 14:0.77767396 15:0.034638807 16:0.14002271 17:0 18:0 19:0.96521884 20:0 21:0.013667408 22:0.008404064 23:0.25909784 24:0.0081100594 25:0.029921219 26:0 27:0 28:0.99999875 29:0 30:0 31:0 32:0 33:0 34:0 35:0 36:0 37:0.99999356 38:0 39:0 40:0 41:0 42:0 43:0 44:0 45:0 46:0.0043537295 47:0.0018520578 48:0.011268754 49:0.82544482 50:0.56420243 51:0.011262776 52:0.0054071005 53:0 54:0 55:0.0035222271 56:0.00030888573 57:0.0033960384 58:0.7464422 59:0.66530472 60:0.006061838 61:0.011330897 62:0 63:0 64:0.92730683 65:0 66:0.02164102 67:0.18570802 68:0.32392439 69:0.0032446797 70:0.014352361 71:0 72:0 73:0.86786997 74:0 75:0.028993415 76:0.016273595 77:0.49409491 78:0.001099247 79:0.039536782 80:0 81:0 82:0.99999875 83:0 84:0 85:0 86:0 87:0 88:0 89:0 90:0 91:0.12912621 92:0.0013877716 93:0.01100381 94:0.70086265 95:0.69972414 96:0.045238134 97:0.01818233 98:0 99:0 100:0.0024669343 101:0.00044662695 102:0.0029632971 103:0.7050215 104:0.70915914 105:0.0042009531 106:0.001074829 107:0 108:0 109:0.87343735 110:0 111:0.00019579694 112:0.31164601 113:0.37413663 114:0.00014150202 115:0.00039897821 116:0 117:0 118:0.99999911 119:0 120:0 121:0 122:0 123:0 124:0 125:0 126:0 127:0.89391321 128:0.0075219646 129:0.033975076 130:0.098590471 131:0.43488434 132:0.0038879593 133:0.029094838 134:0 135:0 136:0.67579418 137:0.038194273 138:0.014106262 139:0.4898493 140:0.53675681 141:0.11342002 142:0.026707647 143:0 144:0 145:0.0015309124 146:0 147:0 148:0.62919551 149:0.77723765 150:0 151:0.0010659994 152:0 153:0 154:0 155:0 156:0 157:0 158:0 159:0 160:0 161:0 162:0 163:0.99999684 164:0 165:0 166:0 167:0 168:0 169:0 170:0 171:0 172:0.99999899 173:0 174:0 175:0 176:0 177:0 178:0 179:0 180:0 181:0.99998736 182:0 183:0 184:0 185:0 186:0 187:0 188:0 189:0 190:0 191:0 192:0 193:0 194:0 195:0 196:0 197:0 198:0 199:0 200:0 201:0 202:0 203:0 204:0 205:0 206:0 207:0 208:0.97642696 209:0 210:0 211:0 212:0 213:0 214:0 215:0 216:0 217:0.99998671 218:0 219:0 220:0 221:0 222:0 223:0 224:0 
0 0 0 0 0 0 0 0.005970162452332126 0 0 0 0 0 0 0 0 0:0 1:0.04767267 2:0.055695832 3:0.38097247 4:0.66445321 5:0.53050703 6:0.30359828 7:0.18539362 8:0 9:0 10:0.98053634 11:0.0095546925 12:0.052854892 13:0.053911768 14:0.12560382 15:0.09558408 16:0.088554509 17:0 18:0 19:0.99776947 20:0 21:0 22:0.012718299 23:0.0094015561 24:0.010880834 25:0.063917987 26:0 27:0 28:0.99636513 29:0.0033085451 30:0.01141071 31:0.01532945 32:0.012922465 33:0.027535632 34:0.077157661 35:0 36:0 37:0.99999917 38:0 39:7.3320982e-05 40:0 41:0.00022865579 42:5.5058183e-05 43:9.0524227e-05 44:0 45:0 46:0.91450483 47:0.024165686 48:0.17449439 49:0.32627162 50:0.15473659 51:0.038713552 52:0.027383601 53:0 54:0 55:0.12313013 56:0 57:0.0013654418 58:0.6558041 59:0.73286617 60:0.13208905 61:0.0144749 62:0 63:0 64:0.99999869 65:0 66:0 67:0 68:0 69:0 70:0 71:0 72:0 73:0.063537531 74:0.087766178 75:0.098998055 76:0.66857648 77:0.71497184 78:0.13848199 79:0.033125997 80:0 81:0 82:0.99787563 83:0.048365548 84:0.035985164 85:0.011131858 86:0.020521145 87:0.0079467241 88:0.00040127017 89:0 90:0 91:0.9905901 92:0.11682963 93:0.055161182 94:0.016184278 95:0.040446632 96:0.00021238839 97:0.011801563 98:0 99:0 100:0.92119539 101:0 102:0.020666007 103:0.27056873 104:0.26288199 105:0.016398909 106:0.091560349 107:0 108:0 109:0.98446184 110:0.013841119 111:0.031434439 112:0.12934135 113:0.11051404 114:0.025740653 115:0.0069159535 116:0 117:0 118:0.99999863 119:0 120:0 121:0 122:0 123:0 124:0 125:0 126:0 127:0.99594074 128:0.068827413 129:0.054951884 130:0 131:0.018525517 132:7.1649236e-05 133:0 134:0 135:0 136:0.99958152 137:0.028824054 138:0.0014833109 139:0.00020419387 140:0.00025152127 141:0.00023663108 142:0.0013937899 143:0 144:0 145:0.99952292 146:9.495228e-05 147:0 148:0.0087086326 149:0.025714003 150:0 151:0.014568282 152:0 153:0 154:0.96521223 155:0 156:0.00036894405 157:0.16266316 158:0.19837329 159:0.012402109 160:0.048950583 161:0 162:0 163:0.98351991 164:0.0032691401 165:0.032573048 166:0.17068925 167:0.049762636 168:0.0006880404 169:0.00053561263 170:0 171:0 172:0.98425674 173:0.092728272 174:0.12359099 175:0.015173698 176:0.082418807 177:0.016753597 178:0.0076912222 179:0 180:0 181:0.80432129 182:0.010312488 183:0.18508714 184:0.40821663 185:0.37064084 186:0.10731317 187:0.056275215 188:0 189:0 190:0.99983007 191:0 192:0 193:0 194:0 195:0 196:0.018387547 197:0 198:0 199:0.99624956 200:0.00017127344 201:0.017768312 202:0.0016711643 203:0.02479833 204:0.072779723 205:0.035413641 206:0 207:0 208:0.90092403 209:0.050069112 210:0.020546813 211:0.065234467 212:0.20805328 213:0.31945363 214:0.18923619 215:0 216:0 217:0.14781432 218:0.28272024 219:0.43105248 220:0.65998447 221:0.49739382 222:0.14576951 223:0.090432435 224:0 
0.5688939505619125 0.2469160070282982 0.512732273485178 0.8311073543562887 0.6196925747028933 0.4077417931399951 0.6999729301786533 0.1234647624918984 0.4415910539528228 0.3402212301450879 0.5615340792090178 0.3473592048767333 0.6208373048077731 0.6165925823938557 0.420143225602547 0.4621004712799357 0:0 1:0.047140915 2:0.039945379 3:0.1538678 4:0.63965678 5:0.73599231 6:0.129976 7:0.060692042 8:0 9:0 10:0.6736275 11:0.048304342 12:0.034752794 13:0.50931406 14:0.47516 15:0.13829453 16:0.19564584 17:0 18:0 19:0.99684459 20:0.0013301646 21:0.060629267 22:0.00078770326 23:0.045329321 24:0.0072929794 25:0.022507561 26:0 27:0 28:0.99999833 29:0 30:0 31:0 32:0 33:0 34:0 35:0 36:0 37:0.99999398 38:0 39:0 40:0 41:0 42:0 43:0 44:0 45:0 46:0.117758 47:0.066042855 48:0.26638958 49:0.55521709 50:0.76031893 51:0.10054979 52:0.11821659 53:0 54:0 55:0.0019164946 56:0.0097565958 57:0.018550398 58:0.89517254 59:0.42909414 60:0.11761534 61:0.015244958 62:0 63:0 64:0.00042489867 65:0.037418231 66:0.013101109 67:0.72795707 68:0.68431401 69:0.0087808399 70:0.010135558 71:0 72:0 73:0.99998766 74:8.3386292e-10 75:0 76:6.7542942e-08 77:9.0057263e-08 78:3.3354517e-09 79:3.3354517e-09 80:0 81:0 82:0.99999833 83:0 84:0 85:0 86:0 87:0 88:0 89:0 90:0 91:0.52956599 92:0.053152882 93:0.04959609 94:0.52489644 95:0.65876138 96:0.013912065 97:0.067711495 98:0 99:0 100:0.00048265822 101:0.00070663373 102:0.021068137 103:0.72910827 104:0.68384475 105:0.01747464 106:0.0013797524 107:0 108:0 109:0.19600825 110:0.083657064 111:0.1701524 112:0.38141522 113:0.87466735 114:0.12287253 115:4.1076137e-10 116:0 117:0 118:0.99998224 119:0.00082357327 120:0.00054151652 121:0.0036885347 122:0.0036173691 123:0.00082893355 124:2.4017932e-10 125:0 126:0 127:0.92778027 128:0.097859912 129:0.16369142 130:0.29610881 131:0.12313458 132:6.6109379e-10 133:9.9164066e-10 134:0 135:0 136:0.96304148 137:0.004315373 138:0.042950567 139:0.089618936 140:0.23905805 141:0.068308331 142:0.028888745 143:0 144:0 145:0.27193096 146:0 147:0.0028092831 148:0.66175497 149:0.69634521 150:0.05292213 151:0.020573672 152:0 153:0 154:0.8435365 155:1.7990218e-05 156:0.00024259984 157:0.36729002 158:0.39184177 159:0 160:4.3431297e-05 161:0 162:0 163:0.81291175 164:0.07665161 165:0.13874714 166:0.050122861 167:0.5486145 168:0.102716 169:0.00019930513 170:0 171:0 172:0.66053396 173:0.018519545 174:0.0014046482 175:0.43113041 176:0.60832906 177:0.045574177 178:0.073000126 179:0 180:0 181:0.99999779 182:0 183:0 184:0 185:0 186:0 187:0 188:0 189:0 190:0.87291056 191:0 192:0.0014222955 193:0.22685874 194:0.38681176 195:0.17737813 196:0.073866308 197:0 198:0 199:0.9995364 200:0 201:0 202:0 203:0.014716477 204:0 205:0 206:0 207:0 208:0.99999738 209:0 210:0 211:0 212:0 213:0 214:0 215:0 216:0 217:0.98437262 218:0.026559122 219:0.036255121 220:0.00030052545 221:0.16208662 222:0.052065756 223:0.00020636289 224:0 
0.5700605956206742 0.2924913325334784 0.8487747505208101 0.2545308664320849 1 0.6832381127444688 0.3461685572527081 0.142504176748972 0.3205915949182963 0.3200473786104251 0.786010743817333 0.7166658669412738 0.7735994271548682 0.4316734599741797 0.5495743504313869 0.4422946666160099 0:0 1:0.86897403 2:0.19786896 3:0.21608613 4:0.15886968 5:0.14389414 6:0.27250931 7:0.1970228 8:0 9:0 10:0.98847467 11:0.018467721 12:0.0011611073 13:0.013039844 14:0.04066585 15:0.042523008 16:0.13762245 17:0 18:0 19:0.98174918 20:0.013678214 21:0.00017515595 22:0.063176565 23:0.090964265 24:0.094366685 25:0.12168202 26:0 27:0 28:0.99607444 29:0 30:0.0080326824 31:0.014642478 32:0.050400082 33:0.027464869 34:0.065265402 35:0 36:0 37:0.99999851 38:0 39:0 40:0 41:0 42:0 43:0 44:0 45:0 46:0.38429442 47:0.072104223 48:0.32685408 49:0.51272398 50:0.65786225 51:0.18014164 52:0.11025816 53:0 54:0 55:0.32086807 56:0.020658664 57:0.029696062 58:0.65843278 59:0.67570674 60:0.012716126 61:0.073859498 62:0 63:0 64:0.9747681 65:0.070154518 66:0.070425473 67:0.048476409 68:0.16184509 69:0.027714171 70:0.10310452 71:0 72:0 73:0.96027637 74:0.016179133 75:0.034002546 76:0.17376323 77:0.19810435 78:0.063006908 79:0.055113409 80:0 81:0 82:0.99804604 83:0.048653804 84:0.034124605 85:0.013043007 86:0.013918259 87:0.00049631362 88:0.0024229027 89:0 90:0 91:0.99883133 92:0.029513419 93:0.013455327 94:0.024630079 95:0.01996173 96:0.016606506 97:0.00097614876 98:0 99:0 100:0.93910497 101:0.0024197975 102:0.074441232 103:0.23475142 104:0.23331144 105:0.054452755 106:0.0048761363 107:0 108:0 109:0.84800357 110:0.065401047 111:0.046165798 112:0.33473605 113:0.39646527 114:0.042059056 115:0.058966443 116:0 117:0 118:0.95860046 119:0.061372411 120:0.15462701 121:0.033347238 122:0.22132781 123:0.024048433 124:0.052246869 125:0 126:0 127:0.98710048 128:0.018991143 129:0.088560194 130:0.057953309 131:0.11818689 132:0.00037907119 133:0.0099344542 134:0 135:0 136:0.98519015 137:0.022461321 138:0.064003125 139:0.096660726 140:0.11460851 141:0.047706846 142:0.0064248103 143:0 144:0 145:0.99999911 146:0 147:4.8298927e-05 148:0 149:0.00025614534 150:0 151:3.1896721e-05 152:0 153:0 154:0.99996108 155:0.00048408183 156:0.0003748984 157:0.00019237355 158:0.0082233809 159:0.0013150797 160:0.0025869312 161:0 162:0 163:0.97166491 164:0.040208343 165:0.066196673 166:0.13523735 167:0.17711288 168:0.014023888 169:0.0031382125 170:0 171:0 172:0.98616594 173:0.066851027 174:0.14161906 175:0.0025627369 176:0.053636994 177:0.0070537576 178:0.0038838906 179:0 180:0 181:0.99847537 182:0.013510127 183:0.042422421 184:0.017431263 185:0.027121397 186:0.0047431258 187:0.00016849778 188:0 189:0 190:0.99276334 191:0.0033884118 192:0.042705845 193:0 194:0.090792693 195:0.060921971 196:0.025040481 197:0 198:0 199:0.99612874 200:0.014926872 201:0.056078028 202:0.032149799 203:0.023166751 204:0.036148872 205:0.038454954 206:0 207:0 208:0.94019967 209:0.00083747756 210:0.031108744 211:0.17212869 212:0.27284676 213:0.1047598 214:0.0019123184 215:0 216:0 217:0.76595378 218:0.071297646 219:0.39705476 220:0.47428182 221:0.13888645 222:0.077102408 223:0.019873982 224:0 
0.1923435175686127 0.05780334054749264 0.1960152582897784 0.3832981709052092 0.4738611592543269 0.1865975729523551 0.3098849873956457 0 0.1075209524347001 0 0.1448952722493266 0.1060874482781472 0.2572540993767843 0.2439231953037176 0.157640633507152 0.2453048036851894 0:0 1:0.33526275 2:0.069546841 3:0.13106169 4:0.45289978 5:0.64403099 6:0.4401229 7:0.22798261 8:0 9:0 10:0.94779652 11:0.022882165 12:0.052422971 13:0.058368035 14:0.15739363 15:0.20513399 16:0.167772 17:0 18:0 19:0.9980194 20:0.008208273 21:0.0098539591 22:0.011737718 23:0.019726463 24:0.031657524 25:0.047554635 26:0 27:0 28:0.98627055 29:0.0015612512 30:0.052755091 31:0.029727418 32:0.081258893 33:0.082577772 34:0.10087664 35:0 36:0 37:0.99977207 38:5.73652e-05 39:0.0046094586 40:0.00022610663 41:0.020529386 42:0.002867559 43:0.0018173782 44:0 45:0 46:0.38863608 47:0.16255306 48:0.39067569 49:0.5919534 50:0.41115224 51:0.3297509 52:0.20424291 53:0 54:0 55:0.26690465 56:0.0028425502 57:0.087628849 58:0.46509588 59:0.73480701 60:0.39533043 61:0.092330001 62:0 63:0 64:0.99691838 65:0.00010539679 66:0.00016623964 67:0.011347865 68:0.0053080372 69:0.065572217 70:0.041159391 71:0 72:0 73:0.88615453 74:0.07148844 75:0.20514423 76:0.11749285 77:0.32466054 78:0.17929962 79:0.12717201 80:0 81:0 82:0.98231345 83:0.14803927 84:0.068872117 85:0.06086063 86:0.066024058 87:0.011503019 88:0.01424924 89:0 90:0 91:0.93470633 92:0.082081079 93:0.25662315 94:0.2111032 95:0.08027751 96:0.040266745 97:0.033126704 98:0 99:0 100:0.010382468 101:0.0042312904 102:0.0057559963 103:0.81345999 104:0.57888806 105:0.052866392 106:0.014551528 107:0 108:0 109:0.96579587 110:0.032766569 111:0.029980401 112:0.10874429 113:0.22386943 114:0.043972865 115:0.037234969 116:0 117:0 118:0.99999923 119:0 120:0 121:0 122:0 123:0 124:0 125:0 126:0 127:0.94216472 128:0.10006712 129:0.17207091 130:0.21721932 131:0.15538381 132:0.028175231 133:0.024061522 134:0 135:0 136:0.99514735 137:0.045705624 138:0.045103103 139:0.044796776 140:0.049118124 141:0.019052858 142:0.027823038 143:0 144:0 145:0.92665696 146:0.035527069 147:0.043919023 148:0.30294472 149:0.19817434 150:0.072688825 151:0.042187631 152:0 153:0 154:0.89297253 155:0.0024328427 156:0.025117727 157:0.35799178 158:0.27081439 159:0.021474503 160:0.0010072584 161:0 162:0 163:0.99134743 164:0.046523456 165:0.013712493 166:0.037650913 167:0.046557471 168:0.0280855 169:0.10245895 170:0 171:0 172:0.98993784 173:0.094096653 174:0.095079973 175:0.025882939 176:0.032456554 177:0.006057824 178:0.019146414 179:0 180:0 181:0.97441053 182:0.11470985 183:0.097304322 184:0.060074333 185:0.10428653 186:0.076738201 187:0.08673244 188:0 189:0 190:0.99761474 191:0.027154388 192:0.020425834 193:0.036604248 194:0.043122694 195:0.0011026021 196:0.020169286 197:0 198:0 199:0.74483782 200:0.12293293 201:0.0029130296 202:0.62823236 203:0.16177157 204:0.09589725 205:0.004906869 206:0 207:0 208:0.94679099 209:0.017963724 210:0.090394631 211:0.010359805 212:0.30637461 213:0.01073561 214:0.031607784 215:0 216:0 217:0.50964868 218:0.2107625 219:0.27766946 220:0.62945068 221:0.35927415 222:0.18638842 223:0.24229217 224:0 
1 0 0.2319385939695901 0.05707023959867791 0 0.3487766223225395 0.06018524857480571 0.122946637784961 0.2160047185766055 0.6418176675839193 0.3569229181983293 0.05850927079359232 0.1747848805342281 0.1559312039380862 0 0 0:0 1:0.22048727 2:0.091933191 3:0.23574445 4:0.54139704 5:0.67896742 6:0.33181635 7:0.15212522 8:0 9:0 10:0.97266293 11:0.039878238 12:0.046618912 13:0.043271691 14:0.12237664 15:0.13159896 16:0.12646852 17:0 18:0 19:0.97804177 20:0.00014942321 21:0.042133685 22:0.10298008 23:0.10676909 24:0.081640221 25:0.11395861 26:0 27:0 28:0.98115641 29:0.011484839 30:0.012406489 31:0.063580327 32:0.038632132 33:0.12409884 34:0.12691802 35:0 36:0 37:0.99999917 38:0 39:0 40:0 41:1.7673541e-05 42:0 43:0 44:0 45:0 46:0.6648972 47:0.16013351 48:0.30073917 49:0.42512399 50:0.34182897 51:0.34217098 52:0.16481006 53:0 54:0 55:0.35242942 56:0.045813549 57:0.14730428 58:0.57365912 59:0.68170404 60:0.22456744 61:0.088067681 62:0 63:0 64:0.93700391 65:0.06684988 66:0.075174659 67:0.19831531 68:0.22918931 69:0.064116061 70:0.12622888 71:0 72:0 73:0.44582883 74:0.072413623 75:0.15477741 76:0.51006055 77:0.68054014 78:0.21266423 79:0.059249468 80:0 81:0 82:0.97060448 83:0.13941519 84:0.17129526 85:0.070741087 86:0.054647528 87:0.030232467 88:0.015517512 89:0 90:0 91:0.98068261 92:0.1165604 93:0.13385555 94:0.040444911 95:0.051717058 96:0.025337597 97:0.042468093 98:0 99:0 100:0.99840379 101:7.3605726e-05 102:0.025881603 103:0.0097404188 104:0.034992404 105:0.00010645383 106:0.034628879 107:0 108:0 109:0.94253409 110:0.027800446 111:0.05412697 112:0.25941244 113:0.18898252 114:0.036123309 115:0.06008717 116:0 117:0 118:0.89548433 119:0.11573079 120:0.087077349 121:0.31262201 122:0.26415873 123:0.078199029 124:0.05916347 125:0 126:0 127:0.9987914 128:0.039129492 129:0.0057977289 130:0.0143811 131:0.024046507 132:0.0079605756 133:0.00094904954 134:0 135:0 136:0.99969327 137:0.022599539 138:0.010051996 139:0.00020915575 140:0.00028508159 141:0 142:0.00012677707 143:0 144:0 145:0.98816156 146:0.00020569006 147:0.056993917 148:0.068122245 149:0.12329553 150:0.010425364 151:0.018297954 152:0 153:0 154:0.99982774 155:0 156:0 157:0.00055955915 158:0.0077966149 159:3.9224713e-05 160:0.016787777 161:0 162:0 163:0.99133766 164:0.0019316667 165:0.0028771518 166:0.11630685 167:0.04559283 168:0.040140085 169:0.0039904476 170:0 171:0 172:0.98272783 173:0.1206849 174:0.12036759 175:0.058932215 176:0.018711021 177:0.035480332 178:0.010422796 179:0 180:0 181:0.51252979 182:0.04842085 183:0.31293106 184:0.41761664 185:0.61590248 186:0.26534599 187:0.11353073 188:0 189:0 190:0.99819195 191:0.00022413791 192:0.021112058 193:0.0080601191 194:0.0090628611 195:0.01402937 196:0.053114239 197:0 198:0 199:0.99431407 200:0.00069543894 201:0.044929396 202:0.011029043 203:0.069853157 204:0.028495848 205:0.059206545 206:0 207:0 208:0.90970784 209:0.019931266 210:0.07280691 211:0.10814477 212:0.35656163 213:0.15773346 214:0.054947164 215:0 216:0 217:0.46152303 218:0.15568501 219:0.43910289 220:0.63103259 221:0.39587712 222:0.11772871 223:0.034077577 224:0 
0.05381428406801086 0 0.05620882756888894 0.01426976636628751 0.01248290454582771 0.0677689366498387 0.02306933106045302 0.01910551086974563 0.04160828627968281 0.0631610564303297 0.03457652179651977 0.01032728225479445 0.02519905173942123 0.07216855890991029 0.02136487270205403 0.00336514800671794 0:0 1:0.0074042813 2:0.024150683 3:0.030962249 4:0.3282668 5:0.94270939 6:0.036782168 7:0.021558259 8:0 9:0 10:0.88897157 11:0.072015971 12:0.16836281 13:0.098060876 14:0.36900207 15:0.10825863 16:0.13671376 17:0 18:0 19:0.95458376 20:0.00012998571 21:0.007461532 22:0.17087197 23:0.23873025 24:0.047324583 25:0.016830474 26:0 27:0 28:0.99999875 29:0 30:0 31:0 32:0 33:0 34:0 35:0 36:0 37:0.99998343 38:0 39:0 40:0 41:0 42:0 43:0 44:0 45:0 46:0.0017088921 47:0.0046706577 48:0.0093149459 49:0.72902465 50:0.68434024 51:0.0087034348 52:0.0028458026 53:0 54:0 55:0.86051816 56:0.024160121 57:0.0099715581 58:0.2879532 59:0.41645545 60:0.022564929 61:0.044287302 62:0 63:0 64:0.91437793 65:0.021937933 66:0.083417892 67:0.1137395 68:0.36949763 69:0.050497845 70:0.066749938 71:0 72:0 73:0.82293028 74:0.00019700477 75:0.033442423 76:0.35575289 77:0.4412424 78:0.016063826 79:0.01233957 80:0 81:0 82:0.99999869 83:0 84:0 85:0 86:0 87:0 88:0 89:0 90:0 91:0.66179508 92:0.026571099 93:0.028100673 94:0.5221169 95:0.51934224 96:0.1300935 97:0.03577647 98:0 99:0 100:0.95739949 101:0.0008640248 102:0.0010427278 103:0.20824493 104:0.20003375 105:0.0014408652 106:0.0011203852 107:0 108:0 109:0.9981963 110:0.0005820755 111:4.9043174e-05 112:0.0021828867 113:0.059416331 114:0.0080243256 115:0.0016630732 116:0 117:0 118:0.9991101 119:0.00036339875 120:0.01009441 121:0.035088167 122:0.017725782 123:0.0083177937 124:0.007792884 125:0 126:0 127:0.82107002 128:0.033047121 129:0.056979578 130:0.3649089 131:0.43326488 132:0.023846485 133:0.0075041065 134:0 135:0 136:0.99808919 137:0.025240883 138:0.032308493 139:0.0015920915 140:0.007343973 141:0.036167312 142:0.027664317 143:0 144:0 145:0.99941814 146:0 147:2.5276588e-05 148:0.033556692 149:0.0059650401 150:0 151:4.2885906e-05 152:0 153:0 154:0.99999917 155:0 156:0 157:0 158:0 159:0 160:0 161:0 162:0 163:0.99494678 164:0 165:0.001041246 166:0.086192027 167:0.05125244 168:0.0025452678 169:0.0035865137 170:0 171:0 172:0.99999785 173:0 174:0 175:0 176:0 177:0 178:0 179:0 180:0 181:0 182:0 183:0 184:0 185:0 186:0 187:0 188:0 189:0 190:0.99999911 191:0 192:0 193:0 194:0 195:0 196:0 197:0 198:0 199:0.99999911 200:0 201:0 202:0 203:0 204:0 205:0 206:0 207:0 208:0.99999702 209:0 210:0 211:0 212:0 213:0 214:0 215:0 216:0 217:0 218:0 219:0 220:0 221:0 222:0 223:0 224:0 
0.291269404654367 0.1295023779020325 0.2666982748406261 0.4232339474059412 0.2494185427792955 0.2192376875272755 0.3672628029964425 0.06624645098230102 0.2347773852830267 0.180734631397201 0.2967243312648054 0.1813539471360077 0.3214642984161775 0.3324766429246401 0.219115442589863 0.2417153399347731 0:0 1:0.070785157 2:0 3:0 4:0.70058358 5:0.7052291 6:0 7:0 8:0 9:0 10:0.94981772 11:0 12:0.20858538 13:0.14585011 14:0.17447993 15:0.0027015549 16:0.050916266 17:0 18:0 19:0.95305884 20:3.7032467e-05 21:0.01577799 22:0.18952368 23:0.23182653 24:0.027096104 25:0.032084741 26:0 27:0 28:0.99999785 29:0 30:0 31:0 32:0 33:0 34:0 35:0 36:0 37:0.99983001 38:0 39:0 40:0 41:0 42:0 43:0 44:0 45:0 46:0.014759033 47:0 48:0.060063571 49:0.30216596 50:0.95070863 51:0.023417341 52:0 53:0 54:0 55:0.29456624 56:0 57:0.030889532 58:0.71484679 59:0.62247181 60:0.00083706959 61:0.11742682 62:0 63:0 64:0.94897741 65:0 66:0.02971288 67:0.20652358 68:0.23596828 69:0.00037265022 70:0.014922942 71:0 72:0 73:0.69151866 74:3.8321963e-05 75:0.036957767 76:0.44997233 77:0.56219983 78:0.02803961 79:0.033201955 80:0 81:0 82:0.99999791 83:0 84:0 85:0 86:0 87:0 88:0 89:0 90:0 91:0.36706907 92:0.00047342974 93:0.060843322 94:0.68874091 95:0.62187374 96:0.02144316 97:0.00041066209 98:0 99:0 100:0.00091759273 101:0 102:0.0024342265 103:0.79041469 104:0.6112442 105:0.0036974729 106:0.040011507 107:0 108:0 109:0.95618695 110:0 111:0.01450583 112:0.16366278 113:0.23975116 114:0.021023735 115:0.028021621 116:0 117:0 118:0.99909216 119:0.022946661 120:0.0014447275 121:0.0067498465 122:0.034560271 123:0 124:0.0066047013 125:0 126:0 127:0.82648647 128:0.00024296166 129:0.042057712 130:0.33345661 131:0.45086235 132:0 133:0.026027998 134:0 135:0 136:0.92428446 137:0.0015341573 138:0.063361995 139:0.26213321 140:0.24062042 141:0.093446851 142:0.07958211 143:0 144:0 145:0.010748328 146:0 147:0.0029661127 148:0.78625596 149:0.61399812 150:0.055042285 151:0.040618904 152:0 153:0 154:0.843481 155:0 156:0.0020250659 157:0.47732726 158:0.24635126 159:0 160:0.00011359569 161:0 162:0 163:0.99999887 164:0 165:0 166:0 167:0 168:0 169:0 170:0 171:0 172:0.97157353 173:0.052591112 174:0.037811227 175:0.049687821 176:0.18171528 177:0.10319956 178:0.075537078 179:0 180:0 181:0.99995083 182:0 183:0.0074467547 184:0.00058526848 185:0.0055102427 186:0.002897436 187:0 188:0 189:0 190:0.041425128 191:0 192:0.0073249843 193:0.72866887 194:0.64411348 195:0.18109086 196:0.13993509 197:0 198:0 199:0 200:0 201:0 202:0 203:0 204:0 205:0 206:0 207:0 208:0.99999648 209:0 210:0 211:0 212:0 213:0 214:0 215:0 216:0 217:0.99999833 218:0 219:0 220:0 221:0 222:0 223:0 224:0 
